1059 128
CM001762.1 -0.062473 -0.121408 0.073190 0.354115 0.017467 -0.004309 0.092197 -0.154772 -0.168762 -0.172221 -0.210292 -0.081129 0.198486 0.103179 -0.225554 0.202104 0.359344 -0.356207 0.007303 0.056564 -0.156619 -0.113292 -0.086835 0.159676 0.045564 0.277366 -0.335054 -0.100842 0.113278 -0.123421 0.237217 -0.020725 0.151514 0.204426 0.159853 -0.443917 -0.277588 0.384742 -0.166064 0.160445 0.500244 -0.156026 -0.170026 0.321473 -0.234346 -0.207604 0.656438 0.039892 0.078952 0.036411 0.194307 -0.107493 0.656845 0.018548 0.147879 -0.515892 0.130366 0.438954 0.162164 -0.344905 0.693035 -0.241014 0.213504 -0.062683 0.095878 0.313862 0.803480 -0.069694 -0.052716 0.122460 -0.149623 0.090725 0.056187 -0.261709 0.434691 0.374401 0.275052 -0.311203 -0.093458 0.192726 0.255258 -0.348148 -0.440831 -0.082595 0.062961 0.041972 -0.099537 0.440092 -0.003647 0.078559 -0.379195 -0.425718 -0.338128 -0.167064 0.151770 0.060755 0.075958 -0.275639 0.094890 0.172023 -0.308964 0.630089 -0.191082 0.019334 0.006814 0.413932 0.434642 -0.144474 0.149512 0.017649 -0.448391 0.213246 0.001329 0.413045 0.169950 -0.077638 0.061261 -0.358372 -0.193522 0.251053 0.238640 0.030685 0.355217 -0.064966 0.440448 -0.203482 0.255432 0.558152
CP003078.1 0.000062 -0.149143 0.027439 0.379658 0.027613 0.088273 0.125181 -0.195155 -0.209931 -0.170468 -0.289612 -0.101108 0.216900 0.169355 -0.199396 0.148427 0.316804 -0.372734 -0.013256 0.027117 -0.164946 -0.144950 -0.130843 0.178046 0.093592 0.245573 -0.313412 -0.105406 0.123505 -0.116125 0.251329 -0.026701 0.135693 0.223348 0.161410 -0.451981 -0.323810 0.429796 -0.135405 0.147350 0.497958 -0.191432 -0.137370 0.296928 -0.229000 -0.191122 0.658286 0.021593 0.081107 0.070842 0.254667 -0.123390 0.665614 0.004142 0.192825 -0.535489 0.190426 0.444879 0.207124 -0.365853 0.668703 -0.157643 0.190699 -0.126938 0.094992 0.285548 0.773969 -0.066501 -0.028055 0.062671 -0.122372 0.101758 0.033076 -0.233849 0.460926 0.345591 0.233747 -0.356590 -0.093027 0.198053 0.252919 -0.293751 -0.345076 -0.091177 0.038959 0.072844 -0.153020 0.440378 -0.037131 0.070960 -0.378621 -0.371530 -0.261329 -0.190325 0.144047 0.015520 0.109009 -0.296008 0.057710 0.114945 -0.264953 0.606305 -0.150779 -0.024788 0.039308 0.432023 0.406665 -0.186850 0.182547 -0.014104 -0.422279 0.211929 -0.004680 0.412912 0.167537 -0.172285 0.035849 -0.358611 -0.180071 0.273867 0.203322 0.000503 0.312401 -0.113628 0.393445 -0.192284 0.268452 0.546372
CP009494.1 -0.013860 -0.129399 0.050378 0.321255 0.015668 0.081941 0.090210 -0.099950 -0.155124 -0.121099 -0.212796 -0.091520 0.201514 0.150296 -0.170429 0.199757 0.332771 -0.360820 0.024950 0.053456 -0.207681 -0.126785 -0.084826 0.144314 0.064273 0.300468 -0.290582 -0.128632 0.090796 -0.080035 0.222833 -0.094142 0.099629 0.208192 0.158123 -0.439789 -0.302817 0.420192 -0.162184 0.185343 0.488142 -0.165864 -0.166196 0.302597 -0.243341 -0.229498 0.655192 0.002753 0.065391 0.031248 0.276220 -0.126531 0.718075 0.032414 0.205664 -0.548879 0.091401 0.452503 0.163761 -0.355801 0.673313 -0.246803 0.240109 -0.069271 0.141367 0.322997 0.777443 -0.036051 -0.083169 0.065346 -0.123929 0.099930 0.054219 -0.227526 0.435519 0.343214 0.257764 -0.269735 -0.083475 0.179038 0.301195 -0.332349 -0.362717 -0.063907 0.050959 0.028050 -0.152728 0.415513 -0.021383 0.101731 -0.417495 -0.335343 -0.277773 -0.151504 0.140363 0.021732 0.066013 -0.278253 0.084907 0.118260 -0.300665 0.644112 -0.158652 -0.005146 -0.025531 0.466827 0.433200 -0.177539 0.181409 0.023142 -0.491008 0.207101 -0.019548 0.378127 0.198011 -0.084687 0.006869 -0.324996 -0.186688 0.272368 0.189971 -0.052335 0.292277 -0.054024 0.379375 -0.204960 0.264535 0.515850
JF734911 -0.226410 -0.395958 -0.298811 0.017200 0.279189 0.412576 -0.187763 0.166244 -0.031648 0.184247 -0.442883 0.127017 -0.028024 0.168637 0.151538 -0.250734 0.575293 0.136427 -0.182402 0.334381 0.054916 0.007839 -0.519514 0.522359 0.125558 0.178017 -0.509764 -0.088963 -0.422702 -0.209984 0.511991 0.337067 0.036661 0.196119 -0.551865 0.148815 -0.240096 0.096979 -0.337824 0.042790 -0.010643 0.148267 -0.526797 0.585177 0.022061 -0.018653 0.001156 -0.540554 -0.189887 0.546983 0.436240 0.155601 0.398023 0.126648 -0.224545 -0.267470 -0.197390 0.431312 -0.161620 0.017153 0.979648 0.442084 -0.033766 0.511533 0.201024 0.384666 0.528743 0.013114 0.095963 -0.269853 0.096153 0.401896 -0.102265 -0.599145 0.016298 0.176360 -0.114895 0.324652 -0.346975 0.495673 0.270820 -0.825904 -0.294012 -0.164879 -0.316826 0.219141 0.132289 0.120807 -0.034067 -0.007514 0.082758 -0.122097 -0.230719 -0.065566 -0.337692 0.001352 -0.305172 0.116990 -0.504172 -0.217708 -0.042069 0.323909 -0.120414 0.387633 0.374144 0.443542 0.251370 -0.501344 0.112553 -0.270007 -0.082447 0.541008 0.107974 0.232240 0.064136 -0.286225 -0.230044 0.041788 0.009934 0.443090 -0.053993 0.555336 -0.318965 0.615357 0.601501 -0.212308 -0.700755 0.093715
JQ062992 -0.049295 -0.192217 -0.181173 0.307212 0.239644 0.262528 -0.011523 -0.006587 0.021108 0.114215 -0.376655 -0.081845 -0.530931 0.327269 -0.097488 -0.508693 -0.273338 -0.270404 0.034532 0.158757 0.553935 -0.637905 -0.732054 0.151757 -0.113506 0.143940 -0.524994 -0.125506 -0.200143 0.323865 0.540793 -0.290849 0.271386 -0.062027 -0.195188 -0.763037 0.095859 0.001633 -0.538724 -0.002010 0.102189 -0.175247 -0.088881 0.934299 -0.741902 0.089997 0.122684 0.593727 -0.432058 0.638579 -0.227941 0.721566 0.581363 0.682580 -0.022448 -0.272686 0.111621 0.472205 -0.458709 -0.216819 0.463961 -0.093687 0.789464 0.282200 -0.207445 0.055369 0.685279 0.218357 -0.474351 0.182615 -0.049648 0.060510 0.108558 -0.391185 -0.292945 0.728443 -0.269453 -0.195970 -0.336763 0.302795 -0.047811 -0.635964 -0.522341 0.183639 -0.317004 -0.260537 -0.446671 0.566383 -0.095663 0.154430 0.033503 0.146586 0.027868 -0.168688 -0.016486 -0.232177 -0.329998 -0.562858 -0.195489 0.147789 -0.231242 0.422083 -0.426156 0.011353 0.488782 0.159433 -0.351204 0.277275 0.491776 -0.206399 -0.231698 0.361077 -0.591256 0.000749 -0.143066 0.086571 0.055698 0.219372 0.035215 0.120439 0.231218 0.848170 0.001731 -0.128555 0.723744 -0.010406 0.087873 -0.159485
AB102868 0.419219 0.244082 -0.075149 0.014471 -0.051138 0.487857 0.148894 -0.173447 -0.108194 -0.228944 -0.358852 -0.215836 -0.082344 0.159436 0.127452 0.199277 0.004679 0.206259 0.025654 0.206999 -0.183408 -0.231824 -0.462144 -0.122388 0.227177 0.006315 0.058390 -0.523857 0.043778 0.171809 0.431569 0.084956 -0.199789 -0.289049 -0.246594 -0.212242 -0.365355 0.122051 -0.028114 -0.117908 -0.156013 -0.337465 -0.270944 0.210105 0.198849 -0.337682 -0.167884 0.285949 -0.513137 0.072472 0.076605 -0.173756 0.271745 -0.087431 -0.197386 -0.400652 -0.048591 -0.175299 -0.295922 -0.064012 0.526912 -0.051595 0.094546 0.039319 0.022721 0.072705 0.389394 0.089304 -0.413681 0.233165 0.380514 0.217716 0.044113 -0.198511 -0.063117 0.115101 -0.061368 0.077997 -0.143505 0.120433 -0.119521 -0.027110 -0.494403 -0.024280 -0.472153 -0.336107 0.008847 0.101497 -0.065073 -0.406986 -0.162087 0.275287 -0.102608 0.071071 -0.126493 0.412127 -0.396158 0.044835 0.040493 0.224781 0.138513 0.308017 0.027950 0.012738 0.339944 0.212058 -0.053818 0.147584 0.126652 0.169177 -0.078039 -0.104750 -0.313685 0.436935 0.027891 0.242660 -0.249103 -0.016815 -0.233927 0.180084 0.071742 0.330996 0.051031 -0.073334 0.538947 0.024423 -0.574925 0.365000
KJ802832 0.400722 0.171089 -0.101544 0.036362 -0.065792 0.460940 0.148222 -0.184650 -0.122099 -0.245722 -0.384117 -0.188688 -0.089765 0.158763 0.140567 0.186043 0.032977 0.187251 0.041252 0.200363 -0.175171 -0.209014 -0.451991 -0.136849 0.198957 0.014645 0.027978 -0.474301 0.006434 0.172657 0.415245 0.071323 -0.208402 -0.290985 -0.258557 -0.229857 -0.357128 0.095784 -0.021961 -0.115909 -0.182094 -0.337148 -0.296667 0.213625 0.237081 -0.324740 -0.179735 0.287239 -0.476391 0.074348 0.033462 -0.198720 0.259304 -0.106394 -0.220421 -0.390673 -0.052007 -0.198101 -0.318811 -0.052974 0.543451 -0.076148 0.066578 0.007232 0.052467 0.067470 0.374787 0.084168 -0.374566 0.267257 0.345295 0.210262 0.027230 -0.196379 -0.059995 0.143181 -0.038647 0.035206 -0.147390 0.134483 -0.141070 -0.019018 -0.563853 -0.041925 -0.475062 -0.336338 0.020170 0.093208 -0.104120 -0.422148 -0.172480 0.269003 -0.135380 0.085791 -0.137756 0.412432 -0.383665 0.015235 0.055023 0.210923 0.137279 0.345415 0.037813 -0.001880 0.337517 0.226391 -0.045945 0.193234 0.096587 0.141659 -0.071865 -0.099336 -0.327256 0.434399 0.046329 0.300355 -0.252176 0.022437 -0.234010 0.200546 0.045677 0.351899 -0.009230 -0.062120 0.509441 0.054834 -0.593007 0.386440
KC677662 0.382903 0.224132 -0.079574 0.030086 -0.037701 0.468960 0.131486 -0.196106 -0.120137 -0.190081 -0.355711 -0.208027 -0.100183 0.160636 0.130045 0.191951 -0.005315 0.206241 0.006271 0.228025 -0.169991 -0.243352 -0.446161 -0.146202 0.245034 0.017336 0.047570 -0.532133 0.050342 0.151607 0.458446 0.087292 -0.206826 -0.287538 -0.264290 -0.221321 -0.369492 0.118938 -0.003676 -0.132752 -0.146762 -0.353424 -0.248208 0.220799 0.223027 -0.328698 -0.158741 0.291198 -0.533588 0.058993 0.075373 -0.191621 0.294599 -0.073590 -0.218325 -0.399254 -0.066860 -0.181461 -0.301023 -0.067549 0.541511 -0.059433 0.107946 0.033538 0.023306 0.085370 0.396074 0.065898 -0.379842 0.253058 0.386349 0.181578 0.058901 -0.202261 -0.062253 0.137479 -0.060552 0.058648 -0.168063 0.144872 -0.136752 -0.042140 -0.527716 -0.026672 -0.474053 -0.336036 0.019057 0.110034 -0.070345 -0.443727 -0.149521 0.297186 -0.110600 0.085506 -0.155496 0.419885 -0.395326 0.047837 0.053387 0.235900 0.146854 0.337167 0.040045 -0.006036 0.351712 0.244903 -0.040984 0.161248 0.122314 0.161412 -0.086999 -0.089457 -0.317599 0.448836 0.051180 0.234800 -0.250470 0.000200 -0.258696 0.179072 0.061559 0.355641 0.025918 -0.073672 0.534243 0.020798 -0.581198 0.386205
KC911857 0.399138 0.203967 -0.113305 0.055289 -0.065270 0.490110 0.159425 -0.199023 -0.133349 -0.244532 -0.372660 -0.191486 -0.096681 0.172700 0.150276 0.213599 0.024892 0.222269 0.031924 0.223773 -0.166434 -0.229572 -0.467608 -0.126805 0.221493 0.031822 0.034831 -0.508685 0.011966 0.164856 0.459805 0.081773 -0.216220 -0.283536 -0.287544 -0.224735 -0.386771 0.106398 -0.008879 -0.124814 -0.171320 -0.346910 -0.272720 0.205336 0.243730 -0.321280 -0.176167 0.278953 -0.490616 0.056938 0.072549 -0.184466 0.289340 -0.099760 -0.222780 -0.363467 -0.065368 -0.211226 -0.307437 -0.069274 0.549246 -0.070287 0.102564 -0.007573 0.040956 0.084927 0.395998 0.065481 -0.373637 0.262604 0.367998 0.195244 0.046582 -0.175097 -0.056265 0.176040 -0.026922 0.041738 -0.178109 0.166195 -0.127547 -0.018362 -0.582776 -0.024510 -0.502868 -0.334457 0.025661 0.092721 -0.123927 -0.435600 -0.169156 0.311009 -0.119554 0.098624 -0.141519 0.410828 -0.379894 0.034996 0.045653 0.229694 0.152465 0.365340 0.021640 0.009024 0.340301 0.225378 -0.061040 0.179581 0.098945 0.150532 -0.089653 -0.095110 -0.318597 0.416420 0.043070 0.246030 -0.238631 0.027876 -0.230518 0.193024 0.048342 0.356404 -0.021551 -0.066563 0.487438 0.036905 -0.563854 0.374767
AB362338 0.424442 0.229716 -0.073408 0.041028 -0.052472 0.487211 0.146474 -0.186692 -0.110190 -0.220170 -0.375147 -0.186713 -0.101239 0.165418 0.141749 0.211096 0.029244 0.219743 0.014476 0.221942 -0.183529 -0.230392 -0.469071 -0.117512 0.222319 -0.013644 0.067002 -0.521525 0.056575 0.159242 0.438296 0.093753 -0.204939 -0.280815 -0.253796 -0.232931 -0.368225 0.118382 -0.032508 -0.112542 -0.136602 -0.320817 -0.278861 0.207128 0.203603 -0.336491 -0.157715 0.271253 -0.513074 0.086396 0.076354 -0.206627 0.272655 -0.079642 -0.198021 -0.405447 -0.053358 -0.187485 -0.307318 -0.074722 0.527088 -0.070450 0.086725 0.024760 0.011488 0.080435 0.367337 0.079866 -0.386861 0.217955 0.374798 0.188643 0.046781 -0.204974 -0.036754 0.124798 -0.049888 0.064055 -0.143657 0.113277 -0.138588 -0.028015 -0.522067 -0.021310 -0.477851 -0.331798 0.032957 0.078776 -0.076996 -0.426301 -0.156612 0.282318 -0.116306 0.084152 -0.126778 0.415374 -0.391545 0.035013 0.038310 0.221692 0.129351 0.324343 0.045975 0.015420 0.340863 0.212632 -0.060043 0.184671 0.119723 0.167594 -0.077833 -0.095687 -0.327261 0.435852 0.043058 0.271694 -0.242753 -0.006338 -0.222189 0.191653 0.043214 0.360516 0.043609 -0.065686 0.531842 0.032116 -0.590431 0.375533
KJ000058 0.431000 0.240315 -0.084316 0.002624 -0.054892 0.510199 0.161239 -0.190908 -0.103520 -0.243584 -0.360245 -0.222808 -0.112013 0.157534 0.127344 0.212633 0.008786 0.196667 0.021581 0.183450 -0.150028 -0.233965 -0.444258 -0.147438 0.204980 0.003825 0.051240 -0.489590 0.058647 0.175050 0.420011 0.070758 -0.188299 -0.283367 -0.236119 -0.207821 -0.364390 0.103163 -0.028627 -0.106239 -0.174771 -0.341565 -0.256780 0.230319 0.221463 -0.348275 -0.170171 0.295162 -0.513982 0.082405 0.041708 -0.208322 0.244864 -0.101978 -0.209251 -0.387301 -0.040194 -0.176102 -0.292289 -0.059298 0.533606 -0.056275 0.081127 0.041826 0.052644 0.063032 0.365200 0.054200 -0.386122 0.266295 0.373723 0.185554 0.028019 -0.192956 -0.054441 0.115764 -0.033739 0.062669 -0.147241 0.130801 -0.135103 -0.030192 -0.528185 -0.038365 -0.454074 -0.329516 0.020236 0.083229 -0.065153 -0.400473 -0.147152 0.253486 -0.131661 0.099136 -0.134073 0.421201 -0.387328 0.057073 0.060695 0.214569 0.140404 0.304971 0.026374 0.003206 0.339215 0.203346 -0.030543 0.175591 0.129038 0.173084 -0.085995 -0.085224 -0.321752 0.480264 0.030460 0.297733 -0.226681 -0.005225 -0.228071 0.186539 0.052026 0.361660 0.047218 -0.052431 0.537145 0.040054 -0.592046 0.374788
KC911856 0.396709 0.250868 -0.062968 0.065674 -0.072797 0.480294 0.161885 -0.170461 -0.124835 -0.241395 -0.385370 -0.181090 -0.094934 0.177912 0.109021 0.211342 0.033549 0.243338 0.033142 0.227566 -0.146539 -0.241046 -0.462248 -0.078654 0.202627 -0.008579 0.063441 -0.508903 0.025642 0.153236 0.454130 0.083667 -0.172823 -0.283115 -0.240273 -0.228153 -0.361303 0.111400 -0.067977 -0.102790 -0.171100 -0.333634 -0.278339 0.189212 0.221747 -0.324322 -0.179588 0.290912 -0.482828 0.052385 0.090433 -0.188897 0.297057 -0.085546 -0.159854 -0.382881 -0.068974 -0.177546 -0.266399 -0.086197 0.508715 -0.073648 0.091960 0.020955 0.009521 0.058543 0.378351 0.087892 -0.369942 0.223880 0.362696 0.195621 0.054921 -0.167904 -0.082854 0.127327 -0.022743 0.060701 -0.143829 0.151281 -0.102480 -0.024118 -0.542672 -0.000878 -0.476005 -0.332106 0.038653 0.071827 -0.116766 -0.411813 -0.142965 0.279328 -0.115894 0.085633 -0.110931 0.413851 -0.365044 0.040772 0.080621 0.222245 0.132782 0.314619 0.059765 0.043764 0.358501 0.229873 -0.055695 0.171471 0.108773 0.187089 -0.109144 -0.108080 -0.359634 0.427525 0.029277 0.320356 -0.249175 -0.009072 -0.201280 0.190899 0.044170 0.370808 0.025984 -0.068399 0.535815 0.051125 -0.612418 0.384350
AB426868 0.406907 0.203499 -0.057441 0.037112 -0.040447 0.468315 0.162698 -0.190648 -0.119518 -0.243113 -0.384728 -0.213292 -0.067062 0.177939 0.141686 0.212946 0.002576 0.176263 0.031754 0.203844 -0.206369 -0.227591 -0.485085 -0.121729 0.225858 -0.004474 0.069168 -0.535505 0.021457 0.155789 0.434477 0.108723 -0.220126 -0.287171 -0.226593 -0.206978 -0.367284 0.134569 -0.031685 -0.105220 -0.175789 -0.342613 -0.290605 0.203226 0.217676 -0.314357 -0.197124 0.284157 -0.507411 0.073059 0.072284 -0.191026 0.272828 -0.097261 -0.196247 -0.413583 -0.057447 -0.185479 -0.277692 -0.070300 0.523048 -0.074397 0.088624 0.039870 0.013531 0.070094 0.356373 0.099459 -0.382458 0.198274 0.361819 0.194050 0.046958 -0.205925 -0.086273 0.105003 -0.067341 0.042889 -0.110707 0.121950 -0.135103 -0.011256 -0.509564 -0.032926 -0.439372 -0.349910 0.020275 0.091715 -0.084783 -0.424266 -0.154373 0.289125 -0.127242 0.097737 -0.123096 0.428725 -0.392354 0.053279 0.061130 0.210093 0.166384 0.320234 0.066338 0.008704 0.346817 0.233775 -0.035268 0.138935 0.143031 0.153345 -0.089490 -0.100790 -0.328803 0.455822 0.033400 0.278799 -0.273527 0.002998 -0.251726 0.168506 0.044898 0.347937 0.035006 -0.052833 0.532499 0.026914 -0.568407 0.360444
JQ965645 0.408088 0.228339 -0.047835 -0.000866 -0.020875 0.462297 0.160581 -0.183547 -0.091764 -0.194740 -0.352048 -0.221630 -0.085815 0.154264 0.145259 0.197843 0.014392 0.213892 0.001368 0.223575 -0.181601 -0.261619 -0.468771 -0.114798 0.250923 0.026502 0.103221 -0.552370 0.072575 0.158662 0.442626 0.099821 -0.206414 -0.267018 -0.238720 -0.203438 -0.386721 0.146562 -0.002461 -0.121520 -0.119687 -0.313739 -0.250446 0.233468 0.194120 -0.344793 -0.167091 0.273368 -0.547380 0.087844 0.104593 -0.182541 0.291376 -0.089735 -0.187489 -0.401613 -0.052055 -0.182058 -0.305220 -0.096948 0.516247 -0.050683 0.117542 0.041980 0.016515 0.086853 0.371384 0.060772 -0.418229 0.194573 0.387522 0.169452 0.046111 -0.210195 -0.022886 0.127099 -0.097182 0.069069 -0.141668 0.115634 -0.144136 -0.023896 -0.480773 0.006992 -0.475614 -0.305887 0.009158 0.085364 -0.054344 -0.430962 -0.144383 0.304463 -0.078898 0.075565 -0.171484 0.406628 -0.394323 0.067153 0.011897 0.220352 0.139190 0.316477 0.029743 -0.012900 0.336913 0.217922 -0.042641 0.143198 0.170303 0.137420 -0.093501 -0.111055 -0.326034 0.472756 0.021133 0.220166 -0.244819 -0.026516 -0.230072 0.210330 0.057867 0.350079 0.058949 -0.083921 0.557673 0.014870 -0.563312 0.382193
AP013029 -0.133689 -0.444566 0.093850 0.606779 -0.104054 0.063778 0.243172 0.058257 0.019787 0.004850 -0.964199 0.063352 0.140554 0.512038 -0.361144 -0.289428 0.554301 0.091609 1.089680 -0.184980 -0.635191 -0.686419 -0.554029 0.269460 -0.023740 0.336326 -0.348683 -0.337951 -0.552804 0.439156 0.267401 -0.010450 0.292588 -0.087001 0.008730 -0.401889 0.073843 0.143642 -0.297446 0.489836 -0.622963 0.000455 -0.736160 0.745985 -0.164388 -0.756429 -0.355036 -0.145773 -0.138031 0.796730 -0.132294 0.299614 0.219084 -0.042146 -0.152514 -0.817344 0.191812 0.120898 -0.193210 0.018006 0.970102 -0.189519 0.572670 0.945479 0.099324 0.099009 0.278647 0.466235 -0.355875 0.075813 0.008859 0.584024 0.427502 0.045731 0.180634 0.271874 -0.305405 -0.202048 0.025255 0.560777 0.350253 -0.391592 -0.670579 0.104411 0.401244 -0.398568 0.009040 0.050850 0.243107 0.142819 -0.240754 0.064964 -0.205504 -0.207381 -0.337933 0.235183 -0.097471 0.120767 0.023270 0.330947 0.332081 0.730559 0.204241 0.449508 -0.169979 -0.256460 0.631243 -0.092012 -0.412996 0.357191 -0.489553 0.020822 0.067655 0.224805 0.253233 0.472242 -0.211049 -0.291642 0.019210 0.462781 -0.177717 0.345890 0.178011 0.350534 0.331139 -0.354044 -0.166756 -0.247080
AF424781 -0.334727 -0.401914 -0.070287 0.570123 0.218666 0.190734 0.086048 -0.324044 -0.084747 -0.143731 -1.040321 0.138348 0.091052 -0.011075 -0.167788 -0.364455 0.665863 -0.026465 0.428264 0.533101 0.374730 -0.254513 -0.936088 0.260470 0.148626 0.695997 0.390263 -0.343058 -0.252571 -0.071681 0.001074 0.050830 0.047298 -0.109947 -0.030475 -0.277963 -0.278093 0.409552 -0.522366 0.395272 -0.159617 -0.183598 -0.469527 0.723649 -0.181071 -0.366212 0.144696 0.084962 -0.206757 0.448550 0.236233 0.086047 1.107138 -0.117740 -0.241789 0.112891 0.138752 0.412202 -0.621662 0.273183 0.542900 -0.140585 -0.043246 0.395635 -0.390800 -0.166708 0.059005 0.121141 -0.018187 0.131514 -0.166508 0.200548 0.034414 -0.120727 -0.104723 0.331787 -0.317168 0.065038 -0.453924 -0.582335 0.087566 -0.143283 0.022157 -0.172714 -0.383967 -0.311147 -0.279424 0.460896 -0.154087 -0.097190 -0.409090 0.301512 0.026913 -0.039254 -0.321024 -0.199406 0.013479 -0.204965 0.240645 0.085930 -0.152346 0.140703 0.196643 0.296238 0.137605 0.265503 0.423918 0.208858 -0.075812 -0.086919 0.109158 0.147520 -0.065584 0.013895 0.061874 -0.342339 0.417531 0.164162 -0.514040 0.237952 0.582228 0.176874 -0.199696 0.004444 0.740559 -0.412697 -0.150989 0.054221
AF424783 -0.302646 -0.405885 -0.067267 0.543699 0.199276 0.213399 0.089642 -0.299178 -0.059314 -0.129378 -1.042948 0.130302 0.095956 0.010989 -0.159212 -0.372683 0.657661 0.001686 0.430844 0.534989 0.391176 -0.279543 -0.935541 0.276089 0.161166 0.718985 0.406850 -0.376903 -0.247614 -0.071965 0.008969 0.023782 0.058443 -0.102548 -0.055861 -0.284519 -0.300343 0.412403 -0.557193 0.411376 -0.159072 -0.197550 -0.452898 0.686281 -0.175158 -0.413101 0.146813 0.086517 -0.229934 0.425686 0.288395 0.083839 1.141287 -0.114050 -0.231892 0.133463 0.142609 0.441668 -0.612444 0.280370 0.549744 -0.126874 -0.061810 0.404175 -0.379311 -0.173398 0.070695 0.084085 -0.032158 0.161439 -0.125179 0.199221 0.041548 -0.103054 -0.104737 0.324933 -0.328492 0.097119 -0.458785 -0.590488 0.108250 -0.151120 0.059897 -0.171375 -0.402108 -0.312461 -0.284251 0.440922 -0.177298 -0.058476 -0.416432 0.279155 0.047885 -0.056102 -0.322182 -0.223772 0.008107 -0.232646 0.246071 0.093223 -0.170087 0.127745 0.215099 0.287994 0.154602 0.241192 0.407397 0.203114 -0.075314 -0.076244 0.105507 0.143061 -0.077994 0.024599 0.065471 -0.351611 0.413294 0.160998 -0.500516 0.239470 0.598316 0.130768 -0.208669 0.008434 0.722020 -0.414488 -0.145185 0.078981
KC801932 0.061229 -0.325218 -0.058920 -0.045256 0.516553 0.094134 0.068019 -0.118814 -0.123012 -0.295926 -0.645524 0.138012 0.005715 0.319967 -0.260545 -0.450131 0.295992 -0.107528 0.325435 0.523692 0.029417 -0.649667 -0.749814 0.096625 0.385418 0.244959 -0.292511 -0.064034 -0.031887 -0.397720 0.242576 -0.050797 0.476318 -0.317493 -0.307544 -0.075157 0.153799 0.464026 0.299140 -0.090227 0.093594 0.078666 -0.650035 0.143956 -0.393167 0.388525 -0.271601 -0.136580 -0.020730 0.077572 0.436084 0.053290 0.534722 0.145419 -0.187474 -0.399039 0.497574 0.326938 -0.634607 -0.462965 0.207855 0.115071 -0.171088 0.260797 0.302979 -0.110335 0.216723 -0.129217 -0.522737 0.055697 -0.017264 -0.067430 0.116076 -0.348284 0.100423 0.001660 0.238335 0.122961 0.377562 0.309340 0.213726 -0.665064 -0.664782 -0.119859 -0.028774 0.065439 -0.444208 0.221162 -0.130316 -0.165436 0.198621 0.246435 0.064537 -0.105364 -0.188032 0.036867 -0.259493 -0.140685 0.257555 0.274132 -0.477611 0.533298 0.048766 0.332255 -0.099287 0.015027 -0.007892 0.468468 0.226245 0.181032 -0.693893 0.007654 0.454367 0.006826 0.159043 0.078075 0.167012 0.043969 0.108905 0.133936 0.049569 0.278534 -0.067979 0.257795 0.223161 -0.613425 -0.303910 0.170871
AF424782 -0.316474 -0.415438 -0.080569 0.588725 0.212394 0.184863 0.080689 -0.328886 -0.079183 -0.169312 -1.052597 0.163659 0.097115 -0.047226 -0.164778 -0.359066 0.675660 -0.037441 0.405927 0.517353 0.361881 -0.215829 -0.929742 0.260598 0.138467 0.651623 0.362743 -0.328939 -0.241073 -0.076022 -0.032175 0.076975 0.055553 -0.133437 -0.005122 -0.292097 -0.246681 0.388990 -0.526899 0.385387 -0.166909 -0.198072 -0.463500 0.727111 -0.190436 -0.374840 0.150745 0.108986 -0.187839 0.420325 0.211748 0.064946 1.095009 -0.124241 -0.233570 0.093007 0.130342 0.421311 -0.673897 0.290982 0.528020 -0.134500 -0.015439 0.364389 -0.401286 -0.168345 0.083466 0.150885 -0.010401 0.108796 -0.181076 0.231408 0.025481 -0.158979 -0.091845 0.322603 -0.296411 0.069681 -0.473095 -0.585915 0.061187 -0.147052 0.015726 -0.147382 -0.395853 -0.303392 -0.274765 0.458749 -0.101555 -0.093988 -0.433073 0.299241 0.019077 -0.043656 -0.315142 -0.181999 0.002560 -0.210415 0.219737 0.100570 -0.167769 0.143190 0.185713 0.308273 0.120359 0.277405 0.417014 0.211263 -0.084696 -0.085881 0.116419 0.138816 -0.047735 -0.016107 0.046527 -0.352113 0.419109 0.166500 -0.509728 0.239765 0.577251 0.176270 -0.188549 -0.006682 0.755039 -0.408528 -0.159181 0.039189
EF056009 0.023192 -0.312238 -0.028024 -0.040039 0.505472 0.091155 0.073047 -0.138091 -0.121838 -0.255370 -0.613555 0.128016 0.002078 0.329456 -0.243978 -0.420391 0.288727 -0.118563 0.352837 0.540068 -0.018432 -0.634276 -0.778400 0.051326 0.384148 0.232450 -0.292368 -0.076843 -0.012874 -0.357137 0.263278 -0.035313 0.439761 -0.314885 -0.313767 -0.074328 0.180117 0.472185 0.308910 -0.088613 0.076924 0.081645 -0.683926 0.170187 -0.415780 0.385960 -0.278757 -0.126514 -0.028996 0.095582 0.439542 0.078630 0.550669 0.156385 -0.206922 -0.417546 0.472029 0.324551 -0.663454 -0.472690 0.221923 0.083032 -0.145799 0.300352 0.290704 -0.076182 0.249660 -0.122008 -0.536998 0.019378 -0.027406 -0.079938 0.137889 -0.354460 0.102316 -0.030515 0.202162 0.106171 0.427895 0.299102 0.217541 -0.664405 -0.680974 -0.110354 0.001409 0.016587 -0.448684 0.239519 -0.123431 -0.181013 0.185381 0.269208 0.053532 -0.124429 -0.200502 0.024507 -0.270011 -0.121868 0.273401 0.273633 -0.462567 0.532736 0.062597 0.331976 -0.086095 0.045037 -0.023220 0.456952 0.218463 0.202847 -0.715463 0.017594 0.427123 -0.002921 0.166291 0.087445 0.158744 0.024541 0.086874 0.124331 0.059645 0.298332 -0.033153 0.244542 0.207499 -0.604197 -0.288498 0.133614
HM173637 0.079595 -0.326436 -0.061597 -0.081079 0.514236 0.091973 0.067234 -0.123640 -0.131324 -0.313218 -0.617932 0.130089 0.029468 0.335213 -0.238440 -0.420267 0.295531 -0.119936 0.325203 0.530567 -0.000716 -0.626424 -0.743391 0.104612 0.406101 0.264405 -0.283297 -0.072038 -0.037400 -0.416513 0.233206 -0.052553 0.450135 -0.331851 -0.283047 -0.058620 0.155340 0.494914 0.306085 -0.071057 0.059006 0.083294 -0.641272 0.127923 -0.377999 0.376984 -0.273342 -0.130635 -0.025550 0.076842 0.436876 0.045210 0.554939 0.141416 -0.188821 -0.414816 0.477662 0.335597 -0.627843 -0.448885 0.227184 0.121404 -0.192234 0.298180 0.326205 -0.117789 0.232134 -0.116231 -0.561279 0.041145 -0.004060 -0.045230 0.098763 -0.346124 0.083336 -0.043715 0.219986 0.129327 0.388430 0.313065 0.223599 -0.678186 -0.668372 -0.128443 -0.006779 0.028833 -0.453505 0.235089 -0.123147 -0.189996 0.212585 0.240975 0.068783 -0.114291 -0.180472 0.059117 -0.285593 -0.141424 0.247150 0.243496 -0.466900 0.522153 0.050335 0.338169 -0.108506 0.025321 -0.002818 0.408335 0.210201 0.179126 -0.700816 0.029464 0.451516 0.008750 0.162352 0.069871 0.131539 0.022524 0.112660 0.115389 0.042629 0.260737 -0.062629 0.281106 0.239841 -0.616065 -0.310539 0.184350
JF770475 0.042609 -0.303701 -0.038520 -0.034732 0.492429 0.096261 0.104030 -0.104166 -0.115406 -0.309512 -0.612063 0.109210 0.003880 0.377789 -0.243614 -0.417404 0.295319 -0.107028 0.350003 0.545298 -0.000840 -0.621043 -0.771887 0.081091 0.394664 0.265264 -0.292212 -0.068790 -0.031132 -0.387999 0.249199 -0.027534 0.437023 -0.323253 -0.292493 -0.040637 0.174527 0.469952 0.288420 -0.063101 0.062014 0.073505 -0.651683 0.153805 -0.387331 0.408290 -0.266365 -0.160471 -0.034711 0.080445 0.468371 0.069516 0.559540 0.169170 -0.182537 -0.402259 0.475222 0.339671 -0.640143 -0.485626 0.231518 0.092941 -0.179281 0.308018 0.329134 -0.106657 0.249179 -0.111986 -0.552988 0.050322 -0.009772 -0.063458 0.126298 -0.345678 0.081135 -0.033044 0.246543 0.104363 0.414807 0.323033 0.254144 -0.665193 -0.693420 -0.124695 -0.014652 0.023248 -0.431243 0.233725 -0.145869 -0.187105 0.198574 0.248559 0.058854 -0.102517 -0.186764 0.043297 -0.266148 -0.116323 0.256677 0.258457 -0.467781 0.524891 0.083180 0.325453 -0.100276 0.041715 -0.011623 0.463083 0.223711 0.218434 -0.732078 0.026819 0.427610 0.002304 0.180267 0.115213 0.163315 0.028846 0.093375 0.115532 0.041296 0.280368 -0.044810 0.306983 0.189497 -0.619606 -0.278922 0.151982
EU078592 0.078706 -0.321127 -0.089068 -0.045576 0.515577 0.099872 0.096950 -0.110921 -0.111026 -0.285543 -0.619897 0.104291 0.000414 0.342029 -0.236898 -0.444036 0.282022 -0.144924 0.327380 0.520257 0.060794 -0.635623 -0.759956 0.102739 0.391161 0.273175 -0.299877 -0.069340 -0.048965 -0.393269 0.241829 -0.075175 0.431490 -0.323297 -0.310431 -0.075902 0.141055 0.502280 0.310325 -0.041028 0.060884 0.077696 -0.633632 0.163784 -0.366170 0.393014 -0.275652 -0.115967 -0.039586 0.111863 0.427116 0.065922 0.528628 0.167375 -0.179440 -0.399988 0.452842 0.339945 -0.646776 -0.456571 0.248879 0.141604 -0.168384 0.280779 0.337458 -0.126823 0.219127 -0.108454 -0.562303 0.106368 -0.017725 -0.035102 0.096056 -0.367711 0.073875 0.013121 0.232386 0.117779 0.371921 0.325503 0.222685 -0.671574 -0.692270 -0.142220 -0.023090 0.072958 -0.471282 0.249410 -0.136922 -0.148546 0.199817 0.256918 0.061053 -0.094663 -0.199961 0.080275 -0.277988 -0.144796 0.234838 0.242137 -0.469421 0.530093 0.044942 0.300407 -0.104409 0.046194 -0.001078 0.443022 0.257419 0.163001 -0.715650 0.035635 0.411159 -0.004221 0.163207 0.085336 0.158615 0.065118 0.089609 0.146807 0.023118 0.263123 -0.074769 0.289788 0.258777 -0.612496 -0.282237 0.157730
EU734170 0.375585 0.220745 -0.012608 0.650380 -0.035242 0.555730 0.186684 0.174185 0.031305 0.218099 -0.464037 -0.188213 -0.364922 0.639025 -0.377443 -0.198646 0.077314 0.225781 0.419881 0.247160 0.568881 -0.577481 -0.883397 0.514287 -0.585211 0.262921 0.322270 -0.155708 0.364814 0.359292 -0.048867 -0.471424 0.306473 0.077735 0.102607 -0.396973 -0.671095 0.672693 -0.603708 0.671114 0.302176 0.175320 -0.050357 0.561883 -0.623432 -0.676099 -0.045063 0.212230 -0.594573 0.825013 0.852768 -0.288397 0.164848 0.390780 0.096839 0.056231 0.219846 0.744896 -0.500385 -0.374471 0.433935 -0.280110 -0.252253 0.944969 0.513257 -0.073324 -0.044178 -0.108766 -0.883586 0.290399 0.411686 0.057440 0.182987 -0.119040 -0.039791 -0.098962 0.285367 0.634115 -0.114564 0.241653 -0.153591 -0.307027 -0.273077 -0.259433 -0.024527 -0.037883 -0.364380 0.666778 0.096941 0.053518 -0.175243 -0.517587 0.144953 0.067007 0.047000 0.255718 -0.102826 -0.245178 0.161984 -0.064077 -0.372365 0.358202 0.100898 0.462611 0.209977 0.076277 0.096370 0.210014 0.525432 0.383674 -0.528610 0.353951 -0.240183 0.468208 0.198856 0.584195 0.014246 -0.245476 0.201869 0.316172 0.114146 0.200942 0.538161 0.512100 1.052625 -0.259992 0.005938 0.337545
AJ748296 -0.124139 -0.627855 -0.208802 0.274901 -0.055968 -0.318444 -0.035640 -0.343855 -0.785136 -1.112027 -0.765868 -0.130080 0.235454 -0.130110 -0.133559 0.126941 0.017797 -0.093897 0.721468 0.214912 -0.396209 -0.309824 -1.059059 1.026870 0.025139 0.388884 0.203751 0.200157 0.144618 0.163410 0.078851 0.356830 0.448362 0.039593 0.269381 -0.216496 -0.452810 0.270899 0.051210 -0.312544 0.383298 0.079164 -0.643580 0.745351 -0.585807 -0.118050 0.073096 0.051635 0.041787 0.532328 0.133596 -0.009313 0.780612 -0.126295 0.032907 -0.757488 0.519285 0.027447 -0.336730 -0.320730 0.370060 0.105051 0.201168 0.088936 -0.308090 -0.256387 0.509211 0.311681 -0.874189 -0.825278 -0.255263 0.379237 -0.166506 -0.570634 0.188825 0.036217 -0.295158 0.015055 -0.192592 0.216639 0.034771 -0.268741 -0.815777 -0.067316 -0.225865 -0.534241 0.265072 0.029608 -0.110867 -0.883374 -0.173166 0.031801 -0.270301 0.004429 0.095978 0.174827 -0.847620 -0.303786 -0.620722 -0.071664 0.272107 0.283201 -0.557336 0.797935 0.188128 -0.378874 0.111991 0.412503 0.153955 -0.049149 -0.117064 0.560775 -0.041720 0.500184 -0.311638 0.291428 -0.080053 -0.598518 0.384511 -0.022981 0.323486 0.354593 0.624177 -0.049178 0.833855 -0.318645 -0.155512 0.105737
HQ268735 0.063820 -0.644519 -0.255921 0.643790 -0.030367 0.196736 -0.250223 0.162725 -0.411271 0.118105 -0.587875 0.325097 0.133930 -0.032401 -0.149210 -0.068806 0.103187 -0.509129 0.136823 0.687125 -0.186752 0.124396 -0.948843 0.315702 0.166534 -0.517328 -0.505460 -0.370505 0.043187 0.058950 0.266406 -0.065535 0.049112 0.156866 -0.345804 -0.943178 -0.160924 0.546092 0.008398 0.323652 0.175610 -0.103200 -0.472362 0.022148 -0.574414 -0.053184 0.460925 -0.187972 0.247368 0.177076 0.166171 0.069613 0.583580 0.673483 0.112496 -0.711407 -0.114754 0.413373 -0.625165 0.362689 0.500345 0.266059 0.170343 0.113556 -0.106795 -0.036550 0.377567 0.882908 -0.133342 -0.077969 -0.300726 0.495700 0.121634 -0.556544 -0.141299 -0.371332 -0.082573 0.391461 -0.286103 -0.017225 0.448234 -0.334933 -0.649484 -0.111396 -0.402951 -0.393925 -0.281927 0.855606 0.471542 -0.010385 -0.342330 0.347423 0.053065 -0.233426 0.195313 0.556485 -0.467915 -0.301122 0.110298 0.323045 0.003892 0.665322 0.126007 0.325099 0.055044 0.068664 -0.415302 -0.103741 -0.016328 0.321038 0.036191 0.515320 -0.284131 -0.330171 0.250130 -0.269745 -0.036223 -0.043320 -0.259256 -0.066238 0.053402 0.259460 0.456511 0.341000 0.464171 -0.251111 -0.665087 -0.038499
HE962497 0.088682 -0.621962 -0.229877 0.642946 -0.041419 0.213796 -0.207915 0.132616 -0.396262 0.115789 -0.592236 0.309617 0.139122 -0.015967 -0.161489 -0.061915 0.078935 -0.527598 0.150591 0.664589 -0.226994 0.142087 -0.968447 0.298558 0.157361 -0.512610 -0.513197 -0.372854 0.042560 0.058942 0.256741 -0.080956 0.012349 0.174649 -0.324771 -0.960799 -0.117459 0.574452 0.012526 0.338543 0.168149 -0.094423 -0.481465 0.022612 -0.570202 -0.041684 0.445755 -0.198330 0.247217 0.199713 0.167148 0.070864 0.562061 0.685334 0.102865 -0.703762 -0.121596 0.403443 -0.636468 0.366800 0.522244 0.261268 0.162832 0.118100 -0.084241 -0.004954 0.364869 0.899680 -0.119492 -0.068850 -0.319519 0.501452 0.137039 -0.550215 -0.128740 -0.378020 -0.088617 0.382023 -0.284621 -0.026290 0.451380 -0.336715 -0.635321 -0.142653 -0.370543 -0.409617 -0.305836 0.887562 0.464102 -0.023201 -0.345270 0.350074 0.057020 -0.246353 0.196326 0.566199 -0.468984 -0.294238 0.124272 0.315801 0.035827 0.683065 0.160403 0.316327 0.054257 0.091002 -0.403388 -0.129815 -0.022810 0.323028 0.033491 0.520826 -0.256618 -0.315294 0.244830 -0.271705 -0.046622 -0.036299 -0.274301 -0.077942 0.038767 0.285312 0.437753 0.350036 0.461333 -0.250410 -0.655935 -0.061213
GQ979703 -0.042445 -0.537655 -0.478113 0.126964 0.237439 0.370677 0.416792 -0.103012 -0.054203 -1.079717 -0.829118 0.245566 -0.323213 0.505191 -0.099749 -0.509376 0.319622 -0.253052 0.067386 0.031773 0.082454 -0.520021 -1.107806 0.312933 -0.493638 0.183605 0.128729 -0.180748 -0.062213 0.250911 0.873399 -0.125032 0.343100 -0.098080 0.550799 -0.523558 -0.361603 0.148212 -0.823831 0.566914 0.564000 0.159751 -0.861007 0.592584 -0.138507 -0.696475 -0.142218 -0.330889 -0.336713 0.386031 0.201637 0.377002 0.587997 0.096036 -0.482944 -0.244098 0.467446 -0.002924 -0.056373 0.077657 0.727090 -0.176659 0.289972 0.067643 0.450058 -0.269844 0.036552 0.133753 -0.460610 0.013049 -0.152575 -0.279341 0.305998 -0.083291 0.281978 0.125937 0.251551 0.063093 -0.529799 0.531319 0.668992 -0.837134 -0.703107 -0.600135 -0.291512 -0.270173 -0.421800 -0.055618 -0.047721 -0.140961 -0.484616 -0.218931 -0.160809 0.333573 0.214865 0.243767 -0.528598 0.460695 -0.370704 0.221666 -0.129273 0.589247 0.076486 0.007343 0.303701 0.361705 0.050716 -0.399677 0.386972 0.144828 0.215323 -0.198344 -0.094853 0.359042 -0.407482 -0.228542 0.437514 0.462133 -0.079955 -0.345122 0.365316 0.347549 0.366770 0.473670 0.195616 -0.120657 -0.165768 -0.001750
AJ251789 0.464080 -0.466321 -0.146950 -0.145321 0.777890 0.554909 -0.132752 -0.471787 -0.204508 0.505088 -0.781998 -0.438522 0.218851 -0.255129 -0.187875 -0.397141 0.277256 -0.815101 -0.081661 -0.178224 0.108686 -0.676124 -0.790381 0.329357 0.349022 0.255240 -0.148886 -0.142840 0.180151 0.132235 0.191152 -0.202269 0.737851 -0.292805 0.048279 -0.050082 -0.767516 0.465421 0.208643 0.550633 0.007021 -0.101767 -0.083964 0.928659 -0.408014 -0.553078 0.057059 0.004526 0.022277 0.416598 -0.265046 0.106124 0.228715 -0.081589 -0.455141 -0.547510 0.230756 0.647662 -0.362735 0.142890 0.568661 0.381515 0.153992 0.470036 0.329862 0.183255 -0.110097 -0.232998 -0.450528 -0.073411 -0.268552 0.267101 0.114949 -0.673930 0.330492 -0.049053 -0.677105 0.556772 -0.352822 0.216403 -0.232428 -0.521624 -0.425076 -0.299081 0.430173 -0.050586 -0.712311 0.617531 0.945417 0.067474 -0.150438 0.151153 -0.138400 -0.263118 -0.573050 0.453666 -1.001856 0.209561 0.172903 0.088252 -0.298593 0.385130 -0.523340 -0.279115 -0.325067 0.406652 0.845274 -0.749247 0.231284 -0.143172 -0.461633 0.522068 0.181637 0.444471 0.231213 -0.415459 -0.038987 -0.141842 -0.523555 0.621464 0.118638 -0.129881 0.355868 -0.081231 0.997052 -0.376109 -0.296363 0.435300
FN594518 0.770856 -0.243994 0.064883 0.121975 -0.335440 -0.048954 -0.458868 -0.250688 0.244901 -0.438271 -0.485040 0.130842 -0.164665 0.220624 0.200475 -0.200218 0.362555 0.310049 0.068567 0.090792 -0.201089 -0.450725 -0.015824 0.106342 0.060330 -0.052118 0.104447 0.307545 -0.081653 0.314150 0.223594 0.042052 0.157957 0.123427 0.308569 -0.000345 -0.148698 -0.109688 -0.488323 0.233975 0.332436 0.225454 -0.068132 0.676074 -0.584806 -0.503896 0.196332 0.225301 -0.495404 0.310528 0.154126 -0.436029 1.232334 0.315222 -0.111515 -0.515074 -0.230913 0.687662 -1.354818 -0.308309 0.646506 -0.415176 0.235787 0.463760 0.007908 -0.314796 0.933079 0.241566 -0.647827 -0.318960 -0.200979 0.056113 -0.222223 -0.737755 0.675642 -0.405400 -0.255921 0.475364 -0.285959 0.178636 0.415308 -1.006843 -0.508913 0.109890 -0.148070 -0.370678 -0.093989 -0.115548 0.053649 -0.398620 -0.717517 0.198671 0.248386 -0.432806 -0.389501 -0.169210 -0.455132 -0.511853 0.027805 0.024663 -0.570625 0.226415 -0.108865 0.429993 -0.040373 0.696949 0.461005 0.257761 -0.493992 0.277887 -0.135102 0.108966 0.020654 -0.366007 0.512724 0.187243 0.061705 -0.165253 -0.450247 0.652096 0.155786 0.015814 0.394106 0.406869 0.383288 0.136909 -0.549218 0.300428
AF448724 0.510749 0.293246 -0.544725 0.490209 0.406284 1.082281 0.254549 -0.410278 -0.210437 -0.918517 -0.492341 -0.259004 -0.332093 0.279513 -0.053597 -0.024527 0.096617 0.246792 0.357300 0.079383 0.352367 -0.417385 -1.348804 0.681049 -0.104573 0.120342 -0.375945 0.224954 -0.112998 0.155617 -0.142072 -0.094347 0.161098 -0.600511 -0.137930 0.370053 -0.266245 0.352469 -0.390438 0.544135 -0.760352 -0.502090 -0.450639 1.001751 -0.847879 -0.013558 -0.432746 0.236010 -0.395372 0.790008 0.078078 0.026481 0.106321 0.261285 -0.258091 -0.143701 -0.103344 0.587646 -0.924414 0.344712 0.730917 0.241041 0.112787 0.460885 0.486927 -0.681683 -0.067091 0.340232 -0.861425 0.356291 -0.073316 0.816569 0.128642 -0.341200 -0.547509 -0.055230 0.777477 1.035047 -0.171786 0.611117 0.455141 -0.690615 -0.525831 -0.477312 0.269009 -0.427371 -0.315185 0.469308 -0.335223 -0.227433 -0.214942 0.657419 -0.365323 0.052331 0.260737 0.490937 -0.848060 -0.214818 0.326564 0.275956 0.329201 -0.304206 -0.283966 0.825962 -0.095183 0.005065 0.083145 0.095031 -0.247476 0.745039 -0.365581 0.684710 0.040011 -0.042244 -0.196690 0.105382 -0.049145 0.176467 -0.232390 0.228504 0.267904 0.573912 -0.127424 0.386176 1.309018 -0.526727 -0.831052 -0.263367
CP002495 0.291945 -0.667735 0.191414 -0.254301 0.086839 0.613558 0.656590 -0.623784 0.424463 -0.040597 -0.994647 0.118765 0.151994 0.010405 0.624412 -0.471083 0.607741 -0.333307 0.006025 0.085690 0.035122 -0.044838 -0.724420 0.398295 -0.183795 0.541723 -0.277432 -0.282690 0.145673 0.355996 0.248300 0.015421 -0.080761 -0.833642 0.424452 -0.289392 0.018742 -0.034360 -0.696767 -0.266761 -0.368139 -0.634362 -0.471760 0.371062 -0.476028 -0.085380 -0.050062 0.043708 0.023051 0.058486 0.521767 -0.103444 0.527829 -0.500554 -0.592012 -0.570568 -0.116011 0.657834 -0.901418 -0.375829 0.846977 -0.067150 0.125976 -0.132881 0.407349 0.307123 1.013934 0.092003 -0.419585 -0.555874 0.244463 0.880139 0.322636 -1.013360 0.460639 -0.156192 -0.037700 0.223858 0.150153 -0.030631 -0.207734 -0.687924 -0.081071 -0.014590 0.256037 -0.527698 -0.456992 0.301754 -0.307828 0.248780 -0.620636 -0.308739 -0.703449 -0.179382 -0.268882 -0.292491 -0.587383 -0.320326 -0.198626 -0.236246 -0.472815 -0.054358 0.226449 -0.014784 0.351257 0.509962 0.167911 0.248089 0.171456 0.043548 -0.527324 0.667422 0.057331 -0.109292 -0.082881 0.175014 -0.434978 0.367661 -0.093380 0.269886 0.780476 0.260300 0.103394 -0.148402 0.149574 -0.102104 -0.119034 0.019592
KJ409772 -0.199225 -0.479961 -0.459030 0.972593 0.072552 0.195783 0.819668 -0.306692 -0.005720 -0.802430 -0.718264 -0.167349 -0.129172 -0.056780 0.301421 0.280968 0.287141 0.043040 0.326018 0.402017 -0.103723 -0.186596 -1.038073 0.286614 0.301518 0.368683 -0.229737 -0.628202 0.441439 -0.164612 0.143307 0.269596 -0.631035 -0.512607 0.285741 0.240547 0.088919 0.711820 0.070682 0.237643 -0.149001 -0.395314 -0.675149 0.256164 -0.582943 -0.773639 -0.119714 0.130661 0.143871 -0.224255 0.574829 0.182269 0.888664 -0.466682 -0.153734 -0.085428 -0.218815 0.389226 -0.531688 -0.265795 0.124217 0.557613 0.325241 0.235017 0.234063 -0.120370 0.262729 0.140992 -0.579255 -0.305724 0.176857 0.799908 -0.116111 -0.723195 0.417369 -0.111330 0.718497 0.015833 -0.272874 0.219381 -0.047155 -0.728220 -0.496254 0.425693 0.217293 -0.058529 0.064802 0.671815 0.502808 0.302569 -0.127122 -0.044629 -0.252610 0.212981 -0.061291 0.477495 -0.315670 0.283622 -0.674355 0.031330 -0.463012 0.335574 -0.084141 0.619068 -0.177215 0.396636 0.076765 -0.299093 0.247385 0.229669 -0.631541 -0.193730 -0.016624 0.070723 -0.453397 -0.229968 -0.276141 -0.404887 -0.028368 0.482688 0.466094 0.194877 0.239272 0.505072 1.445719 -0.397886 -0.232818 -0.214372
AE002163 0.686109 -0.883609 -0.686588 -0.025612 -0.000759 0.509779 -0.121008 0.027840 -0.497081 -0.700527 -0.955473 0.224450 0.427918 0.251219 0.341627 -0.634472 -0.108616 -0.068425 -0.109446 0.085281 -0.565022 -0.327200 -0.998685 0.846017 0.303416 -0.015221 -0.308048 -0.461928 -0.484511 -0.068802 0.660514 -0.139602 -0.163437 -0.442653 -0.301372 -0.506432 -0.142404 0.368780 -0.225020 -0.339476 0.211878 0.053475 -0.308065 -0.033015 -0.359316 -0.139270 0.058348 -0.392736 0.143383 0.090209 0.854237 0.447349 0.591181 0.250940 0.179553 -0.935816 0.138307 0.190872 -0.452027 -0.056823 0.659523 0.603343 0.577187 -0.770678 0.068402 -0.034921 1.074012 0.636153 -0.716232 -0.510830 0.283587 0.473174 0.178406 -0.536039 0.351667 0.691133 0.073995 0.313099 -0.259477 0.492736 0.510795 -0.852949 -0.212404 0.231975 -0.418552 -0.018539 -0.636982 -0.091168 -0.501480 -0.070278 -0.227322 0.814183 0.122875 -0.362462 0.287907 -0.174591 -0.574027 -0.473693 -0.829743 0.138313 -0.294459 0.751897 -0.274004 -0.148221 0.203542 0.080332 -0.332079 -0.265815 0.128295 -0.100848 -0.061924 -0.128493 0.135292 -0.290850 -0.025698 -0.595646 -0.659238 0.206362 0.365388 0.765975 -0.237577 0.091397 -0.010240 0.019523 0.626604 -0.305981 -0.301757 0.465649
EF602154 0.003038 -0.000033 0.332013 0.434856 0.862759 0.485060 0.152221 -0.655411 -0.182796 -0.003333 -0.344975 0.019478 0.156200 0.187789 -0.010512 0.039474 0.179964 0.061487 -0.062579 0.409265 -0.803222 -0.493740 -1.343828 0.226628 -0.132301 -0.542316 -0.066663 -0.612328 0.309266 0.304327 0.436688 0.801587 -0.359913 -0.318009 0.019189 -0.207010 -0.131067 0.176835 -0.087846 0.212886 0.220790 0.091819 -1.074509 1.247288 -1.330227 -0.112998 -0.299966 -0.003305 -0.546133 0.795353 0.308347 0.535597 0.232338 0.426276 -0.395818 -0.627337 0.160253 0.295162 -0.663933 -0.097933 0.646718 -0.396309 0.781896 0.554232 -0.535554 0.315935 0.272888 0.404859 -0.830739 -1.015148 -0.302775 0.185013 0.483804 -0.842334 0.162657 -0.134381 -0.067960 0.224733 0.316242 0.169355 -0.157272 -0.858679 -0.123470 -0.006437 0.395967 -0.510387 -0.043272 0.399245 0.176821 -0.609547 -0.345774 0.659678 0.005943 -0.080117 0.094701 0.379024 -0.681403 0.241466 -0.040718 0.200646 0.180142 0.227207 -0.015008 0.450960 0.136542 0.220815 -0.023385 0.126971 0.071890 0.578282 -0.164991 0.391957 0.263903 -0.092942 0.141422 -0.357882 -0.440849 -0.342100 -0.391555 0.145696 0.373199 0.898610 0.589577 -0.296308 0.636681 -0.120493 -0.422007 -0.385722
CP009887.1 0.219822 -0.209786 -0.295951 0.430945 0.385914 0.492780 -0.400773 -0.047230 -0.183556 -0.462936 -1.004765 0.359908 -0.054413 -0.121204 -0.550726 -0.472897 0.487760 0.376789 -0.111273 0.027635 0.143293 -0.464383 -0.459659 0.747883 -0.343767 -0.044094 -0.529685 -0.209498 0.149024 0.081335 0.235034 0.062240 0.671795 -0.628686 -0.505426 -0.581794 -0.162382 -0.266810 -0.524253 0.121240 0.286021 -0.278890 -0.157277 0.888452 -0.576635 -0.756258 0.313290 -0.270858 -0.160130 0.201952 -0.094918 -0.161672 -0.160697 0.146291 -0.385100 -0.413854 0.613181 0.692608 -0.676634 0.532415 0.688195 0.149304 0.106155 -0.495237 -0.354746 -0.198817 0.229768 -0.081932 -0.142351 0.122183 -0.081093 0.194219 0.095789 -0.332126 0.285726 0.797058 0.781601 0.532287 -0.829512 0.194632 0.027190 -0.807654 -0.090412 -0.083566 -0.159504 0.175890 0.014380 -0.000661 0.211541 -0.159174 -0.064151 -0.280344 -0.231831 -0.393218 -0.036488 0.033788 -0.401344 -0.156237 -0.116208 0.497565 -0.655005 0.474828 -0.567327 0.351065 0.046531 -0.334319 0.410404 0.370599 -0.356870 0.613052 0.101901 0.248638 0.169317 0.155735 0.241243 -0.335951 0.324318 -0.138135 0.267580 0.491898 -0.105853 0.660222 0.345946 -0.102034 0.824794 -0.258983 -0.626587 0.674280
CP009976.1 0.242759 -0.208419 -0.302145 0.420999 0.409787 0.519754 -0.405651 -0.062471 -0.171942 -0.448602 -1.023210 0.355894 -0.053571 -0.135596 -0.550763 -0.488817 0.498172 0.379075 -0.116661 0.007412 0.156715 -0.484976 -0.481387 0.735367 -0.342981 -0.047706 -0.516232 -0.232612 0.169950 0.095657 0.232815 0.050811 0.689129 -0.662313 -0.514053 -0.567297 -0.188368 -0.264731 -0.517663 0.131547 0.268461 -0.289092 -0.142130 0.903516 -0.574863 -0.807162 0.289191 -0.257551 -0.163597 0.199812 -0.107801 -0.180166 -0.182692 0.115814 -0.426936 -0.392365 0.637950 0.697000 -0.701613 0.550938 0.667811 0.157140 0.092469 -0.492466 -0.339268 -0.194162 0.182376 -0.116514 -0.161008 0.128040 -0.071529 0.194807 0.092948 -0.336075 0.312375 0.789711 0.774144 0.561418 -0.850316 0.186164 -0.008120 -0.802043 -0.084011 -0.091742 -0.161763 0.175540 -0.001064 0.007452 0.249569 -0.153134 -0.061779 -0.288801 -0.226783 -0.393745 -0.058819 0.041550 -0.439133 -0.133650 -0.110194 0.509696 -0.675449 0.474919 -0.584670 0.331017 0.045677 -0.343001 0.421552 0.360191 -0.363221 0.625271 0.108536 0.244273 0.181869 0.184012 0.238750 -0.343255 0.331891 -0.134806 0.264684 0.521697 -0.101156 0.663108 0.358752 -0.114087 0.849755 -0.253730 -0.654071 0.696506
GQ866233 0.585507 -0.541531 -0.038752 -0.215034 0.161960 0.152405 -0.209138 -0.286878 -0.353603 -0.320417 -1.158781 0.491009 -0.229800 0.651098 0.366088 -0.822139 0.584643 -0.003257 0.170997 0.478234 0.108107 -1.132103 -1.142130 1.040793 -0.246871 -0.207717 0.093208 -0.236992 0.045054 0.585972 0.136610 0.055923 0.159679 -0.323796 -0.290150 -0.583621 -0.625165 -0.104985 -0.385133 0.110994 -0.633751 0.398435 -0.602387 1.126280 -0.623069 -0.516520 -0.527809 -0.363191 -0.220488 0.337461 0.291292 0.092278 0.809447 0.376658 -0.147678 0.236895 -0.430343 0.769936 -0.883950 0.353107 0.668195 0.373143 0.705274 0.790851 -0.038886 -0.310149 -0.061255 0.158544 -1.358130 -0.232452 0.344257 0.161863 -0.079893 -0.340953 -0.471091 -0.427739 -0.502776 0.814187 -0.523757 0.369607 -0.287408 -0.592055 -0.303389 0.580389 -0.023386 -0.304140 -0.638572 0.192643 0.086699 -0.397146 0.178135 0.270600 0.098503 0.316208 0.068360 0.322079 -0.731900 -0.079469 0.116326 0.038788 0.172203 0.479834 -0.138827 0.398525 0.330222 -0.127851 -0.200578 -0.288035 -0.060753 -0.188872 -0.262140 0.775993 -0.318357 0.135297 0.518556 -0.310305 0.017259 -0.175533 0.413123 0.027863 -0.291668 0.773279 0.070134 0.256272 0.852658 0.023825 -0.290206 0.271194
CP000084.1 -0.319235 -0.093041 0.047739 -0.325538 0.558567 0.142210 0.504246 -0.394333 0.334105 -0.768614 -0.667496 -0.383080 -0.113445 0.544979 -0.055408 -0.262522 0.490080 0.564205 0.459440 -0.196587 -0.365188 -1.268358 -0.364620 0.138432 0.461252 1.423986 -0.046227 -0.509215 -0.294920 0.077668 0.684817 0.245094 -0.005098 -0.338445 -0.121773 0.413431 -0.035952 0.499130 -0.128564 -0.139003 0.260735 0.028164 -0.670402 1.127998 -0.223003 -0.558052 -0.259154 0.059095 -0.921260 0.663650 0.085411 0.359691 0.692137 -0.428207 -0.478725 -0.658073 0.286651 0.084797 -0.157080 -0.694403 1.237529 -0.302939 0.556107 0.451486 0.027661 0.253595 0.797414 -0.620696 -0.747661 -0.037300 0.203836 -0.033287 0.091132 -0.408171 0.786462 1.129002 0.031232 -0.478803 0.268662 0.605186 0.223104 -1.138393 -0.579001 -0.195037 -0.030233 0.192800 -0.117981 -0.157420 -0.819314 -0.326216 -0.057128 -0.103072 -0.362153 -0.374414 -0.568361 -0.051597 -0.138921 0.233514 -0.351680 -0.012698 -0.084319 0.562025 -0.381485 0.254685 0.066326 0.251065 0.860102 0.267661 0.262429 0.054620 -0.813377 -0.394741 0.257873 0.947740 -0.282366 -0.012378 -0.095125 -0.183611 0.118170 0.640048 0.099598 0.795149 -0.190701 -0.247591 0.799544 -0.443962 0.221788 0.335804
CP000315 0.235285 -0.607601 -0.394382 0.090602 -0.116724 0.597099 -0.106901 -0.090499 -0.047363 -0.774162 -1.087111 0.487745 -0.686210 0.491658 0.010801 -0.444245 -0.142226 0.216230 0.545535 -0.232248 -0.180675 -0.351658 -1.262068 -0.293463 -0.329236 0.432110 0.034813 -0.088073 0.440125 0.597849 -0.183694 -0.337215 -0.056298 -0.291727 0.100014 -0.682081 0.279585 0.098628 -0.177539 0.055479 -0.535881 -0.401396 -0.856452 0.979132 -0.639452 -0.808489 -0.695730 0.202609 -0.539516 0.528616 -0.249779 -0.108159 0.384357 -0.301836 -0.470590 0.059166 0.237767 0.263651 -1.585036 0.150553 0.168919 0.077411 0.111528 0.828569 0.508607 -0.009933 -0.322968 -0.197550 -0.823651 -0.317830 -0.452446 0.311335 -0.191929 -0.475083 0.664100 -0.058306 -0.317027 0.399442 -0.467107 -0.521271 -0.102376 -0.646793 -0.855994 0.141642 -0.043849 -1.054448 -0.628042 0.519939 -0.016643 -0.591540 -0.354584 0.373318 -0.075809 -0.736861 -0.559223 -0.193607 -0.838646 -0.008318 0.474586 0.120604 -0.079465 0.550743 -0.056801 1.205920 0.117088 -0.023672 0.117036 0.013764 -0.225466 0.304932 0.093435 -0.052382 0.034904 0.814329 -0.258779 -0.088399 0.162644 0.445112 -0.306998 0.409170 0.428736 1.177655 0.095170 0.350663 1.229674 -0.405556 -1.139822 -0.245206
KF188410 0.005807 0.014156 -0.331251 0.096206 0.266633 0.462850 0.257717 -0.286485 -0.077679 -0.490843 -0.428717 -0.400750 -0.196121 0.097602 -0.236567 -0.164477 -0.050016 -0.010666 0.219816 -0.061738 -0.161617 -0.630493 -0.972690 1.020942 0.054387 0.787132 -0.551242 0.550297 0.740701 0.805692 -0.020309 -0.289444 0.012637 0.252174 0.154282 -0.253579 0.196763 0.235432 0.101881 -0.078911 0.547465 0.020128 -0.180770 1.400850 -1.083412 -0.454265 0.220398 -0.183540 -0.046138 0.361602 0.153951 0.084065 0.139907 0.393828 -0.065408 -0.638062 -0.155548 0.957749 -0.942262 -0.087444 1.009511 0.568201 1.051348 -0.109903 0.579005 0.253519 0.933317 -0.288474 -0.620016 -0.275859 -0.500593 0.070097 0.289019 -1.022906 0.598713 0.387499 0.346444 0.336781 -0.101708 0.824696 0.343340 -1.138322 -0.066481 -0.253419 0.948669 0.388284 -0.643481 0.509761 -0.006283 -0.218468 0.100895 -0.028024 -0.623539 -0.503608 -0.340245 -0.328057 -1.091876 -0.380627 -0.099979 -0.134012 -0.221823 0.284450 -0.776118 0.350838 -0.424695 0.133412 0.127126 -0.048325 0.143704 0.233584 -0.878285 1.211588 0.275257 0.215015 0.316276 -0.539395 0.014121 -0.500195 0.238752 0.915631 -0.142438 0.923331 0.451359 -0.088119 1.097865 -0.224442 0.161676 -0.278593
KF005318 0.308586 0.221461 0.152671 -0.132019 -0.072955 0.350482 0.104177 -0.374383 -0.307907 -0.599474 -0.994996 0.106459 -0.003777 0.161399 -0.208681 -0.221777 0.243735 -0.065749 -0.041174 -0.162285 -0.188771 -0.479797 -1.037376 0.582268 0.413795 -0.052468 -0.274710 0.069168 0.289735 0.056008 0.411634 -0.187333 0.567731 0.512274 0.234200 -0.038171 -0.074601 0.245093 -0.569087 -0.005006 -0.021105 -0.013111 -0.437879 0.351039 -0.288799 -0.334378 0.243840 0.279704 -0.181282 0.208540 0.255310 0.073690 1.130057 -0.155247 -0.072291 -0.467564 -0.054285 0.567312 -0.171310 0.051875 0.404857 0.301357 0.502656 0.418588 0.124686 -0.049660 0.689870 -0.221511 -0.131677 -0.069603 0.187144 0.144734 0.273421 0.385577 0.070908 0.196895 -0.092565 0.585016 -0.078168 0.135085 0.334762 -0.389597 -0.070432 -0.314675 0.103611 -0.705800 -0.584601 0.020417 -0.080968 -0.275391 0.320912 0.154352 -0.503555 -0.293276 0.391810 -0.509639 -1.024522 -0.501908 0.197197 0.593145 0.226845 0.060105 -0.042295 0.399307 0.108237 0.027356 -0.142057 -0.616100 -0.432649 0.178798 -0.208024 0.407150 0.369282 0.587207 -0.077906 -0.251169 -0.282747 -0.440544 0.511264 0.564416 0.222388 0.305210 -0.216392 -0.139531 0.735074 -0.264751 -0.527621 0.384814
KF005320 0.302864 0.232790 0.153395 -0.118941 -0.053744 0.355237 0.085863 -0.365407 -0.296136 -0.586250 -1.011860 0.112137 -0.007964 0.140563 -0.242780 -0.224979 0.275059 -0.061154 -0.057885 -0.174434 -0.180098 -0.474552 -1.042311 0.596895 0.408004 -0.081492 -0.289619 0.071763 0.312027 0.065012 0.411278 -0.187886 0.601146 0.524366 0.211289 -0.051791 -0.083595 0.223298 -0.575093 0.005427 -0.016346 -0.003364 -0.445354 0.369759 -0.298399 -0.367145 0.265001 0.269586 -0.182806 0.215370 0.225563 0.065189 1.104193 -0.149276 -0.082158 -0.475024 -0.041899 0.578727 -0.170690 0.095052 0.409780 0.308153 0.494821 0.405697 0.116800 -0.044950 0.659517 -0.237532 -0.110552 -0.055017 0.178373 0.142353 0.278426 0.406904 0.079083 0.212146 -0.070711 0.607084 -0.094624 0.133246 0.338537 -0.386128 -0.051359 -0.329650 0.104582 -0.697129 -0.578291 0.009822 -0.040568 -0.262636 0.338886 0.130575 -0.520378 -0.315851 0.393956 -0.508371 -1.046645 -0.489084 0.198380 0.617708 0.217422 0.059255 -0.054838 0.400484 0.100429 -0.010020 -0.137081 -0.620372 -0.454291 0.200753 -0.182632 0.420072 0.374996 0.589407 -0.065455 -0.269177 -0.272728 -0.460529 0.528684 0.578580 0.202594 0.318941 -0.208718 -0.146819 0.736539 -0.259662 -0.554531 0.390850
KF005319 0.325216 0.228594 0.157396 -0.126265 -0.061866 0.366725 0.099648 -0.366353 -0.315841 -0.584930 -1.013387 0.099945 0.007619 0.160863 -0.241993 -0.219565 0.260540 -0.078870 -0.058665 -0.168378 -0.193748 -0.483804 -1.044238 0.587650 0.419725 -0.072838 -0.297918 0.070676 0.292951 0.046534 0.417972 -0.185318 0.602180 0.539468 0.232037 -0.038111 -0.078245 0.236690 -0.573905 0.001971 -0.029447 0.000071 -0.444706 0.340853 -0.269100 -0.348890 0.250113 0.266223 -0.171519 0.216178 0.241985 0.067628 1.114216 -0.153371 -0.073754 -0.482449 -0.045114 0.574020 -0.141881 0.067919 0.416979 0.312942 0.495014 0.434055 0.139645 -0.042225 0.685707 -0.229958 -0.104716 -0.050267 0.188911 0.147760 0.276979 0.411556 0.059411 0.190673 -0.089922 0.597274 -0.080842 0.147277 0.342452 -0.381438 -0.066560 -0.332654 0.108632 -0.701592 -0.585602 0.017278 -0.054812 -0.276375 0.350627 0.130908 -0.513965 -0.297347 0.402828 -0.497907 -1.041991 -0.499544 0.212456 0.615237 0.227860 0.074269 -0.031125 0.399640 0.104326 0.016660 -0.138154 -0.646578 -0.448814 0.181127 -0.200169 0.422777 0.383908 0.613922 -0.059746 -0.240186 -0.285676 -0.463015 0.525618 0.569234 0.205850 0.304573 -0.239046 -0.134356 0.741925 -0.267814 -0.547820 0.403324
EU272037 0.445527 -0.401913 0.098977 0.184733 -0.092651 0.622360 0.075597 0.281915 -0.355876 -0.393656 -0.417533 -0.132564 0.144879 0.614306 -0.061564 -0.204968 -0.519765 0.011710 -0.261630 0.173140 -0.124117 -0.431249 -0.668957 0.194789 -0.165552 0.508200 -0.110437 -0.001534 -0.140352 -0.043353 0.118321 0.095101 -0.115264 -0.225364 0.518180 -0.381597 0.166405 -0.031262 -0.654957 -0.082078 -0.334450 -0.252061 0.354722 0.477309 -0.463851 -0.101559 -0.357318 -0.282053 0.087406 0.035839 0.581495 0.032725 -0.001997 0.234680 0.258740 0.116334 0.064296 0.533309 -0.435173 -0.167127 0.351078 0.167882 0.262817 0.059811 0.197188 -0.139524 0.458301 0.469843 -0.137826 -0.113870 -0.374313 0.293667 -0.043656 -0.726908 -0.092602 0.070262 0.034845 0.241148 -0.307684 0.138682 0.213454 -0.650842 -0.317434 0.464174 0.037841 -0.252134 -0.313481 0.328449 -0.203202 -0.467803 -0.096330 0.160089 0.062558 -0.194398 -0.151058 0.243603 -0.044794 0.001194 0.271321 -0.057079 -0.230751 0.388445 0.122820 0.801769 0.170131 0.696663 0.517321 -0.361004 -0.009011 0.038524 -0.160688 0.007989 0.205442 0.781502 0.092790 -0.135824 0.185897 0.079376 -0.490599 0.027845 0.208312 0.677441 0.089906 0.373471 1.023790 -0.438917 -0.051637 0.384626
EU272036 0.439647 -0.405921 0.096584 0.179407 -0.096199 0.608901 0.087317 0.276469 -0.347013 -0.381592 -0.395192 -0.145550 0.140434 0.609837 -0.054294 -0.202767 -0.527179 0.006514 -0.241505 0.168621 -0.129606 -0.422790 -0.656858 0.183332 -0.158352 0.526006 -0.106496 0.010777 -0.161198 -0.053675 0.112227 0.095593 -0.129767 -0.214299 0.535882 -0.360509 0.193915 -0.033575 -0.652617 -0.080530 -0.362469 -0.239621 0.361593 0.470628 -0.447823 -0.080250 -0.373725 -0.275511 0.095452 0.034059 0.575694 0.050389 -0.001827 0.225614 0.264803 0.132026 0.056037 0.526818 -0.437108 -0.177258 0.339408 0.164271 0.266772 0.074155 0.199147 -0.140660 0.456137 0.473586 -0.130058 -0.103345 -0.366591 0.300300 -0.041340 -0.737916 -0.104336 0.067305 0.008601 0.228209 -0.307105 0.134488 0.209570 -0.645170 -0.310791 0.466478 0.049604 -0.256390 -0.314925 0.330238 -0.213269 -0.476839 -0.093367 0.172285 0.063764 -0.176664 -0.168093 0.229440 -0.037318 0.005768 0.274300 -0.082850 -0.225996 0.378819 0.131320 0.796870 0.161777 0.720327 0.527237 -0.365874 -0.010518 0.014616 -0.169802 0.005661 0.222793 0.783040 0.088552 -0.132235 0.190246 0.087615 -0.497185 0.015087 0.213497 0.680686 0.069162 0.386382 1.015219 -0.447072 -0.031865 0.359654
KF005317 0.296723 0.232100 0.145179 -0.116987 -0.055362 0.334533 0.096777 -0.391872 -0.280913 -0.600517 -1.005188 0.123664 -0.014095 0.129069 -0.226198 -0.235439 0.279802 -0.038169 -0.021114 -0.181969 -0.173732 -0.469755 -1.021229 0.599384 0.409130 -0.039549 -0.274939 0.075975 0.305512 0.057143 0.380730 -0.190562 0.580088 0.507951 0.205816 -0.022036 -0.065942 0.237956 -0.563893 -0.002464 -0.010147 -0.002810 -0.444749 0.370375 -0.288788 -0.366654 0.248722 0.273339 -0.197500 0.211266 0.226277 0.058834 1.111269 -0.165109 -0.104885 -0.449823 -0.031700 0.571058 -0.203660 0.086915 0.404124 0.300413 0.480046 0.400260 0.113964 -0.050761 0.659972 -0.248918 -0.120272 -0.060041 0.188862 0.139409 0.269532 0.404854 0.099458 0.220903 -0.060812 0.594710 -0.105869 0.121341 0.326501 -0.389159 -0.027670 -0.347109 0.106034 -0.677113 -0.563450 0.006499 -0.073170 -0.265564 0.325639 0.129436 -0.507302 -0.313243 0.370661 -0.537358 -1.026819 -0.507055 0.184532 0.590974 0.213131 0.040632 -0.050471 0.395561 0.099579 -0.012677 -0.137257 -0.583425 -0.454436 0.197625 -0.190916 0.424532 0.395651 0.566622 -0.080754 -0.268642 -0.262137 -0.442901 0.528787 0.579343 0.210675 0.315218 -0.228598 -0.146695 0.724286 -0.262411 -0.536024 0.374857
KC862301 0.465533 -0.400853 0.096759 0.178439 -0.103249 0.630156 0.085889 0.290700 -0.359934 -0.394936 -0.409874 -0.135429 0.152134 0.606670 -0.047357 -0.197260 -0.518704 0.001807 -0.291461 0.182852 -0.129066 -0.405580 -0.684507 0.181219 -0.162076 0.480299 -0.124634 0.009802 -0.121638 -0.050323 0.112095 0.099439 -0.124306 -0.204993 0.515169 -0.380516 0.172694 -0.037050 -0.649275 -0.095632 -0.325617 -0.249941 0.346461 0.465714 -0.475171 -0.076650 -0.348454 -0.277679 0.106028 0.025125 0.590854 0.024658 -0.020957 0.245598 0.269270 0.111334 0.051988 0.535218 -0.454651 -0.173400 0.354881 0.185565 0.256351 0.031755 0.209529 -0.137769 0.474872 0.473598 -0.128367 -0.102356 -0.392413 0.302825 -0.045249 -0.750653 -0.093522 0.067781 0.054698 0.248330 -0.289671 0.129874 0.216579 -0.653750 -0.318981 0.452485 0.026453 -0.251957 -0.333369 0.332570 -0.209218 -0.465581 -0.097512 0.150864 0.046696 -0.195754 -0.134025 0.243545 -0.060193 -0.012551 0.272446 -0.055156 -0.251043 0.383411 0.127358 0.802078 0.166732 0.705614 0.493053 -0.349410 -0.009822 0.042362 -0.169541 0.021834 0.209885 0.782757 0.095707 -0.136667 0.187154 0.074594 -0.483340 0.047801 0.203114 0.686885 0.089397 0.371864 1.024219 -0.430664 -0.056628 0.384386
KC862298 0.439040 -0.418846 0.105682 0.167145 -0.101447 0.601740 0.076104 0.279530 -0.350252 -0.384724 -0.410994 -0.132223 0.153476 0.612946 -0.056234 -0.204982 -0.507059 0.003121 -0.230206 0.171395 -0.139369 -0.414224 -0.666153 0.187600 -0.151674 0.513599 -0.108764 0.009576 -0.159950 -0.055844 0.111959 0.098843 -0.111214 -0.207664 0.513491 -0.373111 0.181771 -0.038796 -0.641245 -0.089523 -0.361941 -0.233191 0.339159 0.462424 -0.439767 -0.076226 -0.362915 -0.289587 0.105786 0.039804 0.579926 0.047722 0.005219 0.221608 0.270031 0.109609 0.060184 0.515601 -0.434642 -0.177813 0.356916 0.166796 0.267459 0.065265 0.196084 -0.143084 0.470031 0.473280 -0.133248 -0.102105 -0.366782 0.307643 -0.036500 -0.737391 -0.098131 0.066527 0.010164 0.223709 -0.293804 0.137504 0.218212 -0.639779 -0.324839 0.466199 0.033001 -0.265468 -0.318601 0.314229 -0.217971 -0.472262 -0.094014 0.173703 0.046166 -0.186277 -0.159801 0.231648 -0.039722 -0.011032 0.276375 -0.072550 -0.220684 0.396225 0.135534 0.796857 0.166902 0.705419 0.522074 -0.350861 -0.018394 0.021986 -0.175566 0.015446 0.218333 0.783926 0.101216 -0.124183 0.190071 0.087716 -0.489300 0.027508 0.209612 0.684291 0.085375 0.386163 1.008561 -0.454184 -0.045325 0.375441
DQ873690 0.452126 -0.398783 0.110160 0.165986 -0.074606 0.622587 0.075369 0.267485 -0.346690 -0.392378 -0.421934 -0.145509 0.150935 0.602123 -0.063916 -0.208044 -0.521728 0.006999 -0.258883 0.150095 -0.127093 -0.430505 -0.662750 0.200707 -0.155740 0.530154 -0.105604 0.008472 -0.143196 -0.047032 0.108114 0.097338 -0.095888 -0.213757 0.540817 -0.366125 0.170332 -0.029863 -0.651908 -0.080691 -0.351887 -0.246857 0.363511 0.484761 -0.451239 -0.101539 -0.359932 -0.277283 0.081637 0.040343 0.568672 0.030207 -0.005908 0.213433 0.256907 0.109093 0.070062 0.540622 -0.433173 -0.161946 0.343951 0.171998 0.261163 0.079052 0.194720 -0.145189 0.450283 0.455916 -0.134249 -0.114847 -0.365587 0.307567 -0.046971 -0.744001 -0.086870 0.061514 0.000320 0.245600 -0.312820 0.129865 0.198253 -0.641369 -0.302166 0.448488 0.050009 -0.265476 -0.323816 0.325288 -0.197849 -0.485589 -0.094115 0.156734 0.051855 -0.201813 -0.165158 0.239493 -0.065784 -0.005288 0.283440 -0.074668 -0.223130 0.366015 0.122831 0.796150 0.168144 0.697682 0.539338 -0.372716 -0.013669 0.028941 -0.160760 0.019473 0.228127 0.803388 0.094610 -0.133331 0.183803 0.077276 -0.493270 0.022732 0.219383 0.673262 0.091865 0.366635 1.030997 -0.453066 -0.053466 0.386511
KC862297 0.439389 -0.430967 0.107084 0.183343 -0.107914 0.600324 0.080882 0.283888 -0.352698 -0.384953 -0.400020 -0.141836 0.147472 0.614585 -0.044465 -0.201727 -0.523545 0.003097 -0.234912 0.180513 -0.145291 -0.408419 -0.663109 0.176091 -0.170346 0.514413 -0.104326 0.009257 -0.172153 -0.052800 0.114422 0.111597 -0.136722 -0.210216 0.538074 -0.370897 0.188543 -0.036487 -0.651344 -0.088306 -0.345422 -0.226213 0.338847 0.468112 -0.449341 -0.074578 -0.378943 -0.271091 0.092612 0.044067 0.586230 0.053671 -0.002500 0.233731 0.266860 0.124158 0.060252 0.522697 -0.436838 -0.185806 0.357252 0.153939 0.260606 0.086611 0.199640 -0.143289 0.463938 0.489715 -0.142630 -0.118848 -0.373677 0.309677 -0.048312 -0.744921 -0.104189 0.056323 0.004418 0.216782 -0.293084 0.133820 0.214994 -0.645999 -0.322620 0.461605 0.035270 -0.257678 -0.309824 0.323342 -0.220160 -0.479314 -0.108008 0.163003 0.073126 -0.174905 -0.165730 0.237801 -0.028095 -0.005007 0.267105 -0.085297 -0.232362 0.383583 0.138079 0.804683 0.167918 0.712780 0.516231 -0.348402 -0.005489 0.018084 -0.167213 0.000909 0.217129 0.762428 0.097060 -0.113211 0.179225 0.087573 -0.499450 0.006873 0.212906 0.672130 0.076905 0.386733 1.003857 -0.442423 -0.030922 0.352607
KF475786 0.422818 -0.395069 0.110524 0.191887 -0.108646 0.618992 0.121940 0.273424 -0.355026 -0.377875 -0.396215 -0.145520 0.140149 0.629701 -0.035690 -0.187704 -0.517429 0.002064 -0.236506 0.195751 -0.128443 -0.407523 -0.699942 0.175217 -0.159834 0.523125 -0.108886 -0.007749 -0.145526 -0.061366 0.118645 0.106092 -0.154497 -0.202208 0.540113 -0.360205 0.192052 -0.003775 -0.659636 -0.086232 -0.361693 -0.246102 0.328876 0.459666 -0.461657 -0.052718 -0.376219 -0.263333 0.081855 0.048791 0.616116 0.057943 0.030486 0.231278 0.267818 0.132617 0.038804 0.530553 -0.425240 -0.204862 0.356341 0.156572 0.261126 0.102001 0.217661 -0.127293 0.474674 0.475170 -0.141130 -0.116828 -0.360819 0.315401 -0.035606 -0.724913 -0.120889 0.058667 0.027688 0.224295 -0.272848 0.134712 0.214676 -0.647197 -0.320928 0.457068 0.047836 -0.272374 -0.324148 0.354626 -0.230105 -0.465840 -0.092439 0.167687 0.048697 -0.173318 -0.148627 0.225420 -0.032499 -0.008120 0.279185 -0.075839 -0.216424 0.375238 0.155348 0.814308 0.181776 0.728089 0.483158 -0.358612 0.015342 0.024058 -0.187630 0.024616 0.215900 0.782807 0.073618 -0.115764 0.168723 0.085947 -0.486995 0.005181 0.230261 0.684354 0.062264 0.386861 1.009152 -0.448509 -0.028212 0.344854
JQ762257 0.441077 -0.418580 0.102755 0.179794 -0.091109 0.620034 0.100467 0.277718 -0.337184 -0.377043 -0.408465 -0.134233 0.150353 0.613312 -0.046660 -0.198463 -0.506099 0.007406 -0.245849 0.182634 -0.134790 -0.410450 -0.658120 0.175123 -0.160422 0.513501 -0.115961 -0.016040 -0.146407 -0.052774 0.117241 0.104974 -0.136509 -0.228302 0.515250 -0.358650 0.180479 -0.022267 -0.641491 -0.078427 -0.343371 -0.254646 0.334179 0.460642 -0.457564 -0.078931 -0.368037 -0.281240 0.081325 0.039911 0.590250 0.036679 -0.004022 0.226616 0.248526 0.105095 0.064053 0.528073 -0.431155 -0.187102 0.363500 0.153497 0.242226 0.080668 0.209926 -0.127632 0.469127 0.471209 -0.145503 -0.121524 -0.364755 0.308779 -0.038437 -0.738725 -0.086720 0.054508 0.032029 0.227578 -0.286322 0.141498 0.215504 -0.654160 -0.320452 0.449279 0.037600 -0.248734 -0.309773 0.335145 -0.209837 -0.464421 -0.107412 0.142648 0.059692 -0.192863 -0.166733 0.246516 -0.036994 0.001114 0.265122 -0.073858 -0.238362 0.387633 0.138014 0.794065 0.171300 0.704234 0.514718 -0.346401 -0.003315 0.043102 -0.175068 0.011512 0.206975 0.771174 0.095986 -0.116524 0.166678 0.082853 -0.493863 0.015532 0.219675 0.674107 0.082576 0.381573 0.992595 -0.433867 -0.045847 0.363805
KC862299 0.472376 -0.410706 0.109061 0.162900 -0.087583 0.617118 0.076802 0.254835 -0.336998 -0.390582 -0.425313 -0.140684 0.146188 0.583914 -0.048748 -0.208365 -0.501213 0.000286 -0.264547 0.152591 -0.137683 -0.408939 -0.645961 0.186339 -0.157570 0.515796 -0.112628 0.002667 -0.137161 -0.046574 0.111679 0.105849 -0.107607 -0.229753 0.528025 -0.360743 0.170087 -0.035138 -0.641217 -0.081707 -0.336754 -0.246237 0.343936 0.474578 -0.440626 -0.102952 -0.358412 -0.279883 0.084649 0.029450 0.564247 0.014359 -0.011276 0.207400 0.230239 0.100000 0.071255 0.543697 -0.454732 -0.169147 0.361842 0.171802 0.240814 0.057141 0.201298 -0.137163 0.453058 0.451307 -0.138431 -0.110412 -0.368854 0.311419 -0.049898 -0.747171 -0.065836 0.059496 0.024336 0.243592 -0.310519 0.126796 0.201298 -0.654435 -0.299619 0.434956 0.050259 -0.261200 -0.320295 0.318130 -0.202269 -0.482303 -0.106380 0.142717 0.046561 -0.198268 -0.168368 0.238078 -0.068961 -0.008065 0.271477 -0.068167 -0.245157 0.366810 0.124792 0.785060 0.166796 0.702944 0.541716 -0.359302 -0.020019 0.042299 -0.161342 0.015918 0.229308 0.779724 0.095802 -0.128536 0.174688 0.076893 -0.492151 0.040297 0.210873 0.662633 0.084408 0.360913 1.004874 -0.432493 -0.064658 0.387767
KC862300 0.428895 -0.393059 0.111648 0.183381 -0.084847 0.625276 0.099133 0.263894 -0.353683 -0.390346 -0.438630 -0.131089 0.143090 0.613268 -0.070055 -0.211195 -0.506937 0.016888 -0.248855 0.170242 -0.117716 -0.431048 -0.689150 0.195858 -0.155982 0.519270 -0.121911 -0.000519 -0.144080 -0.061723 0.124939 0.101358 -0.097436 -0.211160 0.531683 -0.368846 0.191357 -0.031688 -0.674419 -0.074263 -0.358189 -0.256599 0.348343 0.474890 -0.454411 -0.086696 -0.361273 -0.268528 0.080868 0.045137 0.570816 0.050743 0.012242 0.219932 0.250505 0.129652 0.067832 0.535135 -0.423846 -0.159249 0.348241 0.168857 0.269459 0.083878 0.192839 -0.150356 0.459284 0.456832 -0.112522 -0.095280 -0.366058 0.309294 -0.035560 -0.702435 -0.116246 0.086941 0.033021 0.240006 -0.307744 0.129478 0.216929 -0.640303 -0.299433 0.445768 0.042813 -0.268417 -0.322583 0.329103 -0.210666 -0.465968 -0.082343 0.149841 0.041161 -0.191581 -0.150559 0.223513 -0.052108 -0.012234 0.291414 -0.044573 -0.219655 0.376601 0.131843 0.808198 0.178963 0.698690 0.522726 -0.368104 -0.018150 0.037087 -0.164164 0.021198 0.230301 0.796924 0.084227 -0.133806 0.196200 0.082158 -0.472606 0.017027 0.225368 0.695101 0.065679 0.370540 1.023790 -0.458869 -0.045953 0.378056
CP002889 0.727458 0.103766 0.051581 0.427465 0.276109 0.489361 0.567075 -0.111928 0.392721 -0.143082 -0.436455 -0.235115 0.027541 0.332757 -0.356167 0.036150 0.282789 0.070606 -0.177544 -0.033795 -0.359617 -0.046549 -0.723519 -0.104885 0.515572 0.513297 -0.545796 0.109971 0.214208 0.129159 0.053626 -0.124412 -0.437825 0.382344 -0.240904 -0.173960 0.439780 0.802515 0.074070 0.662796 0.239080 0.008660 -0.532623 1.006969 -0.417730 -0.068401 0.265966 -0.356045 -0.554756 1.071632 -0.360593 -0.162989 -0.130306 0.315429 -0.476626 -0.643702 0.013457 0.214586 -1.014617 0.286007 1.131065 -0.017840 -0.001819 -0.093569 0.169620 0.046470 0.194702 0.252035 0.101087 0.399521 -0.789696 0.408861 -0.280112 -0.587341 0.818744 0.655194 0.392437 -0.213221 -0.044894 -0.266395 0.243447 -0.690821 -0.367970 -0.924617 0.034044 -0.069373 -0.425013 0.459034 -0.145129 -0.511859 -0.140091 0.091211 -0.391647 -0.827441 -0.510088 0.331190 -0.528347 -0.423520 -0.170899 0.213539 0.271973 0.511513 0.151657 -0.014366 -0.254216 0.210835 0.645986 0.412544 -0.230476 0.262963 -0.049492 0.379206 0.322212 0.729477 0.136288 0.170170 0.234799 -0.312628 -0.263081 0.862730 -0.348008 1.159106 -0.159806 0.210480 0.885584 -0.204634 -0.745744 0.081049
KM199770 0.446861 0.101264 -0.004580 0.765482 -0.857420 0.197109 -0.442705 -0.227328 -0.744695 -0.321332 -0.757322 0.123056 -0.125528 0.502748 -0.172294 -0.330688 0.394820 -0.567508 0.257553 -0.154149 0.187980 -0.068543 -1.181365 0.435144 -0.758623 -0.421437 -0.295268 0.363517 -0.379796 -0.155937 0.153876 0.289558 0.313722 -0.361063 0.092533 -0.689625 -0.280918 -0.227899 -0.766874 -0.107975 -0.016130 0.164444 -0.730757 0.816312 0.125206 -0.053269 -0.042337 0.216390 0.512190 0.442055 0.663507 -0.410517 0.681667 -0.073151 -0.217636 -0.139234 0.202634 0.458753 -0.873428 -0.515023 0.710118 -0.199795 -0.077004 0.379099 0.138581 0.469036 0.409429 0.291622 -0.105647 -0.000121 -0.025963 0.284163 0.322270 -0.329553 -0.407820 0.277824 0.273798 -0.100910 -0.133173 0.223023 -0.122664 -0.437554 -0.656154 0.262685 -0.010976 -0.700234 -0.098880 0.253224 0.103933 -0.042764 0.037253 0.153295 -0.336334 0.876026 0.539340 -0.124997 -0.221939 -0.051928 0.134465 0.076955 -0.399662 0.673125 0.178468 0.559974 0.353529 0.592564 0.205063 -0.200589 -0.019760 -0.485873 -0.546208 0.447213 0.169996 -0.036620 0.148021 0.624277 0.064661 0.338716 0.240527 0.675326 -0.169429 0.278902 0.166963 0.419636 0.800121 0.040056 -0.323498 0.440032
KF614509 0.440413 0.119943 0.008116 0.784758 -0.882182 0.190984 -0.437985 -0.217838 -0.746290 -0.324228 -0.750603 0.111715 -0.123030 0.510572 -0.182658 -0.321326 0.390901 -0.574485 0.262175 -0.173654 0.185762 -0.070920 -1.171188 0.414297 -0.791828 -0.414203 -0.297752 0.376572 -0.380056 -0.146497 0.138104 0.293710 0.309196 -0.367660 0.116417 -0.697244 -0.292077 -0.243677 -0.784084 -0.102700 -0.013958 0.156477 -0.723175 0.834963 0.133878 -0.066725 -0.040941 0.228013 0.521156 0.444824 0.654715 -0.426365 0.658001 -0.079339 -0.213403 -0.129129 0.209375 0.448891 -0.867492 -0.526090 0.718623 -0.219153 -0.079877 0.391626 0.153662 0.478493 0.403570 0.293717 -0.084902 0.013248 -0.043214 0.286681 0.319663 -0.340179 -0.409759 0.293445 0.284302 -0.125021 -0.137434 0.228551 -0.133274 -0.428789 -0.674407 0.275185 -0.002242 -0.704419 -0.084473 0.259237 0.108233 -0.041814 0.028627 0.135114 -0.341329 0.893352 0.543435 -0.105807 -0.199839 -0.036606 0.147954 0.068277 -0.408427 0.678409 0.181340 0.571659 0.349990 0.607590 0.234881 -0.201013 -0.023989 -0.494460 -0.557487 0.442251 0.158543 -0.008051 0.155804 0.653824 0.076641 0.338152 0.223571 0.676036 -0.163295 0.286611 0.173338 0.425092 0.817437 0.053819 -0.309618 0.453243
BX548174.1 0.187389 0.072067 -0.092554 0.627986 -0.181018 0.181945 -0.164409 -0.524947 -0.178859 -0.078243 -0.384834 0.018571 -0.521240 0.252965 -0.089694 -0.274101 -0.264092 0.128261 0.502182 -0.319013 -0.124845 -0.219780 -0.303841 0.596149 0.152133 0.455840 -0.163024 -0.336058 0.022080 -0.110011 0.181030 -0.226496 -0.240564 -0.442294 -0.247649 -0.289306 -0.009576 0.910256 0.086799 0.083668 0.227457 -0.304105 0.043086 0.462767 -0.431195 -0.285560 0.314336 -0.180763 -0.457777 0.332059 0.226586 -0.216430 0.718490 0.056311 -0.609374 0.044133 -0.098497 0.620133 -0.817913 -0.139883 0.566415 0.130957 -0.160783 0.210990 -0.093138 0.523569 0.193495 -0.066464 -0.478524 -0.288267 0.246380 0.097420 0.111221 -0.332541 0.475086 0.175954 0.240144 0.165562 -0.778246 0.144100 -0.017010 -0.755214 -0.334902 -0.349208 0.482792 -0.517710 -0.210224 0.728321 0.035498 -0.539547 -0.010822 0.266497 -0.080119 -0.272172 -0.004617 0.053503 -0.284909 0.046142 -0.018217 -0.118534 0.528879 0.390063 -0.034566 0.393328 0.418140 0.137849 0.449504 -0.310005 0.117255 0.450913 -0.361617 0.432671 0.528962 -0.024259 -0.242191 -0.277787 -0.047878 0.169764 0.065567 0.064096 -0.253701 0.564845 0.283618 0.177776 0.481860 -0.333017 -0.292298 0.019218
AE017126.1 0.190012 0.059127 -0.097082 0.631278 -0.178630 0.193094 -0.155607 -0.519605 -0.163624 -0.087059 -0.380234 0.014800 -0.520004 0.244159 -0.072551 -0.270410 -0.255120 0.134490 0.486506 -0.310830 -0.129910 -0.213735 -0.294202 0.585917 0.135729 0.454108 -0.156626 -0.336568 0.035956 -0.091102 0.173721 -0.215769 -0.262805 -0.439804 -0.236947 -0.288730 -0.011737 0.897806 0.072515 0.089408 0.238908 -0.309782 0.056313 0.461513 -0.442518 -0.300424 0.313806 -0.179193 -0.451360 0.318188 0.232986 -0.226421 0.715641 0.059669 -0.601253 0.050768 -0.115183 0.627156 -0.834372 -0.138627 0.564753 0.123965 -0.154053 0.200220 -0.086439 0.512140 0.201303 -0.056800 -0.480820 -0.289189 0.239816 0.103207 0.106552 -0.354474 0.479059 0.152174 0.245515 0.163940 -0.783867 0.148819 -0.010532 -0.761430 -0.328856 -0.338296 0.481911 -0.504484 -0.205770 0.726222 0.042377 -0.529448 -0.032375 0.254507 -0.072586 -0.269215 -0.000670 0.060400 -0.276632 0.048790 -0.019672 -0.123236 0.509428 0.385843 -0.032922 0.388311 0.415316 0.160801 0.436055 -0.308183 0.118350 0.456910 -0.354914 0.428413 0.510445 -0.035445 -0.238649 -0.286338 -0.041565 0.169046 0.046021 0.065664 -0.242478 0.562770 0.296319 0.180629 0.481196 -0.315462 -0.288681 0.010185
BX548175.1 0.194831 0.056809 -0.093540 0.623784 -0.179221 0.179454 -0.184847 -0.542337 -0.188133 -0.072008 -0.405997 0.012282 -0.512638 0.235420 -0.079843 -0.280557 -0.246326 0.123010 0.506105 -0.327980 -0.138256 -0.220914 -0.287307 0.615722 0.143005 0.452133 -0.137061 -0.334192 0.018884 -0.101109 0.164580 -0.211816 -0.238038 -0.449178 -0.240816 -0.279432 -0.040549 0.904229 0.089209 0.092063 0.230136 -0.290216 0.055141 0.476590 -0.436285 -0.297201 0.315633 -0.188063 -0.451941 0.339834 0.222723 -0.228574 0.729681 0.039557 -0.614629 0.033667 -0.107260 0.628202 -0.821219 -0.139253 0.560129 0.121831 -0.160162 0.217078 -0.107531 0.524483 0.182046 -0.064139 -0.495665 -0.310691 0.241388 0.098194 0.106352 -0.341541 0.481855 0.152708 0.216219 0.168061 -0.784191 0.137516 -0.027841 -0.758472 -0.323712 -0.336900 0.500471 -0.513574 -0.202282 0.705406 0.054092 -0.540233 -0.024120 0.270868 -0.077800 -0.272849 -0.011941 0.053401 -0.293682 0.049207 -0.013321 -0.126757 0.523619 0.369199 -0.044655 0.391988 0.405015 0.135746 0.479370 -0.318241 0.102929 0.453372 -0.354255 0.440288 0.532269 -0.048446 -0.223800 -0.281974 -0.053235 0.156374 0.061890 0.079548 -0.259210 0.539033 0.310827 0.169297 0.471277 -0.323242 -0.286013 0.011523
AP011617 0.462490 -0.191933 -0.234566 -0.202734 0.247481 0.374019 0.390664 -0.004520 0.039705 -0.176750 -0.780841 -0.053717 -0.670467 0.324671 0.400313 -0.547707 -0.234207 0.418537 -0.327784 -0.162564 -0.132843 -1.080602 -1.010364 0.224347 -0.038642 0.033002 -0.175209 0.096117 0.510401 0.442956 0.711436 -0.115759 0.124308 -0.240338 -0.168487 -0.131028 0.004166 -0.122022 -0.271813 -0.268069 -0.098198 0.299809 -0.295481 0.956375 -0.885755 -0.468159 -0.672984 0.148424 -0.766291 0.585409 0.312955 0.559006 -0.460240 0.001616 -0.591248 0.091492 -0.310329 0.495645 -0.894206 -0.096103 0.873628 0.719659 0.339280 -0.003590 0.260770 0.018462 0.014605 -0.218575 -0.812054 0.161855 0.058017 0.100140 0.005402 -0.557677 0.490101 0.749815 0.286531 0.845465 0.019350 0.735666 -0.019290 -1.447420 -0.465132 -0.035350 0.113988 -0.477762 -0.663414 0.030480 -0.375506 -0.269387 0.239801 0.162405 -0.358811 -0.583109 -0.404693 -0.154733 -0.878953 -0.136244 -0.414116 0.274770 -0.272236 -0.025438 -0.410863 0.858997 0.276701 0.315124 0.080502 -0.063000 -0.088713 0.563296 -0.347383 0.061376 0.460692 0.759617 -0.355154 -0.226128 -0.072505 0.044538 0.258330 0.691545 -0.210109 1.129842 0.000742 -0.043070 1.090634 -0.396636 -0.586992 0.145082
AL645882.2 0.355790 -0.270197 -0.122548 0.427380 0.049883 0.552893 0.074507 -0.184856 -0.329196 -0.375062 -0.968114 -0.022394 0.119024 0.315356 -0.147542 -0.150545 0.368116 -0.142120 0.128106 0.259821 -0.143000 -0.470674 -1.085368 0.496631 0.086500 0.306459 -0.262752 -0.368532 0.036992 0.040069 0.469912 0.042790 0.156473 -0.185736 -0.067561 -0.562205 -0.434658 0.416166 -0.420820 0.080041 0.187276 -0.247986 -0.513197 0.739475 -0.407610 -0.492467 0.185823 -0.027165 -0.200129 0.341717 0.464968 -0.108336 0.807101 0.083535 -0.153184 -0.619138 0.150702 0.566168 -0.618382 -0.238195 1.004474 0.023434 0.242464 0.163745 0.122515 0.162018 0.803842 0.182239 -0.481661 -0.048258 -0.016462 0.395002 0.174504 -0.595043 0.268112 0.301201 0.129360 0.238961 -0.325268 0.255295 0.205770 -0.698544 -0.712288 -0.055581 -0.200476 -0.319486 -0.347348 0.499008 0.022243 -0.274228 -0.321629 0.036550 -0.299827 -0.131852 -0.022373 0.222004 -0.492276 -0.166883 0.026947 0.200525 -0.272074 0.792307 -0.136836 0.369616 0.242896 0.449103 0.376694 -0.073816 0.140422 0.166227 -0.426816 0.369282 -0.010707 0.509642 0.130436 0.016096 -0.062264 -0.139240 -0.192594 0.516184 0.242885 0.479325 0.262876 0.131218 1.048709 -0.378032 -0.433874 0.540312
CP000411.1 0.324730 -0.224886 -0.150910 0.315558 0.107900 0.527161 0.055712 -0.144362 -0.237131 -0.346873 -0.856836 -0.013822 0.014649 0.292525 -0.096212 -0.164162 0.246183 -0.040720 0.148621 0.259504 -0.124353 -0.445828 -1.001880 0.367317 0.085835 0.170732 -0.225354 -0.294496 0.037139 0.106191 0.407143 0.018571 0.116029 -0.191185 -0.142518 -0.427373 -0.286089 0.357150 -0.318119 0.107073 0.060899 -0.204251 -0.469027 0.635083 -0.436246 -0.363695 0.006009 -0.002614 -0.239768 0.348873 0.409347 -0.063954 0.593601 0.108924 -0.161322 -0.491476 0.107916 0.449568 -0.666347 -0.097693 0.801129 0.068160 0.226801 0.184474 0.121830 0.091779 0.595093 0.148552 -0.497554 -0.032741 0.031428 0.363180 0.106744 -0.532367 0.153049 0.241826 0.128662 0.290378 -0.256539 0.249608 0.151774 -0.629156 -0.620162 -0.085559 -0.222915 -0.292922 -0.335055 0.416514 -0.023106 -0.271737 -0.240402 0.167575 -0.211397 -0.163527 -0.086678 0.225180 -0.530318 -0.140399 0.048155 0.179468 -0.156709 0.587452 -0.072584 0.398370 0.210081 0.321504 0.184124 0.023325 0.076546 0.211333 -0.372413 0.289237 0.013964 0.410798 0.117645 -0.025255 -0.060644 -0.107646 -0.155350 0.461618 0.112492 0.511822 0.201232 0.140715 0.916569 -0.305153 -0.482531 0.390287
HG322870 0.781528 0.382352 0.541131 0.485787 0.018879 0.765819 0.180108 -0.122239 0.624179 0.107179 -0.097078 0.195204 -0.107540 0.508848 -0.157330 -0.331159 0.375241 0.544121 0.251067 -0.340139 -0.053175 -0.700751 -1.011497 -0.322823 0.025888 0.168971 -0.985482 -0.200611 -0.034198 0.482383 0.345518 -0.188995 0.033234 -0.419974 -0.589226 0.210505 0.284505 0.071640 -0.586419 0.098887 -0.351246 -0.227800 0.294627 0.666808 -0.621812 -0.900993 -0.559455 -0.025788 -0.244555 0.064729 0.626325 -0.005136 -0.106036 0.278838 -0.869987 0.333606 0.108999 0.832998 -1.467828 -0.255550 0.624576 0.023653 0.223812 0.411259 0.685088 0.268589 0.551164 -0.036203 -0.170005 0.372536 0.278202 0.400009 0.672426 -0.218855 0.647703 -0.013662 0.550280 0.796877 -0.173249 0.691386 0.418110 -0.543635 -0.131390 0.090941 -0.357850 -0.105621 -0.523154 0.743708 -0.284396 0.303237 -0.182981 0.016840 -0.084299 -0.205965 0.060644 -0.083936 -0.400843 0.120590 0.363240 0.560108 -0.621099 0.833691 -0.117841 0.293664 0.430135 0.336104 -0.229288 -0.048980 -0.414327 0.748072 -0.622944 0.391021 0.543604 0.686222 0.042629 0.004937 0.552023 -0.043396 -0.181392 0.779050 -0.059160 1.032769 -0.107909 0.232712 0.761487 -0.105758 -0.502495 0.626020
CP002046.1 -0.279768 -0.311467 -0.441744 -0.022539 0.003011 0.246225 -0.552351 -0.518775 -0.664469 0.322017 -0.759029 0.008542 0.114889 0.156927 -0.038199 -0.222864 0.627455 0.037320 0.893707 0.765184 -0.152734 -0.653707 -0.750024 0.903425 -0.425863 0.437110 0.406968 -0.508992 -0.166949 0.082880 0.592800 -0.145294 0.192212 -0.927933 -0.332364 0.095207 -0.956627 0.086350 -0.469503 -0.274102 -0.031066 -0.078880 -0.338447 0.579695 -0.361884 -0.601889 -0.069182 -0.179745 0.048023 -0.218837 0.629316 0.215006 1.112267 -0.172396 -0.184178 -0.069920 0.223767 0.112115 0.005586 -0.189681 0.747208 -0.566033 0.197709 0.070341 -0.050491 0.396565 0.593784 0.047484 -1.076297 -0.374556 0.569558 -0.112814 0.621656 -0.072247 -0.144616 -0.092202 -0.097272 0.758672 -0.571174 0.526648 0.080779 -0.493859 -1.047202 0.344139 0.025462 0.040297 -0.002307 0.467257 -0.173218 -0.363111 -0.379587 0.250713 -0.244080 0.660213 -0.219613 -0.372248 -0.214339 0.113143 0.203580 -0.470069 -0.350710 1.032778 -0.589572 0.256157 -0.037377 0.579524 0.395718 -0.059085 0.041916 0.013442 -0.655569 0.463667 -0.204259 -0.106619 0.430865 0.033833 -0.527184 0.050271 -0.328374 0.080717 0.356697 0.103750 0.182924 -0.269637 0.502414 -0.279492 0.199846 0.438627
AP011616 0.468918 -0.196193 -0.254913 -0.185739 0.250276 0.390969 0.380075 -0.000805 0.028734 -0.210910 -0.808271 -0.063003 -0.662476 0.321273 0.398280 -0.543393 -0.227835 0.443030 -0.316036 -0.151270 -0.140270 -1.085490 -1.030986 0.249358 -0.025708 0.038521 -0.164685 0.099274 0.496153 0.428907 0.721426 -0.098922 0.135318 -0.245147 -0.162790 -0.115630 0.002683 -0.123511 -0.281748 -0.263209 -0.100469 0.286468 -0.314102 0.971580 -0.893989 -0.468554 -0.666866 0.153916 -0.773172 0.610602 0.326012 0.547697 -0.435845 -0.011334 -0.582197 0.058927 -0.304044 0.492839 -0.916863 -0.094933 0.893871 0.726738 0.329805 -0.005449 0.254052 -0.006882 0.032864 -0.199152 -0.812077 0.149161 0.044885 0.119611 -0.003489 -0.580594 0.495333 0.762075 0.291436 0.856001 0.016399 0.739021 -0.001314 -1.475964 -0.485917 -0.046409 0.108231 -0.494237 -0.645291 0.011183 -0.379778 -0.296758 0.225653 0.188813 -0.363651 -0.597679 -0.423423 -0.148121 -0.899921 -0.143052 -0.432510 0.284481 -0.272870 -0.041631 -0.415393 0.893498 0.262018 0.320308 0.106734 -0.049942 -0.112779 0.584793 -0.337266 0.049016 0.468854 0.749148 -0.366717 -0.212026 -0.083337 0.043161 0.246657 0.713663 -0.203794 1.122410 0.006410 -0.032258 1.112479 -0.413266 -0.638708 0.136874
CP000878.1 0.191303 0.073802 -0.087789 0.603019 -0.191316 0.162448 -0.172412 -0.530607 -0.176396 -0.090142 -0.374283 0.025081 -0.526587 0.254350 -0.072257 -0.277536 -0.263618 0.122658 0.497038 -0.334406 -0.128118 -0.213306 -0.281862 0.590056 0.137067 0.438715 -0.150932 -0.315832 0.018299 -0.102113 0.180753 -0.223875 -0.243881 -0.424089 -0.235616 -0.272704 -0.008903 0.892252 0.072442 0.079580 0.228118 -0.282609 0.044293 0.459977 -0.427134 -0.268201 0.311742 -0.176839 -0.459202 0.338485 0.216687 -0.209979 0.743206 0.053232 -0.605819 0.056792 -0.117305 0.607595 -0.807584 -0.144146 0.546652 0.108974 -0.158148 0.223381 -0.096917 0.519361 0.194282 -0.064948 -0.485409 -0.304159 0.247384 0.084669 0.105220 -0.313358 0.465672 0.156756 0.217532 0.162429 -0.773483 0.142302 -0.009242 -0.758051 -0.334728 -0.344442 0.482625 -0.539115 -0.208660 0.700437 0.020071 -0.545859 -0.012800 0.272792 -0.085388 -0.259687 0.015147 0.028363 -0.283485 0.038636 -0.020155 -0.130298 0.551209 0.372583 -0.032315 0.386466 0.424349 0.143352 0.434929 -0.319912 0.103278 0.436184 -0.345969 0.439601 0.522105 -0.042360 -0.250336 -0.275762 -0.055367 0.176015 0.079171 0.046491 -0.254074 0.562293 0.274541 0.172837 0.441359 -0.313408 -0.282140 0.002448
CP000553.1 0.188659 0.069159 -0.094871 0.607458 -0.188101 0.172337 -0.163129 -0.534528 -0.173863 -0.106664 -0.391883 0.030169 -0.526060 0.232814 -0.070656 -0.276445 -0.242351 0.133315 0.491365 -0.329549 -0.126218 -0.216253 -0.302730 0.597162 0.124837 0.433335 -0.155897 -0.307944 0.048318 -0.084626 0.164301 -0.215988 -0.233927 -0.440508 -0.230617 -0.275827 -0.019248 0.871008 0.076311 0.074926 0.236989 -0.288077 0.030988 0.469080 -0.452630 -0.293790 0.312864 -0.169381 -0.447858 0.323200 0.219182 -0.225268 0.722960 0.041270 -0.607254 0.046006 -0.110685 0.616550 -0.831807 -0.140709 0.545846 0.114046 -0.150607 0.199986 -0.093737 0.510463 0.187884 -0.076528 -0.492136 -0.306031 0.240866 0.091030 0.113748 -0.332959 0.484486 0.154231 0.249334 0.177626 -0.759513 0.146316 -0.015492 -0.762748 -0.319650 -0.337109 0.492006 -0.525310 -0.205054 0.696202 0.035735 -0.527717 -0.027887 0.253373 -0.096233 -0.263562 0.014572 0.028385 -0.298959 0.040877 -0.020535 -0.113379 0.505652 0.362965 -0.045770 0.396500 0.406305 0.130985 0.424464 -0.294585 0.094697 0.459414 -0.351941 0.434854 0.524195 -0.051475 -0.242125 -0.279267 -0.048740 0.161672 0.079215 0.079705 -0.239775 0.550378 0.300155 0.157446 0.459730 -0.313278 -0.281987 0.002644
CP000825.1 0.169040 0.074765 -0.089281 0.646394 -0.213387 0.168708 -0.138348 -0.510543 -0.158228 -0.105295 -0.376214 0.026959 -0.540802 0.263074 -0.067401 -0.265215 -0.266095 0.143339 0.515233 -0.331521 -0.143813 -0.215102 -0.288803 0.581581 0.139435 0.441579 -0.178549 -0.336692 0.006476 -0.084141 0.189743 -0.216812 -0.275998 -0.431692 -0.236641 -0.289449 0.020225 0.886810 0.070800 0.081012 0.215798 -0.299583 0.025710 0.454638 -0.430795 -0.292343 0.301583 -0.172251 -0.461603 0.336632 0.224000 -0.197255 0.726861 0.060044 -0.608048 0.042448 -0.137304 0.602227 -0.810726 -0.151453 0.578209 0.123571 -0.131796 0.212428 -0.094071 0.522388 0.207855 -0.042517 -0.477791 -0.288759 0.247523 0.106059 0.122237 -0.319309 0.470924 0.176515 0.258918 0.135328 -0.761199 0.172684 0.007735 -0.770995 -0.335711 -0.330668 0.496684 -0.536603 -0.189895 0.705518 0.017466 -0.522420 -0.020781 0.269960 -0.084851 -0.261660 0.018096 0.047422 -0.265171 0.048889 -0.034267 -0.115857 0.546617 0.377580 -0.014387 0.408985 0.430888 0.138062 0.417505 -0.307434 0.101738 0.464777 -0.354192 0.420352 0.517289 -0.062729 -0.258138 -0.269625 -0.056219 0.168491 0.082482 0.055989 -0.256527 0.580446 0.281563 0.185446 0.442786 -0.313550 -0.278528 -0.031730
CP000576.1 0.182966 0.056188 -0.101516 0.622908 -0.179374 0.181115 -0.172898 -0.521839 -0.174470 -0.075196 -0.396479 0.027281 -0.507327 0.239054 -0.080849 -0.289008 -0.237606 0.123227 0.510954 -0.328230 -0.126543 -0.222325 -0.288122 0.608220 0.135248 0.467942 -0.158090 -0.324103 0.020886 -0.095105 0.157055 -0.229597 -0.232690 -0.470969 -0.247281 -0.272475 -0.021128 0.891148 0.086189 0.089573 0.218315 -0.312212 0.061171 0.468426 -0.441725 -0.301854 0.304672 -0.202601 -0.419280 0.315533 0.220366 -0.225949 0.700087 0.037301 -0.608349 0.061236 -0.108648 0.626563 -0.820962 -0.121672 0.553675 0.129234 -0.165225 0.179607 -0.084997 0.514708 0.170291 -0.068178 -0.481706 -0.285773 0.231888 0.106676 0.115533 -0.336396 0.481912 0.158946 0.250695 0.170782 -0.781870 0.145700 -0.009364 -0.755886 -0.324696 -0.323704 0.510614 -0.503226 -0.211122 0.718789 0.045408 -0.518693 -0.024493 0.255238 -0.090832 -0.265119 -0.004569 0.046709 -0.274999 0.067086 -0.005625 -0.123307 0.509651 0.384671 -0.048809 0.394811 0.389056 0.133765 0.464679 -0.311598 0.097649 0.455946 -0.364140 0.443699 0.534000 -0.044478 -0.230785 -0.287127 -0.033780 0.167702 0.054636 0.067973 -0.257531 0.548197 0.297109 0.164905 0.466876 -0.333170 -0.265917 0.014262
CP000095.2 0.196556 0.044446 -0.096826 0.640260 -0.189724 0.175175 -0.177126 -0.525316 -0.194749 -0.085711 -0.407411 0.019573 -0.511402 0.237188 -0.082144 -0.283468 -0.248720 0.105598 0.506033 -0.318689 -0.123028 -0.220609 -0.319038 0.608988 0.125392 0.422095 -0.146196 -0.333327 0.033895 -0.091177 0.167272 -0.218240 -0.226775 -0.459367 -0.234312 -0.293275 -0.036223 0.888423 0.075543 0.100935 0.233253 -0.296581 0.039635 0.470881 -0.459266 -0.299108 0.312204 -0.186458 -0.426607 0.334694 0.230011 -0.223020 0.727063 0.052934 -0.599707 0.035986 -0.096754 0.621350 -0.830128 -0.133811 0.536525 0.126351 -0.161133 0.209993 -0.099865 0.511912 0.172535 -0.042265 -0.499459 -0.308582 0.230313 0.109702 0.110493 -0.346399 0.468349 0.145002 0.238898 0.172702 -0.778585 0.142032 -0.024727 -0.756850 -0.344480 -0.320389 0.493609 -0.526638 -0.200211 0.716130 0.068809 -0.523308 -0.025135 0.272002 -0.081938 -0.247856 0.015639 0.063989 -0.303717 0.052956 -0.022451 -0.115696 0.513989 0.383234 -0.043962 0.401219 0.390684 0.124284 0.447056 -0.311117 0.104486 0.452158 -0.351567 0.437270 0.511283 -0.053354 -0.235932 -0.276229 -0.052556 0.157137 0.065902 0.077745 -0.254791 0.535230 0.323903 0.180576 0.485482 -0.324951 -0.292075 0.006273
CP000552.1 0.214741 0.064616 -0.088346 0.607990 -0.180738 0.190764 -0.183919 -0.529654 -0.186652 -0.075550 -0.374689 0.019910 -0.505644 0.236892 -0.067776 -0.280380 -0.265203 0.116031 0.474209 -0.330541 -0.124078 -0.207876 -0.291282 0.587682 0.120255 0.440873 -0.148874 -0.321288 0.027107 -0.091111 0.155632 -0.216749 -0.248169 -0.469215 -0.235425 -0.285058 -0.025843 0.868368 0.077913 0.082225 0.223567 -0.302257 0.064324 0.476720 -0.440326 -0.283000 0.305849 -0.183881 -0.429351 0.317693 0.222670 -0.232928 0.689738 0.058600 -0.603557 0.061352 -0.104564 0.622017 -0.837789 -0.134245 0.546454 0.116450 -0.166364 0.179106 -0.098627 0.515183 0.171008 -0.056165 -0.483007 -0.300565 0.225332 0.097831 0.103126 -0.358892 0.464943 0.153314 0.237658 0.167337 -0.772009 0.135825 -0.032186 -0.750597 -0.314686 -0.325801 0.492677 -0.515913 -0.209226 0.717521 0.038756 -0.533786 -0.029952 0.270160 -0.071775 -0.253633 0.006628 0.058930 -0.276654 0.053570 -0.000659 -0.128791 0.505252 0.371386 -0.040562 0.385145 0.411027 0.151778 0.448187 -0.296033 0.109029 0.440229 -0.341950 0.441868 0.513136 -0.050125 -0.229881 -0.278313 -0.041731 0.179841 0.045340 0.063247 -0.253498 0.554597 0.297049 0.159343 0.470379 -0.311612 -0.283136 0.021091
CP000551.1 0.190866 0.043290 -0.100491 0.626213 -0.176698 0.184029 -0.186589 -0.521404 -0.200835 -0.092964 -0.398145 0.024713 -0.498314 0.239316 -0.083673 -0.279758 -0.247185 0.113097 0.500510 -0.322503 -0.138377 -0.211035 -0.312168 0.621129 0.116240 0.433241 -0.144312 -0.337873 0.031040 -0.098752 0.155942 -0.210143 -0.230946 -0.466011 -0.237203 -0.290059 -0.043813 0.889732 0.086501 0.092618 0.233521 -0.296715 0.039396 0.465721 -0.453144 -0.299895 0.307676 -0.208827 -0.422938 0.323530 0.241273 -0.233067 0.702583 0.045451 -0.604620 0.038042 -0.087511 0.623832 -0.819467 -0.132292 0.547772 0.129277 -0.171950 0.196122 -0.097497 0.517584 0.163799 -0.050086 -0.498887 -0.320742 0.228060 0.107700 0.112739 -0.353459 0.472841 0.141051 0.243860 0.175817 -0.782472 0.145046 -0.029560 -0.757992 -0.327652 -0.330014 0.501469 -0.520342 -0.196726 0.716798 0.059554 -0.538952 -0.026707 0.259839 -0.078457 -0.253177 0.013007 0.067364 -0.290738 0.073748 -0.013673 -0.129019 0.516210 0.386347 -0.038246 0.403475 0.400569 0.123516 0.459739 -0.317208 0.112587 0.454990 -0.347915 0.438571 0.524302 -0.040300 -0.232893 -0.288906 -0.050609 0.156567 0.065336 0.057953 -0.254597 0.541517 0.325856 0.176897 0.479622 -0.329973 -0.289869 0.016114
CP000554.1 0.191032 0.057631 -0.083174 0.621466 -0.181112 0.165422 -0.160466 -0.536617 -0.174127 -0.081901 -0.396346 0.019307 -0.521484 0.242082 -0.077755 -0.282521 -0.265662 0.122356 0.510600 -0.351960 -0.147452 -0.225587 -0.276910 0.592997 0.147849 0.449824 -0.170113 -0.328160 0.011275 -0.096812 0.166848 -0.214957 -0.252828 -0.454351 -0.235111 -0.280617 0.002067 0.893993 0.088687 0.091082 0.204211 -0.299654 0.050344 0.474360 -0.436674 -0.283886 0.295887 -0.182864 -0.449864 0.343117 0.193958 -0.206292 0.710846 0.043674 -0.621455 0.038335 -0.109347 0.612201 -0.817485 -0.136279 0.558634 0.128036 -0.139147 0.219029 -0.110060 0.526184 0.179932 -0.055690 -0.480916 -0.300919 0.233569 0.109611 0.112527 -0.328627 0.477990 0.179045 0.221093 0.146902 -0.776598 0.146845 -0.024625 -0.758275 -0.320379 -0.331620 0.514256 -0.530023 -0.206047 0.700614 0.041030 -0.536153 -0.016932 0.283273 -0.079501 -0.275463 -0.002238 0.045830 -0.281792 0.049434 -0.024630 -0.118067 0.545737 0.370426 -0.038788 0.387608 0.407862 0.127377 0.469644 -0.316009 0.091289 0.448723 -0.355823 0.427710 0.537981 -0.050654 -0.237912 -0.284416 -0.057484 0.169129 0.072087 0.078132 -0.264576 0.560285 0.284700 0.167396 0.457319 -0.320557 -0.274729 -0.006770
CP000111.1 0.158974 0.061798 -0.096567 0.642707 -0.179625 0.184082 -0.153165 -0.512932 -0.168412 -0.062328 -0.375958 0.016271 -0.535075 0.260076 -0.079362 -0.274886 -0.263471 0.125798 0.518116 -0.304757 -0.111701 -0.207649 -0.290717 0.581116 0.119675 0.461187 -0.150450 -0.354226 0.029829 -0.083613 0.164222 -0.227351 -0.260320 -0.463046 -0.247807 -0.303645 -0.010836 0.896118 0.087408 0.089221 0.219945 -0.322034 0.047294 0.461809 -0.434720 -0.288440 0.295441 -0.185373 -0.453664 0.326828 0.217490 -0.218439 0.692803 0.056184 -0.603457 0.060315 -0.110969 0.605773 -0.811306 -0.139501 0.557334 0.115781 -0.157186 0.212417 -0.087861 0.525164 0.171461 -0.051405 -0.481316 -0.284868 0.244110 0.098253 0.119507 -0.342831 0.458994 0.155120 0.242300 0.151288 -0.783675 0.150401 -0.029059 -0.742763 -0.348689 -0.331807 0.493745 -0.506602 -0.194183 0.738597 0.044627 -0.524984 -0.023671 0.260042 -0.079983 -0.249473 -0.010734 0.073615 -0.254248 0.075546 -0.008487 -0.133244 0.536161 0.382117 -0.028540 0.393545 0.413399 0.134863 0.441371 -0.294708 0.133377 0.453163 -0.359306 0.428874 0.493444 -0.044727 -0.239908 -0.274309 -0.040845 0.189151 0.049362 0.040372 -0.247319 0.569182 0.308254 0.183904 0.464296 -0.325296 -0.268474 -0.023819
KF301602 -0.094384 -0.233851 -0.251861 0.050729 -0.191675 0.397807 -0.203539 0.418366 -0.586458 -0.321505 -0.627504 0.043204 -0.106977 0.707665 0.541923 -0.475755 0.235108 0.105477 -0.162842 0.038156 0.239443 -0.668342 -1.259224 0.862204 0.096674 0.004933 0.044032 -0.160961 0.294761 0.445289 0.435736 -0.043882 0.417094 -0.464871 -0.293118 -0.180092 -0.890999 -0.054076 -0.194199 -0.161087 -0.117844 -0.407817 -0.211913 0.722086 -0.902555 -0.119183 0.088350 -0.614152 0.228071 -0.067659 0.809582 -0.087810 0.681499 -0.015699 0.438997 -0.385458 -0.409440 0.184829 -0.541801 -0.227112 0.112925 0.469419 0.519671 -0.484857 0.045750 0.197815 0.298657 0.212823 -0.621869 -0.712345 -0.280238 0.244106 0.344304 -0.549926 0.133349 0.069377 0.262151 0.414756 -0.004554 0.585972 0.215962 -0.671055 -0.986525 0.791350 0.185306 -0.636343 -0.368301 -0.093926 -0.009735 0.126898 -0.140867 0.756236 -0.601549 0.049405 0.102064 0.044752 -0.734368 0.616577 -0.057560 0.123667 0.266133 0.278489 -0.462259 0.539924 -0.068360 -0.065196 0.024508 -0.281279 0.076178 0.362647 -0.562009 0.244988 -0.554059 0.269371 -0.162533 -0.383312 -0.023214 -0.216363 -0.051197 0.752357 -0.248992 0.343722 1.086553 0.199696 0.576208 -0.275947 -0.535888 0.059302
AE005673.1 -0.089287 -0.223035 -0.244720 0.042885 -0.192206 0.398891 -0.194412 0.415871 -0.562884 -0.313009 -0.595300 0.040913 -0.125469 0.704040 0.533751 -0.476694 0.224659 0.118567 -0.152518 0.023468 0.250104 -0.670535 -1.221879 0.858511 0.091028 0.008657 0.028159 -0.152273 0.284825 0.452899 0.424488 -0.052877 0.394320 -0.455346 -0.291718 -0.163832 -0.867668 -0.061025 -0.195230 -0.152457 -0.131034 -0.399618 -0.193883 0.706369 -0.882151 -0.114520 0.078282 -0.605697 0.220817 -0.068006 0.786205 -0.077137 0.652027 -0.003510 0.434616 -0.358306 -0.424424 0.195211 -0.521524 -0.217535 0.110056 0.473961 0.525840 -0.457901 0.056013 0.194518 0.294387 0.213070 -0.624500 -0.693334 -0.256464 0.245113 0.338265 -0.535877 0.115465 0.069466 0.258372 0.418834 -0.006335 0.600973 0.215715 -0.658703 -0.952949 0.786779 0.187689 -0.616564 -0.364031 -0.086515 -0.023283 0.146874 -0.131832 0.730825 -0.590201 0.052334 0.107364 0.044033 -0.714417 0.603990 -0.051861 0.116957 0.264079 0.272869 -0.461915 0.534219 -0.060113 -0.060637 0.009574 -0.292923 0.075343 0.362845 -0.563859 0.262253 -0.550529 0.261517 -0.157047 -0.383561 -0.030832 -0.212265 -0.030042 0.727684 -0.252219 0.348787 1.058252 0.202075 0.561142 -0.269798 -0.504853 0.045998
CP006884.1 0.234693 -0.184746 -0.079693 0.376277 0.076698 0.426523 0.061529 -0.160185 -0.237545 -0.295409 -0.741312 -0.014059 0.042229 0.256334 -0.118490 -0.124730 0.254467 -0.099210 0.072763 0.293578 -0.080544 -0.361919 -0.845150 0.333978 0.070477 0.225873 -0.221806 -0.266825 0.005613 0.040169 0.354713 -0.008026 0.081349 -0.154241 -0.060561 -0.484672 -0.257808 0.357951 -0.298970 0.100146 0.102973 -0.201350 -0.427448 0.553212 -0.374244 -0.340454 0.115196 0.015048 -0.183799 0.302539 0.344313 -0.107709 0.594552 0.111769 -0.130806 -0.461162 0.062145 0.392072 -0.531029 -0.111384 0.796026 0.025966 0.201489 0.083513 0.097304 0.102840 0.613858 0.173509 -0.317182 -0.005937 -0.036255 0.268987 0.112082 -0.478939 0.187089 0.267577 0.150111 0.160644 -0.253370 0.233288 0.161557 -0.579535 -0.580849 -0.011204 -0.152753 -0.247978 -0.304216 0.388507 0.014937 -0.266959 -0.252382 0.074248 -0.215442 -0.131655 -0.043502 0.177383 -0.357089 -0.154371 -0.010983 0.206881 -0.163323 0.603687 -0.072556 0.331463 0.200233 0.383714 0.211683 -0.045492 0.087192 0.130290 -0.335985 0.264916 0.014523 0.372905 0.073779 -0.066252 -0.003050 -0.076615 -0.131930 0.358430 0.162473 0.469775 0.172890 0.115480 0.807290 -0.277444 -0.308717 0.378655
KF056323 0.249070 -0.187316 -0.079243 0.383611 0.081295 0.454896 0.074743 -0.167726 -0.234977 -0.291332 -0.760486 -0.013061 0.048002 0.270676 -0.118488 -0.123903 0.275354 -0.108245 0.070034 0.295029 -0.081916 -0.375764 -0.867569 0.332795 0.079659 0.241217 -0.232843 -0.283950 0.006765 0.036819 0.372974 -0.010345 0.080365 -0.164471 -0.058450 -0.499181 -0.274327 0.366878 -0.306364 0.110661 0.103933 -0.214661 -0.438807 0.582496 -0.373533 -0.363328 0.124302 0.012506 -0.196154 0.307947 0.347808 -0.116416 0.608473 0.110166 -0.143125 -0.479819 0.068084 0.410737 -0.538038 -0.116209 0.834489 0.019614 0.211669 0.090353 0.110079 0.116915 0.632260 0.170297 -0.322272 0.008818 -0.036890 0.279257 0.118867 -0.487700 0.197392 0.274643 0.149468 0.163831 -0.260767 0.235364 0.159114 -0.594008 -0.591725 -0.021742 -0.156047 -0.251323 -0.315819 0.409287 0.016148 -0.267161 -0.263801 0.073434 -0.229571 -0.143007 -0.051015 0.181905 -0.368832 -0.153494 0.001324 0.214560 -0.176346 0.630925 -0.069763 0.327433 0.204273 0.404986 0.237083 -0.056326 0.088150 0.137734 -0.348642 0.277400 0.008301 0.394614 0.084417 -0.067226 0.002151 -0.073166 -0.147938 0.378114 0.162372 0.480958 0.181589 0.118264 0.833596 -0.281337 -0.322364 0.394944
CP000031.2 -0.229245 -0.037281 0.063983 -0.261789 0.617081 0.213649 0.322917 -0.252205 0.187296 0.111636 -0.737890 -0.178863 0.197426 0.121130 0.042490 0.047816 0.784058 -0.163060 0.188074 0.472192 -0.117999 -0.609900 -0.602079 -0.231898 0.951141 0.661903 -0.674149 -0.022773 -0.199942 0.020060 0.533601 0.233674 0.294188 0.390184 -0.433551 0.188092 0.316614 -0.110971 0.086248 -0.079820 -0.490567 -0.466885 -0.798989 1.209891 -0.254753 0.421128 -0.148818 0.388138 -0.384414 0.557314 -0.373924 0.494742 0.894140 0.044850 -0.093269 -0.849877 -0.168428 0.241072 -0.262775 -0.301595 1.158238 -0.106754 0.878942 0.656438 0.036874 0.176538 1.314898 -0.197097 0.032724 0.451429 -0.213140 0.475961 -0.033860 -0.368841 -0.033028 0.618995 -0.536448 -0.217908 0.400602 0.342155 0.192275 -0.543886 -0.709058 -0.096477 -0.310401 0.023007 -0.257080 0.304971 -0.161003 -0.095886 -0.041469 0.423650 -0.564403 -0.439663 -0.942516 -0.429942 -0.425407 -0.625414 0.433267 0.294723 -0.139947 0.437102 -0.378507 0.278818 -0.061398 0.440184 0.317158 0.460728 -0.055665 -0.238586 -0.689765 0.588325 -0.184111 0.515900 0.542289 0.202615 -0.104968 -0.426005 -0.386950 0.673218 0.431075 0.987466 -0.773637 -0.127225 0.651837 -0.372407 -0.488676 0.090881
