1601 128
NZ_MW598241.1 -0.062681 0.053736 0.222878 0.271329 0.193684 0.132424 0.025168 -0.139371 -0.030319 0.312485 -0.008116 -0.291194 -0.521196 0.425238 0.043109 0.117165 0.255889 -0.204834 0.040248 -0.076703 -0.042564 -0.059200 -0.054388 -0.091608 -0.124462 0.156306 0.112894 0.698013 0.436560 -0.194121 0.051531 -0.421232 -0.171714 0.585594 0.047420 -0.231267 -0.022790 -0.590619 -0.396026 -0.287280 -0.107202 0.172958 0.360365 0.146283 0.061332 0.355939 0.142373 -0.418510 -0.054054 0.227109 0.280600 -0.132504 0.159792 0.285554 0.446623 -0.045046 0.304088 -0.235984 -0.400145 0.590207 0.008625 -0.180687 0.066083 0.027325 -0.193016 0.109545 -0.130672 -0.028818 0.043119 -0.023125 -0.101016 -0.089415 -0.100210 0.209864 -0.029595 -0.263523 -0.098501 0.024520 -0.515557 -0.078433 0.222822 0.120172 0.058134 -0.060788 -0.027112 -0.353036 0.165739 0.208707 0.412558 -0.030120 0.279933 -0.084291 0.172308 0.049138 -0.263398 -0.535447 0.245489 -0.416902 0.486077 0.384295 -0.446370 0.145201 -0.265338 0.171309 -0.149270 0.477971 0.209309 -0.279123 0.372588 -0.065925 0.364466 0.165874 0.528934 0.036934 -0.300647 0.132488 0.221788 -0.013966 -0.222361 0.221065 0.691974 -0.350128 -0.195539 0.279861 0.011074 -0.090462 0.201955 -0.331519
HG530068.1 -0.304198 -0.325665 -0.377910 0.147047 0.506275 0.486214 -0.214024 0.130258 -0.028374 -0.151370 0.560489 0.108474 -0.130337 0.668123 -0.227957 0.507289 0.216399 -0.182568 -0.344508 -0.111285 -0.037635 -0.093913 -0.057423 -0.094709 -0.639852 -0.158304 -0.383270 0.673107 0.198976 -0.338336 -0.176349 -0.479167 -0.319983 -0.054601 -0.173574 -0.843365 -0.366029 -0.142573 -0.501596 -0.043879 -0.435918 -0.074023 0.049273 0.088134 -0.102304 0.047749 -0.202260 -0.412396 0.039287 0.116140 0.266422 0.122878 0.168082 0.002009 0.167530 0.225273 0.088716 0.436507 -0.159394 -0.003276 -0.092552 0.109192 -0.085424 -0.388239 -0.207436 0.139543 -0.476565 -0.169830 0.020981 0.184168 -0.165647 -0.040660 -0.111461 -0.230281 0.186140 0.156260 0.444162 -0.028542 -0.411288 -0.306937 -0.056081 0.079638 0.147535 -0.293095 -0.245378 -0.383068 0.220134 0.198311 -0.137649 0.360132 0.069244 0.056846 -0.201427 0.431657 -0.005432 -0.001756 -0.445746 0.144894 0.102144 -0.006462 -0.616020 0.381902 -0.584375 0.140360 0.085566 -0.399482 -0.047364 -0.146662 -0.286365 -0.036547 0.637172 -0.068060 0.381964 0.001559 -0.832126 -0.186148 0.222447 0.313448 -0.298940 0.344194 0.117798 -0.017570 -0.692349 0.205270 -0.121987 -0.151181 0.307210 -0.300418
CP025935.1 -0.544392 -0.023137 -0.207622 0.342241 0.259048 0.444878 -0.428487 -0.090712 -0.264018 -0.024385 0.319856 0.015323 0.017378 0.005475 0.159155 0.145481 0.188830 0.217079 0.155217 0.157102 -0.230444 0.411393 -0.516622 0.222365 -0.721069 -0.039135 -0.609246 0.199201 -0.106533 -0.405276 -0.287551 -0.067032 -0.337294 -0.038492 -0.221041 -0.558405 -0.195723 0.143785 -0.799525 0.205626 -0.379688 -0.440636 0.437309 0.062491 0.341507 -0.066708 -0.113422 -0.625669 0.408465 -0.371597 -0.228250 -0.259004 0.416215 -0.277452 0.207488 -0.348746 0.325466 -0.019229 -0.351847 0.565826 0.349006 0.463942 0.526793 0.367213 -0.260601 -0.141616 -0.198303 -0.217423 0.049808 -0.145519 0.538229 0.163235 -0.130179 0.307040 0.336900 0.403239 -0.023902 -0.129880 -0.032138 0.430494 -0.343578 0.091954 -0.072855 -0.149198 0.305178 -0.322082 0.117200 0.246730 -0.174527 -0.471346 -0.095907 -0.228362 0.423728 0.244137 -0.375413 0.151257 -0.364320 -0.277450 0.298288 -0.433982 -0.439250 -0.228105 -0.245903 0.097572 0.412683 0.515284 -0.510034 -0.460010 0.582729 0.217102 0.579900 0.183590 0.314306 -0.619931 -0.454441 0.014467 -0.179261 -0.078376 0.424504 0.366791 0.332385 -0.386866 -0.142506 0.135281 0.244265 0.150003 0.362553 -0.121916
CP064339.1 -0.542140 0.269793 -0.610899 0.039170 0.315507 0.008450 -0.162163 -0.052352 -0.096670 0.340190 -0.459952 0.134079 0.078060 0.249628 -0.462386 0.165106 -0.224509 0.531334 0.487014 -0.204665 0.093748 0.426009 -0.093802 0.229169 -0.485850 0.148087 -0.207499 0.260918 0.504002 -0.590673 0.234235 0.023179 -0.101786 0.706406 -0.278235 -0.404726 -0.295838 0.030366 -0.147792 -0.324580 -0.341372 0.228199 0.254099 0.083724 -0.435321 0.050648 0.228620 -0.254815 0.427140 0.148689 0.223795 0.153075 0.287216 -0.113037 0.222532 -0.420742 -0.110912 0.460242 -0.671698 0.417598 0.477871 0.546018 0.315850 0.201087 -0.420031 -0.066193 -0.433313 -0.424670 0.271688 -0.129878 -0.038400 0.205167 -0.132888 0.110182 -0.045732 0.184792 0.287016 0.311019 -0.108784 -0.342306 -0.225929 0.486084 0.534668 0.023859 0.483889 -0.153558 -0.027244 0.111566 -0.453075 -0.853801 -0.311767 0.354621 -0.306037 0.332072 -0.186496 -0.290408 0.358172 -0.003107 0.090512 -0.360286 -0.419433 0.343765 -0.252526 0.386433 -0.098340 -0.049558 0.139110 0.066874 0.239831 -0.221962 0.820988 -0.041331 0.519024 0.108121 -0.427601 -0.282416 -0.359445 0.060124 -0.150677 0.469570 -0.237508 -0.309945 0.220395 -0.263094 0.231509 -0.035310 0.080876 -0.178988
CP029604.1 -0.568110 -0.312868 -0.032173 0.385312 0.686586 0.342263 0.103980 -0.022224 0.310207 -0.020777 -0.064318 -0.050328 0.079065 0.893019 -0.275520 0.474264 -0.291283 -0.038265 -0.184136 0.014990 -0.388577 0.248536 -0.180599 -0.073423 -0.123238 -0.049347 -0.045474 0.210115 0.368125 -0.323533 -0.463310 0.187953 -0.181694 -0.377736 0.158500 -0.246850 0.092726 -0.289201 -0.341340 0.207170 -0.588212 0.004487 -0.003581 -0.182349 -0.617083 -0.106814 0.018367 -0.764014 0.539335 -0.066552 -0.199549 -0.025681 0.245544 -0.235129 0.362391 -0.228632 -0.042169 0.244186 0.047796 0.313811 0.329438 0.321787 0.403440 -0.021687 -0.130748 -0.423544 -0.456417 -0.611353 0.224369 0.250200 0.472952 -0.064356 -0.287974 -0.003458 -0.008387 0.145419 0.543776 -0.040499 -0.166143 -0.336940 0.199586 -0.094234 0.574539 -0.178412 0.030441 0.203675 -0.054703 0.310851 -0.265959 -0.741282 0.320973 0.487814 -0.293379 0.442271 0.082916 -0.378509 0.407870 -0.230952 -0.008176 0.321682 -0.192368 0.067264 -0.165092 -0.140876 0.044317 0.493728 -0.293328 -0.696501 0.547006 0.455878 0.585161 -0.480137 0.292163 0.195664 0.072398 -0.075283 -0.076834 0.251495 -0.223503 -0.202742 0.422106 -0.677107 0.282025 0.554766 -0.044240 -0.035930 0.323522 -0.156864
CP071820.1 0.167118 0.099771 0.027638 0.375293 -0.119654 0.401072 0.168868 -0.180807 -0.137318 0.403343 0.339373 0.263096 -0.058176 0.268682 -0.269643 0.334418 0.358687 -0.009463 0.122484 -0.332385 0.302772 0.100193 -0.608190 -0.079698 -0.109220 -0.135727 -0.474614 0.273698 0.836491 -0.110301 0.295711 -0.645283 -0.231721 0.509633 0.162016 -0.354312 -0.077924 -0.414574 -0.346402 -0.117029 -0.057274 -0.107183 0.616656 0.055486 -0.139966 0.274290 0.128188 -0.002989 -0.124338 0.333402 0.307804 -0.153309 0.153545 0.226249 0.472208 0.341311 0.258159 0.112680 -0.464648 0.270402 0.342991 0.400169 0.278974 0.360898 -0.645391 -0.470970 0.003569 -0.363102 0.106570 0.197881 0.017570 0.362386 -0.164317 0.483448 0.023600 0.429937 -0.085786 0.030197 -0.678291 -0.051262 -0.098581 -0.006616 0.106080 -0.440926 0.198303 -0.311416 0.304328 -0.118494 -0.066012 -0.521477 0.375674 -0.033283 -0.299683 0.291540 -0.201135 -0.422875 0.116967 -0.209345 -0.037068 0.255311 -0.307433 -0.346425 -0.128086 -0.244549 -0.411866 0.235907 0.240390 -0.912032 0.186364 -0.334512 0.151537 0.021572 0.145193 -0.084125 -0.264363 0.508081 0.239107 -0.253156 -0.292855 0.126755 0.778294 -0.564612 -0.116712 0.509444 0.046193 0.137822 0.679604 -0.571156
CP016625.1 -0.213924 -0.165101 0.198075 0.080336 0.352545 -0.174624 0.294852 -0.242696 -0.527251 0.062947 0.226952 -0.356640 -0.489403 0.377542 -0.096215 0.220629 0.085874 -0.387496 -0.117565 0.224946 0.042024 0.381298 0.127707 -0.286403 -0.149140 -0.217765 0.141570 0.782741 0.470814 -0.177750 0.115632 0.041367 -0.618164 0.603644 0.091158 -0.419619 -0.104792 -0.519560 -0.371163 0.277665 -0.049736 0.047944 0.177834 0.640539 0.297761 0.140042 0.243546 -0.573659 0.053697 -0.092165 0.454626 -0.395966 0.123383 0.341801 0.823077 -0.139064 0.427346 -0.140042 -0.246653 0.582768 -0.123571 0.467616 0.093605 -0.062721 -0.479076 0.242412 -0.456668 -0.327674 0.245791 0.087663 0.237100 -0.018646 -0.214804 0.412227 -0.148793 -0.307754 0.104070 -0.031498 -0.353221 -0.343643 0.533069 0.076993 0.074151 0.054759 0.424472 0.128282 -0.081304 0.229490 0.405055 -0.548793 -0.047373 -0.227385 -0.067214 0.365848 0.236064 -0.586005 0.511126 -0.389270 0.647016 -0.234719 -0.262114 -0.069170 0.227473 -0.094039 0.226696 0.239042 0.143889 -0.528486 0.263811 -0.274089 0.574058 0.153604 0.373412 -0.134751 -0.539339 -0.331669 0.094261 0.279472 -0.167466 -0.063797 0.570089 0.212977 -0.163963 0.021099 0.123981 0.439941 0.191130 -0.251657
CP022312.1 -0.406930 0.105574 -0.735299 -0.048057 0.462340 0.134190 -0.090694 -0.429032 0.258427 0.322323 0.121419 0.099507 -0.102994 0.266500 0.114157 -0.077402 0.443871 0.664383 -0.145784 -0.084333 -0.112481 0.432621 0.354995 -0.322461 -0.230557 -0.189338 0.112436 0.422924 0.677076 -0.068429 -0.236607 -0.617364 -0.602616 0.249676 0.002599 -0.579137 0.125869 -0.074526 -0.662664 -0.045715 -0.343775 -0.267373 0.284038 -0.164249 0.278659 0.045014 -0.210963 -0.877655 0.464728 0.116669 -0.695130 -0.587514 0.552290 0.040487 0.539828 0.237744 0.147073 0.403148 -0.278788 -0.327450 0.461063 0.040459 -0.028026 0.275467 -0.621294 0.355992 -0.423940 -0.491658 0.077230 -0.088528 0.390127 -0.161245 -0.380974 -0.473498 -0.531392 0.220604 0.167737 -0.437538 0.360857 -0.640317 -0.292693 0.030191 0.255864 -0.207705 -0.177600 -0.424240 0.489324 -0.212067 0.193787 -0.597912 0.077081 -0.019654 0.063104 0.037729 0.430932 0.019062 0.404691 -0.481372 0.038597 -0.404057 -0.221974 -0.339890 -0.613245 -0.105827 -0.408697 0.245398 -0.073485 -0.699816 0.448624 0.170861 0.260885 -0.118145 0.533565 0.204415 -0.569295 -0.258285 0.213036 0.686876 0.208851 0.646878 0.202999 -0.527778 -0.066165 -0.344872 -0.202181 0.350682 0.218385 -0.404464
CP014196.1 -0.542344 0.169043 -0.533679 -0.022454 0.407762 -0.003676 0.002713 -0.645718 0.159742 -0.291986 -0.126510 0.323686 -0.594146 0.765166 -0.209765 -0.526604 0.062378 0.122902 -0.042840 -0.203770 0.130622 0.136876 0.278682 0.110319 -0.173884 -0.092549 -0.158536 0.435356 0.330426 -0.172123 -0.196889 0.241810 -0.183771 0.100058 -0.675809 -0.711403 0.251753 0.049988 -0.665462 -0.194186 -0.675655 -0.654693 0.473382 -0.406498 -0.738677 -0.348587 0.219075 -0.399365 -0.207648 -0.301511 -0.026743 -0.305997 0.037976 0.272459 0.842248 -0.345132 0.181098 -0.315305 -0.513938 0.192452 0.038238 0.305906 0.555707 -0.090342 -0.271874 -0.480990 -0.478019 -0.274737 -0.020125 0.490921 0.430771 -0.135248 0.359799 -0.419450 0.232899 0.503212 0.115874 -0.078404 0.082021 -0.071940 -0.558297 -0.029080 -0.161193 0.100224 0.407961 0.136450 0.295558 0.027108 -0.003770 -0.565691 0.305073 -0.065267 -0.366400 -0.333097 0.274556 -0.269151 0.333215 -0.365833 0.552432 -0.307584 -0.235421 -0.229886 0.152538 0.431008 0.240381 -0.016177 0.107200 -0.232137 0.187541 0.256441 0.740151 0.545916 1.044374 -0.197275 -0.713628 -0.174342 -0.399368 -0.311080 -0.324808 0.190439 0.392572 -0.786079 0.033619 0.476482 -0.160958 -0.359396 0.168322 -0.834229
CP071765.1 -0.119373 -0.587777 0.016747 0.592846 -0.071718 0.086621 -0.069375 -0.354842 0.248872 0.143408 -0.238273 -0.314936 -0.508380 0.231141 -0.161871 -0.127813 0.028723 -0.080113 0.294734 0.547455 0.176806 0.144012 0.177911 -0.024933 -0.289653 -0.317058 -0.694303 0.716328 0.524853 -0.343279 -0.198595 0.116970 -0.120914 0.501167 -0.160986 -0.366064 0.015341 -0.071428 -0.554148 -0.399923 -0.859869 -0.472524 0.147927 -0.172774 -0.417575 -0.431203 -0.361862 -0.455795 0.520369 0.384547 0.146135 0.228498 -0.066760 0.027483 0.532572 0.096018 -0.341733 0.019542 -0.217056 -0.040961 0.817824 0.280583 0.023786 0.049733 -0.551658 -0.151604 -0.232250 -0.590088 0.517289 0.168916 0.632449 -0.158470 -0.538651 -0.489709 0.156882 0.176450 -0.259766 -0.241359 -0.220965 0.251005 0.564373 0.305996 0.552039 -0.094988 0.411093 -0.039024 -0.245846 0.151333 -0.120648 -1.005263 0.472300 -0.206811 0.225656 0.145664 -0.550941 -0.074406 0.064114 0.039432 -0.208663 0.068840 -0.456304 0.089151 -0.089760 -0.066781 0.585359 0.195108 -0.062790 -0.340731 -0.121534 0.307319 0.580320 -0.149243 0.645916 0.087276 -0.744651 -0.375348 0.126102 0.164232 -0.619165 0.877346 0.002941 -0.262361 -0.561464 -0.077743 -0.388340 0.565007 0.038631 -0.290414
CP071823.1 0.095697 -0.413833 -0.676020 0.448124 0.079707 0.322876 -0.173538 -0.653814 -0.102040 0.048446 -0.340605 -0.293666 -0.004085 0.053253 -0.300696 0.541057 -0.084954 0.575350 0.197440 -0.306860 -0.053500 -0.289763 -0.012428 -0.232413 -0.404688 -0.334799 -0.357345 0.301934 0.794016 -0.371406 -0.695737 0.130543 -0.458091 0.093510 0.056285 -0.644165 -0.398429 -0.773242 0.104837 -0.123189 -0.444314 -0.165167 0.350652 0.206859 0.209956 0.286503 -0.348800 -0.462272 0.500691 0.332725 0.126737 -0.308388 0.291859 0.239952 0.255381 -0.812377 -0.294781 0.203094 -0.266606 0.136693 0.462662 0.856936 0.260279 -0.057269 -0.173916 -0.419133 -0.028820 -0.124121 0.557559 0.195595 0.691803 0.655330 0.064499 0.105398 0.035393 -0.289562 0.342228 0.567042 0.116530 0.155804 0.173100 -0.422373 0.636071 -0.331092 0.272140 -0.283984 0.126207 0.442821 0.392254 -0.157476 0.225042 0.056828 0.188840 -0.394090 0.056784 -0.116069 -0.083385 0.240665 0.087358 -0.270804 0.007299 -0.006664 -0.396602 0.324748 -0.112972 0.325902 -0.190433 -1.164346 0.519405 -0.217758 0.879446 -0.220804 0.257127 -0.088469 -0.193319 -0.605377 -0.324662 0.474666 -0.077011 0.379344 -0.024022 -0.045325 -0.807281 0.743704 0.151324 0.029908 0.343354 -0.234982
NQJM01000001.1 -0.065296 0.501406 -0.647979 0.641541 0.200885 -0.054319 0.657994 0.154572 0.229500 -0.051353 0.560327 -0.464090 -0.131453 0.835732 -0.364106 -0.133256 -0.116128 0.287016 -0.208336 0.536914 -0.164800 -0.279345 0.276254 0.147550 -0.320667 -0.491267 0.150938 0.024116 0.250686 -0.679666 0.420080 -0.468978 -0.407367 -0.331764 -0.335783 -0.770570 0.434974 -0.130926 0.015649 0.372290 -0.518584 -0.648147 0.242282 -0.515302 0.066340 0.102053 0.325408 -0.456332 -0.066407 0.157335 0.126506 0.551736 0.630273 0.385007 0.955155 -0.617854 0.114819 0.384878 -0.177916 0.359713 -0.073388 0.535470 0.346732 0.084795 -0.556770 -0.077180 -0.767910 -0.027824 -0.086066 -0.106595 0.200351 0.053877 -0.015712 -0.226789 0.161054 0.150202 0.610621 0.007528 -0.824681 -0.898732 -0.592118 0.254948 0.731810 -0.318014 0.253471 -0.388542 0.242047 0.285499 -0.128733 -0.419372 0.015141 0.114701 0.146588 -0.207128 0.596040 -0.037400 0.139055 0.195557 0.434044 -0.046653 -0.740115 0.084447 -0.034806 -0.050567 -0.110159 0.384272 -0.173318 -0.581279 0.627514 -0.066646 0.530334 0.376489 0.258987 -0.218780 -0.082617 -0.273324 0.117904 -0.420650 0.185637 0.344622 0.592530 -0.339374 -0.606330 0.953860 0.332290 -0.173819 0.151482 -0.867383
CP031778.1 -0.337292 -0.452856 -0.360150 0.309090 -0.122546 0.036844 -0.213115 -0.166807 -0.296893 0.380835 0.039638 -0.707730 -0.191789 0.444781 -0.306330 0.037235 0.242201 0.135734 -0.315562 -0.101541 0.221520 0.215400 -0.331134 -0.094351 0.249553 -0.535257 0.128194 -0.254926 0.434698 -0.466732 -0.515011 0.062265 0.016348 0.255817 -0.167741 -0.734898 -0.174252 -0.552588 -0.191337 -0.054128 -0.781543 -0.201473 -0.171599 0.413483 -0.574946 0.114774 0.157376 -0.073885 -0.149517 0.321375 -0.443791 -0.196918 0.099376 0.152807 0.630948 -0.175076 -0.055271 0.387227 -0.293196 0.314720 0.343278 0.224883 0.546502 0.414463 -0.075539 0.059213 -0.582098 0.026764 -0.092903 -0.180159 0.424333 0.155878 -0.044247 -0.057490 0.522191 0.328738 0.369749 -0.188868 0.056257 0.110588 -0.150810 0.127159 0.446535 0.552172 -0.013180 -0.697508 0.248663 0.195151 0.261255 -0.657806 -0.153840 -0.407942 -0.465145 0.453395 -0.239198 0.428336 0.183701 0.074405 -0.119052 -0.392538 -0.719956 0.246723 0.144098 0.440448 -0.095033 0.045635 -0.089644 0.091723 0.653198 0.540058 0.217111 -0.512071 0.478931 -0.559798 -0.554374 -0.181288 0.210264 0.520042 -0.512560 0.250028 0.351276 -0.120499 -0.142876 0.559056 0.102305 0.306588 -0.167293 -0.709466
CP006831.1 -0.155451 -0.483308 -0.113380 0.321254 0.363534 0.386190 -0.021493 -0.204652 -0.158385 -0.215054 0.603684 0.238103 -0.088378 0.843729 -0.224426 0.496907 0.062758 0.328541 -0.188753 -0.003393 0.032021 -0.206817 0.043201 0.094424 -0.516138 0.071513 -0.283284 0.751005 0.709335 -0.281164 0.105244 -0.686175 0.075295 0.009748 -0.263224 -1.076380 -0.334552 0.311073 -0.056985 0.294251 -0.610019 -0.198401 -0.135154 -0.111034 -0.076154 -0.188073 -0.410925 -0.735207 0.108147 -0.026617 0.235891 0.243413 0.237746 -0.184750 0.087102 0.047806 0.190882 0.495856 -0.354729 -0.410074 -0.140945 -0.124610 -0.129200 -0.229437 -0.342601 -0.009303 -0.425153 -0.487484 0.401734 0.051219 0.040781 0.169404 -0.192418 0.032290 0.024817 0.299313 0.493372 0.000234 -0.242750 -0.101043 -0.115423 0.080772 -0.214938 -0.588036 -0.019585 -0.196271 0.720942 0.473569 -0.157938 0.188078 0.230338 -0.070701 0.003514 0.454650 0.182868 -0.165775 -0.318757 -0.048920 -0.100773 0.090727 -0.836218 0.380708 -0.372134 0.058597 0.130963 -0.435051 -0.026668 -0.238634 -0.085751 -0.224594 0.537647 -0.209534 0.295871 -0.325136 -0.413971 -0.335062 0.128255 0.099148 -0.469119 0.472380 0.025039 -0.211805 -0.652465 -0.010267 0.115597 -0.391367 0.427422 -0.198050
CM001046.1 -0.923151 -0.257947 -0.206037 0.175511 0.663438 0.383513 0.137832 -0.271261 -0.116332 -0.031120 0.524469 -0.641946 -0.253571 0.394381 -0.182577 0.219867 0.602454 0.049353 0.271967 0.338778 0.299282 0.356207 0.098895 0.446517 -0.459864 0.507948 0.082649 0.577391 1.047292 -0.229904 -0.280443 -0.568991 -0.737692 -0.260728 -0.450961 -0.543839 -0.481273 0.027398 -0.033990 0.290204 -0.364447 -0.687240 0.494239 0.146919 0.056339 -0.506286 -0.632611 -0.082808 -0.098049 0.371005 0.698700 -0.297847 0.699665 0.219621 0.840754 -0.463283 -0.201198 -0.044097 -0.031940 0.502293 0.464215 0.210266 0.692617 0.041664 -0.112999 0.116148 -0.566920 -0.149764 0.058279 0.613070 0.406197 0.139647 0.623557 -0.219677 0.178752 0.493666 0.070730 0.002887 -0.046717 -0.172469 0.551642 0.244661 -0.002308 -0.037051 0.330855 -0.266405 0.613289 0.233582 0.181274 -0.204876 -0.098265 0.438526 -0.303138 -0.303002 -0.411092 -0.418785 0.414252 -0.604708 -0.083823 -0.482206 -0.456536 -0.099175 -0.818567 0.603136 0.476259 0.479126 0.211872 -0.466133 -0.013770 0.445508 1.123522 -0.337181 0.038253 -0.446382 0.131227 0.253291 -0.090188 0.158666 -0.339771 -0.099651 0.117267 -0.429025 0.216419 0.038438 -0.231667 -0.429152 0.551881 -0.898185
CP050202.1 -0.392971 0.345494 -0.224289 0.735093 0.027317 0.594722 0.430989 -0.519893 0.348077 0.608861 0.041922 -0.078646 -0.180871 0.570027 0.113577 0.428418 0.198586 0.044157 -0.151096 -0.261945 0.241517 0.498763 -0.382215 0.045738 0.020560 -0.070849 -0.278462 0.524446 0.636304 -0.247634 0.281306 -0.459988 -0.021877 0.764291 -0.232978 -0.276453 0.107321 -0.531209 -0.639105 0.196782 -0.197674 -0.287155 0.639241 -0.112704 0.095460 0.176697 0.158689 -0.201807 0.157237 0.637805 0.433722 -0.177729 -0.232363 0.138104 0.061812 0.127981 0.167607 -0.101911 -0.363730 0.221025 0.578639 0.401875 -0.175124 0.480608 -0.432867 -0.473651 -0.126218 -0.260201 0.508041 0.242417 -0.368798 0.270949 0.028958 0.390543 0.121564 0.048110 -0.322379 0.351298 -0.369050 -0.251411 0.200975 0.302426 0.379220 -0.316392 0.408762 -0.479569 0.125266 0.105413 -0.072385 -0.056434 0.433729 -0.147897 0.045005 -0.071017 -0.231823 -0.233216 0.102572 -0.032981 0.123210 0.238789 -0.567168 -0.256935 -0.042373 0.245055 -0.240562 0.620928 0.449323 -0.662121 -0.130257 0.025646 0.137391 0.061279 0.335338 -0.364801 -0.671107 0.086011 0.200897 -0.274542 -0.372850 0.025140 0.659907 -0.654911 0.061759 0.277467 0.095949 -0.212437 0.350704 -0.556583
NZ_JTHH01000008.1 -0.303183 -0.076041 -0.309074 0.232094 -0.006703 0.054361 -0.134656 -0.143003 -0.480460 0.272138 0.227704 -0.479770 -0.205982 0.668839 -0.574346 -0.225568 0.332387 -0.027023 0.019225 0.263291 0.217880 0.335789 -0.101961 -0.091965 0.064477 -0.516427 0.018446 -0.369313 0.411797 -0.535561 -0.210923 -0.160846 -0.149671 0.258284 0.036746 -0.642557 -0.320408 -0.466069 -0.369393 -0.426424 -0.602436 0.212464 0.262895 0.462794 -0.474205 0.718179 0.257608 -0.156702 -0.194047 0.006750 -0.486190 -0.070747 0.380169 0.458224 0.840930 -0.417516 -0.292497 0.442333 -0.140250 0.488266 0.219618 0.480509 0.792141 0.219594 0.070721 0.155680 -0.646244 0.249210 -0.072059 -0.119098 0.498021 0.099529 0.039492 -0.136639 0.263929 0.339778 0.617328 -0.554610 0.068517 0.071952 0.085287 0.161824 0.283106 0.625905 -0.258255 -0.719028 0.246426 0.287483 0.228338 -0.691151 -0.070723 -0.486286 -0.048528 0.256220 -0.210441 0.334528 0.464814 -0.071110 -0.223503 -0.514911 -0.492737 0.144156 -0.089915 0.249533 -0.414753 -0.062795 -0.022875 0.037837 0.576082 0.638531 0.136982 -0.286702 0.367384 -0.810683 -0.312953 0.068107 0.186144 0.459546 -0.115225 0.659764 0.219238 -0.141186 -0.040396 0.440364 0.529814 0.229748 -0.191543 -0.709515
NZ_QLOB01000001.1 -0.468363 0.325795 -0.382187 0.088311 0.480702 0.398747 -0.125131 -0.129366 0.737158 0.066360 -0.399041 0.391390 0.329042 0.884193 -0.431907 -0.188638 -0.418537 -0.112889 0.096168 -0.575782 0.191879 0.011055 -0.326686 0.538731 -0.561291 0.124019 -0.298754 0.417318 0.814272 -0.836637 -0.232247 -0.271490 0.001246 0.529851 0.106953 -0.797640 0.068882 -0.122549 -0.702289 0.045008 -0.685536 -0.343286 0.130066 0.113615 -0.552139 0.268914 -0.041859 -0.891179 -0.032218 0.124695 -0.619643 0.027135 0.014056 -0.120766 0.030190 0.391885 0.274218 0.264269 -0.192946 0.456411 0.432481 0.188858 0.271978 0.498275 -0.417855 -0.487209 0.002610 -0.449859 -0.467606 -0.604277 0.653715 0.207270 0.082259 -0.027670 0.664824 0.441959 0.827399 0.022486 -0.114595 0.384091 0.230677 0.313727 0.527703 0.155021 -0.343791 -0.761834 0.327450 0.534863 0.074884 0.010103 0.555999 -0.794460 0.439882 0.186876 -0.232786 0.256562 -0.336083 -0.084633 0.637091 -0.104083 -0.481069 0.177017 -0.520984 0.171750 -0.418000 0.116682 0.577959 -0.472702 -0.041093 0.426658 1.026684 -0.630766 1.122950 -0.638265 -0.297844 -0.129557 0.434133 -0.083507 -0.511295 0.651441 0.352158 -1.439021 0.469122 0.303469 0.365319 -0.729998 0.118553 -0.688790
CP051128.1 -0.494075 -0.219581 -0.152049 0.153955 0.495169 0.780104 -0.391730 -0.300109 0.315635 -0.177362 0.837869 0.028326 -0.011293 0.095470 -0.758539 -0.023918 0.505127 0.074211 0.142484 0.752570 -0.320966 0.592678 0.157541 0.177732 0.084141 0.058874 0.178859 0.322522 1.039243 -0.189366 -0.475326 0.051520 -0.177245 0.673485 -0.139974 -0.578937 -0.318371 -0.189045 -0.083728 0.752308 -0.394123 -0.482673 0.666647 0.549623 -0.570702 0.231969 0.030399 -0.826597 0.360724 0.475597 0.468798 0.047816 0.294737 -0.023285 0.549647 -0.033299 -0.045844 -0.187246 -0.197518 0.447771 0.357719 0.420819 0.945364 0.424167 -0.638860 0.378914 -0.043228 -0.279354 0.469335 0.092395 0.065536 -0.138973 0.209670 0.487455 -0.001599 -0.274522 0.899408 -0.020113 -0.946147 0.126943 0.027919 0.263488 0.736531 0.471041 0.456375 -0.562358 0.305435 0.102211 0.121655 -0.437721 0.624254 -0.026520 -0.129973 0.555467 0.259371 -0.481653 0.144923 -0.130231 -0.047587 -0.244910 -1.195500 -0.073362 -0.867388 0.060396 -0.358707 -0.163284 -0.217729 -0.387939 0.029041 -0.191711 -0.089418 0.091737 -0.107823 -0.483613 -0.291320 0.053163 0.057449 0.086644 0.577042 0.684578 -0.091244 -0.296137 -0.297708 0.698211 0.373778 -0.198171 -0.099043 -0.755620
CP010005.1 -0.444574 -0.007361 -0.322887 0.498264 0.164769 0.130236 -0.037633 -0.102966 -0.213504 0.543069 0.297861 -0.347957 -0.155184 0.782937 -0.194307 -0.196251 0.587301 -0.122583 0.172906 0.310890 0.126872 0.516463 -0.381569 -0.019078 0.125753 -0.575783 -0.267847 -0.026970 0.453705 -0.691524 -0.092584 -0.100108 -0.064758 0.184884 0.012487 -0.548360 0.164987 -0.430960 -0.768136 -0.224537 -0.635945 -0.033149 -0.039731 0.353080 -0.621126 0.362256 0.145465 -0.261826 -0.103936 0.100455 -0.363085 -0.057042 0.140652 0.388411 0.796395 -0.372080 0.004178 0.067958 -0.193611 0.432502 0.288303 0.453802 0.686071 0.502866 -0.127535 0.241248 -0.703766 0.088965 -0.160512 -0.203208 0.469329 -0.202253 0.052275 -0.047752 0.463249 0.340949 0.472427 -0.580189 -0.075190 0.114024 0.274619 0.415282 0.276260 0.665825 -0.020294 -0.523714 0.077408 0.045479 -0.075657 -1.030884 -0.077631 -0.507930 0.005407 0.393594 -0.468479 0.461368 0.495652 -0.132548 -0.171121 -0.238341 -0.522128 0.096341 0.269754 0.033652 -0.124987 -0.020507 0.229036 0.051037 0.272551 0.793908 0.125274 -0.382525 0.326232 -0.627738 -0.616557 0.358017 0.240976 0.398294 -0.109974 0.520396 0.077944 -0.388250 0.416586 0.147450 0.238225 0.265932 -0.245773 -0.847325
CP012388.1 -0.399301 -0.651510 -0.634455 -0.292599 0.023093 0.207960 0.591573 -0.268884 -0.329891 -0.390078 0.247540 0.298322 -0.737604 0.537444 -0.061325 -0.072967 -0.040481 0.173724 -0.297735 -0.066714 -0.606115 0.060537 -0.466879 -0.226031 -0.631655 -0.322602 -0.443096 0.430548 -0.039601 -0.951923 -0.289349 0.065944 -0.060654 0.080223 -0.220194 -0.162851 -0.318352 0.020298 -0.186850 -0.011557 -0.904151 -0.558331 0.037035 0.384164 -0.058420 0.339332 -0.143351 -0.169426 0.175712 0.321493 -0.109284 -0.250055 0.109178 -0.021198 1.198826 -0.443659 -0.274432 -0.013730 -0.399832 0.612733 0.765084 0.137293 -0.114635 -0.111266 -0.223192 0.073945 -0.471668 0.070221 0.104693 -0.057486 0.687051 0.190875 -0.464884 -0.041062 -0.225101 0.673023 0.551780 0.158626 0.036869 -0.680748 0.582254 0.064557 0.143256 0.055198 0.219217 -0.090990 0.374572 0.021338 -0.230647 -0.441260 0.579466 -0.458754 0.383131 0.063913 0.383785 -0.825643 -0.263909 0.272751 0.072110 -0.062018 -1.155836 0.102117 -0.484519 0.459170 -0.588341 0.516316 0.429559 -0.636708 0.527807 0.258282 0.336560 0.487836 0.726185 -0.255271 0.012938 -0.082873 -0.299015 -0.073834 -0.380986 0.755904 0.193312 -0.166915 0.112825 -0.062332 0.008989 0.196091 1.226307 -0.773839
AP012495.1 -0.638223 -0.464694 -0.555221 0.510259 0.696656 0.482538 -0.186857 -0.710479 0.245803 0.150100 0.320643 -0.825951 0.209129 0.539131 -0.397613 0.446609 -0.396096 0.401853 0.108920 -0.264826 0.324698 -0.247251 0.219294 -0.056139 -0.047315 -0.672587 -0.783825 0.175061 0.823852 -0.664466 0.113277 -0.362615 -0.639897 0.292281 -0.428856 -0.343859 -0.792064 -0.193289 -0.398935 -0.059057 -0.572374 0.136435 0.520356 0.987521 0.097985 0.393045 0.431383 -0.371163 0.290219 0.131767 0.316566 0.083907 0.033753 -0.366562 0.731416 -0.676483 -0.189500 -0.078925 0.051773 0.108145 0.830153 0.088989 -0.127546 -0.051599 -0.548955 0.004674 -0.883929 0.342001 -0.037512 0.109484 0.364370 -0.205769 -0.168912 0.374281 -0.106245 -0.150223 0.670267 -0.171088 0.161491 0.430751 -0.257757 0.132010 0.157169 -0.238951 0.454607 0.046545 0.117156 -0.059599 0.215943 -0.258795 -0.081711 -0.065726 -0.496042 0.119932 0.141122 -0.226207 -0.035333 -0.275615 0.310837 -0.216417 -0.306189 0.299927 -0.225731 0.325107 0.476849 0.069820 0.356118 -0.600950 0.029139 -0.255232 0.180222 0.004582 0.341588 -0.767815 0.100528 0.413070 -0.070928 0.538342 -0.271111 0.550228 0.247915 -0.581818 0.393069 -0.140783 0.146549 0.520339 0.453887 -0.559610
CP049045.1 -0.636904 -0.116070 0.000000 0.214229 0.495412 0.583499 0.453602 -0.412940 -0.294191 -0.183784 -0.003652 -0.251881 -0.310845 0.480469 -0.283943 0.183994 -0.192796 0.177377 -0.142537 -0.069987 0.034053 -0.003970 0.226651 -0.244928 -0.616585 0.356635 0.103767 0.533671 0.557890 -0.046094 -0.041918 -0.272582 -0.233069 0.248867 -0.744338 -1.389141 -0.331612 0.363978 0.422103 0.116920 -0.730691 -0.465594 -0.035635 -0.273751 -0.107192 -0.053292 -0.245591 -0.311231 0.168537 -0.128762 0.110121 0.355147 0.448108 -0.254079 0.284057 0.059041 -0.125651 0.433140 0.160875 -0.300812 0.593270 0.096463 -0.035388 -0.286501 -0.586015 -0.137380 -0.143829 -0.747379 0.452894 0.171246 0.152583 0.359265 -0.344323 -0.073634 -0.153952 0.069147 0.467951 0.109553 -0.048068 -0.095598 -0.040215 0.224569 -0.124040 -0.908268 -0.250806 0.308383 0.520110 0.447427 -0.225821 0.264685 0.094374 -0.224151 -0.068684 0.064602 -0.047029 -0.207009 0.082259 -0.235363 0.671967 0.174432 -0.896686 -0.031156 -0.332699 0.229751 0.311042 0.049123 -0.257199 -0.269014 0.284500 -0.418947 0.618927 -0.210067 0.329412 -0.380966 -0.050764 -0.658907 0.024570 0.060630 -0.085181 0.507194 0.363944 -0.022091 -0.674012 0.000953 0.174967 -0.367914 0.595014 -0.256839
CP019576.1 -0.237817 -0.047747 -0.107293 0.958518 0.406825 0.611884 -0.088424 0.319519 -0.436838 0.194093 -0.423248 0.276207 -0.649156 0.667778 -0.377717 0.179042 -0.151739 -0.054221 0.074752 -0.386960 0.340448 0.286297 -0.243979 -0.668947 -0.324821 0.315573 -0.605659 0.621293 0.964935 -0.670120 0.281559 -0.613007 -0.620917 -0.289980 0.319202 -0.411176 0.098781 -0.771324 -0.129674 0.096605 -0.925398 -0.774755 0.344134 -0.001801 -0.179965 -0.122849 -0.243869 -0.362141 0.435579 0.266538 0.418873 -0.266381 0.826879 -0.062450 0.446426 -0.806165 -0.744381 0.393443 -0.017988 -0.044711 -0.204391 0.430523 0.473108 0.077599 -0.700871 0.106925 -0.320391 -0.292085 -0.001431 -0.261081 0.072797 0.226837 0.274012 0.667001 -0.017015 0.246209 0.636368 -0.047623 -0.141054 -0.655676 -0.356686 0.096191 -0.276603 -0.439720 -0.148520 -0.412590 0.255712 0.259315 0.027633 -0.588922 -0.134658 -0.512859 0.333168 -0.447270 -0.126519 0.442371 0.485372 -0.109130 0.475604 -0.455900 -0.156281 0.006313 0.167954 0.612302 0.303493 0.108516 0.032084 -0.471071 0.736738 0.158804 0.835663 0.116282 0.185318 -0.161941 -0.877946 0.160058 0.648322 0.541476 -0.247222 0.612744 -0.182660 -0.510119 0.081717 0.745875 0.547614 -0.478292 -0.007705 -0.981760
CP014269.1 -0.347397 0.004365 0.281887 0.394407 0.583709 0.230091 0.144368 -0.527932 -0.263529 0.314941 -0.144771 -0.411931 -0.883063 0.476787 0.033631 -0.074420 0.188163 -0.218141 0.471871 -0.026672 0.159686 -0.245237 0.005325 -0.129104 -0.321402 -0.097934 -0.290170 0.687941 0.078989 0.057453 -0.292257 -0.655449 -0.315264 0.486756 0.012391 -0.223984 -0.100663 -0.482241 -0.472883 -0.482636 -0.094947 0.428620 0.313912 -0.259529 -0.102709 0.344570 0.286086 -0.531716 -0.275900 0.336865 0.331283 0.007645 0.193667 0.150132 0.678880 -0.016044 0.001077 -0.146158 -0.314229 0.547102 0.400332 -0.192021 -0.104853 0.227993 -0.147566 0.025624 -0.094858 -0.390064 -0.027832 -0.235461 0.449299 -0.054867 0.160753 0.244962 -0.361155 -0.239814 -0.174007 0.115053 -0.085461 -0.067554 0.068600 0.231444 0.090517 -0.025252 0.176876 -0.557351 0.174596 0.185708 0.359289 -0.178104 0.186847 -0.433418 -0.036953 -0.174859 -0.478609 -0.674483 0.258924 -0.493806 0.331041 0.433042 -0.602121 0.052712 -0.349951 0.494033 -0.337453 0.170513 0.069593 -0.492072 0.176431 -0.016522 0.309502 -0.195823 0.630283 -0.167703 -0.323882 -0.112747 -0.148538 -0.065245 -0.085146 0.154028 0.333977 -0.375307 0.242640 0.731446 0.254389 -0.051600 0.452626 0.131084
KE136335.1 -0.584735 0.158184 -0.101322 0.235674 0.448447 0.346243 0.241141 -0.466058 -0.288946 -0.328418 0.096784 -0.311782 -0.499917 0.019255 -0.388640 0.109868 -0.010174 0.404717 0.233498 0.222355 0.347788 -0.076669 0.290822 -0.254352 -0.574163 0.369739 0.346878 0.468971 0.352720 0.038632 -0.229462 -0.160080 -0.483112 0.352681 -0.633551 -1.244424 -0.406198 0.524130 0.265612 0.360079 -0.936141 -0.154767 0.365331 -0.244318 -0.241517 -0.143517 -0.235149 -0.415071 0.257189 -0.276586 0.536562 0.085290 0.741610 0.404024 -0.006410 0.060055 -0.075988 0.167133 -0.010304 0.125701 0.669675 -0.006172 0.021083 -0.419822 -0.583075 -0.055599 -0.217412 -0.498283 0.508287 -0.035198 0.160825 0.293278 -0.480119 -0.044265 -0.347841 0.025481 0.555383 0.245214 -0.506307 0.077670 0.373811 -0.161831 -0.070782 -0.826637 -0.498529 0.152575 0.662713 0.548505 -0.168629 0.100128 0.187184 -0.358117 -0.309333 0.296484 -0.125983 -0.041068 -0.122069 -0.337136 0.460337 0.150899 -1.006305 0.281773 -0.221437 0.056883 0.207326 0.278033 -0.242356 -0.393593 0.508441 -0.342741 0.896226 -0.648951 0.440708 -0.614774 0.179828 -0.485838 -0.114613 -0.122798 0.094491 0.716075 0.623105 0.004461 -0.703493 0.006058 0.308159 -0.381407 0.484843 -0.432048
CP014272.1 0.170307 0.375145 -0.436644 0.129497 -0.138987 0.370044 -0.051273 -0.473625 -0.025376 0.368080 0.071951 -0.347120 -0.408960 0.256898 -0.126370 0.363245 -0.063441 0.126024 0.502452 0.263685 0.501836 -0.355867 0.253080 -0.257673 -0.448435 -0.434259 0.180727 0.722409 0.266025 -0.634267 -0.117083 -0.481427 0.047592 0.295417 -0.024489 -0.670084 0.140496 -0.441535 -0.324986 -0.405451 -0.360720 0.278030 0.243413 -0.062426 -0.062147 0.488064 0.427461 -0.515696 0.164410 0.383698 -0.447201 0.037485 0.216148 0.163441 0.221523 -0.091527 0.130887 0.183567 -0.127525 0.763511 0.193288 -0.194839 0.156493 -0.035609 -0.110084 -0.285014 0.418091 -0.034695 0.263261 0.165445 -0.118363 -0.343813 -0.152496 0.342984 -0.382709 0.102991 0.323429 -0.388329 -0.638445 -0.131388 0.197166 0.723070 -0.219842 -0.101272 -0.352047 -0.499607 0.250254 0.512020 0.453325 -0.414370 0.280249 0.349292 0.640271 0.440358 -0.094968 -0.573660 0.131772 -0.231865 0.510562 -0.300083 -0.777794 -0.102706 -0.099825 0.494761 -0.502075 0.515530 0.006235 -0.645331 0.577791 0.139047 0.403254 0.061833 0.244152 0.052644 -0.140435 -0.017664 0.355956 0.450321 -0.178719 0.352715 0.704056 -0.516646 0.036090 0.337643 0.038742 -0.263810 0.194502 -0.436317
NZ_CP073707.1 -0.556117 0.355459 -0.173947 0.068853 0.326820 0.515336 0.421942 0.784530 0.151550 -0.156544 0.189915 -0.391811 0.413678 0.231757 -0.325800 -0.158599 0.048609 0.705390 0.253467 -0.222973 -0.035529 0.529011 -0.188335 -0.158257 -0.198225 -0.527872 -0.328517 0.360889 0.814475 -0.890283 0.161767 -0.108955 -0.343959 -0.115653 -0.098100 -1.040620 -0.360588 -0.380400 -0.676817 0.189455 -0.820940 -0.221776 0.145479 0.296176 0.096484 0.421403 -0.020877 -0.127413 -0.095839 0.401623 0.284555 -0.217790 0.267373 0.824011 0.677129 0.143701 0.138449 0.547870 -0.652889 0.397629 0.787845 0.122142 0.315058 -0.143662 -0.380497 0.510493 -0.231283 -0.157192 0.096972 -0.227043 0.384017 0.322559 -0.416884 0.136857 0.272435 0.879825 0.118908 0.102786 -0.853215 0.247690 0.335762 0.567954 0.065600 -0.461208 0.247502 0.228521 0.224336 -0.547155 -0.060418 -0.372368 0.409779 -0.011389 -0.164614 0.365505 0.207295 0.146020 0.161138 0.249305 0.543362 -0.126643 -0.914795 0.207486 0.048464 -0.123444 0.538019 0.604621 -0.185151 -0.492364 0.775801 0.360526 0.582519 -0.196002 0.455962 -0.163401 -0.066212 -0.396209 -0.230197 -0.070735 0.076595 0.760798 0.234200 -0.344430 -0.330147 -0.278649 -0.246994 0.162128 0.208679 -0.474916
LT618789.1 -1.507168 0.081210 -0.825144 0.082439 -0.156742 0.072634 0.127802 -0.567743 -0.012796 0.186074 0.087078 0.283892 -0.685309 0.305433 -0.428376 -0.289946 -0.063874 0.198132 0.296913 -0.247678 0.625198 0.482791 -0.639530 0.668667 -0.026072 0.105827 -0.395805 0.138124 1.024442 -0.565256 -0.164130 -0.596515 -0.292621 1.429521 -0.915260 -0.569200 0.205549 0.228890 -0.133966 0.216362 -0.904625 -0.318554 1.310314 -0.103014 -0.420398 0.041272 0.331822 0.103317 -0.263293 0.386385 0.121000 0.160359 -0.279808 0.164331 0.731131 -0.183959 -0.194783 0.400576 -0.174421 0.116495 0.207843 0.282321 0.581723 0.520291 -1.179929 -0.518844 -0.521158 -0.664214 0.181972 0.162649 0.046765 -0.379612 -0.277071 -0.699537 0.187096 0.378625 0.852597 -0.004793 0.130537 -0.377740 -0.299849 0.707343 0.292740 -0.289552 0.049457 -0.319484 0.322892 0.015054 -0.394574 -1.077555 0.329641 -0.141489 -0.169942 -0.219886 0.292115 0.174497 0.486959 -0.560103 -0.294125 -0.523867 -1.289555 -0.562386 -0.114735 0.988425 -0.352703 0.537399 0.457715 -0.773851 0.192350 0.086934 -0.057943 -0.595148 0.371741 -1.169945 0.045650 0.621982 0.830337 -0.338391 -0.201162 0.152835 0.922103 -0.614166 0.358772 0.273607 0.580444 -0.290948 0.280524 -1.186477
CP022426.1 -1.364288 0.270875 0.132808 -0.294847 0.348227 0.283086 -0.220884 -0.605358 -0.254599 -0.340282 0.499822 -0.070146 -0.515142 0.874878 -0.604167 0.309562 -0.075009 -0.547643 -0.525231 -0.023915 0.370195 0.653197 0.021541 0.036060 0.065736 -0.663768 0.265005 0.323115 0.467951 -0.366661 0.029559 -0.622341 -0.590311 0.870616 0.007601 -0.494707 -0.666777 0.341427 -0.482610 -0.217939 -0.292859 0.186349 0.519302 0.168087 -0.066756 -0.203381 0.642455 -0.924030 0.000115 0.206060 0.292588 -0.104941 0.910907 -0.357299 0.228207 0.565862 0.245267 0.470071 -0.318335 0.115823 0.832431 0.383217 0.122942 0.822960 -0.447659 -0.101522 -0.390202 -0.091623 0.400096 -0.050704 0.775208 -0.353899 -0.449496 -0.212959 -0.025235 0.223930 0.332038 -0.102904 0.035598 0.223747 0.025804 -0.171187 0.314806 -0.267225 0.337726 -0.956005 0.647713 0.327451 -0.402360 -0.491552 0.336111 0.209182 -0.408627 0.845566 -0.075942 -0.118651 0.440986 -0.731670 -0.326981 0.211211 -0.829314 0.178701 -0.893422 0.366306 -0.228001 -0.396517 -0.424181 -0.061422 -0.017247 0.295154 1.082583 -0.129125 0.544596 -1.134314 -0.355045 0.091198 0.332129 -0.142189 0.121220 -0.018510 0.819880 -0.351651 0.391810 0.188706 0.428621 0.156102 0.066233 -0.942352
CP027116.1 -0.963314 -0.283657 -1.151962 0.321967 0.533737 0.224215 0.166307 -0.888122 0.314355 -0.002847 0.432623 -0.687840 0.177105 0.288286 -0.333645 0.232269 -0.204266 0.821392 0.482718 -0.465825 -0.074659 -0.428760 0.327781 0.304656 0.132629 -0.531002 -0.455374 0.071346 0.810854 -0.669127 0.114933 -0.448490 -0.882179 0.618110 -0.632411 -0.489617 -0.541861 -0.135857 -0.036006 0.129899 -0.730813 -0.341077 0.762124 0.798799 0.145794 0.032423 0.184459 -0.369621 0.096407 0.059572 0.011089 0.099878 0.081555 -0.316820 1.115220 -0.764539 -0.259399 -0.027583 0.050983 -0.366105 0.471332 0.127024 -0.043120 -0.024478 -0.427472 -0.145305 -0.535883 0.403911 -0.339173 -0.079672 0.502428 -0.466008 -0.245193 -0.143205 -0.202497 -0.129763 1.071318 -0.614122 -0.061347 0.063159 -0.293928 0.029373 0.229974 -0.103820 0.274899 0.042353 0.328343 0.048301 0.370152 -0.468211 -0.038207 -0.026276 -0.020873 -0.355577 0.107595 0.119402 -0.046690 -0.304448 0.326781 -0.028184 -0.580721 0.019589 0.022668 -0.102428 0.004069 0.358318 0.525081 -0.716718 0.232110 -0.339349 0.156208 -0.439759 0.591457 -0.998553 0.093659 0.638380 0.180773 0.213200 -0.088373 0.688008 0.318686 -0.812742 0.362538 0.119337 0.064781 0.410206 0.809413 -0.819672
CP064311.1 -0.568866 -0.250052 -0.377466 0.894368 0.731927 0.274594 0.119645 -0.469264 -0.676188 0.463100 0.289510 -0.462112 0.045891 0.367924 -0.547484 0.350494 0.097914 0.214316 -0.072495 0.279385 -0.407652 -0.024739 0.050665 -0.244255 0.030563 -0.246284 -0.703353 0.033345 0.759504 -0.135043 -0.187460 -0.442610 -0.504277 0.919926 0.153399 -1.290037 -0.223642 -0.435869 -0.141065 -0.078762 -0.361147 0.310300 0.427073 0.777156 0.207331 0.317674 -0.698014 -0.603674 0.119328 0.483916 0.028100 0.381124 0.618602 -0.639381 0.874245 0.338567 0.296607 0.214793 -0.497115 0.638801 0.886570 0.341906 0.452926 0.252301 -0.339640 0.573998 -1.028395 -0.569880 0.665327 0.221566 -0.042794 0.483591 -0.042992 -0.035116 -0.121300 0.037782 0.426564 -0.213768 -0.116452 0.134955 0.829701 0.589614 0.129920 -0.313646 -0.143296 -0.479537 0.382894 -0.187168 -0.328450 -0.658720 -0.273941 -0.172293 0.394453 0.263205 -0.641596 0.101439 0.325965 -0.179977 -0.517845 0.249809 -1.168270 -0.059658 -0.421245 0.370197 -0.178372 0.077534 0.305574 -1.173581 -0.071829 0.078916 0.824463 -1.027870 -0.010796 -0.174676 0.116540 -0.004560 0.032605 0.510970 -0.282178 0.436483 0.381666 0.235427 -0.487599 -0.343087 0.165696 0.760238 0.446235 -0.204853
CP005976.1 0.058812 -0.090747 -0.062655 0.624469 0.846545 0.296490 -0.003610 -0.570899 0.032353 -0.097729 -0.140122 -0.377052 -0.241948 0.791906 -0.348283 0.393413 0.385501 -0.089272 -0.202191 0.090181 -0.451946 -0.018031 0.193535 -0.204655 -0.752604 0.452029 -0.408341 0.457631 0.217134 0.184996 0.005181 -0.377084 -0.263682 0.075941 -0.028800 -0.451434 -0.457155 -0.241016 -0.593393 -0.239920 -0.409310 -0.286767 0.054270 0.042021 0.177359 0.141974 -0.170994 -0.053909 0.674123 0.275322 0.327845 0.068743 0.363610 0.275867 0.550594 -0.250539 0.056390 0.073968 -0.240119 0.554589 0.256029 0.052406 -0.012000 -0.346374 -0.427527 0.276249 -0.529702 -0.378498 -0.482608 0.045767 0.088314 -0.018098 0.087288 -0.180092 -0.039994 0.317892 -0.019154 -0.468718 -0.239740 -0.102176 -0.251829 -0.211064 0.584562 -0.237252 -0.000056 -0.665720 0.326946 0.468286 0.161775 0.289040 0.022339 0.228255 -0.185434 0.024516 -0.188860 -0.178680 -0.312850 -0.098294 0.085432 0.137383 -0.145762 0.629728 -0.656929 0.250195 -0.181371 -0.190842 0.096640 -0.062398 0.085162 0.022464 0.516319 0.039260 0.708364 0.060758 -0.620732 0.474104 -0.125156 -0.150384 -0.339635 0.582487 0.880801 -0.251089 -0.683845 0.067684 -0.246420 0.122355 0.104152 -0.503205
AE005176.1 -0.441885 -0.214856 -0.726203 0.048421 -0.155237 0.213955 0.147654 -0.715722 -0.010972 0.093919 -0.085671 -0.381474 -0.081928 0.714516 -0.738716 -0.041800 -0.090886 0.262617 0.436925 0.613065 0.290634 -0.099131 -0.056831 0.187959 -0.758822 -0.227519 -0.200748 0.283561 0.422529 0.160052 0.553487 0.225669 -0.169965 0.371889 -0.097343 -0.620087 0.247385 -0.070844 -0.057724 -0.047399 -0.275443 0.191897 0.293062 0.221119 0.022838 0.562053 -0.226286 -0.209660 0.091741 -0.248457 0.003433 0.095991 0.601340 0.179513 0.676811 -0.318803 0.333171 0.291995 -1.057042 0.392303 0.606466 0.704419 0.482009 0.660027 -0.458834 -0.100993 -0.224814 0.052215 0.089531 -0.282930 0.316635 0.050461 -0.026291 -0.177776 0.035444 -0.358466 0.194596 0.263658 -0.323820 -0.004148 -0.147327 -0.254336 0.320837 -0.562694 -0.087768 -0.426215 0.258675 -0.065957 -0.728176 -0.433936 0.229432 0.266307 -0.244312 0.142247 0.096493 0.053302 0.469260 -0.204129 0.287199 -0.438552 -0.460408 0.224664 -0.155198 0.253636 0.168708 -0.247642 -0.298503 -0.543805 0.164465 0.175852 0.622164 -0.437683 0.692584 -0.218245 -0.389253 -0.223704 0.307247 -0.342143 -0.178690 0.327713 -0.449326 -0.581408 -0.107564 -0.465058 -0.386451 0.112846 0.261516 -0.260341
KE137323.1 -0.363959 -0.034192 -0.371403 -0.096842 0.599691 0.294945 0.314050 -0.219118 -0.328377 -0.777635 0.338115 -0.054127 -0.278021 -0.042754 -0.553008 -0.411802 -0.033797 -0.192881 -0.287905 0.279152 0.205008 -0.460109 -0.560547 0.655471 0.301095 -0.262659 -0.336002 0.373718 0.480840 -0.906522 0.138989 -0.305830 0.135909 0.226714 0.399458 -1.010651 -0.640925 -0.087506 -0.050000 0.208918 -0.895901 -0.616596 0.725209 0.114019 -0.717432 0.003159 -0.281500 -0.713973 0.100311 -0.289659 0.079692 -0.533822 -0.201000 0.627912 0.307570 0.157658 -0.510177 -0.443437 -0.005184 0.596267 0.391389 0.815518 0.915511 -0.289493 -0.444315 -0.160204 -0.157715 -0.338944 0.524078 -0.188586 0.106095 -0.034048 -0.055636 -0.242576 0.759195 0.275668 0.851034 0.251230 -0.258194 0.149990 0.118543 0.305310 0.596406 -0.637342 -0.030010 -0.193318 0.260416 0.576730 0.070155 -0.607790 -0.174092 -0.607582 -0.167399 -0.342507 -0.141778 -0.468557 -0.204292 0.232920 0.122539 -0.365348 -0.354337 0.051271 0.106486 0.464741 0.192137 1.161283 0.618336 -0.266557 0.308158 0.025969 0.725906 -0.391208 0.380251 -0.406401 -0.523555 0.199653 -0.046516 0.435895 -0.211350 0.395237 0.867719 -0.428767 -0.028558 0.921567 -0.212805 -0.288224 0.509713 -0.598229
KN150799.1 -0.662745 -0.333325 0.253685 0.185481 0.357060 0.230787 0.006997 0.077726 -0.472727 -0.286886 -0.214583 -0.275895 -0.268259 0.163041 -0.847733 -0.225547 -0.388391 0.482862 0.316582 0.439276 0.413843 -0.292737 0.036438 0.293033 -0.867791 -0.171013 -0.648358 0.266712 0.924424 -0.514586 -0.232432 0.111211 -0.503807 0.077221 0.644950 0.030111 -0.222855 -0.251886 -0.512495 0.433179 -0.416952 0.147354 0.659899 0.378811 -0.153126 0.645424 -0.333108 -0.448381 0.437092 0.551213 0.194407 0.103883 0.719784 -0.021372 0.528566 0.100331 -0.277227 0.907669 -0.021435 -0.015242 0.287857 0.218841 0.648090 0.035648 -0.464162 0.550842 -0.004236 -0.188216 0.441183 0.120791 0.697492 -0.250954 -0.042216 -0.021954 -0.156840 0.485345 1.022552 0.138744 -0.083499 -0.676485 0.332015 0.241133 0.797598 -0.114827 0.307168 -0.075686 -0.180795 0.527359 -0.189818 -1.021969 0.188753 0.073051 0.446140 -0.012164 0.059827 0.106126 0.388287 -0.596090 0.274070 -0.420233 -0.990454 0.128900 -0.963321 0.597393 0.340875 0.395140 0.081705 -1.243213 0.538841 0.075279 0.503173 -0.614382 0.617575 -0.870273 0.397871 0.474817 0.340568 0.086165 0.347421 0.619289 0.064940 0.136733 -0.694027 0.174185 0.059042 0.383039 0.490350 -0.597195
NZ_CP027782.1 -1.036485 -0.090480 -0.435368 -0.048735 0.322803 0.219046 -0.190837 -0.909428 -0.027894 -0.035486 0.000149 -0.531481 -0.619559 0.803687 -0.589344 0.328380 0.062562 0.608891 0.536895 -0.116698 0.344073 0.638192 0.369860 -0.526964 -0.011441 0.370604 0.131510 0.189143 0.450664 -0.710005 -0.377274 0.135074 -1.045485 0.063152 -0.374556 -1.442950 -0.111930 -0.072209 -0.088103 -0.220984 -0.131764 -0.498268 -0.072600 0.178793 -0.153347 -0.094311 -0.366777 -0.135150 0.149739 -0.124056 0.405781 -0.440146 0.515999 0.081094 0.518750 -0.707959 -0.376639 -0.247741 -0.312251 0.403913 -0.142667 0.056012 0.068872 0.010284 -0.403585 0.616440 -0.762445 0.243244 0.233738 0.239985 0.467628 0.052857 -0.536554 -0.054639 -0.400353 0.469744 0.456727 -0.214086 -0.907466 0.213574 -0.242593 -0.086858 -0.117926 -0.102701 0.108279 -0.121742 0.683743 -0.185776 -0.441222 -0.593939 0.007802 0.421826 -0.442030 0.802586 -0.427729 -0.367258 0.134260 -0.250963 0.038015 0.247708 -0.772820 -0.212778 0.367737 -0.103766 0.055036 0.268078 -0.049658 0.032373 0.624271 0.280600 0.550416 -0.178528 0.169171 0.157009 -1.002915 -0.529817 0.163378 0.113255 0.065079 0.539453 0.144527 0.070162 0.183367 0.705469 0.171408 -0.089720 0.848679 -0.884271
CM007353.1 -0.719975 0.204273 -0.989647 -0.066409 0.244046 -0.020200 -0.288302 -0.343549 0.082299 0.384226 -0.432581 -0.126234 0.055390 0.583476 -0.668148 0.232885 -0.379066 0.685201 0.276634 0.213865 0.204495 0.112252 -0.187263 0.144928 -0.655766 -0.109679 -0.259275 0.439003 0.304988 -0.225724 0.467410 -0.018570 -0.385214 0.693204 -0.238656 -0.547552 -0.089390 0.108172 0.051694 -0.405471 -0.009233 0.334209 0.053047 0.535249 -0.284664 0.506641 0.264684 -0.343388 0.258954 -0.238129 0.062773 0.074307 0.632980 0.135789 0.523218 -0.231735 -0.054041 0.497956 -0.907132 0.408821 0.335841 0.812419 0.215445 0.626201 -0.532250 0.020891 -0.279561 0.066034 -0.168930 -0.291572 0.116517 0.122821 -0.129086 -0.115989 -0.044127 -0.192928 0.195066 0.334938 -0.328113 -0.109334 -0.256249 0.095707 0.488598 -0.325934 0.099530 -0.327566 0.203691 0.032999 -0.537150 -0.562544 -0.032984 0.058482 -0.164576 0.337243 -0.010744 -0.217033 0.405069 -0.372985 0.327554 -0.360729 -0.349118 0.179445 -0.457135 0.488426 -0.055655 -0.307210 -0.024910 -0.125956 0.285338 0.095269 0.881699 -0.415698 0.548301 0.108583 -0.275504 0.008495 -0.122198 -0.041884 -0.448461 0.451602 -0.355452 -0.202641 0.039513 -0.538725 -0.059190 -0.008498 0.479024 -0.205286
CP011301.1 -0.324989 0.447928 -0.239171 -0.235529 0.263279 0.659827 0.562813 0.443928 0.215830 -0.145987 0.170434 -0.309997 0.252021 0.370458 -0.188168 -0.121980 0.041809 0.473111 -0.001490 -0.264202 -0.017741 0.647302 0.085358 0.056601 -0.129942 -0.670098 -0.022705 0.684895 0.902096 -0.687694 0.493264 -0.556171 -0.095173 -0.117771 0.033533 -1.015838 -0.325741 -0.480444 -0.913541 0.000092 -1.043166 -0.340616 0.080093 0.151108 -0.016880 0.202050 -0.257368 -0.081047 -0.107853 0.519815 0.341103 -0.529754 0.059034 0.788457 0.734304 0.088367 -0.324733 0.377278 -0.261395 0.328788 0.591534 -0.048827 0.466567 0.075041 -0.627047 0.486284 -0.090308 -0.115543 0.351054 0.101716 0.480168 0.406602 -0.398467 0.399467 0.515080 0.721282 0.452304 0.314888 -0.562622 0.294877 0.270676 0.244722 0.239101 -0.656593 0.466835 -0.074826 0.434019 -0.356946 0.002741 -0.806567 0.060160 0.170817 0.175997 0.137228 0.319508 0.131632 0.320782 0.411954 0.605571 0.350166 -1.027381 0.433985 0.099790 -0.147278 0.322694 0.623837 -0.012115 -0.484151 0.764808 0.312112 0.888761 -0.276835 0.717924 -0.526699 -0.222523 -0.541646 0.147334 -0.151948 0.294459 0.755815 0.224439 -0.223563 0.063861 -0.207825 -0.142795 0.333988 0.040193 -0.640138
MTZF01000001.1 -0.288611 -0.135960 -0.111985 -0.119371 0.613459 0.307939 0.263927 0.147645 -0.471844 -0.236500 0.227351 0.207870 -0.458892 0.140010 -0.384294 0.261718 0.139787 0.305463 0.301840 0.495309 -0.295467 0.697049 0.360355 0.774677 -0.351568 -0.206242 -0.346936 0.723233 0.667165 0.005560 -1.004765 -0.622504 -0.213007 0.688665 0.332022 -0.552895 0.265315 0.180110 -0.850919 -0.317600 -0.289924 -0.583315 0.477377 0.162619 -0.444421 0.353233 -0.266131 -0.581907 0.077598 0.043276 0.441353 -0.100389 0.569811 0.424700 1.110090 -0.074383 -0.246148 0.402343 -0.106600 -0.079178 0.641448 0.484006 0.655781 -0.603058 -1.122874 -0.344907 -0.550955 -0.562928 0.415353 -0.059625 0.570098 -0.021447 0.025496 -0.553974 -0.317807 0.183467 0.083468 -0.031791 -0.403709 -0.364652 0.108098 0.777170 -0.197779 -0.660087 0.311300 -0.002778 -0.038145 0.633732 -0.279601 -0.171621 0.191974 0.657726 -0.419491 -0.129108 0.192496 0.094348 -0.035847 -0.633368 -0.190956 -0.599141 -0.461640 0.064868 -0.031754 0.297900 0.046729 0.047744 -0.305471 -0.360951 0.789617 0.272443 0.343058 -0.116045 0.268898 -0.406303 -0.394164 0.314871 0.801384 -0.055983 0.429756 -0.042549 0.519062 -0.393809 -0.045523 0.069054 0.238840 -0.549037 -0.423714 -0.579865
CABEEN010000068.1 -0.269132 0.305745 -0.269285 0.464204 0.726211 0.030852 -0.286903 -0.431308 0.511727 0.605163 0.560904 0.191735 -0.327289 0.030470 -0.267384 -0.000418 0.349162 0.499058 0.216445 0.287849 -0.454317 0.217207 0.070922 0.129107 -0.719646 -0.396275 -0.497875 0.766844 0.357144 -0.866699 -0.582849 -0.286853 -0.820960 0.274969 -0.325915 -0.317825 0.239363 -0.108516 -1.042947 -0.200162 -0.493079 -0.615229 -0.357172 0.222369 -0.342791 -0.147800 0.026566 -0.418063 0.193715 -0.811879 -0.269084 0.620075 0.814444 0.308380 0.940880 -0.284049 -0.219554 -0.585670 -0.342915 0.472369 0.301928 0.499635 0.145917 0.087612 -0.502172 -0.310501 -0.717982 0.068328 0.069306 -0.336704 0.697950 -0.230935 -0.030382 0.020694 -0.000443 -0.284798 0.702667 -0.016357 -0.591383 0.224639 0.298493 -0.101352 0.399480 -0.332347 0.160123 -0.089216 0.443354 0.565990 0.143338 -0.600953 -0.272117 0.328080 0.379104 0.353567 -0.341243 0.134538 0.075895 -0.497381 -0.368236 0.122347 -0.423303 0.067953 0.134781 0.018300 0.126454 -0.099590 0.124669 -0.503344 -0.282520 0.336300 0.591299 -0.521776 0.447108 0.153072 -0.773169 0.016139 -0.018280 0.451871 -0.121663 0.524029 -0.245847 -0.149257 0.230407 0.926757 -0.280669 -0.544218 -0.334820 -1.002434
NC_001421 0.012295 -0.111153 0.157843 0.400226 0.609798 0.307117 -0.015718 -0.140061 -0.234988 -0.007149 0.119993 -0.109675 -0.213258 0.654974 -0.263686 0.391942 0.438748 -0.459313 -0.261565 0.066553 -0.198188 -0.077589 0.153329 -0.205776 -0.599442 0.154778 -0.116482 0.675696 0.237693 -0.041271 0.020941 -0.473159 -0.138902 0.073601 0.025545 -0.458095 -0.356189 -0.474915 -0.500696 -0.191501 -0.234244 0.041513 -0.015306 0.235750 0.148673 0.175366 -0.092674 -0.304074 0.257413 0.319930 0.263238 -0.065351 0.179635 0.218354 0.380020 0.012267 0.359731 0.010929 -0.279158 0.587435 -0.048691 -0.098637 -0.122177 -0.301181 -0.229510 0.183367 -0.430025 -0.203947 -0.409388 0.074732 -0.087964 -0.103109 -0.003213 0.024109 0.196950 0.041085 -0.067326 -0.158352 -0.426321 -0.293321 0.052043 0.015842 0.343288 -0.114100 -0.240162 -0.613108 0.303158 0.331640 0.118937 0.421709 0.149614 -0.029405 -0.076851 0.186808 -0.176450 -0.331595 -0.352475 -0.115599 0.294915 0.207641 -0.263423 0.636970 -0.676178 0.278354 -0.261963 -0.124279 0.110344 0.045423 -0.066973 -0.171997 0.571949 0.054363 0.558318 -0.046045 -0.705563 0.053745 0.145311 -0.092451 -0.308746 0.325162 0.684660 -0.190199 -0.540880 0.151944 -0.217226 0.059185 0.251121 -0.273305
CP041356.1 -0.477050 0.383000 -0.762099 -0.280967 0.473293 0.176024 -0.117701 -0.329587 -0.035791 0.068888 -0.704401 0.752261 -0.172602 0.184463 -0.660026 -0.048793 -0.333478 0.820542 0.502900 -0.372099 0.067857 0.443606 -0.083229 -0.165986 -0.130002 -0.027364 -0.487370 0.537448 0.572825 -0.928088 -0.304977 0.322325 -0.058300 0.835589 -0.189161 -0.490987 -0.209192 -0.029722 -0.489761 -0.056152 -0.665647 -0.154393 0.211107 0.528002 -0.656564 0.241448 -0.184607 -0.239706 0.543130 -0.101729 -0.238759 -0.085476 0.163572 0.305683 0.252879 -0.271417 -0.446043 0.381668 -0.718994 -0.077470 0.308075 0.415755 0.130812 -0.262097 -0.460261 -0.183108 -0.475373 -0.507013 0.487269 -0.310752 0.253313 0.329334 -0.597042 -0.023736 -0.023771 0.105804 0.849436 0.467998 0.059286 -0.277201 -0.067452 0.398736 0.502113 -0.046202 0.080804 0.178391 -0.183265 0.077554 -0.570345 -0.777873 -0.016589 0.243677 -0.291075 0.319997 0.268225 0.282343 0.213125 -0.061800 0.096000 -0.329191 -0.943659 0.217351 -0.013818 0.285944 -0.402393 -0.335801 0.238244 -0.411828 0.142450 -0.357383 0.636982 -0.471431 1.044376 0.233309 -0.906040 -0.680774 -0.223298 0.304926 0.039791 0.959549 -0.370757 -0.194527 0.282620 -0.030132 0.145461 -0.243459 -0.120856 -0.604439
FNRZ01000004.1 -0.307707 0.171598 -0.318565 0.359266 0.380230 0.042184 -0.026968 0.124819 0.187546 -0.130718 0.167708 -0.099044 -0.114089 0.624466 -0.527767 0.324906 -0.172824 0.164120 -0.003701 0.250666 0.024267 0.213385 0.137005 -0.226623 0.094767 -0.030462 0.222908 0.137894 0.670061 0.140290 -0.560719 0.072070 -0.362789 -0.246911 0.414244 -0.649403 0.353194 -0.509200 -0.356333 -0.103424 -0.561757 0.274547 0.008713 -0.036662 -0.712601 -0.004090 -0.214871 -0.939255 0.551904 -0.122406 -0.270558 0.309958 0.184775 -0.420104 0.587811 -0.197884 0.014396 0.128352 0.064036 -0.017148 0.604725 0.370899 0.185538 0.071581 -0.156859 0.139910 -0.790528 -0.897870 -0.097757 0.107675 0.819026 -0.453627 0.246883 -0.188114 -0.381964 0.284667 0.361207 -0.267535 -0.047900 -0.237172 -0.375430 -0.116339 0.498623 -0.341141 0.259026 -0.073327 -0.297333 0.245479 -0.545467 -0.377847 0.359895 0.411220 -0.198289 0.435136 0.096969 -0.051628 0.008216 0.011140 0.173938 0.423912 -0.418979 -0.207924 -0.068136 -0.231693 0.361596 0.709956 -0.037262 -0.981562 0.470896 -0.016974 0.988056 -0.384148 0.410596 -0.336219 -0.096091 0.165890 -0.317099 0.177859 -0.362998 0.343324 0.336926 -0.893722 -0.217276 0.897765 0.439706 0.348705 0.297792 0.266533
CP071526.1 -0.426863 -0.037345 -0.723047 -0.075830 0.366183 0.827320 -0.392649 -0.324164 0.262543 0.197873 0.354183 0.274952 -0.378934 0.086921 -0.301917 0.606162 -0.227454 0.211406 -0.181542 0.362625 0.370492 0.179804 -0.443632 -0.197359 -0.266088 -0.161042 -0.056258 0.601140 0.409250 -0.601227 0.250542 -0.652082 -0.096753 0.689120 -0.142669 -0.471803 -0.105928 0.300573 -0.281068 0.124930 -0.294155 -0.355100 -0.004340 0.243948 -0.251643 0.176437 -0.018499 -0.984138 -0.035906 0.522918 -0.006712 -0.215423 1.051270 -0.406298 0.564212 -0.307931 -0.312146 0.111137 -0.302328 0.030672 0.522154 0.659099 0.390817 -0.082259 -0.135530 0.318684 -0.324854 -0.134137 0.424247 0.532464 0.307573 0.425526 -0.217859 -0.181270 -0.752374 -0.334300 0.080127 0.438601 -0.617283 0.000989 0.440099 0.296074 0.067052 0.153374 0.268926 0.055875 0.017253 0.089031 -0.053608 -0.869292 0.464370 0.047647 -0.692443 -0.332646 -0.144524 -0.083007 0.261222 -0.896357 0.303001 0.013682 -1.028152 -0.562058 0.417076 0.096090 0.077996 0.418683 -0.649711 -0.244177 0.377355 -0.569175 0.916746 0.364693 0.064696 -0.660724 -0.465589 -0.264664 0.412158 0.598601 -0.300457 0.859863 -0.104560 -0.625336 -1.064322 0.448382 -0.392950 0.165714 0.800132 -0.122610
CP031023.1 -0.411920 -0.666349 0.096597 0.090627 0.322458 0.659562 -0.413890 -0.269129 0.069088 0.385955 0.262390 -0.936096 -0.615438 0.791172 -0.477075 0.733832 0.341899 -0.451965 0.317834 0.061046 0.345677 0.327006 -0.248363 0.145582 -0.214116 0.394573 -0.348145 0.488210 0.507226 -0.285370 -0.006978 -0.320818 0.155111 0.528811 0.089788 -0.786569 -0.203982 -0.395216 -0.699116 -0.427153 -0.211920 0.035730 0.793314 -0.155575 -0.232549 0.491618 0.065251 -1.022128 0.033928 0.002587 0.357217 -0.314695 0.645275 -0.191525 0.127353 -0.378969 0.147086 0.205869 -0.237293 -0.366715 0.028657 0.273260 0.266189 0.357157 -0.701197 -0.246503 -1.054883 -0.158002 -0.281320 0.551140 0.034436 -0.026209 0.142972 0.203761 0.260005 0.204313 0.497000 -0.230977 0.074227 -0.129298 -0.114959 -0.427117 0.734271 0.204568 0.498563 -0.059844 -0.175811 0.516411 -0.562366 -1.079456 0.530725 -0.091469 -0.083621 0.469605 -0.416750 0.264399 0.237350 0.530368 0.024152 -0.028012 -0.101762 -0.159184 -0.492370 0.045124 0.323840 -0.197378 -0.097640 -1.019739 0.263786 0.356342 0.509319 0.368875 0.645510 -0.698453 -0.015187 0.224119 -0.458538 0.783596 0.138482 0.245328 0.525146 0.272065 -0.362307 0.203019 0.465765 0.759431 0.718846 -0.779120
CP075894.1 -0.377596 -0.226612 0.182561 0.287383 0.348622 0.016535 -0.170007 -0.435734 0.226301 0.243771 -0.169177 0.226008 -0.719068 -0.035569 0.119152 -0.264281 0.275920 -0.512031 0.041543 -0.142474 0.215121 -0.205162 0.353432 0.102147 -0.251331 0.148024 0.128950 0.444510 0.844336 -0.692528 -0.345161 0.035804 -0.335171 0.553152 0.044867 -0.199978 -0.149580 -0.841291 -0.153779 -0.244339 0.071022 0.097488 0.266071 -0.180768 0.075675 0.232290 0.034997 -0.400303 -0.423252 0.565921 0.331326 -0.441277 0.070895 0.480939 0.508666 0.218366 0.243743 -0.145771 -0.267374 0.472889 0.092815 0.248065 0.226264 0.012484 -0.047636 -0.305532 -0.192863 0.172706 -0.054330 0.162370 0.026752 -0.521197 -0.130527 0.034991 -0.122194 0.043644 0.036158 -0.034938 -0.750091 -0.337946 0.603360 0.187240 0.189003 -0.228229 -0.328401 -0.168445 0.296736 -0.043665 -0.087386 -0.252622 0.531190 -0.278528 0.460645 0.357107 -0.358158 -0.554523 0.292759 -0.724352 0.163169 0.236011 -0.566045 0.237217 -0.187263 0.215788 -0.570186 0.591472 0.291885 -0.137766 0.412167 -0.110137 0.812472 -0.173665 0.505220 -0.118549 -0.409167 0.136994 -0.072642 0.107087 -0.233429 0.230401 0.430814 -0.745183 -0.010545 0.179260 0.106131 -0.182915 0.175543 -0.611997
CP009902.1 -0.323665 -0.262486 -0.129177 0.014309 -0.159135 0.325572 -0.204318 0.166908 -0.415179 0.080060 -0.129271 -1.013302 0.025038 0.098688 -0.677467 -0.312704 0.344754 -0.299721 -0.266963 0.324811 0.248714 0.268306 -0.630518 0.176065 -0.066285 -0.164166 0.158491 -0.147312 0.151258 -0.373334 -0.753532 -0.214478 -0.422072 0.280218 -0.311906 -0.876948 0.041516 -0.488235 -0.047869 0.030877 -0.661489 -0.157244 -0.155614 0.416621 -0.583823 0.475273 0.023094 -0.116639 -0.060097 0.298900 -0.446238 -0.139728 0.490499 0.257062 0.557448 0.236196 0.075366 0.369524 -0.192113 0.078254 0.399746 0.264776 0.251193 0.531737 -0.543657 -0.105482 -0.734195 -0.449560 -0.147598 -0.493805 0.511492 0.493172 0.019726 -0.273814 0.499732 0.295522 0.095154 0.077351 -0.100494 0.162941 -0.035553 -0.075459 0.068974 0.328355 0.061854 -0.524270 -0.062864 0.541311 0.379133 -0.282504 0.174625 -0.517521 -0.185760 0.483152 -0.185287 0.148719 -0.118863 -0.341657 -0.144497 -0.273090 -1.015367 0.700626 0.036399 0.562748 0.030458 -0.065951 0.016455 -0.100393 0.809572 0.363689 0.202608 -0.512905 0.867363 -0.784466 -0.662242 -0.249068 0.301227 0.658514 -0.461342 0.378871 0.579968 -0.141809 -0.049771 0.857319 0.232775 0.415562 0.135080 -0.672808
NC_016166 -0.361384 -0.087259 -0.396099 0.421561 0.332576 0.130844 -0.124919 0.098553 0.455306 -0.191177 0.302464 0.149170 -0.090212 0.653883 -0.557467 0.386987 -0.263262 -0.009092 -0.018714 0.183488 -0.188024 0.093540 -0.116861 -0.127642 0.193997 -0.026228 -0.012962 0.321162 0.401155 -0.183462 -0.539957 0.105820 -0.153150 -0.385743 0.483881 -0.406410 0.426256 -0.475419 -0.383964 0.109360 -0.713529 0.240069 -0.024198 -0.234980 -0.716292 -0.133087 -0.130466 -0.941322 0.467213 -0.031418 -0.290867 0.393588 -0.083319 -0.453722 0.552976 -0.098349 0.012721 0.093319 0.155161 0.029563 0.419597 0.398332 0.272012 0.196348 -0.151178 -0.283288 -0.616772 -0.747140 0.059246 0.272880 0.751950 -0.515207 0.031239 -0.032467 -0.117342 0.406695 0.428228 -0.330217 -0.311745 -0.387077 -0.167898 0.119115 0.668526 -0.045028 0.159422 -0.005960 -0.220771 0.362593 -0.515456 -0.656381 0.535128 0.253774 -0.027643 0.357585 0.063790 -0.170441 0.147097 0.157128 -0.004872 0.250452 -0.219238 -0.252888 -0.224893 -0.224069 0.197673 0.583978 -0.087442 -0.955909 0.570430 0.045469 0.730623 -0.217659 0.356958 -0.106887 -0.198224 0.242950 -0.090470 0.295878 -0.395853 0.043622 0.483106 -1.045120 -0.069641 0.916102 0.322441 0.058823 0.410888 0.057562
CP012831.1 -0.030994 0.038043 0.163871 0.441814 0.816967 0.299031 0.046611 -0.254720 -0.232351 -0.079300 0.097271 -0.219922 -0.126815 0.751606 -0.484593 0.350922 0.375694 -0.283288 -0.166415 0.165948 -0.123472 0.010087 0.354664 -0.243629 -0.355861 0.213892 0.143045 0.675887 0.485270 -0.147938 0.099126 -0.405150 -0.254483 -0.135811 0.117041 -0.546626 -0.187404 -0.507419 -0.529832 -0.174155 -0.689762 -0.205528 -0.130292 0.442126 0.040946 0.138952 -0.252516 -0.437468 0.425274 0.139380 -0.031997 0.080279 0.388348 0.237444 0.427993 -0.341285 0.225862 -0.179254 -0.427785 0.731236 0.060650 -0.244056 -0.110532 -0.320704 -0.301467 0.327343 -0.883589 -0.057134 -0.606622 0.098899 0.319761 -0.296981 0.190478 0.018235 0.519463 0.112744 0.166369 -0.073784 -0.323230 -0.237809 -0.222193 0.078188 0.520404 -0.086750 -0.183857 -0.501709 0.468759 0.491320 -0.046982 0.255153 0.155547 -0.043057 0.088446 -0.076795 -0.179790 -0.254461 -0.416624 -0.016210 0.194114 0.100768 -0.187833 0.735488 -0.873737 0.389970 -0.136942 -0.140819 0.345459 0.093088 -0.164726 -0.229049 0.695672 -0.005978 0.706787 -0.376577 -0.826284 0.098746 0.092026 -0.181432 -0.081127 0.478161 0.728980 -0.361738 -0.094179 0.104233 -0.354986 0.186853 0.166921 -0.400474
CP045048.1 -0.258568 0.325113 -0.039362 0.436402 0.836846 0.000784 -0.157661 -0.575145 0.343361 0.441602 0.370324 0.264072 -0.563908 0.012139 -0.452188 -0.040850 0.129067 0.605869 0.153995 0.255739 -0.304358 0.226184 0.197301 -0.150712 -0.721656 -0.400760 -0.475337 0.821083 0.344451 -0.827915 -0.463948 -0.174249 -0.817423 0.066717 -0.173252 -0.298704 0.171048 -0.088221 -1.013345 -0.135739 -0.562867 -0.545042 -0.306343 0.168579 -0.366907 -0.060329 0.150569 -0.377618 0.290946 -0.733901 -0.019413 0.553978 0.940778 0.324090 0.819969 -0.229612 -0.341354 -0.404072 -0.320801 0.405111 0.281984 0.399567 0.183889 0.020445 -0.543099 -0.103490 -0.614055 0.151607 0.159469 -0.133350 0.767711 -0.360821 -0.093288 0.010815 -0.072634 -0.201277 0.714687 0.122900 -0.563641 0.250497 0.196819 -0.151863 0.264935 -0.520769 0.196063 0.135969 0.539254 0.583452 -0.041663 -0.631228 -0.290430 0.343227 0.317942 0.276806 -0.312345 0.100293 0.338417 -0.502609 -0.329534 0.163788 -0.427666 0.141231 0.093765 0.232190 0.261860 -0.092298 0.075926 -0.448436 -0.205073 0.317317 0.706000 -0.376538 0.511310 0.005639 -0.728296 0.005452 -0.045547 0.348588 -0.003573 0.494209 -0.165231 0.003190 0.268438 0.908616 -0.274386 -0.433444 -0.424478 -0.968291
LR607333.1 0.030691 -0.363854 -0.166517 0.669433 0.216109 -0.120671 -0.075060 -0.583911 -0.355876 -0.085808 0.796949 0.097452 -0.773126 0.184130 -0.209802 -0.133576 0.510702 -0.695801 0.389403 0.418821 -0.276613 -0.079032 -0.320811 0.342652 -0.277247 -0.557339 -0.814355 0.230316 -0.104170 -0.783518 -0.743724 -0.489667 -0.473989 1.026585 -0.663852 -0.735599 -0.212414 -0.191834 -0.226143 -0.162529 -0.542425 -0.631381 0.555091 0.332489 -0.260274 -0.137426 0.093769 -0.661238 -0.246735 -0.433491 0.012481 0.328558 0.073244 -0.059454 1.286650 -0.478606 0.322799 -0.569999 -0.647660 0.469171 -0.019811 0.709976 0.385751 -0.054731 -0.834238 -0.620581 -0.951188 -0.286549 -0.248667 -0.750143 0.700460 0.098869 -0.574488 -0.167144 0.517376 -0.601171 0.460349 -0.330617 -0.606332 -0.048236 -0.309916 -0.306105 0.485702 0.106302 0.032994 -0.389456 -0.138878 0.204316 -0.091554 -0.537120 -0.127233 -0.916395 0.028574 0.562307 -0.324080 -0.221189 -0.549340 0.029873 -0.050319 -0.004239 -0.921293 0.179520 0.302618 -0.229965 -0.284812 -0.185114 -0.262004 -0.395019 0.303489 -0.834047 0.085146 0.118644 0.888754 -0.089765 -1.222142 -0.005395 0.157128 -0.171665 -0.056303 0.747682 0.544113 0.116283 -0.480674 1.274331 0.486263 0.197289 0.209863 -0.759008
CP009538.1 -0.656832 -0.195637 -0.588180 0.200201 0.223964 -0.036726 0.003603 -0.768797 -0.184548 -0.435918 -0.561855 -0.764926 0.065390 -0.250940 -0.409179 -0.493040 0.184977 0.326194 0.874207 0.519573 0.001992 0.516034 -0.103100 -0.048854 0.241967 -0.339813 0.368682 0.332738 0.615033 -0.600275 -0.283623 -0.165233 -0.548144 0.353378 0.229717 -0.224250 0.534539 -0.236574 -0.784444 0.019010 -0.079236 -0.393178 0.664603 0.056801 -0.269469 -0.131690 0.085887 -0.243293 0.646269 0.105242 -0.154858 -0.314255 0.404906 0.152210 0.842655 -0.602617 -0.554421 -0.009296 -0.566521 0.296464 0.663137 0.396345 0.638988 -0.126043 -0.070362 0.619266 -0.344040 -0.265026 0.475605 0.514380 0.731413 -0.526638 -0.179996 -0.333620 -0.099171 0.525306 -0.069429 -0.416302 -0.116601 -0.143662 -0.102144 0.589261 0.504150 0.092872 0.495028 -0.541406 -0.109556 -0.330699 -0.194156 -1.242863 0.185361 0.374652 -0.135843 -0.099705 0.030942 -0.576519 0.941544 -0.337104 -0.084711 -0.167680 -1.243317 -0.153309 -0.041398 0.056900 -0.149181 0.854680 0.293260 -1.180169 1.393547 -0.082014 0.382148 0.411474 0.327746 -0.895965 -0.660263 0.216767 0.044891 0.004219 -0.026371 0.091855 0.620689 -0.508925 0.260592 0.475909 -0.160586 0.014375 0.657839 -0.687056
AP019815.1 -0.759905 -0.596695 -0.259847 -0.137692 0.420119 1.015982 -1.036653 -0.794150 -0.020095 -0.684035 -0.746691 0.241595 -0.007102 0.372087 -0.951426 0.042456 -0.006734 0.246042 0.578277 -0.362398 0.239085 -0.179850 0.021234 -0.262606 -0.670630 -0.031083 -0.346050 0.331589 0.774528 -0.125585 -1.305488 -0.219132 -0.028306 0.032891 -0.163149 -0.670456 -0.574461 -0.253174 -0.385516 -0.374143 -0.627023 0.239341 0.355192 0.229539 -0.489006 -0.114225 -0.837433 -0.735780 0.444522 0.422153 -0.453814 -0.364864 0.420274 -0.347622 0.409183 -0.270336 -0.572175 -0.185690 -0.200778 -0.089565 0.594761 0.098774 0.358698 -0.287036 -0.396975 -0.200814 -0.263838 -0.230979 0.279164 0.167195 1.457973 0.021925 -0.046792 -0.370922 -0.021715 0.557838 0.458749 -0.162991 0.578803 0.628777 0.454865 0.157797 -0.015915 0.065728 -0.685253 -0.476419 0.511246 0.642015 -0.053753 -0.487007 0.552311 0.170510 -0.365588 -0.003292 -0.088484 -0.244246 0.301695 -0.626966 -0.122462 -0.554023 -0.703986 0.087965 -0.700328 0.537863 -0.209435 0.097037 0.240433 -0.296305 0.352037 0.061960 0.763289 -0.445361 1.090284 -0.692095 -0.460079 0.072472 -0.133125 0.862307 -0.284154 0.754822 -0.411079 -0.823861 -0.367239 -0.219319 -0.391437 -0.121581 0.671219 -0.661609
CP062127.1 -0.633909 -0.073935 -0.457453 0.406405 0.507150 0.467495 -0.003012 -0.410141 -0.052528 0.073712 0.172661 -0.228844 -0.416521 0.668124 -0.502797 0.238840 0.202301 0.143419 0.100995 0.073896 0.086098 0.298753 -0.051725 -0.057047 -0.468594 -0.243480 -0.261260 0.777884 0.914364 -0.645871 -0.281494 -0.445602 -0.530995 0.493198 -0.161032 -1.018441 -0.238329 -0.389449 -0.627831 -0.051527 -0.810945 -0.247743 0.451516 0.236984 -0.280335 0.208503 -0.080679 -0.753688 0.253201 0.242151 0.089834 -0.083182 0.511312 0.230298 0.887059 -0.263618 -0.016104 0.206392 -0.494015 0.444451 0.514577 0.500318 0.425050 0.053962 -0.699664 -0.107174 -0.645017 -0.420512 0.252799 0.068739 0.514357 0.076191 -0.189328 -0.015314 0.034908 0.199234 0.539609 -0.024089 -0.434181 -0.178238 0.122752 0.210135 0.378058 -0.297770 0.104550 -0.397639 0.336790 0.377041 -0.025727 -0.694105 0.252509 -0.059155 -0.019683 0.247328 -0.125384 -0.250370 0.267812 -0.316047 0.245096 -0.140732 -0.927871 0.091007 -0.359369 0.289172 -0.011241 0.309467 0.040241 -0.794341 0.499922 -0.013585 0.923659 -0.210632 0.730805 -0.469773 -0.645819 -0.123675 0.152700 0.258375 -0.227639 0.687203 0.520941 -0.531910 -0.302100 0.492302 0.140417 0.001498 0.432199 -0.816276
NGMG01000001.1 -0.410712 0.198677 -1.059483 0.774268 0.145583 0.154563 0.016963 -0.783804 -0.198915 0.498514 0.178050 0.617091 -0.325190 0.194538 0.094442 0.412464 0.414597 0.180638 0.565615 -0.482088 0.446475 -0.431332 -0.992240 -0.033736 -0.992803 -0.303931 -1.052606 0.668051 0.180603 -0.980515 -0.350272 -0.903889 -0.845080 0.778246 -0.672308 -0.755220 -0.217937 0.105915 -0.560453 -0.242569 -0.091480 -0.418081 0.953348 -0.113218 0.196256 -0.062205 0.037164 -0.026794 0.128752 -0.480779 0.146492 0.170180 0.904327 0.189241 0.462541 -0.732546 -0.201451 0.028820 -0.712814 -0.217753 0.165785 0.916644 -0.161118 -0.107052 -0.680551 -0.955293 -0.852894 -0.090886 0.210125 -0.139272 0.124188 0.572094 -0.373662 -0.204256 -0.158116 -0.196437 0.524059 0.155386 0.186884 -0.584671 -0.345331 -0.158440 0.297973 -0.796691 -0.482577 -0.571521 0.490905 0.394924 -0.326294 -0.159429 -0.212160 0.105486 0.009262 -0.393090 -0.486846 -0.131602 -0.272630 -0.363950 -0.443153 -0.071699 -0.120347 -0.301794 -0.335969 0.421983 -0.466078 0.218305 0.167429 -1.121295 -0.246152 -0.329400 0.708615 -0.313925 0.446492 0.085408 -0.803408 0.267757 0.026496 0.131819 -0.356633 0.466612 0.141867 -0.172097 -0.204488 0.625979 0.489593 -0.464000 1.154484 -1.014972
BA000002.3 -0.845650 -0.175323 -0.292790 -0.238438 0.288427 0.235419 -0.237532 -0.566112 0.194960 -0.557650 -0.140197 -0.123895 -0.706904 0.394001 -0.655979 -0.603612 0.104948 0.163893 0.792929 0.134752 0.057693 0.422724 -0.165773 0.380717 -0.095799 -0.151901 0.269608 0.491463 0.529212 -0.022452 -0.628373 0.382648 -0.719440 0.453850 0.406289 -0.777176 -0.294716 0.093749 -0.492276 0.485180 -0.567826 -0.377582 0.753251 0.410333 -0.909000 0.601621 -0.310986 -0.661946 0.250412 0.039536 -0.208933 -0.785970 0.708148 0.490053 0.490326 -0.866782 -0.719086 0.230494 -0.657246 -0.232940 -0.054195 0.559539 0.658551 -0.214090 -0.318618 0.326783 -0.661625 -0.043704 -0.289470 0.082588 1.285750 0.131759 -0.035142 -0.310475 -0.259791 -0.012511 0.810551 0.094559 0.327038 -0.073925 0.140164 -0.297166 0.188463 0.371670 -0.404270 -0.007292 -0.113890 0.328293 -0.256173 -0.939018 0.156699 -0.162693 -0.301057 -0.062664 -0.122051 -0.130228 0.431271 -0.176970 0.352776 -0.556043 -0.142546 -0.362606 -0.164618 -0.002992 -0.008462 0.186561 -0.053684 -0.795076 1.099512 0.125387 1.172316 0.006551 1.137160 -0.569067 -0.061923 0.312468 0.176358 0.185721 0.581495 0.537433 -0.154295 -0.710799 0.934001 0.395126 0.528011 0.301210 0.625763 -0.735979
NC_015720 -0.546034 -0.222666 -0.065884 0.241343 0.421261 0.463046 0.011281 -0.521685 0.339156 0.009369 -0.176983 0.293364 -0.129146 0.718428 -0.287747 0.300553 -0.471613 0.166774 -0.080046 -0.163328 -0.377083 0.075500 -0.277961 0.027553 0.048465 -0.074424 -0.136378 0.284200 0.260819 -0.389582 -0.614025 0.355617 -0.031323 -0.079629 0.173978 -0.536458 0.257404 -0.128859 -0.603737 0.561450 -0.777470 -0.301216 0.148775 -0.497440 -0.632742 0.083639 0.064906 -1.317251 0.610475 -0.153084 -0.740748 0.089712 0.483732 -0.243590 0.148119 -0.302831 -0.185123 -0.101298 0.108781 -0.164670 0.196780 0.545891 0.399780 -0.190179 -0.333769 -0.713601 -0.102359 -0.662327 0.323776 0.327362 0.652592 0.037746 -0.491165 -0.077445 -0.310220 -0.111178 0.687379 0.000543 -0.218181 -0.001185 0.128532 -0.219231 0.514115 -0.235369 -0.262881 0.377669 -0.074086 0.404570 -0.286832 -0.920437 0.540773 0.169540 0.127036 0.247725 -0.069406 -0.137179 0.504570 -0.327788 0.118043 0.201248 -0.011942 -0.333287 0.295771 -0.353445 -0.109480 0.380830 -0.336061 -1.142256 0.683160 0.399132 0.302879 -0.265749 0.647082 -0.057845 -0.199212 -0.097064 0.231258 0.478734 -0.072088 -0.129688 0.556157 -0.725348 0.234813 0.930100 0.033974 -0.097147 0.416429 -0.340623
NZ_VBSS01000130.1 -0.476965 -0.248324 -0.095626 0.075155 0.028554 0.683401 -0.383458 -0.361591 0.358370 0.601075 0.066771 -0.947026 -0.578073 0.337749 -0.510866 0.293238 0.359593 -0.248800 0.263317 -0.260173 0.468896 0.330086 -0.015917 -0.008356 0.114438 0.243289 -0.323327 0.820105 0.622360 -0.244020 -0.030119 -0.667742 0.243773 0.363123 -0.234804 -0.516290 -0.173045 -0.600708 -0.675166 -0.241237 -0.436749 -0.016399 0.560520 -0.233406 -0.388556 0.473684 0.207604 -0.847952 -0.136938 0.104831 0.312198 -0.191338 0.284303 0.143373 -0.094765 -0.106248 -0.490403 0.323125 -0.401017 -0.361085 0.267608 0.041581 0.318429 0.358963 -0.778164 -0.112991 -1.033568 -0.173559 -0.052329 0.516421 0.165493 -0.138276 0.004872 0.169867 0.264404 0.517155 0.776453 0.043251 0.012165 0.041774 -0.218144 0.113255 0.669817 0.013991 0.526861 -0.123976 -0.027831 0.430429 -0.624137 -1.072593 0.463292 -0.157648 0.080971 -0.003523 -0.150963 0.344984 0.264923 0.741703 0.048647 -0.165341 -0.448306 -0.522677 -0.333368 0.323907 0.300519 -0.213957 0.109973 -1.231391 0.089021 0.289542 0.532894 0.006526 0.437959 -0.573123 0.009041 0.152291 -0.369256 1.076306 0.284569 0.224210 0.449608 0.216174 -0.655079 -0.156713 0.318749 0.288507 0.404154 -0.921384
CP016400.1 -0.685806 -0.578758 -0.166093 0.383184 0.365162 0.646583 0.148428 0.208796 -0.312981 0.138686 0.115603 -0.249272 -0.098715 0.758515 -0.261699 0.059563 0.636294 0.078734 0.596956 -0.066031 0.283782 0.071279 -0.475766 -0.072403 -0.273260 -0.142724 0.005239 0.297242 0.834855 -0.935919 -0.220516 -0.807416 -0.532945 0.133282 -0.509711 -0.925205 -0.543201 0.269253 0.288539 0.201561 -0.757083 0.045610 0.291725 -0.364977 -0.713471 0.090679 -0.708017 -0.283677 0.169130 0.345048 -0.793252 0.012990 1.055125 0.439653 0.362091 -0.082802 -0.600048 0.797099 -0.256933 -0.287200 0.443147 -0.266917 0.353990 -0.172823 -0.404774 -0.011192 -0.524701 -0.093233 0.264780 -0.481746 0.438857 0.226411 -0.977559 -0.456454 0.024850 0.440658 0.734881 -0.373110 -0.203970 -0.546145 0.571118 0.259807 0.401972 0.015227 -1.550552 -0.504068 0.751339 0.119095 -0.269619 -0.512341 0.412498 -0.159257 0.114678 0.417152 -0.480401 -0.085956 0.403152 -0.165157 -0.673345 0.169742 -1.180808 0.192093 -0.807164 0.029187 -0.679480 0.313648 -0.068872 -0.275272 0.538216 0.267746 0.363045 -0.962889 0.369602 0.099527 -0.092434 0.044185 0.785886 0.503045 -0.311920 1.171716 0.091614 -0.041939 -0.337539 0.311508 0.339876 -0.001311 0.854570 -0.875878
CP015831.1 -0.477865 -0.104412 -0.065984 -0.178403 0.718178 0.244897 0.260405 -0.186956 -0.287357 0.349167 0.557491 -0.376587 0.456680 0.492446 -1.024517 -0.064522 0.276799 0.705223 0.364660 0.124863 0.231115 0.599446 -0.741578 -0.138858 -0.195756 -0.934501 -0.147831 0.041483 0.343840 -0.411297 0.160021 -0.246833 0.100636 0.139848 0.131453 -1.004640 0.143765 -0.075572 -0.603898 0.051021 -0.526765 -0.668418 0.781977 -0.138200 -0.502743 0.522630 -0.094866 -0.242040 -0.377476 -0.150373 -0.469860 0.587450 0.715460 0.403923 0.559332 0.216898 -0.054011 -0.303486 0.256179 0.191713 0.355393 0.375289 0.085708 -0.042513 -0.866584 -0.168416 -0.398681 -0.446024 -0.221677 0.673525 0.928659 -0.095355 -0.610716 -0.632161 0.147426 0.243586 0.155897 -0.045341 -0.230869 0.158162 0.239660 0.667452 0.247476 -0.235998 0.163068 -0.668223 0.276727 0.854735 0.489801 -0.761531 -0.066449 0.289789 0.015981 0.440327 -0.331547 0.088679 0.172179 0.006355 0.576971 -0.012045 -0.503308 0.289802 -0.134211 0.010020 0.243176 0.168742 0.637047 0.129201 0.177565 -0.021012 1.078368 -0.187210 0.658231 0.020628 -0.083224 -0.419139 -0.499784 -0.090292 -0.201766 0.448713 0.024818 -0.591908 -0.218429 0.391440 0.012831 -0.267408 0.426962 -0.846140
CP041620.1 -0.338765 -0.414760 -0.015471 0.502158 0.764131 -0.086388 0.216246 -0.977883 -0.377919 0.714433 0.059789 0.211804 -0.618925 0.401697 -0.393272 0.354570 -0.028283 0.401591 0.300625 -0.200540 -0.294393 -0.204364 0.101075 0.328895 -0.463563 0.100615 -0.174807 0.225219 0.630261 -0.420869 -0.821794 -0.282582 -0.560604 1.283560 -0.741981 -0.528210 -0.361691 0.204851 0.404680 0.139787 -0.473311 -0.326687 0.341158 -0.159494 -0.125749 -0.404016 -0.107854 -0.492856 0.417399 -0.290669 0.242154 0.541564 0.928811 -0.079689 0.398556 0.100619 -0.301587 0.318295 -0.070284 0.443067 0.479310 0.519044 0.000172 0.308869 -0.928393 -0.651865 -0.476914 -1.017866 0.337188 -0.274858 0.621986 0.282587 -0.712849 -0.454065 -0.300076 -0.423776 0.693907 0.228304 -0.213981 -0.523696 0.534143 0.373841 0.875823 -0.471485 -0.351171 -0.484346 0.598184 0.822000 0.291166 -0.680404 -0.028829 0.006210 -0.084397 0.589734 -0.292785 -0.319205 0.023945 -1.121617 -0.756717 -0.051024 -0.665805 0.250140 -0.675305 0.352441 -0.922688 -0.213258 -0.254050 -0.506792 -0.043717 -0.082797 0.570489 -0.929656 0.111968 0.418088 -0.163982 -0.682950 0.285369 0.256761 -0.481319 0.063688 0.567521 -0.043873 0.114434 0.496598 0.048503 -0.635069 0.176236 -0.668216
QFNH01000001.1 -0.515833 -0.090870 -0.408945 0.407113 0.504461 0.458580 0.022005 -0.375997 -0.018538 0.072842 0.149822 -0.163309 -0.362798 0.575135 -0.361348 0.196987 0.204946 0.123046 0.107036 -0.038257 0.078151 0.298310 -0.064469 -0.066085 -0.391670 -0.231476 -0.264256 0.698794 0.822682 -0.569928 -0.277176 -0.360059 -0.479361 0.444232 -0.212505 -0.923890 -0.185023 -0.414374 -0.600268 -0.061347 -0.778857 -0.261413 0.492182 0.209182 -0.277256 0.178792 -0.119818 -0.646838 0.248995 0.149275 0.039172 -0.128958 0.436194 0.263503 0.798314 -0.258272 -0.072961 0.181257 -0.483027 0.369241 0.483464 0.467005 0.439062 0.008939 -0.586268 -0.160577 -0.553483 -0.390399 0.228634 0.052472 0.520210 0.074978 -0.199470 -0.047693 0.073737 0.157169 0.449492 -0.020235 -0.351063 -0.133290 0.100491 0.136736 0.339829 -0.261366 0.105748 -0.328920 0.317602 0.334395 0.040257 -0.575647 0.255357 -0.057309 0.042362 0.148927 -0.108236 -0.209644 0.192972 -0.213900 0.204322 -0.117613 -0.736988 0.071138 -0.330814 0.289132 -0.034250 0.309217 0.029177 -0.799886 0.494514 -0.012674 0.827442 -0.194242 0.705020 -0.390770 -0.525793 -0.098372 0.131150 0.225694 -0.230166 0.636847 0.474446 -0.536059 -0.214570 0.442318 0.129443 -0.004791 0.413304 -0.750260
NZ_JABTEA010000001.1 -0.526997 -0.209230 -0.919804 -0.340435 0.153337 1.025142 0.214380 -0.701253 -0.168986 -0.575396 -0.345486 0.232151 -0.518685 0.020166 -0.331470 -0.250845 0.131619 0.089212 0.175108 -0.486678 0.190657 0.440175 -0.542805 0.230336 -0.131538 0.351923 -0.029528 0.595597 1.200586 -0.071075 -0.483844 0.094970 0.152804 0.559238 -0.044220 -0.788311 -0.188203 -0.467650 -0.276011 0.216491 -0.989532 -0.115040 1.050360 0.079508 -0.234964 -0.356738 -0.911974 -0.518603 0.455242 0.800649 -0.024922 -0.604072 -0.700313 -0.237144 0.473699 -0.213252 0.056714 -0.170967 -0.278700 -0.058704 0.181586 0.354335 0.820305 -0.513712 -0.506555 -0.365605 0.511655 -0.756123 0.203948 0.352384 0.246538 0.318013 -0.327096 -0.249434 -0.073358 0.190152 0.399112 0.165527 0.283774 -0.238178 0.266156 0.107173 -0.167664 -0.078758 -0.017252 0.238707 -0.228141 0.072656 0.097071 -0.779818 0.634925 0.040486 0.054181 -0.347567 0.398463 -0.027745 0.228515 -0.246298 0.733712 -0.313721 -1.076865 -0.573613 -0.367621 0.437258 0.039839 0.886717 0.100461 -1.367702 0.894913 -0.212762 0.423765 -0.584383 0.911596 -0.670830 -0.081102 -0.116673 0.270462 -0.068588 -0.160196 0.525258 0.609656 -0.911223 -0.189943 0.034341 0.058473 -0.370958 0.894120 -0.308491
PEKX01000020.1 -0.221112 -0.211552 0.110917 0.071455 0.615227 0.077361 -0.027926 0.016655 0.415672 0.134828 -0.244864 0.116315 0.200537 0.306933 -0.867424 -0.094401 -0.221181 -0.211850 0.102438 0.563970 0.220779 0.509499 0.250016 0.112017 -0.446048 -0.329715 -0.270207 0.194445 0.901043 -0.556021 -0.676217 -0.890783 -0.418586 0.045656 0.114728 -0.951461 -0.148649 0.149666 -0.227307 -0.596214 -0.725532 0.191852 -0.067119 0.797362 -0.369784 0.237716 -0.176814 -0.746932 -0.091554 -0.286264 -0.470268 0.198329 0.126101 0.020832 0.775975 -0.147063 -0.333038 0.351605 -0.118958 0.453312 -0.258049 0.692963 0.799450 -0.520829 -0.262382 0.045398 -0.661891 -0.412452 -0.528424 -0.118352 0.496699 0.141000 -0.295576 -0.429939 -0.247732 -0.029215 0.387093 0.405387 -0.662316 0.388303 0.578355 0.065296 0.169684 0.231909 0.133700 0.484999 0.221615 0.024249 0.407292 -0.565691 0.272238 -0.211897 0.080668 -0.554286 -0.293527 -0.191163 0.625835 -0.108238 0.095887 -0.540955 -0.937775 0.148759 -0.036815 0.686866 0.123869 0.459696 -0.146729 -0.988022 0.644764 -0.006881 1.226615 -0.681138 0.242699 -0.420978 0.048825 -0.031353 -0.027128 0.323202 -0.036017 0.891829 -0.287671 -0.169885 -0.424083 -0.241097 0.314981 -0.506456 -0.326017 -0.296161
NZ_CP037425.1 -0.344097 0.054768 -0.302247 -0.130591 0.741214 0.239598 0.737376 0.180999 -0.106760 -0.312750 -0.216845 -0.176819 0.351805 0.359695 -0.094398 0.000552 -0.504925 0.016171 -0.662041 -0.022723 0.632940 0.091088 0.284126 -0.720964 -0.040253 -0.845636 -0.206279 0.536399 0.702818 -0.761624 0.363546 -0.061674 -0.400291 0.233903 -0.200475 -0.547031 -1.123244 -0.278119 -0.258207 0.575647 -0.776577 -0.151316 0.622535 0.675981 -0.331535 -0.151748 -0.489389 -1.107872 -0.149898 -0.132237 -0.104105 0.180805 0.572932 0.034122 0.777509 -0.181370 -0.032336 -0.414532 -0.886951 0.004867 0.649702 0.374450 0.822745 0.035389 -0.063524 -0.016035 -0.409384 -0.632143 0.302761 0.376089 0.141939 0.047347 0.092779 0.273895 -0.050838 0.329165 0.401943 0.170109 -0.498560 -0.134093 0.104441 -0.328613 0.577645 0.190796 -0.155198 0.257702 0.606651 0.363501 -0.197016 -0.307137 -0.217771 -0.355611 0.292752 0.186186 -0.164856 -0.447849 0.099603 0.417838 0.098566 0.096088 0.100166 0.272595 -0.743760 -0.190266 0.583180 0.050207 -0.217819 -0.516550 0.907501 0.190418 0.767069 0.082800 1.204744 -0.117435 -0.225850 -0.386697 0.142455 0.533673 0.271496 0.702024 0.563368 -0.578171 -0.605379 0.501140 0.402346 -0.006509 -0.497170 -0.142032
CP034099.1 -0.126974 0.307771 -0.315190 0.567434 -0.003425 0.632120 0.109157 0.241871 -0.360002 0.307284 0.101156 -0.580366 -0.109132 -0.162543 -0.003532 0.780794 0.583726 0.751757 0.027253 0.449007 0.235902 0.264322 -0.452919 -0.054891 -0.115602 -0.551020 -0.861953 0.512996 0.406856 0.076767 0.025862 -0.437308 -0.421592 -0.189481 -0.563765 -0.939572 0.038829 -0.463496 -0.623409 0.095556 -1.021371 -0.488780 0.282324 0.477947 -0.550394 -0.117405 -0.040699 0.555831 0.289445 0.114835 0.225097 -0.139238 0.712614 0.164619 0.804341 -0.095937 -0.408700 -0.413883 -0.491845 0.283213 0.434544 0.410767 0.413291 -0.363479 -0.513011 0.020054 -0.619112 -0.267322 0.486680 0.155211 0.574663 0.253422 -0.030465 0.085066 0.426162 0.191644 0.282682 0.234757 -0.436084 -0.353078 -0.219108 0.375844 0.272642 -0.775019 -0.015018 -0.357300 0.585661 0.430694 -0.051686 -1.033826 -0.166447 0.832322 -0.485097 -0.468093 0.376961 0.128640 0.434144 -0.230790 0.009029 0.055865 -1.007316 0.130996 -0.070813 0.588303 0.183057 0.238391 0.460324 -0.570555 0.150981 -0.345016 0.233484 0.210408 -0.131075 -0.732671 -0.196759 -0.401895 0.486809 0.237173 0.351638 0.912846 0.093788 0.151145 -0.644080 0.638037 -0.010685 -0.501776 0.238496 -0.784716
MT880588.1 -0.678961 -0.743979 -0.186220 -0.060486 0.077897 0.651552 -0.012649 -0.681284 -0.203956 -0.111315 -0.028526 -0.556638 -0.588929 0.179135 -0.700304 0.451029 -0.251585 -0.636279 0.448092 0.612563 0.402685 0.415555 -0.032224 0.021692 0.077173 0.313242 0.195200 0.317970 0.648142 -0.221545 -0.464001 -0.316807 -0.527143 1.083019 -0.097381 -0.240207 -0.450763 0.084970 0.010753 0.186060 -0.527640 -0.038364 0.834964 0.500968 -0.635834 -0.198308 -0.523800 -0.218857 0.423838 0.491385 -0.082564 -0.285762 0.314569 -0.332589 0.182012 -0.474657 -0.818337 -0.033932 0.342558 -0.062032 0.534320 0.251398 0.286628 -0.091480 -0.684506 -0.272171 -0.364369 -0.651354 0.559699 -0.220922 0.218319 0.051857 -0.697105 0.319562 -0.435477 -0.289559 0.738529 -0.146382 -0.079661 -0.381718 0.929203 -0.057631 0.616599 0.090846 -0.143839 -0.018736 -0.238193 0.464443 -0.705750 -1.039048 0.148096 -0.217957 -0.082220 0.733812 -0.624998 -0.221509 0.244517 -0.318493 0.041702 0.016897 -0.891482 -0.214836 -0.257254 0.248752 -0.041039 0.771860 0.144712 -0.903096 0.165143 -0.514564 0.656359 -0.693803 0.408856 -0.849333 -0.003916 0.495761 0.783534 0.551825 -0.448235 0.256390 0.536607 -0.155325 0.113732 0.169267 0.691758 0.249010 0.696617 -0.259047
CP006870.1 -0.424247 -0.181199 -1.219505 0.610502 0.045778 0.665782 0.279800 0.097448 -0.050193 -0.070355 0.307992 -0.285552 -0.584697 0.084640 -0.201999 -0.062520 0.067164 0.743290 0.707208 0.810158 0.040135 0.205241 0.071265 0.037288 -0.099135 0.373565 0.076631 0.361109 0.858214 -0.373745 -0.713371 -0.341346 -0.651620 -0.240579 0.010127 -0.919652 0.201312 -0.496847 -0.601874 0.209448 -1.103343 -0.396593 -0.066387 -0.165458 -0.712058 0.092392 -0.445348 -0.336050 0.176763 0.345066 -0.105007 0.186924 -0.088136 0.409578 1.005201 -1.320202 -0.369184 0.135721 -0.422462 0.178965 -0.012187 0.030553 0.597632 -0.519849 -0.710150 0.230941 -0.551773 -0.342710 0.268738 0.122269 0.222632 -0.204810 0.181802 -0.696095 0.269455 0.292554 0.574645 -0.006076 -0.384819 -0.498345 -0.071827 0.532991 0.284297 -0.268730 -0.301918 0.441254 -0.381931 0.012471 -0.348128 -1.042050 -0.059506 0.347115 0.119298 0.190722 0.000481 0.080223 0.664296 0.387965 0.269731 -0.560793 -1.303328 0.212160 0.182435 0.073687 0.276813 0.392759 0.483924 -0.651313 1.118868 -0.040103 -0.211399 -0.598238 0.371440 0.174741 -0.351658 0.407882 0.292214 0.509750 0.051222 0.566077 -0.058514 -0.090547 -0.101125 0.235631 -0.347604 0.431484 0.749917 -1.050515
NBSQ01000002.1 -0.650518 -0.161440 -0.705481 0.476846 -0.033297 0.186667 -0.403237 -0.198260 0.106888 -0.203755 0.015980 -0.197549 -0.804005 -0.042412 -0.156638 0.357240 0.004247 -0.104817 -0.216888 0.296613 0.041944 0.024861 0.379515 0.336979 -0.123195 0.417816 -0.540786 0.714309 0.883309 -0.453156 -0.564434 -0.056589 -0.566056 0.581873 -0.076825 -0.319164 -0.451462 -0.584575 -0.569340 0.462921 -0.872620 -0.427104 -0.071250 -0.502687 -0.290181 -0.572713 -0.385618 -0.224245 0.094771 0.540516 -0.063006 -0.271914 -0.252848 0.257342 0.648798 -0.534023 -0.224664 1.013515 -0.461209 0.326315 0.168768 0.688789 -0.048354 -0.375523 -0.086944 -0.817319 -0.448530 0.151824 0.340586 0.294308 -0.066501 0.016577 0.157321 0.088303 0.282208 0.402684 0.401048 -0.283458 -0.273118 -0.444566 0.123138 0.372830 -0.072590 -0.114591 0.116203 0.311767 0.186871 0.180898 -0.388687 -0.690288 -0.026928 0.486490 0.072377 -0.541085 0.572034 -0.031109 0.480035 -0.200987 -0.086721 -0.168649 -1.575552 -0.183922 -0.117491 0.462415 -0.510282 0.243601 -0.186145 -0.525147 0.507550 -0.363618 0.353189 -0.083803 -0.002571 -0.768707 -0.697576 -0.080931 0.772010 0.767762 -0.514260 0.436889 1.002471 -0.381118 -0.245386 0.172084 0.367259 -0.353868 -0.265182 -0.497400
AP023291.1 0.073581 0.118101 -0.030106 0.374078 0.291442 0.142055 -0.023159 -0.099040 -0.153415 0.070411 -0.133825 -0.250218 -0.329249 0.652899 -0.539123 0.303590 0.479291 -0.415611 -0.068697 0.191787 -0.232694 -0.272441 0.565134 -0.143868 -0.870442 0.112184 -0.217370 0.787186 0.372713 -0.196886 0.224634 -0.467276 -0.040098 0.072046 -0.033741 -0.431329 -0.226211 -0.657898 -0.631830 -0.406670 -0.241763 0.233240 -0.026696 0.103593 -0.044298 0.102554 -0.003224 -0.373544 0.255723 0.306178 0.432918 0.223940 0.144156 0.186876 0.503618 -0.202618 0.533762 -0.010048 -0.307435 0.780982 0.033106 -0.069521 -0.286675 -0.135366 -0.160235 0.064608 -0.464612 0.021948 -0.352326 0.239090 -0.347854 -0.159883 0.182711 0.108884 0.140232 -0.062151 -0.122022 -0.012637 -0.689223 -0.327188 0.234188 0.052793 0.331027 -0.237634 -0.056140 -0.458631 0.259611 0.332012 -0.044043 0.342765 0.020899 -0.040408 0.170382 0.005200 -0.303028 -0.338212 -0.113998 -0.070537 0.696519 0.385557 -0.503417 0.745913 -0.575037 0.443613 -0.173878 0.083133 0.166543 -0.238217 0.054755 -0.344543 0.881069 0.148087 0.683577 -0.282069 -0.484922 -0.232451 0.153785 -0.147322 -0.625947 0.568282 0.696230 -0.181089 -0.595285 0.229375 -0.216805 0.029899 0.211668 -0.408957
NC_028890 -0.436187 -0.218232 -0.302795 0.373009 -0.045431 0.071549 -0.166377 -0.135401 -0.317928 0.387309 0.160025 -0.593079 -0.227547 0.450077 -0.275475 -0.179296 0.479507 -0.077293 0.058256 0.219626 0.204562 0.409175 -0.372856 -0.006510 0.246252 -0.513422 -0.023372 -0.181769 0.402719 -0.601905 -0.338402 -0.004127 -0.121823 0.301039 -0.053933 -0.599969 -0.002366 -0.457369 -0.388935 -0.170366 -0.606928 -0.036237 -0.001153 0.390791 -0.607545 0.310819 0.151941 -0.133902 -0.150552 0.162493 -0.439687 -0.170254 0.196045 0.322930 0.720903 -0.300880 -0.092242 0.208017 -0.237437 0.397097 0.318979 0.396805 0.723819 0.508152 -0.077061 0.168367 -0.620973 0.097378 -0.090342 -0.209136 0.483111 0.014821 0.013025 -0.049347 0.458702 0.284679 0.430217 -0.400462 -0.007088 0.181359 0.121277 0.239752 0.313446 0.640642 -0.013958 -0.585742 0.123919 0.088200 0.088211 -0.952123 -0.097774 -0.497279 -0.129592 0.394070 -0.429761 0.360139 0.406987 -0.101661 -0.263914 -0.304823 -0.647042 0.125016 0.208313 0.239478 -0.126663 0.040997 0.055389 0.026649 0.568587 0.641191 0.099325 -0.455206 0.354183 -0.640394 -0.520333 0.155494 0.238877 0.483787 -0.200300 0.446856 0.222478 -0.183366 0.214548 0.408674 0.271875 0.324089 -0.152605 -0.766372
NZ_JAGGMP010000001.1 0.386959 0.056822 -0.630941 0.140697 -0.080936 0.868741 0.097478 -0.321355 0.016293 0.085552 -0.245651 0.174764 -0.047582 0.284222 -0.229574 0.162605 0.687940 0.066125 -0.636726 -0.050089 0.133565 0.180653 0.396341 -0.012528 -0.564223 -0.381691 0.003281 0.888593 0.595642 -0.450168 -0.225762 0.129177 -0.203709 -0.405275 -0.158412 -0.853307 0.186443 -0.296396 -0.103134 -0.457164 -0.302693 -0.688837 0.636091 0.152228 -0.401108 0.505607 0.083378 -0.597586 0.280740 0.738912 -0.443462 0.713161 0.478723 0.457878 0.966784 -0.296684 -0.066233 0.223283 -0.184981 -0.080652 0.404757 0.140248 0.416196 0.042535 -0.354584 0.036021 -0.511743 -0.288142 0.193641 0.467401 0.413267 0.010956 -0.304349 -0.092375 -0.372609 0.120747 0.719381 0.371545 -0.317669 0.420708 -0.075682 0.052975 0.003288 -0.256569 0.242853 -0.056129 0.129451 0.020931 -0.307009 -0.389663 -0.289536 -0.371729 -0.025602 0.043269 -0.101220 -0.203079 0.478960 -0.178142 0.307486 -0.437139 -0.987914 0.011389 -0.416708 -0.388294 -0.194797 -0.747164 -0.031498 -0.809830 0.273030 0.373370 0.724549 0.096382 1.015414 -0.908999 -0.668504 -0.279339 -0.159193 -0.136265 0.468898 0.965453 0.332730 -0.184140 0.047802 0.495697 -0.462894 0.236045 -0.620128 -0.526463
MN856100.1 -0.399781 -0.102352 -0.034456 0.171321 0.385436 -0.030409 0.476194 -0.611245 -0.528563 0.184159 0.389491 -0.753631 -0.510830 0.577319 -0.112484 0.391378 0.226110 -0.388248 0.118852 0.478796 -0.049852 0.299126 0.337299 -0.451513 -0.210403 -0.534427 0.121951 0.805234 0.175732 -0.179931 -0.063885 -0.126884 -0.581431 0.371402 -0.074385 -0.476499 0.025963 -0.589338 -0.533129 0.139166 0.013812 -0.121192 0.201308 0.561082 0.577198 0.072468 0.190924 -0.788425 0.158456 0.011963 0.185664 -0.452579 -0.046907 0.282806 0.802220 -0.343839 0.404639 -0.369066 -0.250476 0.786070 -0.008822 0.370888 0.064674 -0.157270 -0.302764 0.235090 -0.579333 -0.318755 0.405146 0.150813 0.290788 -0.194197 -0.231384 0.123724 -0.227746 -0.253227 -0.083513 -0.232589 -0.292840 -0.398356 0.510430 0.202896 -0.045456 0.136295 0.417465 -0.118564 -0.167463 0.244350 0.241581 -0.577686 -0.092883 -0.143240 -0.078026 0.273446 0.180071 -0.290541 0.344066 -0.157363 0.744148 -0.137771 -0.423363 -0.233671 0.117971 -0.043182 0.356639 0.549965 -0.054461 -0.672473 0.217579 0.170033 0.641097 0.250948 0.323456 -0.185413 -0.760440 -0.449615 0.160580 0.249951 -0.003467 -0.151205 0.831834 0.101825 -0.106509 0.131910 0.139815 0.764612 0.206244 -0.150018
UZVX01000004.1 -0.584424 0.377531 -0.196462 0.149044 0.048190 0.609066 0.076445 0.405826 0.228687 -0.146340 -0.114961 -0.257048 0.212080 0.048431 -0.461386 -0.319414 0.257933 0.586197 -0.275021 -0.123432 0.341901 0.491347 -0.081744 -0.288903 -0.197845 -0.765313 -0.529372 0.321922 0.764567 -1.013390 0.089070 -0.052416 -0.474629 -0.264629 0.093425 -0.675838 0.077301 -0.380826 -0.878767 0.347743 -0.680157 -0.009826 0.447070 0.242650 0.076891 0.699112 0.292589 -0.313791 -0.154754 0.421263 0.343178 0.002969 0.210567 0.828278 0.447651 0.383896 0.182664 0.653876 -0.643612 0.434931 0.797064 0.489586 0.164829 -0.304401 -0.018412 0.261492 -0.407867 -0.189453 0.624099 -0.036056 0.543663 0.100670 -0.277133 -0.164010 0.079057 1.022434 0.004256 0.644142 -0.706002 0.011749 0.188548 0.627278 0.052229 -0.624220 0.123072 0.438915 0.109383 -0.265519 0.183455 -0.403449 0.560748 0.101641 -0.256395 0.040703 0.295351 0.195455 0.220638 0.271156 0.254820 -0.212361 -1.069942 0.107177 -0.085765 -0.053707 0.370230 0.339564 -0.103855 -0.429817 0.911558 0.103702 0.517324 -0.030074 0.272570 -0.091699 -0.320770 -0.465791 -0.335963 0.404742 -0.154919 0.677365 0.558169 -0.457273 -0.692794 -0.114639 -0.192879 -0.038012 0.142496 -0.794025
NC_007291 -0.277258 -0.011081 0.195095 0.020011 -0.059159 -0.187976 0.544554 -0.251513 -0.420007 0.040610 0.309588 -0.484737 -0.451151 0.477138 -0.199101 -0.124438 0.149979 -0.046635 -0.153707 0.133244 -0.097416 0.512764 0.322187 -0.327320 0.145394 -0.332557 0.351509 0.324595 0.636384 0.039769 0.089297 0.023758 -0.684660 0.791912 0.054977 -0.607248 0.075943 -0.669905 -0.334281 -0.014519 -0.281391 -0.181447 0.508399 0.587374 0.144790 0.148468 0.225468 -0.569065 0.049226 0.206120 0.435672 -0.338114 -0.092658 0.421870 0.865708 -0.197558 0.163385 -0.188473 -0.383757 0.849236 0.180961 0.722279 0.354653 0.248629 -0.553031 0.152314 -0.222146 -0.484386 0.337595 -0.058912 0.382011 0.043074 -0.139091 0.103207 -0.147148 -0.390908 -0.081492 -0.066545 -0.458811 -0.149510 0.572153 -0.033473 -0.106639 0.257814 0.569033 0.284253 -0.168606 0.134766 0.476320 -0.961577 -0.066143 -0.420547 0.268850 0.080395 0.144636 -0.503418 0.838671 -0.462671 0.537752 -0.276493 -0.166174 -0.552356 0.465755 -0.210661 -0.194713 0.462373 0.091167 -0.838487 0.472584 -0.164917 0.810188 0.165340 0.341421 -0.151195 -0.353965 -0.253620 -0.083878 0.261346 -0.158651 -0.009195 0.277468 0.213755 -0.045801 0.300813 0.096854 0.363288 0.150408 -0.527659
LR607341.1 0.238366 -0.775193 -0.709912 0.440874 0.375022 0.184389 0.141213 -0.799409 -0.317829 -0.026085 -0.594970 -0.257260 -0.379786 -0.113107 -0.255974 0.615931 0.046085 0.648898 -0.165106 -0.156581 0.102226 -0.101504 -0.311755 0.204009 -0.317125 -0.322541 -0.664113 0.228553 0.822292 -0.591149 -0.419689 -0.156342 -0.453429 0.230124 0.154805 -0.577061 -0.637115 -0.797290 -0.229713 0.028042 -0.224958 -0.157424 0.306942 0.044015 -0.137898 0.377986 -0.398626 -0.649192 0.605274 0.577553 0.273016 -0.516362 0.493522 0.002966 -0.032280 -0.637279 -0.366584 -0.223552 0.033931 0.159220 0.422484 0.941801 0.303176 -0.286582 -0.188733 -0.388380 -0.129902 -0.367700 0.379388 0.224011 0.554366 0.517098 0.447753 0.197491 -0.145440 -0.209280 -0.037129 0.497245 0.091345 0.102800 0.418527 -0.119538 0.182314 -0.337020 -0.016224 0.195076 0.201807 0.668583 0.670884 -0.150513 0.150234 0.014120 -0.305998 -0.396369 0.006513 -0.026041 0.425350 0.051584 0.078116 -0.649550 -0.270105 0.173021 -0.447626 0.451741 0.116112 -0.088520 -0.615352 -1.408406 0.631170 -0.645191 0.436187 -0.284927 0.476589 -0.113944 -0.243927 -0.177702 -0.134298 0.259611 0.149043 0.313388 0.247132 -0.504061 -0.819708 0.604622 0.155201 -0.122420 0.595093 -0.214993
RBJN01000260.1 -0.580617 0.106237 -0.708777 0.782166 -0.132059 0.693441 -0.019712 -0.326927 0.685373 0.582184 0.074925 0.145381 0.166468 -0.013249 -0.218793 0.177132 -0.011899 0.550239 0.851075 -0.089879 0.248378 0.249819 -0.623374 0.550090 -0.284719 -0.250048 -0.517862 0.287231 0.870159 -1.413538 -0.190879 -0.396592 -0.169949 0.751370 -0.299731 -0.115392 -0.081493 0.020689 -0.190027 0.209702 -0.300133 -0.643579 0.645270 0.485602 -0.224056 0.032410 -0.427005 -0.059879 0.217205 0.277485 -0.454884 -0.154465 0.099566 -0.209360 0.314867 -0.638321 -0.487315 0.219671 -0.343163 0.423040 0.247382 0.789589 0.873444 0.416718 -0.582830 -0.630184 -0.400175 0.132835 0.204722 -0.254603 0.563676 0.691410 0.136210 0.365598 0.567809 0.028936 0.568169 -0.029718 -0.273739 0.304872 0.722980 0.151748 0.934642 -0.037151 0.013836 -0.435559 0.380210 0.452324 -0.178792 -0.988494 -0.159440 -0.092624 0.144552 -0.074757 -0.688466 0.462050 0.239125 0.193180 -0.792789 -0.247211 -0.949200 -0.103413 -0.138821 0.188745 -0.390089 0.379945 0.623521 -1.292252 0.262498 -0.012838 0.378846 -1.078252 0.388348 -0.540845 -0.064090 0.402394 0.153006 0.252183 -0.424055 0.454768 -0.446769 -0.218930 0.676936 0.535957 0.240126 -0.420655 0.469153 -1.325731
CP037440.1 -0.536008 -0.049038 -0.405123 0.357994 0.465352 0.405058 0.017377 -0.363992 -0.083025 0.057966 0.144015 -0.190470 -0.385305 0.579935 -0.438616 0.208824 0.180506 0.122896 0.098400 0.063708 0.070948 0.233540 -0.056157 -0.035375 -0.390112 -0.184926 -0.233952 0.681383 0.783495 -0.552785 -0.257875 -0.373150 -0.472258 0.436052 -0.156813 -0.898413 -0.196183 -0.357805 -0.536404 -0.029359 -0.689230 -0.220804 0.420256 0.196938 -0.270404 0.146528 -0.049477 -0.656398 0.229915 0.184862 0.103542 -0.092875 0.456267 0.198458 0.756637 -0.267891 -0.000862 0.177082 -0.419956 0.387666 0.437856 0.446615 0.401784 0.043673 -0.581354 -0.090638 -0.548262 -0.385366 0.218288 0.058963 0.465385 0.064418 -0.130646 -0.019257 0.048942 0.170578 0.453635 -0.013106 -0.400302 -0.178042 0.104288 0.166685 0.356375 -0.232646 0.095340 -0.337682 0.295673 0.330734 -0.032787 -0.587199 0.232188 -0.032188 -0.030143 0.202281 -0.096940 -0.259543 0.201468 -0.274712 0.251974 -0.128156 -0.796657 0.060188 -0.332682 0.285394 -0.021492 0.280973 0.024523 -0.702057 0.444306 -0.016166 0.826669 -0.163814 0.650671 -0.401490 -0.554815 -0.119139 0.136719 0.207837 -0.194533 0.568420 0.468650 -0.496489 -0.248804 0.447427 0.152853 -0.013242 0.377826 -0.709902
CP038102.1 -0.381194 -0.436189 -0.855171 0.457102 -0.003941 -0.263822 -0.160563 -0.312678 0.054469 0.360558 0.562483 -0.161530 -0.055514 1.019577 -0.379256 0.538441 0.249095 0.137778 0.358980 0.435725 0.293939 0.422270 0.015555 0.352390 -0.760488 0.117514 0.098377 0.351765 0.934788 -0.127948 -0.528874 -0.409533 -0.759778 0.583621 -0.448502 -0.379068 0.328462 0.012636 0.024212 0.142156 0.196247 -0.223858 0.736942 -0.224757 0.083138 -0.468734 0.030595 -0.470872 0.856333 0.138945 -0.060737 0.079773 0.624505 -0.154685 0.645578 -0.687746 0.342289 0.808794 -0.353537 0.200536 0.294494 1.061751 0.647653 0.298381 -0.917817 -0.697554 -0.583499 -0.601556 -0.204324 0.169016 0.635773 -0.107957 -0.000916 -0.751298 -0.362467 0.073356 -0.193715 -0.419402 -0.208893 -1.362391 -0.504838 0.228526 0.912574 0.020465 0.191153 -0.841946 -0.026307 0.438678 -0.207783 -0.034204 0.305589 0.613706 -0.353679 0.042216 0.107359 -0.324877 0.221655 -0.837744 -0.172483 -0.909771 0.056807 -0.317088 -0.976340 -0.078189 -0.233768 0.360343 -0.355307 -0.578387 0.390899 -0.248493 0.769340 0.076910 0.070112 -0.107377 -0.404017 0.313549 0.400402 -0.556596 -0.260586 -0.217327 0.208707 -0.689758 -0.695725 0.431364 0.505957 -0.105126 0.447685 -0.650074
NZ_JAEMXF010000041.1 -0.183000 -0.544808 -0.191974 0.589619 0.055848 -0.063065 0.551233 -0.056124 -0.635885 -0.023557 0.264596 -0.727206 -0.030741 0.705182 -0.280651 0.025611 0.120152 -0.307489 0.477436 0.127510 0.048645 -0.236409 -0.574055 0.373728 -0.471717 0.317891 -0.319595 -0.200373 0.817278 -0.057815 0.092306 -0.752726 -0.661624 0.322840 -0.280357 -1.141666 -0.148862 -0.140705 0.804946 0.180057 -0.442436 -0.442738 1.093897 -0.081540 0.328928 -0.015116 -0.478429 -0.215053 0.236892 0.210422 -0.147380 -0.360471 0.570853 0.034247 0.350640 -0.451820 -0.269510 0.659598 -0.030287 0.267263 0.250627 0.706856 0.595065 0.766594 -1.346419 -0.483870 -0.280446 -0.765963 -0.280143 -0.464508 0.791247 0.785599 -0.294173 -0.239289 0.318394 0.228735 0.188750 -0.470678 0.067179 -0.309584 -0.024938 0.240505 0.672968 -0.274517 -0.402910 -0.938152 0.690736 0.415472 0.015752 -0.344943 -0.030983 -1.064813 0.194054 -0.142453 -0.554508 -0.061999 0.080063 -0.061900 -0.049880 -0.817448 -0.457488 -0.017977 -0.985279 -0.071814 -0.535877 0.304058 0.174206 -0.862498 0.869471 -0.337919 0.746083 -0.480231 0.252253 -0.845434 0.285902 -0.059633 0.169929 -0.048386 0.055713 0.547169 0.369193 -0.253771 -0.677142 -0.030935 0.897973 0.200123 1.087917 -0.807897
