1601 128
NZ_MW598241.1 0.123748 0.423443 -0.064294 0.217778 -0.356355 -0.242190 -0.256226 0.387081 -0.338001 0.403352 0.212902 0.031847 -0.042777 0.014315 0.342596 -0.425859 -0.083756 -0.395726 0.481642 0.245950 0.519667 0.222963 0.152792 0.287397 0.039832 0.040925 0.209257 -0.092574 0.012363 -0.002888 -0.030877 -0.114091 -0.452669 0.325113 0.306639 -0.060232 0.179584 -0.350267 -0.059258 -0.197913 0.434982 -0.024042 -0.263324 -0.381959 0.360097 0.253985 0.246945 0.002809 -0.217904 -0.085730 0.089308 -0.324494 0.181757 0.478448 -0.113001 -0.089138 0.321369 -0.354680 0.092890 0.098611 -0.113783 -0.251503 0.398525 0.421913 0.152428 -0.194557 0.208522 0.476359 0.121648 -0.349103 0.141519 0.526435 -0.157948 0.044733 0.040062 0.058275 -0.164391 -0.199660 -0.142391 0.156656 -0.180493 -0.260706 -0.356172 -0.040209 0.024769 -0.221074 0.403473 -0.125797 0.579683 0.510620 0.032278 -0.124498 0.515090 -0.080196 -0.053506 -0.463437 0.079103 -0.569333 -0.373874 0.082837 0.220447 0.582006 -0.106342 -0.092479 0.205872 0.311609 0.444365 0.130943 0.326225 -0.233869 0.033427 0.337710 -0.016973 0.046971 -0.165138 -0.181301 0.142485 -0.110750 -0.054492 0.086419 0.201680 -0.493027 0.290291 -0.152126 0.298391 0.134612 0.036588 -0.079220
HG530068.1 -0.349949 0.336929 -0.285931 0.101812 -0.215854 -0.024419 -0.308887 0.631048 -0.144342 0.279285 0.324636 -0.073375 -0.016988 -0.095632 0.001010 -0.210949 0.018430 -0.641202 0.188690 -0.213607 0.381517 -0.059875 -0.027786 0.260874 -0.712655 0.106881 -0.511786 0.458727 -0.665936 -0.083733 -0.539100 -0.116862 -0.862198 0.053339 -0.127002 -0.528379 -0.140108 -0.332772 -0.150515 0.014957 0.167935 0.074590 -0.053885 -0.220485 0.289136 0.305678 -0.298760 0.091593 -0.494459 0.547933 0.401946 0.122226 0.113366 0.547711 0.426367 0.233588 0.254434 -0.229126 0.258658 0.122012 0.364834 -0.415826 -0.310361 -0.213447 -0.091740 -0.290162 -0.220242 0.233282 -0.644741 -0.321484 -0.215200 0.317907 -0.164803 -0.548387 -0.001616 0.090002 -0.023207 -0.153926 -0.195645 -0.207050 -0.054370 -0.426536 0.022003 -0.009622 -0.522312 -0.189357 -0.019564 0.069225 -0.205675 0.749079 0.330624 -0.136151 0.134813 -0.086498 0.107943 -0.258221 -0.415769 0.050428 0.083499 -0.156013 -0.148901 0.159829 -0.260981 0.182612 0.034227 -0.056155 0.329333 -0.208734 -0.260707 -0.358926 -0.136482 0.085406 0.193200 0.494782 -0.448062 -0.204264 0.276938 0.031820 0.329467 0.140691 0.213540 -0.283213 -0.090560 0.219207 0.598026 0.112750 0.169453 -0.212187
CP025935.1 -0.621006 0.014591 -0.054602 0.636796 -0.233895 -0.132366 -0.478339 0.561834 -0.250274 -0.067245 0.234164 -0.442543 0.064660 -0.204209 0.429498 0.124148 0.050912 -0.305398 0.558664 0.467205 0.053005 0.314577 -0.441662 0.525430 -0.594733 0.085061 -0.492417 0.147370 -0.710425 -0.000169 -0.437656 0.372460 -0.537347 -0.532703 -0.386247 -0.608643 -0.080148 -0.051770 -0.322999 0.615687 0.138476 -0.213311 0.250927 -0.367602 0.626564 -0.054843 -0.325260 -0.002831 0.241746 -0.355615 0.419965 0.066090 0.014709 -0.274503 0.254013 -0.290832 0.563494 -0.152430 0.153488 0.387126 0.295442 0.002277 0.410880 0.436501 0.047995 -0.163660 -0.262902 0.020217 -0.326096 -0.419602 0.432515 0.331994 -0.455130 0.214940 0.172678 0.680517 -0.507593 -0.376337 0.068585 0.140721 -0.582920 -0.133152 -0.343699 -0.079386 -0.405912 -0.077156 -0.152002 -0.076498 -0.169630 0.052723 -0.008220 -0.119893 0.251751 -0.051828 -0.323262 0.123017 -0.167816 -0.517303 -0.016445 -0.085305 -0.087733 -0.281841 -0.013694 -0.102715 0.485622 -0.069598 -0.382307 0.028176 0.741996 -0.142549 -0.081074 0.275633 -0.355282 -0.108589 -0.459906 -0.263045 -0.345359 -0.333510 0.220351 0.237388 -0.043420 -0.305224 -0.117226 -0.127208 0.520655 0.399021 0.266295 0.284517
CP064339.1 -0.331014 0.388453 -0.657054 -0.002866 -0.049333 -0.498994 -0.559373 0.341838 -0.043401 0.419767 -0.582057 -0.287314 0.113937 0.411308 -0.433247 0.153671 -0.596474 -0.019574 0.317959 0.093054 0.529604 0.249426 -0.192301 0.415284 -0.505084 0.087287 -0.215533 -0.227935 -0.528473 -0.039591 0.437236 -0.073765 -0.445470 -0.099018 -0.250160 -0.654149 -0.163317 0.139696 0.407636 -0.058769 0.377548 0.138099 -0.072662 0.280035 0.051400 0.163458 0.143124 -0.007859 0.407974 -0.118721 0.590855 0.036611 0.361415 0.111527 0.013854 -0.192339 0.365602 0.187922 -0.458471 0.325747 0.471388 0.364977 0.233962 0.329204 -0.087067 -0.128302 -0.103681 0.512347 -0.301414 -0.770738 -0.238140 0.314735 -0.349550 -0.231211 -0.066187 0.016951 -0.066556 0.063053 -0.190053 -0.002537 -0.849795 0.012828 0.002703 0.037519 -0.513306 -0.269080 -0.097317 -0.087659 -0.358739 0.262507 -0.011426 0.006863 0.039851 0.132496 -0.063551 -0.320171 0.527384 -0.346251 -0.002650 -0.263174 0.102934 0.430929 0.067516 0.114089 0.275644 -0.809412 0.305566 0.032158 0.353471 -0.117726 0.117742 -0.467088 0.051074 0.528629 -0.763653 -0.458615 -0.138400 -0.034499 -0.159342 0.637680 -0.282972 0.036386 0.186405 -0.414436 0.404280 0.086908 0.202729 0.057043
CP029604.1 -0.303804 -0.246147 0.094295 0.473508 -0.055041 0.261807 -0.234327 0.523339 -0.096650 0.109574 -0.131238 -0.569944 0.441127 0.383158 0.365098 0.164499 -0.217352 -0.749885 0.222740 0.126740 0.319551 -0.052954 -0.078219 0.370711 -0.335914 -0.156467 -0.208185 -0.315371 -0.577717 0.286898 0.001101 -0.026804 -0.207540 -0.937913 -0.007010 -0.313846 0.195849 0.001890 0.223017 0.351035 0.091764 -0.023825 -0.193787 -0.705369 0.239827 0.184456 0.373347 -0.246881 0.185614 0.467367 0.231805 0.422678 0.311728 0.032338 -0.065430 -0.032528 0.172351 0.172623 0.254741 0.205204 0.574645 -0.086767 0.096823 -0.052009 0.256760 -0.529852 0.167319 -0.086003 -0.192916 -0.104666 -0.266178 0.853776 -0.277998 -0.172563 -0.105177 0.221109 -0.438731 -0.036337 -0.016147 -0.013264 -0.198561 -0.517197 0.070215 -0.078447 -0.639867 -0.005971 -0.208350 0.081705 0.046171 0.422276 0.415606 0.130467 -0.208081 0.029968 0.118140 -0.410085 0.408007 -0.789993 -0.736884 0.266595 0.193356 0.769619 0.411969 -0.263729 0.079885 -0.330629 -0.018403 -0.379783 0.336524 0.193619 -0.497316 -0.452010 -0.384030 0.686902 -0.171686 -0.284438 0.318807 0.133082 -0.131992 -0.212790 0.337023 -0.222550 0.493966 0.330916 0.071233 0.260625 0.340661 0.156289
CP071820.1 0.436049 0.305137 0.024099 0.041032 -0.444876 -0.110701 -0.143618 0.430167 -0.537875 -0.012893 0.360995 0.334730 0.331200 0.270773 -0.146042 -0.147103 0.497141 -0.615001 0.678574 0.401299 0.623915 0.040289 -0.224560 0.094698 -0.195714 0.192333 0.001270 -0.464314 0.137564 0.177723 0.093905 -0.236627 -0.605705 -0.059218 0.211580 -0.235052 0.040315 -0.260527 0.096338 -0.168551 0.567220 0.211965 -0.226468 0.006979 0.315999 -0.076061 -0.007080 0.401861 -0.070932 -0.165452 0.268631 -0.442798 0.069896 0.762746 0.402363 0.022188 0.237415 -0.004274 0.051570 -0.027385 -0.176501 0.153605 0.380540 0.299396 -0.259628 -0.344286 0.006731 -0.068012 -0.274394 -0.482263 0.306010 0.661183 -0.350499 0.327028 -0.105892 0.618191 -0.359613 -0.450373 -0.674432 0.388133 -0.381592 -0.391038 -0.230608 -0.112601 -0.124237 -0.068869 0.449133 -0.263155 0.180785 0.227389 0.332199 -0.012197 0.009023 0.104828 -0.025251 -0.447216 -0.209483 -0.536428 -0.488452 0.113275 0.420425 0.353876 -0.010981 -0.214752 -0.262481 -0.105672 0.272992 -0.240969 0.670846 -0.293293 0.150856 -0.433823 -0.263993 0.198290 -0.361077 -0.026502 -0.159705 -0.513810 -0.048103 0.186669 0.269267 -0.355333 0.280311 0.324679 0.163296 0.156604 0.480264 -0.088883
CP016625.1 -0.191561 0.289830 0.091973 -0.190508 -0.236183 -0.533920 0.138567 0.041205 -0.238459 0.070565 0.005204 -0.378418 -0.117009 0.251779 0.133551 -0.218169 -0.294573 -0.760491 0.374178 0.217697 0.786253 0.587957 0.337462 0.223703 0.072749 0.049347 0.211942 -0.065855 -0.229182 0.265178 0.217690 0.446179 -0.420090 0.279168 0.306098 -0.368115 0.304015 -0.506804 -0.114532 0.535795 0.033943 0.192368 -0.142739 -0.030543 0.646049 0.341397 0.179952 0.000014 -0.265924 0.026616 0.175952 -0.352357 -0.275463 0.476611 0.199378 -0.011694 0.759211 -0.291704 0.192993 0.262521 -0.016063 -0.071144 0.150834 0.367901 0.184684 -0.114244 0.193527 0.329979 -0.457547 -0.218187 0.186842 0.473946 -0.214355 -0.009187 0.228372 -0.015505 -0.488171 -0.459501 0.102421 0.277968 -0.165515 -0.247214 -0.169331 0.242510 -0.285719 -0.203907 0.047846 0.229653 0.451741 0.596047 -0.056729 -0.549552 0.559919 0.040087 0.389724 -0.382194 0.598780 -0.680832 0.071961 -0.292945 0.338547 0.148335 0.751595 -0.148929 0.137770 -0.075823 0.580373 -0.038897 0.174226 -0.225753 -0.230457 0.179533 0.114967 -0.259477 -0.351045 -0.792728 0.162201 0.064409 -0.332126 0.061517 0.023919 -0.234554 0.601624 -0.258784 0.281480 0.383424 -0.060803 0.163289
CP022312.1 -0.439343 0.351845 -1.026137 0.185262 0.023881 -0.435292 -0.172579 0.093196 0.044122 0.730279 0.059426 -0.377775 0.201839 -0.154755 0.334486 -0.442051 0.689280 0.117891 0.093594 0.185325 0.255236 0.445011 -0.115616 0.250575 -0.260172 0.014513 0.407182 -0.031702 0.043838 0.215326 -0.339917 -0.192860 -0.774161 -0.507038 -0.087597 -0.452330 0.683501 -0.123101 -0.233521 0.306500 0.155428 -0.155102 0.188402 -0.407538 0.626933 0.054815 0.066582 -0.016523 0.162126 0.073774 -0.263705 -0.248360 0.390197 0.111798 0.250131 0.092243 0.630520 0.365119 0.061680 -0.375876 0.570044 -0.879968 -0.102938 0.201124 -0.394472 0.013418 -0.107926 -0.558093 -0.561632 -0.369213 -0.087183 0.365558 -0.382260 -0.652957 0.033595 0.278126 -0.608165 -0.525715 0.541271 -0.405960 -0.974919 -0.011492 -0.158559 -0.317294 -0.336432 -0.236410 0.234898 -0.403379 0.205402 0.343631 0.287196 0.145702 0.129046 -0.167164 0.481636 -0.541343 0.111691 -0.740240 -0.487583 -0.153799 0.482657 -0.143869 -0.061001 -0.105197 -0.458835 -0.259099 0.395833 -0.162529 0.405326 0.010127 -0.812576 -0.254723 0.148248 0.552835 -0.443274 -0.255357 0.057089 0.122263 0.024863 0.585211 0.153968 -0.488662 0.427012 -0.070245 0.295135 0.447520 0.563085 -0.273659
CP014196.1 -0.202247 0.619714 -0.621107 -0.004059 -0.143366 0.123108 -0.262302 0.496503 -0.301490 0.061026 -0.177087 0.354277 -0.341392 -0.111319 -0.325022 -0.882155 0.431326 -0.588031 0.546917 0.080304 0.604158 0.281688 0.111559 0.074851 -0.046350 0.148439 -0.536757 -0.044363 -0.490827 0.266530 0.086139 0.497260 -0.344992 -0.437195 -0.092591 -0.981604 0.478674 -0.393951 0.009864 -0.100057 0.011914 -0.217537 -0.035569 -0.254202 -0.305738 0.286878 0.073875 0.417651 -0.027629 -0.191437 0.438374 -0.060093 -0.063894 0.439124 0.430984 -0.104694 0.559467 -0.665520 -0.279517 0.164678 0.459830 -0.271501 0.617765 -0.103085 -0.060927 -0.235110 -0.132858 0.017507 -0.291296 -0.051999 -0.150343 0.186936 0.139779 -0.115207 -0.018225 0.482276 -0.383696 -0.253979 0.152759 0.550729 -1.186695 -0.390947 -0.664718 -0.428082 -0.436356 -0.027818 0.063294 -0.036734 -0.098174 0.607659 0.793298 -0.065572 -0.317027 -0.691933 0.447902 -0.146171 0.235386 -0.130705 0.007873 -0.108607 0.276124 0.019419 0.855726 0.298466 0.457923 -0.377809 0.068434 -0.268964 0.431524 -0.228303 -0.191257 0.672291 -0.044562 0.019339 -0.922394 -0.207909 -0.497837 -0.539952 0.073628 0.111034 -0.069842 -0.449812 0.029107 0.372286 0.170302 -0.113905 -0.217356 -0.313411
CP071765.1 0.142975 -0.095609 -0.268100 0.523902 -0.615223 -0.500452 -0.297385 1.078493 0.259876 0.268781 -0.367018 -0.445903 0.065126 -0.199544 0.194133 -0.642064 0.142176 -0.615165 0.890048 0.623546 0.832352 -0.103640 0.074176 0.327583 -0.020757 -0.068922 -0.617221 -0.258221 -0.344937 0.140823 0.073128 0.282355 -0.278073 -0.175214 -0.161308 -0.290612 0.139316 0.108891 -0.378815 -0.316489 -0.170803 -0.347183 -0.139827 -0.247268 0.095336 0.144146 -0.156641 0.498887 0.226972 -0.113156 0.238061 0.331982 -0.238954 0.300429 0.003440 0.261288 0.095207 -0.296005 0.377003 -0.202028 0.328041 -0.400674 -0.099666 0.047650 -0.083618 -0.215781 -0.330993 -0.149845 -0.007023 -0.672196 0.288383 0.641601 -0.531146 -0.415906 0.006526 0.222138 -0.469941 -0.485785 -0.068647 0.210491 -0.262607 -0.058043 -0.019301 0.056822 -0.249090 0.201680 -0.450715 -0.286438 -0.126131 -0.005557 0.062440 -0.301162 0.090221 -0.322885 -0.221368 -0.147702 -0.384948 -0.088189 -0.701614 -0.131597 0.394392 0.524865 0.486954 -0.107005 0.727216 -0.455813 0.159099 0.042508 -0.298158 0.133669 -0.391863 -0.311206 -0.262886 0.455774 -0.820005 -0.471285 0.281375 -0.231629 -0.405679 0.722996 -0.522976 -0.242058 -0.063664 -0.153781 0.083198 0.742572 0.335689 -0.300881
CP071823.1 0.004441 -0.164599 -0.443665 0.376240 -0.608609 0.007103 -0.394627 0.322853 -0.357353 0.648667 -0.254982 -0.336116 0.200076 -0.004628 -0.146942 0.006000 0.005112 0.294069 0.758876 -0.004094 0.487892 0.457248 -0.209564 0.202199 -0.360778 0.078611 -0.356839 -0.442711 -0.498367 0.442158 -0.450108 0.078600 -0.258787 -0.609942 0.024618 -0.413698 -0.025936 -0.211817 -0.018162 -0.247281 0.158942 -0.013166 0.140027 -0.287985 0.681449 0.388528 -0.575495 0.014384 0.299810 0.216134 0.607845 -0.242251 -0.095141 0.452423 0.054201 -0.163207 0.157231 -0.183539 0.245579 -0.138299 0.177230 0.165957 -0.047479 0.036816 0.255257 -0.633215 0.105385 0.023170 0.304023 -0.031093 0.503521 0.849442 -0.253899 -0.441077 -0.500005 0.000333 -0.406688 0.434809 0.563361 0.138437 -0.659035 -0.678113 -0.096014 -0.148821 -0.329541 -0.019401 -0.332294 -0.008903 0.492861 0.365178 0.321792 -0.042748 0.442409 -0.703380 0.199541 -0.489209 -0.086235 -0.335376 -0.173621 -0.390192 0.809695 -0.114710 -0.040620 0.288142 0.061709 0.073074 0.534582 -0.731750 0.259671 -0.307737 0.205184 -0.188801 -0.342877 0.494699 -0.261857 -0.792096 -0.621729 0.238199 -0.195514 0.521169 -0.605599 -0.204288 -0.297169 0.400464 0.689460 0.446160 0.829037 0.120291
NQJM01000001.1 0.411679 0.113608 -0.341766 0.561230 -0.418107 -0.392974 0.075045 0.265495 -0.129474 0.212841 0.392913 -0.561429 0.070998 0.477167 -0.128560 -0.043978 0.351533 -0.274837 0.390111 0.977865 0.646663 0.124844 -0.289934 0.294708 -0.293164 0.025631 -0.014588 -0.612889 -0.452868 0.076939 0.566851 -0.608668 -0.678909 -0.853078 -0.359661 -0.644769 0.467601 -0.374106 0.127386 0.190654 -0.154068 -0.129690 0.378778 -0.808130 0.772300 0.304173 0.350826 0.035743 -0.154686 0.033376 0.343061 0.432157 0.600087 0.688311 0.579356 -0.421599 0.400670 0.083598 0.132955 0.056296 -0.002441 -0.337799 0.088340 0.088973 -0.156516 -0.357715 -0.616244 0.277709 -0.238487 -0.247101 -0.229553 0.284481 0.126330 -0.668240 0.412878 0.411214 -0.087155 -0.394412 -0.116513 -0.823041 -0.830723 0.125504 -0.291756 -0.468192 -0.397857 -0.278986 0.131266 -0.038406 0.070687 0.444645 0.272728 -0.346009 0.150281 -0.302656 0.789381 -0.139500 -0.030605 -0.008018 0.017279 -0.432897 0.026550 0.728531 0.168273 0.199313 0.463748 -0.086967 0.248124 -0.070432 0.426827 -0.055785 -0.292634 0.311121 -0.113771 -0.270849 -0.271243 -0.487876 0.157005 -0.471040 -0.229666 0.798598 0.064657 -0.044756 -0.280572 0.367039 0.572388 -0.102150 0.608807 -0.211574
CP031778.1 -0.211590 -0.035793 -0.258890 0.146985 -0.113808 -0.072168 -0.508811 0.576971 -0.393204 0.364834 -0.140246 -0.800122 -0.120993 -0.168104 -0.105569 -0.172240 0.121865 -0.306826 -0.296464 0.071365 0.345650 0.291070 -0.254691 0.038200 -0.021416 -0.089386 -0.093268 -0.580516 -0.586667 -0.143635 -0.415607 0.001375 -0.497712 -0.316432 -0.362406 -0.458959 -0.145339 -0.352145 0.588648 0.178580 0.041360 -0.405425 -0.361157 -0.147970 -0.054063 -0.231188 0.474446 0.540654 0.048143 0.340555 0.340832 -0.088000 0.221812 0.011976 0.033850 -0.039392 0.415226 0.368796 0.254617 0.065831 0.270695 -0.242337 -0.117015 0.426963 0.052787 -0.272265 -0.235133 -0.058211 -0.608207 -0.630989 0.058119 0.674219 0.023644 0.091978 0.479863 0.491360 -0.339645 -0.035928 0.299688 0.043465 -1.033232 -0.513559 -0.271846 0.251973 0.147997 -0.430910 -0.019808 0.184446 0.507515 0.322648 -0.031645 -0.593136 -0.171412 0.188204 -0.084752 -0.007195 -0.174220 -0.278282 -0.171127 -0.083459 -0.183781 0.585449 0.145615 0.561909 0.245494 -0.303566 -0.011715 0.520207 0.671120 0.063054 0.243207 -0.006115 0.052802 0.101031 -0.832097 -0.418801 -0.208247 0.558273 -0.492688 0.193143 0.344426 0.296644 0.036745 0.908834 0.527660 0.474142 0.050103 -0.218956
CP006831.1 -0.397665 -0.003652 -0.220495 -0.026782 -0.302471 0.196501 -0.029152 0.527416 0.046033 0.098524 0.110662 -0.009602 0.042338 -0.029918 0.028099 -0.078705 -0.032768 -0.532934 -0.037993 -0.210036 0.467117 0.079805 0.428662 0.089397 -0.734242 0.196042 -0.490066 0.442746 -0.473406 0.172174 -0.242815 0.035037 -0.647899 -0.173489 -0.328704 -1.029859 -0.098738 -0.226215 0.256970 -0.198232 0.062362 -0.172296 -0.361767 -0.487577 0.598574 0.238601 -0.462364 0.022728 -0.272652 0.568156 0.643908 0.054587 0.041428 0.139902 0.351542 0.296359 0.309447 0.049798 0.544136 -0.226639 0.513162 -0.502130 -0.159571 -0.101784 -0.333176 -0.203791 0.162738 0.110525 -0.344929 -0.228729 -0.265232 0.487131 -0.396352 -0.398023 -0.075646 0.139892 -0.064389 -0.482891 -0.168838 -0.238065 -0.456571 -0.037492 0.024287 -0.358383 -0.341305 0.023308 0.205728 0.100639 -0.228479 1.131455 0.526401 -0.355634 0.429175 -0.069781 0.208349 -0.563154 -0.109487 -0.016855 0.079351 0.197298 -0.187662 0.110323 -0.343291 0.336249 0.283274 -0.283154 0.022907 0.160841 -0.376885 -0.696587 -0.121916 0.322011 -0.140044 0.450474 -0.244320 -0.671152 0.106021 0.113314 0.140420 0.397832 0.084680 -0.016573 -0.574455 0.004804 0.342076 0.140623 0.314814 0.041441
CM001046.1 -0.567563 -0.026442 -0.094520 0.321254 -0.146009 -0.078107 -0.254037 0.337885 -0.502968 0.081910 0.425296 -0.766677 0.055038 0.061533 0.305285 -0.312357 0.485992 -0.657971 0.444630 0.599037 0.599788 0.282732 0.177219 0.664391 -0.585219 0.925798 0.405142 -0.299353 -0.132574 0.450534 -0.071255 -0.236084 -0.772373 -0.728688 -0.611176 -0.580078 -0.040287 0.117026 0.450601 0.387257 0.431738 -0.241309 0.136897 -0.022486 0.719177 -0.200573 -0.557191 0.750891 -0.146930 0.110576 0.838769 -0.043052 0.675719 0.572499 0.468415 -0.423486 0.191032 -0.561424 0.493203 0.449302 0.362427 -0.343896 0.195279 0.322043 0.229610 0.147840 -0.373321 -0.000093 -0.390352 -0.256404 0.170582 0.565283 0.537431 -0.473679 -0.105072 0.340330 -0.566104 -0.142002 -0.071351 0.074434 -0.067025 -0.248408 -0.439910 0.369913 -0.144230 -0.181086 0.236275 0.167800 0.214240 0.960475 -0.037860 0.087012 -0.259644 -0.393704 -0.061383 -0.552639 -0.087689 -0.720254 0.103689 -0.447143 0.109271 0.268032 -0.528111 0.687859 0.856239 -0.069077 0.317552 0.383477 -0.020683 0.194073 0.295164 -0.567079 -0.179852 0.281740 -0.066400 -0.124212 -0.276615 -0.002020 -0.588854 -0.197557 -0.113498 -0.275928 0.756812 -0.042380 0.012524 -0.123487 0.492936 -0.262426
NZ_JTHH01000008.1 -0.062417 0.232035 -0.372663 0.429987 -0.195097 -0.020580 -0.296728 0.792507 -0.780933 0.502117 0.131215 -0.555436 -0.199520 0.006844 -0.357439 -0.223828 0.010317 -0.411677 -0.120203 0.134632 0.515791 0.546869 -0.246707 0.163272 -0.182179 -0.002451 -0.443163 -0.664654 -0.738961 -0.104840 -0.018917 -0.016269 -0.318757 -0.126992 -0.085213 -0.348161 -0.411946 -0.238706 0.140942 0.011724 0.055297 -0.431032 0.048797 -0.038951 -0.196610 -0.121949 0.270924 0.658064 -0.044863 0.031351 0.377901 0.192902 0.041198 -0.018162 0.319263 -0.046659 0.210730 0.269991 0.430479 0.217773 0.214878 -0.157282 -0.019162 0.057862 0.595543 -0.372489 -0.154243 0.156333 -0.128294 -0.301802 0.117992 0.745972 -0.023250 -0.071095 0.243436 0.757464 -0.415453 -0.075949 0.458031 -0.036091 -0.732682 -0.478056 -0.125343 0.496979 -0.178372 -0.441148 -0.242495 0.548576 0.576734 0.370179 -0.063899 -0.453987 -0.040821 -0.053272 -0.152648 0.125620 0.188652 -0.169346 -0.310809 -0.113836 -0.152900 0.339606 0.119908 0.359447 0.111453 -0.516215 0.424972 0.274963 0.443820 0.001065 0.122622 0.283164 -0.091823 -0.145471 -0.974498 -0.540225 -0.388253 0.417891 -0.594687 0.295060 0.011632 0.492411 -0.130206 1.119899 0.572281 0.301217 -0.019257 0.097760
CP050202.1 0.275950 0.860468 -0.002359 0.599703 -0.554332 0.118915 0.074567 0.493371 -0.508774 0.276245 0.084281 0.277721 0.464987 0.087551 0.160477 -0.075326 0.377785 -0.565757 0.167811 0.401123 0.651092 0.530597 -0.596160 0.425523 0.085020 0.422069 0.172423 -0.335697 0.062096 0.272132 0.134924 -0.197533 -0.340482 0.319284 -0.175261 -0.501683 0.397689 -0.300489 0.156398 0.244231 0.744044 -0.222173 -0.060025 -0.235679 0.668200 -0.054622 -0.243919 0.363650 0.157272 -0.044753 0.254568 -0.145213 -0.025926 0.440525 -0.154539 0.135985 0.427336 -0.517474 -0.059292 -0.106262 0.176783 0.161964 0.077797 0.708512 -0.350544 -0.341526 -0.151982 -0.002689 0.164535 -0.477628 0.024458 1.015411 -0.047076 0.143869 0.199049 0.534481 -0.545860 0.070402 -0.272376 0.136692 -0.294900 -0.450410 -0.020738 -0.468714 -0.157950 -0.147382 0.470462 0.077925 -0.019288 0.512986 0.572588 -0.110891 0.101847 -0.119784 0.251083 -0.463860 -0.230155 -0.537401 -0.495898 0.121904 0.251936 0.143753 0.135814 -0.205791 -0.079776 0.077825 0.435395 -0.385800 0.305189 -0.308638 0.049165 -0.228465 -0.403845 0.046687 -0.609748 0.105655 0.130681 -0.602540 -0.368354 0.256911 0.416236 -0.360074 0.216194 -0.063292 0.412544 -0.268569 0.445794 -0.098834
NZ_QLOB01000001.1 -0.633019 -0.020579 -0.400611 0.470961 -0.364241 0.338150 -1.045883 0.847209 -0.570250 0.092425 -0.604251 -0.337162 0.323786 0.138689 -0.189725 -0.697201 0.238710 -0.755510 0.729797 0.216599 0.798489 0.282434 -0.476995 0.758876 -0.298968 0.320820 -0.193346 -0.276286 0.094800 0.040883 -0.531257 0.171827 -0.244229 -0.230452 -0.179107 -0.950458 -0.144412 -0.299819 -0.082765 -0.043604 0.077204 0.110710 0.289609 -0.378900 0.112605 0.547597 -0.345710 0.115156 -0.325365 0.299442 -0.363793 -0.056588 -0.009078 0.035928 0.122051 0.040678 0.344274 0.251071 -0.082721 0.127207 0.392693 -0.504805 0.519882 0.392282 -0.310093 -0.317697 -0.117765 -0.564150 -0.629367 -0.546830 0.348829 0.360019 -0.145013 -0.427492 0.463279 0.410040 -0.306501 -0.653215 0.325284 0.233234 -0.450155 -0.161810 -0.326282 -0.120221 -0.700691 -0.273031 0.192279 0.174703 0.481159 0.478830 0.735313 -0.645051 -0.026431 -0.415540 -0.438008 -0.462476 -0.405406 -0.522455 -0.214652 -0.067715 -0.194393 0.650771 -0.172869 0.809651 0.137442 -0.537546 0.108285 -0.062239 0.884251 0.253228 -0.027621 -0.883306 0.620142 -0.191515 -0.447863 -0.096259 0.196103 -0.063918 -0.532864 0.546049 0.075928 -1.298501 0.028185 -0.096972 0.628929 0.055236 0.866639 -0.274186
CP051128.1 -0.482528 0.477876 -0.475792 0.228460 -0.370455 -0.066652 -0.647876 0.849805 0.099178 0.171555 0.547649 0.009126 0.078650 -0.024829 -0.215767 -0.341963 0.400547 -0.583881 0.616400 0.950375 0.435623 0.933073 0.542133 0.475689 -0.222901 0.454201 -0.149380 -0.172508 -0.384127 0.621230 0.038740 -0.093987 -0.340634 0.040346 0.101088 -0.482707 0.171989 -0.149548 0.150079 0.675229 0.528725 0.139750 0.327566 -0.036468 -0.056561 0.415330 0.222601 0.354839 0.118186 0.455554 0.600557 0.087575 -0.168504 0.264936 0.180355 0.408423 0.608441 -0.366358 0.479129 0.188256 0.423173 -0.659845 0.399155 0.451217 -0.101743 -0.041593 0.140527 0.078252 0.111247 -0.825088 -0.314522 0.387072 0.304959 0.036288 -0.479298 0.252393 -0.053623 -0.328081 -0.394702 0.135791 -1.053856 -0.401256 0.100997 0.531273 -0.095574 -0.711542 -0.075856 -0.410707 -0.228817 0.526607 0.548213 0.586341 0.008156 0.177919 0.220260 -0.544705 0.138292 -0.299064 -0.962754 -0.260301 -0.325959 0.314411 0.085590 0.068042 -0.215908 -0.987719 0.513186 0.224704 -0.542652 -0.409238 -0.938178 0.180801 -0.857793 0.300314 -0.843076 -0.091235 -0.106178 0.206019 0.298863 0.522473 -0.759050 -0.498997 0.415804 0.370561 0.834556 0.366032 -0.217596 -0.311340
AP012495.1 -0.557547 0.058846 -0.920287 0.256798 -0.129519 -0.191160 -0.609578 0.494199 0.352632 0.292515 0.252142 -0.706432 0.347907 0.324085 0.436034 -0.145277 -0.305751 -0.362434 0.293390 0.165122 0.614462 -0.304542 0.158642 0.211531 -0.158419 -0.468149 -0.865206 -0.026884 -0.493147 -0.262364 -0.096705 -0.112660 -0.367727 -0.242932 -0.155572 -0.281209 -0.446763 -0.188681 0.198487 -0.017933 -0.270350 0.128335 0.302775 0.469734 0.314885 0.177702 0.443192 0.326663 0.003287 0.058975 0.989318 -0.188468 -0.086224 -0.199679 0.223645 -0.425194 0.332530 -0.088234 0.537212 0.041125 0.691153 -0.753385 -0.388451 -0.023754 0.434233 -0.288171 0.008132 0.279384 -0.669001 -0.093007 -0.063578 -0.071233 -0.528229 0.306063 -0.133908 0.317117 -0.411269 -0.562001 0.068092 0.535566 -1.024127 -0.454095 -0.579448 0.171171 -0.225831 -0.002293 0.009978 -0.381663 0.437926 0.874477 0.215855 -0.147363 -0.256905 -0.576466 0.016357 -0.456890 -0.233601 -0.763484 -0.113205 0.002245 0.535124 0.341065 0.273568 -0.243563 0.517520 -0.160879 0.562329 0.128959 0.126141 -0.301133 -0.432427 0.300855 -0.229485 0.254086 0.065894 0.147759 -0.504847 0.156313 -0.313954 0.140183 -0.004260 -0.760269 0.719965 -0.188993 0.148487 0.845775 0.239801 -0.139309
CP010005.1 -0.325049 0.228555 -0.430064 0.458420 -0.095683 0.047693 -0.425729 0.243778 -0.648667 0.486717 -0.055183 -0.716889 -0.291288 0.208026 -0.183166 -0.408960 0.358997 -0.482898 0.089460 0.111913 0.372381 0.261383 -0.076807 -0.021549 -0.244253 -0.165930 -0.439737 -0.593643 -0.447070 -0.132135 -0.100665 0.049471 -0.568381 -0.387406 -0.275673 -0.605879 -0.183874 -0.260038 -0.050849 -0.055695 0.011512 -0.152668 -0.189403 -0.480903 -0.397157 0.137807 0.473257 0.600555 -0.127639 0.073222 0.459039 0.109861 -0.011549 0.185152 0.067413 -0.134956 0.355320 0.595510 0.723412 -0.257411 0.024364 -0.082068 -0.005066 0.328644 0.313630 -0.340103 -0.079763 0.281983 -0.276222 -0.247455 0.037130 0.571531 0.147776 0.103824 0.192663 0.840445 -0.044397 -0.344613 0.449059 0.217595 -0.675618 -0.410804 -0.356677 0.599208 -0.064467 -0.036510 -0.024791 0.480700 0.481665 0.379395 0.170456 -0.701188 -0.053291 -0.167617 -0.188136 -0.037567 0.291373 -0.324854 -0.216151 0.202729 0.168055 0.512791 0.112618 0.309642 -0.113958 -0.868482 0.380906 0.537384 0.449407 0.304767 -0.197694 0.347416 -0.195807 -0.151618 -0.795564 -0.250123 -0.380697 0.515993 -0.224670 0.270201 0.055421 0.367080 -0.009859 0.887254 0.622295 0.203359 0.185288 -0.150794
CP012388.1 -0.565005 -0.232553 -0.447949 -0.225992 -0.418149 -0.367106 -0.445254 0.926506 -0.602932 -0.007668 -0.611987 -0.709339 0.265477 0.277264 -0.206110 -0.342755 -0.304066 -0.569988 0.562131 0.570265 0.618245 -0.025776 0.125315 0.170736 -0.814534 -0.318053 0.106358 -0.393584 -0.247965 -0.288129 -0.030561 -0.345282 -0.045996 -0.232408 0.162623 -0.234463 -0.277417 0.014835 0.271968 -0.119396 0.235659 0.855931 -0.347547 0.299480 0.267425 0.704923 -0.154504 0.498144 -0.021857 0.502653 -0.118874 -0.262851 0.227520 -0.009517 0.209216 -0.079680 0.242407 0.363103 0.360934 0.095450 -0.075204 -0.433395 -0.643505 0.347940 0.794271 -0.196350 -0.178373 0.277383 -0.579735 -0.562590 0.413857 0.280561 -0.364210 -0.576558 -0.409054 0.394648 -0.364716 -0.202839 0.691407 0.054503 0.155422 -0.323341 -0.675597 0.401602 -0.742850 -0.539656 0.234907 0.372687 0.444628 0.491051 -0.173143 -0.309563 0.610364 -0.224638 -0.388861 -0.643156 -0.032532 -1.072112 -0.499924 -0.788736 0.317275 1.232770 -0.029401 0.473664 0.134166 -0.366893 1.239379 0.779244 0.808743 0.064005 0.285621 -0.854107 0.043672 0.452433 -0.055900 -0.267967 -0.003807 0.497059 -1.003402 0.408935 -0.556663 -0.397462 0.709407 -0.331353 0.198977 1.000495 0.719043 -0.216159
CP049045.1 -0.526523 0.132426 -0.051230 -0.193163 -0.366057 0.225106 0.196488 0.389907 -0.353540 0.589086 -0.203463 -0.454944 -0.009014 -0.183377 0.239624 -0.279249 -0.171742 -0.553875 0.040682 -0.197205 0.139124 0.079017 0.473771 -0.015814 -0.625456 0.012249 -0.225040 0.002979 -0.396816 0.232180 -0.176952 0.151106 -0.455616 -0.040873 -0.458182 -0.847854 -0.006151 -0.294679 0.665904 -0.481567 0.353623 -0.088205 -0.303646 -0.277876 0.458573 0.595254 -0.083047 0.649398 -0.192530 0.507158 0.421935 0.085596 0.260338 -0.079253 0.643927 0.033563 0.194624 0.189656 0.958139 -0.115790 0.659098 -0.010426 0.281592 0.262063 -0.342378 -0.023591 0.465820 0.144121 -0.413408 -0.452909 -0.001605 0.449830 -0.398603 -0.519551 -0.445583 -0.032388 -0.175028 -0.417531 0.167546 -0.213577 -0.724292 0.078189 0.076504 -0.229694 -0.339278 -0.022909 -0.021164 -0.100238 0.082324 0.897214 0.583115 -0.251301 0.577892 -0.364963 -0.009525 -0.490476 0.537454 -0.577143 0.275972 0.164609 0.006710 -0.090768 -0.351648 0.433001 0.070600 -0.282405 0.033021 0.217862 0.118768 -0.617647 -0.447828 0.268176 -0.390268 0.599757 -0.092801 -0.635468 -0.020604 0.116001 0.440822 0.239093 0.163876 0.411386 -0.156611 0.279523 0.163425 0.588440 -0.005233 -0.133363
CP014272.1 0.334007 0.861376 -0.578251 0.338561 -0.731100 -0.161326 -0.218107 0.543197 -0.185644 0.960998 0.119458 -0.274833 0.167630 -0.043769 0.238039 0.100873 -0.332972 -0.265421 0.637989 0.280913 0.856656 0.254830 0.455705 0.156604 -0.539103 -0.283813 0.131431 0.009119 -0.263606 -0.356566 0.027824 -0.294117 0.004095 -0.134290 0.131812 -0.821099 0.251314 -0.639017 -0.527998 -0.283319 0.139053 0.039943 -0.337568 -0.435084 0.282584 0.333282 0.527435 0.024392 0.061179 0.402832 -0.153744 -0.106911 -0.434885 0.347464 -0.183313 -0.053355 0.528626 -0.270962 0.405745 0.334683 0.153450 -0.511792 0.244097 0.493008 0.410631 -0.373396 0.678530 0.376459 0.298498 -0.139950 -0.349282 0.483385 -0.241358 0.164145 -0.209084 0.435589 -0.202694 -0.433312 -0.365665 0.019212 -0.619267 0.099944 -0.499806 -0.122369 -0.403762 -0.485258 0.073210 0.172198 0.454001 0.246335 0.072381 0.071290 0.916815 0.298454 -0.051379 -0.490271 0.141542 -0.164949 0.141665 -0.087009 -0.034516 0.284523 0.106082 0.145612 -0.175397 0.091797 0.384250 -0.411259 0.588906 -0.306321 0.212258 0.388438 -0.303730 0.455850 -0.486851 -0.373834 0.116220 0.491703 -0.185335 0.279951 0.262718 -0.808400 0.356234 0.002544 0.266112 0.138559 0.261679 -0.041347
CP014269.1 0.087844 0.638673 -0.058379 0.242732 -0.251388 -0.328768 -0.140998 0.763125 -0.455377 0.568839 0.012892 -0.407073 -0.553820 0.082537 0.633985 -0.572267 -0.136934 -0.229905 0.379228 0.488170 0.334348 -0.008470 -0.227595 0.394850 0.017289 -0.108511 -0.062029 -0.096450 -0.259094 0.155954 0.168856 -0.419336 -0.116732 0.412443 0.174738 -0.068198 0.177628 -0.079585 -0.161610 -0.304155 0.393312 0.124587 -0.105085 -0.471270 0.313650 0.306373 0.536750 0.032567 -0.400126 0.007157 0.305141 -0.085135 0.052141 0.348257 -0.170062 -0.073190 0.355655 -0.359518 -0.311612 0.221703 -0.002802 -0.328677 0.179524 0.675653 0.444358 -0.079650 0.333366 0.057853 -0.061776 -0.581347 0.154264 0.314980 -0.008779 0.091020 -0.185311 -0.021654 -0.453578 0.348187 0.075017 0.284119 -0.412360 0.040596 -0.273701 -0.074702 -0.135905 -0.700789 0.304717 -0.427375 0.457679 0.612786 0.136257 -0.308097 0.287996 -0.511393 -0.372927 -0.476316 0.078850 -0.715213 -0.403303 0.228598 0.261269 0.243615 -0.035348 0.021462 -0.003366 0.311313 0.510422 0.252152 0.256823 0.037818 -0.253385 0.107086 -0.052624 -0.016658 -0.216913 -0.359746 -0.053669 -0.640962 0.088195 0.187909 0.011563 -0.432506 0.365201 0.239575 0.662684 0.170388 -0.280637 0.301131
CP019576.1 -0.247216 0.319354 -0.118212 0.379235 -0.220783 0.222099 -0.356527 0.973821 -0.238341 0.254700 -0.626644 0.255420 -0.148859 0.499572 0.058672 0.059963 0.133404 -0.830022 0.454324 -0.216594 0.591466 0.646465 -0.117989 -0.149639 -0.430876 -0.011252 -0.524292 0.281585 0.084713 0.016382 0.324850 -0.342658 -0.865890 -0.798768 0.377964 0.030699 0.315150 -0.497948 0.075670 0.296274 0.122685 0.353479 0.397101 -0.206198 0.477042 0.234309 -0.073479 0.593945 -0.091510 0.665017 1.044103 -0.243478 0.541098 0.071903 -0.013150 -0.561569 -0.012663 0.054754 0.613621 0.245657 -0.021218 -0.486122 0.601886 0.151649 -0.222403 -0.125137 -0.159851 -0.014653 -0.758046 -0.403696 -0.280497 0.733378 -0.256159 0.369119 -0.163959 0.610004 -0.454444 -0.532117 0.149548 -0.755032 -1.088297 0.079192 -0.445081 0.030935 -0.708965 -0.669281 -0.074677 -0.083464 0.188028 0.228143 -0.248671 -0.428897 0.391704 -0.510759 -0.178323 -0.150674 0.277232 -0.374017 0.281192 -0.535937 0.882342 -0.018390 0.581225 0.435316 0.395016 -0.280884 0.182605 0.255325 0.840176 -0.268117 0.145500 -0.033453 -0.550233 0.631362 -0.302461 -0.128284 0.046825 0.178061 0.287342 0.072935 -0.495292 -0.254610 0.338347 0.266535 0.702852 0.599365 0.364566 -0.311035
KE136335.1 -0.617193 0.199955 -0.000680 -0.080074 -0.249687 0.139788 0.281719 0.326976 -0.557272 0.410061 -0.356651 -0.510028 -0.112406 -0.447516 0.413678 -0.329531 -0.200666 -0.187449 0.392253 0.068129 0.327958 0.192501 0.512600 -0.067410 -0.516947 0.105246 0.331502 -0.146479 -0.204895 0.440898 -0.034756 0.310285 -0.514996 0.038525 -0.699872 -1.173634 -0.049977 0.253292 0.859237 -0.051155 0.136620 -0.137237 -0.123513 -0.589982 0.528445 0.349541 -0.149651 0.547690 0.257246 0.072328 0.530474 0.031299 0.407367 0.003616 0.196008 -0.061823 0.347530 0.095434 0.954169 -0.157173 0.893267 -0.318235 0.290729 0.216982 -0.309348 -0.057268 0.606056 -0.161059 -0.182479 -0.641617 0.080307 0.726479 -0.743611 -0.343129 -0.438329 0.157206 -0.322364 -0.328265 0.432092 0.066969 -0.822615 -0.021668 -0.139975 -0.678702 -0.795443 0.149157 0.238584 -0.069019 0.129100 0.779785 0.493965 -0.496924 0.347755 -0.203805 -0.223998 -0.394673 0.468186 -0.811170 0.142087 0.322515 0.024734 -0.038680 -0.171492 0.373631 0.140220 -0.072819 -0.079779 0.315266 0.843412 -0.643187 -0.142375 -0.071726 -0.358968 0.440762 0.104413 -0.776961 -0.278239 0.055252 0.325458 0.498597 0.265779 0.354137 -0.040418 0.038440 0.217026 0.531705 0.329650 -0.060942
NZ_CP073707.1 0.296048 0.352449 0.375477 0.567546 -0.392086 -0.159800 -0.099661 0.923601 -0.793405 0.216716 -0.379391 -0.099124 0.225306 -0.202206 0.258130 -0.057900 -0.107524 -0.027222 0.736130 0.800766 0.372061 -0.139853 -0.385762 -0.109940 -1.210393 -0.233421 0.035289 0.148968 -0.123326 -0.157601 0.099088 0.020304 -0.046015 -0.913777 0.041638 -0.834575 0.393225 -0.258560 -0.276381 0.127406 0.422793 0.379719 -0.742347 -0.804363 0.461965 0.581306 0.220253 0.546907 0.110640 -0.046387 -0.253838 0.723038 0.482987 0.406445 -0.061563 -0.149771 0.839515 0.284127 -0.338181 0.232096 -0.006882 -0.043799 0.279032 0.482524 0.404999 -0.075259 0.299115 -0.188561 -0.418270 -0.300004 0.265348 0.375081 -0.345413 -0.400148 -0.277747 0.676400 -0.721823 -0.060520 -0.064619 0.219456 -0.337775 0.034885 -1.088112 -0.444567 -1.174816 -0.054561 0.156419 0.475836 0.242252 0.354915 0.177497 0.322643 0.553483 -0.080413 0.092470 0.150740 0.254899 -1.084708 -0.164046 -0.556388 0.141152 0.201103 0.307112 0.472201 0.804435 -0.344719 -0.175763 0.091622 1.265649 0.182798 0.200969 -0.030989 -0.530831 0.547929 -0.517899 -0.349844 0.218663 -0.051770 -0.397339 -0.057323 0.197536 -0.317372 -0.056269 0.352708 -0.688928 0.141772 -0.196364 0.208304
LT618789.1 -0.145154 0.242477 -0.366670 -0.211346 -0.170311 -0.292262 -0.247089 0.739510 -0.410749 0.516130 -0.379670 -0.609636 0.228133 0.050685 -0.508821 -0.343885 0.143860 -0.501850 0.232601 0.821998 0.468993 0.460363 -0.229453 0.181794 -0.494327 -0.025138 -0.135433 -0.330275 -0.013398 0.489939 1.228351 -0.196709 -0.044269 -0.158852 -0.605781 -0.584906 0.196245 -0.133637 1.015578 0.539488 0.079247 0.470642 -0.162525 0.416845 0.444324 0.733197 0.915148 1.397296 0.281622 0.331791 0.703485 0.614802 0.095429 0.450091 0.298498 -0.138782 0.657395 0.347133 0.635709 0.033721 0.144924 -0.616836 -0.147650 0.723502 -0.143965 0.094467 0.223575 -0.795869 -0.920247 -0.288818 0.085822 0.215046 -0.111662 -0.427552 -0.133207 0.074543 -0.364507 -0.197794 0.384935 0.217565 -1.601291 0.063410 -0.267202 -0.101787 -0.696262 -0.377975 -0.004293 0.066043 0.464403 0.647717 0.615150 -0.062686 -0.147488 -0.320013 0.854007 -0.277758 0.943097 -1.166652 -0.554569 0.028957 0.399252 0.649510 0.660018 0.936875 0.326512 -1.112464 0.479155 0.501067 0.252293 -0.374371 -0.418636 -0.745988 -0.817780 0.431971 -0.210679 -0.321267 -0.301540 0.303157 -0.404005 0.340962 -0.206855 0.055437 0.690639 0.833042 -0.148790 0.656366 -0.136726 0.160743
CP022426.1 -0.699692 -0.086857 -0.421060 0.000003 0.035049 0.304888 -0.562152 0.411240 -0.318042 -0.752089 -0.209345 -0.177317 0.214767 0.422206 -0.540524 -0.295931 -0.084754 -0.992705 0.958528 1.105350 0.712318 0.202948 0.305264 0.103475 -0.376895 -0.371269 -0.767967 -0.446762 -0.674928 0.067992 0.035711 0.051438 0.232025 -0.789387 0.425503 -1.107073 0.299319 -0.130115 0.140621 0.424279 -0.079911 0.917149 0.840874 -0.561104 0.514200 0.802900 -0.065810 0.055810 -0.003179 -0.120031 0.089706 0.442541 0.312342 -0.554249 0.447388 0.024659 0.914805 0.469735 0.626681 0.173929 0.494637 -0.186156 0.334548 0.433867 0.214212 -0.480920 -0.012426 -0.209147 -0.145518 -0.548308 0.514885 0.041724 -0.640989 -0.252162 -0.337347 0.426460 -0.111534 -0.645562 0.403005 0.091571 -1.080249 -0.544842 -0.513421 -0.387168 -0.818399 -0.700112 -0.053389 -0.105189 -0.224070 0.311874 0.672474 0.512377 0.367640 -0.556057 0.142914 0.051298 -0.214701 -0.648959 -0.729467 -0.493795 -0.296881 0.457950 0.472371 0.552852 -0.290966 -1.304396 -0.114369 -0.211588 0.476173 -0.204981 -0.348120 -0.298726 -0.466210 -0.122181 -0.380218 -0.562410 -0.188795 -0.145684 0.065722 0.503788 -0.822412 -0.884232 -0.125256 0.249772 0.870593 0.713081 0.188088 -0.381744
CP005976.1 -0.151612 0.712868 -0.443243 0.638192 -0.103798 -0.216970 -0.717942 0.861225 0.027391 0.484272 -0.133429 -0.091468 -0.073076 0.245822 -0.104342 -0.181292 0.057672 -0.663583 0.213850 0.174801 0.271762 0.182569 0.277908 0.444220 -0.497663 0.243199 -0.640314 0.220917 -0.539701 -0.189793 -0.229005 -0.087946 -0.582254 -0.195970 0.061725 -0.145479 -0.340745 -0.232380 -0.672279 -0.282555 0.408752 -0.139028 -0.588430 -0.378986 0.277420 0.095854 0.049159 -0.034294 -0.088732 0.562411 0.389994 0.043054 0.082340 0.903462 0.077691 -0.254841 0.098603 -0.538178 0.005954 0.294885 -0.043683 -0.625622 0.114963 -0.318342 0.320967 -0.396722 0.033361 0.579456 -0.639493 0.018793 -0.440707 0.421726 -0.102798 -0.409290 0.339657 0.543581 -0.525916 -0.405297 -0.153139 0.137782 -0.093822 -0.416327 0.063267 -0.088468 -0.482566 -0.296493 0.153180 -0.037102 -0.148505 0.799823 0.098721 0.002077 0.268410 -0.056998 -0.128194 -0.394686 -0.200319 -0.137653 -0.205640 0.484014 0.261557 0.889001 -0.284487 0.361376 0.114316 0.113123 0.374328 0.385673 0.379368 0.061403 0.266064 0.229244 0.191635 0.398413 -0.169804 0.177674 0.071184 -0.342010 -0.064696 0.311303 0.474301 -0.554661 -0.172324 -0.099667 0.224699 -0.256575 -0.116060 -0.132955
CP064311.1 0.100833 0.483394 -0.353080 0.821142 0.186527 -0.728185 -0.544940 0.543340 -0.710826 0.486061 0.104190 -0.279879 0.433925 0.397608 -0.142969 -0.298878 -0.255675 -0.442118 0.273389 0.322061 -0.096265 -0.045086 0.090359 0.456271 -0.054287 -0.178417 -0.983412 -0.585208 -0.557510 0.351671 -0.144082 -0.024467 -1.043785 0.233681 -0.155818 -1.126791 0.527169 -0.236036 0.392790 -0.202767 0.425994 -0.032725 -0.067071 -0.059263 0.814276 -0.311140 -0.447815 0.120615 -0.075340 0.376935 0.524659 0.191952 -0.025080 -0.244861 0.731725 0.332429 0.956334 -0.718283 -0.002437 0.399316 0.518289 -0.445127 0.230948 0.376099 0.348916 -0.313781 -0.328326 0.110318 -0.089962 0.149526 -0.260893 0.881384 -0.008830 -0.418827 0.180334 0.850924 -0.612426 -0.723523 0.346630 0.662194 -0.397628 -0.106576 -0.640332 0.228150 -0.686903 -0.193756 -0.024705 -0.508519 -0.044400 0.426739 -0.170821 -0.517367 0.484753 -0.475070 -0.703258 0.118165 0.259378 -0.338564 -0.874454 0.186019 -0.018480 0.059994 0.131283 0.564556 0.374395 -0.692493 0.805166 -0.622042 -0.187038 -0.228071 0.519290 -0.397986 -0.310172 0.588864 -0.439466 0.186432 -0.492290 0.153405 -0.289676 0.063624 0.102144 -0.003480 0.040120 -0.248432 0.262326 0.587912 0.439225 0.138307
AE005176.1 -0.082622 -0.085737 0.071284 0.362985 -0.435921 -0.124905 -0.458065 0.411555 -0.441774 -0.297565 0.284549 -0.520190 0.174848 0.302269 0.005452 -0.241371 -0.005939 -0.498917 0.566120 0.861481 0.428064 -0.185009 0.072581 0.525727 -0.822863 0.652301 0.220876 -0.402766 -0.581320 0.789582 0.280008 0.200971 -0.449706 -0.387878 -0.195054 -0.732872 0.116671 -0.268970 0.414514 0.255726 0.507688 0.387302 -0.165196 -0.332122 0.290258 0.817248 -0.222466 -0.179914 0.137367 -0.283614 0.407022 0.175498 0.584278 0.103178 0.459133 -0.046562 0.781665 -0.017753 -0.726401 0.526468 0.590998 0.398591 0.164871 0.894815 -0.281274 0.120793 -0.523001 0.310776 -0.099037 -1.192085 0.194217 0.156631 0.028785 -0.353923 -0.363568 -0.273487 -0.082007 0.139305 -0.243709 0.087449 -0.402617 -0.727931 -0.236541 -0.133309 -0.650325 -0.264791 0.175665 -0.172671 -0.331707 0.818092 0.126026 0.024294 0.033100 0.203788 0.127244 -0.179782 -0.018499 -0.596804 -0.106622 -0.391526 -0.564038 0.785625 -0.145944 -0.139675 0.509083 -0.856918 -0.086910 -0.171960 0.054263 -0.171698 -0.093532 -0.369172 0.268321 0.314445 -0.842273 -0.523878 0.678315 -0.330363 -0.008029 0.400287 -0.257472 -0.528535 -0.155611 -0.690209 0.193124 0.166882 0.055974 0.256274
CP027116.1 -0.617488 -0.283536 -1.117097 0.194112 -0.309973 -0.108547 -0.386933 0.592473 -0.334475 -0.039569 0.422377 -0.919884 0.632367 0.282454 0.275082 0.028858 0.079671 -0.390454 0.613136 0.087381 0.188758 -0.458741 0.080988 0.415253 -0.338770 -0.121735 -0.756679 -0.152559 -0.689076 0.037920 0.106378 0.088813 -0.653615 -0.210393 -0.180991 -0.400687 -0.338705 -0.600747 0.362303 0.075862 -0.267439 -0.039400 0.410468 0.201471 0.409239 0.269257 0.475546 0.213868 -0.288924 0.125473 1.132329 -0.199251 0.132272 -0.261960 0.739598 -0.369901 0.501981 -0.051452 0.461348 -0.173947 0.506517 -0.743793 -0.354289 0.195009 0.463815 -0.444300 0.064812 0.038262 -0.859709 -0.023705 -0.283316 -0.151277 -0.106533 0.002742 -0.019165 0.676155 -0.257458 -1.126292 -0.264827 0.188029 -1.036034 -0.569209 -0.627756 0.271245 -0.047433 0.158011 0.091983 -0.015753 0.626195 0.716521 0.422710 -0.115003 0.026454 -0.795136 -0.187227 -0.225977 -0.370811 -0.564443 -0.127681 0.028257 0.224129 0.742248 0.423342 -0.082072 0.331890 -0.358309 0.577986 -0.004313 0.406976 -0.323986 -0.452852 0.094784 0.143755 -0.129356 -0.247498 0.422277 -0.540056 -0.048952 -0.193691 0.043295 0.225224 -1.045429 0.192218 -0.110664 -0.030335 0.799139 0.783758 -0.307878
CP011301.1 0.207745 0.740802 0.422758 0.461340 -0.443806 -0.307994 -0.095443 1.195897 -0.580178 0.017933 -0.014539 -0.043295 0.074745 -0.140502 0.271585 -0.045295 0.255779 -0.485606 0.567347 0.949122 0.455520 0.223826 -0.105131 -0.157102 -1.151635 -0.029709 0.056803 0.320207 -0.303520 -0.275964 0.280016 -0.157376 -0.346394 -0.947559 0.099564 -0.756935 0.639773 -0.577306 -0.346872 0.283407 0.499315 0.638704 -0.730117 -0.927492 0.676285 0.578193 0.182345 0.459179 -0.256518 0.104087 -0.037971 0.607662 0.512731 0.742236 0.130394 -0.067897 1.056368 0.267842 -0.179073 0.414068 -0.248774 -0.193060 0.270606 0.542762 0.410426 0.039236 -0.241509 0.161995 -0.728476 -0.344104 -0.178105 0.282036 -0.213678 -0.438238 0.084981 0.738930 -0.574793 -0.183425 -0.082437 -0.207513 -0.203296 -0.144128 -0.968705 -0.226478 -1.168808 -0.353109 0.066299 0.232990 -0.075557 0.437108 -0.118374 0.111297 0.860254 0.085174 0.488572 0.379628 0.187467 -0.729760 -0.079792 -0.687776 -0.161112 0.379538 0.461054 0.324950 0.757677 -0.201604 -0.128992 0.112915 0.711076 0.180395 0.099907 0.295622 -0.532837 0.113860 -0.680030 -0.630547 0.668410 -0.091813 -0.174427 0.087144 0.239778 -0.117704 -0.385527 0.319328 -0.273134 0.193272 -0.631508 0.166515
CABEEN010000068.1 -0.122749 0.188357 -0.259044 0.929772 0.101089 0.095855 -0.257498 0.073982 -0.128060 0.665976 -0.118231 -0.458145 -0.179874 -0.181854 -0.501021 -0.415566 -0.161605 -0.299321 0.600138 0.731416 0.374278 -0.019213 0.195991 0.402754 -0.855139 -0.263235 -0.430632 0.140660 -0.171167 -0.151952 0.016375 0.122099 -0.645179 -0.485840 -0.221170 -0.614023 0.377941 -0.227754 -0.210534 0.477774 -0.070018 -0.444524 -0.146992 -0.171941 0.647136 0.803080 -0.108052 0.410377 0.172241 -0.318551 0.533038 0.938675 0.739169 0.429413 0.456019 -0.357316 0.282165 -0.741577 0.294878 0.229091 0.548590 -0.160391 0.289919 0.439783 -0.161943 -0.384108 0.217506 0.122634 0.181063 -0.416826 0.502090 0.478938 -0.252873 -0.039334 -0.290508 -0.554982 0.285767 0.272042 -0.404488 0.325416 -0.600998 -0.680825 0.028689 -0.721617 -0.495474 -0.082638 0.394628 0.686655 0.246818 0.826295 0.122801 0.084514 0.495648 -0.349460 -0.148226 -0.248398 0.247201 -0.840008 -0.429638 0.039536 -0.079024 0.336526 0.402430 0.519853 0.469578 -0.595806 0.547808 -0.126298 -0.449125 -0.233342 0.199566 -0.308006 -0.042231 0.525692 -0.480008 -0.560591 -0.038687 0.207536 -0.396390 0.669489 -0.659875 -0.510573 0.373155 0.908124 0.118129 -0.334217 -0.075795 -0.548455
KE137323.1 -0.117806 -0.203450 -0.022771 0.187763 -0.273243 -0.445668 0.332448 0.640964 -0.442545 0.228269 0.939208 -0.277255 0.095181 -0.482745 -0.122084 -0.428714 -0.062165 -0.742547 0.441810 0.843726 0.107493 0.266913 -0.169947 0.805056 -0.441290 -0.149134 -0.562279 -0.486620 -0.800801 0.345127 0.325562 -0.172740 -0.783626 -0.633293 0.085388 -0.772104 -0.089465 0.152562 0.060299 0.446356 0.152755 -0.601454 0.326899 -0.668157 0.283898 -0.086942 -0.031851 0.160989 0.338488 -0.228776 0.952982 -0.123882 -0.129862 0.784679 0.392963 0.137788 0.387689 -0.939318 0.943800 0.131414 0.396689 0.044752 0.798350 0.042848 0.084902 -0.330329 0.073641 0.069241 -0.144231 -0.700328 -0.406010 0.305609 -0.361051 -0.786048 0.236830 0.499964 -0.460173 -0.221553 0.218883 -0.239953 -1.059108 -0.360155 0.439704 -0.519059 -0.468150 -0.054439 -0.298917 -0.224645 -0.236108 0.244747 -0.217290 -0.242392 -0.080236 -0.127309 0.075375 -0.826784 0.318957 -0.259690 -0.609800 -0.393587 0.587551 0.421308 0.033996 0.272808 0.280676 0.402929 0.701780 0.184899 -0.011894 -0.777690 -0.397633 0.074228 -1.034994 0.880358 -0.612504 -0.308321 -0.444705 0.166075 0.512641 0.185783 0.105486 0.185851 0.399687 0.746352 0.132979 0.705683 0.595645 0.291403
KN150799.1 -0.218129 0.560954 -0.257319 0.384033 -0.478950 -0.104987 -0.541720 1.243642 -0.773961 0.687132 -0.457256 -0.615057 0.024102 -0.006628 -0.636357 -0.719481 0.018211 -0.291748 0.188784 0.426253 1.114662 -0.302513 0.137573 0.069590 -0.609755 0.265800 -0.516383 -0.517061 -0.197912 0.621055 0.485581 -0.242833 -0.901939 -0.697478 0.307424 0.176854 0.561283 -0.613620 0.113465 -0.043953 0.652758 0.277725 -0.210913 -0.057963 -0.015086 0.830344 0.403333 0.560805 0.018254 0.741003 0.507729 0.066087 0.535277 0.580275 0.091775 0.557620 0.247531 0.405860 0.238899 -0.763620 0.055295 -0.822334 -0.138050 0.369671 -0.070560 0.228263 0.162179 0.388810 -0.217397 -0.090168 -0.273399 0.355396 0.423085 -0.900217 -0.360002 0.493539 0.027712 -0.038254 -0.048448 -0.626391 -0.802045 -0.624018 -0.150562 -0.235630 0.098858 0.138342 -0.035873 -0.048144 -0.078817 0.779918 0.559755 0.389321 -0.223949 -0.276442 0.575598 -0.273229 0.401185 -0.897803 -0.477666 -0.340098 0.047286 1.010247 -0.440697 0.770854 0.660598 -0.644126 0.865560 -0.334404 0.047617 -0.178521 -0.458099 -0.390492 0.059888 0.329953 -0.535980 0.393883 0.385165 -0.118069 -0.205018 0.241281 0.058632 0.066155 0.226845 0.359357 -0.008627 0.609467 0.478205 -0.492104
NZ_CP027782.1 -0.293492 0.163981 -0.214462 0.582508 -0.277166 0.581132 -0.163302 0.458697 -0.474345 -0.005963 -0.706023 -0.507605 0.229576 0.184815 -0.549082 -0.046474 0.451360 -0.062663 0.840427 0.849638 0.748218 0.348430 -0.331819 -0.391519 -0.817338 0.404048 -0.173075 -0.359525 -0.222048 0.352745 -0.222210 -0.436572 -0.367637 -1.180055 -0.521543 -1.108632 0.661234 -0.000121 0.271802 0.220042 0.514231 0.072370 -0.308913 -0.515596 0.124856 0.665468 -0.562707 1.103206 0.358228 0.051518 0.391167 0.483522 0.312627 -0.111902 0.244671 -0.186857 -0.290472 0.116073 0.140520 -0.261111 0.024089 -0.377959 -0.211345 0.213408 -0.140099 0.050525 -0.703091 -0.460656 -0.223868 -0.457539 0.120939 0.713762 -0.228631 -0.722206 -0.694487 0.723105 -0.295523 0.122022 -0.022205 -0.267460 -1.399715 -0.441844 -0.758689 -0.582386 -0.925952 -0.082107 0.188182 0.190316 -0.350330 0.346681 0.945618 0.441068 -0.553805 -0.036187 0.147851 -0.217125 -0.252521 -0.776036 -0.299424 0.091820 -0.264470 0.436989 0.574034 0.356529 0.284641 -0.536206 -0.137402 0.193614 1.031643 0.176837 -0.279560 -0.717007 -0.425852 0.847138 -0.988205 -0.347324 0.233053 0.049883 -0.172512 0.560404 -0.404905 0.102573 0.040007 1.228747 0.183071 0.055232 0.901433 -0.475696
CM007353.1 -0.202006 0.155198 -0.296177 0.012733 -0.374889 -0.233820 -0.826375 0.471040 -0.050378 -0.198974 -0.304744 -0.492527 0.125597 0.369624 -0.246446 0.137157 -0.524546 -0.145959 0.127357 0.783579 0.541144 -0.101596 -0.155092 0.451809 -0.623735 0.329320 -0.027276 -0.340687 -0.803562 0.614822 0.298587 0.134222 -0.570112 -0.227967 -0.339052 -0.684771 0.031938 0.047830 0.531238 -0.003280 0.652415 0.237084 -0.379921 0.020112 0.094543 0.610095 -0.006642 -0.133873 0.095961 -0.228245 0.458715 -0.097944 0.525396 0.292602 0.287931 0.056517 0.458247 0.236237 -0.576335 0.286080 0.150123 0.502230 0.246765 0.663337 -0.349212 0.001427 0.027547 0.621851 -0.397002 -0.923013 0.177218 0.110736 -0.217433 -0.456619 -0.116548 -0.217224 -0.215426 0.187009 -0.481975 0.292421 -0.563501 -0.252307 -0.424146 -0.139795 -0.631565 -0.101600 -0.084859 -0.213033 -0.278046 0.590178 0.386064 -0.188564 0.290674 0.184463 0.381788 -0.398924 0.226223 -0.569543 0.181121 -0.283143 -0.264401 0.437309 -0.192802 0.173152 0.555721 -0.832944 -0.178211 -0.073295 0.282666 0.290882 0.160448 -0.430770 0.194274 0.592888 -0.614903 -0.345283 0.290973 -0.163808 -0.139591 0.441724 -0.270813 -0.062762 -0.094448 -0.658977 0.234036 0.032356 0.427455 0.285443
NC_001421 -0.242218 0.515617 -0.154714 0.269825 -0.267571 -0.123842 -0.424489 0.717243 -0.079951 0.369544 0.100158 -0.010939 -0.180037 0.049890 -0.006277 -0.280880 0.024315 -0.559979 0.226073 -0.006054 0.327570 0.246443 0.387902 0.284829 -0.319589 0.196397 -0.263863 0.333118 -0.316359 -0.092803 -0.293796 -0.018943 -0.544929 0.083264 0.204678 -0.128003 -0.234369 -0.493307 -0.440295 -0.182887 0.283260 0.012547 -0.362112 -0.309726 0.292692 0.298658 -0.000765 -0.256518 -0.399116 0.436588 0.295665 -0.095984 0.079537 0.695671 0.140706 -0.113034 0.250259 -0.543672 0.019767 0.338606 0.105652 -0.466847 0.063384 -0.080492 0.101673 -0.343409 0.008737 0.550390 -0.419051 -0.135417 -0.313758 0.307251 -0.103730 -0.194910 0.230153 0.031347 -0.258697 -0.038803 -0.259969 -0.015186 0.098479 -0.430010 -0.005186 -0.050893 -0.387840 -0.290947 0.246272 -0.087579 0.027146 0.791150 0.091376 -0.225972 0.372623 -0.021708 -0.116411 -0.355156 -0.174215 -0.181660 -0.035108 0.264068 -0.004722 0.631062 -0.288700 0.213827 0.015626 0.334129 0.344199 0.172604 0.051847 -0.219641 0.137963 0.281228 0.269255 0.109041 -0.152646 -0.257195 0.299124 -0.190286 0.145183 0.194551 0.271816 -0.518257 -0.074182 -0.016898 0.474771 -0.072275 -0.103085 -0.119586
MTZF01000001.1 -0.593017 0.307990 -0.625553 -0.239189 0.108658 0.108758 -0.104683 0.891836 -0.920304 0.109988 -0.502688 -0.686486 -0.267810 -0.411700 0.074670 -0.672805 0.097969 -0.561895 0.656854 0.635970 0.470301 0.475368 0.631390 0.254386 -0.155083 0.300292 -0.325646 0.151739 -0.217628 0.062135 -0.367666 0.287402 0.408959 0.402543 0.376340 -0.936592 0.054750 -0.054199 0.354297 0.057997 0.390430 -0.108230 0.067825 0.750217 0.120514 0.817233 -0.664178 0.996690 -0.221721 -0.203135 0.459972 -0.369711 0.076814 -0.154506 0.415729 -0.246201 0.551393 -0.227553 0.480997 0.015434 0.697107 -0.348761 0.161083 0.343040 0.115076 0.048006 0.323817 -0.498875 -0.229510 -0.721239 0.524182 0.651449 -0.096987 0.179860 -0.572035 0.059775 -0.621139 -0.078960 0.399092 0.774602 -0.825850 -0.177021 -0.935921 0.070989 -0.260261 -0.325741 -0.216032 0.565420 0.439449 1.051295 0.328719 0.230059 0.480462 -0.697720 -0.402306 -0.372413 -0.278823 -1.288224 -0.354992 -0.474627 0.002635 -0.282298 0.299060 0.106592 0.492966 -0.734572 0.470782 0.691891 0.468823 -0.556008 0.045581 -0.009347 -0.253102 0.425927 -0.581114 -0.622845 -0.404779 0.436965 -0.385814 0.375462 -0.541744 -0.493797 0.400640 0.056910 0.260754 0.824041 -0.759577 -0.169332
FNRZ01000004.1 -0.187164 0.357548 -0.208516 0.304919 -0.257916 -0.046331 -0.581696 1.162512 0.343878 0.038049 0.233979 -0.336014 0.355817 0.459494 -0.212131 0.154881 -0.142119 -0.722866 0.218405 0.328470 0.239957 0.154133 0.254537 0.452785 0.009715 0.104240 0.143064 -0.501673 -0.394358 0.526424 -0.282581 -0.052571 -0.619235 -1.193908 0.220975 -0.548422 0.688166 -0.421206 -0.100709 0.407622 0.073872 0.296139 -0.564473 -0.519320 0.131594 0.051927 0.191614 -0.255097 0.591788 0.116467 0.314565 0.450473 0.043836 -0.115111 -0.098609 0.100908 0.358484 -0.012196 0.571336 -0.052377 0.358096 -0.174687 -0.127219 0.186963 0.450977 -0.188655 -0.240124 -0.057569 -0.420032 -0.293923 0.098470 0.299491 -0.069842 -0.277504 -0.231464 0.339669 -0.138655 -0.537085 -0.020821 -0.108094 -0.615094 -0.594934 0.302752 -0.219211 -0.624291 -0.248606 -0.254885 0.077826 -0.314713 0.522150 0.666667 0.245282 -0.207548 0.225024 0.178479 -0.134649 0.330616 -0.641311 -0.582949 0.303084 0.593674 0.373460 0.742049 -0.466140 0.048619 -0.059923 0.146135 -0.636166 0.269577 -0.165881 -0.153789 -0.635167 -0.653092 0.568771 -0.236600 0.013637 -0.131072 0.093659 -0.232043 -0.115891 -0.050586 -0.481605 0.220239 0.634452 0.522468 0.461321 0.057361 0.315439
CP031023.1 -0.277493 -0.331391 -0.478878 0.014062 -0.364220 0.172029 -0.116506 0.088132 -0.479932 0.169250 -0.059375 -0.808994 0.069513 0.095357 -0.662759 0.004380 0.380144 -0.639379 0.816552 0.767571 0.623925 0.021593 -0.359216 0.124239 -0.705051 0.232372 -0.678183 -0.181249 -0.269179 0.025609 0.206821 -0.194514 -0.208104 -0.182684 -0.682607 -1.167685 0.002752 -0.049257 0.458611 -0.229421 0.327643 0.622810 0.687939 0.369514 0.779568 0.881859 -0.701850 0.779128 -0.156115 -0.449650 0.881683 -0.091532 0.563359 -0.072500 0.846873 -0.445753 0.804718 -0.056214 0.281564 -0.391458 0.217853 -0.037080 -0.107731 0.390134 -0.455490 -0.255049 -0.961620 -0.169587 -0.917133 -0.385519 0.069140 0.068903 -0.172143 -0.390817 -0.345811 0.436298 -0.197669 -0.444832 0.574901 -0.207503 -1.212298 -0.495516 -0.404125 -0.037805 -0.448668 0.177040 -0.196398 0.183296 -0.297415 0.417260 0.462139 -0.549531 0.475919 -0.510933 -0.115864 -0.044419 -0.231125 -0.381928 0.151101 -0.406380 0.291678 -0.161935 -0.124174 0.566763 0.644249 -0.921432 0.321561 -0.105800 0.119556 -0.589285 0.289951 -0.343100 0.100895 -0.101641 -0.313518 -0.270235 -0.690985 0.032980 -0.563088 0.852020 -0.417065 0.386813 -0.234695 0.099930 0.457375 0.987523 0.853932 -0.386738
CP041356.1 -0.014230 0.553748 -0.877855 0.018130 0.237541 -0.419228 -0.404475 0.343098 -0.340465 0.593983 -0.074143 -0.648601 -0.170441 0.476539 -0.117759 0.352519 -0.107968 0.069602 0.410292 0.259761 0.632720 -0.020342 -0.121571 0.138449 -0.291794 0.403488 -0.538671 -0.129506 -0.715667 -0.228821 0.662430 -0.079178 -0.472938 -0.230191 -0.241037 -0.506247 -0.204799 0.160937 0.199838 0.182026 0.231069 -0.233492 -0.251902 0.370207 0.451418 0.100483 0.010484 0.347087 0.589940 -0.518303 0.907280 0.350560 0.314774 0.282427 0.150359 -0.373621 0.431338 -0.020070 -0.131133 0.259835 0.402675 -0.135469 -0.159583 0.087308 0.302556 0.083703 -0.279644 0.325145 -0.233653 -0.808945 -0.450066 0.855667 -0.776214 0.022884 -0.279939 0.018454 0.009704 0.133837 -0.255023 -0.200876 -0.981019 -0.139494 -0.305098 0.281477 -0.347933 0.024900 -0.402087 -0.223492 -0.405524 0.434273 -0.032003 0.236638 0.058074 0.221526 0.397301 -0.135871 0.038701 -0.700073 -0.290775 0.285106 -0.292473 0.545779 -0.145216 -0.096707 0.231068 -0.814943 -0.046626 -0.179643 -0.052830 -0.332487 -0.170119 -0.441496 0.035663 0.877224 -1.119000 -0.627637 -0.328586 0.149559 0.199276 0.843345 -0.288214 -0.125897 0.188894 -0.080106 0.338068 0.152724 0.058628 0.106273
CP071526.1 -0.276724 0.693425 -0.636685 0.438099 -0.321239 0.408747 -0.310856 1.368579 -0.528453 0.688602 0.084669 0.319023 -0.011000 -0.544685 0.673445 -0.675012 0.627808 -0.450307 -0.052425 0.228851 0.342268 0.172346 -0.053242 0.121161 -0.555344 0.340413 -0.439031 0.177123 -0.696414 0.013184 -0.784376 -0.153691 -0.397296 -0.156935 -0.233221 -0.457470 0.276317 0.121620 -0.054532 -0.770983 0.898917 -0.245361 -0.852753 -0.583136 0.473167 -0.071855 -0.780474 0.606673 -0.070506 -0.024952 0.699067 -0.015777 0.183074 0.260872 0.180369 0.130013 0.378637 -0.537513 0.776620 -0.256741 0.447043 -0.482516 -0.277489 0.374549 0.566427 -0.421254 -0.026749 -0.209794 -0.097024 -0.146843 0.174360 1.114279 -0.271468 -0.548149 -0.501006 0.495823 -0.909564 0.648052 0.519744 0.561232 -0.262856 -1.204126 -0.538441 -0.583010 -0.428112 -0.015665 0.284392 0.011523 0.168122 1.174571 0.673643 0.274480 0.260109 -1.093759 -0.230392 -0.358116 -0.821557 -1.238295 -0.865567 0.409621 0.602210 -0.282688 -0.044768 0.152366 0.213009 0.217245 0.311516 0.206637 -0.015575 -0.504737 0.240982 0.172364 -0.942769 0.735539 -0.650787 -0.275312 -0.274951 -0.067926 -0.472089 0.000135 0.237873 -0.206410 -0.541330 0.729409 -0.049137 0.449197 -0.097829 0.013972
CP012831.1 -0.363145 0.598183 -0.047882 0.685730 -0.313191 0.032343 -0.494237 0.707251 -0.292108 0.330800 0.054797 -0.210264 -0.009946 0.028857 -0.343061 -0.169804 0.096464 -0.464459 0.318560 0.293651 0.353245 0.467343 0.706614 0.209240 -0.287667 0.423223 -0.242387 0.176731 -0.236322 0.111708 -0.167067 0.129035 -0.636483 -0.168521 0.162915 -0.248066 -0.412011 -0.749051 -0.447078 -0.195923 0.188899 0.004197 -0.298982 -0.060445 0.457523 0.420700 -0.101850 -0.137052 -0.159961 0.493734 0.579989 -0.076480 0.096700 0.665522 0.307365 -0.316316 0.361208 -0.827391 0.151200 0.586643 0.440838 -0.638828 0.161489 0.128308 0.059605 -0.294074 -0.156183 0.933539 -0.483006 0.009583 -0.275234 0.085668 0.017278 -0.029334 0.426446 0.500450 -0.423396 -0.081981 -0.179545 0.182577 -0.154041 -0.640713 0.086955 -0.118552 -0.653249 -0.245500 0.410333 -0.084619 -0.184905 0.898749 0.107565 -0.344485 0.386270 -0.139228 -0.322960 -0.280995 -0.239468 -0.324367 -0.024725 0.482198 -0.022141 0.769361 -0.589473 0.504183 0.105680 0.379313 0.605063 0.252742 0.098819 -0.385551 0.250324 0.305376 0.082729 -0.194042 -0.285191 -0.094660 0.148764 -0.320143 0.216093 0.316805 0.371880 -0.640574 -0.150063 -0.199359 0.411695 0.162410 0.073553 -0.071435
NC_016166 -0.382124 0.104604 -0.159972 0.262234 -0.254275 0.198423 -0.513724 1.004831 0.153720 0.107815 0.155400 -0.503484 0.389273 0.453209 -0.012239 0.255537 -0.181067 -0.757631 0.224410 0.095632 0.200525 -0.133569 0.160795 0.453704 -0.012683 0.117708 0.097734 -0.388634 -0.478840 0.487722 -0.152434 -0.066776 -0.381086 -1.148491 0.032945 -0.518021 0.381784 -0.197752 0.046733 0.310551 -0.028167 0.313174 -0.678803 -0.556910 0.131867 0.017384 0.304809 -0.062205 0.471122 0.286314 0.430854 0.460764 0.069658 -0.190746 -0.112935 0.112973 0.245246 0.192489 0.683340 -0.041340 0.527762 -0.119008 -0.198038 0.165305 0.488448 -0.281579 -0.031753 -0.065820 -0.340346 -0.093415 0.061655 0.470538 -0.194341 -0.108687 -0.305810 0.369563 -0.292444 -0.465049 -0.084564 0.094443 -0.390735 -0.467341 0.210901 -0.070408 -0.671663 -0.055261 -0.175851 0.135855 -0.145817 0.518383 0.643966 0.193952 -0.295168 0.125720 -0.037510 -0.166720 0.549193 -0.778226 -0.635313 0.291664 0.636436 0.443488 0.574909 -0.330142 0.116035 -0.292320 -0.020941 -0.471476 0.477628 -0.046940 -0.190717 -0.680839 -0.672069 0.687285 -0.159796 0.062207 -0.023248 0.326849 -0.372728 -0.434421 0.214733 -0.338098 0.401734 0.452742 0.180744 0.416979 0.168681 0.309774
CP009902.1 0.005487 0.172375 -0.117473 -0.012988 -0.184321 0.371843 -0.489571 0.727594 -0.596568 -0.082928 0.037570 -0.718279 0.086798 -0.505364 -0.171059 -0.290567 0.125774 -0.362515 -0.077442 0.362004 0.282040 0.503382 -0.492587 0.340268 -0.113477 0.487972 -0.017893 -0.440856 -0.761643 0.213164 -0.442650 -0.276785 -0.661182 -0.251346 -0.672249 -0.440169 -0.130494 -0.439035 0.442480 0.174453 0.230139 -0.294466 -0.198444 -0.210413 0.016380 0.027528 0.194015 0.385666 0.154429 -0.013857 0.227024 -0.303342 0.362295 0.140783 -0.054643 0.024185 0.236109 0.157963 0.113359 0.128200 -0.041354 -0.112475 -0.602126 0.455159 -0.060824 -0.364217 -0.289448 -0.435609 -0.327107 -0.799133 -0.004835 0.754409 0.333216 -0.216872 0.215544 0.542842 -0.648483 0.317765 -0.093574 -0.258255 -1.068091 -0.440934 -0.635427 0.269531 0.400500 -0.186391 -0.254450 0.498410 0.784042 0.602403 0.323667 -0.446115 0.231805 0.090658 0.446707 -0.319738 -0.474516 -0.452101 -0.151433 -0.367103 -0.486693 0.616610 -0.082060 0.497798 0.080772 -0.418645 0.095270 0.248850 0.738311 -0.118907 -0.168943 0.359125 0.348655 -0.207556 -1.021328 -0.426105 -0.097615 0.445192 -0.405439 0.292301 0.462889 0.160902 0.184472 1.061462 0.652760 0.305589 0.477348 0.028747
CP075894.1 -0.315992 0.310595 -0.145263 0.373318 0.229106 -0.223519 -0.723826 0.544850 -0.540336 0.422629 0.339101 -0.005998 -0.193432 -0.032037 0.194545 -0.473911 0.037324 -0.483754 0.364060 0.470997 0.360881 0.290529 -0.003284 0.620724 -0.142659 0.260972 0.195029 -0.436247 -0.014461 -0.080846 0.049125 0.133307 -0.449393 -0.343034 0.656730 -0.130657 0.257227 -0.221105 0.066887 0.281864 0.840449 -0.104667 -0.359324 -0.100828 0.502209 0.395544 0.025771 -0.300574 -0.153987 -0.123425 0.062688 -0.332425 0.489924 0.367123 -0.320479 -0.049234 0.302573 -0.301986 -0.274813 -0.171602 -0.251441 0.154041 0.704873 0.310859 0.466832 0.000134 0.200155 0.508973 -0.156963 -0.113587 -0.078758 0.291716 -0.292774 -0.193259 -0.151788 0.038466 -0.345382 0.061242 -0.010858 0.094326 -0.017401 -0.442495 -0.342213 -0.495891 -0.617202 -0.148157 0.201762 -0.256557 -0.008832 0.577334 0.106927 0.054688 0.732338 0.027036 -0.201791 -0.452550 0.253144 -1.281343 -0.611340 -0.105401 0.270384 0.608065 -0.075443 -0.148316 0.011071 0.354548 0.414888 0.195067 0.844702 -0.188151 0.506758 -0.216691 -0.149300 0.359119 -0.156951 -0.077930 -0.131404 -0.172287 0.283195 0.037911 -0.095043 -1.079161 0.230664 -0.566847 0.454771 0.129465 0.107960 -0.137223
CP045048.1 0.048957 0.218359 -0.300268 0.898064 0.115488 0.055338 -0.166795 0.040981 -0.134196 0.469673 -0.073236 -0.113700 0.025490 -0.152693 -0.644580 -0.313655 -0.161898 -0.218306 0.721728 0.646826 0.496024 -0.082348 0.055143 0.300753 -0.819812 -0.170784 -0.463071 0.134399 -0.203372 -0.069589 -0.111082 -0.062747 -0.675301 -0.656192 -0.114910 -0.656343 0.485444 -0.259960 -0.276701 0.528968 -0.106639 -0.338192 -0.035573 -0.253176 0.672334 0.773014 0.000135 0.303980 0.155201 -0.350475 0.575164 0.813867 0.576506 0.302734 0.403444 -0.139729 0.217826 -0.535172 0.199368 0.174791 0.491898 -0.272222 0.222966 0.423402 -0.420638 -0.412470 0.226708 -0.046427 0.076658 -0.395193 0.549322 0.358346 -0.300289 -0.062264 -0.202903 -0.460435 0.195907 0.171152 -0.479166 0.403533 -0.802741 -0.679765 -0.106806 -0.824921 -0.506321 0.077198 0.533888 0.637712 0.105546 0.873141 0.302403 0.121023 0.239381 -0.442171 0.015029 -0.342382 0.128390 -0.629744 -0.486495 0.103211 0.003927 0.372197 0.337023 0.568146 0.344757 -0.492067 0.540516 -0.322519 -0.495156 -0.317032 0.194618 -0.439791 -0.000037 0.464763 -0.501236 -0.328706 0.023801 -0.016601 -0.361771 0.466631 -0.498164 -0.751101 0.456686 0.819373 0.228302 -0.362879 0.127182 -0.427475
LR607333.1 -0.100730 0.640613 -1.117643 0.741422 -0.471364 -0.151969 -1.060436 0.962336 -0.454893 0.851616 -0.280604 -0.430402 0.398010 -0.134908 0.193949 -0.184536 0.437930 0.201004 1.057912 0.961421 0.595632 0.376194 -0.080016 0.853076 -0.985470 0.246821 -0.230025 -0.378417 -0.014969 -0.378865 -0.493771 -0.669863 -0.018028 -0.705412 -0.090643 -0.786287 0.148339 0.174124 -0.325180 -0.492145 0.575823 0.232614 0.095314 -0.128981 -0.205803 0.273188 -0.269386 0.424696 0.243932 0.056352 0.182058 -0.075110 0.420291 -0.084952 -0.244516 -0.470917 0.336386 -0.210418 -0.235790 0.149498 0.290578 -0.511688 0.464294 0.660043 0.578248 -0.037470 -0.317945 -0.219519 0.094791 -0.475905 0.184747 0.251993 0.252892 -0.468983 -0.625746 0.689031 -0.137341 0.154855 0.210070 0.035283 -0.894638 -0.407411 -0.750461 -0.244827 -0.348004 -0.483283 0.048014 -0.238710 0.150447 0.140534 -0.077529 0.887629 0.373930 -0.361070 -0.679040 -0.341584 -0.693164 -0.429764 -0.370632 -0.738825 0.120886 0.266624 -0.351658 0.869400 0.475316 -0.564128 0.327978 -0.019589 0.859490 0.176734 0.662152 -0.687097 -0.257129 0.923580 -0.621709 0.283363 -0.417204 0.117545 -0.652506 0.449917 -0.547698 -0.948138 0.316576 0.127897 0.154763 0.137031 0.389051 -0.379790
CP009538.1 -0.520853 0.064408 -0.678397 0.537985 -0.120254 0.145742 -0.547133 0.241205 -0.534066 -0.389061 0.383026 -0.781107 0.341912 -0.217345 0.272710 -0.742941 0.682261 -0.927668 0.698576 1.120621 0.631384 0.124126 0.043358 0.076916 -0.747727 0.099443 0.290187 0.280082 -0.578505 -0.109074 -0.454722 -0.422359 -0.298951 -0.897871 0.191341 -0.647566 0.732691 -0.608136 -0.579700 0.541542 0.137300 0.281914 -0.020828 -0.405439 0.299343 0.648193 0.001170 0.110966 -0.364282 -0.349545 -0.131817 0.205202 0.333385 -0.084526 0.459760 -0.496974 0.572883 -0.216179 -0.040538 0.198324 0.292139 -0.745509 -0.123299 0.250085 0.670274 0.154910 -0.380220 -0.155767 -0.711410 0.025928 0.285459 -0.416104 0.123889 -0.388542 0.166574 0.156339 -0.470132 -0.484546 0.436161 0.178982 -0.577451 -0.599551 -1.254304 -0.053928 -0.719384 -0.756250 0.312940 0.291716 0.632874 1.028249 0.397930 -0.043611 0.060491 -0.329461 0.447717 -0.234078 -0.364985 -0.910828 -0.049765 -0.390385 -0.598698 0.590821 0.523049 -0.101560 0.237865 0.114127 0.289843 0.065109 0.852503 0.038985 -0.259114 0.413022 0.294773 -0.354825 -0.699858 -0.150426 0.403433 0.194451 -0.410408 -0.296039 0.059154 -1.471036 0.525329 0.406006 0.129902 -0.054948 0.160127 -0.208149
AP019815.1 0.152799 0.512132 -0.059951 0.095129 -0.029216 0.072382 -0.000817 0.162331 -0.933367 -0.084424 -0.169903 -0.177666 0.264707 0.175209 -0.845158 -0.226975 0.161138 0.099026 0.331878 0.364051 0.150695 -0.383680 -0.253421 -0.545088 -0.540074 -0.123082 -0.498461 -0.479642 -0.619900 0.332628 0.161963 -0.211007 -0.306536 -0.409955 0.083300 -0.520203 0.604292 -0.837676 0.705973 0.738008 0.423225 0.290645 -0.280181 -0.080256 0.967788 0.703389 -0.163138 0.551977 0.160371 0.112734 0.309324 0.033726 0.500902 -0.175853 0.467178 0.164229 0.654495 0.054727 -0.158492 -0.209599 -0.091705 0.107930 -0.545569 0.333377 -0.522114 -0.225394 -0.070793 0.284365 -0.463556 -0.845645 0.485526 0.728921 -0.324057 0.119481 -0.150060 0.268572 -0.499503 -0.324710 0.287114 -0.301179 -1.124432 -0.218459 -0.802264 -0.515838 -0.848287 -0.364791 0.485531 0.282647 0.139170 0.683913 0.193096 -0.287892 0.160871 -0.244416 0.999288 -0.315613 0.441251 -1.234722 -0.015687 -0.273272 -0.394878 0.244233 0.382148 0.031525 -0.298093 -0.046261 0.763043 0.310275 0.960473 -1.260144 -0.323501 0.266665 0.128297 0.291806 -0.819208 -0.471488 -0.224237 -0.182260 0.150095 0.391629 -0.494134 -0.042476 -0.659225 -0.198260 0.191992 0.451357 0.532549 -0.249489
CP062127.1 -0.254909 0.188171 -0.423094 0.310899 -0.424296 -0.195238 -0.391990 0.666154 -0.377539 0.214037 -0.115043 -0.524775 0.169298 0.076507 -0.054583 -0.313842 0.125736 -0.553445 0.623596 0.676753 0.647835 0.337744 -0.049608 0.373459 -0.577123 0.055758 -0.161080 -0.229692 -0.462993 0.218376 0.039343 -0.048242 -0.462136 -0.507218 -0.144367 -0.800102 0.181866 -0.205735 0.097250 0.204395 0.253038 0.173513 -0.130286 -0.176472 0.553797 0.517586 -0.062015 0.412831 0.091411 -0.017158 0.427351 0.142136 0.216835 0.317202 0.361214 -0.144824 0.671851 -0.164090 0.112173 0.142068 0.367026 -0.313067 0.042829 0.459561 0.053993 -0.348848 -0.247348 0.008262 -0.400405 -0.558273 0.165456 0.512615 -0.199919 -0.296072 -0.217400 0.464669 -0.494127 -0.273319 0.230351 0.144939 -1.013906 -0.411255 -0.612494 -0.222278 -0.683110 -0.317976 0.031129 0.161887 0.194689 0.644438 0.238388 -0.159103 0.287354 -0.244499 0.111984 -0.290114 0.183986 -0.865616 -0.425163 -0.344585 0.274850 0.474062 0.356591 0.088184 0.522258 -0.544901 0.415205 0.081777 0.507188 -0.296294 -0.223950 -0.176429 -0.284828 0.280653 -0.804043 -0.468160 -0.169262 -0.058828 -0.362991 0.426318 -0.283490 -0.337564 0.248788 0.207065 0.318583 0.479599 0.318725 -0.077011
NGMG01000001.1 -0.448066 0.112098 -0.555965 1.029108 -0.619672 0.214401 0.114705 0.853121 -0.613358 0.267294 -0.138526 -0.555083 0.719648 -0.201621 0.223292 -0.255368 0.009047 -0.922214 0.493463 0.525351 0.762709 0.190033 -0.086357 0.344416 0.088547 0.190911 -0.147209 -0.079887 -0.434932 0.464492 -0.272159 0.377954 -0.324397 -0.027964 -0.154889 -1.146023 0.041102 -0.688565 -0.351439 0.880468 0.295106 -0.670727 0.370065 -0.142849 0.595884 0.121895 0.507899 0.355939 0.009620 0.381265 1.083080 -0.057582 -0.230070 0.382702 0.649492 -0.345548 0.529343 -0.801944 0.610157 -0.076021 0.350826 -0.639489 0.245267 -0.012470 -0.109103 0.107038 -0.034587 -0.563017 -0.122781 -0.460672 -0.386394 1.100941 -0.145828 0.294342 -0.080997 0.359365 0.139712 -0.506108 0.056711 -0.150323 -1.455311 0.041776 0.063493 -0.386765 -0.255136 -0.302481 -0.069286 -0.373067 0.322501 0.597331 0.095612 0.110122 -0.009064 -0.442874 0.144347 -0.948270 0.344383 -0.225391 0.367298 0.741669 -0.026986 0.478206 0.274064 0.811300 -0.013371 -0.093200 -0.346312 -0.466745 0.158600 -0.326979 -0.407928 -0.777927 -0.215274 0.444449 -0.299807 -0.517935 -0.698186 0.243307 0.023792 0.144939 -0.197050 -0.364392 0.198730 -0.040395 0.998534 0.406355 0.875341 -0.064596
BA000002.3 0.379760 0.361469 -0.270560 0.715331 -0.333383 -0.306904 -0.544247 0.523056 -0.359179 0.421552 0.155904 -1.032048 0.028581 0.079147 -0.417057 -0.326864 0.454633 -0.081178 0.813536 0.964124 0.824295 0.143135 -0.793891 0.319296 -0.272583 -0.447592 -0.280776 -0.136919 -0.543842 0.532661 0.554762 -0.303742 -0.544509 -0.346450 0.545775 -0.396174 0.087682 -0.472410 -0.665416 0.753834 0.073737 -0.009763 0.085293 0.193478 0.037392 0.798889 0.401571 0.438670 0.163020 0.265468 0.385199 0.120412 0.280604 0.727312 -0.345993 -0.028732 0.184497 -0.269107 -0.761853 -0.335521 -0.185244 -0.511800 -0.746934 0.215827 0.521843 -0.157707 -0.525028 0.261530 -0.437089 -0.009209 0.077584 0.653854 0.005582 -0.176694 -0.139643 0.151282 -0.869250 0.205264 -0.054943 0.221597 -0.680612 -0.528250 -0.957703 0.230500 -0.607580 -0.197539 -0.203222 0.178688 0.448314 0.311648 0.157466 0.077736 -0.432832 -0.045074 0.151696 -0.356476 -0.094983 -0.175228 -0.338667 -0.337615 0.800799 0.846486 0.647889 -0.238377 0.453177 -0.578458 0.678461 -0.111352 0.665626 0.237946 0.158246 -0.154558 0.462823 0.600002 -0.817063 0.006762 0.064241 0.049142 -0.232869 0.363798 -0.511871 -0.549803 0.947506 0.478682 0.338374 0.529936 0.742305 -0.134666
NC_015720 -0.374698 -0.059863 0.081374 0.235436 -0.395608 0.218977 -0.290258 0.469764 -0.506798 0.293484 0.228819 -0.368975 0.402212 0.177691 0.073122 0.015589 0.046557 -0.743597 0.398281 -0.013315 0.215794 -0.493826 -0.384806 0.758182 -0.145396 -0.056025 -0.272218 -0.285150 -0.717039 0.323749 0.354106 -0.231466 0.021582 -0.614715 0.045151 -0.762798 -0.077103 -0.193323 -0.068528 0.542435 -0.122033 0.244481 -0.157907 -0.852522 0.415033 0.491735 0.525376 -0.331390 0.128685 0.730010 -0.020608 0.716977 0.371263 0.115550 -0.075887 0.207135 0.252423 0.185674 0.273017 -0.054675 0.426862 -0.104319 0.018699 -0.156353 0.380035 -0.408013 0.335338 0.008735 -0.511733 -0.235681 -0.241449 0.924413 -0.371202 -0.119577 -0.220541 0.164975 -0.470834 -0.321155 -0.268495 0.303745 -0.494868 -0.240154 0.060787 -0.159381 -1.027222 -0.250865 -0.171140 -0.236643 -0.222700 0.321778 0.260822 -0.139251 -0.022316 0.195101 -0.156769 -0.044585 0.692732 -0.669687 -0.744441 0.120220 0.263247 0.604926 0.320211 -0.177773 -0.020722 -0.689814 0.011490 -0.253552 0.277941 0.103085 -0.725180 -0.362172 -0.351707 0.395084 -0.477498 0.097169 0.508079 0.515118 -0.273638 -0.190163 0.265900 -0.080949 0.753055 0.494942 0.251633 0.363701 0.456440 0.235488
CP016400.1 -0.108999 0.091284 0.373572 0.626999 -0.181736 0.568344 -0.647553 0.968349 -1.013811 0.005797 -0.312587 -0.897904 0.449536 0.310058 -0.383258 -0.301425 -0.072076 -0.258703 1.204668 0.162936 0.630958 0.381682 0.126982 0.854495 -0.031374 0.380205 -0.523532 -0.668016 -0.425368 0.840085 0.502898 0.394502 -1.046386 -0.344843 -0.546936 -0.327911 -0.166632 -0.135209 0.509347 0.803420 0.553471 -0.484055 0.626923 -0.786208 0.280576 0.531893 -0.280451 0.105689 0.531135 0.476152 0.545291 0.157747 0.592787 0.482506 0.012446 -0.291275 0.181089 -0.320373 0.361729 -0.040421 0.523879 -0.634148 0.343819 0.291607 -0.360231 -0.563617 0.118795 0.757824 0.234864 -0.805732 0.096316 0.574114 -0.211560 -0.145551 -0.038647 0.363037 -0.302804 -0.094056 -0.154284 0.058252 -1.036620 -0.106155 -0.173738 0.291084 -0.564583 -0.004353 -0.281003 -0.288930 -0.050067 0.795014 0.739153 -0.359022 0.477691 -0.247389 0.179955 -0.237426 0.365525 -0.143349 -0.063629 0.229858 -0.324953 0.424184 -0.144408 1.122011 0.334149 -0.325944 0.173191 -0.119851 -0.028323 -0.155688 -0.088402 -0.025496 0.140753 0.207303 -0.351996 -0.164300 -0.123733 0.009843 0.485233 0.889066 -0.023496 -0.145197 0.116765 0.865994 1.229199 0.219223 0.802000 0.045951
CP015831.1 -0.265671 -0.238793 0.122622 0.248050 -0.032092 -0.241564 -0.299680 0.626424 -0.424964 0.150127 0.407892 -1.154256 0.994336 0.297181 -0.486168 -0.268852 0.027669 -0.127033 0.990898 0.800885 0.421131 0.632174 -0.383673 0.281548 -0.123230 -0.260285 -0.075661 -1.003033 -0.417939 0.681106 0.308290 0.167821 -0.372428 -0.569392 -0.130354 -1.056179 0.040352 -0.433192 0.093505 0.835844 0.310659 -0.273916 0.535952 -0.192866 0.443624 1.018079 0.151104 0.089367 -0.248524 0.248267 0.265270 0.109408 0.111746 -0.080917 0.650629 0.210291 0.521894 -0.380610 0.967764 0.202241 0.468227 -0.377206 0.325003 0.484197 -0.750229 0.015512 -0.088522 -0.309217 -0.500360 -0.377909 0.323008 -0.010182 -0.667708 -0.401830 -0.429682 0.254812 -0.431527 -1.077543 -0.137882 -0.080969 -1.007750 0.570878 -0.086146 0.195173 -0.271761 -0.198384 -0.130112 0.021825 0.437523 0.172288 0.283030 -0.276325 -0.120695 0.362586 -0.250964 -0.520890 0.431189 -0.629650 0.103740 -0.273243 0.086245 0.612321 -0.128258 0.199547 0.325878 -0.593261 0.728757 0.073716 0.493797 -0.464261 -0.287731 -0.234718 0.135900 0.688108 -0.201646 -0.283965 -0.560940 -0.012067 0.385179 0.479634 -0.227968 -0.905223 0.631500 -0.093160 0.508062 0.590888 1.029613 -0.008871
CP041620.1 -0.187686 0.244787 -0.579022 0.767580 -0.521255 -0.101645 -0.086155 1.180606 0.102136 0.298487 0.366962 -0.349309 -0.064687 -0.307265 0.744764 -0.358942 0.149957 -0.456618 -0.342373 1.012350 0.191186 -0.365395 0.024342 0.805513 -0.774809 -0.525461 -0.604358 0.079987 -1.605852 -0.059159 -0.208022 -0.387901 -0.172118 -0.771370 -0.643382 -0.663453 0.201577 -0.036498 -0.022199 0.083803 -0.132055 -0.004019 -0.191156 -0.808014 0.457161 0.202190 0.457108 0.094092 0.250494 -0.170195 0.758376 0.947402 0.551225 -0.005156 -0.155566 -0.183402 0.497506 -0.189177 0.211719 0.167306 0.443039 -0.263057 -0.939953 0.676028 0.866198 -0.529398 -0.541854 0.121016 -0.408014 0.210726 0.001467 0.220659 0.296115 -0.453104 0.117272 0.654097 -0.339193 0.288284 0.461456 0.227694 -0.692023 -0.536835 -0.380428 -0.665508 -0.767340 -0.338734 -0.149895 -0.131348 -0.148685 0.900985 0.547666 0.116219 0.417138 -0.783279 0.260240 0.232490 -0.466723 -0.316386 -0.452090 -0.344925 0.362662 0.797155 0.758111 0.113474 0.729422 -0.212275 0.054411 0.170419 -0.072095 0.172995 -0.278012 0.817977 -1.098295 0.095905 -0.378839 -0.373169 -0.325916 -0.500154 -0.708702 -0.138729 0.143598 0.208330 -0.095380 0.465513 0.162631 0.238867 -0.243119 0.317982
QFNH01000001.1 -0.240361 0.150821 -0.676023 -0.257661 -0.057042 -0.166407 -0.465874 0.113309 -0.032081 0.069971 0.918854 0.153255 -0.201671 0.465343 0.074538 0.425155 0.373721 -0.482573 -0.366131 -0.029437 0.283240 0.617291 -0.251010 0.160571 -1.063150 -0.036590 -0.005326 0.006114 -1.463214 0.103820 -0.187742 -0.408508 -0.995475 -0.943332 -0.379719 -1.036932 0.003120 -0.303128 0.024670 0.081116 0.561972 0.359136 -0.171625 -0.606307 -0.090998 -0.285737 0.117892 -0.145829 0.000973 -0.151820 0.553716 -0.544356 0.334877 0.582732 0.504448 -0.084133 0.773720 0.806675 -0.292850 0.235797 0.173292 0.069577 0.174729 0.086027 0.440141 -0.731479 -0.379940 0.719589 -0.872809 -0.485975 -0.239838 0.351737 -0.322438 -0.207711 0.034650 1.022620 -0.620375 -0.212598 0.187975 -0.260937 -1.467950 -0.732408 -0.462245 0.146006 -0.658104 -0.907870 0.286383 -0.001874 -0.142152 0.752837 0.320025 0.158291 0.277777 0.396084 0.536267 -0.290837 0.284298 -0.198554 -0.294574 -0.204171 0.415705 0.072768 -0.122454 -0.493215 -0.412939 -0.755722 -0.002547 0.209949 1.091562 -0.294401 -0.293752 0.786497 -0.433352 0.480689 -1.073339 -0.441575 -0.321662 0.125557 0.164709 0.169863 0.159336 0.433032 0.067882 0.523596 0.787173 0.291029 0.539735 0.497084
NZ_JABTEA010000001.1 -0.176921 0.013156 0.156503 0.134267 -0.635029 0.354556 0.609201 0.073691 -1.005632 -0.264337 0.531523 0.145764 0.260715 -0.193967 0.480969 -0.355220 0.681086 -1.072242 0.139679 0.649516 0.383112 -0.032767 -0.419729 0.139930 -1.664293 0.073130 -0.248191 0.105206 -0.333985 0.267491 0.156102 -0.410563 0.058833 -0.069734 -0.856835 -0.945751 0.167327 -0.147304 0.374449 0.087753 0.568031 0.614318 -0.120195 -0.479732 0.835348 0.226840 -0.522326 1.346902 -0.211408 0.235843 0.871406 0.304362 -0.221368 -0.090173 0.839677 0.102567 0.854038 -0.221850 0.502701 0.095770 0.205369 -0.173961 -0.214488 0.765327 0.082779 -0.409759 -0.116394 -0.143665 -0.709275 -0.439965 0.559282 0.280495 -0.197933 -0.096229 -0.560541 1.024978 -0.380220 -0.119759 -0.015494 0.313185 -0.330181 -0.883348 -0.513934 -0.034256 -0.646109 -0.194082 0.867800 0.617937 0.069036 0.820828 0.492140 0.269443 0.212149 -0.322999 0.194897 -0.157713 -0.084040 -1.164917 -0.606234 -0.024170 0.005768 -0.034021 -0.069084 -0.127890 0.476204 -0.412333 0.680312 0.653202 0.434960 -0.352609 -0.453113 -0.010206 -0.937581 0.103026 -0.617938 -0.001704 0.134534 -0.463829 -0.675996 -0.281388 0.292777 0.241314 0.090151 0.287089 -0.410172 0.174642 0.432201 -0.236571
PEKX01000020.1 -0.283111 0.320293 -0.442523 0.384164 -0.416052 -0.180260 -0.410785 0.824150 -0.451476 0.449063 0.019596 -0.524137 0.223119 0.097323 -0.021004 -0.303607 0.038338 -0.700553 0.604097 0.562540 0.785821 0.297233 0.040409 0.407493 -0.567992 0.081961 -0.277848 -0.253965 -0.544650 0.224155 -0.022932 -0.130042 -0.680284 -0.401233 -0.122457 -0.879079 0.184868 -0.357546 0.155055 0.153001 0.357374 0.075844 -0.115378 -0.278128 0.555888 0.476384 0.028793 0.354550 0.006974 0.179145 0.545239 0.040314 0.184052 0.375935 0.326848 -0.043813 0.638113 -0.156850 0.318534 0.119530 0.375572 -0.378644 0.122900 0.391256 0.107434 -0.362285 -0.048237 0.105413 -0.445428 -0.559539 0.015209 0.730055 -0.309005 -0.333266 -0.160173 0.373131 -0.514635 -0.301894 0.006698 0.092815 -0.897105 -0.495789 -0.402206 -0.105129 -0.612129 -0.271055 0.075264 -0.001789 0.241762 0.853829 0.385431 -0.147536 0.282550 -0.287338 0.127301 -0.551108 0.124451 -0.804303 -0.406192 -0.180267 0.179418 0.538917 0.184652 0.234671 0.294288 -0.429140 0.481623 -0.068765 0.441946 -0.356654 -0.164240 -0.166658 -0.247621 0.485968 -0.660286 -0.465135 -0.057445 0.036048 -0.258028 0.441439 -0.083567 -0.443344 0.251992 0.193226 0.489441 0.456207 0.404625 -0.091744
NZ_CP037425.1 -0.257354 0.118657 -0.531649 -0.087485 0.055266 -0.187122 0.207820 1.057543 -0.047670 0.037057 -0.445795 -0.424497 -0.043818 -0.175337 0.028110 -0.951890 0.161859 -0.614502 -0.034425 0.796255 0.742515 -0.386010 0.251187 -0.154830 -0.532916 -0.166718 -0.124250 0.175722 -0.513751 0.187997 0.501800 -0.308765 -0.686082 -0.390240 -0.544315 -0.860788 -0.050371 0.188131 0.791692 -0.323238 0.129203 -0.022419 -0.502966 0.267756 0.221239 0.547630 -0.428269 0.806505 -0.157319 -0.424812 0.846324 0.441047 1.009935 0.520983 0.597143 -0.145875 0.154260 -0.430119 0.113715 -0.585393 0.254345 -0.316040 -0.142597 -0.032842 0.324076 0.101070 -0.466492 0.180816 -0.740901 -0.208743 -0.080184 -0.009914 -0.035378 -0.905155 -0.400210 -0.212496 -0.228814 0.160003 0.192886 0.199163 -0.635139 -0.606329 -0.661013 -0.609352 -0.872378 0.236531 0.421246 0.266140 -0.045320 1.533247 0.292960 -0.212457 0.096023 -1.193281 0.150612 -0.647553 -0.114162 -0.791052 -0.074104 -0.206471 1.039750 0.620144 0.227845 0.052114 1.499768 -0.164265 0.603171 0.899685 0.110089 -0.322723 0.111172 -0.093810 -0.020974 0.556781 -0.094832 -0.452066 0.053995 -0.549529 -0.532834 0.472556 -0.269356 0.095123 -0.171279 0.216900 0.015867 0.275611 -0.296765 -0.374835
CP034099.1 -0.250395 0.296179 -0.397853 0.330309 -0.371397 -0.151906 -0.385088 0.732976 -0.420043 0.364778 0.037250 -0.460577 0.164563 0.061221 0.019235 -0.263075 0.090090 -0.585066 0.524074 0.492818 0.658136 0.247132 0.008818 0.361346 -0.504680 0.080714 -0.254828 -0.198442 -0.516505 0.202610 -0.030904 -0.092889 -0.592835 -0.383033 -0.109173 -0.739481 0.171801 -0.299550 0.113681 0.151119 0.309887 0.058191 -0.089046 -0.283054 0.475896 0.385234 0.011701 0.325631 0.011411 0.136381 0.484509 0.034228 0.217759 0.326322 0.285310 -0.044736 0.567971 -0.134501 0.274312 0.084797 0.338720 -0.359004 0.075903 0.349864 0.098268 -0.310885 -0.048729 0.096108 -0.386686 -0.495923 0.044725 0.637219 -0.243766 -0.278210 -0.110144 0.365742 -0.442984 -0.288964 0.046808 0.067174 -0.794742 -0.422141 -0.380426 -0.135433 -0.560029 -0.278451 0.079945 0.021357 0.179846 0.726666 0.328061 -0.109688 0.258619 -0.236180 0.127642 -0.446279 0.085968 -0.716596 -0.352163 -0.139800 0.192244 0.465280 0.173190 0.176715 0.266979 -0.395485 0.422328 -0.006123 0.388665 -0.303809 -0.175760 -0.104552 -0.248627 0.391874 -0.581732 -0.414865 -0.050331 0.029400 -0.189970 0.383606 -0.074100 -0.367024 0.220315 0.216189 0.445923 0.406012 0.350111 -0.078224
MT880588.1 -0.564879 0.192010 -0.326714 -0.847222 -0.649848 -0.512754 -0.283244 1.078129 -0.297195 0.094089 -0.232521 0.508197 0.105589 -0.434985 0.144326 -0.579214 -0.459327 -1.138452 0.531031 0.047866 0.234022 0.113914 0.303690 0.415764 -1.032168 -0.321428 -0.032928 0.217339 -0.585444 -0.069743 -0.357661 -0.049194 -0.855431 0.042963 -0.097483 -1.032456 0.443189 0.299391 0.008150 -0.580193 0.676028 0.627044 -0.523936 -0.595601 0.256892 -0.289485 -0.637883 0.583400 0.047707 0.099451 0.100787 -0.529337 -0.066088 0.060256 0.023572 0.277553 0.567665 -0.468845 0.264145 0.249478 0.364423 0.029843 0.447645 0.353513 0.309101 -0.354324 -0.091681 -0.154817 -0.450496 -0.913979 0.253822 0.312265 -0.833027 -0.740117 -0.330335 0.642488 -0.506401 -0.342467 0.654604 0.116784 -0.250706 -0.269067 0.011200 -0.788384 -0.956971 -0.470479 0.242545 -0.332646 -0.839852 0.092288 0.087388 -0.080860 0.569765 0.124292 -0.435737 -0.626455 0.287734 -0.636478 -0.439617 -0.236605 0.803574 -0.033929 0.231593 0.278316 0.309049 0.360388 0.361992 0.009487 0.549075 -0.661955 0.188211 -0.504079 -0.806836 1.145566 -0.565948 -0.447874 -0.111239 -0.219599 -0.305233 -0.371266 -0.012714 -0.100926 0.030552 -0.202025 0.252206 0.570187 0.369336 0.151929
CP006870.1 -0.498256 0.245672 -0.889897 0.293854 -0.204593 0.013170 -0.230824 1.018984 0.000332 -0.033160 -0.026466 -0.206956 -0.003109 0.118769 0.489294 -0.181013 -0.459964 -0.263542 0.950739 0.769052 0.255020 -0.280264 0.662221 0.382214 -1.188516 0.397982 -0.535374 0.269120 -0.642779 -0.137525 -0.018936 -0.288977 -0.241866 -1.017148 -0.333235 -1.103633 0.213601 0.217764 0.125297 -0.438901 0.020623 0.217586 -0.439100 -0.343155 -0.139226 0.243808 -0.261058 0.699606 -0.049609 -0.143904 1.036744 0.897138 -0.013775 -0.407846 0.386169 -0.649704 0.560821 -0.190401 0.615663 0.391689 0.612080 -0.620124 0.136166 0.385128 0.664164 0.076463 0.282502 0.081626 -0.091122 -0.329281 0.009140 -0.282176 -0.033874 -0.755129 -0.533598 0.756032 -0.097096 -0.081719 -0.042007 0.388511 -1.058200 0.001408 -0.729102 -0.256293 -0.824113 -0.189120 -0.355956 0.113171 -0.390448 0.824608 0.199468 0.561558 0.253065 -0.353196 -0.534379 0.107855 0.232429 -0.651367 0.138173 -0.332861 -0.289385 0.459999 0.165921 -0.001655 1.209600 -0.814461 0.334673 0.806318 0.404094 -0.328751 -0.138606 -0.004430 -1.088695 0.866080 -0.600857 -0.045859 -0.255935 -0.194941 -0.123039 -0.226006 -0.746807 -0.283108 0.040612 0.087896 -0.591842 0.515635 -0.288071 -0.234946
NBSQ01000002.1 -0.350131 -0.048254 -0.516266 -0.111102 -0.344244 0.060941 -0.083577 0.434325 -0.398286 -0.376321 -0.211371 -0.228683 -0.054765 -0.015892 0.595808 0.133750 -0.209132 -0.637212 -0.057820 0.901074 0.349030 0.301254 0.007730 0.578541 -0.492028 0.583888 0.186474 -0.540733 -0.660226 0.176860 0.117695 -0.357492 -0.189347 -0.837123 -0.258693 -0.730344 0.225606 0.211750 1.019463 0.265676 0.629524 -0.081687 -0.411699 -0.677014 0.116170 -0.324455 0.155062 0.365174 0.361494 -0.218746 0.589335 -0.380576 0.576630 -0.031526 0.196228 -0.632061 0.571677 0.365679 0.102373 0.644292 0.467413 0.791544 0.438370 0.465874 0.269913 -0.635012 -0.134963 0.237024 0.201803 -0.937116 -0.033705 0.669136 0.213000 0.054561 -0.408495 0.695305 -0.432118 0.545861 0.168178 0.097736 -1.198968 -0.533948 -0.643421 -0.606451 -0.340702 -0.587986 0.285085 0.031904 -0.214595 0.420420 0.029633 0.586620 0.062771 -0.548316 0.491039 -0.502354 0.287600 -1.136654 -0.427583 -0.949735 0.048600 0.214644 0.437024 -0.139202 0.153086 -0.214019 0.105246 0.402188 1.289934 -0.352767 -0.144001 0.242065 -1.158216 0.339447 -0.822360 -0.659974 0.122949 -0.541149 -0.636291 -0.188363 0.238700 0.275035 0.402772 0.055619 0.343934 0.130329 -0.247823 0.043027
MN856100.1 0.009364 0.130883 0.214274 -0.403252 -0.403344 -0.530157 0.384351 -0.030337 -0.339281 0.179470 0.180124 -0.237497 0.238004 -0.079909 -0.000271 -0.157794 -0.107770 -0.811157 0.596510 0.230671 0.701625 0.657880 0.278699 0.192443 -0.016216 -0.037093 0.406518 -0.234355 -0.059108 0.234805 0.150679 0.402661 -0.352965 0.218661 0.329597 -0.475919 0.492961 -0.566183 0.106650 0.611344 0.263299 0.040403 -0.192628 0.072866 0.836492 0.270124 -0.043188 0.249295 -0.030736 -0.042126 -0.136972 -0.394472 -0.435488 0.394770 0.114720 0.284063 0.743783 -0.237848 0.498589 0.091712 0.004564 -0.062841 0.170209 0.472862 -0.030413 -0.224418 0.177761 -0.130394 -0.262869 -0.437563 0.302823 0.647331 -0.564005 -0.087161 0.043722 0.108632 -0.609788 -0.636002 0.050603 0.128458 -0.284366 -0.197513 -0.261266 0.219715 -0.246865 -0.159676 -0.027092 0.245835 0.481214 0.215808 -0.063741 -0.519186 0.662425 0.292490 0.393723 -0.409758 0.626317 -0.794385 -0.350242 -0.540563 0.392887 -0.003306 0.763258 -0.251864 -0.072231 -0.064742 0.630234 -0.143952 0.297199 -0.528183 -0.111464 0.012507 -0.332606 0.078769 -0.560011 -0.829618 0.137110 0.449233 -0.258523 0.115176 -0.048279 -0.293756 0.701976 -0.180345 0.228893 0.852471 0.247707 0.088136
NZ_VBSS01000130.1 -0.003061 0.168301 -0.923839 0.011134 -0.277266 0.014981 -0.259577 0.202845 -0.643321 0.508863 0.067621 -0.899150 0.151234 0.071242 -0.570798 -0.134463 0.611495 -0.168628 0.624595 0.805168 0.417205 -0.295331 -0.324509 -0.112302 -0.638170 -0.013589 -0.348082 -0.116898 -0.124452 -0.133961 0.252646 -0.683415 -0.104663 -0.211211 -0.584141 -0.969034 0.104106 -0.239076 0.478470 -0.385411 0.316444 0.709301 0.325178 0.511078 0.581219 0.854661 -0.309784 0.898768 -0.137957 -0.610050 0.656192 -0.098735 0.726526 0.042816 0.754194 -0.608296 0.749486 0.196756 -0.145971 -0.399175 0.079753 -0.282343 -0.256632 0.521498 -0.252935 -0.053732 -0.907965 -0.271126 -0.954118 -0.327364 0.060097 -0.195898 -0.109325 -0.330829 -0.303542 0.592721 -0.112961 -0.356128 0.543361 -0.178672 -1.523561 -0.298506 -0.848869 -0.316203 -0.440263 -0.074174 0.176925 0.265373 0.034345 0.468952 0.399003 -0.216060 0.420046 -0.621593 0.021515 -0.075039 -0.367298 -0.706269 0.203646 -0.287224 0.298001 -0.074796 -0.127944 0.505923 0.538692 -0.636572 0.450087 0.101364 0.637730 -0.694124 0.509998 -0.368189 0.135564 -0.007624 -0.262315 -0.034479 -0.750060 0.002538 -0.636844 0.699830 -0.096604 0.070167 -0.324138 0.161228 0.129224 0.767916 0.467594 -0.389379
AP023291.1 -0.257678 0.575284 -0.167891 0.266937 -0.461743 -0.274743 -0.515704 1.160979 -0.229645 0.408602 0.280282 -0.102500 -0.235867 -0.140600 -0.035937 -0.532421 0.292458 -0.822946 0.268618 0.269531 0.309669 0.437219 0.477489 0.531951 -0.277369 0.182436 -0.102437 0.062947 -0.240151 0.012581 -0.149916 -0.106365 -0.471967 -0.022740 0.358765 -0.108009 -0.018920 -0.548590 -0.515462 -0.098690 0.540288 0.086214 -0.315392 -0.501420 0.065712 0.203220 0.027115 -0.214203 -0.452920 0.281565 0.112643 -0.092313 0.037054 0.721692 0.017418 0.116986 0.536808 -0.622426 0.083149 0.153897 -0.062156 -0.441208 0.160366 0.294235 0.274199 -0.313726 0.016473 0.618733 -0.213699 -0.213099 -0.456624 0.497990 0.228624 -0.302639 0.218721 -0.091535 -0.293254 0.109309 -0.236944 0.006987 0.321132 -0.635061 -0.218351 -0.178838 -0.229986 -0.307648 0.205657 -0.094799 0.048123 0.886312 -0.019336 -0.248336 0.388978 -0.067798 -0.180816 -0.418172 -0.037459 -0.364736 -0.204914 0.283019 -0.029036 0.743797 -0.146067 0.082842 0.147274 0.427364 0.387793 0.060422 0.105208 -0.241352 0.131887 0.205014 0.158369 -0.071871 -0.120429 -0.469889 0.620793 -0.237136 -0.203690 0.227292 0.233054 -0.558648 -0.020262 0.152049 0.594939 -0.076876 -0.157188 -0.186160
NZ_JAGGMP010000001.1 0.689577 -0.022256 -0.343862 0.603270 -0.662425 0.309523 0.075565 0.096862 -0.445684 0.414813 -0.632587 -0.819022 0.202053 0.000601 0.123615 -0.297487 0.473052 -0.333039 0.451725 0.839360 0.775935 0.121348 0.128201 0.213918 -0.022618 0.139415 0.238507 -0.695677 0.171905 0.629399 0.459757 0.191778 0.060724 -0.862116 -0.175115 -0.840678 0.726591 -0.368639 0.637003 0.286955 0.445139 -0.496873 0.491073 0.000985 0.685927 0.946713 0.271833 0.586781 0.495685 0.315670 -0.062663 0.589828 0.015011 -0.020915 0.308070 -0.413026 0.494805 -0.176228 0.308724 -0.200399 0.325086 -0.532034 0.047390 0.639175 0.083910 0.082292 -0.057990 -0.224928 0.218583 -0.255043 0.039618 0.564311 -0.206845 -0.192162 -0.709479 -0.123902 -0.454986 -0.122918 0.390803 0.357192 -1.228761 -0.009379 -0.879958 -0.213224 -0.336816 0.093948 -0.048231 -0.143819 0.312349 0.710115 -0.009804 -0.473113 0.140119 -0.552629 -0.106587 -0.538458 0.517828 -1.005940 -0.189049 -0.682915 -0.183869 0.312918 0.385126 0.010976 0.238353 -1.093949 0.551373 -0.397540 0.667311 -0.158466 -0.339959 -0.398693 0.177271 -0.261958 -0.962825 -0.409701 -0.063485 -0.307230 -0.317788 0.831468 -0.340286 -0.244079 0.942695 0.016893 -0.085944 0.637754 -0.068907 -0.147580
NC_028890 -0.229665 0.111800 -0.353779 0.287050 -0.135723 0.024829 -0.413505 0.399798 -0.551138 0.412907 -0.014620 -0.738262 -0.200838 0.002459 -0.197803 -0.296610 0.293297 -0.403744 -0.122774 0.071229 0.359349 0.383905 -0.164628 -0.000903 -0.077976 -0.135252 -0.256305 -0.569175 -0.546803 -0.145191 -0.277376 -0.005712 -0.504338 -0.267289 -0.277034 -0.460161 -0.182971 -0.339356 0.169893 0.064422 0.012945 -0.266640 -0.206909 -0.324836 -0.241074 -0.058493 0.485271 0.552001 -0.066616 0.211755 0.309288 0.012185 0.032073 0.181111 0.036087 -0.046906 0.367843 0.496429 0.520069 -0.122065 0.098915 -0.208293 -0.154954 0.318190 0.257997 -0.366635 -0.175395 0.093265 -0.406925 -0.363679 0.058427 0.683166 0.102396 0.043528 0.334005 0.693220 -0.214207 -0.140683 0.429015 0.078876 -0.791299 -0.497397 -0.250912 0.479440 0.055720 -0.249274 -0.063286 0.403341 0.588367 0.351136 0.098462 -0.623398 -0.069823 0.003911 -0.013100 -0.039923 0.071355 -0.292353 -0.267019 0.034228 0.025764 0.536497 0.190632 0.404080 -0.012480 -0.575867 0.269718 0.475692 0.474334 0.160534 -0.073821 0.239489 -0.073884 -0.088676 -0.843848 -0.400785 -0.295520 0.601544 -0.387497 0.263125 0.196716 0.376179 0.018089 1.024623 0.620844 0.311780 0.138505 -0.136802
LR607341.1 0.020438 -0.323077 -0.461573 0.470141 -0.405580 -0.378127 -0.214531 0.327631 -0.452804 0.550944 -0.480136 -0.771996 0.015755 -0.209960 0.038857 0.158335 -0.045367 0.093537 0.602674 0.028343 0.589523 0.842011 -0.207967 0.724298 -0.326994 0.063861 -0.618206 -0.554633 -0.524242 0.002834 -0.456140 -0.055891 -0.553712 -0.385789 -0.045198 -0.477611 -0.491490 -0.327112 -0.193356 -0.146365 0.350188 -0.094517 -0.164013 -0.406202 0.698402 0.428470 -0.719531 0.018717 0.375056 0.668589 1.106329 -0.380500 -0.138652 0.341958 -0.375512 -0.194530 0.065233 -0.912015 0.893663 0.018343 0.310575 -0.071814 -0.268796 -0.042672 0.375672 -0.686761 0.067290 0.007430 0.156669 -0.090487 0.380977 0.873506 0.093237 -0.159122 -0.405982 0.301076 -0.831164 0.311368 0.452111 0.303968 -0.326442 -0.660007 -0.107049 0.065956 -0.500429 0.195455 -0.205317 0.521329 0.704832 0.705003 0.256566 -0.141095 0.287168 -0.528408 -0.113229 -0.308798 0.078275 -0.203402 -0.446914 -0.570383 0.555163 0.247225 0.033537 0.440499 0.339847 -0.025055 0.324493 -0.932953 0.039254 -0.598837 -0.084922 -0.212048 -0.218790 0.484135 -0.139757 -0.378833 -0.648753 0.186802 0.067634 0.438810 -0.400208 -0.313885 -0.381031 0.497660 0.872453 0.477894 0.884144 0.316423
NZ_RKIY01000003.1 -0.600674 0.196288 -0.708651 0.049492 0.019339 -0.335838 -0.185340 0.331520 0.437896 0.064104 0.281988 -0.743074 0.117705 0.259840 0.182544 -0.263185 -0.143708 -0.507439 0.417087 0.380753 0.605185 -0.266016 0.263137 -0.001499 -0.456576 -0.441293 -0.894803 -0.023532 -0.686278 -0.058116 -0.010561 -0.460303 -0.512502 -0.273627 -0.229663 -0.336931 -0.049615 -0.268216 0.495264 0.255291 -0.354475 -0.161075 0.554384 0.398331 0.776129 0.037698 0.130562 0.586703 0.197703 0.011795 1.087165 -0.084496 0.270537 0.060288 0.637097 -0.292372 0.324622 -0.055161 0.878359 -0.025461 0.583104 -0.610991 -0.431591 -0.159382 0.583932 -0.308143 -0.122025 0.301350 -0.706751 0.132259 0.143301 0.022074 -0.418723 0.109378 -0.120324 0.527454 -0.490006 -0.550819 0.055528 0.242919 -1.136716 -0.276229 -0.605914 0.097483 -0.084208 -0.044840 0.011804 -0.300387 0.342826 1.204281 0.063450 -0.142599 -0.315752 -0.684464 0.031295 -0.383068 0.079933 -0.587158 -0.121041 -0.417702 0.971933 0.215277 0.223740 -0.276143 0.682015 0.097372 0.847740 0.457298 -0.097786 -0.422855 -0.198009 0.358080 -0.399703 0.360662 0.229942 -0.220096 -0.751017 -0.035049 -0.257191 0.222299 -0.274201 0.117465 0.625159 -0.195398 -0.024500 0.925291 0.117620 -0.068923
CP014225.1 -0.171903 0.066197 0.038049 0.322304 -0.222590 -0.680780 0.039432 0.091931 -0.512728 0.145436 0.398972 -0.436934 0.099186 0.023569 0.219713 -0.325483 -0.039237 -0.943701 0.618835 0.453816 0.832113 0.695010 0.384868 0.149503 -0.025893 -0.062050 -0.343046 -0.030408 -0.091130 0.125259 -0.432301 0.694702 -0.597661 -0.137151 0.346453 -0.485083 0.132991 -0.149068 -0.306049 0.660081 -0.156300 0.280717 0.091092 -0.292956 1.049520 0.157080 -0.092361 0.030643 -0.363682 0.100037 0.321504 -0.274315 -0.427289 0.410451 0.777426 -0.256162 0.933472 -0.264396 1.057393 0.102149 0.127794 -0.302474 0.143005 0.171488 0.256461 -0.357841 0.134168 0.241756 -0.187817 0.135644 0.474711 0.544163 -0.206716 0.177026 0.197667 0.291256 -0.288019 -0.811999 0.446562 0.239281 0.030680 -0.313788 0.142020 0.234121 -0.603367 -0.163743 -0.174697 -0.034008 0.488672 0.642796 0.032906 -0.625297 0.618252 -0.170227 0.281372 -0.268884 0.128299 -0.779075 -0.055553 -0.074028 0.196555 0.112487 0.844620 0.057986 0.216367 -0.123149 0.623756 -0.451520 -0.097826 -0.403588 -0.642003 -0.023633 0.128703 -0.170235 -0.102174 -0.732340 -0.309120 0.278502 -0.363836 0.062109 0.065717 -0.265911 0.676129 0.033638 0.362674 0.473959 0.355868 0.208088
RBJN01000260.1 -0.084808 0.369605 0.033203 0.424584 -0.725100 -0.457924 -0.086518 0.828412 0.318618 0.040206 0.094556 0.590300 0.196376 -0.343155 -0.304836 -0.325201 0.171757 -0.751618 0.121237 0.849594 0.631821 0.391696 0.138874 0.369197 -1.054786 0.097230 -0.178809 0.010021 -0.652354 -0.011098 -0.023211 -0.388051 -0.870585 0.058779 -0.623207 -0.575633 0.469625 0.400938 0.399735 -0.248491 0.938085 0.047134 -0.113151 -0.429844 0.082140 -0.241625 -0.033033 0.567704 -0.356982 0.388385 0.330146 -0.016443 0.205961 0.664986 0.306564 0.453604 0.653026 -0.064105 0.162412 0.085059 -0.233674 -0.040337 0.205017 0.342714 -0.425691 -0.779430 -0.624025 0.516313 -0.406747 -0.420454 0.111120 0.710423 0.676654 -0.546630 0.336129 0.844784 -0.770254 -0.529137 -0.482669 0.098939 -0.427217 -0.182620 -0.060857 -0.416763 -0.395507 -0.564772 0.464664 0.288487 -0.545264 0.464424 -0.063081 -0.188888 0.068352 -0.161561 -0.061338 -0.115991 0.170572 0.126570 -0.727274 -0.727721 0.189141 0.327921 0.380009 0.431080 0.833500 -0.714709 0.690988 0.796611 0.224203 -0.270102 -0.094201 0.105767 -1.008434 0.052344 -0.834410 -0.106890 -0.251034 -0.462459 -0.652104 0.125763 -0.291457 1.011481 -0.169606 0.471107 0.127320 0.064621 0.275508 -0.736490
CP037440.1 0.178671 0.402622 -0.639692 -0.270370 -0.283545 -0.398133 0.004292 0.449866 -0.401676 -0.059865 -0.348799 -0.591848 0.318025 -0.467182 -0.477159 -0.665383 0.522299 -0.589805 0.462167 1.102142 0.677726 -0.160245 -0.245633 0.386031 -0.188500 -0.246722 0.252828 -0.216869 -0.301392 0.207765 -0.146735 -0.101752 0.038513 0.119034 -0.245412 -1.139245 0.594496 -0.215771 -0.035050 0.127952 0.238226 0.551594 -0.689637 0.358955 -0.304830 0.338185 0.457004 0.981976 0.285849 -0.380997 -0.519106 -0.076370 -0.269471 0.559154 0.270123 0.362469 1.007738 0.493773 -0.407150 0.061463 0.568173 -0.247983 -0.254305 0.416075 0.006342 -0.160810 -0.555030 -0.747621 -0.643354 -0.709078 0.245066 0.303880 0.047965 -0.499093 0.182500 0.765711 -0.991856 -0.275718 0.055138 0.560969 -1.019194 -0.434749 -0.418974 -0.012728 -0.710618 -0.314237 -0.065593 0.459053 0.190678 0.046373 0.360924 0.191374 -0.364618 0.234623 0.118747 -0.386393 -0.110508 -0.846035 -0.769322 -0.660543 0.265349 0.507948 1.054662 -0.038209 0.250031 -0.901197 0.459186 0.185199 0.591523 -0.233350 -0.375271 -0.626207 -0.096850 0.132872 -1.517957 -0.386410 0.220954 -0.051892 -1.205951 0.092260 0.102571 -0.212000 0.636591 0.273805 -0.417303 0.955747 -0.098629 -0.200494
CP038102.1 -0.120346 -0.015195 -0.524069 0.077463 -0.237695 -0.288904 -0.160422 0.639314 -0.522342 0.626276 0.579123 -0.772373 -0.168716 -0.359180 0.130983 -0.768589 0.815483 -0.720561 -0.112300 0.420336 0.189693 0.146252 -0.704358 0.219460 -0.791568 -0.006126 -0.818082 0.151992 -1.007174 0.020090 -0.111352 -0.054481 -0.367026 -0.020444 -0.705976 -0.720345 0.058851 0.055023 -0.594662 0.146098 0.617854 -0.393685 -0.429490 -0.591692 -0.188018 -0.229461 -0.124439 0.707736 0.171693 -0.555343 0.049278 -0.022410 0.327557 0.430965 0.155138 0.239487 0.730353 0.304350 -0.472609 -0.373130 0.390862 -0.241492 -0.495936 0.321060 -0.340256 -0.529375 -0.877125 -0.266871 -1.087435 -0.420149 0.221542 1.003828 -0.411855 -0.673817 0.248430 1.018399 -1.043141 0.147757 0.292070 -0.175777 -0.698115 -0.656706 -0.289109 -0.271735 -0.225202 0.197719 -0.242752 0.060766 -0.473825 0.436665 0.207348 0.044027 -0.167747 0.017553 -0.028275 -0.169843 -0.285360 -0.862683 -0.774149 -0.065986 0.583399 0.191880 0.225808 -0.599504 0.335790 -0.563813 0.005553 0.822551 0.496633 -0.009246 -0.605027 0.351957 -0.091242 0.470587 -1.419681 -0.324084 0.051751 -0.501718 -0.341741 0.046105 0.562857 0.609819 -0.088321 0.414364 0.004005 0.744234 -0.076154 -0.195934
NZ_JAEMXF010000041.1 -0.288700 0.129428 -1.142785 0.004366 -0.221107 -0.644335 -0.260971 0.479188 -0.697733 0.245282 0.270885 -0.486027 -0.529626 0.168336 -0.167499 -0.822083 0.809118 -0.459515 0.246173 0.404052 0.623388 0.324553 -0.259381 0.067501 -0.689759 0.388908 0.296054 0.064673 -0.619511 0.104245 -0.237099 0.146361 -0.447490 -0.490777 -0.358936 -1.045588 0.313843 -0.230779 -0.532830 -0.330242 -0.041082 0.254890 -0.590605 -0.090989 0.300402 0.188650 -0.703257 0.697202 -0.237888 -0.348816 -0.235403 0.007783 0.156252 0.745714 0.592602 -0.317613 0.573304 0.233008 -0.052736 0.148217 -0.301170 -0.208763 -0.447954 0.295238 0.030386 -0.120588 -0.909042 -0.409143 -0.669657 -0.184231 0.735431 0.428410 -0.181352 -1.107306 -0.079743 0.158728 -0.407434 0.077752 0.935102 0.065855 -0.168227 -0.347798 -0.635789 0.042567 -0.657833 -0.254883 0.204862 0.420693 0.531688 0.748854 0.261947 -0.357374 0.500375 -0.387648 0.599988 -0.189134 -0.206040 -0.513599 -0.129702 -0.322033 0.186077 0.174543 0.248451 0.246137 0.347004 -0.434182 0.173665 0.172095 0.115893 0.195628 0.440780 -0.358768 0.458398 0.056674 -0.989812 -1.293418 -0.302249 0.240066 -0.871771 0.789664 -0.469602 -0.060824 -0.764520 0.424142 0.494115 0.083052 0.035457 -0.024130
