151 128
NC_019422 0.089026 0.198002 0.094637 -0.000655 0.160312 -0.046606 0.182065 -0.024014 -0.188216 -0.157784 0.039526 0.055186 -0.078591 0.075222 -0.088441 0.007373 0.042992 -0.057464 -0.089771 -0.058263 0.066613 0.121800 0.018098 0.158350 -0.028818 -0.180758 0.069987 -0.063567 -0.056840 0.033227 0.022375 -0.060564 -0.044667 -0.047981 -0.007755 -0.044547 0.000558 -0.084696 0.100049 -0.005151 0.036559 -0.127980 0.095350 0.046384 -0.119103 -0.035844 0.007219 0.131960 0.099412 -0.063034 0.052775 0.013552 0.105129 0.138363 -0.047193 0.026392 -0.115144 -0.035351 0.019369 0.123892 -0.021619 0.040173 0.139549 0.061280 -0.081529 0.083459 -0.159315 0.045108 0.039535 -0.082673 0.080589 -0.256584 -0.006221 0.007748 -0.131430 0.029509 0.218130 0.028382 -0.119376 0.115480 -0.055249 0.156689 0.038716 0.159881 -0.127131 -0.040553 0.202878 -0.058048 0.058651 0.009849 -0.018294 0.004768 -0.088861 -0.317672 0.135731 -0.304490 0.095771 0.071525 0.022323 0.065205 -0.167465 0.151424 -0.086483 0.023158 -0.020044 0.099147 0.008017 -0.137030 0.090001 -0.041066 0.035126 0.047226 0.125877 -0.079563 0.158176 -0.016021 -0.142215 0.016954 0.063047 -0.095233 -0.119545 -0.089883 -0.050695 0.006306 -0.206457 0.180502 -0.055463 0.012441
NC_015568 0.064927 0.153953 -0.038202 0.049546 0.149421 -0.035059 0.279889 -0.107710 -0.251946 -0.100017 -0.005126 0.155497 -0.056208 0.079445 -0.130333 -0.085512 0.042965 -0.155725 0.025605 -0.046161 0.104387 0.122636 0.041511 0.213864 0.046482 -0.146004 0.027268 -0.020858 -0.037038 0.009487 -0.038623 -0.091025 -0.110473 -0.049469 -0.025969 0.046954 0.001441 -0.070040 0.039793 0.070972 0.113787 -0.268495 0.135301 0.077507 -0.056595 0.030331 -0.003583 0.139709 0.123701 -0.056396 -0.012839 0.021750 0.133373 0.070405 -0.094568 -0.050926 -0.034775 -0.139034 -0.080511 0.135890 0.041841 0.045584 0.125721 0.014300 -0.050309 0.016208 -0.091727 0.077437 0.011439 -0.009446 0.094558 -0.193323 -0.049890 0.004226 -0.068820 -0.006873 0.140782 0.047938 -0.059240 0.033740 -0.024564 0.196686 0.043731 0.216292 -0.128630 0.008478 0.203944 -0.036482 0.197842 0.049296 -0.037985 -0.009068 -0.071048 -0.311022 0.079618 -0.272483 0.126875 -0.015165 -0.017359 -0.011044 -0.218447 0.104477 -0.091650 0.019951 -0.074194 0.030630 -0.131317 -0.211895 0.156097 -0.082078 -0.071979 -0.008631 0.099547 -0.178769 0.132919 -0.021024 -0.143112 -0.026040 0.047447 -0.096965 -0.089495 -0.081170 -0.092319 -0.012060 -0.104642 0.193739 -0.062884 0.102820
NC_015262 0.202441 0.251955 0.112868 0.041433 0.139739 -0.007286 0.107213 0.057604 -0.131005 -0.181026 0.009038 -0.038100 -0.046788 0.054229 -0.063635 -0.029262 0.052098 -0.078104 -0.143343 -0.125069 0.114666 0.115689 0.043568 0.073322 0.039399 -0.167358 0.011553 -0.019355 0.038417 0.082874 0.021673 -0.011089 -0.052101 -0.099049 -0.016834 -0.116042 -0.039809 0.000519 0.173535 0.045009 0.053893 -0.104027 0.139613 0.111061 -0.145802 -0.130863 0.017708 0.111422 0.044950 -0.145204 0.099405 0.041067 0.106005 0.155185 -0.053803 -0.016076 -0.125670 -0.066644 0.029926 0.095887 0.008824 0.040586 0.062510 0.067087 -0.053371 0.039155 -0.242479 -0.032102 -0.011606 -0.091934 0.017456 -0.214843 0.080644 0.041033 -0.087234 0.027889 0.233968 0.037797 -0.115491 0.128699 -0.012584 0.190304 0.032204 0.175266 -0.018741 -0.037174 0.174097 -0.013998 0.014403 0.094652 -0.027307 0.014146 -0.144211 -0.291557 0.130308 -0.354499 0.065430 0.078267 0.058285 0.073067 -0.160070 0.091179 -0.081448 0.061896 0.021639 0.120470 -0.062391 -0.120594 0.048141 -0.063027 0.034534 0.019354 0.145901 -0.067966 0.114334 0.027918 -0.139986 0.030034 0.044315 -0.151972 -0.086865 -0.142136 -0.071695 -0.048708 -0.193548 0.147256 -0.064834 0.008010
NC_019421 0.205193 0.152957 0.258434 0.091449 0.117505 -0.043066 0.140641 0.042228 -0.102428 -0.213470 -0.031635 -0.034243 0.146414 0.107565 -0.015833 0.049472 0.079026 -0.028169 -0.144191 0.019655 0.129350 0.053271 0.157420 -0.007661 -0.055454 -0.092360 0.026459 -0.196057 0.015795 0.107226 -0.059047 -0.078749 -0.017531 -0.016093 0.020755 -0.161211 -0.084813 -0.261411 0.127326 0.100595 -0.023489 -0.167290 0.223065 0.188178 -0.048397 -0.120200 0.034126 0.071892 0.093544 -0.123573 0.078520 0.021645 0.095236 0.009165 0.058509 0.065747 -0.013796 -0.157740 0.030343 0.078170 0.084461 0.092021 0.119194 0.199912 -0.001254 0.037613 -0.197078 -0.062535 0.074474 0.073307 0.105401 -0.295882 0.123242 0.090183 -0.069120 0.003537 0.251180 0.043354 -0.164578 0.046614 -0.001903 0.070499 -0.077991 0.209255 -0.094115 -0.029270 0.119703 0.044664 0.008811 0.073931 0.004892 0.007849 -0.156917 -0.187570 0.141438 -0.387692 0.022857 -0.087473 -0.002044 0.217167 -0.140058 0.133258 -0.161355 0.063898 0.185600 0.152685 0.072789 -0.076374 -0.007328 -0.165620 -0.073835 0.089838 0.151948 -0.131818 0.046239 0.182009 -0.108194 -0.086137 0.017972 -0.253374 -0.200045 -0.035836 -0.055597 0.091288 -0.302704 -0.009874 -0.129771 0.098808
NC_011398 0.030007 0.058203 0.024669 0.051252 0.100960 -0.083136 0.207019 -0.075994 -0.213180 -0.328485 0.079475 0.047049 -0.001046 0.188720 -0.086485 0.056594 0.139904 0.005764 -0.125795 -0.101641 0.020061 0.102439 -0.000525 0.082567 0.055845 -0.136530 0.118580 -0.094272 -0.008062 0.201022 0.115505 -0.056459 -0.010155 -0.024397 0.035994 -0.079993 -0.100987 -0.168654 0.027391 -0.023750 0.039173 -0.186283 0.204210 0.013406 -0.255929 0.036129 0.134090 0.087059 0.209480 -0.073880 0.071914 0.106930 0.080442 0.166527 -0.111255 -0.042451 -0.064883 -0.085975 -0.099637 0.107509 0.016609 0.057919 0.191112 0.079905 0.075314 -0.053923 -0.082552 -0.027241 -0.071428 0.042670 0.067829 -0.236360 -0.048271 0.040461 -0.132291 -0.045371 0.159409 0.062597 -0.112911 0.101941 0.025337 0.132418 0.006590 0.143112 -0.052719 0.034120 0.130852 0.028266 -0.045434 -0.052893 0.025716 0.067943 -0.222931 -0.194498 0.191470 -0.299359 0.204059 0.004900 -0.015784 0.022415 -0.199757 0.177660 -0.165760 -0.007634 0.048359 0.123422 0.153915 -0.175328 0.106708 -0.076348 -0.063448 -0.037134 0.153246 -0.048983 0.001685 0.139764 -0.225523 0.134508 -0.004079 -0.148612 -0.053961 -0.023078 0.063988 -0.029651 -0.310091 0.168281 -0.070600 0.006733
NC_009231 -0.038638 0.008741 0.017093 0.020390 -0.004910 0.033703 0.284701 -0.087369 -0.135151 -0.057980 0.012652 0.278763 0.115095 0.085257 -0.137958 -0.026934 0.079377 -0.160045 -0.086362 0.003453 0.073455 0.003624 0.143103 0.274947 0.126020 -0.140139 0.131418 0.057360 -0.148635 0.020082 -0.137306 -0.085366 -0.247083 -0.225443 -0.005949 0.110314 -0.031973 -0.024589 0.058245 0.054018 0.020112 -0.308730 0.287873 0.139476 0.093852 0.101873 -0.078489 0.151365 0.092407 0.043900 -0.052836 -0.041255 -0.070523 0.079308 -0.146805 -0.071352 -0.198791 -0.046663 -0.149190 0.377282 0.074156 -0.052426 0.121185 0.200103 -0.037329 -0.005161 -0.041561 0.148249 0.213470 0.018959 0.075980 -0.051934 0.077739 0.069697 0.077801 -0.098742 -0.015224 0.004452 -0.172484 -0.045810 0.005800 0.082267 0.044402 0.129523 -0.002851 0.062311 0.270450 0.050102 0.241082 -0.032280 -0.080272 0.072610 -0.071725 -0.301965 0.141492 -0.281214 0.175991 -0.067737 0.149977 -0.158357 -0.260756 -0.011909 -0.162183 -0.127907 -0.134569 0.124084 -0.295871 -0.142464 0.169365 0.099029 0.015706 -0.175786 0.239141 0.103746 0.176316 -0.059775 -0.267724 0.067957 0.135538 -0.126301 0.104711 -0.167758 -0.161020 -0.034341 0.019381 0.043282 -0.183527 0.312683
CP015020.1 0.052632 0.176389 -0.283691 -0.152617 0.102320 0.020062 0.074816 -0.006315 -0.265519 -0.121645 0.264659 -0.000726 -0.080447 0.068131 -0.013054 -0.093515 0.023292 -0.057729 0.010729 -0.113129 0.072172 -0.062108 -0.002091 -0.131275 0.127411 -0.264296 -0.060012 0.019648 -0.190941 0.070306 -0.123736 -0.191157 0.073277 -0.454196 0.059716 0.022441 -0.093801 0.151275 0.109979 -0.040436 0.205801 -0.359896 0.178894 0.175540 -0.108638 0.046997 0.193466 0.187718 0.300743 -0.290283 -0.137781 0.323472 -0.115835 0.394808 -0.067098 -0.084888 -0.229994 -0.138796 0.034719 0.098987 0.014039 0.174542 -0.080175 -0.067064 -0.028207 0.013813 -0.131473 -0.090207 -0.029211 -0.157181 0.019027 -0.146622 -0.045279 0.085060 -0.162897 -0.034095 0.101439 0.048502 0.099586 0.305458 0.039406 0.157594 -0.067950 0.232114 -0.120810 -0.201881 0.189819 -0.222619 0.192840 0.029598 0.159832 -0.005864 -0.140185 -0.320581 0.225298 -0.362684 -0.016422 0.015895 -0.242186 -0.092419 -0.192227 0.192280 0.018423 0.074651 0.223679 0.096389 -0.087588 -0.282794 0.189335 0.012445 -0.217806 -0.056389 0.004881 -0.090626 0.057852 -0.006303 -0.252315 0.256640 0.010509 -0.168395 -0.014603 -0.290780 -0.109864 -0.038961 -0.309101 0.181251 0.020124 -0.059078
CP015229.1 0.138170 0.145243 0.252851 0.025186 0.089594 -0.060251 0.227155 0.116698 -0.070232 -0.101406 0.053842 0.167971 0.098872 -0.014107 -0.127749 0.006212 0.041280 -0.071732 -0.139938 0.046478 -0.040546 -0.032677 0.249736 0.202292 0.055468 -0.234801 0.190306 -0.031083 -0.161491 0.036565 -0.210362 -0.121962 -0.165632 -0.217311 0.038718 -0.056705 -0.110883 -0.222200 0.104764 0.036363 -0.036443 -0.176214 0.302876 0.347436 -0.030444 -0.041754 0.024393 0.143862 0.113503 -0.042821 -0.081840 -0.006819 -0.084887 0.095271 0.144676 0.000538 -0.178034 0.078048 0.046958 0.394602 -0.070269 0.080848 0.030849 0.323875 0.033702 0.172466 -0.168604 0.128769 0.341720 -0.093341 0.145580 -0.217459 0.252332 0.055855 0.163426 -0.110931 -0.018853 0.090898 -0.223766 0.025820 -0.197449 0.074337 0.015158 0.128636 0.001579 0.127426 0.161607 -0.017988 0.105149 -0.083508 -0.045118 0.095420 -0.108592 -0.195017 0.153372 -0.229823 -0.011442 0.019321 0.090049 0.093545 -0.144151 0.104791 -0.152709 -0.079785 -0.093446 0.200077 0.004888 -0.058746 -0.031409 0.133323 -0.007693 -0.018031 0.132814 0.108504 0.091375 0.141697 -0.154891 0.027268 0.085410 -0.064477 -0.032652 -0.168047 0.018676 0.002296 -0.129967 -0.102508 -0.220624 0.289464
CP017251.1 0.072768 0.177148 0.069919 0.100518 0.177099 -0.045796 0.144541 -0.091345 -0.115449 -0.227250 0.106726 -0.003548 0.135495 0.135112 -0.060527 -0.009608 0.079942 -0.065543 0.006289 -0.118540 0.141112 0.244865 0.100775 0.079924 0.084353 -0.120759 0.031780 -0.235532 0.021247 0.217459 0.116104 0.037583 -0.088854 0.142505 -0.034429 0.025292 -0.244054 -0.306119 0.112197 0.006046 0.073256 -0.173524 0.153042 0.174371 -0.266080 -0.196231 0.052827 0.029382 0.132342 -0.053458 0.213038 0.133247 0.072274 0.022033 -0.023774 -0.154662 -0.142162 -0.086400 0.045653 0.115606 0.158200 0.084920 0.208422 0.109425 -0.023977 -0.147662 -0.131654 -0.052696 -0.100163 0.093234 0.088358 -0.265353 0.029491 0.125033 -0.019307 -0.010871 0.116307 0.175758 -0.047556 -0.061869 -0.021728 0.195692 -0.067464 0.131425 0.063987 0.032217 0.163890 0.098841 0.010400 0.036155 -0.000234 -0.027700 -0.055738 -0.061899 0.107501 -0.213003 0.118670 -0.155974 -0.155835 -0.086216 -0.099851 0.137553 -0.106992 -0.039148 0.115525 0.269800 0.016269 -0.188383 0.149114 -0.041895 -0.104485 0.006441 0.093368 -0.219640 -0.087955 0.101766 -0.146526 0.049554 0.083212 -0.224455 -0.145400 -0.094952 -0.085510 -0.108838 -0.358431 0.144563 -0.040163 0.016125
CP012625.1 0.271479 0.228923 0.130057 0.135691 0.121813 0.001227 0.137131 -0.046990 -0.130998 -0.015226 0.044440 0.206364 0.169802 0.040302 -0.005149 0.015167 -0.003747 -0.039095 -0.138269 0.041724 0.082061 0.061088 0.092935 0.069278 0.116323 -0.108055 0.048507 -0.031126 -0.179339 0.123836 0.079014 -0.111870 -0.178624 -0.120607 -0.036920 0.024764 -0.215149 -0.152158 0.134268 -0.003314 0.086279 -0.197214 0.352200 0.036598 -0.055733 -0.045383 -0.025317 0.220249 0.072758 -0.098524 -0.006368 0.085734 -0.018686 0.064551 -0.133790 -0.084568 -0.112433 -0.036335 0.009406 0.204346 0.200148 -0.135690 0.117200 0.102755 -0.071483 -0.101051 -0.148895 0.049192 0.036971 0.033783 0.032487 -0.064419 -0.041711 0.095316 -0.104595 -0.042021 0.048015 0.068698 0.006096 0.062479 0.129156 0.142828 0.012529 0.165345 0.071647 -0.002106 0.194891 0.235348 0.177351 0.030056 -0.116779 0.084267 -0.041985 -0.271119 0.122858 -0.335306 0.070080 -0.099865 -0.004857 0.089382 -0.110102 -0.011331 -0.163116 0.018481 -0.084095 0.017664 -0.240283 -0.147259 0.132656 -0.022669 -0.020231 -0.048720 0.272992 0.033811 0.047515 0.003093 -0.115372 0.051094 0.137215 -0.080790 -0.002546 -0.098933 -0.107537 -0.006771 -0.128608 0.101625 0.056646 0.206487
CP007491.1 0.070106 0.044440 0.095139 0.024299 0.119897 0.032884 0.013840 -0.055484 -0.035289 0.089642 0.039271 0.406752 0.160143 0.070056 -0.065124 0.037800 0.128259 -0.162252 -0.264008 0.027213 -0.070958 0.199568 0.061017 0.276131 0.136831 -0.155607 0.119761 -0.052467 -0.287035 0.090490 0.178684 -0.087383 -0.239872 -0.281307 0.008190 0.148653 -0.141543 -0.170970 0.189186 -0.025055 0.103386 -0.185050 0.293063 -0.011598 -0.067890 0.017156 -0.081079 0.314123 -0.025316 -0.056457 0.135056 0.001023 -0.036902 0.153005 -0.183672 -0.055001 -0.221943 0.149275 0.026810 0.363364 0.116881 -0.290005 0.131525 0.175685 -0.241020 -0.118227 -0.119646 0.184983 0.137693 -0.079281 0.122493 0.043172 -0.041012 0.086163 -0.046146 -0.056001 0.031122 -0.028805 -0.029700 0.150100 0.001735 0.176829 0.081456 0.188844 0.124259 0.066837 0.250135 0.124746 0.259343 -0.054663 -0.101024 0.194919 0.094744 -0.397063 0.087598 -0.383385 0.056283 -0.034532 0.207768 -0.005832 -0.030432 0.036432 -0.127334 -0.137225 -0.099671 0.100640 -0.272437 -0.160940 0.299675 0.137199 0.085808 -0.009491 0.370250 0.234596 0.075204 -0.201620 -0.164556 -0.041026 0.222573 0.003027 0.145217 -0.086730 -0.154752 -0.015883 0.035809 0.129952 -0.049569 0.292338
CP014670.1 0.137037 -0.017987 0.060169 0.007640 0.129271 -0.032071 0.062508 0.065826 -0.078363 -0.152403 0.071609 0.157583 0.027563 0.107861 -0.105051 -0.010137 0.183753 -0.142248 -0.300748 -0.070756 -0.016117 0.241674 0.025837 0.116490 0.103202 -0.156226 0.123286 -0.068489 -0.078535 0.170549 0.120000 0.024267 -0.156543 -0.236425 0.006772 -0.069389 -0.072583 -0.087563 0.199552 -0.003074 0.033011 -0.198340 0.229432 0.026215 -0.271122 -0.026181 0.049510 0.244309 -0.026003 -0.099839 0.164758 0.071328 0.055473 0.214689 -0.125407 -0.040536 -0.128093 0.101038 -0.056793 0.234703 -0.005613 -0.089236 0.124102 0.119598 -0.086496 -0.062526 -0.070784 0.048399 0.029905 -0.104127 0.042227 -0.030046 0.038229 0.051478 -0.052692 -0.078970 0.144290 -0.028065 -0.155159 0.217970 -0.105400 0.190003 0.026398 0.190018 0.044820 0.056266 0.103498 0.021756 0.020665 -0.010762 -0.071182 0.227020 -0.103378 -0.252437 0.109415 -0.404381 0.082481 0.035438 0.230581 0.029248 -0.095863 0.126816 -0.132884 -0.059302 -0.020486 0.189214 -0.014452 -0.187655 0.129317 -0.003330 -0.007394 0.085870 0.218779 0.157837 0.017346 0.005637 -0.193394 0.039867 0.020036 -0.027342 0.042032 -0.020338 -0.007016 0.004894 -0.068678 0.104566 -0.130549 0.079655
NC_009813 0.027390 -0.308209 -0.091712 0.115859 -0.306906 -0.064972 0.149198 -0.253465 -0.235829 -0.332840 -0.151335 0.150890 0.064173 0.332735 -0.081365 -0.021679 0.306463 -0.024017 -0.253141 -0.121286 0.096845 -0.082010 0.174742 0.068971 0.037256 0.037735 0.108157 0.037153 0.095488 0.425408 0.134535 -0.274642 0.057469 -0.230404 0.054452 0.010827 0.094023 -0.104112 -0.010197 0.019649 -0.019690 -0.205986 0.308501 0.192332 0.018978 0.120143 0.299823 -0.191966 0.285250 -0.068952 -0.049190 -0.156923 0.092002 -0.001302 -0.250541 0.051696 0.004231 -0.410391 -0.208580 0.155961 0.241256 0.023054 0.164523 0.152024 0.109182 -0.018733 -0.153112 0.016248 0.049872 0.062191 -0.070842 -0.152335 -0.025447 0.043651 -0.192401 0.123603 0.094567 0.073970 -0.279539 0.186641 0.090839 -0.059946 0.240760 0.407612 -0.315336 0.070311 0.412274 -0.032540 0.252722 0.025546 0.087082 0.063739 -0.343598 -0.390759 0.170793 -0.381546 0.205878 0.121888 0.081614 -0.054844 -0.289443 0.272409 -0.157125 -0.032340 0.119958 -0.160668 0.049175 -0.047397 0.166449 -0.015396 -0.255626 -0.339083 0.324241 0.032131 0.352587 -0.030326 -0.242756 -0.059463 0.098059 -0.301937 0.091459 -0.090236 0.151651 -0.107227 -0.090386 0.382111 -0.193805 0.216712
CP017249.1 0.046206 0.144993 0.047004 -0.014465 0.163484 0.167452 0.145633 -0.042120 -0.244613 -0.040651 0.143471 0.147288 -0.005596 0.063731 -0.020523 -0.086649 0.027130 -0.163854 -0.018299 -0.055205 0.092215 0.062628 0.062618 0.080870 0.098350 -0.130248 0.061105 -0.178277 -0.161537 -0.007943 -0.236832 -0.086083 -0.008581 -0.371354 0.019546 0.059874 -0.001389 -0.029092 0.100885 0.033698 0.067465 -0.371219 0.119955 0.149254 0.067707 -0.002734 -0.078461 0.183213 0.125085 -0.170258 0.085171 0.118473 -0.056772 0.132408 0.020487 0.014643 -0.140879 -0.063879 -0.037741 0.136224 -0.000005 0.056703 0.084763 0.109067 -0.107694 0.053363 -0.096695 0.112788 0.163867 -0.095013 0.107979 -0.086635 -0.027208 0.047264 -0.041085 -0.045257 0.098426 -0.110954 -0.020950 0.103234 -0.032414 0.041336 -0.061487 0.150406 -0.095250 -0.111676 0.152544 -0.239062 0.276705 -0.016095 0.073960 -0.009347 0.019369 -0.265294 0.122142 -0.329892 -0.035524 -0.093320 0.072313 -0.061349 -0.157075 0.147630 0.014438 0.043251 0.189434 0.141913 -0.148597 -0.207350 0.232600 0.010784 -0.081598 0.033579 0.075429 -0.056935 0.092087 -0.063327 -0.191256 0.019422 0.113675 -0.100790 -0.012753 -0.119700 -0.271251 0.163571 -0.066015 0.050171 -0.157310 0.072940
CP017669.1 0.055923 0.370834 0.288233 0.131897 0.311258 0.087390 0.260694 -0.041235 -0.284221 -0.178418 0.193793 0.158010 -0.121285 0.013038 -0.103496 0.024639 0.123224 -0.013276 0.014396 -0.092303 0.083600 0.127074 0.085923 0.222111 -0.039216 -0.251047 0.224082 -0.226738 -0.169915 0.067429 -0.112742 -0.127866 0.001977 -0.088137 -0.013240 -0.077468 -0.017693 -0.240833 0.036325 -0.080447 -0.010775 -0.180905 0.000385 0.062003 0.084616 -0.120845 -0.043062 0.096261 0.160967 -0.075417 0.100861 -0.020962 0.045147 0.187866 0.026508 0.088020 -0.097401 0.008498 0.110865 0.074860 -0.023269 0.073211 0.184492 0.179204 -0.121368 0.134723 -0.164661 0.133713 0.100786 -0.192183 0.100321 -0.319537 -0.027457 -0.000189 -0.155428 0.026822 0.116305 -0.065453 -0.088719 -0.003088 -0.062100 -0.011541 0.041895 -0.033886 -0.188420 -0.077058 0.132222 -0.188881 0.103204 -0.104218 0.069713 -0.218831 0.054699 -0.292480 0.150055 -0.193844 0.062313 0.049855 -0.016977 -0.020373 -0.085478 0.212613 -0.051275 -0.036707 0.199470 0.145362 0.145428 -0.026886 0.050158 0.153970 0.016812 0.093980 -0.003875 -0.146319 0.133675 -0.092833 -0.136052 -0.082271 0.176763 -0.033842 -0.145642 -0.083626 -0.149058 0.127464 -0.232904 0.072414 -0.109144 0.033302
CP016358.1 0.019252 0.179809 0.147736 0.123528 0.181269 0.037012 0.288028 0.019104 -0.149010 -0.217659 0.190328 -0.099244 -0.015148 0.050700 -0.169788 -0.058395 0.062685 -0.052943 -0.100328 -0.047925 0.250195 0.245239 -0.017186 0.085298 0.007708 -0.237319 0.184095 -0.102263 0.000182 0.123232 -0.049972 0.028090 -0.203055 -0.070620 -0.151649 -0.129217 0.002151 0.092902 0.237675 -0.008925 -0.018382 -0.192978 0.074453 -0.036521 -0.160669 -0.073251 -0.031403 0.101011 0.094808 0.051628 0.111271 -0.025689 0.061881 0.196688 -0.095942 -0.045945 -0.148579 0.055659 -0.051462 0.222465 -0.010019 0.024386 0.198086 0.102489 0.043107 -0.073948 0.034993 0.052240 -0.027987 -0.105134 -0.098171 -0.176765 0.086022 -0.003019 -0.080262 -0.025361 0.278920 -0.056672 -0.294709 0.071480 -0.009957 0.221132 0.123699 0.022640 0.072241 -0.056718 0.094019 0.050499 -0.047982 0.108461 -0.140630 0.052642 -0.161116 -0.246596 0.073050 -0.296289 0.222662 0.039450 0.234850 -0.170039 -0.251873 -0.025855 -0.063431 0.013585 -0.002929 0.253566 -0.049625 -0.140273 0.027779 -0.015306 0.104157 -0.053877 0.048231 -0.009914 0.140773 -0.042029 -0.250698 0.108778 -0.048752 -0.120592 0.067297 -0.165521 -0.100489 -0.035869 -0.171787 0.094164 -0.107968 -0.080726
CP012693.1 0.265594 0.212848 0.270225 0.106175 0.202433 -0.088700 0.317296 0.100221 -0.228421 -0.144409 0.054621 0.209352 0.012470 0.010489 -0.141649 0.147312 0.052719 0.066937 -0.087317 -0.000045 0.000425 -0.059102 0.168948 0.154830 0.043499 -0.167684 0.147727 -0.017176 -0.120116 0.066562 -0.098803 -0.153536 -0.110832 -0.148843 0.036162 -0.111031 -0.108787 -0.153289 -0.017975 -0.010564 0.000565 -0.242776 0.255698 0.114054 0.030334 -0.007816 0.082559 0.139681 0.161902 -0.047076 -0.080680 0.023313 -0.057194 0.213424 -0.012701 0.046132 -0.067939 -0.036393 -0.026900 0.254601 -0.044399 0.025836 0.090373 0.209521 -0.004536 0.148007 -0.143011 0.057771 0.115022 -0.042360 0.116245 -0.250011 0.077139 0.028989 0.001771 -0.062318 0.133667 0.007212 -0.193875 0.022508 0.073313 0.028004 0.015217 0.107732 -0.059512 0.025487 0.122551 0.106831 0.011480 -0.076069 -0.061676 0.005116 -0.148858 -0.251681 0.153374 -0.245349 0.075326 0.066842 0.035726 0.152851 -0.207150 0.138114 -0.173063 -0.025677 -0.020623 0.041372 0.069102 -0.095999 -0.103538 0.059149 -0.004118 -0.031902 0.118964 0.017080 0.074057 0.176974 -0.147679 0.057202 0.026232 -0.019915 -0.085831 -0.089004 0.074593 0.084260 -0.245577 -0.077658 -0.115590 0.210769
NC_009812 -0.064079 0.361782 0.357212 0.143377 0.248698 0.176603 0.163022 -0.095325 -0.269052 -0.181503 0.169303 0.187375 -0.039235 0.105788 0.001522 -0.029195 0.128454 -0.125158 -0.153970 -0.045946 0.064034 0.194351 0.029373 0.245883 -0.060748 -0.255435 0.260375 -0.317430 -0.250067 0.020307 -0.128308 -0.102287 0.051897 -0.216591 0.034415 -0.017798 0.048406 -0.247165 0.129476 -0.041091 -0.010310 -0.176178 0.021603 0.001709 0.094266 -0.012195 -0.143014 0.161260 0.145653 -0.132167 0.222726 -0.036590 0.084000 0.090380 0.075653 0.148860 -0.148435 0.057439 0.095679 0.055281 -0.010190 -0.029165 0.222393 0.199657 -0.126688 0.073371 -0.157190 0.160998 0.231216 -0.188012 0.155312 -0.208347 -0.070855 0.007545 -0.254850 -0.029098 0.098142 -0.118595 -0.038024 0.097587 -0.122506 -0.086286 0.023275 -0.005400 -0.135656 -0.062882 0.187116 -0.367790 0.210015 -0.135024 0.106671 -0.118598 0.132830 -0.342084 0.177078 -0.343241 0.060965 0.012417 0.114636 -0.003846 -0.011313 0.205509 -0.058693 -0.064233 0.253463 0.204091 0.061789 -0.021037 0.251856 0.107729 0.104481 0.149280 0.141819 -0.005395 0.167559 -0.213531 -0.184134 -0.128378 0.276542 -0.039216 -0.043548 -0.010393 -0.290619 0.204717 -0.103477 0.071539 -0.189609 0.042241
NC_008376 -0.202893 0.173364 0.148182 0.182355 0.063847 0.062092 0.439642 -0.232409 -0.163558 -0.140759 0.095783 0.110233 0.265560 0.116901 0.029092 -0.246215 0.084224 -0.191569 -0.036877 0.242725 0.016299 -0.033677 0.043132 0.133140 0.032023 -0.343415 0.303096 -0.128358 -0.349103 -0.070458 -0.333679 -0.291004 -0.089644 -0.028897 -0.006132 -0.015914 -0.064965 -0.457463 0.022106 0.102730 0.017441 -0.249693 0.336580 0.159751 -0.017369 0.254460 -0.052578 0.267861 0.453483 -0.025799 -0.257145 0.113131 0.064045 0.015310 0.255539 -0.050778 -0.041190 -0.025847 0.036682 0.180828 0.048722 0.059525 0.290744 0.202684 0.341360 -0.061730 0.165364 0.084512 0.280615 0.064257 0.322209 -0.372477 0.036385 0.138474 -0.088844 -0.221421 -0.108435 -0.027269 0.024593 -0.066006 -0.154726 0.093016 -0.047031 0.007831 -0.026117 0.045880 0.044377 -0.131573 0.072026 -0.148450 0.120440 0.032752 -0.104864 -0.232918 0.298810 -0.293492 0.205141 -0.342481 -0.110739 0.064362 -0.119645 -0.027589 -0.294487 -0.047856 0.036415 0.199435 0.116202 -0.143266 0.069525 0.025400 -0.252350 -0.023054 0.022357 -0.033198 0.001373 0.193513 -0.236259 -0.028743 0.083238 -0.237951 -0.003007 -0.057046 -0.231260 -0.002657 -0.253363 -0.069693 -0.146552 0.176178
NC_009815 0.132241 0.167685 -0.008129 0.244779 0.043087 0.054283 0.214911 -0.224800 -0.169914 -0.178725 0.114748 0.097216 0.189877 0.123135 0.050717 -0.243888 0.033216 -0.110789 -0.204648 -0.011567 0.225889 0.244760 0.026531 0.158756 0.188751 -0.093597 0.193483 -0.009670 -0.034506 0.198595 0.023411 0.058904 -0.207029 0.125144 -0.060014 -0.069943 -0.238942 -0.229796 0.127785 0.035517 0.026397 -0.130327 0.326481 -0.033498 -0.280556 -0.048186 -0.095629 0.154652 0.108843 -0.206412 0.056753 0.157283 0.198013 -0.105105 -0.085284 -0.220735 -0.049753 -0.106369 -0.192874 0.104725 0.245284 -0.043498 0.260467 0.051097 0.132351 -0.249331 -0.124701 0.090066 0.007510 0.101880 0.012153 -0.036780 -0.028328 0.103674 -0.122644 -0.133850 -0.055343 0.176342 0.029856 -0.019282 0.031892 0.161299 0.102880 0.013027 0.163551 0.172495 0.186621 0.185578 0.180338 0.096068 -0.215460 0.029787 -0.192671 -0.237075 0.228250 -0.341978 0.275885 -0.243613 -0.000581 0.007163 -0.118643 -0.054784 -0.303748 -0.062128 -0.188591 0.085418 -0.154309 -0.172450 0.129940 -0.102857 -0.113061 -0.066804 0.250385 -0.073682 -0.050809 0.055414 -0.244591 0.125556 0.112762 -0.140512 0.035131 -0.051530 -0.175313 -0.126365 -0.044182 0.247453 0.036307 0.197389
CP013835.1 0.113872 0.208044 0.027117 0.048625 0.168197 -0.014427 0.159457 -0.056540 -0.222843 -0.194832 0.090551 0.086969 -0.025855 0.100691 -0.061825 -0.013687 0.078918 -0.074798 -0.057635 -0.093642 0.030203 0.104181 0.041094 0.075904 0.065441 -0.169301 0.039572 -0.112408 -0.072245 0.115838 0.042317 -0.077592 -0.004773 -0.140256 0.016519 0.005340 -0.082540 -0.123306 0.091993 -0.017032 0.092179 -0.205590 0.146718 0.107958 -0.162275 -0.045758 0.084215 0.118813 0.152091 -0.120660 0.062298 0.106999 0.043513 0.154537 -0.053438 -0.033327 -0.119466 -0.054789 0.022175 0.094064 0.029627 0.054142 0.105138 0.054968 -0.052739 -0.001169 -0.145640 0.006003 -0.014568 -0.055424 0.071848 -0.183736 -0.037382 0.039167 -0.103201 0.003657 0.108798 0.050338 -0.012879 0.121267 -0.031463 0.137277 -0.015186 0.172653 -0.075585 -0.033355 0.156284 -0.085798 0.086723 -0.017285 0.061024 0.012480 -0.062849 -0.210427 0.124043 -0.265021 0.050705 0.025509 -0.062176 0.005729 -0.124912 0.171669 -0.060518 0.020290 0.077684 0.109595 0.012091 -0.161179 0.155738 -0.017210 -0.069249 0.025980 0.098771 -0.079520 0.046738 0.009216 -0.141187 0.036454 0.069775 -0.104143 -0.074034 -0.083351 -0.059472 -0.016379 -0.213827 0.160174 -0.053822 0.006047
CP011018.1 0.051931 0.133840 0.259546 0.262892 0.125958 0.047053 0.324537 0.076403 -0.162586 -0.354010 0.156336 -0.220210 0.013903 0.075932 -0.154498 -0.096073 0.119181 -0.001190 -0.168237 -0.016400 0.332389 0.222053 0.004894 -0.045295 0.017896 -0.215905 0.288301 -0.098284 0.115350 0.280184 -0.062533 0.042288 -0.223530 -0.027090 -0.214447 -0.298394 -0.008169 0.072132 0.225871 -0.027063 -0.104644 -0.132636 0.141063 -0.045464 -0.175517 -0.151273 0.030397 0.044661 0.099437 0.063271 0.112324 -0.087026 0.121667 0.127794 -0.092136 0.007730 -0.050021 0.017317 -0.089473 0.152434 0.058754 0.035561 0.231108 0.171191 0.212826 -0.125448 0.052395 0.030390 -0.059220 -0.153658 -0.214379 -0.242400 0.110292 0.016740 -0.148639 -0.074832 0.261346 -0.064146 -0.378494 0.065742 0.010348 0.185713 0.172771 0.005660 0.048441 -0.066446 0.041717 0.100741 -0.115889 0.120432 -0.144437 0.032048 -0.274955 -0.249448 0.098089 -0.409658 0.277204 0.103065 0.320965 -0.100617 -0.265895 -0.030715 -0.161940 0.047072 0.036237 0.267733 0.062009 -0.082361 -0.104029 -0.020799 0.017223 -0.070824 0.061185 -0.026346 0.188045 0.034093 -0.312053 0.026977 -0.026819 -0.149858 0.060322 -0.168975 -0.083323 -0.042406 -0.195043 0.072522 -0.170124 -0.088705
CP009106.2 0.104702 0.327126 -0.187659 -0.188528 0.206937 -0.136610 0.123741 0.072741 -0.087514 -0.100015 0.226171 -0.070631 -0.029203 -0.013281 -0.168251 -0.056184 -0.022060 -0.092995 0.018819 -0.088195 0.075412 0.049382 0.017633 0.067495 -0.033136 -0.394237 -0.134255 0.067470 -0.191622 -0.083162 -0.080019 -0.172955 -0.078571 -0.217208 0.023061 0.014354 -0.051034 0.132180 0.250709 0.073137 0.240056 -0.292318 0.108865 0.236197 -0.126082 0.028477 0.126327 0.164735 0.176773 -0.108888 -0.157818 0.221249 -0.097996 0.406868 -0.002393 -0.118104 -0.299947 -0.039924 0.179330 0.254663 -0.022759 0.184977 -0.127667 -0.046097 -0.113388 0.059028 -0.101902 -0.131529 -0.023168 -0.113836 0.081050 -0.227874 0.154334 0.083378 0.010842 0.045752 0.263053 0.141826 -0.054135 0.236053 -0.072221 0.315007 -0.011716 0.228881 0.006743 -0.107645 0.204632 -0.078112 0.044076 0.146786 0.029675 0.060811 -0.072576 -0.268943 0.117149 -0.190534 0.039269 0.008921 -0.255897 -0.120481 -0.192480 0.061143 0.030403 -0.012328 0.073062 0.206412 -0.143382 -0.244754 0.117205 -0.009648 0.007012 -0.040716 -0.041603 -0.081676 0.079721 -0.030002 -0.133214 0.279005 -0.106280 -0.178339 -0.052255 -0.329276 0.003348 -0.171849 -0.382966 0.119134 0.055294 -0.066377
CP015834.1 0.036335 0.150780 -0.096823 -0.070200 0.144812 -0.159574 0.063809 -0.113270 -0.105415 -0.140136 0.080441 0.122770 -0.178778 0.065368 -0.207164 0.002245 0.075969 -0.079143 -0.030430 -0.144855 -0.058868 0.230077 0.021945 0.392176 -0.033283 -0.312346 0.016563 -0.110458 -0.059388 0.010684 0.231258 -0.130126 0.048219 -0.161216 0.041743 0.140540 0.042613 -0.122867 0.201310 -0.023911 0.169550 -0.046372 -0.000374 0.240939 -0.386346 -0.018058 0.198854 0.006258 0.220986 -0.063347 0.038030 -0.025077 0.101743 0.186146 0.022148 -0.073440 -0.219479 0.040211 0.183627 0.252313 -0.132504 0.114896 0.081011 0.079729 -0.111170 0.076094 -0.228496 0.137978 0.066913 -0.044148 0.159333 -0.213363 0.075421 -0.113219 0.051007 0.220491 0.255695 0.165121 -0.176313 0.225166 -0.226262 0.348176 0.279760 0.331158 -0.028789 0.084953 0.318490 -0.151101 0.171669 0.021215 0.053173 0.119132 -0.044739 -0.284856 0.054683 -0.128579 -0.005950 0.193346 -0.030050 -0.062368 -0.155448 0.257554 0.117449 -0.023777 -0.086638 0.129978 0.038101 -0.169118 0.315397 0.047528 0.165328 -0.016459 0.088299 -0.013579 0.149773 -0.088392 -0.064607 0.018112 0.014903 -0.122202 -0.004629 -0.149455 0.134263 -0.199969 -0.137335 0.368713 -0.005170 -0.025202
CP014667.1 0.134737 0.184169 0.034975 0.200392 0.216295 -0.002375 0.198815 0.047670 -0.082234 0.048081 -0.124754 0.138167 -0.002453 -0.001719 -0.227941 -0.085805 0.034451 -0.161533 0.129620 -0.111126 0.054129 0.014455 0.172035 0.222328 0.213540 -0.183229 0.055633 0.073084 0.049065 0.109733 -0.055738 -0.131119 -0.217146 -0.133685 -0.061298 -0.007105 -0.091725 -0.094683 -0.030030 0.099717 0.158331 -0.304447 0.150829 0.244531 0.012611 -0.212986 0.038201 0.160790 0.076881 -0.024621 -0.032204 0.011383 0.074904 0.176451 -0.063291 -0.021225 -0.041645 -0.079679 -0.001333 0.180324 0.056817 0.000977 0.016071 0.160390 -0.066129 0.001097 -0.151624 0.085803 -0.058947 -0.118485 0.089650 -0.336136 0.072877 0.134773 0.073839 -0.086574 0.053918 -0.042285 0.027143 -0.051304 0.113739 0.303048 0.049366 0.139739 0.013950 0.032598 0.145630 0.118730 0.101496 0.025609 -0.004255 -0.112777 -0.035309 -0.351550 -0.024658 -0.230562 0.062490 0.073199 0.017839 0.007502 -0.245436 0.109342 -0.155549 0.014698 -0.033235 0.080029 -0.136585 -0.171906 -0.017178 0.115585 -0.142096 -0.103324 0.080928 -0.190009 0.040015 0.076482 -0.143641 -0.151096 0.071002 -0.049579 -0.017025 -0.251740 -0.159184 -0.137014 -0.093222 0.056018 -0.129189 0.187027
CP013025.1 0.024184 0.125617 0.071087 0.082633 0.128200 0.033480 0.270812 -0.146654 -0.163427 -0.130307 0.057737 0.073016 0.115998 0.098639 -0.049947 -0.109352 0.093857 -0.140751 0.013368 0.035103 0.071691 0.067920 0.068982 0.104814 0.045270 -0.155464 0.103301 -0.186722 -0.100878 0.029741 -0.147546 -0.134722 -0.040600 -0.056825 0.005469 0.001064 -0.053457 -0.283050 0.042569 0.079417 0.051162 -0.266484 0.179446 0.153683 -0.068726 0.044887 -0.003182 0.129942 0.251434 -0.070385 -0.025162 0.098814 0.058826 0.061459 0.090148 -0.050183 -0.029860 -0.119040 0.003094 0.109186 0.046465 0.095301 0.201440 0.117033 0.096694 -0.035196 0.005617 0.032527 0.092241 0.090305 0.198165 -0.277926 0.012931 0.095416 -0.011528 -0.036919 0.093347 -0.027247 -0.053945 -0.022126 -0.050025 0.140161 -0.045842 0.136890 -0.080238 -0.017904 0.080621 -0.055122 0.074096 -0.031186 0.068563 0.009510 -0.076468 -0.181142 0.153575 -0.240641 0.083649 -0.220287 -0.071808 0.021616 -0.158637 0.090918 -0.109095 0.019599 0.136318 0.159983 0.049743 -0.178127 0.098961 -0.052727 -0.188789 0.005354 0.022914 -0.156223 0.002877 0.147289 -0.154087 -0.038250 0.005454 -0.230379 -0.085722 -0.061858 -0.146992 0.029128 -0.235990 0.040096 -0.111668 0.063860
CP012631.1 -0.086343 0.213951 0.081284 0.023202 0.144455 0.017491 0.037684 -0.167163 -0.106016 -0.067233 0.096708 0.133251 -0.092814 0.070536 -0.121737 -0.103775 0.114626 -0.164779 -0.054277 -0.093352 -0.032487 0.288484 0.039793 0.379969 -0.056887 -0.339353 0.150993 -0.274631 -0.141428 0.022184 0.073864 -0.135247 0.044539 -0.180243 0.015337 0.161116 0.068461 -0.280402 0.199905 -0.033848 0.099955 -0.022645 -0.050726 0.208713 -0.230829 -0.050290 0.043500 0.031520 0.211782 -0.072255 0.147530 -0.080729 0.147828 0.055019 0.159738 0.009606 -0.183613 0.091728 0.250989 0.178291 -0.079815 0.056743 0.166885 0.166863 -0.115152 0.064218 -0.213359 0.229175 0.198319 -0.130159 0.206546 -0.232762 0.007910 -0.089074 -0.042758 0.157430 0.129547 0.067724 -0.085955 0.173775 -0.302774 0.213197 0.241438 0.211981 -0.057805 0.074441 0.288133 -0.326470 0.276081 -0.048803 0.106863 0.022579 0.108017 -0.305819 0.049629 -0.186190 -0.045349 0.088525 0.037889 -0.055609 -0.025126 0.264378 0.125075 -0.057431 0.043864 0.192037 0.058393 -0.080289 0.345629 0.124436 0.108987 0.078922 0.063818 -0.030826 0.163988 -0.220059 -0.074975 -0.175126 0.172572 -0.094836 0.008150 -0.117724 -0.077601 -0.078611 -0.034777 0.307491 -0.095699 -0.005149
CP015228.1 0.123950 0.162537 0.013952 0.179039 0.203520 -0.029513 0.181651 0.030790 -0.154409 -0.089101 -0.085341 0.076407 -0.046809 0.074578 -0.183190 -0.058350 0.062427 -0.127015 0.058738 -0.142021 0.032713 0.030404 0.089987 0.142227 0.150869 -0.185322 0.051068 0.026595 0.066662 0.132242 0.001270 -0.130793 -0.090741 -0.133929 -0.011455 -0.078120 -0.043424 -0.082949 -0.024246 0.079399 0.149636 -0.272579 0.126829 0.156307 -0.087393 -0.136378 0.100514 0.143087 0.136687 -0.084173 0.000881 0.050522 0.122036 0.194476 -0.058854 0.022082 -0.001600 -0.108015 -0.025247 0.068530 0.018736 0.047102 0.028310 0.094914 -0.015754 -0.007975 -0.141682 0.020037 -0.121846 -0.108582 0.078018 -0.314211 0.011353 0.089229 -0.055679 -0.072152 0.117716 -0.041465 0.039048 0.038745 0.104966 0.247786 0.031379 0.147953 -0.043463 0.009902 0.125446 0.012343 0.032147 0.013598 0.043866 -0.092620 -0.107870 -0.336547 0.017992 -0.280092 0.083530 0.107377 -0.002131 0.074121 -0.227189 0.174741 -0.158101 0.036228 0.045394 0.061259 0.006856 -0.175365 0.003865 0.021592 -0.138013 -0.048505 0.076243 -0.170752 0.019300 0.096944 -0.155185 -0.105272 0.012953 -0.060893 -0.036803 -0.164321 -0.087499 -0.093863 -0.155558 0.106031 -0.123275 0.079620
CP014583.1 0.161183 0.137683 0.013460 0.052891 0.139883 -0.074048 0.127130 -0.017398 -0.126869 -0.164153 0.014331 0.039048 0.013052 0.079216 -0.124340 -0.013329 0.111532 -0.050570 -0.048107 -0.089485 0.053001 0.060957 0.103912 0.062531 0.073166 -0.164537 0.035915 -0.069273 0.028152 0.177235 0.090507 -0.106911 -0.043480 -0.092793 0.005113 -0.047469 -0.096120 -0.134242 0.064651 0.010430 0.104632 -0.174068 0.150197 0.150920 -0.148300 -0.114813 0.150161 0.045664 0.147807 -0.092456 0.015758 0.067497 0.060212 0.175217 -0.058094 -0.020392 -0.071176 -0.109509 0.053780 0.089986 0.064022 0.065184 0.053464 0.071892 -0.020881 -0.020095 -0.171283 -0.038279 -0.070764 -0.027902 0.051519 -0.269635 0.029862 0.085189 -0.052392 0.042622 0.147076 0.068559 -0.075361 0.099040 0.027614 0.201285 0.044465 0.205862 -0.070922 -0.015840 0.160198 0.056051 0.032876 0.022762 0.034813 -0.014341 -0.108833 -0.245019 0.083431 -0.255703 0.061144 0.045990 -0.081820 0.040461 -0.159627 0.162900 -0.087016 0.020557 0.104510 0.109422 0.045366 -0.137449 0.040601 0.006263 -0.107984 -0.045829 0.085872 -0.136109 0.061524 0.070980 -0.141001 -0.027008 0.012087 -0.162838 -0.075713 -0.156047 0.003084 -0.095735 -0.264830 0.149461 -0.050418 0.027899
CP007594.1 0.422691 0.137046 0.137835 0.064410 0.262341 0.024101 0.180704 -0.048030 -0.191841 -0.020196 -0.024389 0.112104 0.028570 0.017814 -0.116768 0.014592 0.045003 -0.081295 -0.016039 -0.039152 0.080262 0.083975 0.088170 0.097554 0.025289 -0.022072 -0.072727 -0.230602 0.039015 -0.007225 -0.046006 -0.151456 0.011722 -0.193957 0.032610 -0.049910 0.030238 -0.146798 0.103525 0.130422 0.081884 -0.330776 0.119883 0.116528 -0.070836 -0.063758 -0.002746 0.117522 0.123980 -0.153105 0.037160 0.078823 0.078806 0.137030 0.034877 0.027453 0.045509 -0.184864 0.011963 0.097967 -0.037188 0.051003 0.151674 0.065894 -0.106137 0.086271 -0.128789 0.060428 0.006486 0.133072 0.192614 -0.206113 0.003165 0.024593 0.041082 0.175098 0.414824 -0.145227 -0.175377 0.121357 0.121582 0.231599 0.051552 0.314671 -0.096459 -0.054368 0.082527 0.089673 0.075882 0.103627 -0.048712 0.098588 -0.117223 -0.297714 -0.002614 -0.275861 -0.078397 -0.141296 0.101250 0.211554 -0.258196 0.158003 0.037205 0.189934 0.147461 0.003248 -0.022245 -0.259852 0.062793 -0.204661 -0.081669 0.046808 0.055192 -0.152585 0.051687 0.181057 -0.006487 -0.103742 -0.151790 -0.173950 -0.111517 0.004065 -0.029395 0.166222 -0.155927 0.099143 -0.025703 0.034061
NC_004735 0.201643 0.121608 0.159300 0.192292 0.101226 0.139281 0.229570 -0.048610 -0.195270 -0.255880 0.212255 -0.056416 0.017046 0.061842 -0.027211 -0.214337 0.111791 -0.106883 -0.356937 -0.019223 0.275773 0.319005 -0.038516 0.023743 0.119648 -0.158846 0.270787 -0.092332 0.030325 0.226497 -0.055940 0.109518 -0.227478 -0.134876 -0.144665 -0.239433 -0.012181 0.070428 0.321577 -0.010015 -0.100363 -0.125119 0.213477 -0.111862 -0.290839 -0.086236 -0.085986 0.149653 0.019117 -0.124306 0.121670 0.031890 0.169579 0.100188 -0.084474 -0.090230 -0.091842 0.054963 -0.176440 0.162765 0.051666 -0.037129 0.273003 0.058263 0.132978 -0.133155 -0.019205 0.106689 0.033886 -0.114119 -0.146128 0.007037 0.059515 -0.005919 -0.152956 -0.065634 0.167955 -0.053501 -0.274631 0.200786 -0.079272 0.159006 0.189214 0.049274 0.091645 0.023642 0.070415 0.050525 0.022206 0.129530 -0.237755 0.176142 -0.273563 -0.298335 0.174829 -0.455666 0.239487 -0.025139 0.382486 -0.057264 -0.181609 -0.064715 -0.158012 0.038542 -0.118197 0.166776 -0.055926 -0.145850 0.037567 -0.068705 0.010753 0.008506 0.142359 0.114449 0.137600 -0.044687 -0.276742 0.103575 -0.013687 -0.092642 0.123835 -0.060034 -0.132975 -0.000600 0.021736 0.198535 -0.077594 -0.016532
CP015023.1 0.270177 0.359527 0.165382 0.210448 0.108635 0.123415 0.241014 -0.160770 -0.255657 -0.176548 0.168309 0.047222 0.072951 0.034001 0.059935 -0.255885 -0.020375 -0.082573 -0.257657 -0.003059 0.246876 0.188962 0.002575 0.083118 0.082979 -0.161583 0.206128 -0.072305 -0.084380 0.090051 -0.134525 -0.022392 -0.119203 -0.038942 -0.063039 -0.143419 -0.074411 -0.082978 0.220719 0.045252 -0.006296 -0.117046 0.256292 -0.029312 -0.153864 -0.034498 -0.132335 0.112871 0.122676 -0.254496 0.008244 0.093601 0.170081 -0.028452 0.015215 -0.089783 -0.068536 -0.066004 -0.090582 0.087489 0.120478 0.010560 0.202137 0.024740 0.101312 -0.066193 -0.170512 0.113670 0.118661 -0.037778 -0.007219 -0.033676 -0.011367 -0.000055 -0.170876 -0.013099 0.057017 0.067137 -0.072109 0.120173 -0.047484 0.073263 0.155155 0.034650 0.030915 0.057914 0.166018 0.007163 0.192713 0.115597 -0.178766 0.018853 -0.166520 -0.295955 0.193084 -0.322137 0.187183 -0.126925 0.080758 0.054793 -0.112860 -0.042841 -0.145942 0.024797 -0.107434 0.025978 -0.113738 -0.106325 0.083114 -0.087581 -0.009089 -0.011890 0.138229 -0.025677 0.123260 -0.047034 -0.185426 0.104753 0.077486 -0.071001 0.035715 -0.064970 -0.165800 0.015609 -0.025204 0.214770 0.025228 0.091654
CP013031.1 0.058710 -0.033788 -0.118148 0.052163 -0.041481 -0.004816 0.103229 -0.110679 -0.269991 -0.248547 0.069346 0.067134 -0.014751 0.213730 -0.011577 -0.013691 0.166134 0.012483 -0.169047 -0.118318 0.022407 -0.047394 0.027736 -0.104878 0.139734 -0.096309 0.089233 0.017040 -0.035257 0.303728 0.107871 -0.178706 0.086580 -0.288957 0.054028 -0.041989 -0.087397 -0.017612 -0.002732 -0.106648 0.066022 -0.188140 0.243040 0.049608 -0.162448 0.035728 0.254029 0.067444 0.284712 -0.171966 -0.026037 0.128572 0.009274 0.219930 -0.171875 -0.011086 -0.088392 -0.162787 -0.082492 0.043694 0.102773 0.023890 0.088059 0.024055 0.095352 -0.083169 -0.115535 -0.047613 -0.076039 -0.081119 -0.041044 -0.141877 -0.120196 0.072472 -0.264600 -0.001664 0.032744 0.016918 -0.003023 0.227075 0.133525 0.040162 0.049084 0.196886 -0.154387 -0.068901 0.203020 -0.072844 0.085275 -0.058220 0.130647 0.027359 -0.247451 -0.315129 0.212414 -0.366288 0.112291 0.107500 -0.055391 -0.009620 -0.169677 0.216119 -0.120477 0.015390 0.156926 -0.034966 0.095761 -0.132195 0.102094 0.019277 -0.228534 -0.155914 0.193041 0.028041 0.100194 0.039624 -0.241733 0.082366 0.064831 -0.146651 0.045539 -0.115698 0.021451 -0.067069 -0.203780 0.238454 -0.061307 0.024706
CP013185.1 0.067916 0.114694 -0.070982 0.049333 0.093614 -0.069458 0.180164 -0.083385 -0.301271 -0.337058 0.105123 -0.008333 -0.070378 0.202211 -0.055512 0.014879 0.071226 0.051242 -0.165151 -0.112055 -0.024026 -0.045326 -0.059828 -0.056487 0.095874 -0.198671 0.125367 -0.020140 -0.042690 0.202396 0.113299 -0.170439 0.135555 -0.222125 0.082981 -0.125057 -0.058706 -0.004374 -0.000348 -0.095768 0.101845 -0.164672 0.184814 -0.024683 -0.321558 0.092730 0.242817 0.094792 0.367327 -0.187402 -0.063290 0.193082 0.076426 0.293971 -0.085864 0.015808 -0.096213 -0.085979 -0.090855 0.009802 -0.071955 0.090304 0.105940 -0.028451 0.164899 -0.044386 -0.111901 -0.077263 -0.133714 -0.051750 0.041920 -0.205378 -0.113161 0.012765 -0.295296 -0.004590 0.147712 0.020272 0.006459 0.252932 0.123124 0.109784 0.039690 0.132322 -0.078600 -0.037438 0.140473 -0.081786 -0.065118 -0.081209 0.119394 0.039818 -0.305355 -0.291369 0.222495 -0.310385 0.179068 0.129400 -0.081429 0.086424 -0.211489 0.196841 -0.128819 0.054910 0.086128 0.014788 0.216219 -0.165833 0.075534 -0.052804 -0.104885 -0.095063 0.131579 0.024982 0.024634 0.133504 -0.230096 0.187125 -0.054292 -0.096421 0.023482 -0.077350 0.062792 -0.070442 -0.301762 0.210288 -0.002276 -0.095324
CP009859.1 0.062812 0.243991 -0.050604 -0.012718 0.253706 -0.171882 0.235977 -0.001171 -0.259026 -0.313130 0.161164 -0.002732 -0.145205 0.102332 -0.165444 0.067231 0.031862 0.048000 -0.062518 -0.095327 -0.037412 0.037572 -0.084301 0.083419 -0.036106 -0.302233 0.052916 -0.017969 -0.081063 0.048485 0.118132 -0.191285 0.074336 -0.148429 0.047958 -0.108937 0.015432 0.023105 0.077000 -0.046754 0.140902 -0.167957 0.056620 0.017452 -0.309763 0.095946 0.219197 0.112342 0.312797 -0.096734 -0.085547 0.136402 0.051224 0.379272 -0.045262 0.020361 -0.140339 -0.004619 0.021888 0.133478 -0.150592 0.131013 0.064794 -0.037331 0.038479 0.048687 -0.072838 -0.058529 -0.127505 -0.086014 0.082775 -0.275249 -0.015636 -0.035680 -0.174429 0.063947 0.305273 0.053901 -0.084891 0.262428 0.010986 0.232653 0.102105 0.168594 -0.068963 -0.047332 0.141122 -0.073429 -0.095943 -0.021308 0.067081 0.058262 -0.206236 -0.294213 0.124101 -0.207117 0.159604 0.189343 -0.103626 0.046601 -0.236419 0.187966 -0.056769 0.051647 0.023054 0.093119 0.205027 -0.216264 0.089856 -0.034644 0.039153 -0.034210 0.038508 -0.021295 0.067700 0.067917 -0.155100 0.199077 -0.131348 -0.063225 -0.025368 -0.111148 0.136106 -0.106595 -0.396578 0.211270 0.029235 -0.141264
NC_008201 0.339590 0.176380 0.385348 0.048123 0.199580 -0.101662 0.446126 0.179596 -0.189405 -0.126202 0.164642 0.293325 0.039928 -0.131811 -0.172229 0.155467 0.072888 0.126421 -0.146657 0.052802 -0.024324 -0.116049 0.340211 0.245900 0.019693 -0.226598 0.271916 0.011553 -0.247361 0.067857 -0.271791 -0.200280 -0.227080 -0.145572 0.045418 -0.160130 -0.167083 -0.263159 0.016791 -0.014401 -0.113379 -0.223493 0.356327 0.312183 0.103052 -0.049009 0.081422 0.118706 0.165490 -0.007933 -0.207204 -0.010013 -0.192663 0.229043 0.124893 -0.016124 -0.172785 0.045278 0.029759 0.534884 -0.087393 0.084636 0.112319 0.393314 0.029040 0.308469 -0.159153 0.157159 0.373314 -0.092580 0.167478 -0.325800 0.287777 0.051722 0.217308 -0.099476 0.023609 0.082751 -0.383881 -0.041170 -0.111709 -0.025721 0.079045 0.072365 -0.050145 0.119845 0.136958 0.147900 0.040263 -0.138994 -0.129053 0.061078 -0.193566 -0.229069 0.245141 -0.180643 0.029382 0.019999 0.067898 0.129960 -0.221553 0.148029 -0.224368 -0.133570 -0.163586 0.094795 0.127051 -0.030876 -0.257916 0.225737 -0.023177 -0.087635 0.094946 0.125711 0.136556 0.272121 -0.149207 0.144804 0.047122 -0.010412 -0.099750 -0.175706 0.186687 0.099784 -0.291756 -0.189492 -0.171224 0.402643
NC_007409 0.093571 -0.107119 0.009362 0.039719 0.183882 -0.126024 -0.011100 0.114317 0.005313 0.014150 -0.011846 0.456742 0.074937 0.136230 -0.160739 0.063756 0.312057 -0.222970 -0.406856 -0.030025 -0.203239 0.277220 0.018733 0.287462 0.192338 -0.200177 0.172529 0.111471 -0.213985 0.143953 0.323577 -0.050820 -0.295603 -0.362583 0.057327 -0.009354 -0.110065 -0.159418 0.159094 -0.010379 0.126012 -0.247960 0.321227 -0.111688 -0.217234 0.057121 0.073091 0.478272 -0.147723 -0.123061 0.173399 0.045215 0.081632 0.367297 -0.303507 0.007847 -0.114564 0.249760 -0.061843 0.333958 0.009659 -0.361183 0.064716 0.119484 -0.277851 -0.169750 -0.037651 0.121633 -0.008999 -0.210091 0.124617 0.083319 -0.047913 0.135487 -0.091489 -0.183454 0.088515 -0.079674 -0.006423 0.310992 -0.003345 0.272814 0.039110 0.203049 0.130631 0.126680 0.131479 0.119659 0.043361 -0.094290 -0.131668 0.308364 0.002693 -0.455800 0.054899 -0.505822 0.106334 0.141066 0.296196 0.118698 0.015412 0.141665 -0.249271 -0.214345 -0.067359 0.136597 -0.076238 -0.232028 0.169536 0.132621 0.009207 0.133045 0.361036 0.349927 -0.063647 -0.082669 -0.221545 -0.107455 0.093966 0.146571 0.154711 0.008720 0.006003 -0.072014 0.046658 0.113258 -0.129591 0.284615
CP010371.1 0.199553 0.135584 0.242759 0.007445 0.049971 -0.100408 0.169344 0.084892 -0.027023 -0.155100 -0.005890 0.067597 0.153487 0.042386 -0.101965 0.012475 0.069335 -0.051044 -0.195433 0.042179 -0.046495 -0.072310 0.223864 0.105234 -0.028786 -0.208374 0.117825 -0.062036 -0.114194 0.056442 -0.138440 -0.187618 -0.061337 -0.173544 0.096941 -0.120042 -0.056748 -0.237562 0.128148 0.084705 -0.029161 -0.143592 0.292024 0.327089 -0.059324 -0.002978 0.065632 0.087038 0.146577 -0.090205 -0.098106 0.001889 -0.033857 0.113169 0.140042 0.038545 -0.119968 -0.025586 0.071960 0.298871 -0.050046 0.103858 0.032776 0.256188 0.057904 0.159537 -0.180152 0.014128 0.268449 -0.012131 0.155244 -0.247115 0.243146 0.067869 0.074526 -0.002051 0.112546 0.080601 -0.244048 0.090829 -0.136718 0.067749 0.023495 0.188401 -0.053147 0.107244 0.161661 0.020801 0.019512 -0.034686 -0.010087 0.112562 -0.173884 -0.219624 0.142333 -0.237471 0.008832 -0.022208 0.038796 0.172590 -0.146121 0.118142 -0.133674 -0.028149 0.018587 0.155221 0.084615 -0.043652 -0.051472 0.024790 -0.035690 -0.032740 0.145313 0.086924 0.103602 0.178849 -0.104084 0.026907 -0.021832 -0.151796 -0.068776 -0.118957 0.083472 -0.003290 -0.227959 -0.056874 -0.159414 0.202763
NC_008723 0.098926 0.183458 0.416740 0.080961 0.086672 -0.109274 0.285528 0.212643 -0.008676 -0.196836 0.028813 0.110321 0.235669 0.013893 -0.126630 -0.038750 0.073274 -0.092731 -0.213978 0.118634 -0.138511 -0.165835 0.336204 0.173472 -0.033042 -0.343714 0.274368 -0.049044 -0.201951 -0.021895 -0.377799 -0.248973 -0.101709 -0.292140 0.139379 -0.207664 -0.057106 -0.355173 0.114355 0.138151 -0.105446 -0.129387 0.368450 0.543077 -0.023859 0.034524 0.065630 0.147290 0.210072 -0.102409 -0.189622 -0.028568 -0.091759 0.093741 0.385681 0.092285 -0.153773 0.113039 0.118876 0.453531 -0.185787 0.167976 -0.025120 0.477985 0.172574 0.269775 -0.179427 0.099738 0.520876 -0.103888 0.258954 -0.323364 0.441546 0.078175 0.221553 -0.159370 -0.013004 0.092801 -0.283015 0.042903 -0.296104 0.004848 0.015659 0.123817 0.034289 0.237507 0.124658 -0.128927 0.017560 -0.150069 0.017173 0.139262 -0.204003 -0.206331 0.164536 -0.271911 -0.062619 0.008726 0.121980 0.250522 -0.135462 0.138115 -0.218392 -0.084886 -0.018623 0.304479 0.174211 0.019634 -0.135467 0.157926 -0.034985 -0.012321 0.140765 0.212019 0.053407 0.290193 -0.166419 -0.005503 0.022023 -0.112497 -0.032926 -0.182016 0.072369 0.000931 -0.203852 -0.260900 -0.340342 0.367721
CP017100.1 0.073145 -0.047118 0.007193 0.135489 -0.063513 -0.041867 0.184173 -0.130901 -0.224716 -0.251252 -0.049726 0.103485 -0.005450 0.197025 -0.104583 -0.031898 0.201540 -0.037281 -0.152976 -0.108084 0.086543 0.029122 0.105452 0.109180 0.034082 -0.056480 0.122404 -0.008585 0.068733 0.257061 0.064866 -0.160530 0.010518 -0.153767 0.030664 -0.045082 0.054849 -0.082183 0.009273 0.018902 0.003004 -0.177427 0.175225 0.115372 -0.055675 0.029288 0.178572 -0.063062 0.205611 -0.074324 0.016715 -0.070139 0.111835 0.078042 -0.134001 0.029732 -0.008295 -0.230874 -0.120298 0.115714 0.087250 0.052699 0.138581 0.115555 0.072045 -0.003019 -0.123908 0.046474 0.024904 -0.003817 -0.015229 -0.178939 -0.007231 0.018191 -0.125010 0.068643 0.129719 0.026297 -0.199128 0.125483 0.046986 0.032339 0.177950 0.235992 -0.182272 0.046912 0.248643 -0.043755 0.133358 0.017217 0.032152 0.023288 -0.234353 -0.320576 0.117528 -0.297646 0.154053 0.107674 0.078361 -0.019532 -0.234945 0.218999 -0.101776 -0.009918 0.089633 -0.025038 0.071272 -0.081965 0.081577 -0.005296 -0.127303 -0.177474 0.187101 -0.026252 0.200584 0.016081 -0.202464 -0.038611 0.027625 -0.180951 0.029727 -0.079841 0.067984 -0.052647 -0.105615 0.239260 -0.152903 0.112187
CP016497.1 0.163854 0.034754 0.039244 0.021277 0.191571 -0.142926 0.113732 0.060991 -0.119833 -0.065774 -0.010678 0.289716 -0.001257 0.106885 -0.157717 0.081745 0.176820 -0.118935 -0.201786 -0.033887 -0.096459 0.159852 0.034263 0.222772 0.082538 -0.163744 0.047842 0.029836 -0.109445 0.069894 0.194480 -0.097838 -0.139186 -0.227624 0.055187 -0.014907 -0.052038 -0.123990 0.095214 0.029970 0.124843 -0.250048 0.226931 0.008837 -0.183406 0.040634 0.092756 0.301526 -0.000579 -0.081843 0.071578 0.041943 0.069104 0.283759 -0.183852 0.008252 -0.075656 0.049967 -0.034012 0.239773 -0.033388 -0.143306 0.064097 0.082095 -0.174866 -0.039845 -0.073506 0.050073 -0.032255 -0.065244 0.130675 -0.078734 -0.032706 0.060186 -0.058089 -0.041296 0.207173 -0.027816 -0.076844 0.202205 0.029642 0.247603 0.033242 0.242435 0.002100 0.058912 0.134482 0.095131 0.031496 -0.023940 -0.073933 0.188202 -0.055263 -0.359024 0.052902 -0.366661 0.069609 0.080460 0.134397 0.123681 -0.114904 0.160949 -0.134582 -0.076127 -0.027271 0.078761 -0.032763 -0.222282 0.115078 -0.008085 0.006046 0.077584 0.219106 0.112167 0.007140 0.022245 -0.145241 -0.034959 -0.006322 0.011862 0.002933 -0.006627 0.044806 -0.026453 -0.096573 0.110341 -0.074268 0.168031
NC_009552 0.024018 0.227516 -0.089756 -0.074258 0.210168 0.244309 0.144419 0.154156 -0.442705 -0.153049 0.450146 0.054834 -0.173839 -0.021998 0.084424 -0.106737 -0.079980 -0.025135 0.136841 -0.107092 0.217535 -0.039237 0.021739 -0.151857 0.204067 -0.183267 0.054985 -0.110449 -0.266969 0.024939 -0.493539 -0.036236 0.047635 -0.657183 -0.037685 -0.035297 -0.065599 0.241661 0.066336 -0.081278 0.100930 -0.550811 0.173864 0.233437 0.134686 -0.012199 -0.012505 0.245137 0.198134 -0.354961 -0.004268 0.318789 -0.270071 0.304804 -0.037050 -0.039204 -0.215445 -0.098246 -0.125610 0.130884 -0.003149 0.226472 -0.042848 0.093567 -0.060546 0.108572 -0.105340 0.117958 0.139260 -0.310230 -0.080314 -0.014280 -0.037547 0.008259 -0.065287 -0.211903 -0.018469 -0.103921 0.052301 0.216933 -0.044129 -0.005617 -0.154177 0.138268 -0.139605 -0.315698 0.111245 -0.412773 0.427030 -0.013837 0.194681 -0.109540 -0.036821 -0.227495 0.241440 -0.454676 -0.109148 -0.011392 -0.026494 -0.202656 -0.250540 0.203576 0.033616 0.171839 0.285377 0.221556 -0.239232 -0.321537 0.308869 0.076091 -0.177176 0.019495 -0.009757 -0.118641 0.124540 -0.066047 -0.374262 0.322030 0.214885 -0.035626 -0.026849 -0.271661 -0.362875 0.267569 -0.173823 0.028089 -0.149306 -0.006012
NC_006552 0.064057 0.251567 -0.011762 0.383544 0.291189 -0.021958 0.175558 0.131199 -0.062867 0.052007 -0.254864 0.047160 -0.060053 0.029626 -0.334443 -0.179057 0.041552 -0.210140 0.266374 -0.214175 0.108148 0.006259 0.178753 0.247355 0.314396 -0.281905 0.075087 0.163159 0.202788 0.196401 -0.014905 -0.192084 -0.241963 -0.111862 -0.093562 -0.119479 -0.111943 -0.068681 -0.159477 0.176299 0.278135 -0.380852 0.078687 0.246266 0.012177 -0.366155 0.113079 0.179843 0.123783 -0.100764 -0.012289 0.041616 0.223825 0.270116 -0.075621 0.023351 0.088938 -0.172964 -0.007485 0.038325 0.068915 0.023622 -0.030742 0.178914 -0.025918 -0.063262 -0.225736 0.044821 -0.276519 -0.218078 0.082424 -0.558068 0.058794 0.215131 -0.016326 -0.178984 0.108646 -0.103548 0.170509 -0.092394 0.302723 0.462818 0.108358 0.112383 0.083443 0.040651 0.129621 0.144765 0.039028 0.083287 0.039635 -0.314964 -0.092687 -0.523523 -0.106198 -0.342410 0.130466 0.209593 -0.017013 0.057473 -0.344707 0.180229 -0.274552 0.050611 0.071597 0.085819 -0.077395 -0.212146 -0.112051 0.138034 -0.232369 -0.153400 0.047665 -0.379749 -0.032140 0.155358 -0.216069 -0.295686 0.056087 -0.034482 0.008694 -0.346800 -0.244107 -0.238787 -0.144016 0.071294 -0.200316 0.174522
CP010876.1 0.192066 0.180539 -0.028548 0.219910 0.234526 -0.074709 0.101838 0.017056 -0.096288 0.060551 -0.138084 0.153421 -0.032383 0.016434 -0.220740 -0.146840 0.075725 -0.120344 0.069723 -0.104389 0.062891 0.040779 0.171024 0.201398 0.241924 -0.198512 0.101392 0.054515 0.131608 0.161552 0.095910 -0.159011 -0.134874 -0.134192 -0.014030 -0.070583 -0.130970 -0.129144 -0.058913 0.065486 0.203324 -0.246748 0.120154 0.163085 -0.105421 -0.257025 0.166056 0.102736 0.104905 -0.178571 -0.030443 0.046808 0.168799 0.209730 -0.062060 0.024986 0.054099 -0.106617 0.020960 0.031387 0.055065 -0.011974 -0.032640 0.058886 -0.057043 -0.072545 -0.274134 0.059810 -0.159972 -0.134374 0.094097 -0.304806 0.000924 0.127966 -0.010122 -0.003705 0.092004 0.023148 0.079308 0.040143 0.194034 0.330969 0.175135 0.166802 0.024147 0.073491 0.158847 0.151880 0.128883 0.038734 -0.061633 -0.161660 -0.054645 -0.434593 -0.064534 -0.275986 0.060863 0.144474 -0.046211 0.135502 -0.161213 0.171898 -0.147098 0.000644 0.078862 0.011887 -0.022825 -0.163508 -0.080901 0.103671 -0.161859 -0.070730 0.059539 -0.255369 -0.001575 0.079412 -0.151425 -0.247861 0.035852 -0.004009 -0.012294 -0.243795 -0.094247 -0.193641 -0.105025 0.134214 -0.059764 0.157212
CP014197.1 0.316879 0.017440 0.051894 -0.017718 -0.060000 0.164769 0.048143 -0.146292 -0.073003 -0.225021 0.041879 -0.122199 0.079510 0.005986 -0.029306 -0.207091 0.112930 -0.079837 -0.211665 -0.097440 0.244716 0.095085 0.184562 -0.077339 0.142831 -0.019027 0.061696 -0.184270 0.164276 0.379881 0.027177 0.022412 -0.104497 -0.079719 -0.094926 -0.065592 -0.122658 -0.073799 0.281267 -0.018914 -0.041886 -0.088510 0.280163 0.295385 -0.185442 -0.307838 0.058203 -0.160577 0.066262 -0.088767 0.085540 0.007264 0.003874 -0.023310 -0.074730 -0.181894 -0.175251 -0.185210 0.032139 0.133873 0.268769 0.109134 0.164009 0.121731 0.112845 -0.037583 -0.274956 -0.010531 0.068618 -0.002664 -0.128780 -0.213038 0.140988 0.128619 0.064812 0.181427 0.050052 0.085129 -0.316528 0.077844 -0.135798 0.174749 0.115372 0.281749 -0.128107 -0.059539 0.221787 0.146680 0.145255 0.106386 0.010187 0.082682 -0.204168 -0.137692 0.183399 -0.269656 0.059909 -0.107468 0.075707 -0.119292 -0.196531 0.022586 -0.039527 0.103326 0.038438 0.122491 -0.122748 -0.075512 0.051139 0.015286 -0.183800 -0.208896 0.155087 -0.165938 0.302509 0.010449 -0.166781 0.016595 0.104229 -0.364044 -0.033453 -0.249332 -0.105710 -0.112836 -0.166263 0.284968 -0.094470 0.003519
CP014488.1 0.188786 0.180740 0.062662 0.112556 0.161826 -0.035427 0.196125 -0.059321 -0.216310 -0.156760 0.050128 0.105219 0.010282 0.093742 -0.077471 0.005945 0.040220 -0.029937 -0.093865 -0.044084 0.048341 0.068246 0.002902 0.066975 0.069958 -0.131337 0.071739 -0.053929 -0.049631 0.105502 0.068565 -0.115522 -0.035259 -0.116737 0.011888 -0.058759 -0.071282 -0.078612 0.071941 -0.001431 0.085993 -0.206082 0.188354 -0.004570 -0.165173 0.010607 0.064371 0.145132 0.174572 -0.119826 0.008429 0.095289 0.063449 0.173376 -0.099903 -0.020031 -0.051678 -0.076814 -0.049615 0.101568 0.027202 -0.010883 0.128279 0.026472 0.004815 -0.035514 -0.113806 0.011989 -0.059659 0.008167 0.059362 -0.143179 -0.059260 0.032857 -0.139618 0.007674 0.180521 -0.004287 -0.048875 0.121304 0.101582 0.160214 0.052831 0.148760 -0.021415 -0.009864 0.134360 0.077655 0.037004 0.015485 -0.035228 0.045345 -0.141220 -0.275814 0.106463 -0.273330 0.120363 0.002599 0.015835 0.087298 -0.186649 0.098258 -0.106962 0.061213 0.006406 0.022576 -0.007082 -0.178821 0.088093 -0.064085 -0.035588 -0.039350 0.147751 -0.032299 0.039197 0.067562 -0.139099 0.067824 -0.013794 -0.077700 -0.012257 -0.056081 -0.020712 -0.005888 -0.192554 0.153589 0.000506 0.038011
CP013029.1 0.059236 0.311889 0.046643 0.047082 0.220301 -0.126499 0.202382 -0.022068 -0.250251 -0.313984 0.104300 0.010145 -0.126530 0.128755 -0.129158 0.044669 0.030043 0.027358 -0.092857 -0.114635 -0.071220 0.025195 -0.045744 0.109108 -0.007325 -0.329113 0.121047 -0.034513 -0.100338 0.089058 0.120325 -0.174433 0.084817 -0.139984 0.069617 -0.085908 -0.026374 -0.064005 0.056000 -0.082281 0.127226 -0.109642 0.094507 0.039092 -0.287974 0.043403 0.192361 0.115366 0.311212 -0.104189 -0.036543 0.120279 0.080117 0.308592 -0.019414 0.048602 -0.151813 0.022316 0.062643 0.068861 -0.121831 0.103688 0.068762 0.014275 0.052803 0.046882 -0.150229 -0.035493 -0.081295 -0.125743 0.098608 -0.291203 -0.049907 -0.020664 -0.234259 0.024864 0.178646 0.076916 0.000204 0.212466 -0.002873 0.171229 0.062119 0.105101 -0.061067 -0.017575 0.172260 -0.122038 -0.067300 -0.086246 0.103828 -0.007677 -0.150359 -0.275417 0.160303 -0.214189 0.152181 0.203476 -0.117166 0.077580 -0.157634 0.197163 -0.081261 0.016875 0.028909 0.090549 0.205499 -0.126230 0.087670 0.021258 0.051810 -0.014147 0.079519 -0.005232 0.062488 0.035780 -0.157144 0.130739 -0.016674 -0.036019 -0.037884 -0.112598 0.071360 -0.114322 -0.334888 0.189211 0.000317 -0.103710
CP011495.1 -0.062538 0.154797 0.045247 0.126795 0.091939 -0.029908 0.301888 -0.141833 -0.188352 -0.175657 0.061335 0.060556 0.092418 0.121056 -0.042354 -0.138688 0.066789 -0.125549 -0.040908 0.097978 0.014601 0.020447 0.004565 0.088329 0.022018 -0.249568 0.173544 -0.071872 -0.169238 0.016312 -0.114150 -0.216546 -0.035133 -0.085335 0.009579 -0.040139 -0.024363 -0.248067 0.035977 0.053940 0.072464 -0.213660 0.229800 0.092601 -0.145767 0.163363 0.052235 0.197840 0.330358 -0.064625 -0.130931 0.110456 0.089127 0.096182 0.097981 -0.024342 -0.021303 -0.065878 -0.016968 0.128151 0.014706 0.068610 0.188044 0.084747 0.197376 -0.052102 0.052458 0.022602 0.094635 0.022800 0.182053 -0.269879 -0.023142 0.066194 -0.126555 -0.098210 0.049815 0.011314 0.004897 0.065453 -0.063446 0.150141 0.005546 0.121638 -0.061025 0.011000 0.091509 -0.084093 0.047035 -0.065959 0.074078 0.052984 -0.139959 -0.242235 0.183864 -0.276303 0.159816 -0.116768 -0.080955 0.074121 -0.157011 0.068524 -0.177377 0.015000 0.028500 0.117365 0.103487 -0.175040 0.102577 -0.040104 -0.166481 -0.015268 0.065461 -0.054232 0.027621 0.129222 -0.177338 0.007710 -0.002302 -0.158329 -0.022773 -0.051602 -0.084233 -0.040304 -0.244916 0.078348 -0.082256 0.056162
CP015138.1 0.147297 0.172540 0.026942 0.078712 0.137343 0.004598 0.199882 -0.038288 -0.173044 -0.097252 0.019342 0.094485 -0.019184 0.054079 -0.134357 -0.072652 0.062464 -0.119743 -0.019233 -0.084045 0.093281 0.080987 0.091490 0.130134 0.112522 -0.170296 0.050821 -0.019960 -0.017644 0.094015 -0.026363 -0.090727 -0.115922 -0.160915 -0.027437 0.008653 -0.044222 -0.037402 0.090621 0.038589 0.098377 -0.242219 0.154168 0.161145 -0.069489 -0.074350 0.050173 0.099618 0.104402 -0.054077 0.009574 0.032447 0.035670 0.156341 -0.074431 -0.050296 -0.108730 -0.077179 -0.011370 0.162465 0.046901 0.035469 0.074735 0.077477 -0.044523 -0.000420 -0.117887 0.051490 0.007883 -0.062563 0.037397 -0.179096 0.036833 0.053122 -0.007349 0.007357 0.113229 0.004144 -0.084086 0.057666 0.015680 0.192997 0.051176 0.172684 -0.039169 -0.017858 0.170567 0.010095 0.111734 0.041394 -0.009468 0.000728 -0.075136 -0.268331 0.069395 -0.239588 0.075955 0.028911 0.031893 -0.052254 -0.191072 0.085811 -0.059693 0.017168 0.004622 0.081814 -0.106673 -0.149847 0.076457 0.026952 -0.059669 -0.072614 0.081282 -0.079975 0.107501 -0.002823 -0.150922 -0.000946 0.037541 -0.113497 -0.007854 -0.166565 -0.088215 -0.069824 -0.114576 0.129098 -0.084679 0.070364
CP015240.1 0.207335 0.206998 0.141778 0.098749 0.147256 -0.035801 0.149381 -0.018329 -0.167612 -0.194168 -0.004120 0.054040 0.009137 0.115606 -0.103208 -0.023942 0.092917 -0.094951 -0.132782 -0.102851 0.078722 0.135719 0.084406 0.118999 0.031451 -0.157304 0.048767 -0.122615 0.038674 0.121413 0.033504 -0.056884 -0.037761 -0.126258 0.020550 -0.051042 -0.017615 -0.129375 0.131033 0.051694 0.067554 -0.197074 0.150064 0.138075 -0.144420 -0.077404 0.065475 0.063186 0.085256 -0.106610 0.109530 0.017532 0.113742 0.100246 -0.031909 0.019583 -0.071973 -0.088736 0.004647 0.099700 0.016112 0.053954 0.104051 0.101706 -0.040431 0.006985 -0.179755 0.010680 0.011781 -0.018277 0.072139 -0.178424 0.032709 0.029006 -0.067842 0.054868 0.212564 0.032903 -0.132813 0.109615 -0.025267 0.147706 0.041584 0.200761 -0.054779 0.008751 0.163920 -0.032851 0.059885 0.057293 -0.008891 0.044331 -0.093349 -0.227247 0.066235 -0.294874 0.060562 0.041035 0.045602 0.064817 -0.145110 0.148868 -0.053853 0.017172 0.076082 0.111928 -0.001358 -0.124064 0.080974 -0.073759 -0.001422 0.026611 0.116214 -0.068154 0.090200 0.032576 -0.115296 -0.039508 0.012976 -0.126072 -0.070893 -0.061302 -0.030097 -0.010569 -0.143887 0.131358 -0.096961 0.019303
CP010315.1 0.250126 0.164528 0.152720 0.117268 0.157675 -0.038083 0.175263 0.025448 -0.138411 -0.156368 -0.010034 0.065123 0.064527 0.083593 -0.106044 -0.009406 0.107317 -0.072476 -0.077933 -0.069458 0.104563 0.097042 0.130309 0.069482 0.064616 -0.106707 0.031261 -0.101290 0.032084 0.146033 -0.003095 -0.073105 -0.096436 -0.090735 -0.007356 -0.088932 -0.079098 -0.151582 0.096959 0.068545 0.057865 -0.246397 0.199302 0.156278 -0.063701 -0.120865 0.061855 0.087969 0.061346 -0.099648 0.070155 0.040183 0.073117 0.109120 -0.054164 0.001359 -0.035899 -0.124821 -0.012324 0.112504 0.076288 0.041118 0.093616 0.124631 -0.036544 -0.006276 -0.143454 -0.011556 -0.011616 0.003799 0.055747 -0.206276 0.061798 0.091178 -0.026386 0.012822 0.193058 0.007722 -0.136695 0.045501 0.038554 0.151686 -0.003187 0.190385 -0.050855 -0.006045 0.118548 0.082001 0.035546 0.069198 -0.030868 0.016883 -0.101041 -0.221000 0.073175 -0.305879 0.055105 -0.026346 0.022301 0.078093 -0.158420 0.117126 -0.105251 0.026054 0.108958 0.112944 -0.030229 -0.133089 0.004847 -0.064207 -0.083561 0.013059 0.104880 -0.112811 0.054745 0.110108 -0.119943 -0.047832 0.005592 -0.138520 -0.107801 -0.078155 -0.041076 0.012960 -0.191320 0.058554 -0.093162 0.087699
CP011416.1 0.198263 0.179142 0.103950 0.043561 0.143601 -0.031430 0.143817 -0.012514 -0.186239 -0.239002 0.129603 0.050988 0.032137 0.074032 -0.021238 -0.009605 0.096175 -0.013913 -0.140999 -0.064195 0.077711 0.117752 0.073009 0.029460 0.035479 -0.137940 0.070456 -0.140151 -0.045494 0.157926 0.026564 -0.040302 -0.024048 -0.095793 0.006915 -0.084079 -0.119062 -0.173056 0.137165 -0.018570 0.024946 -0.138536 0.198562 0.133200 -0.183091 -0.084673 0.090366 0.073983 0.116823 -0.150186 0.068956 0.088775 0.034952 0.104525 -0.019951 -0.041953 -0.103834 -0.057326 0.033260 0.112200 0.064386 0.073378 0.104848 0.099027 -0.004651 -0.000268 -0.174987 0.000460 0.032728 -0.034426 0.039785 -0.165018 0.037280 0.043659 -0.068787 0.009248 0.112798 0.097931 -0.111517 0.128641 -0.079362 0.100647 0.005391 0.174007 -0.067475 -0.008075 0.136856 -0.018635 0.069946 0.008759 0.012220 0.048984 -0.113450 -0.160584 0.160391 -0.289191 0.042170 -0.013311 -0.039097 0.057335 -0.091807 0.147226 -0.082549 0.016333 0.072127 0.140178 0.047618 -0.118106 0.089226 -0.030473 -0.068090 0.037728 0.113649 -0.053988 0.056757 0.056741 -0.138819 0.060125 0.062795 -0.138118 -0.101093 -0.079352 0.001552 -0.001082 -0.244762 0.133379 -0.050439 0.040282
CP011324.1 0.090876 -0.151458 -0.119121 0.049313 -0.201363 0.084514 0.191284 -0.245904 -0.227085 -0.199701 -0.063220 0.098312 0.091235 0.193339 -0.023930 -0.161437 0.152157 -0.135136 -0.198079 -0.042122 0.158467 -0.076132 0.130208 -0.001863 0.109360 0.000983 0.061770 0.012009 0.036214 0.246984 -0.030609 -0.189067 -0.044167 -0.270169 0.010338 0.042244 0.089749 0.019637 0.082426 0.058092 -0.004346 -0.259598 0.300831 0.183366 0.015597 0.093127 0.113240 -0.068789 0.202481 -0.078367 -0.106222 -0.031515 0.045691 -0.003310 -0.171865 -0.046808 -0.078225 -0.314944 -0.191340 0.156705 0.200064 0.049070 0.131286 0.060927 0.124558 -0.035039 -0.091654 0.045875 0.110479 0.087342 -0.055786 -0.057482 -0.005357 0.078405 -0.080194 0.080102 0.035922 0.015178 -0.195487 0.150226 0.038064 0.025127 0.130697 0.326187 -0.218438 -0.015545 0.283116 -0.008425 0.273056 0.072636 0.042816 0.117830 -0.260553 -0.292321 0.167776 -0.326743 0.147462 -0.042253 0.091929 -0.105505 -0.288347 0.075313 -0.086838 0.058520 0.011603 -0.090540 -0.138494 -0.125391 0.168824 -0.050980 -0.232431 -0.291911 0.228706 0.012397 0.304347 -0.035246 -0.218484 0.019442 0.047385 -0.313099 0.111529 -0.137438 -0.067846 -0.069256 -0.012366 0.299928 -0.111559 0.145607
CP013837.1 0.150043 0.191325 0.091406 0.088585 0.132143 -0.037447 0.108489 -0.017469 -0.110763 -0.114367 -0.023390 0.045264 0.035700 0.087220 -0.086458 -0.045538 0.084229 -0.095747 -0.042147 -0.070963 0.057584 0.083102 0.112455 0.096830 0.052891 -0.163857 0.042467 -0.104113 0.000095 0.124375 0.005324 -0.105306 -0.043602 -0.101286 0.006345 -0.020115 -0.076795 -0.191481 0.080543 0.047366 0.092029 -0.181183 0.152578 0.191109 -0.100841 -0.114619 0.081894 0.081224 0.117854 -0.110218 0.050368 0.039157 0.095865 0.081572 0.015270 0.009677 -0.057793 -0.103044 0.065114 0.089938 0.062366 0.062429 0.077029 0.114455 -0.035036 0.003477 -0.186753 0.007928 0.017441 -0.044855 0.097034 -0.261160 0.037243 0.071260 -0.058325 0.022355 0.129182 0.058844 -0.044670 0.077392 -0.028994 0.167368 0.011968 0.200922 -0.070501 -0.005024 0.166916 -0.031145 0.096858 0.027559 0.037406 -0.019049 -0.058983 -0.236280 0.073202 -0.284453 0.020673 0.011528 -0.051018 0.076909 -0.116210 0.170584 -0.081260 0.020226 0.103129 0.111712 0.001936 -0.119262 0.073516 -0.018385 -0.090419 0.016236 0.095467 -0.134949 0.061118 0.049188 -0.105310 -0.085217 0.061970 -0.138991 -0.101981 -0.121159 -0.062058 -0.046683 -0.191661 0.118877 -0.080634 0.056541
NC_004584 0.292080 0.151682 0.239792 0.153742 0.091208 -0.005920 0.015039 -0.024814 -0.033225 0.108373 0.028819 0.394126 0.356734 0.022153 0.040956 0.243557 0.015010 0.064796 -0.202781 0.159838 0.032465 0.092596 0.121632 0.077495 0.092200 -0.054738 0.056501 -0.081373 -0.367957 0.246761 0.342186 -0.196894 -0.288977 -0.129668 -0.124706 0.140952 -0.359884 -0.294147 0.219468 -0.143263 0.091916 -0.095640 0.508052 -0.036372 0.026575 -0.062359 -0.035082 0.307282 0.006898 0.024440 0.049567 -0.035900 -0.190738 0.022552 -0.280701 -0.084420 -0.180790 0.058581 0.159098 0.378096 0.439719 -0.394829 0.178058 0.237037 -0.222908 -0.198177 -0.181879 0.142796 0.066337 0.022306 -0.012688 -0.018830 -0.087536 0.111284 -0.172284 0.005930 0.009845 0.077385 -0.050013 0.095497 0.216956 0.167797 0.069257 0.279394 0.144695 -0.037511 0.328104 0.507656 0.312755 -0.011877 -0.171352 0.173400 0.099290 -0.375325 0.109737 -0.441457 0.024865 -0.079387 0.068892 0.124944 -0.047182 -0.058779 -0.229657 0.000285 -0.174527 0.007941 -0.414894 -0.130960 0.301107 0.083401 0.062693 -0.122144 0.546918 0.203501 0.140433 -0.171244 -0.078934 -0.014806 0.375773 -0.078321 0.036392 -0.135237 -0.099408 -0.018445 -0.171259 0.168242 0.159183 0.354092
NC_003291 0.294728 -0.108798 -0.010288 0.073310 -0.232125 0.250924 0.117094 -0.228472 -0.190368 -0.347607 -0.015417 -0.124982 0.090176 0.120975 0.036530 -0.356282 0.158171 -0.146803 -0.358987 -0.117904 0.343505 -0.003374 0.183643 -0.145463 0.192392 0.014825 0.133544 -0.075576 0.241984 0.438778 -0.069083 -0.000989 -0.086009 -0.188856 -0.075562 -0.153358 0.022992 0.024034 0.251889 0.066399 -0.113555 -0.122999 0.356418 0.267240 -0.112287 -0.221811 0.063306 -0.223751 0.112695 -0.206118 -0.001234 -0.020383 0.106426 -0.104394 -0.101309 -0.126229 -0.118000 -0.314869 -0.147127 0.044386 0.304247 0.137824 0.155967 0.084001 0.247545 -0.054063 -0.283280 -0.008308 0.120002 0.017357 -0.205515 -0.064450 0.149883 0.107448 -0.038638 0.115355 -0.025159 0.069910 -0.299777 0.154352 -0.095030 0.034627 0.175453 0.265105 -0.162438 0.005874 0.230762 0.033708 0.210965 0.173872 -0.010711 0.077071 -0.358837 -0.208128 0.241382 -0.370042 0.166581 -0.068254 0.177932 -0.119294 -0.243203 -0.014360 -0.115423 0.107766 0.002488 -0.019587 -0.110669 -0.014497 0.030666 -0.033878 -0.269134 -0.285557 0.190771 -0.058896 0.363319 -0.022267 -0.241940 0.017954 0.079605 -0.405537 0.090233 -0.205867 -0.148691 -0.119204 0.025843 0.345048 -0.122168 0.060385
CP012870.1 0.076059 0.136415 0.278675 0.103538 0.111488 -0.121032 0.353848 0.098034 -0.070843 -0.101073 0.060625 0.154989 0.152518 -0.028264 -0.154279 -0.015300 0.077743 -0.039854 -0.109546 0.152668 -0.072280 -0.097588 0.240435 0.216683 0.017822 -0.315624 0.276245 -0.002362 -0.229888 -0.024389 -0.286881 -0.260566 -0.157138 -0.176393 0.054844 -0.132193 -0.084642 -0.315978 0.029017 0.076728 -0.037629 -0.201704 0.333575 0.329487 -0.021417 0.090459 0.089603 0.180891 0.274681 -0.020465 -0.253651 0.010591 -0.067037 0.170862 0.254288 0.013782 -0.089758 0.054786 0.063074 0.417753 -0.116771 0.093452 0.088823 0.341726 0.186754 0.154751 -0.025237 0.104755 0.344291 -0.039240 0.256301 -0.343675 0.271734 0.083095 0.163487 -0.128906 0.021972 0.050254 -0.238063 0.000405 -0.135500 0.099584 0.075889 0.101818 0.028109 0.152776 0.089385 0.037145 0.008591 -0.131817 -0.038450 0.102184 -0.187192 -0.247958 0.184629 -0.220410 0.068189 -0.043097 0.032281 0.165804 -0.176049 0.070207 -0.220352 -0.099289 -0.053047 0.194358 0.163257 -0.085375 -0.144718 0.145806 -0.081328 -0.055354 0.051204 0.105723 0.041563 0.286538 -0.166570 0.013078 -0.023975 -0.092104 -0.012432 -0.155358 0.080307 -0.029488 -0.248111 -0.190232 -0.214035 0.312166
NC_020202 0.380445 0.350028 0.368016 0.081715 0.390520 0.036339 0.453479 0.008287 -0.384938 -0.216249 0.330656 0.300701 -0.285810 -0.184553 -0.169046 0.135410 0.169298 0.179032 -0.064823 -0.088144 0.132158 0.112190 0.189076 0.299870 -0.079180 -0.173349 0.294982 -0.075645 -0.165617 0.114839 -0.104425 -0.121688 -0.103227 0.031051 -0.043638 -0.246545 -0.046355 -0.187482 0.019364 -0.141506 -0.165942 -0.092342 0.031982 0.033381 0.114629 -0.205409 -0.010651 0.016883 0.067911 -0.084268 -0.034193 -0.109837 0.014075 0.315447 -0.093209 0.016174 -0.086364 0.001263 0.042390 0.260549 -0.088756 0.065934 0.233882 0.179737 -0.182574 0.350810 -0.261373 0.235811 0.143021 -0.213978 -0.016858 -0.345100 0.087402 -0.057180 -0.028293 0.121295 0.175926 -0.010887 -0.375798 -0.019461 -0.105513 -0.039084 0.214115 -0.071734 -0.303505 -0.017114 0.145629 0.076223 0.043953 -0.093833 -0.139830 -0.204351 -0.119220 -0.385439 0.236632 -0.092584 0.110733 0.119727 0.054324 0.013000 -0.179692 0.226219 -0.099496 -0.054317 -0.050977 -0.008636 0.253569 0.048271 -0.207573 0.243314 0.035974 0.028014 -0.026075 -0.102729 0.289365 -0.012238 -0.093491 0.055298 0.080560 0.025066 -0.211581 -0.101677 0.132324 0.169021 -0.308411 0.135909 -0.009054 0.172850
CP013253.1 -0.092872 0.173864 0.028732 0.215754 0.029160 0.073069 0.347975 -0.275675 -0.151219 -0.032359 0.054921 0.227206 0.212673 0.109694 -0.020542 -0.283365 0.050673 -0.251472 -0.095726 0.143991 0.097687 0.094776 0.064587 0.251886 0.167308 -0.239516 0.273379 -0.003454 -0.245625 0.001760 -0.183976 -0.141061 -0.252454 -0.032132 -0.042193 0.077235 -0.100723 -0.278318 0.063471 0.080938 0.054150 -0.242702 0.324463 0.056386 -0.053630 0.144530 -0.133106 0.261271 0.241151 -0.044901 -0.128904 0.086795 0.122973 -0.023288 0.039556 -0.137187 -0.097306 -0.013148 -0.103120 0.242370 0.133824 -0.059886 0.252989 0.124952 0.167024 -0.158730 0.062594 0.157256 0.207191 0.052192 0.188787 -0.150431 -0.021776 0.125482 -0.064368 -0.197430 -0.153218 0.044678 0.056791 -0.062819 -0.054974 0.150686 0.052903 0.015334 0.074969 0.128650 0.165829 0.008291 0.219079 -0.050216 -0.082074 0.035955 -0.066111 -0.311473 0.208656 -0.288437 0.254675 -0.266624 -0.009833 -0.060121 -0.137423 -0.082600 -0.270714 -0.120227 -0.150803 0.118279 -0.149603 -0.169263 0.148693 0.041529 -0.159541 -0.082349 0.148381 -0.007944 0.015130 0.021036 -0.264866 -0.009363 0.134586 -0.137201 0.096530 -0.103074 -0.274511 -0.090995 -0.021740 0.079470 -0.092762 0.275436
CP015241.1 0.150737 0.200892 0.150013 0.134059 0.155416 -0.028117 0.202568 -0.019935 -0.169734 -0.180811 -0.027939 0.056472 0.025803 0.106762 -0.110431 -0.023853 0.105208 -0.093963 -0.083327 -0.067478 0.078826 0.078408 0.086598 0.107292 0.026828 -0.149377 0.065543 -0.095018 0.022825 0.120864 0.013057 -0.101519 -0.055753 -0.084042 0.003706 -0.069776 -0.021295 -0.142612 0.075626 0.058607 0.062609 -0.200061 0.147739 0.107609 -0.067204 -0.070839 0.062283 0.080558 0.113083 -0.073037 0.058394 -0.001267 0.112021 0.118528 -0.041870 0.044684 -0.039541 -0.105162 0.001928 0.080514 0.043979 0.029693 0.100753 0.107220 -0.019313 0.001503 -0.143451 -0.002322 -0.009379 -0.028207 0.069735 -0.242047 0.024142 0.069020 -0.084786 0.014714 0.179519 0.001087 -0.095192 0.060991 0.028235 0.136731 0.025021 0.156916 -0.082410 -0.011652 0.142064 -0.006876 0.034654 0.031717 0.013792 -0.015901 -0.091264 -0.254242 0.070250 -0.293576 0.088180 0.033115 0.025635 0.072666 -0.154995 0.128630 -0.105033 0.017897 0.103336 0.097677 0.018377 -0.101056 0.029560 -0.038497 -0.051515 -0.002872 0.107595 -0.103723 0.085440 0.043571 -0.135658 -0.087080 0.023818 -0.137204 -0.068450 -0.084237 -0.057883 -0.015638 -0.187222 0.093048 -0.113315 0.056161
CP013663.1 0.265070 0.182083 0.114074 0.047229 0.144252 -0.012723 0.184829 -0.068049 -0.201175 -0.145566 0.029139 0.113232 0.004999 0.070837 -0.078738 -0.006583 0.069988 -0.066047 -0.083630 -0.069502 0.063718 0.087766 0.101266 0.113318 0.043635 -0.105803 0.016880 -0.133541 -0.008641 0.085661 0.007201 -0.085397 -0.019601 -0.126909 0.027253 -0.002143 -0.042073 -0.154468 0.103041 0.043256 0.058243 -0.216304 0.165781 0.162348 -0.112236 -0.054921 0.055174 0.058905 0.124266 -0.111108 0.045112 0.046652 0.056162 0.093178 -0.018971 -0.023641 -0.075100 -0.121073 0.005730 0.127522 0.017644 0.065336 0.123183 0.085933 -0.060218 0.058329 -0.179128 0.037499 0.047958 0.041150 0.102840 -0.165186 0.015812 0.017237 -0.009744 0.091482 0.193934 0.027823 -0.135297 0.084020 -0.019887 0.130394 0.030191 0.224655 -0.087578 -0.001400 0.163151 0.002469 0.100109 0.033965 -0.006456 0.049721 -0.094444 -0.210746 0.094608 -0.239670 0.014322 -0.033595 0.008667 0.070683 -0.158271 0.149527 -0.024098 0.053796 0.044972 0.049224 -0.017851 -0.150506 0.095083 -0.074458 -0.045855 -0.000040 0.097330 -0.078015 0.094354 0.070687 -0.076380 -0.009465 0.004383 -0.146518 -0.094229 -0.049073 -0.006646 0.034233 -0.156412 0.135110 -0.053205 0.059419
CP012635.1 -0.189997 0.331021 0.267216 0.217889 0.180745 0.177792 0.378782 -0.313566 -0.252188 -0.085057 0.144450 0.130730 0.192627 0.157587 0.063486 -0.257237 0.086749 -0.290570 -0.126649 0.247805 0.039989 0.146026 -0.038486 0.108828 -0.071895 -0.347657 0.323336 -0.316321 -0.386701 -0.069662 -0.259333 -0.282905 -0.071623 -0.109709 -0.067987 0.054164 0.066438 -0.427041 0.172925 0.017409 -0.005890 -0.203754 0.166707 -0.061057 0.019151 0.217997 -0.202499 0.336055 0.351052 0.002341 -0.058234 0.025290 0.150488 -0.025719 0.218136 0.078179 -0.077402 0.075489 0.112860 0.121328 0.084544 -0.059888 0.377367 0.120289 0.111004 -0.066895 0.147397 0.152607 0.294291 -0.061360 0.271874 -0.307124 -0.148645 0.096412 -0.316183 -0.091142 -0.008711 -0.118074 0.075797 0.104688 -0.194765 0.061319 -0.026935 0.031817 -0.151180 -0.082343 0.095906 -0.305205 0.187148 -0.133742 0.093023 0.039307 0.083838 -0.344143 0.201677 -0.387111 0.142431 -0.256578 0.005216 0.073462 -0.028836 0.025768 -0.155732 -0.008621 0.106505 0.189806 0.094042 -0.139849 0.235314 -0.003273 -0.175668 0.132904 0.074520 -0.021958 0.127199 -0.131142 -0.190156 -0.204668 0.179487 -0.184686 0.006071 -0.016134 -0.375114 0.106591 -0.172154 0.111454 -0.119697 0.024403
CP015995.1 0.182124 0.190204 0.170904 0.083665 0.165944 0.018765 0.165914 0.002685 -0.158388 -0.153797 0.041680 0.037240 0.030583 0.069309 -0.072471 -0.043847 0.059367 -0.086432 -0.085720 -0.034900 0.087148 0.096596 0.092412 0.074229 0.039473 -0.141445 0.076085 -0.171708 -0.011781 0.084116 -0.079512 -0.066087 -0.039383 -0.152349 -0.003390 -0.070289 -0.028186 -0.141938 0.122532 0.049151 0.035110 -0.223308 0.152764 0.148700 -0.096815 -0.077882 0.022380 0.096531 0.111967 -0.112726 0.073598 0.045107 0.068554 0.087178 0.039181 0.025584 -0.062650 -0.073680 0.001890 0.109077 0.005689 0.076296 0.117905 0.131171 -0.003672 0.038558 -0.138642 0.033219 0.074959 -0.024164 0.086905 -0.208009 0.051894 0.039192 -0.033726 0.010706 0.182230 -0.017085 -0.134982 0.090658 -0.055851 0.122886 0.006816 0.176126 -0.076490 -0.036951 0.112094 -0.059634 0.081632 0.028412 0.008790 0.032297 -0.080558 -0.207700 0.095613 -0.310927 0.020253 -0.033661 0.060112 0.078668 -0.157886 0.139064 -0.063386 0.057625 0.112589 0.149791 -0.000003 -0.144472 0.068187 -0.056639 -0.047256 0.053710 0.087154 -0.095472 0.081687 0.078612 -0.138173 -0.038877 0.024952 -0.138859 -0.084381 -0.070648 -0.091288 0.072906 -0.166762 0.057774 -0.122821 0.030321
CP014522.1 0.119214 0.147793 0.019456 0.057439 0.121566 0.048100 0.200815 -0.049351 -0.193480 -0.065394 0.034889 0.140572 -0.008906 0.067220 -0.107146 -0.066001 0.039848 -0.132424 -0.044088 -0.068766 0.103605 0.082731 0.071364 0.159177 0.129683 -0.146874 0.061929 -0.035583 -0.055282 0.059710 -0.063142 -0.068140 -0.126986 -0.225396 -0.024469 0.046551 -0.026381 0.009737 0.093935 0.031897 0.091325 -0.294334 0.175979 0.105160 -0.031787 -0.021368 -0.008924 0.140471 0.096215 -0.071493 0.022612 0.045378 0.019902 0.136972 -0.103973 -0.041641 -0.120697 -0.072493 -0.080709 0.190974 0.033729 -0.002375 0.094443 0.075385 -0.056058 -0.008357 -0.107473 0.094242 0.045716 -0.036777 0.041342 -0.102205 -0.001410 0.031932 -0.019362 -0.023904 0.115111 -0.022095 -0.080459 0.063971 0.042704 0.165665 0.049500 0.164390 -0.020028 -0.017506 0.193740 -0.006051 0.183167 0.039239 -0.042321 0.027622 -0.068444 -0.290820 0.083575 -0.288987 0.090059 -0.005086 0.094604 -0.068997 -0.214794 0.061279 -0.057795 0.011476 -0.020831 0.081767 -0.185613 -0.180403 0.145006 0.005455 -0.014740 -0.074900 0.134191 -0.039474 0.119347 -0.039637 -0.189537 0.033834 0.062123 -0.094888 0.031844 -0.144453 -0.142945 -0.011658 -0.042451 0.123913 -0.086414 0.103361
CP015350.1 0.302660 0.109201 0.076132 0.253376 -0.040674 0.240069 0.223392 -0.266516 -0.223785 -0.286623 0.177018 -0.054330 0.089240 0.063587 0.050318 -0.400353 0.082770 -0.126873 -0.408204 -0.091849 0.437518 0.311719 0.042428 0.047462 0.198135 -0.058195 0.299189 -0.097517 0.119790 0.337644 -0.073727 0.129120 -0.230828 0.019413 -0.156824 -0.226146 -0.067925 0.006181 0.312429 0.038356 -0.129027 -0.070612 0.302794 -0.026997 -0.302946 -0.180447 -0.133541 -0.048551 0.058133 -0.248561 0.101395 0.049341 0.261672 -0.132260 -0.087619 -0.215997 -0.089125 -0.134934 -0.245729 0.099085 0.236944 0.027575 0.329110 0.031046 0.237980 -0.183062 -0.175881 0.140519 0.086981 0.015928 -0.191787 0.029664 0.065292 0.036478 -0.123582 0.015387 0.035695 0.081945 -0.269581 0.119814 -0.080566 0.113214 0.295296 0.054641 0.061110 0.120953 0.194125 0.137514 0.205454 0.213775 -0.279061 0.093239 -0.357445 -0.297126 0.248703 -0.399626 0.313301 -0.171123 0.293872 -0.106054 -0.215569 -0.103010 -0.199239 0.031018 -0.200836 0.049695 -0.138809 -0.098076 0.070583 -0.102999 -0.088194 -0.153726 0.211269 -0.031832 0.211078 -0.037306 -0.297488 0.132192 0.061983 -0.220099 0.143584 -0.107267 -0.204968 -0.069310 0.087363 0.382043 -0.021812 0.092500
NC_004585 -0.032873 0.057483 -0.253677 -0.060528 -0.055836 -0.013809 0.051708 -0.055104 -0.332736 -0.324169 0.210508 0.003343 -0.060717 0.255774 0.074809 0.010481 0.121605 0.073504 -0.213627 -0.153834 -0.061464 -0.173531 -0.046283 -0.251115 0.218397 -0.240463 0.092397 0.087926 -0.194585 0.294155 0.044498 -0.207371 0.200265 -0.496961 0.135166 -0.039591 -0.184230 0.115347 -0.016768 -0.196867 0.157965 -0.222736 0.319010 0.052857 -0.248263 0.130240 0.358271 0.184667 0.430041 -0.323474 -0.122722 0.352008 -0.096589 0.413524 -0.151122 -0.018490 -0.213459 -0.111037 -0.079453 0.010725 0.031308 0.081865 -0.020056 -0.051519 0.158471 -0.100447 -0.140033 -0.155408 -0.083453 -0.180508 -0.034223 -0.138548 -0.170425 0.076269 -0.397458 -0.121558 -0.061192 0.061175 0.178012 0.379308 0.174680 0.007123 -0.063587 0.170628 -0.109953 -0.151616 0.200536 -0.225540 0.076182 -0.127222 0.258655 0.017104 -0.305549 -0.327535 0.374516 -0.459154 0.096256 0.161564 -0.221813 -0.007501 -0.142090 0.244168 -0.128992 0.008718 0.230011 0.007324 0.133028 -0.170158 0.157505 0.047568 -0.259432 -0.146851 0.188178 0.118326 0.005818 0.067234 -0.361018 0.314924 0.092002 -0.129087 0.068583 -0.223149 -0.000063 -0.111667 -0.319561 0.208633 0.001408 -0.054992
NC_006936 0.062385 0.410666 -0.372041 -0.302505 0.191044 -0.116553 0.053041 0.135787 -0.085100 -0.118887 0.413777 -0.179438 -0.042730 -0.036904 -0.128144 -0.172078 -0.010599 -0.126273 -0.014073 -0.132821 0.138801 0.012620 0.015070 -0.089147 0.006952 -0.572138 -0.171630 0.129548 -0.320561 -0.058081 -0.194134 -0.214687 -0.083096 -0.444858 0.043616 0.005901 -0.124430 0.289039 0.373147 0.061939 0.328720 -0.396382 0.194947 0.327592 -0.150823 0.010803 0.196379 0.259968 0.258495 -0.250307 -0.254989 0.393674 -0.211341 0.620197 -0.011756 -0.206121 -0.455507 -0.023400 0.271150 0.308973 0.025850 0.277616 -0.261701 -0.074794 -0.121291 0.032985 -0.135330 -0.219631 -0.011617 -0.257463 0.023306 -0.254023 0.210285 0.156277 -0.036972 -0.021783 0.217638 0.210267 0.026626 0.411176 -0.106641 0.383045 -0.068653 0.270495 0.034956 -0.206685 0.237755 -0.195968 0.124055 0.183858 0.107782 0.059203 -0.118033 -0.354481 0.238148 -0.330876 -0.000979 -0.009396 -0.401363 -0.247798 -0.202038 0.075830 0.061818 -0.029658 0.213318 0.335274 -0.213038 -0.320016 0.170243 0.059130 -0.085648 -0.080766 -0.097956 -0.059335 0.073247 -0.099977 -0.270582 0.448074 -0.096028 -0.256056 0.006410 -0.559431 -0.062830 -0.263659 -0.513027 0.149685 0.070387 -0.113367
CP007393.1 0.227796 0.229265 0.188759 0.065062 0.133921 -0.008602 0.167604 0.016497 -0.173643 -0.215883 0.052916 0.030177 0.070808 0.088136 -0.022041 -0.003582 0.060647 -0.050609 -0.107149 -0.027040 0.069792 0.048342 0.115387 0.003154 0.037351 -0.146344 0.049378 -0.139433 -0.054388 0.115946 -0.044184 -0.073619 -0.020913 -0.126867 0.017098 -0.062937 -0.117327 -0.186759 0.122358 0.014235 0.038331 -0.187497 0.242172 0.204778 -0.109016 -0.076529 0.066616 0.111195 0.126822 -0.108271 0.041861 0.082875 0.009361 0.072641 0.031891 -0.004650 -0.098114 -0.074666 0.049661 0.106880 0.064211 0.073641 0.092252 0.140962 0.019966 0.025886 -0.163408 -0.025624 0.074351 -0.010318 0.074702 -0.203039 0.056920 0.063749 -0.052642 -0.018163 0.109406 0.058481 -0.089296 0.069413 -0.047757 0.088096 -0.067250 0.182825 -0.056018 -0.038110 0.127139 -0.023565 0.056262 -0.001214 0.039063 0.045469 -0.088353 -0.144869 0.151829 -0.304690 0.007349 -0.034619 -0.032793 0.096278 -0.103283 0.115352 -0.093054 0.043691 0.102054 0.140674 0.002876 -0.103628 0.055603 -0.052692 -0.071943 0.040361 0.111087 -0.053925 0.055534 0.105452 -0.113596 0.016043 0.066901 -0.160199 -0.124988 -0.082815 -0.050280 0.027845 -0.236014 0.031253 -0.088849 0.051528
NC_009819 0.471509 0.055509 0.270928 -0.034016 0.054331 0.170997 0.046170 -0.133486 -0.019534 -0.284528 0.056886 -0.163952 0.248297 0.022362 -0.052129 -0.117763 0.151723 -0.067075 -0.187412 -0.069729 0.279488 0.199606 0.304002 -0.138121 0.134475 0.054613 0.022412 -0.490317 0.215301 0.533869 0.072212 0.085351 -0.145062 0.029038 -0.138369 -0.026319 -0.303000 -0.347933 0.403408 -0.035582 -0.068041 -0.140147 0.377926 0.458976 -0.238308 -0.517435 0.042725 -0.204125 0.038449 0.005124 0.285284 -0.014193 -0.084187 -0.106477 -0.038557 -0.220790 -0.239833 -0.188952 0.159555 0.206576 0.404910 0.128793 0.288362 0.277148 0.054325 -0.062093 -0.327221 -0.064456 0.086373 0.101450 -0.100127 -0.369812 0.212545 0.214006 0.193787 0.270253 0.129829 0.106625 -0.480631 -0.022955 -0.226406 0.231326 -0.021527 0.399311 -0.164306 -0.123903 0.232277 0.282974 0.097357 0.101642 0.054480 0.123551 -0.100031 0.013148 0.174655 -0.312945 -0.023022 -0.279784 0.045717 -0.123765 -0.187095 0.079422 -0.015860 0.146787 0.208916 0.334868 -0.139615 -0.108045 0.065855 -0.025259 -0.227316 -0.139851 0.181471 -0.309660 0.296675 0.100189 -0.145754 -0.054519 0.167753 -0.511448 -0.201110 -0.241804 -0.120601 -0.036262 -0.391048 0.205409 -0.174168 -0.037502
NC_009543 -0.093376 0.183026 -0.093689 -0.050434 0.182855 -0.122645 -0.016351 -0.204692 -0.073570 -0.120927 0.144230 0.081554 -0.220275 0.089481 -0.238936 -0.035866 0.140666 -0.128849 0.022200 -0.177145 -0.038574 0.449258 -0.002359 0.495762 -0.082978 -0.406715 0.070408 -0.309341 -0.061869 0.044915 0.309229 -0.110701 0.085034 -0.157361 -0.021595 0.265680 0.080972 -0.261577 0.293874 -0.081643 0.193990 0.039057 -0.147018 0.296733 -0.500686 -0.093768 0.201408 -0.051674 0.255048 -0.012662 0.190080 -0.103076 0.173894 0.125048 0.106283 -0.087571 -0.248507 0.115290 0.348059 0.264875 -0.128902 0.123800 0.180236 0.144669 -0.172768 0.037958 -0.230107 0.253836 0.093030 -0.096976 0.177214 -0.277716 0.023349 -0.179799 0.045419 0.332002 0.290186 0.168076 -0.192915 0.265374 -0.385529 0.448771 0.394512 0.374837 -0.039023 0.077181 0.376715 -0.309747 0.271414 -0.000404 0.115276 0.111193 0.087149 -0.295518 -0.008047 -0.133068 -0.075816 0.213597 -0.013933 -0.173892 -0.084071 0.358736 0.263627 -0.026413 -0.012384 0.267746 0.077567 -0.181021 0.505542 0.103964 0.207453 0.039055 0.035342 -0.067979 0.192635 -0.231217 -0.032513 -0.130617 0.103074 -0.162351 0.000168 -0.166118 0.092198 -0.243115 -0.110079 0.518641 -0.024135 -0.113284
HF572917.2 0.056381 0.148941 -0.101166 0.159562 0.187733 -0.046107 0.052933 -0.010158 -0.056250 0.077731 -0.108324 0.129641 -0.045312 0.013119 -0.200793 -0.214709 0.086897 -0.169299 0.126347 -0.098911 0.084367 0.080145 0.186818 0.218813 0.243716 -0.213464 0.105613 0.032718 0.119549 0.153513 0.058604 -0.136261 -0.133756 -0.148639 -0.035631 0.012240 -0.122049 -0.134296 -0.026408 0.058644 0.211740 -0.237984 0.089488 0.242509 -0.084485 -0.277077 0.156860 0.074465 0.092574 -0.159316 -0.004720 0.022516 0.138425 0.144991 -0.038408 -0.009967 0.003434 -0.091381 0.058635 0.042294 0.090565 0.020074 -0.048787 0.077842 -0.071759 -0.083097 -0.275228 0.092381 -0.094584 -0.169512 0.081397 -0.301157 0.020948 0.131662 0.044165 -0.001493 0.024103 0.073170 0.089152 0.018035 0.093332 0.336883 0.176456 0.187893 0.012421 0.059068 0.203302 0.053807 0.233844 0.031796 -0.020793 -0.179904 0.027798 -0.398959 -0.063230 -0.270420 0.027027 0.131122 -0.084366 0.034362 -0.123985 0.177581 -0.105216 -0.023466 0.112830 0.088807 -0.084684 -0.168776 0.003690 0.160035 -0.174077 -0.068579 0.035170 -0.300748 0.029203 -0.004169 -0.179018 -0.277768 0.119682 -0.040872 -0.011353 -0.302199 -0.165583 -0.231702 -0.084996 0.168018 -0.097917 0.154896
NC_004086 0.157149 0.226894 -0.065688 0.354146 0.333460 -0.060218 0.094851 0.054664 -0.088119 0.165274 -0.252514 0.158787 -0.033648 -0.022578 -0.292301 -0.254392 0.043752 -0.197915 0.245616 -0.136952 0.124527 0.018399 0.261070 0.264868 0.373241 -0.233187 0.103240 0.106750 0.237776 0.204178 0.090040 -0.166927 -0.224261 -0.106256 -0.054356 -0.059016 -0.212242 -0.164845 -0.161794 0.101912 0.308295 -0.334335 0.094944 0.285463 -0.039288 -0.441325 0.182601 0.114399 0.091504 -0.178762 -0.029482 0.053459 0.224871 0.197805 -0.054145 0.021275 0.106937 -0.158765 0.046747 -0.024987 0.155917 -0.019098 -0.122988 0.091137 -0.088781 -0.145698 -0.330792 0.081152 -0.259513 -0.231560 0.104353 -0.466922 0.015266 0.232089 0.043488 -0.061895 -0.003024 0.055744 0.229830 -0.059577 0.304004 0.453810 0.187317 0.196993 0.071503 0.075681 0.197211 0.202423 0.219725 0.057170 -0.048584 -0.342155 0.034705 -0.525193 -0.174066 -0.295653 0.042316 0.200938 -0.110041 0.127333 -0.182985 0.202369 -0.209411 -0.003807 0.131222 0.032976 -0.104702 -0.221046 -0.127343 0.202478 -0.274323 -0.127451 0.022981 -0.470711 -0.038970 0.077158 -0.176981 -0.439448 0.119904 0.014031 -0.039051 -0.394077 -0.245489 -0.328078 -0.102895 0.133804 -0.114117 0.229682
CP012127.1 0.319363 0.079669 0.243249 -0.024659 0.088324 0.086167 0.094060 -0.075753 -0.064248 -0.332950 0.087771 -0.138655 0.243122 0.089939 -0.030483 -0.013345 0.168992 -0.054179 -0.077237 -0.102751 0.265358 0.198874 0.312362 -0.116360 0.056947 0.017932 -0.041452 -0.491833 0.149085 0.444496 0.023353 0.061491 -0.081865 0.064801 -0.088379 -0.003900 -0.275025 -0.419953 0.287273 0.003178 -0.055304 -0.205578 0.293406 0.484181 -0.176157 -0.432673 0.074034 -0.184745 0.072069 -0.019919 0.293619 0.033868 -0.068013 -0.099941 0.009369 -0.169803 -0.205672 -0.244020 0.154087 0.172155 0.343347 0.199229 0.244346 0.273827 -0.004910 -0.038417 -0.280087 -0.111040 0.059656 0.138773 -0.014420 -0.389333 0.185534 0.202475 0.144473 0.179482 0.159860 0.166691 -0.369175 -0.069784 -0.205001 0.154473 -0.136872 0.358226 -0.165752 -0.107368 0.207507 0.136469 0.074749 0.089060 0.110209 0.045686 -0.075576 0.075158 0.158033 -0.296017 -0.038311 -0.286306 -0.103433 -0.117684 -0.154520 0.171887 -0.020606 0.094229 0.304226 0.366365 -0.036638 -0.125890 0.108618 -0.064788 -0.255304 -0.038065 0.111441 -0.342057 0.154547 0.146161 -0.121297 -0.041690 0.144362 -0.505124 -0.299041 -0.180492 -0.094091 0.002881 -0.475026 0.136976 -0.173867 -0.020472
CP011320.1 0.300727 0.331835 0.137816 0.181251 0.080408 0.160760 0.223330 -0.222433 -0.274237 -0.230418 0.199183 -0.021158 0.024003 0.031262 0.047603 -0.291048 -0.015154 -0.058357 -0.295221 -0.061492 0.282551 0.233775 -0.015329 0.072547 0.092867 -0.145450 0.218885 -0.125698 -0.005882 0.164255 -0.095376 0.019838 -0.086699 -0.022261 -0.083246 -0.150826 -0.052702 -0.035029 0.260169 0.009121 -0.036502 -0.063628 0.211709 -0.016332 -0.266282 -0.071986 -0.103312 0.001869 0.150807 -0.259276 0.043257 0.082257 0.204422 -0.039955 0.016131 -0.118686 -0.108417 -0.088116 -0.112846 0.071191 0.099638 0.056756 0.246795 -0.012601 0.154944 -0.059517 -0.212859 0.115668 0.104582 -0.030839 -0.056001 -0.037699 -0.004624 -0.042592 -0.173704 0.076386 0.090012 0.080252 -0.157661 0.145092 -0.103506 0.079179 0.218252 0.057274 0.000846 0.061509 0.192313 -0.009671 0.175576 0.138187 -0.172011 0.038453 -0.228232 -0.272705 0.207466 -0.276212 0.210799 -0.100369 0.123921 -0.004910 -0.138618 -0.036456 -0.087405 0.059786 -0.140472 0.016933 -0.066689 -0.100926 0.095643 -0.097291 0.000824 -0.060970 0.124558 -0.044063 0.189666 -0.061142 -0.183589 0.149238 0.049799 -0.118376 0.048733 -0.071379 -0.142729 -0.011876 -0.015715 0.311538 0.040414 -0.001128
NC_005258 0.226755 0.059706 0.204169 -0.025054 0.088650 0.007295 0.124578 -0.006992 -0.082662 -0.458319 0.169913 -0.188483 0.302944 0.162130 -0.020791 0.052809 0.166690 0.003324 -0.084615 -0.188263 0.306015 0.254888 0.307980 -0.136050 0.073316 -0.014027 -0.051045 -0.460483 0.140952 0.495700 0.045431 0.158840 -0.124362 0.165851 -0.060931 -0.028857 -0.398665 -0.450295 0.237841 -0.017582 -0.056102 -0.235709 0.302954 0.509154 -0.252602 -0.426671 0.114126 -0.172314 0.055250 -0.028242 0.377559 0.137738 -0.105837 -0.093332 -0.001556 -0.247917 -0.278285 -0.230468 0.089659 0.193130 0.339500 0.256692 0.255191 0.324626 0.013597 -0.116092 -0.254166 -0.183168 0.010719 0.179410 -0.017247 -0.372424 0.250455 0.248794 0.149641 0.044916 0.134162 0.272308 -0.342408 -0.139887 -0.171570 0.093611 -0.245901 0.274040 -0.028163 -0.054996 0.194555 0.167778 -0.021554 0.111284 0.084648 0.026680 -0.123232 0.198429 0.217121 -0.291404 0.026028 -0.305229 -0.186962 -0.194071 -0.127712 0.188248 -0.090622 -0.010303 0.300581 0.495087 0.010211 -0.141539 0.102306 -0.082258 -0.238823 -0.038282 0.134665 -0.312347 -0.006181 0.223047 -0.175305 0.142475 0.158366 -0.520771 -0.324221 -0.168147 -0.076945 -0.045552 -0.587981 0.069206 -0.184581 -0.007966
CP014497.1 0.271337 0.163230 0.162388 0.105648 0.119549 -0.010933 0.150749 0.025080 -0.142827 -0.175836 -0.007744 0.046046 0.065221 0.067743 -0.068094 -0.028311 0.066076 -0.052836 -0.145843 -0.057526 0.099371 0.081517 0.116663 0.029303 0.079836 -0.088672 0.057494 -0.077165 0.040144 0.178498 0.009885 -0.039295 -0.087108 -0.103742 -0.006779 -0.102589 -0.098874 -0.113149 0.123945 0.036857 0.037715 -0.192219 0.247058 0.145295 -0.106916 -0.124502 0.047911 0.080839 0.044557 -0.117457 0.075577 0.034461 0.051028 0.084712 -0.067835 -0.015674 -0.055334 -0.102365 -0.039042 0.116497 0.097039 0.026949 0.098031 0.120437 -0.001642 -0.014647 -0.186621 -0.013642 0.006506 -0.019715 0.013611 -0.162389 0.061033 0.074526 -0.041009 0.005671 0.140551 0.029875 -0.142505 0.070782 0.016557 0.124486 0.009018 0.189761 -0.035597 0.003054 0.135940 0.095564 0.048201 0.048911 -0.038085 0.047461 -0.128860 -0.205528 0.099206 -0.311333 0.064484 -0.004266 0.061496 0.087473 -0.153710 0.086092 -0.124634 0.038766 0.042483 0.093522 -0.055094 -0.119192 0.014476 -0.053813 -0.055550 -0.018802 0.165987 -0.065149 0.091399 0.082746 -0.127874 -0.001519 0.036900 -0.122975 -0.074800 -0.084187 -0.041985 -0.003603 -0.163075 0.079215 -0.097534 0.081328
CP011323.1 0.054224 0.160233 -0.017222 0.264986 0.077366 -0.009633 0.211318 -0.174164 -0.237932 -0.272655 0.067054 0.062607 -0.006477 0.183950 -0.050211 -0.145509 0.089411 -0.061565 -0.131105 -0.127826 0.148081 0.179436 0.003236 0.138979 0.159720 -0.131729 0.211045 0.008044 0.035455 0.245831 0.104971 -0.009630 -0.068834 0.055576 -0.016961 -0.116889 -0.135029 -0.125115 0.018437 -0.019597 0.053075 -0.132672 0.186272 -0.070974 -0.271622 -0.064401 0.054681 0.092596 0.186438 -0.172875 0.085174 0.108074 0.220487 0.059021 -0.138114 -0.082904 -0.009428 -0.092519 -0.170982 0.000737 0.121938 0.002720 0.196892 0.018927 0.116591 -0.179266 -0.129230 0.043909 -0.120530 -0.033177 -0.021295 -0.157958 -0.088023 0.055876 -0.234401 -0.105404 0.004317 0.104540 0.039802 0.049386 0.095308 0.120461 0.123105 0.011303 0.023990 0.110419 0.182546 0.035907 0.065590 0.005343 -0.074569 -0.085834 -0.217961 -0.304250 0.175795 -0.302515 0.291120 0.014531 -0.017979 -0.013611 -0.158540 0.112029 -0.245404 -0.056397 -0.024364 0.048891 0.061211 -0.128797 0.087675 -0.025650 -0.098174 -0.077878 0.172108 -0.100831 -0.015875 0.032162 -0.270845 0.068631 0.074964 -0.057080 0.029446 -0.054334 -0.077851 -0.115805 -0.128076 0.262906 -0.045243 0.081534
NC_007806 0.667428 0.030322 0.133019 -0.086738 0.341181 0.062676 0.217896 -0.130934 -0.201598 0.143724 0.014730 0.184456 0.122612 -0.037028 -0.136086 0.067806 -0.003569 -0.105757 0.020263 0.034906 0.118624 0.136108 0.133025 0.079572 -0.000924 0.102060 -0.232483 -0.460329 0.007542 -0.125873 -0.146074 -0.188796 0.005806 -0.264763 0.043841 0.047076 0.028773 -0.178524 0.207904 0.217902 0.082832 -0.524885 0.161905 0.173517 -0.077791 -0.017503 -0.118898 0.144252 0.158964 -0.181031 0.046143 0.157949 -0.009412 0.157127 0.077277 -0.058674 0.050983 -0.308511 0.018350 0.240064 -0.083392 0.051966 0.301203 0.039042 -0.204190 0.152588 -0.077718 0.111218 0.074380 0.396986 0.339916 -0.158114 0.014403 0.018892 0.222385 0.375728 0.688262 -0.269966 -0.362937 0.120842 0.154491 0.337481 0.036905 0.516920 -0.135542 -0.126217 0.083944 0.256933 0.136835 0.197228 -0.143433 0.280135 -0.139158 -0.308030 -0.037642 -0.274279 -0.204448 -0.449668 0.167905 0.255393 -0.404600 0.153070 0.195914 0.347304 0.219904 -0.010212 -0.153156 -0.463558 0.149836 -0.390689 -0.116461 0.056536 0.015907 -0.219875 0.048934 0.314596 0.083845 -0.043569 -0.343402 -0.326970 -0.163394 0.052025 -0.023498 0.369271 -0.219834 0.102253 0.035038 0.033378
CP015159.1 0.284613 0.321273 0.246269 0.129702 0.212226 -0.023866 0.227090 0.027171 -0.187515 -0.198530 0.023006 0.053900 0.025216 0.059589 -0.097688 0.004562 0.046096 -0.067086 -0.075583 -0.070072 0.081941 0.078661 0.125424 0.102204 0.033083 -0.176908 0.053918 -0.131775 -0.007729 0.072589 -0.057017 -0.066579 -0.046337 -0.092859 0.022446 -0.086065 -0.074580 -0.164512 0.108499 0.053789 0.050071 -0.201859 0.171233 0.186242 -0.082919 -0.113055 0.035208 0.096155 0.099184 -0.096734 0.060979 0.044687 0.063965 0.111966 0.035127 0.020209 -0.077695 -0.070517 0.042989 0.113330 0.001942 0.079964 0.092009 0.140981 -0.021135 0.060222 -0.184180 0.005083 0.049628 -0.014868 0.092418 -0.236486 0.079649 0.038679 -0.025876 0.007263 0.175959 0.030506 -0.117569 0.031720 -0.010981 0.114965 -0.020689 0.135716 -0.033450 -0.007560 0.117800 -0.011455 0.017789 0.027025 -0.002437 -0.006024 -0.080642 -0.181432 0.095690 -0.252583 0.025919 0.004224 0.009282 0.100012 -0.143520 0.122683 -0.079014 0.026697 0.077452 0.128739 0.012618 -0.093040 0.010134 -0.045417 0.000929 0.036301 0.073815 -0.080776 0.052842 0.103767 -0.093565 -0.018195 0.016267 -0.114390 -0.122788 -0.078243 -0.042305 0.024850 -0.198626 0.017921 -0.099249 0.053454
NC_003216 -0.173384 0.152442 0.131999 0.007270 0.187025 0.095234 -0.066681 -0.137568 -0.043224 0.042974 0.119847 0.325187 0.006058 0.107275 -0.108087 -0.041595 0.192945 -0.210890 -0.190381 -0.098011 -0.056020 0.391530 0.024376 0.490008 0.008708 -0.315394 0.226040 -0.303167 -0.275768 0.041201 0.139264 -0.087115 -0.060505 -0.282541 0.016594 0.208664 0.001442 -0.300279 0.227210 -0.050697 0.110973 -0.066711 -0.006868 0.036839 -0.124336 -0.043852 -0.102756 0.171815 0.087646 -0.098689 0.320097 -0.100744 0.084726 0.108832 0.015151 0.038308 -0.245455 0.216689 0.217102 0.259689 -0.008641 -0.151801 0.196658 0.251731 -0.293934 -0.040679 -0.208128 0.310026 0.236644 -0.205737 0.223339 -0.112533 -0.046749 -0.031988 -0.102784 0.076064 0.115186 -0.048261 -0.061860 0.198439 -0.229817 0.171840 0.226797 0.144704 0.028269 0.090579 0.340224 -0.290799 0.371486 -0.112369 0.048808 0.055969 0.223155 -0.451649 0.052554 -0.340032 0.016008 0.052775 0.208924 -0.111030 0.038488 0.242360 0.039746 -0.169504 0.098443 0.276117 -0.095053 -0.108244 0.483590 0.218722 0.203870 0.104991 0.248775 0.114291 0.141219 -0.380013 -0.176803 -0.200370 0.324573 -0.011769 0.121619 -0.092611 -0.221157 0.007464 0.053490 0.271806 -0.152993 0.121348
CP012126.1 0.320501 0.344491 0.258092 0.072213 0.331515 0.040762 0.332392 -0.016309 -0.314461 -0.216535 0.265315 0.208178 -0.202682 -0.135887 -0.130472 0.078091 0.123202 0.124776 -0.030339 -0.110508 0.130500 0.125865 0.145517 0.215703 -0.001521 -0.178167 0.204178 -0.103694 -0.120680 0.147304 -0.006523 -0.067551 -0.099997 0.042228 -0.067552 -0.147893 -0.136665 -0.193058 0.068189 -0.133882 -0.078405 -0.078100 0.072733 0.071090 0.009158 -0.237903 -0.000636 0.030999 0.075270 -0.064446 0.001117 -0.025842 -0.003259 0.233228 -0.089726 -0.049643 -0.127506 -0.000620 0.091030 0.178296 0.012183 0.068825 0.186217 0.152170 -0.147161 0.202010 -0.258377 0.147353 0.052259 -0.166381 -0.007813 -0.296354 0.043026 -0.028221 -0.031106 0.105831 0.117025 0.044112 -0.228306 -0.031327 -0.065028 0.038940 0.149839 -0.020486 -0.193990 -0.023992 0.142806 0.086109 0.057970 -0.055982 -0.084328 -0.179731 -0.067674 -0.284434 0.209439 -0.098602 0.077136 0.080764 -0.016452 -0.027406 -0.123803 0.164336 -0.085578 -0.032305 -0.036370 0.018083 0.138267 0.000654 -0.108400 0.196288 0.017508 0.013352 -0.001777 -0.148972 0.189805 -0.030660 -0.088784 0.050295 0.137395 -0.020662 -0.189709 -0.112551 0.035123 0.063059 -0.293347 0.154523 0.025022 0.113547
