151 128
NC_019422 0.282291 0.128121 0.029525 0.124630 0.162870 -0.135104 -0.065521 -0.016664 0.026616 -0.145029 -0.172255 -0.001211 -0.056697 -0.038748 -0.200677 -0.144651 -0.090151 0.048961 0.072354 -0.048501 0.060533 -0.144689 0.126012 0.234621 0.159791 -0.243572 0.068669 0.101036 0.187262 0.030383 0.198571 0.012603 -0.083565 0.032606 -0.034203 -0.094418 -0.070090 -0.175722 -0.141322 0.077715 0.075000 -0.136898 0.106046 0.175408 -0.069980 -0.181562 0.149159 -0.028375 0.008847 -0.131113 -0.099940 0.072284 0.077922 0.053558 -0.027517 0.029929 0.039235 -0.032481 -0.002149 -0.070258 0.126759 0.095321 0.002764 0.015912 -0.016319 0.013032 -0.213570 -0.055801 -0.129841 0.011813 0.003208 -0.188417 0.052966 0.053293 0.058373 -0.029566 0.085698 0.090018 0.083859 0.040507 0.099712 0.239305 0.078853 0.168390 -0.009254 -0.079126 0.084839 0.191116 -0.023841 0.037861 0.049361 -0.072987 0.008225 -0.031741 -0.009374 -0.045046 0.039552 0.211611 -0.047593 0.082981 -0.014207 0.118007 -0.157735 0.038628 -0.076180 -0.080951 0.049801 -0.066750 -0.021899 0.146362 0.028607 -0.063753 0.032871 -0.164822 0.041081 0.131231 -0.079937 -0.022762 -0.042546 0.032790 -0.025569 -0.020319 -0.062530 -0.215973 -0.175678 0.041127 -0.068237 -0.012824
NC_015568 0.183173 0.090684 0.045289 0.149297 0.221840 -0.136839 0.039634 -0.029723 -0.033535 -0.142841 -0.089986 0.063751 -0.063403 -0.030662 -0.214925 -0.072367 -0.037180 0.052239 0.130220 -0.061072 0.119695 -0.030304 0.152306 0.172748 0.141757 -0.245826 0.085806 0.012446 0.165354 0.015014 0.193729 0.059692 -0.135709 0.082146 -0.093007 -0.114215 -0.038581 -0.102530 -0.149528 0.048764 0.035965 -0.126209 0.091334 0.137201 -0.021206 -0.180243 0.101269 -0.029410 -0.058783 -0.041331 -0.074542 -0.014282 0.049280 0.023420 -0.075379 -0.017483 0.114677 -0.023868 -0.010067 0.014819 0.118836 0.105499 0.067535 0.056721 -0.075285 -0.029808 -0.141392 -0.002849 -0.209026 0.009447 -0.117873 -0.136019 0.048819 -0.053089 0.059086 -0.055075 0.126651 0.078003 -0.003858 0.023478 0.077462 0.301133 0.168262 0.196146 0.004455 -0.060847 0.049738 0.243358 0.012770 0.007880 -0.006622 -0.075716 -0.023399 -0.064692 -0.107449 -0.116199 0.036222 0.213385 0.057194 -0.026511 -0.084488 0.125170 -0.154994 0.059483 -0.132835 -0.044308 -0.001529 -0.115701 0.052601 0.136705 0.077430 -0.078580 0.063320 -0.153551 0.113699 0.092467 -0.072226 -0.023082 -0.061949 0.081376 -0.007135 0.006183 -0.001185 -0.168792 -0.130823 0.072946 -0.070804 0.021434
NC_015262 0.335272 0.179281 0.011972 0.152204 0.205661 -0.025300 0.049859 0.012494 -0.010460 -0.170221 -0.082230 0.023339 -0.205187 -0.083037 -0.190015 -0.117664 0.029756 0.004523 0.050666 -0.200326 0.072987 -0.107505 0.157533 0.196887 0.167293 -0.212980 0.073311 0.014416 0.252505 0.021730 0.121182 0.124364 -0.105427 0.028757 0.005369 -0.150248 -0.056984 -0.002343 -0.085997 0.084539 0.023945 -0.162961 0.022910 0.098305 -0.055303 -0.252413 0.038910 -0.002296 -0.034661 -0.161785 -0.005430 0.053271 0.053347 0.066017 -0.073633 -0.068167 0.011203 -0.040285 -0.064213 -0.032390 0.044595 0.038896 0.073933 0.018503 -0.108476 0.011984 -0.276390 -0.046915 -0.159312 -0.006377 -0.091246 -0.159009 0.084682 0.024365 0.047306 -0.027403 0.128482 0.025578 -0.093718 0.011288 0.074014 0.217159 0.088030 0.116682 -0.026768 -0.034527 0.030404 0.169718 -0.071720 0.080119 -0.015052 -0.153134 -0.100114 -0.094894 0.004153 -0.079462 0.070648 0.183139 0.099016 -0.020425 -0.166663 0.145380 -0.140260 0.011413 -0.117302 -0.030116 0.043082 -0.093411 -0.055849 0.117588 0.074478 -0.078404 0.027549 -0.171399 0.105753 0.104498 -0.160109 0.036839 -0.016728 0.078216 0.010254 0.029509 -0.099599 -0.136614 -0.091790 0.103849 -0.130797 0.007306
NC_019421 0.168718 -0.015961 0.104990 0.015467 0.036199 -0.074526 0.007264 -0.111547 -0.092983 -0.208387 0.013867 -0.089786 0.001895 0.036287 -0.156820 -0.145047 -0.036933 0.061222 0.042418 -0.047676 0.231740 -0.099304 0.173223 0.058005 0.046344 -0.325740 0.145024 -0.153920 0.146982 0.108365 0.178694 0.079322 0.001502 -0.004380 -0.045200 -0.186003 -0.038973 -0.153549 0.036401 0.045485 -0.057248 -0.188798 0.178159 0.175930 -0.069869 -0.247789 0.147984 -0.160438 0.080353 -0.147371 0.001064 0.024024 0.028064 0.020009 -0.027183 -0.020308 0.145417 -0.086302 -0.014999 -0.065743 0.150134 0.188401 0.119459 0.068078 -0.011115 -0.020910 -0.184459 -0.168944 -0.161142 0.097961 -0.143020 -0.219657 0.161604 -0.045754 -0.012054 -0.049605 0.193509 0.065302 -0.134072 0.142491 0.083918 0.221758 0.134019 0.251539 0.056694 -0.036327 0.064422 0.234547 -0.112823 0.045782 -0.039249 -0.105795 -0.185911 -0.078821 0.020398 -0.150178 0.129171 0.104956 0.019958 -0.030790 -0.139271 0.097256 -0.165957 0.085078 0.037553 0.026243 0.143487 -0.096710 0.050116 0.003095 0.051858 -0.006135 0.052454 -0.089988 0.120241 0.182106 -0.072850 0.049715 -0.143139 -0.182978 0.016835 0.000900 -0.041588 -0.077446 -0.287855 -0.022078 -0.070628 -0.116483
NC_011398 0.187234 0.017619 -0.083627 0.205191 0.110276 -0.176249 -0.043159 0.029880 0.027126 -0.087937 -0.142240 -0.074436 -0.064840 -0.018033 -0.233544 -0.134193 -0.013037 0.099672 0.133600 -0.078613 0.008040 -0.123036 0.008111 0.125619 0.137299 -0.302786 0.105458 0.103429 0.199400 0.108931 0.336194 -0.007330 0.001118 -0.002433 -0.049309 -0.206250 -0.105156 0.015879 -0.182170 -0.104744 0.081209 -0.028587 0.040058 0.064647 -0.201665 -0.091351 0.232374 -0.014891 0.087069 -0.131646 -0.088895 0.092958 0.202404 0.176709 -0.025822 -0.013584 0.155527 -0.021436 0.022392 -0.141973 -0.059531 0.100313 0.192759 -0.023460 0.171628 -0.098225 -0.045916 -0.111819 -0.330677 -0.025369 -0.028201 -0.223128 -0.002506 0.001450 -0.128029 -0.103355 0.090167 0.032136 0.074989 0.109127 0.189632 0.331230 0.191988 0.174945 0.102893 -0.090895 -0.003583 0.259180 -0.163244 -0.047145 0.075860 -0.007152 -0.141108 -0.095504 0.007162 -0.091561 0.078269 0.277608 0.049812 0.063479 -0.061063 0.079534 -0.124468 0.042440 -0.036973 -0.073460 0.119326 -0.113957 0.001152 0.139320 0.019257 -0.113747 -0.033821 -0.064162 0.008939 0.144052 -0.000618 0.021232 -0.141804 0.072231 0.073731 0.018031 0.059740 -0.265342 -0.189924 0.049060 0.003928 -0.140219
NC_009231 -0.056419 0.201064 -0.092939 0.138385 0.110730 -0.006688 0.047345 0.056501 -0.127692 -0.289683 -0.027838 0.087341 -0.069076 0.009986 -0.198415 -0.071910 0.005779 0.012722 0.028747 -0.253506 0.060165 -0.126082 0.067995 0.188210 0.195807 -0.231013 0.051283 0.195650 0.068178 0.129095 0.072641 0.049662 -0.215652 0.024949 0.036270 -0.089221 -0.024321 0.071294 -0.197502 0.091235 0.010626 -0.144067 0.176285 0.161326 0.032379 -0.191153 0.148071 0.061174 -0.074086 -0.055814 -0.046003 0.077389 -0.053542 0.031162 -0.083023 -0.065389 -0.205796 -0.030473 -0.085617 0.045997 0.273996 0.116419 -0.082031 0.110500 -0.077484 -0.125926 -0.171923 -0.071531 -0.156490 -0.097916 -0.141847 -0.024707 -0.004257 0.112530 -0.028931 -0.157882 -0.110909 0.154693 0.193165 -0.001352 0.117057 0.242307 0.050335 -0.014250 0.083299 -0.036283 0.169324 -0.012331 0.047968 -0.032882 0.213760 -0.176684 -0.128148 -0.099790 -0.030862 -0.256012 0.112455 0.221277 -0.008560 -0.250510 -0.081422 0.101269 -0.269109 -0.160808 -0.152344 0.012636 -0.164308 -0.081524 0.072560 0.212901 -0.018889 -0.252448 0.143206 -0.049766 0.119918 0.074245 -0.314457 0.125393 0.087611 0.148997 0.098292 -0.080032 -0.140165 -0.279942 0.066555 0.148296 -0.231406 0.168008
CP015020.1 0.193137 0.170593 -0.263653 0.022370 0.171642 -0.079318 0.014264 0.011269 -0.161350 -0.007439 0.092781 -0.069688 0.021762 -0.087651 -0.267131 -0.142515 -0.128154 0.069356 0.129225 -0.128228 -0.002174 -0.300296 0.040185 -0.048199 0.141866 -0.376747 -0.092550 0.102972 0.058004 0.069363 -0.034520 -0.119777 -0.008565 -0.225736 0.110062 -0.004463 -0.085060 0.224777 -0.086207 -0.121880 0.114015 -0.216014 0.048518 0.176647 -0.164181 -0.117421 0.233605 0.042175 0.154388 -0.214547 -0.112127 0.287722 -0.003770 0.345426 0.075949 -0.117422 -0.138903 -0.091438 0.089854 -0.027402 0.002733 0.142871 0.048449 -0.060675 -0.055043 -0.110076 -0.128256 -0.279326 -0.255955 -0.119007 0.006910 -0.172047 -0.101505 0.137666 -0.120398 -0.012349 0.165869 -0.000713 0.119116 0.254586 0.307556 0.403992 0.048207 0.260585 0.080411 -0.216429 0.149361 0.112785 -0.127814 0.143617 0.185296 -0.074543 -0.146674 -0.181671 -0.065388 -0.097656 -0.024186 0.116953 -0.024940 -0.084380 -0.236480 0.124690 0.023019 -0.077607 0.082298 -0.074031 -0.137125 -0.326318 -0.044617 0.123367 -0.183213 -0.187756 -0.075840 -0.140373 0.056529 0.190992 -0.192110 0.210706 -0.297922 0.086336 0.072429 -0.109165 -0.228542 -0.278985 -0.214288 0.150997 -0.035427 -0.125536
CP015229.1 0.135086 0.026985 0.069726 0.038924 -0.000277 -0.101830 0.028277 0.050501 -0.031017 -0.226063 -0.044702 0.063972 -0.071649 -0.110708 -0.199230 -0.072219 -0.051174 0.130658 0.056802 -0.022184 -0.003542 -0.171836 0.088100 0.283639 0.105793 -0.294390 0.171187 0.135254 -0.008209 0.090153 0.089464 -0.012187 -0.065778 -0.050697 0.078975 -0.045058 -0.039056 -0.097953 -0.125284 0.087588 0.054887 -0.138464 0.285172 0.236960 -0.058717 -0.170028 0.220135 -0.089239 0.144057 -0.142726 -0.134384 0.127309 -0.111239 0.100177 0.109932 -0.062457 -0.104463 -0.040232 0.002838 0.050486 0.078531 0.188534 -0.034365 0.174433 0.151124 -0.012094 -0.145671 -0.027935 0.069440 0.031376 0.012728 -0.227641 0.233788 0.059965 0.160371 -0.108212 -0.016832 0.122852 -0.021134 0.006054 0.060317 0.232664 0.174389 0.093902 0.109573 -0.016293 0.112703 0.165195 -0.097252 -0.016516 0.127534 -0.117056 -0.164434 -0.069097 0.110298 0.033144 0.052404 0.144881 -0.094079 -0.063083 -0.080512 0.088532 -0.133359 -0.125258 -0.035264 -0.024076 0.107966 -0.099335 -0.008261 0.288458 0.076412 -0.182814 -0.067493 -0.004725 0.050093 0.237713 -0.196464 0.136444 -0.053493 -0.005020 0.115082 -0.048683 0.000711 -0.239880 -0.143852 -0.082155 -0.200071 0.125413
CP012625.1 0.201994 0.123411 0.002209 0.131679 0.158052 -0.020136 -0.053328 -0.004221 0.031667 -0.205581 -0.045940 0.008383 0.059368 -0.023127 -0.188019 -0.050297 -0.038741 0.040206 0.038304 -0.175964 0.177064 -0.026007 0.179298 0.213687 0.161626 -0.233967 0.053019 -0.016895 0.118015 0.120520 0.244851 0.115657 -0.145052 0.052585 -0.045511 -0.180661 -0.132921 -0.130801 -0.063701 0.042787 -0.015952 -0.080989 0.184078 0.157096 -0.035431 -0.239392 0.066899 0.023877 -0.081144 -0.121170 -0.006292 0.061055 0.031672 -0.051619 -0.115999 -0.068811 -0.032028 0.003157 -0.002099 -0.006444 0.244911 0.087727 0.014017 0.125654 -0.009919 -0.116113 -0.215611 -0.052884 -0.169979 0.092034 -0.162689 -0.031897 0.116672 0.056082 0.006946 -0.051118 -0.001761 0.103036 0.057350 0.002414 0.129876 0.262841 0.110059 0.069193 0.114337 -0.031768 0.111011 0.279993 0.016559 0.008959 -0.000875 -0.074166 -0.068097 -0.052633 -0.053817 -0.203976 0.121076 0.088565 0.029622 -0.130161 0.002813 -0.012552 -0.233347 0.046789 -0.120157 0.057706 -0.117609 -0.059872 0.147956 0.143243 0.083528 -0.105194 0.204445 -0.059045 0.080810 0.150218 -0.115843 0.090906 0.027839 0.007115 0.066180 0.024396 -0.115393 -0.129292 -0.031967 0.028954 -0.026288 0.075642
CP017251.1 0.174617 -0.043568 -0.044728 0.016623 0.008136 0.063935 -0.054644 -0.065532 0.037155 -0.076348 -0.027642 -0.108144 0.134952 -0.038264 -0.083710 -0.159414 -0.115420 0.060160 0.121241 -0.167890 0.179845 -0.094165 0.189964 0.070279 0.225054 -0.209532 0.050899 -0.185059 0.203856 0.174041 0.253628 0.175806 0.031856 0.078285 -0.034623 -0.120643 -0.154977 -0.197792 -0.073311 -0.095031 -0.056593 -0.056353 0.093298 0.257818 -0.175090 -0.344330 0.133538 -0.188618 0.014605 -0.319141 0.041742 0.174430 0.031146 -0.020968 0.004556 -0.156959 0.037004 -0.041683 -0.030525 -0.122870 0.119620 0.195208 0.160698 0.045007 0.086294 -0.184251 -0.191450 -0.112835 -0.200907 0.166831 -0.081529 -0.116414 0.178496 0.071788 0.034551 0.023807 -0.006568 0.082608 -0.040838 -0.053756 0.131914 0.264647 0.108153 0.143772 0.170699 -0.024051 0.026982 0.376911 -0.091392 0.037642 -0.026464 -0.111891 -0.132884 0.103550 -0.022425 0.042795 0.105589 0.000078 0.004652 -0.184547 -0.057140 -0.029007 -0.054046 0.078145 -0.029307 0.039096 0.077085 -0.122087 0.117720 0.149006 -0.041135 -0.168981 0.050146 -0.132321 0.039582 0.280220 -0.029726 0.172980 -0.104331 -0.143304 0.049666 0.016889 -0.206464 -0.194040 -0.174893 0.007768 0.067613 -0.060231
NC_008376 -0.176482 0.204250 0.082074 0.147446 -0.095135 0.038436 0.236172 -0.121250 -0.073809 -0.060485 0.060334 -0.003248 0.150039 -0.021308 -0.261356 -0.307461 -0.151483 -0.002733 0.179503 0.168520 0.015293 -0.210336 0.039108 0.273773 0.160736 -0.496069 0.465970 0.000362 -0.168612 0.177632 0.040928 -0.139449 -0.004315 -0.092642 -0.097832 -0.135650 -0.065402 -0.479635 -0.152560 0.049570 -0.192942 -0.134626 0.427028 0.183517 -0.126114 -0.016029 0.118599 0.110368 0.237438 -0.178050 -0.355485 0.107737 0.110861 -0.016201 0.262110 0.051971 0.092354 0.088585 0.010868 -0.020410 0.240874 0.143297 0.248848 0.175347 0.429280 -0.096708 -0.060000 -0.000959 0.049925 0.190103 0.000060 -0.434589 0.032480 0.040420 -0.115158 -0.120914 -0.301060 0.061356 0.293993 0.016332 -0.000389 0.323409 0.258937 0.036280 0.089930 -0.110799 0.121220 0.149847 0.002637 -0.334313 0.193793 -0.250631 -0.160631 -0.193251 0.086984 -0.186738 0.177020 -0.109765 -0.194109 -0.017326 -0.014771 -0.026890 -0.382218 -0.057172 -0.119572 0.010167 0.138195 -0.096693 0.152904 0.339564 -0.136825 -0.185718 0.058959 0.010593 0.142376 0.239028 -0.210935 0.083292 -0.016060 -0.117602 0.214258 -0.004968 -0.219647 -0.268054 -0.214370 -0.056905 -0.142555 -0.022224
CP014670.1 0.317996 0.036142 0.010451 0.233535 0.176119 -0.131196 -0.010484 0.088420 0.001111 -0.245037 -0.135178 0.053309 -0.052508 0.003313 -0.131321 -0.210731 0.139531 -0.040934 -0.062739 -0.128721 0.071742 -0.008504 0.084221 -0.001456 0.184136 -0.244723 0.141075 0.102254 0.249622 0.106714 0.192735 0.131565 -0.198660 0.021296 0.008422 -0.320349 -0.061338 -0.027856 -0.144780 -0.023550 -0.005861 -0.053755 0.128981 0.057781 -0.122162 -0.167814 0.136185 0.065926 -0.109709 -0.185013 -0.021767 0.133195 0.167623 0.069011 -0.075091 -0.086396 0.104127 0.013908 -0.054333 0.050542 0.112298 0.031834 0.118982 0.014651 0.084117 -0.109037 -0.117409 -0.115118 -0.215221 -0.060283 -0.139447 -0.044857 0.111109 0.116836 -0.095365 -0.234061 -0.050212 0.041320 0.038270 0.154589 0.006085 0.245288 0.124145 0.161158 0.039549 0.012695 -0.062009 0.192935 -0.094305 -0.001411 0.012042 0.075814 -0.160161 -0.027342 -0.010837 -0.223192 0.082592 0.188813 0.084393 -0.051973 0.001581 0.117139 -0.219020 -0.042614 -0.127495 0.034844 0.071337 -0.082061 -0.048079 0.186123 -0.079200 -0.057710 0.059186 0.032970 0.049997 0.165661 -0.123325 -0.006806 -0.073953 0.172392 0.103631 0.090271 0.051282 -0.233101 -0.090040 0.047021 -0.160682 0.055947
NC_009813 0.143658 -0.165207 0.015910 0.351837 -0.038717 -0.251092 -0.135142 -0.197718 -0.232086 -0.262088 -0.141653 0.237537 -0.176736 0.168480 -0.104412 -0.360668 0.147599 0.171179 0.010462 -0.203931 0.093878 -0.249360 0.100808 -0.023269 0.053895 -0.099531 0.189355 0.226025 0.340702 0.122835 0.166548 -0.117171 -0.002367 0.026133 0.037852 -0.266382 0.162639 0.045431 -0.445073 0.048468 0.006745 -0.210931 0.129189 0.211644 0.148802 -0.107735 0.306963 -0.377910 0.043153 -0.207682 -0.090829 -0.060950 0.103592 0.066676 -0.147194 -0.046626 0.409701 -0.375349 -0.200590 -0.033933 0.221137 0.226316 0.080995 -0.039359 -0.027950 -0.084597 -0.070139 -0.119880 -0.205572 -0.122097 -0.242846 -0.006325 -0.105316 -0.057978 -0.115149 -0.190794 0.042717 -0.029831 -0.034693 0.143666 0.121374 0.083432 0.387938 0.316454 -0.174117 0.070994 0.129511 0.058288 0.053117 0.083206 0.138411 -0.109365 -0.329296 -0.117074 -0.082096 -0.041130 0.070569 0.358597 0.055967 -0.179322 -0.195573 0.378070 -0.172830 -0.161544 0.077436 -0.408763 0.170696 -0.042288 -0.109814 0.153475 -0.190771 -0.310602 0.033795 -0.169896 0.269072 0.123649 -0.150837 -0.081305 -0.179523 0.250025 0.136693 0.011545 0.279818 -0.276311 -0.069776 0.240866 -0.358419 0.144487
CP007491.1 0.249278 0.160181 0.039585 0.216466 0.273193 -0.079031 -0.119909 0.063909 0.034530 -0.264963 -0.076429 0.161902 -0.003439 0.030143 -0.196420 0.001526 0.113929 -0.099811 -0.113821 -0.141542 0.078652 0.127938 0.105476 0.303948 0.206036 -0.260645 0.063146 0.176131 0.060501 0.128999 0.289912 0.182104 -0.376980 -0.002837 0.019545 -0.211502 -0.052400 -0.210486 -0.080974 0.053800 0.060628 -0.118046 0.177313 0.069940 -0.033934 -0.305408 0.159462 0.230575 -0.218064 -0.065857 0.026103 0.094953 0.024088 0.132009 -0.189275 -0.051353 -0.212946 0.095051 0.086273 0.140059 0.359055 -0.121222 0.010558 0.170207 -0.214117 -0.109952 -0.215902 0.011320 -0.209628 -0.161969 -0.029748 0.007217 0.030293 0.231587 0.027468 -0.179055 -0.053663 0.091609 0.185159 0.165597 0.067484 0.333938 0.020520 0.121666 0.089046 -0.047284 0.089203 0.104134 -0.009343 -0.094164 0.152781 0.072497 0.113411 -0.073476 -0.086223 -0.351878 0.060828 0.266636 0.075537 -0.131036 0.184963 0.145401 -0.275540 -0.135051 -0.152960 0.143033 -0.127521 -0.034156 0.147482 0.297344 0.020656 -0.054282 0.262357 0.105945 0.045746 -0.041988 -0.202855 -0.038773 0.152900 0.192298 0.048986 -0.010295 -0.057806 -0.242176 0.052892 0.107805 -0.210588 0.210352
CP017669.1 0.202457 0.161612 0.148373 0.099705 0.118013 0.131801 0.118946 -0.179617 0.001190 -0.157926 0.163637 0.062821 -0.136669 -0.079882 -0.193564 0.004656 -0.028349 0.027992 0.042300 -0.131339 0.121857 -0.059276 0.250947 0.361171 0.061108 -0.290729 0.261082 -0.184610 -0.025523 0.163310 0.118307 0.097490 -0.030723 0.037741 -0.010034 -0.155979 -0.048839 -0.373635 0.012842 0.074808 -0.180401 -0.218614 0.105307 0.093511 0.039484 -0.366163 -0.026708 0.003842 0.010242 -0.101813 -0.047492 0.002814 -0.106482 0.101755 -0.030827 -0.053201 -0.022264 -0.019420 0.028515 -0.015160 0.235608 0.000515 0.246969 0.163526 -0.148783 0.056380 -0.274217 0.053881 -0.023301 0.069561 -0.053989 -0.346875 0.057642 -0.002405 0.026933 0.069955 0.045814 -0.037594 -0.181152 -0.077398 0.043854 0.079311 0.110097 0.040339 -0.088975 -0.025004 0.091278 0.156730 -0.124031 -0.153506 0.028773 -0.335752 -0.044109 -0.168150 0.054882 0.012369 0.138044 0.031681 0.008402 -0.101424 -0.134424 0.172962 -0.210730 -0.087370 -0.083524 0.007714 0.210619 0.003626 0.030758 0.232522 0.038021 -0.048739 0.144138 -0.115891 0.212031 0.088425 -0.160359 0.058413 0.076341 -0.053333 -0.046379 0.071985 -0.213840 0.005236 -0.165653 0.037175 -0.159452 0.055593
CP012693.1 0.214699 0.041934 0.079463 0.104406 0.051261 -0.058181 0.124264 0.053414 -0.055839 -0.235265 -0.047565 -0.034909 -0.133383 -0.062359 -0.177251 -0.051003 -0.030608 0.109049 0.086043 -0.041793 0.076559 -0.090783 0.118984 0.151945 0.106358 -0.287702 0.144124 -0.019321 0.084614 0.093249 0.119226 0.086352 -0.053078 0.021281 -0.022339 -0.086546 -0.038185 -0.040669 -0.060869 0.037438 0.017668 -0.139470 0.175212 0.135631 -0.062102 -0.271965 0.206348 -0.097189 0.080669 -0.081940 -0.059677 0.050899 -0.064782 0.053069 0.021811 -0.062944 0.027990 -0.020437 -0.033716 -0.027560 0.065353 0.175587 0.092078 0.141274 0.071449 0.010991 -0.114688 -0.059303 -0.084095 0.022548 -0.100133 -0.264183 0.187793 -0.029064 0.075629 -0.091386 0.081837 0.100816 -0.142607 0.013591 0.053925 0.224933 0.158401 0.144170 0.074596 -0.034300 0.020259 0.199184 -0.122626 -0.036329 0.048335 -0.156511 -0.156458 -0.035747 0.077861 -0.070513 0.096835 0.186423 -0.013672 -0.064138 -0.139861 0.114933 -0.136990 -0.004128 -0.073511 0.035389 0.125968 -0.106111 -0.030741 0.192402 0.098403 -0.089864 -0.050330 -0.088785 0.112489 0.209808 -0.155303 0.074385 -0.042905 -0.021331 0.046400 -0.001585 -0.003785 -0.140719 -0.196014 -0.068906 -0.170002 0.000484
NC_009815 0.248302 0.217603 -0.195810 0.182285 0.086740 0.123760 -0.161161 -0.052419 0.146530 -0.019230 0.025319 -0.009929 0.164009 -0.170375 -0.118579 -0.329144 -0.102623 0.013284 0.068804 -0.273016 0.120687 -0.097271 0.118949 0.218944 0.205990 -0.200906 0.093579 -0.049697 0.264390 0.138017 0.150023 0.092010 -0.034112 0.057931 0.059343 -0.286245 -0.215895 -0.145158 -0.128492 -0.024588 -0.083169 0.033884 0.145666 0.210154 -0.193506 -0.150417 -0.042477 -0.040688 0.011891 -0.472555 -0.083132 0.257725 0.166012 -0.108738 0.098858 -0.206085 0.080638 -0.028873 -0.070811 -0.003086 0.199317 0.158375 0.057326 -0.013285 0.297219 -0.277004 -0.277502 -0.040387 -0.103508 0.251326 -0.164957 0.076244 0.164744 0.135493 -0.034990 -0.034019 -0.233132 0.096582 0.181180 -0.067650 0.038703 0.285963 0.266617 -0.005129 0.175809 0.055002 0.096206 0.370749 0.153010 0.113596 -0.089953 -0.072101 -0.226631 -0.019181 -0.025987 0.011256 0.138511 -0.175939 0.001697 -0.206171 -0.059130 -0.151379 -0.192040 0.001665 -0.162499 -0.041528 -0.099235 -0.115188 0.211858 0.213975 -0.069610 -0.285968 0.139413 -0.108351 0.073181 0.251598 -0.096262 0.259588 -0.103355 0.039045 0.246387 0.063304 -0.196278 -0.258506 0.074666 0.144768 0.098888 0.103146
CP017249.1 -0.035438 0.157404 -0.075814 0.006512 0.155531 0.120049 0.098662 -0.081096 -0.230247 -0.115188 0.132453 0.023527 -0.010378 0.060272 -0.192704 -0.055920 -0.033952 -0.085703 0.054672 -0.208674 0.060203 -0.179033 0.123391 0.105540 0.185679 -0.298022 0.052251 -0.088441 0.008357 0.096129 -0.000215 0.073591 -0.055549 -0.142287 0.058840 0.017660 0.002455 0.010048 -0.063268 0.073184 -0.038958 -0.330573 0.089682 0.125129 0.004331 -0.311318 0.102177 0.061066 0.010935 -0.149714 0.072349 0.135882 -0.095311 0.130136 -0.002303 -0.081174 -0.168361 -0.040965 0.015281 -0.045896 0.198456 0.073119 0.036262 0.116159 -0.306951 -0.094639 -0.251017 -0.162036 -0.178511 -0.086447 -0.068486 -0.142830 -0.088701 0.112918 -0.032655 -0.014152 0.098099 -0.003344 0.068781 0.159272 0.210943 0.297750 -0.024158 0.171429 0.074775 -0.090828 0.160886 -0.017566 -0.040422 0.005039 0.173916 -0.243533 -0.068666 -0.192038 -0.124408 -0.252160 0.058092 0.100495 0.053488 -0.196369 -0.213940 0.221388 -0.130048 -0.124419 0.039293 0.079332 -0.103591 -0.239526 0.132412 0.095803 -0.077836 -0.167764 0.144482 -0.128309 0.113231 0.100492 -0.289098 0.119426 -0.042911 0.002394 0.091160 -0.089997 -0.330383 -0.136293 -0.055307 0.152123 -0.228145 0.002991
CP016358.1 0.093161 0.079882 -0.007273 0.297288 0.195876 0.010353 0.138092 0.108807 -0.009682 -0.203352 0.015939 -0.047254 -0.122480 -0.034243 -0.199233 -0.095802 0.142147 0.015827 0.061462 -0.234778 0.152555 0.072331 0.106452 0.123543 0.123874 -0.291908 0.218341 -0.045928 0.234524 0.104694 0.217579 0.214547 -0.144854 0.087250 -0.092987 -0.265528 -0.054785 0.185500 -0.066742 -0.024276 -0.057021 -0.006265 -0.001111 -0.033917 -0.142759 -0.276941 0.068808 0.024593 -0.037279 -0.102719 0.064329 -0.027333 0.136390 0.022924 -0.084982 -0.128487 0.117396 0.072418 -0.085219 0.009267 -0.024981 0.064626 0.207684 0.127435 0.101185 -0.189696 -0.024113 -0.039410 -0.270106 -0.002899 -0.315279 -0.059417 0.149906 -0.049775 -0.096502 -0.163089 0.041497 0.058429 -0.144401 0.031440 0.084540 0.341086 0.282999 -0.043035 0.207983 0.051131 -0.037168 0.265177 -0.124468 -0.000430 -0.146133 -0.106829 -0.258796 -0.160280 -0.051804 -0.243028 0.216213 0.217646 0.279989 -0.237667 -0.195191 0.017840 -0.185386 -0.028792 -0.180089 0.156132 0.020703 -0.105368 0.036896 0.164126 0.184826 -0.162611 0.022159 -0.013325 0.117119 0.124636 -0.163258 0.089727 -0.044970 0.096425 0.217266 0.025690 -0.010264 -0.187637 0.020303 0.035644 -0.128313 0.002543
NC_009812 -0.131079 0.266328 0.111642 0.082547 0.078336 0.208543 0.017360 -0.305067 -0.148815 -0.073955 0.280081 0.005071 0.013221 0.060178 -0.148942 -0.181874 -0.038854 -0.221338 -0.058019 -0.089845 0.158981 -0.047266 0.123900 0.361366 0.047126 -0.431232 0.300257 -0.204223 -0.043637 0.158472 0.045169 0.096578 -0.056580 -0.143445 0.007481 -0.105916 0.071222 -0.405885 0.119696 0.151322 -0.186779 -0.356629 0.104961 0.060467 -0.018317 -0.295287 0.001413 0.110888 0.137970 -0.181347 0.050710 0.044258 0.026863 0.140156 0.115799 -0.008708 -0.110554 0.040146 0.133972 -0.003110 0.402728 -0.037344 0.212711 0.143043 -0.251214 -0.066939 -0.281533 -0.100362 -0.056334 -0.028113 0.030048 -0.311081 -0.093631 0.143474 -0.114208 -0.018528 0.011619 0.026721 0.093496 0.262135 0.034919 0.257259 0.060044 0.163300 0.082274 -0.016990 0.226014 -0.133814 -0.058166 -0.153737 0.061221 -0.246955 0.038758 -0.284494 -0.070453 -0.243127 0.194949 0.020083 0.043068 -0.168717 -0.104008 0.224567 -0.250874 -0.195357 0.043270 0.141579 0.126945 -0.110822 0.262588 0.116664 -0.056749 -0.052129 0.211595 -0.029654 0.182469 -0.077503 -0.257348 0.017107 0.048851 -0.181082 0.138422 -0.109672 -0.348483 -0.145126 -0.112223 0.170577 -0.284725 -0.062400
CP014583.1 0.189392 -0.017176 0.022780 0.095893 0.120708 -0.082005 -0.012949 -0.007023 -0.019780 -0.147038 -0.079885 -0.018100 -0.046992 0.016724 -0.173203 -0.047479 0.006421 0.027580 0.064940 -0.064035 0.078803 -0.046197 0.113132 0.151894 0.147455 -0.254826 0.065071 0.002839 0.136123 0.094832 0.273021 0.106196 -0.061404 -0.021779 -0.048749 -0.096758 -0.035116 -0.108480 -0.083476 -0.029360 0.068086 -0.121852 0.071700 0.106172 -0.114600 -0.257972 0.201899 -0.020780 0.004285 -0.080084 0.002224 0.046825 0.040491 0.121659 -0.087352 -0.028681 0.017645 -0.008268 0.048916 -0.079553 0.088778 0.067593 0.132196 0.098082 -0.081779 -0.049195 -0.120550 -0.074658 -0.221071 -0.046443 -0.029952 -0.178118 0.038290 0.026387 0.020020 -0.030414 0.129630 0.031852 -0.028336 0.108634 0.140059 0.306457 0.107755 0.211490 0.052481 -0.104346 0.035170 0.198750 -0.126598 -0.027606 0.085983 -0.048841 -0.017103 -0.040445 -0.038404 -0.128065 0.031174 0.258779 0.057689 -0.026728 -0.032217 0.143647 -0.095193 0.023623 -0.021538 0.031451 0.067338 -0.104412 0.040902 0.156900 0.041555 -0.055951 0.042403 -0.061512 0.056855 0.101374 -0.071990 -0.015274 -0.045043 -0.006299 0.003671 -0.023754 -0.043724 -0.181176 -0.142616 0.040568 -0.092187 -0.048811
CP011018.1 0.160732 0.103909 0.029346 0.332670 0.215010 -0.017652 0.151602 0.157293 -0.024805 -0.246207 0.068820 -0.148463 -0.137268 -0.052343 -0.196745 -0.144647 0.152990 0.034751 -0.010734 -0.190205 0.215465 0.046871 0.133620 -0.026236 0.067599 -0.376814 0.241132 -0.025302 0.231378 0.158178 0.116499 0.171588 -0.172633 0.051541 -0.114193 -0.326966 -0.062842 0.244582 0.019020 -0.053631 -0.061226 -0.018215 -0.020024 -0.065909 -0.105930 -0.271409 0.101415 0.039350 -0.015836 -0.049453 0.027114 -0.015406 0.125339 0.103800 -0.076191 -0.092008 0.131718 0.053816 -0.073469 0.027751 0.016109 0.076870 0.185460 0.089206 0.131062 -0.150128 -0.003757 -0.137324 -0.285917 -0.080362 -0.384756 -0.132197 0.180883 -0.003709 -0.175100 -0.220302 0.082049 0.068342 -0.200695 0.129357 0.074938 0.309531 0.262733 -0.037372 0.208158 0.043293 -0.074823 0.232881 -0.196902 0.038761 -0.189240 -0.084966 -0.297168 -0.206750 0.006277 -0.282307 0.247578 0.221633 0.267002 -0.210238 -0.217037 0.015450 -0.198940 -0.035191 -0.135546 0.191688 0.070564 -0.072582 -0.113536 0.142755 0.116875 -0.082745 -0.021678 0.006042 0.161052 0.146970 -0.184877 0.053347 -0.095489 0.065543 0.184865 0.003448 -0.012214 -0.164911 -0.102807 -0.028123 -0.136888 -0.060292
CP013025.1 0.027569 0.060564 -0.004549 0.140507 -0.002403 -0.083754 0.088565 -0.000385 -0.041556 -0.124714 -0.062314 -0.078214 0.074369 0.025184 -0.210112 -0.175187 -0.044187 0.046089 0.095978 0.009318 0.097324 -0.104007 0.065770 0.101291 0.125741 -0.337343 0.194368 0.031026 0.042150 0.136792 0.184867 -0.015912 -0.041551 -0.010435 -0.092943 -0.171474 -0.071288 -0.134293 -0.110365 -0.031083 -0.030629 -0.080631 0.226041 0.117562 -0.119524 -0.096065 0.211143 0.021530 0.089558 -0.125222 -0.146317 0.074638 0.110206 0.036178 0.016918 -0.012751 0.108005 0.002449 -0.004234 -0.082815 0.140102 0.137810 0.159918 0.073166 0.223317 -0.125593 -0.041559 -0.115017 -0.172549 0.068260 -0.083995 -0.223972 0.056174 0.020227 -0.108074 -0.098889 -0.032854 0.067478 0.098628 0.069227 0.124450 0.295076 0.159047 0.117540 0.110534 -0.088558 0.055349 0.218364 -0.073158 -0.126493 0.086475 -0.083636 -0.157490 -0.103649 0.038583 -0.208081 0.153072 0.085848 -0.061392 -0.023623 -0.029954 -0.020132 -0.221679 0.020442 -0.031492 0.021071 0.041442 -0.084908 0.045335 0.165677 -0.035882 -0.108207 0.056194 -0.029680 0.079795 0.191104 -0.106419 0.043050 -0.081126 -0.046100 0.097156 0.000125 -0.081122 -0.210184 -0.202356 -0.046800 -0.060278 -0.077049
CP014667.1 0.110171 0.116405 -0.042022 0.308908 0.263985 -0.059723 0.017241 0.100031 0.043338 -0.120916 -0.203594 0.072077 -0.084393 -0.004262 -0.205921 -0.067929 0.036025 -0.012680 0.088883 -0.134877 0.052814 -0.056356 0.139175 0.253566 0.285739 -0.168847 0.072090 0.206420 0.213561 0.060901 0.184122 0.121154 -0.230897 0.095964 -0.110069 -0.062364 -0.049766 0.011235 -0.269062 0.076908 0.079880 -0.083130 -0.020430 0.087398 0.003104 -0.325120 0.154891 0.048254 -0.161866 -0.035090 -0.040839 0.020454 0.084570 0.009736 -0.121095 -0.000261 -0.016127 0.023869 -0.071803 -0.065548 0.123536 0.026685 -0.072726 0.081342 -0.077871 -0.104993 -0.124332 0.006305 -0.232190 -0.082987 -0.128886 -0.093252 0.028480 0.125962 0.074844 -0.140972 -0.045660 0.070723 0.166492 -0.056041 0.162481 0.316135 0.067909 -0.016754 0.104523 -0.027486 0.015199 0.182015 0.013009 -0.010560 0.051386 -0.128024 0.049175 -0.043257 -0.103432 -0.146820 0.094102 0.301429 0.075194 -0.090244 -0.055450 0.104636 -0.225644 -0.045718 -0.170436 0.014261 -0.093450 -0.015318 -0.036224 0.242269 0.058853 -0.175305 0.094653 -0.151616 0.010475 0.111572 -0.169754 -0.097139 0.058623 0.184582 0.069924 -0.041483 -0.156894 -0.282307 0.060266 0.018646 -0.158123 0.134177
CP007594.1 0.398237 -0.110970 0.039007 0.124495 0.239711 -0.131723 0.062302 -0.245759 0.002236 0.075562 -0.065943 0.179110 0.045525 -0.034405 -0.269148 -0.089448 0.049186 0.012350 0.143214 -0.015096 0.068589 -0.083201 0.249906 0.235350 0.138754 -0.217982 0.129714 -0.171694 0.218186 -0.095674 0.188155 0.080443 -0.011214 -0.092684 -0.010460 -0.081089 -0.045908 -0.155189 -0.157247 0.054456 0.018934 -0.247703 0.084071 0.068383 -0.101440 -0.181590 -0.009995 -0.056272 0.039800 -0.195734 -0.079131 0.018776 0.116949 0.074622 -0.042360 -0.133122 0.284740 -0.102929 0.090423 0.024919 -0.054770 0.035113 0.276671 0.104449 -0.120627 -0.092021 -0.119410 -0.019527 -0.142456 0.207823 -0.025625 -0.124257 0.035185 -0.078759 0.197739 0.146569 0.265166 -0.214339 -0.226879 0.082217 0.260567 0.413551 0.363063 0.350621 -0.022303 -0.065861 0.051994 0.540729 -0.067925 0.125058 -0.194305 -0.038322 -0.042128 -0.221018 -0.208939 -0.015552 -0.008993 0.013600 0.203953 0.034104 -0.250242 0.171990 -0.004772 0.038505 0.047181 -0.118758 0.018076 -0.245576 0.025883 0.115367 0.097212 -0.090434 0.037728 -0.185930 0.085119 0.254660 -0.048453 -0.065587 -0.315391 0.030066 0.126915 0.072300 -0.052551 -0.071282 -0.121644 0.020089 -0.067639 0.031299
CP013185.1 0.231929 0.038670 -0.075862 0.142097 -0.000269 -0.113889 -0.124943 0.008731 0.022949 -0.151708 -0.091388 -0.124906 -0.070530 -0.039601 -0.211989 -0.113119 -0.054477 0.159672 0.046233 -0.094339 -0.084196 -0.246772 -0.028966 0.119191 0.116639 -0.293483 0.074122 0.166757 0.125977 0.230232 0.324855 -0.111384 0.048504 -0.142987 0.070558 -0.184960 -0.107410 -0.032396 -0.146910 -0.214728 0.094046 -0.000177 0.045352 0.132578 -0.294138 -0.157329 0.307291 -0.043297 0.216598 -0.199038 -0.110309 0.166525 0.174884 0.309891 0.027763 0.030016 -0.076110 -0.040944 0.058655 -0.122584 -0.044594 0.065292 0.237580 -0.010111 0.217839 -0.069730 -0.066437 -0.156122 -0.236230 -0.092084 0.092411 -0.256818 -0.067960 0.087203 -0.223288 -0.028029 0.011693 0.031118 0.133893 0.153629 0.231854 0.244886 0.147719 0.148657 0.068008 -0.177813 0.089002 0.099181 -0.257426 -0.025032 0.246559 -0.011948 -0.158554 -0.045522 0.068504 0.005133 0.002707 0.342135 -0.013968 0.046248 0.023996 0.124412 -0.087999 -0.044084 -0.017102 -0.152706 0.202257 -0.072955 -0.069574 0.215020 -0.117397 -0.154411 -0.085128 0.039513 -0.003543 0.140560 -0.019073 0.064990 -0.088120 0.025864 0.030966 -0.048121 0.013356 -0.353175 -0.168368 0.153296 -0.005176 -0.148635
CP009859.1 0.333376 0.224265 -0.098169 0.205147 0.100097 -0.109068 -0.201284 0.024578 0.098685 -0.192873 -0.062664 -0.133682 -0.227471 -0.149261 -0.182747 -0.154649 -0.133090 0.153726 0.097153 -0.095620 0.012011 -0.126750 -0.093868 0.270723 0.004878 -0.276673 0.014450 0.155147 0.221553 0.121279 0.373149 -0.067856 0.031984 0.001629 -0.021049 -0.217557 -0.055015 -0.057598 -0.047975 -0.125121 0.115053 0.014738 -0.040041 0.143489 -0.268790 -0.198055 0.292367 -0.081939 0.191378 -0.178154 -0.134147 0.103581 0.173379 0.235755 0.036254 0.034443 -0.027794 0.018174 0.078833 -0.112552 0.056755 0.120120 0.176392 -0.049317 0.165743 0.028414 -0.138538 -0.038383 -0.254528 -0.090126 0.060329 -0.278909 -0.016750 -0.011768 -0.160202 -0.014603 0.105821 0.180958 0.097393 0.140000 0.030823 0.242882 0.219007 0.195087 -0.004841 -0.181920 0.097685 0.053312 -0.123499 0.010059 0.179221 -0.037962 -0.058189 0.026740 0.107680 0.068506 0.042587 0.422460 -0.038918 0.042722 0.016573 0.107396 -0.097892 0.043620 -0.149249 -0.151872 0.222430 -0.087838 0.063366 0.205377 0.036230 -0.082557 -0.111352 -0.063111 0.077155 -0.067737 0.043010 0.081096 0.011579 0.036888 -0.024227 -0.049155 0.103719 -0.363755 -0.192133 0.249750 0.068292 -0.183478
NC_004735 0.249372 0.086104 -0.012807 0.331315 0.190923 0.041989 0.010017 0.166114 0.074162 -0.261156 -0.046206 -0.097869 -0.081512 -0.058480 -0.090492 -0.252666 0.169446 -0.043028 -0.055893 -0.295316 0.230311 0.083302 0.161531 -0.003581 0.202890 -0.236254 0.163518 -0.041282 0.414725 0.186002 0.201465 0.312531 -0.215979 0.154690 -0.056017 -0.429039 -0.112932 0.149517 -0.041130 -0.034079 -0.083193 0.040926 -0.003008 0.011340 -0.126450 -0.350939 0.046258 -0.008531 -0.160917 -0.226037 0.102008 0.084851 0.178615 -0.050087 -0.095446 -0.184024 0.160342 0.036245 -0.167234 0.000080 0.111268 0.092663 0.114771 0.026681 0.169379 -0.218826 -0.142210 -0.122097 -0.295487 -0.002367 -0.399278 0.042280 0.274759 0.102645 -0.125601 -0.267842 -0.098663 0.121091 -0.102187 0.029321 -0.017439 0.239100 0.201148 -0.033734 0.207384 0.134730 -0.114843 0.285700 -0.083050 0.072224 -0.222711 -0.032672 -0.283153 -0.018405 0.006970 -0.238181 0.248665 0.133536 0.232091 -0.254649 -0.119914 -0.043240 -0.248297 0.004975 -0.209738 0.180099 0.021278 -0.016105 -0.027905 0.161759 0.052868 -0.127153 0.074891 -0.008952 0.115520 0.180916 -0.135819 0.065823 -0.020615 0.108875 0.187842 0.089097 -0.034436 -0.206383 0.018707 0.016528 -0.107815 0.055559
NC_008201 0.078260 0.027481 0.175079 0.050760 -0.071523 -0.080537 0.196136 0.076444 0.000337 -0.238634 0.013315 0.068735 -0.205523 -0.222043 -0.246386 -0.067023 -0.061400 0.202904 0.092178 0.076171 -0.020590 -0.177882 0.135561 0.463330 0.039840 -0.415219 0.350157 0.141401 -0.109269 0.113301 0.015306 -0.039052 -0.069651 -0.025488 0.068848 -0.028242 0.014237 -0.179702 -0.102585 0.141255 0.028448 -0.178731 0.345551 0.259449 0.003505 -0.182744 0.248784 -0.126522 0.244459 -0.048796 -0.245234 0.077358 -0.225330 0.120321 0.242949 -0.080202 -0.094053 -0.029228 0.015310 0.097178 0.076316 0.228208 0.040044 0.290499 0.289822 0.065954 -0.074342 0.062931 0.240779 0.056527 0.046249 -0.436254 0.349309 0.014448 0.260282 -0.130859 -0.065426 0.155428 -0.153239 -0.100772 -0.017388 0.200923 0.317136 0.029880 0.114764 -0.003422 0.088455 0.161903 -0.127963 -0.131585 0.126110 -0.232167 -0.190879 -0.097138 0.241756 0.126227 0.103213 0.133773 -0.152337 -0.081348 -0.156133 0.108924 -0.158618 -0.218294 -0.091230 -0.024358 0.249310 -0.039418 -0.103993 0.448543 0.156351 -0.222462 -0.173446 -0.006964 0.136181 0.287439 -0.273779 0.145967 -0.021892 -0.036406 0.130854 -0.066257 0.022370 -0.246758 -0.214226 -0.203141 -0.312646 0.183746
CP015228.1 0.130646 0.004330 -0.031326 0.261417 0.203515 -0.089851 -0.035235 0.114806 0.111222 -0.043678 -0.228513 -0.028616 -0.120894 -0.068431 -0.199300 -0.111437 -0.035904 0.060178 0.163375 -0.060991 0.041043 -0.122742 0.146377 0.267262 0.261703 -0.203938 0.075220 0.196693 0.254655 0.062027 0.267985 0.079143 -0.089628 0.090785 -0.138678 -0.044170 -0.054934 -0.017932 -0.256963 0.015280 0.141175 -0.040279 -0.081371 0.139432 -0.070963 -0.281874 0.213230 -0.051735 -0.058728 -0.033870 -0.075391 0.023461 0.106149 0.062826 -0.051152 0.012295 0.074239 -0.002984 -0.037434 -0.189480 0.000163 0.097221 -0.040621 0.051791 0.037341 -0.047133 -0.094529 -0.001278 -0.232735 -0.073987 -0.054534 -0.219802 0.071218 0.082990 0.105814 -0.085579 0.035317 0.068996 0.091033 -0.072407 0.171420 0.323381 0.116882 0.044209 0.106519 -0.072190 -0.033388 0.245742 -0.073015 0.002410 0.030130 -0.125904 0.051579 0.010535 -0.036109 0.032637 0.047019 0.347510 0.037788 0.025927 -0.061271 0.084997 -0.118480 0.021977 -0.103856 -0.045968 0.057514 -0.010543 -0.099158 0.246785 0.080014 -0.156118 -0.042823 -0.195685 -0.015737 0.152084 -0.041838 -0.116243 -0.011813 0.094301 0.029491 -0.058524 -0.114734 -0.308562 -0.068662 -0.042132 -0.074885 0.021818
CP015834.1 0.130749 0.228070 -0.036885 0.132954 0.125669 0.070762 -0.209923 -0.085282 0.077324 -0.068132 0.096491 -0.051584 -0.263588 -0.185666 -0.105984 -0.142769 -0.146567 0.014089 0.150077 -0.064942 0.089043 0.019773 -0.055239 0.448409 -0.015134 -0.258151 0.036396 0.051708 0.186067 0.040266 0.333673 0.067831 -0.000276 0.015356 -0.105634 -0.024918 0.057972 -0.200688 0.058359 -0.034618 0.116540 -0.045171 -0.128259 0.200871 -0.233702 -0.349107 0.222109 -0.119899 0.141077 -0.129920 -0.044525 -0.008489 0.099758 0.178927 0.049254 -0.021973 -0.093277 0.079059 0.145921 -0.073479 0.167902 0.109210 0.119357 0.097671 -0.099171 0.030880 -0.218290 0.107091 -0.132154 -0.105914 0.061723 -0.232220 -0.015983 -0.037691 0.043802 0.083143 0.147244 0.208475 0.038281 0.124225 -0.098856 0.367192 0.249375 0.209686 0.028344 -0.163435 0.141282 -0.022136 -0.008277 0.049396 0.106819 -0.092869 0.105801 0.051638 0.017546 0.123569 0.003659 0.409989 0.060858 -0.111152 0.005275 0.158353 -0.005694 -0.006168 -0.158846 -0.041195 0.181647 -0.107076 0.250147 0.241929 0.144298 -0.062276 -0.114622 -0.112687 0.110839 -0.223833 0.012257 0.041129 0.092571 -0.099176 -0.011143 -0.171632 -0.026714 -0.362532 -0.060618 0.328937 0.013101 -0.116514
CP015023.1 0.346292 0.324189 -0.074790 0.314312 0.218334 0.021668 -0.025327 -0.013033 0.112966 -0.032187 0.009642 -0.011849 -0.010670 -0.171027 -0.145359 -0.263853 -0.086638 0.010619 0.087064 -0.132362 0.072535 -0.071433 0.084371 0.167234 0.159940 -0.255337 0.147781 0.002283 0.246448 0.055575 0.070145 0.043196 -0.092248 0.053453 -0.026624 -0.230453 -0.135544 -0.116956 -0.105519 -0.011150 -0.068146 -0.009683 0.010316 0.096926 -0.166896 -0.233503 -0.000124 0.011852 0.010381 -0.316104 -0.141887 0.171907 0.197962 0.013565 0.094158 -0.081854 0.108316 0.041204 -0.041100 0.036141 0.107120 0.078366 0.113045 -0.052674 0.183365 -0.113123 -0.196035 -0.004511 -0.134375 0.107104 -0.138486 -0.121737 0.050586 0.079002 -0.078557 -0.058552 -0.112413 0.085023 0.133394 0.016571 -0.004390 0.269187 0.213625 0.054768 0.046754 -0.016609 0.023269 0.249183 0.055336 0.064438 -0.096855 -0.098742 -0.090378 -0.034397 -0.048547 0.012758 0.097589 0.017732 0.025486 -0.077363 -0.094413 0.019627 -0.171441 0.002975 -0.211163 -0.054250 0.039190 -0.101642 0.048489 0.206300 -0.044517 -0.143732 0.010846 -0.133131 0.075694 0.142594 -0.089775 0.084431 -0.093393 0.131218 0.137819 0.060850 -0.128516 -0.250884 -0.060533 0.134410 0.023756 0.029117
CP013835.1 0.213995 0.059077 0.015237 0.110715 0.108378 -0.058278 0.059865 -0.029985 -0.003809 -0.123808 -0.043716 -0.059733 -0.071743 -0.035979 -0.211626 -0.045644 -0.016748 0.073244 0.087001 -0.091511 0.100126 -0.096956 0.157348 0.164974 0.108864 -0.285359 0.099924 -0.029667 0.111535 0.107723 0.206326 0.059423 -0.029304 0.022755 -0.052166 -0.136113 -0.087586 -0.096132 -0.057945 -0.012073 -0.001621 -0.131047 0.068240 0.097733 -0.089255 -0.234427 0.149652 -0.023712 0.033905 -0.094526 -0.051114 0.054418 0.044056 0.114357 -0.061607 -0.038621 0.053309 -0.035484 0.015566 -0.103122 0.056244 0.077719 0.170191 0.058627 -0.008460 -0.021651 -0.141773 -0.098818 -0.201008 0.025437 -0.054123 -0.264807 0.066150 0.003332 -0.024220 -0.003396 0.137073 0.021239 -0.088524 0.025021 0.162310 0.233520 0.097132 0.133896 0.042402 -0.076853 0.039249 0.231348 -0.167980 -0.029804 0.015517 -0.142290 -0.099534 -0.107362 0.027660 -0.073638 0.105145 0.162507 0.020696 -0.000846 -0.111551 0.092234 -0.140110 0.019764 -0.026931 -0.004410 0.110552 -0.069515 -0.042115 0.120066 0.043500 -0.048853 0.029826 -0.114762 0.077749 0.171704 -0.074422 0.027887 -0.077166 -0.032425 -0.018497 0.023800 -0.100459 -0.123262 -0.221228 -0.020817 -0.052105 -0.071427
CP012631.1 0.040027 0.177392 0.050978 0.161346 0.171628 0.128858 -0.181296 -0.140820 0.039703 -0.047807 0.068814 0.082050 -0.116156 -0.045355 -0.090185 -0.128007 -0.006166 -0.158396 0.017466 -0.076351 0.090901 0.113364 0.029070 0.494258 0.080695 -0.228079 0.124918 -0.003620 0.162841 0.037227 0.305955 0.192547 -0.130892 -0.030710 -0.067185 -0.010372 0.097329 -0.312498 0.014961 0.072564 0.057712 -0.145630 -0.065300 0.121656 -0.146659 -0.404098 0.143451 -0.001186 0.018439 -0.151928 0.075584 -0.022328 0.097843 0.117222 0.002395 -0.034202 -0.118641 0.101831 0.140040 0.002015 0.283166 -0.032812 0.090443 0.191246 -0.267894 -0.078332 -0.259687 0.120817 -0.098347 -0.109429 0.050480 -0.104026 -0.040261 0.086600 0.117688 0.031028 0.060305 0.124525 0.098760 0.170233 -0.050288 0.403336 0.189726 0.188540 0.099971 -0.053233 0.155422 -0.018046 0.061855 -0.003071 0.051823 -0.059420 0.194457 -0.038454 -0.119573 -0.072400 0.038120 0.311224 0.161904 -0.168837 0.054624 0.213863 -0.070556 -0.120240 -0.094761 0.087932 0.078115 -0.088561 0.307427 0.258681 0.130017 -0.083616 0.064989 -0.039527 0.083828 -0.226281 -0.113350 -0.081175 0.135444 -0.057583 0.102049 -0.171790 -0.137966 -0.324573 0.095058 0.283251 -0.169786 0.044699
CP013031.1 0.088199 -0.025482 -0.112153 0.257397 0.009660 -0.157050 -0.103038 -0.041835 -0.115950 -0.116989 -0.058652 -0.000063 -0.062947 0.075519 -0.163709 -0.230011 0.027643 0.168354 0.057317 -0.156352 0.024414 -0.235842 0.042890 -0.035374 0.121007 -0.236590 0.088845 0.226054 0.204903 0.189813 0.208639 -0.134335 0.015874 -0.066245 0.009198 -0.189808 -0.011435 0.064902 -0.291964 -0.149222 0.046244 -0.074426 0.025716 0.166712 -0.077011 -0.116324 0.327212 -0.134921 0.104142 -0.161481 -0.104610 0.082515 0.144141 0.223620 -0.074619 -0.007393 0.126355 -0.181697 -0.063990 -0.110679 0.092832 0.136410 0.125926 -0.051599 0.084730 -0.130930 -0.029055 -0.177245 -0.295150 -0.155590 -0.114042 -0.128171 -0.150146 0.049913 -0.229767 -0.098325 0.008154 0.010392 0.128763 0.151473 0.236370 0.214079 0.210773 0.175270 0.000948 -0.093714 0.094066 0.060235 -0.105179 0.022834 0.200853 -0.076919 -0.219721 -0.102273 -0.041512 -0.068933 0.032814 0.341492 0.008093 -0.097825 -0.071787 0.201462 -0.120630 -0.100279 0.045187 -0.242258 0.118003 -0.072403 -0.123800 0.167022 -0.204345 -0.240055 -0.006009 -0.076701 0.108651 0.143587 -0.088834 -0.017418 -0.153692 0.144434 0.065132 -0.034671 0.049910 -0.325129 -0.127997 0.175261 -0.123944 -0.038506
CP009106.2 0.343457 0.245313 -0.154003 0.081256 0.210456 -0.186990 -0.167254 0.011314 0.036821 -0.120225 0.042377 -0.102466 -0.157251 -0.207006 -0.222481 -0.163964 -0.148660 0.086443 0.064711 -0.046423 0.165212 -0.042805 0.024089 0.192249 -0.052017 -0.353056 -0.120352 0.231130 0.168150 0.014285 0.123101 -0.057505 -0.166643 0.030615 -0.048824 -0.091653 -0.028142 0.037935 0.092124 -0.043584 0.197661 -0.114528 -0.025864 0.219421 -0.147000 -0.149942 0.269345 -0.034253 0.081699 -0.061322 -0.170612 0.118675 0.027645 0.326318 -0.007750 -0.090574 -0.124683 -0.038079 0.166510 0.074547 0.190993 0.135587 0.011622 -0.070408 -0.063264 0.017362 -0.151475 -0.128482 -0.219498 -0.154283 0.032010 -0.200539 0.057437 0.072118 0.017793 -0.013109 0.245328 0.198689 -0.001794 0.197933 0.022874 0.360242 0.135491 0.256779 0.009327 -0.177238 0.154778 0.105919 -0.100655 0.201406 0.037307 0.059609 0.009807 -0.029555 0.065204 0.047940 0.066792 0.284518 -0.064075 -0.078078 -0.076973 0.044598 -0.007807 -0.037679 -0.079166 -0.079295 -0.006906 -0.147104 -0.048776 0.166516 0.021010 -0.021299 -0.140326 -0.143337 0.112045 -0.068688 -0.046380 0.121428 -0.165289 0.006812 -0.090146 -0.142564 -0.003624 -0.355109 -0.306731 0.171486 0.038866 -0.111615
NC_007409 0.485113 0.086927 0.107656 0.209866 0.317038 -0.203864 -0.039991 0.040884 0.018045 -0.340370 -0.151445 0.277438 -0.065666 0.043887 -0.184465 -0.075161 0.282040 -0.226756 -0.241145 -0.047210 -0.017109 0.198443 0.067344 0.247895 0.207371 -0.289046 0.157908 0.208328 0.118096 0.047049 0.301128 0.238135 -0.461883 -0.071350 0.103695 -0.339690 0.005471 -0.311065 -0.088108 0.044361 0.057053 -0.194399 0.278778 -0.005063 -0.119409 -0.199225 0.167771 0.353427 -0.263610 -0.152126 0.005596 0.165389 0.154324 0.234942 -0.171698 -0.099178 -0.137118 0.124181 0.127567 0.259420 0.301023 -0.213699 0.201081 0.141477 -0.209565 -0.107157 -0.204753 -0.009845 -0.161408 -0.191674 0.094266 -0.002025 0.038458 0.278563 0.028338 -0.244155 -0.028434 -0.002643 0.108387 0.317649 -0.043632 0.353375 0.014784 0.311847 -0.052668 -0.059519 -0.002112 0.085582 -0.126820 -0.113238 0.139795 0.272640 0.064147 -0.073034 -0.040088 -0.422053 0.005153 0.270450 0.086011 0.004702 0.242291 0.267719 -0.271694 -0.216678 -0.119665 0.152350 0.024738 -0.109590 0.030274 0.329049 -0.078825 0.079958 0.182281 0.218919 0.000192 0.005180 -0.226389 -0.134020 0.044427 0.265067 0.033439 0.097901 0.087894 -0.286048 -0.028000 0.131302 -0.339171 0.213377
CP010876.1 0.083054 0.095655 -0.014104 0.268895 0.299780 -0.090009 0.081367 0.042697 0.067426 0.103361 -0.151132 0.079517 -0.067125 -0.088582 -0.245423 -0.133232 -0.057582 -0.007052 0.163485 0.077344 0.047933 -0.132706 0.211830 0.283610 0.276908 -0.239361 0.139211 0.153388 0.173821 -0.052303 0.072707 0.046725 -0.141418 0.019845 -0.167238 0.047644 -0.019790 -0.060739 -0.268690 0.092242 0.087932 -0.174494 -0.078816 0.092353 0.022109 -0.259135 0.154805 0.052904 -0.079381 -0.010739 -0.187974 0.031429 0.035625 0.062010 0.022401 0.024404 0.099183 0.038704 -0.001610 -0.107068 0.048134 0.056068 -0.089183 0.072602 -0.069472 -0.051327 -0.099998 0.026230 -0.141827 -0.041549 -0.052690 -0.213412 0.025556 0.119963 0.192696 -0.041516 0.036822 0.027263 0.110468 -0.034992 0.204675 0.388133 0.156991 0.061096 0.089471 -0.070791 -0.020328 0.264631 0.049637 -0.027031 -0.075880 -0.169823 0.158059 -0.096090 -0.132829 -0.016682 0.028252 0.221472 0.026902 0.041375 -0.127366 0.103735 -0.108384 -0.026694 -0.064687 -0.016539 -0.040351 -0.054009 -0.118542 0.281052 0.068310 -0.152695 -0.004302 -0.257434 0.018105 0.164644 -0.149673 -0.179105 -0.059547 0.142035 0.066758 -0.091414 -0.246400 -0.271052 -0.053574 -0.101651 -0.121723 0.090055
CP013029.1 0.237946 0.033071 -0.091979 0.139658 0.106539 -0.111088 -0.127142 0.055369 0.054101 -0.167523 -0.141212 -0.172078 -0.090342 -0.038034 -0.205814 -0.100522 -0.067831 0.105922 0.074487 -0.123632 -0.002107 -0.164775 0.005353 0.151964 0.118772 -0.286047 0.025091 0.106421 0.207910 0.161322 0.370961 -0.009887 0.040750 -0.054234 -0.006457 -0.178166 -0.099685 0.023682 -0.099935 -0.152095 0.111141 -0.014597 -0.020285 0.110601 -0.255088 -0.178458 0.265009 -0.034933 0.138977 -0.153971 -0.029143 0.122672 0.169804 0.232247 -0.021016 0.018970 -0.019540 -0.012801 0.064106 -0.190524 -0.053014 0.090975 0.164632 -0.024449 0.127100 -0.053856 -0.099314 -0.141821 -0.313067 -0.089028 0.045990 -0.234469 -0.010985 0.046848 -0.159364 -0.025553 0.125809 0.067891 0.066495 0.131309 0.204761 0.277516 0.107600 0.158941 0.091936 -0.145132 0.053266 0.156887 -0.230567 0.003935 0.142619 -0.024615 -0.093729 -0.026815 0.038743 -0.026759 0.051302 0.355987 0.031413 0.066493 -0.014953 0.086405 -0.063590 0.050705 -0.018490 -0.066495 0.155867 -0.096647 -0.017895 0.149623 0.004063 -0.095060 -0.057402 -0.047165 -0.000817 0.093466 0.013258 0.039502 -0.080089 0.011638 0.011793 -0.039744 -0.011794 -0.308028 -0.179529 0.106754 0.022131 -0.189404
NC_008723 -0.079388 -0.116891 0.240814 -0.044661 -0.040191 -0.099799 0.127214 0.131978 -0.039354 -0.232444 -0.129287 0.085090 0.060276 -0.125581 -0.247112 -0.150772 -0.079672 0.059921 0.137491 0.211999 -0.088259 -0.268575 0.103390 0.405745 0.195893 -0.443741 0.389940 0.156735 -0.134872 0.009412 0.057930 -0.040889 -0.038884 -0.205044 0.048082 0.046367 0.003041 -0.250565 -0.194958 0.220187 0.057455 -0.180661 0.520463 0.370274 -0.115750 -0.076335 0.228054 -0.057956 0.244328 -0.176234 -0.216016 0.140830 -0.163992 0.017409 0.312589 -0.015609 -0.099082 0.074529 0.042642 0.057243 -0.047276 0.260171 -0.189060 0.383890 0.332635 -0.005722 -0.162322 0.027472 0.300797 0.096127 0.073484 -0.304840 0.453418 0.071476 0.393628 -0.177260 -0.080782 0.123177 0.062367 0.012181 0.025588 0.425047 0.231098 0.089624 0.278646 0.016470 0.093046 0.258138 -0.118192 -0.102121 0.154688 -0.090760 -0.182765 -0.117721 0.086343 0.023446 0.001841 0.095831 -0.097982 0.057396 -0.053057 0.027417 -0.155538 -0.110189 0.001119 0.098586 0.132371 -0.138745 0.069556 0.428535 0.183224 -0.236675 -0.126905 0.105034 -0.045081 0.388329 -0.265207 0.130113 -0.085146 -0.119173 0.268911 -0.122098 -0.062850 -0.323940 -0.167976 -0.298415 -0.303894 0.190834
CP012870.1 -0.060451 0.019685 0.197867 0.016193 -0.082453 -0.032215 0.182776 0.018380 -0.012537 -0.148131 0.005536 0.040594 -0.021371 -0.164504 -0.244657 -0.154627 -0.106084 0.069119 0.118792 0.205027 -0.044600 -0.196961 0.098525 0.433117 0.114825 -0.460344 0.426601 0.109419 -0.171524 0.109141 0.034225 -0.063257 -0.027508 -0.119508 0.005128 0.003052 -0.003755 -0.355469 -0.116590 0.122312 -0.020848 -0.160865 0.406294 0.265732 -0.095488 -0.086568 0.209945 -0.009828 0.267551 -0.112209 -0.274788 0.104225 -0.117098 0.102784 0.314198 -0.014450 -0.067155 0.066932 0.068921 0.045574 0.072460 0.193932 0.052046 0.307887 0.343495 0.010420 -0.098029 0.052176 0.251111 0.093296 0.110643 -0.447450 0.297245 0.063943 0.228987 -0.112221 -0.130979 0.108133 0.020621 -0.025614 -0.016226 0.317692 0.260843 0.046627 0.165202 -0.037601 0.090919 0.180249 -0.130611 -0.206638 0.145957 -0.189071 -0.135850 -0.145221 0.183792 0.067750 0.091294 0.050102 -0.170062 0.006373 -0.056214 0.031811 -0.170930 -0.174404 -0.033960 0.050566 0.250961 -0.080133 0.008022 0.450618 0.077423 -0.183099 -0.139558 0.044625 0.056526 0.290732 -0.234871 0.101376 -0.044818 -0.136039 0.186502 -0.095460 -0.103132 -0.293165 -0.230131 -0.225458 -0.265902 0.109128
CP017100.1 0.173688 -0.070768 0.015078 0.243594 -0.011093 -0.131334 -0.107846 -0.132135 -0.069243 -0.160205 -0.106386 0.098104 -0.112211 0.062192 -0.123571 -0.204070 0.048624 0.131553 0.063564 -0.124136 0.043487 -0.139553 0.081338 0.141807 0.082380 -0.163474 0.160811 0.102472 0.218685 0.134481 0.277755 -0.029820 0.022082 0.029151 -0.004427 -0.202491 0.039201 -0.143932 -0.266351 -0.019514 -0.002611 -0.119469 0.087391 0.171075 -0.023580 -0.175520 0.243911 -0.219570 0.074928 -0.185540 -0.061254 0.008125 0.115325 0.090242 -0.077665 -0.030990 0.225214 -0.181925 -0.068352 -0.097408 0.135333 0.136429 0.180491 0.012972 0.042316 -0.061984 -0.092139 -0.048506 -0.182632 -0.027864 -0.070827 -0.152047 -0.044828 -0.031256 -0.076789 -0.063374 0.028782 0.007324 -0.006720 0.059032 0.103935 0.137328 0.266325 0.225310 -0.066923 -0.013930 0.078440 0.130528 -0.055240 -0.023248 0.124629 -0.107384 -0.164579 -0.043642 -0.015178 0.017244 0.061651 0.281373 0.007952 -0.066209 -0.065408 0.246409 -0.136202 -0.067038 0.006081 -0.231195 0.218259 -0.041929 -0.018877 0.180275 -0.085441 -0.189069 0.027573 -0.112799 0.139325 0.120609 -0.056335 -0.044033 -0.080047 0.086421 0.046784 0.033731 0.118472 -0.232286 -0.123368 0.138447 -0.174024 0.029243
CP012635.1 -0.084750 0.341472 0.146830 0.191002 0.071127 0.080935 0.196294 -0.212544 -0.097612 0.014373 0.172877 -0.041460 0.115844 0.026184 -0.202403 -0.352668 -0.174606 -0.137334 0.093437 0.207441 0.099719 -0.151357 0.109704 0.157061 0.123457 -0.498885 0.429445 -0.087682 -0.065931 0.154251 -0.076566 -0.099550 -0.101267 -0.106262 -0.161950 -0.134844 0.002227 -0.565599 -0.026878 0.049985 -0.237563 -0.233677 0.220036 0.091229 -0.051188 -0.174894 0.032025 0.178446 0.133574 -0.125090 -0.288541 0.078168 0.129207 0.060702 0.225254 0.130458 0.107668 0.120944 0.047092 0.045799 0.402727 0.044314 0.262651 0.081298 0.114187 -0.034122 -0.133520 -0.041939 -0.017528 0.052465 -0.035811 -0.466487 -0.121118 0.117722 -0.177549 -0.092335 -0.206299 0.042076 0.313713 0.173588 -0.059340 0.296929 0.116142 0.130492 -0.041195 -0.149915 0.092202 0.012278 0.039382 -0.258638 0.090556 -0.227659 0.040465 -0.170883 -0.037619 -0.229972 0.144266 -0.065508 -0.140434 0.008113 -0.038045 0.103352 -0.353628 -0.052549 -0.112070 0.038998 0.177471 -0.083589 0.092499 0.238469 -0.245967 -0.024851 0.119869 -0.073303 0.192519 0.061628 -0.198187 -0.080835 -0.014328 -0.114532 0.098693 -0.052837 -0.321347 -0.237222 -0.286855 0.074683 -0.172759 -0.105426
CP015995.1 0.125700 0.060780 0.054622 0.087796 0.077340 -0.006573 0.060744 -0.079952 -0.062191 -0.111724 0.003789 -0.074791 -0.042053 -0.015049 -0.141830 -0.151859 -0.070549 0.037252 0.086338 -0.026994 0.167524 -0.122073 0.173006 0.094437 0.098267 -0.272545 0.117221 -0.076704 0.145893 0.081268 0.096579 0.060704 -0.016279 0.013962 -0.097036 -0.061911 -0.015328 -0.118573 -0.034166 0.035979 -0.015322 -0.182611 0.065564 0.156895 -0.037687 -0.287933 0.158608 -0.118565 0.057995 -0.107086 -0.058346 0.023683 -0.004204 0.043984 -0.004332 -0.026109 0.091167 -0.059859 -0.018209 -0.089053 0.153950 0.170811 0.077084 0.068270 -0.042255 -0.018270 -0.167047 -0.105388 -0.135318 0.023652 -0.119329 -0.247621 0.094268 0.003272 0.044100 -0.003294 0.124500 0.060561 -0.087835 0.058177 0.082051 0.245638 0.125720 0.177658 0.029692 -0.067558 0.051238 0.185439 -0.064892 0.036894 -0.022531 -0.174962 -0.080737 -0.064406 -0.002655 -0.059231 0.104456 0.128412 0.005788 -0.072510 -0.160150 0.099127 -0.109323 0.032013 0.005859 0.002987 0.096589 -0.087695 -0.025424 0.111121 0.017890 -0.069196 0.007521 -0.177758 0.137415 0.147044 -0.114338 0.007568 -0.091799 -0.115921 0.013921 -0.052975 -0.143949 -0.141247 -0.225712 -0.002271 -0.096384 -0.076471
NC_004585 0.112444 -0.077836 -0.249933 0.045642 -0.059393 -0.136481 -0.133866 -0.073861 -0.173125 -0.047830 -0.029141 -0.070368 -0.044292 0.048904 -0.237833 -0.133909 -0.044655 0.242865 0.113839 -0.193902 -0.117596 -0.408318 -0.011023 -0.056275 0.179970 -0.298951 -0.066125 0.244736 0.119319 0.261366 0.264105 -0.198097 0.122995 -0.284351 0.149672 -0.025743 -0.080832 0.156086 -0.287977 -0.324183 0.181348 -0.121156 0.022803 0.273288 -0.261249 -0.157365 0.473527 -0.144350 0.259672 -0.243813 -0.079709 0.238957 0.102158 0.469583 -0.034349 -0.043023 -0.118620 -0.209253 0.042200 -0.172654 -0.043249 0.136164 0.230502 -0.042504 0.033675 -0.174289 -0.051043 -0.309889 -0.342355 -0.210418 0.092283 -0.220880 -0.251914 0.103530 -0.250749 0.038298 0.106857 -0.054039 0.168661 0.249318 0.462845 0.363934 0.156729 0.317717 0.054613 -0.283349 0.184171 0.062951 -0.263442 0.088774 0.420664 -0.054334 -0.229633 -0.095343 -0.031831 -0.006346 -0.101724 0.411678 -0.008920 -0.093714 -0.081481 0.258849 0.050251 -0.134959 0.172126 -0.293492 0.089204 -0.220016 -0.120647 0.199553 -0.309323 -0.308146 -0.112919 -0.062242 0.025941 0.208103 -0.109810 0.115546 -0.258524 0.066858 0.022002 -0.148279 -0.058184 -0.450076 -0.182479 0.277610 -0.050255 -0.167025
CP016497.1 0.440333 0.087893 0.069986 0.132914 0.252941 -0.154090 -0.031127 0.004243 -0.002213 -0.221145 -0.139512 0.177980 -0.048732 -0.007014 -0.152363 -0.083038 0.100705 -0.114984 -0.084632 -0.009172 0.001207 0.039168 0.100440 0.178704 0.187320 -0.225348 0.069797 0.108384 0.130440 0.001571 0.177460 0.142079 -0.270421 -0.048532 0.052985 -0.169381 -0.019001 -0.248758 -0.100569 0.070698 0.064385 -0.190706 0.196246 0.095015 -0.104426 -0.238470 0.137205 0.163687 -0.151871 -0.166071 -0.049206 0.144330 0.059139 0.141584 -0.082025 -0.071050 -0.060820 0.054406 0.082385 0.145475 0.196678 -0.061603 0.088065 0.101129 -0.169875 -0.027440 -0.216979 -0.027309 -0.115128 -0.073566 0.061052 -0.084887 0.066786 0.169585 0.108315 -0.120467 0.037160 0.005768 0.059376 0.193522 -0.000212 0.323027 0.034673 0.291004 -0.058078 -0.068674 0.011880 0.169227 -0.066104 -0.016576 0.085824 0.114008 0.066735 -0.033157 -0.060096 -0.208186 -0.026486 0.182092 0.032815 0.027295 0.088581 0.219730 -0.168927 -0.087219 -0.099081 0.056048 0.022210 -0.138193 0.016369 0.242011 -0.045960 0.027602 0.092977 0.018885 0.016764 0.083843 -0.162447 -0.058914 -0.031106 0.150170 0.006839 0.058604 -0.016998 -0.217455 -0.097981 0.073612 -0.210116 0.130397
CP013253.1 -0.083776 0.281145 -0.120140 0.193131 0.007867 0.075507 0.100136 -0.046965 -0.073721 -0.096173 0.029314 0.056290 0.113420 -0.054142 -0.200346 -0.267583 -0.129412 0.017606 0.164386 -0.118940 0.027408 -0.197953 0.034231 0.213814 0.237951 -0.291513 0.225330 0.058868 0.018980 0.136581 0.044598 -0.045567 -0.065907 0.001565 -0.005442 -0.132424 -0.096193 -0.159052 -0.242417 0.039805 -0.117090 -0.066952 0.291321 0.209179 -0.073920 -0.063753 0.055100 0.054225 0.066651 -0.267189 -0.195102 0.168064 0.098821 -0.102755 0.150422 -0.076182 -0.000372 0.021145 -0.088870 0.002218 0.228509 0.184795 0.064141 0.089848 0.292161 -0.207934 -0.135913 -0.008763 -0.054043 0.160822 -0.118710 -0.111957 -0.002328 0.074187 -0.100591 -0.113947 -0.312439 0.123751 0.340260 -0.063888 0.062278 0.294227 0.204713 -0.031714 0.123841 -0.046045 0.150623 0.139709 0.151709 -0.132332 0.158309 -0.229207 -0.193063 -0.103960 -0.019298 -0.154541 0.142068 -0.071461 -0.124241 -0.191632 -0.074918 -0.052082 -0.305147 -0.071344 -0.186136 -0.042637 -0.104539 -0.144443 0.216188 0.264129 -0.110639 -0.318722 0.120598 -0.082733 0.105763 0.214950 -0.233018 0.198101 0.005052 0.072458 0.244310 0.001685 -0.217984 -0.288389 0.023858 0.105331 -0.077317 0.099348
NC_006552 0.001225 -0.002818 -0.036919 0.346420 0.347526 -0.074506 -0.049550 0.156223 0.183150 0.071931 -0.297525 -0.047667 -0.101442 -0.060744 -0.226701 -0.122968 -0.066055 -0.013093 0.225350 -0.003536 0.106132 -0.083843 0.221079 0.342606 0.380456 -0.204120 0.049245 0.257850 0.334810 0.034369 0.321984 0.149122 -0.178335 0.158376 -0.301667 0.044137 -0.057561 -0.032429 -0.325474 0.042736 0.204469 -0.049764 -0.263898 0.116024 -0.021752 -0.388898 0.209775 -0.013534 -0.180368 0.083631 -0.048787 -0.033832 0.154858 0.042951 -0.096612 0.061969 0.096249 0.052488 -0.019406 -0.273931 0.039617 0.057791 -0.130347 0.066897 -0.095444 -0.068037 -0.073800 0.024207 -0.339805 -0.139279 -0.077591 -0.245192 0.032615 0.153072 0.190257 -0.100149 0.042732 0.082441 0.187722 -0.120231 0.234420 0.448060 0.067069 -0.002039 0.189744 -0.101979 -0.099834 0.294547 -0.039910 0.013947 -0.033437 -0.158361 0.263937 0.061460 -0.148017 0.034225 0.052602 0.467489 0.089024 0.026324 -0.064668 0.070049 -0.127279 0.069947 -0.138142 0.007783 -0.010312 0.038930 -0.127093 0.278985 0.124992 -0.151834 -0.026754 -0.299712 -0.073354 0.116812 -0.007452 -0.277171 0.024259 0.100258 0.010892 -0.122570 -0.263005 -0.371722 -0.016230 -0.102096 -0.075172 0.012224
CP015350.1 0.368972 0.190945 -0.159684 0.356359 0.138678 0.143929 -0.144863 -0.022637 0.114809 -0.136282 -0.013828 0.006066 0.057827 -0.163299 -0.045479 -0.467103 0.061149 -0.027354 -0.056882 -0.377285 0.192826 -0.111217 0.152827 0.044544 0.222976 -0.152589 0.150130 -0.046816 0.461508 0.149142 0.081857 0.169513 -0.092793 0.087393 0.077655 -0.429773 -0.150671 0.107655 -0.159892 -0.003811 -0.109542 0.058865 0.064601 0.124103 -0.137818 -0.247659 -0.077616 -0.127800 -0.047114 -0.520801 -0.018441 0.224733 0.232430 -0.146952 0.042102 -0.268156 0.197087 -0.089568 -0.177737 0.015240 0.179725 0.171358 0.027846 -0.060968 0.329405 -0.306428 -0.271739 -0.104891 -0.123345 0.177112 -0.376496 0.181482 0.224999 0.163200 -0.089791 -0.156283 -0.272324 0.054140 0.055366 -0.003543 -0.009661 0.211925 0.333712 -0.025285 0.136196 0.151767 -0.004625 0.361763 0.143209 0.230790 -0.202966 -0.051822 -0.367574 -0.034439 -0.021088 -0.031500 0.198124 -0.106253 0.151168 -0.302578 -0.189068 -0.111518 -0.203255 -0.037478 -0.182333 -0.055101 -0.070844 -0.059424 0.073523 0.200025 -0.086412 -0.323753 0.093664 -0.104697 0.145579 0.265192 -0.160639 0.194414 -0.125262 0.131929 0.341091 0.092906 -0.144794 -0.257639 0.157142 0.169644 -0.030835 0.165450
CP015138.1 0.171494 0.171546 -0.009396 0.192099 0.175590 -0.054904 0.060356 -0.003698 -0.040803 -0.179094 -0.071142 0.068229 -0.109436 -0.038250 -0.213052 -0.051132 -0.014951 0.042825 0.080457 -0.105067 0.017137 -0.115369 0.113358 0.234671 0.149162 -0.230956 0.098578 0.117034 0.084623 0.056354 0.110612 0.013222 -0.119814 0.008673 -0.015837 -0.069391 -0.036033 -0.054530 -0.163136 0.079110 0.035009 -0.151852 0.093841 0.124313 -0.008305 -0.210414 0.139636 0.031410 -0.015040 -0.071399 -0.099676 0.044300 0.000871 0.084863 -0.044316 -0.017066 -0.037576 -0.025910 -0.021930 -0.017534 0.126426 0.068944 0.021365 0.095395 -0.057136 -0.021699 -0.165401 -0.011189 -0.121180 -0.035419 -0.060625 -0.180607 0.021441 0.042755 0.034301 -0.053120 0.032569 0.047750 0.053154 -0.006595 0.118948 0.243901 0.097758 0.069321 0.009172 -0.061228 0.093741 0.119786 -0.025415 -0.028768 0.104097 -0.172515 -0.051992 -0.124248 -0.017599 -0.103352 0.070565 0.201126 0.005757 -0.053162 -0.099172 0.134920 -0.192249 -0.064370 -0.098923 -0.045262 -0.003806 -0.069391 -0.017156 0.207324 0.035029 -0.140916 0.054955 -0.123085 0.090205 0.111762 -0.188412 0.015875 0.001228 0.101881 0.038996 -0.019391 -0.106592 -0.195648 -0.068559 0.054352 -0.161189 0.076583
NC_009552 0.099373 0.289510 -0.270032 -0.058108 0.245885 0.177252 0.235100 0.066921 -0.382859 -0.106002 0.160568 -0.086133 0.011498 -0.010490 -0.211261 -0.086160 -0.206058 -0.041665 0.239653 -0.226264 -0.063452 -0.406704 0.051585 -0.191231 0.359940 -0.362693 -0.123654 -0.173275 -0.011885 0.069930 -0.188418 0.027585 0.071654 -0.311043 0.135016 0.133860 -0.079858 0.270462 -0.130836 -0.056199 0.029213 -0.389377 0.112047 0.196129 -0.093990 -0.353727 0.148157 0.090643 0.065769 -0.289191 0.039319 0.389757 -0.188353 0.169270 0.118266 -0.124242 -0.249476 -0.023634 -0.022380 -0.129043 0.046996 0.219218 -0.036775 0.056634 -0.287880 -0.072019 -0.324273 -0.271612 -0.288896 -0.136326 -0.090982 -0.205334 -0.163443 0.137076 -0.070396 -0.007368 0.107394 -0.033559 0.191056 0.255616 0.293600 0.463029 -0.149966 0.320262 0.052597 -0.273162 0.100315 -0.023466 -0.024309 0.055888 0.397365 -0.338792 -0.130898 -0.128990 -0.196165 -0.293802 -0.121337 0.047180 -0.021290 -0.161085 -0.366843 0.268844 -0.027489 0.039381 0.053704 0.102839 -0.276335 -0.506289 0.164712 0.069672 -0.238942 -0.247385 0.059595 -0.259631 0.122467 0.283970 -0.379131 0.299740 -0.129499 0.114313 0.105975 -0.081777 -0.498423 -0.115184 -0.123578 0.230587 -0.165989 -0.149330
CP015240.1 0.208871 0.029923 0.046621 0.152206 0.127663 -0.050888 0.024329 -0.029911 0.003981 -0.149658 -0.091749 0.016839 -0.116832 -0.037450 -0.173810 -0.035453 -0.004438 0.085101 0.102949 -0.104874 0.082591 -0.080049 0.153628 0.220044 0.121986 -0.194184 0.091753 0.007259 0.173348 0.062305 0.215003 0.095934 -0.039373 0.059122 -0.054247 -0.085792 -0.036181 -0.078290 -0.128644 0.050616 0.033955 -0.130192 0.043866 0.138942 -0.043537 -0.295097 0.159679 -0.104780 -0.000143 -0.093947 -0.025944 0.003398 0.020057 0.046008 -0.071734 -0.041590 0.072985 -0.061875 -0.024902 -0.090565 0.063189 0.111445 0.093233 0.104917 -0.046356 -0.019279 -0.151772 -0.024550 -0.157776 0.034580 -0.079795 -0.202169 0.097452 -0.019533 0.083777 -0.000193 0.131501 0.034198 -0.111329 -0.045590 0.128102 0.230271 0.158236 0.125347 0.034644 -0.042687 0.041581 0.238181 -0.089192 0.016540 0.007314 -0.165375 -0.065714 -0.057725 -0.008957 -0.020934 0.075888 0.220866 0.047648 -0.044980 -0.128782 0.135002 -0.124269 0.013150 -0.058385 -0.036570 0.090616 -0.061789 -0.025874 0.156909 0.107834 -0.109311 0.015353 -0.161558 0.092312 0.161081 -0.089538 -0.002574 -0.035449 0.000937 0.010281 0.007976 -0.057512 -0.143730 -0.125456 -0.002246 -0.102382 0.011308
NC_003291 0.282140 -0.020278 -0.098275 0.179388 -0.041996 0.101314 -0.205249 -0.076479 -0.030330 -0.264043 -0.105916 -0.033150 0.019196 -0.044557 0.028746 -0.544378 0.029794 0.002224 -0.084883 -0.277213 0.271759 -0.244923 0.182616 -0.105317 0.204289 -0.079989 0.031896 0.021553 0.515333 0.176973 0.100129 0.138804 -0.055944 0.038561 0.054396 -0.295130 -0.013130 0.084855 -0.170083 0.023461 -0.007927 -0.047651 0.125864 0.282569 -0.038910 -0.321038 0.105572 -0.329513 -0.015704 -0.464893 -0.008396 0.154957 0.078228 -0.143519 -0.054432 -0.222961 0.177044 -0.220792 -0.199105 -0.072997 0.299534 0.292066 -0.113247 -0.025394 0.186402 -0.217145 -0.325756 -0.186215 -0.088547 0.052010 -0.371954 0.186791 0.254905 0.157112 0.025951 -0.149374 -0.181107 0.085079 0.002611 0.062311 -0.026979 0.166009 0.254749 0.126235 0.042452 0.090557 0.027844 0.250337 0.143550 0.314845 -0.063355 -0.046032 -0.364234 0.091028 0.032905 -0.010911 0.149252 0.043193 0.061758 -0.329253 -0.195960 -0.050240 -0.120226 0.017296 -0.034899 -0.131654 -0.057467 -0.005379 -0.006394 0.159690 -0.159451 -0.330434 0.045213 -0.136516 0.229253 0.200376 -0.169646 0.130029 -0.115553 -0.026683 0.212954 -0.039226 -0.114894 -0.290965 0.074516 0.200375 -0.102701 0.127038
CP011416.1 0.197397 0.011798 0.015793 0.124632 0.068300 -0.124374 -0.002787 -0.019164 -0.011237 -0.173792 -0.098566 -0.067389 -0.022549 0.031592 -0.202335 -0.058301 -0.007969 0.072517 0.065643 -0.085829 0.101390 -0.057413 0.094549 0.151224 0.092298 -0.278992 0.095522 -0.008776 0.133657 0.118695 0.282573 0.057539 -0.043593 0.030777 -0.054759 -0.166249 -0.073502 -0.103145 -0.066695 -0.018962 0.019416 -0.096487 0.112831 0.087054 -0.129628 -0.208497 0.203772 -0.043446 0.057815 -0.103734 -0.030130 0.036423 0.090765 0.092733 -0.084105 -0.019526 0.065139 -0.031351 0.020563 -0.085579 0.073362 0.091761 0.177332 0.047202 0.041608 -0.062914 -0.090249 -0.113430 -0.240684 0.030203 -0.041496 -0.204549 0.067860 -0.007484 -0.063370 -0.050903 0.126896 0.055672 -0.038288 0.074329 0.156691 0.248540 0.120885 0.160473 0.077184 -0.058980 0.055884 0.232135 -0.158863 -0.036547 0.042601 -0.056352 -0.115885 -0.069535 0.018653 -0.135932 0.127972 0.203410 0.021102 -0.002741 -0.047014 0.073600 -0.154182 0.034091 -0.034439 0.003140 0.102755 -0.076945 0.015398 0.101148 0.051991 -0.050893 0.043947 -0.050531 0.051637 0.139314 -0.046101 0.028573 -0.080046 -0.040582 0.014894 0.014317 0.001058 -0.167011 -0.204816 -0.002741 -0.047241 -0.085462
CP010315.1 0.122218 0.047907 0.055382 0.078937 0.076817 -0.005038 0.032088 -0.028926 -0.049159 -0.184237 -0.018920 -0.033060 -0.045392 -0.018813 -0.124251 -0.124720 -0.025072 0.000446 0.055882 -0.066831 0.115374 -0.060500 0.119195 0.149484 0.116252 -0.259351 0.118194 -0.035378 0.117294 0.077746 0.127946 0.101566 -0.065457 0.007948 -0.043225 -0.070946 -0.006651 -0.116319 -0.035646 0.053457 0.001784 -0.156701 0.114333 0.163019 -0.072663 -0.279675 0.161803 -0.080551 0.037940 -0.147119 -0.012700 0.062875 -0.008764 0.050745 0.007821 -0.060696 -0.001160 -0.010217 -0.004150 -0.030125 0.133876 0.141054 0.056626 0.117749 -0.030307 -0.048467 -0.172207 -0.071931 -0.096672 0.007967 -0.076053 -0.185705 0.140991 0.043261 0.067351 -0.055353 0.077409 0.080025 -0.057851 0.064029 0.038579 0.274513 0.109748 0.148097 0.091229 -0.021975 0.052874 0.159339 -0.079949 0.016565 0.020761 -0.111502 -0.087296 -0.043191 0.006202 -0.082760 0.101166 0.136540 0.027140 -0.106227 -0.098420 0.097353 -0.111108 -0.023188 -0.027405 0.066048 0.084865 -0.102727 0.046528 0.153924 0.048460 -0.089788 0.004044 -0.089031 0.091722 0.135279 -0.143747 0.055747 -0.054541 -0.073994 0.062882 -0.049653 -0.110507 -0.184572 -0.150640 0.011255 -0.139457 -0.008791
CP011324.1 0.094601 -0.072340 -0.036017 0.214750 -0.066278 -0.031763 -0.136163 -0.108841 -0.118928 -0.272419 -0.123678 0.107528 -0.048041 0.045005 -0.018925 -0.399368 0.069646 0.081353 -0.030555 -0.222399 0.186783 -0.210301 0.135679 0.001468 0.150679 -0.072825 0.122356 0.137349 0.360231 0.140665 0.135526 0.036831 -0.071195 0.069740 0.031998 -0.221904 0.063886 0.042827 -0.299300 0.050479 -0.013823 -0.094043 0.167237 0.280307 0.069145 -0.212997 0.192509 -0.327026 -0.019741 -0.277685 -0.042503 0.031853 0.050477 -0.104572 -0.090861 -0.137230 0.195773 -0.252320 -0.201311 -0.029628 0.289572 0.272818 -0.075911 0.031724 0.100463 -0.172275 -0.189580 -0.083611 -0.091551 -0.006123 -0.296326 0.093877 0.106023 0.060968 0.029084 -0.159241 -0.140920 0.077741 0.014370 0.018433 0.021700 0.131043 0.291300 0.144681 -0.026805 0.072284 0.097572 0.146285 0.135559 0.156875 0.063552 -0.095730 -0.312318 0.025322 -0.016015 -0.036933 0.114633 0.187586 0.035073 -0.296010 -0.148142 0.106511 -0.168913 -0.080804 -0.033644 -0.219314 0.013181 -0.006037 -0.019562 0.182113 -0.121467 -0.349639 0.063109 -0.127385 0.227514 0.159763 -0.185968 0.040594 -0.065418 0.065490 0.179596 -0.045287 0.043280 -0.296522 0.048349 0.183879 -0.230507 0.177830
CP010371.1 0.071715 -0.066399 0.228843 -0.010690 0.049403 -0.102038 0.061167 0.026289 -0.036919 -0.233364 -0.092216 0.063253 -0.040826 -0.050646 -0.231151 -0.028525 -0.027970 0.027929 0.069883 0.083890 0.013910 -0.164603 0.165375 0.381519 0.119860 -0.363936 0.264080 0.049964 -0.054814 0.019966 0.150363 0.026120 -0.030326 -0.118979 0.022848 -0.004559 0.014010 -0.238269 -0.087154 0.207269 0.055984 -0.236454 0.322532 0.236196 -0.046636 -0.177288 0.173732 -0.033126 0.130870 -0.087870 -0.085549 0.036760 -0.122447 0.062011 0.100768 0.015630 -0.050539 0.009320 0.059509 -0.016857 0.028937 0.153313 -0.083351 0.282480 0.028363 0.062915 -0.216730 -0.010470 0.120234 0.037880 0.043101 -0.286054 0.294374 0.014401 0.274806 -0.077468 0.124608 0.060502 -0.084430 0.066143 0.079964 0.310485 0.145182 0.147786 0.139651 -0.001493 0.100500 0.207645 -0.147185 -0.053800 0.079102 -0.123514 -0.078502 -0.176833 0.055790 -0.037801 0.028945 0.173109 -0.015574 0.089157 -0.064973 0.138481 -0.145446 -0.068089 0.036957 0.075389 0.156924 -0.089764 0.046306 0.245821 0.200753 -0.080208 -0.011628 0.019697 0.009653 0.241221 -0.175211 0.026944 -0.048225 -0.113595 0.102926 -0.064212 -0.053904 -0.153970 -0.187155 -0.196329 -0.241687 0.101209
CP013837.1 0.196070 0.038369 0.085422 0.138996 0.104834 -0.029745 0.010380 -0.084654 -0.005221 -0.156642 -0.070642 0.003481 -0.095660 -0.004502 -0.130376 -0.096190 -0.005371 0.035334 0.056878 -0.045508 0.130384 -0.061649 0.154806 0.195154 0.100385 -0.196401 0.126821 -0.023488 0.174898 0.070947 0.197485 0.091827 -0.053444 0.043759 -0.088725 -0.091415 -0.005961 -0.177771 -0.083836 0.052490 0.002989 -0.149586 0.054357 0.132042 -0.029842 -0.313565 0.160658 -0.100947 0.001958 -0.096235 -0.044229 -0.018041 0.035270 0.031165 -0.071853 -0.011528 0.086598 -0.050804 -0.008767 -0.075280 0.158730 0.100753 0.100572 0.104362 -0.073372 -0.010269 -0.176542 -0.020250 -0.131318 0.013487 -0.086255 -0.211231 0.078468 -0.002761 0.066515 0.001018 0.108276 0.039599 -0.089590 0.020642 0.064794 0.220081 0.140560 0.164686 -0.007471 -0.051718 0.046370 0.190139 -0.056744 0.002938 0.002157 -0.136187 -0.036687 -0.039423 -0.007988 -0.052751 0.084193 0.210419 0.042728 -0.046436 -0.079645 0.144839 -0.139874 0.018922 -0.040513 -0.029896 0.125260 -0.031264 -0.009742 0.152487 0.065032 -0.066812 0.038554 -0.139525 0.118042 0.096513 -0.087105 -0.053476 -0.017632 -0.052006 -0.002148 -0.016765 -0.068813 -0.148135 -0.143884 0.031861 -0.115491 -0.007192
CP014488.1 0.189104 0.054025 -0.015496 0.205953 0.085338 -0.074615 -0.054199 -0.002201 0.012441 -0.162715 -0.115655 -0.057748 -0.078920 0.020541 -0.171523 -0.116287 -0.003887 0.065108 0.051066 -0.129995 0.080213 -0.097457 0.094691 0.137645 0.137443 -0.233234 0.088543 0.078480 0.190106 0.156638 0.278179 0.037927 -0.043686 0.048699 -0.050454 -0.182761 -0.069254 -0.081976 -0.134052 -0.049483 0.030000 -0.072932 0.025788 0.101659 -0.101877 -0.245684 0.221813 -0.043213 0.018880 -0.128204 -0.036144 0.054612 0.114221 0.111292 -0.099384 -0.006545 0.065275 -0.051042 -0.025319 -0.137314 0.111075 0.070104 0.133514 0.014309 0.034310 -0.061927 -0.127640 -0.105747 -0.258876 -0.047772 -0.067907 -0.190585 0.007168 0.051517 -0.109956 -0.070783 0.049353 0.052407 0.035421 0.044076 0.146430 0.205318 0.098946 0.109496 0.042793 -0.063124 0.043154 0.152278 -0.125139 -0.030266 0.087368 -0.100048 -0.088982 -0.047585 0.015968 -0.092200 0.108690 0.258211 0.019992 -0.022578 -0.025112 0.107547 -0.174022 0.007713 -0.054761 -0.059273 0.108807 -0.024099 -0.037113 0.144305 -0.022609 -0.096735 0.054214 -0.090628 0.060364 0.117475 -0.054441 -0.016957 -0.018730 0.034816 -0.003632 0.014506 -0.045510 -0.210475 -0.145493 0.060255 -0.070234 -0.058659
CP013663.1 0.260261 0.091304 0.039623 0.092915 0.114749 -0.042882 0.013978 -0.026924 0.010460 -0.151908 -0.071933 -0.019475 -0.073304 -0.046868 -0.174624 -0.034704 -0.064857 0.071880 0.089911 -0.080795 0.094788 -0.075161 0.150798 0.207812 0.136911 -0.234727 0.061074 -0.014012 0.124494 0.088475 0.214052 0.087361 -0.058442 0.048616 -0.053811 -0.080674 -0.082113 -0.169762 -0.069134 0.030578 0.038574 -0.145525 0.097562 0.168611 -0.071091 -0.315548 0.173804 -0.062191 0.004908 -0.112692 -0.048186 0.059356 -0.006772 0.063715 -0.068282 -0.031034 -0.002783 -0.038628 0.010116 -0.078770 0.139963 0.109576 0.085724 0.090797 -0.066016 0.000086 -0.211921 -0.046362 -0.164033 0.036143 -0.039237 -0.238124 0.091874 0.014694 0.073766 0.016159 0.119900 0.058641 -0.057385 -0.012519 0.101320 0.241055 0.074628 0.162745 0.018525 -0.081132 0.059628 0.229761 -0.088816 -0.006861 0.066165 -0.147429 -0.028264 -0.022638 0.015010 -0.049497 0.061550 0.181929 -0.015955 -0.016274 -0.058457 0.118601 -0.140832 0.046974 -0.060798 -0.009000 0.073703 -0.076292 0.010135 0.151878 0.061502 -0.058745 0.050687 -0.147263 0.084950 0.153311 -0.088372 0.022441 -0.018397 -0.034689 -0.045808 0.012929 -0.097615 -0.131797 -0.184085 0.007269 -0.070805 -0.023778
CP011495.1 -0.086399 0.100890 0.013318 0.172594 -0.020486 -0.029231 0.139201 -0.052658 -0.034750 -0.030353 -0.028667 -0.040000 0.042059 0.007820 -0.207519 -0.252430 -0.066017 0.011068 0.138236 0.062044 0.069222 -0.127638 0.070590 0.162451 0.158352 -0.353665 0.285598 0.050026 0.029174 0.151257 0.130009 -0.049721 -0.047372 0.008541 -0.125075 -0.137757 -0.040960 -0.256329 -0.164869 -0.022582 -0.077455 -0.085030 0.182120 0.121913 -0.097957 -0.095222 0.171250 0.033486 0.102208 -0.115696 -0.205497 0.060627 0.132568 0.043887 0.088683 0.013054 0.136544 0.019602 -0.026785 -0.083025 0.157723 0.103805 0.213378 0.057013 0.246683 -0.117917 -0.020063 -0.056838 -0.126375 0.054381 -0.041689 -0.307898 -0.010473 0.045167 -0.116542 -0.108141 -0.131714 0.050486 0.175779 0.008360 0.071191 0.277795 0.175095 0.065521 0.068497 -0.088660 0.042572 0.156524 -0.048488 -0.199575 0.112351 -0.159676 -0.105235 -0.097389 0.039065 -0.128444 0.167400 0.060967 -0.094652 -0.040246 -0.035675 0.002855 -0.245797 -0.028945 -0.080386 -0.022871 0.111736 -0.047444 0.021562 0.234015 -0.107524 -0.140072 0.029326 -0.072614 0.104753 0.157484 -0.116034 -0.007737 -0.044525 -0.029945 0.095795 -0.008072 -0.144040 -0.263315 -0.196214 -0.008775 -0.096701 -0.062823
NC_020202 0.406654 0.167933 0.187384 0.116050 0.151733 0.047705 0.152171 -0.107333 0.053440 -0.274404 0.207424 0.214334 -0.387039 -0.282787 -0.265905 0.143724 0.020873 0.191068 0.059389 -0.161882 0.054706 -0.031800 0.302168 0.568215 -0.028691 -0.321953 0.283701 -0.006765 -0.129260 0.151191 0.088160 0.060763 -0.076127 0.082629 0.095557 -0.178319 -0.030469 -0.343669 -0.023317 0.100244 -0.126058 -0.231852 0.154888 0.188291 0.112194 -0.357979 0.038799 -0.037264 0.007636 -0.065076 -0.139932 -0.012494 -0.303065 0.293159 -0.035681 -0.158504 -0.123492 -0.074690 0.044192 0.131275 0.165058 -0.009517 0.266421 0.233356 -0.160964 0.195022 -0.304990 0.205408 0.098861 -0.001864 0.012808 -0.469983 0.201314 -0.038034 0.193325 0.054146 0.103753 -0.025829 -0.405266 -0.216256 -0.034935 0.008435 0.203098 -0.006081 -0.190081 -0.003439 0.118727 0.181152 -0.233577 -0.200728 0.113435 -0.381178 -0.118875 -0.224986 0.216020 0.243453 0.105041 0.113207 -0.037369 -0.144951 -0.174978 0.261238 -0.158492 -0.249695 -0.149047 -0.066174 0.334603 0.061254 -0.104281 0.451862 0.127771 -0.115956 0.024588 -0.088129 0.291780 0.095125 -0.215680 0.181106 0.089894 0.082070 -0.132464 0.105574 -0.039316 0.002104 -0.233666 -0.001593 -0.255270 0.219287
CP015241.1 0.207336 0.062568 0.042890 0.092373 0.123377 -0.074788 0.012170 -0.048172 -0.006145 -0.114807 -0.106604 0.009085 -0.065194 -0.027746 -0.193094 -0.077857 -0.036024 0.034222 0.072064 -0.039863 0.053245 -0.131153 0.141988 0.217162 0.146189 -0.240780 0.084352 0.042954 0.121996 0.059989 0.174408 0.043513 -0.056909 -0.014466 -0.025425 -0.054118 -0.043851 -0.145980 -0.119629 0.049452 0.055295 -0.168765 0.088963 0.149495 -0.069279 -0.231827 0.169923 -0.029881 0.026014 -0.109607 -0.071403 0.061905 0.035367 0.105134 -0.028233 -0.002267 0.008843 -0.043531 0.016740 -0.081473 0.092069 0.081647 0.065523 0.070254 -0.056327 -0.009937 -0.184410 -0.069398 -0.128698 0.007662 0.010255 -0.234470 0.057391 0.055024 0.074920 -0.002014 0.107836 0.033286 -0.002669 0.032476 0.144716 0.260601 0.082474 0.166373 0.019627 -0.088106 0.069791 0.185181 -0.088412 0.004291 0.062085 -0.121201 -0.017453 -0.072136 -0.004058 -0.053199 0.040989 0.191368 -0.012980 0.028870 -0.072416 0.136463 -0.123263 -0.007847 -0.015202 -0.040917 0.078465 -0.075474 -0.042755 0.161759 0.028604 -0.076111 0.019691 -0.139307 0.045110 0.153282 -0.111042 -0.029332 -0.066489 -0.019325 -0.004302 -0.026674 -0.112532 -0.186808 -0.169761 -0.003169 -0.107597 -0.004983
CP014197.1 0.191781 -0.056256 0.021248 0.004204 -0.103880 0.141175 -0.117154 -0.075527 -0.016353 -0.273383 -0.076597 -0.195332 -0.010633 -0.029242 0.039600 -0.363250 -0.063570 0.038919 -0.026066 -0.169171 0.272315 -0.178251 0.205439 -0.071986 0.188474 -0.145787 0.036468 -0.105596 0.352526 0.260051 0.215293 0.180054 0.016850 0.077294 -0.037461 -0.195900 -0.058842 -0.129759 -0.025719 -0.087993 -0.020086 -0.061302 0.104654 0.311265 -0.090373 -0.418050 0.196143 -0.315963 0.003261 -0.297171 0.051270 0.118537 -0.024947 -0.059688 -0.070875 -0.140705 0.058346 -0.135003 -0.125969 -0.170567 0.308401 0.263636 0.031074 0.034030 0.104438 -0.103817 -0.297239 -0.172362 -0.140566 0.001872 -0.212935 -0.126313 0.225630 0.124690 0.021211 -0.048556 -0.088600 0.118576 -0.099431 -0.003650 -0.029639 0.129537 0.077484 0.156609 0.005917 -0.038479 0.008434 0.205572 -0.051934 0.098620 0.057318 -0.123269 -0.219349 0.202231 0.091137 0.017886 0.125652 0.114551 -0.030842 -0.242785 -0.060266 -0.023481 -0.083128 0.096064 -0.006968 -0.004103 0.127581 0.030815 -0.020068 0.152703 -0.135764 -0.178885 0.038455 -0.165626 0.213174 0.168878 -0.086626 0.086803 0.004708 -0.212974 -0.004746 -0.067406 -0.168129 -0.223530 -0.164934 0.099026 -0.092181 -0.078528
CP014522.1 0.127937 0.200947 -0.044846 0.181187 0.194145 -0.042719 0.044545 -0.015519 -0.065615 -0.132491 -0.053047 0.106046 -0.118097 -0.039059 -0.210842 -0.091546 -0.022053 0.001357 0.095348 -0.078989 0.000155 -0.129209 0.072638 0.255527 0.159445 -0.230821 0.086876 0.135713 0.087701 0.005249 0.088265 0.003915 -0.124897 -0.038832 -0.016745 -0.030717 0.014315 -0.044090 -0.181699 0.087084 0.048829 -0.186937 0.087153 0.131935 -0.021781 -0.214392 0.152808 0.051944 -0.008478 -0.101842 -0.121770 0.058950 0.020916 0.091201 -0.016830 -0.014234 -0.044541 -0.011999 -0.004795 0.002626 0.135252 0.062459 0.006228 0.095206 -0.098805 -0.025397 -0.171877 0.010091 -0.120197 -0.056821 -0.041229 -0.153351 -0.036957 0.050349 0.048551 -0.049311 0.033015 0.053910 0.120039 0.056890 0.110360 0.308672 0.127885 0.114495 -0.002613 -0.094176 0.121101 0.074028 0.029535 -0.019570 0.130644 -0.159991 -0.015890 -0.129353 -0.062139 -0.125751 0.037100 0.221815 0.015228 -0.066860 -0.101263 0.167108 -0.172483 -0.083296 -0.105377 -0.051325 -0.039623 -0.126266 0.045237 0.222351 0.024593 -0.165475 0.050563 -0.129350 0.097872 0.054195 -0.204193 0.011983 0.000028 0.126179 0.075001 -0.057923 -0.118379 -0.243651 -0.018624 0.128454 -0.168164 0.079630
NC_004584 0.414018 0.109304 0.001451 0.198746 0.267299 -0.178572 -0.228006 0.142625 0.093442 -0.317095 -0.094969 0.213148 0.103889 -0.044203 -0.314579 0.157142 0.018253 0.116747 -0.025524 -0.160037 0.096720 0.074767 0.151297 0.392669 0.196469 -0.272265 -0.022403 0.204434 -0.068226 0.124293 0.408412 0.054147 -0.320955 -0.082847 0.037458 -0.287829 -0.165942 -0.214395 -0.094565 0.013892 0.111102 -0.064851 0.397690 0.181508 -0.013815 -0.188363 0.186926 0.230522 -0.209088 -0.066354 -0.087630 0.128627 -0.051240 0.053912 -0.247673 -0.036333 -0.209442 0.044236 0.130630 0.133793 0.376100 -0.056861 -0.097092 0.254058 -0.085092 -0.082399 -0.242179 0.049756 -0.182884 -0.014307 -0.077778 0.134743 0.093700 0.117860 0.044657 -0.092355 -0.026099 0.088255 0.213420 0.152229 0.225806 0.360790 0.150126 0.140287 0.127474 -0.111510 0.190783 0.313877 0.072263 -0.085663 0.199908 0.117876 0.076496 -0.105573 -0.102421 -0.375281 -0.032265 0.215369 0.003749 -0.033809 0.290871 0.036415 -0.338277 0.011828 -0.173757 0.067636 -0.330269 -0.055503 0.286585 0.295238 0.126716 -0.071858 0.387385 0.177514 0.028263 0.090210 -0.125169 0.074231 0.177045 0.248234 0.020879 0.063073 0.063909 -0.112022 0.086647 0.057763 0.003251 0.285147
NC_004902 0.084934 0.423024 0.152567 0.232156 0.141456 0.005242 0.223918 -0.318600 -0.151434 0.057541 0.193009 -0.059011 0.176958 0.030394 -0.176860 -0.464840 -0.256453 -0.135396 0.154358 0.339025 0.173205 -0.147980 0.079157 -0.069758 0.114798 -0.507778 0.408641 -0.173374 0.007875 0.115310 -0.163510 -0.143179 -0.141568 -0.120308 -0.249114 -0.162008 -0.000745 -0.651563 -0.003097 -0.038478 -0.279979 -0.229618 0.215423 0.108277 -0.124929 -0.198381 0.009572 0.142892 0.135390 -0.160697 -0.382475 0.073445 0.224274 0.043493 0.236102 0.184796 0.261441 0.138677 0.055164 0.156754 0.448917 0.075079 0.370576 -0.016200 0.120326 -0.014179 -0.089499 -0.047071 -0.088283 0.077895 -0.112121 -0.475390 -0.210349 0.056986 -0.238776 -0.089737 -0.195474 0.043223 0.365835 0.283391 -0.150460 0.382062 0.175750 0.292602 -0.161735 -0.239835 0.061124 0.082696 0.104609 -0.201891 0.008424 -0.147374 0.082135 -0.098590 -0.140351 -0.258741 0.090400 -0.097421 -0.129828 0.035406 -0.054038 0.137451 -0.340947 0.091401 -0.183475 -0.024744 0.170094 -0.159116 0.084539 0.178649 -0.369150 0.057600 0.076747 -0.136018 0.274362 0.043435 -0.135383 -0.118826 -0.134925 -0.110868 0.042974 -0.054316 -0.263155 -0.261232 -0.408834 0.188603 -0.075686 -0.222123
HF572917.2 0.002085 0.106728 -0.040844 0.332419 0.322871 -0.049689 0.075968 0.073041 0.086253 0.148283 -0.173197 0.008784 -0.082484 -0.086118 -0.231947 -0.184938 -0.090400 -0.003388 0.212653 0.086957 0.071727 -0.142204 0.214428 0.289042 0.323680 -0.231603 0.149879 0.159169 0.255892 -0.043477 0.105897 0.068940 -0.109042 0.053117 -0.249542 0.094267 -0.010000 -0.020677 -0.307112 0.078776 0.113286 -0.142747 -0.187934 0.091626 0.008861 -0.322723 0.191797 0.009393 -0.076042 0.007028 -0.178287 -0.004453 0.065490 0.021828 0.031414 0.060823 0.138016 0.065788 -0.041551 -0.210712 0.025702 0.093165 -0.143097 0.066443 -0.055876 -0.074587 -0.090175 0.044024 -0.195994 -0.080274 -0.105665 -0.234116 0.017602 0.115747 0.200300 -0.037492 0.039101 0.072184 0.153421 -0.064763 0.227690 0.438929 0.175218 0.018152 0.153908 -0.067914 -0.049086 0.262844 0.082775 -0.016484 -0.106633 -0.220033 0.193399 -0.068519 -0.160547 0.007668 0.046227 0.310676 0.056121 0.033673 -0.147278 0.076373 -0.097419 0.020245 -0.073036 -0.004058 -0.033214 -0.032393 -0.128563 0.288065 0.099931 -0.190550 -0.032539 -0.322348 0.005546 0.142585 -0.130055 -0.236502 -0.033112 0.125913 0.084373 -0.145062 -0.306520 -0.324802 -0.022687 -0.095072 -0.091103 0.043526
NC_004086 -0.103705 0.025639 -0.043499 0.370830 0.426096 -0.096925 0.062186 0.111652 0.138872 0.265820 -0.255803 0.030532 -0.055034 -0.106152 -0.304904 -0.187243 -0.124747 -0.022076 0.271323 0.177182 0.096826 -0.161729 0.281177 0.419143 0.430484 -0.288338 0.156723 0.264609 0.260527 -0.071884 0.160971 0.093094 -0.187539 0.066721 -0.336367 0.173499 -0.005901 -0.064885 -0.407120 0.079976 0.187543 -0.170625 -0.258677 0.126239 0.042219 -0.355092 0.244870 0.048594 -0.130863 0.113716 -0.222796 -0.011549 0.073142 0.070497 0.026566 0.082963 0.123149 0.094872 0.010059 -0.270789 0.057175 0.069127 -0.225506 0.100719 -0.114910 -0.099556 -0.037120 0.068851 -0.238810 -0.144665 -0.052080 -0.303304 0.004957 0.199068 0.302612 -0.035997 0.034657 0.079620 0.238612 -0.088445 0.324490 0.562896 0.172915 0.031328 0.204104 -0.127843 -0.065436 0.328777 0.090080 -0.054478 -0.107741 -0.225844 0.369071 -0.052797 -0.232566 0.046593 0.020801 0.404291 0.040929 0.068161 -0.115191 0.082852 -0.082592 0.003460 -0.065724 0.007547 -0.085183 -0.019250 -0.174152 0.391640 0.114681 -0.218797 -0.041514 -0.390866 -0.045545 0.155621 -0.119844 -0.362228 -0.039543 0.150245 0.057507 -0.214850 -0.410485 -0.436066 -0.029719 -0.180174 -0.111189 0.071463
CP016182.1 0.191414 0.365567 0.100519 0.275167 0.199195 -0.024494 0.176703 -0.181866 -0.090346 0.027272 0.116938 -0.081505 0.052491 0.010094 -0.149893 -0.365147 -0.208472 -0.079668 0.151431 0.251587 0.153446 -0.098943 0.094326 -0.115251 0.114045 -0.388892 0.274219 -0.103401 0.110941 0.092687 -0.117653 -0.074733 -0.152239 -0.034563 -0.256809 -0.124024 -0.014984 -0.457678 -0.020949 -0.067388 -0.182776 -0.159909 0.052094 0.062091 -0.098487 -0.296514 0.055329 0.090191 0.039538 -0.104002 -0.314319 0.048083 0.175427 0.070265 0.119112 0.153477 0.234694 0.115997 0.004576 0.111942 0.343840 0.061203 0.285109 -0.049033 0.038379 0.021446 -0.079467 -0.031226 -0.165241 -0.001881 -0.160723 -0.395727 -0.171336 0.049129 -0.184875 -0.084485 -0.111134 0.048780 0.249786 0.210987 -0.126920 0.312856 0.124911 0.237282 -0.166293 -0.202747 -0.013072 0.093450 0.079808 -0.115418 -0.022204 -0.125192 0.100217 -0.017629 -0.132005 -0.175764 0.055157 0.030130 -0.066377 0.017981 -0.064528 0.146683 -0.254991 0.113492 -0.202155 -0.024059 0.146804 -0.100377 -0.023263 0.158836 -0.289928 0.062099 0.025354 -0.163420 0.232350 0.011278 -0.087621 -0.147012 -0.100686 -0.022380 -0.024824 -0.028671 -0.193168 -0.224446 -0.344825 0.171714 -0.039488 -0.193160
CP016404.1 0.114719 0.104077 -0.053179 0.123487 0.118940 -0.002539 0.055178 -0.042641 -0.082863 -0.185955 -0.076959 0.064994 -0.064042 0.014464 -0.166256 -0.071060 0.023125 0.014156 0.048938 -0.189631 0.064001 -0.115740 0.133731 0.153875 0.180413 -0.165457 0.053964 0.060325 0.136924 0.088177 0.116687 0.080839 -0.118119 0.037076 0.005894 -0.073087 -0.031132 0.000906 -0.179224 0.054900 0.007722 -0.164843 0.103467 0.141317 -0.005680 -0.270178 0.142319 -0.026366 -0.054412 -0.137336 -0.027606 0.072103 0.000651 0.032236 -0.098380 -0.083421 -0.050146 -0.072333 -0.067726 -0.025405 0.160399 0.088305 0.035665 0.087378 -0.081926 -0.106679 -0.172529 -0.072515 -0.159607 -0.005891 -0.107251 -0.091757 0.023194 0.071853 0.021514 -0.048216 -0.003564 0.037222 0.027170 -0.029041 0.152405 0.229367 0.070948 0.070588 0.032308 -0.039436 0.105115 0.140393 -0.019803 0.012757 0.094198 -0.162251 -0.120963 -0.071008 -0.041930 -0.136242 0.100717 0.153061 0.025666 -0.166736 -0.127810 0.107678 -0.175813 -0.082110 -0.075570 -0.027682 -0.051542 -0.088903 0.000783 0.168164 -0.010545 -0.196159 0.093972 -0.136051 0.104252 0.150530 -0.208683 0.063860 -0.014707 0.068532 0.060877 -0.017043 -0.147718 -0.199278 -0.019934 0.080587 -0.164502 0.087758
NC_004588 0.080315 0.160684 0.047334 0.546932 0.346666 -0.054162 0.282468 0.197404 -0.047096 -0.254226 0.090536 -0.105816 -0.188372 -0.011180 -0.264516 -0.132236 0.253776 -0.024260 -0.000793 -0.173207 0.237152 0.189947 0.124590 0.036976 0.056045 -0.454020 0.375246 0.007655 0.252834 0.109065 0.108304 0.228395 -0.286455 0.112959 -0.214614 -0.372933 0.001658 0.343715 -0.012339 -0.017185 -0.098550 -0.019350 -0.075414 -0.211541 -0.109705 -0.310283 0.102557 0.159423 -0.048233 0.016974 0.010016 -0.127636 0.190034 0.131702 -0.105260 -0.097581 0.214977 0.135395 -0.087924 0.105661 -0.016648 0.026921 0.270997 0.158471 0.111760 -0.234532 0.112236 -0.072000 -0.362386 -0.136619 -0.504755 -0.098091 0.174169 -0.044632 -0.207471 -0.293061 0.102388 0.060780 -0.239650 0.139972 0.085000 0.436358 0.383996 -0.123484 0.295274 0.106725 -0.103356 0.263281 -0.203752 -0.002963 -0.318193 -0.095448 -0.330870 -0.357398 -0.062432 -0.423207 0.366202 0.288685 0.419318 -0.286254 -0.300730 0.004012 -0.259660 -0.093779 -0.193315 0.289110 0.046748 -0.089801 -0.136590 0.192714 0.243831 -0.106961 -0.031292 0.045430 0.184156 0.077065 -0.258369 0.001453 -0.110304 0.157170 0.305515 0.001447 0.021513 -0.214732 -0.026842 -0.050506 -0.225704 -0.021894
CP013662.1 0.163835 -0.051732 0.035502 0.284718 0.106511 -0.173531 -0.080542 -0.151009 -0.106722 -0.098005 -0.087365 0.178065 -0.138889 0.043772 -0.103307 -0.292238 0.061297 0.074308 0.059140 -0.052045 0.087358 -0.121281 0.129435 0.091528 0.066968 -0.148062 0.168636 0.143484 0.283545 0.007323 0.114172 -0.039700 -0.055130 0.021155 -0.049359 -0.133080 0.123212 -0.071598 -0.293151 0.068240 0.027005 -0.199465 0.034235 0.179035 0.075986 -0.166893 0.201189 -0.224693 0.008532 -0.146897 -0.111552 -0.049857 0.083942 0.068370 -0.068953 -0.044376 0.312495 -0.206398 -0.070808 0.000426 0.178780 0.149154 0.054721 0.012064 -0.088877 -0.049300 -0.097837 -0.015277 -0.137257 -0.082650 -0.160041 -0.092563 -0.054385 -0.024265 0.054565 -0.077866 0.078222 -0.015408 -0.035038 0.109443 0.046462 0.210382 0.318557 0.281376 -0.125166 0.012232 0.069544 0.132022 0.060570 0.082103 0.017374 -0.084765 -0.104037 -0.094772 -0.114502 0.009896 0.014188 0.277150 0.061942 -0.088921 -0.152753 0.290797 -0.088086 -0.087540 0.021312 -0.251200 0.135968 -0.075835 -0.082604 0.176113 -0.074115 -0.187768 -0.011386 -0.201721 0.189846 0.075406 -0.110077 -0.136319 -0.157033 0.154292 0.072261 -0.016386 0.119025 -0.237719 -0.098084 0.151761 -0.247925 0.085494
NC_009819 0.092298 -0.223022 0.090792 -0.166958 -0.257459 0.292864 -0.116003 -0.170456 -0.032936 -0.367431 -0.013559 -0.312380 0.116629 0.030702 0.092860 -0.441673 -0.131765 0.039052 0.014689 -0.238057 0.488155 -0.129784 0.336688 -0.067550 0.295723 -0.235701 0.122028 -0.349586 0.399671 0.457338 0.382989 0.404838 0.019794 0.195486 -0.120307 -0.219112 -0.123142 -0.412162 0.057584 -0.151367 -0.140851 -0.093607 0.251146 0.519585 -0.155023 -0.769828 0.295469 -0.516248 -0.016305 -0.416189 0.168064 0.149707 -0.145161 -0.172164 -0.116550 -0.266218 0.004877 -0.126318 -0.154823 -0.223648 0.555938 0.407633 0.159557 0.170442 0.104685 -0.224009 -0.398661 -0.210985 -0.195290 0.115841 -0.315405 -0.224266 0.412745 0.171004 0.123108 -0.026604 -0.173219 0.199983 -0.225651 -0.084471 -0.084687 0.228276 0.072978 0.229238 0.099738 -0.028730 0.019251 0.400883 -0.128009 0.034165 0.072932 -0.223985 -0.269582 0.397262 0.124228 0.017769 0.250031 0.059189 -0.053453 -0.521185 -0.032113 -0.069717 -0.117519 0.152253 -0.005900 0.160352 0.221272 0.032814 0.119640 0.239136 -0.152870 -0.252998 0.122548 -0.199228 0.316494 0.275407 -0.124693 0.213335 0.066210 -0.484385 -0.007806 -0.093597 -0.310026 -0.282862 -0.307040 0.057602 -0.127860 -0.124028
CP012127.1 0.075913 -0.263820 0.122365 -0.219382 -0.169109 0.189464 0.022218 -0.119386 -0.059380 -0.276477 -0.022323 -0.258310 0.158039 0.046184 0.030054 -0.221766 -0.129161 0.055594 0.078930 -0.167126 0.434348 -0.081009 0.372254 -0.055214 0.280734 -0.242622 0.081769 -0.400349 0.262643 0.329263 0.300379 0.399712 0.024746 0.177661 -0.129044 -0.082199 -0.123662 -0.365435 0.051622 -0.080285 -0.126599 -0.173757 0.237099 0.462701 -0.123586 -0.692253 0.262970 -0.456739 -0.026690 -0.323245 0.182483 0.131703 -0.205492 -0.126988 -0.095861 -0.244486 -0.002456 -0.114222 -0.110598 -0.186266 0.363713 0.374309 0.158230 0.183752 -0.022819 -0.187688 -0.313547 -0.209517 -0.190195 0.174042 -0.215431 -0.255980 0.421322 0.097567 0.218391 0.018079 0.025026 0.149378 -0.318730 -0.116529 0.030522 0.264539 0.011195 0.251881 0.172631 -0.011863 -0.005274 0.467916 -0.202416 0.028407 0.000217 -0.215141 -0.212018 0.309307 0.059683 0.025102 0.213460 -0.001534 -0.028106 -0.412793 -0.102395 -0.036763 -0.049105 0.153732 0.054366 0.208118 0.200717 -0.065817 0.095433 0.162407 -0.050829 -0.172440 0.078385 -0.207786 0.192475 0.370606 -0.111258 0.208968 -0.052001 -0.471219 -0.047407 -0.065620 -0.316196 -0.166323 -0.378019 -0.106743 -0.092201 -0.127267
NC_003216 0.057912 0.275764 0.084579 0.131766 0.199370 0.187464 -0.255878 -0.180081 0.021348 -0.162027 0.161475 0.132341 0.007242 0.024311 -0.120701 -0.127250 0.042280 -0.290906 -0.153156 -0.195889 0.144066 0.186788 0.048284 0.577769 0.108707 -0.336283 0.176478 -0.047265 0.064186 0.153298 0.317509 0.264252 -0.263960 -0.071996 0.040829 -0.156031 0.043406 -0.479916 0.103876 0.135167 -0.025185 -0.212358 0.091230 0.079738 -0.118850 -0.437489 0.071485 0.159152 -0.035820 -0.237348 0.165416 0.072293 0.059115 0.161870 -0.028747 -0.065824 -0.289375 0.152851 0.207868 0.111286 0.529638 -0.143757 0.107028 0.228139 -0.363903 -0.153161 -0.386190 0.055443 -0.108540 -0.134067 0.087940 -0.057385 -0.031889 0.251193 0.018025 -0.060844 -0.037584 0.134390 0.206634 0.292794 -0.065944 0.386044 0.078154 0.171121 0.152257 0.010574 0.240090 -0.103096 0.050609 -0.094544 0.129462 -0.001492 0.200016 -0.125589 -0.125945 -0.283225 0.138486 0.196441 0.145161 -0.256542 0.172346 0.227242 -0.238750 -0.238153 -0.092290 0.237087 0.005647 -0.089585 0.466366 0.278213 0.047718 -0.054382 0.282847 0.114931 0.084135 -0.271301 -0.231457 0.000065 0.227576 -0.049580 0.155248 -0.137408 -0.210588 -0.309097 0.118556 0.332230 -0.279597 0.118514
CP008697.1 0.146878 0.138393 -0.049457 0.167710 0.160898 -0.072585 0.019233 -0.064723 -0.059316 -0.143055 -0.039788 0.102360 -0.095859 -0.020342 -0.197043 -0.043068 0.016447 0.034221 0.073296 -0.130854 0.043411 -0.052340 0.086985 0.222815 0.106222 -0.188761 0.053881 0.105115 0.108872 0.022762 0.130627 0.035245 -0.136968 0.020665 -0.010766 -0.041469 -0.004811 -0.015801 -0.148781 0.058036 0.041023 -0.157459 0.070402 0.129302 -0.042564 -0.239956 0.157150 -0.022126 -0.016785 -0.105355 -0.074171 0.019611 0.016746 0.102765 -0.090489 -0.074994 -0.041885 -0.046618 -0.002685 0.050801 0.131610 0.058069 0.065592 0.087522 -0.126206 -0.080165 -0.129823 -0.018950 -0.156548 -0.023876 -0.074669 -0.099887 -0.015385 0.017335 0.050244 -0.019652 0.075152 0.043268 0.017780 0.024478 0.124283 0.294544 0.152959 0.113637 0.019674 -0.051789 0.140741 0.151011 -0.013446 0.031520 0.066193 -0.108395 -0.065981 -0.122025 -0.073023 -0.103471 0.075861 0.206408 0.066172 -0.152760 -0.110326 0.144681 -0.131053 -0.093833 -0.086343 -0.054793 -0.039905 -0.115862 0.030240 0.178251 0.055858 -0.170411 0.040769 -0.113216 0.104148 0.054530 -0.179108 0.048522 -0.046608 0.091349 0.056324 -0.042892 -0.062523 -0.219512 -0.036541 0.128926 -0.136556 0.082273
CP015074.2 0.063929 0.017682 0.010715 0.277064 0.258720 -0.108519 0.011709 0.141522 0.125264 -0.010831 -0.268904 -0.075760 -0.127625 -0.055671 -0.224993 -0.086388 -0.082331 0.042802 0.197075 0.052198 0.068360 -0.125534 0.181143 0.300240 0.303395 -0.250210 0.073020 0.250625 0.230816 0.057109 0.258812 0.080315 -0.126992 0.104341 -0.242611 0.041062 -0.037155 -0.083867 -0.262363 0.031232 0.182780 -0.066414 -0.145302 0.139259 -0.034931 -0.329664 0.264033 -0.001532 -0.092046 0.094766 -0.112251 -0.014395 0.089701 0.091199 -0.051228 0.100041 0.041280 0.043867 0.000322 -0.244947 0.035540 0.090580 -0.088558 0.074176 -0.026483 0.001646 -0.070529 0.007667 -0.251116 -0.140115 -0.015899 -0.334657 0.050941 0.122754 0.143928 -0.088416 0.063553 0.095903 0.147429 -0.085669 0.188933 0.361844 0.037878 0.035877 0.112854 -0.135964 -0.068047 0.212986 -0.081298 -0.037938 0.050998 -0.165409 0.195909 0.032274 -0.032051 0.025201 0.040106 0.430274 -0.007056 0.089170 -0.045212 0.097313 -0.130087 0.051472 -0.104318 -0.004540 0.061746 0.035919 -0.165874 0.278585 0.087017 -0.101418 -0.059340 -0.246275 -0.040934 0.128926 -0.042245 -0.224438 0.031981 0.054604 -0.045989 -0.118886 -0.208858 -0.339280 -0.127124 -0.116441 -0.079459 -0.016281
NC_007709 0.284498 0.039734 -0.068663 0.115758 0.004105 -0.093924 -0.188561 0.070089 0.106938 -0.197010 -0.161370 -0.215794 -0.158413 -0.107424 -0.214999 -0.074194 -0.131572 0.216642 0.132992 -0.102146 -0.109017 -0.254179 -0.071672 0.279714 0.139262 -0.304035 0.041978 0.131584 0.186895 0.226917 0.522049 -0.049634 0.142122 -0.095079 0.038808 -0.168935 -0.132888 -0.075046 -0.132278 -0.218864 0.164472 0.054727 0.016108 0.174310 -0.374971 -0.219445 0.356537 -0.099434 0.256257 -0.216780 -0.076151 0.181063 0.164477 0.286532 0.050403 0.071929 -0.092537 0.018429 0.072022 -0.254706 -0.119856 0.112569 0.217259 0.002565 0.285688 -0.001779 -0.125052 -0.092269 -0.266351 -0.063737 0.170941 -0.365936 0.007260 0.035035 -0.173593 0.007234 0.082162 0.116642 0.119853 0.101678 0.207808 0.269308 0.153182 0.152328 0.097695 -0.224159 0.063259 0.138662 -0.280354 -0.072582 0.283715 -0.040784 -0.112773 0.062547 0.134603 0.099020 -0.010756 0.453660 -0.038014 0.142034 0.064457 0.093064 -0.055079 0.082007 -0.052898 -0.116273 0.282230 -0.074310 0.037730 0.233737 0.028641 -0.145055 -0.126668 0.006665 -0.032630 0.096722 0.071198 0.098731 0.014101 -0.034812 -0.004802 -0.051618 0.061400 -0.380444 -0.198371 0.143110 0.096578 -0.240577
LT601384.1 0.004103 0.144165 0.128866 0.126438 0.129416 0.145228 0.029654 -0.176523 -0.050427 -0.064485 0.125481 -0.069578 0.020139 0.065412 -0.145080 -0.152245 -0.002128 -0.151431 -0.032785 -0.088683 0.204309 -0.025100 0.186683 0.253496 0.089473 -0.360223 0.247146 -0.217974 0.101502 0.136866 0.135329 0.150499 -0.059858 -0.046903 -0.071195 -0.148237 0.013614 -0.281893 0.082541 0.105321 -0.132920 -0.267075 0.033382 0.009719 -0.026815 -0.339137 0.022812 0.050217 0.053271 -0.125575 0.077774 0.006363 0.070945 0.055787 0.018103 0.000674 0.032727 0.027750 0.061269 -0.089223 0.280346 -0.001575 0.179082 0.116957 -0.188158 -0.078235 -0.236868 -0.121540 -0.139475 0.014647 -0.082256 -0.248971 0.008824 0.089821 -0.069763 -0.016903 0.096264 0.012484 -0.014391 0.168407 0.101981 0.247027 0.080731 0.138979 0.107885 -0.006696 0.094535 0.074791 -0.071890 -0.055071 -0.071903 -0.199096 0.011291 -0.195808 -0.064098 -0.237280 0.193549 0.069297 0.110559 -0.082970 -0.125271 0.147655 -0.213580 -0.058022 0.031467 0.143182 0.123325 -0.070087 0.131385 0.073213 0.027660 -0.007715 0.178135 -0.083771 0.123701 0.030250 -0.162358 -0.057529 -0.002022 -0.168728 0.100485 -0.059979 -0.294573 -0.098204 -0.126439 0.049160 -0.194398 -0.067544
CP011322.1 0.253298 -0.045161 -0.001431 0.117732 -0.005325 0.017879 -0.145839 -0.100782 0.032475 -0.153639 -0.134168 -0.033256 -0.024186 -0.068527 -0.040035 -0.349224 -0.040299 0.059368 0.002104 -0.114919 0.230531 -0.221511 0.222697 0.070074 0.165488 -0.123282 0.043445 0.018007 0.357693 0.125617 0.163209 0.085698 -0.007899 0.065645 -0.022241 -0.165166 -0.022534 -0.091515 -0.140875 0.021964 0.039163 -0.080056 0.068613 0.270203 -0.013735 -0.299601 0.150471 -0.273781 0.004647 -0.265456 -0.071378 0.072637 0.037859 -0.060993 -0.055708 -0.108777 0.161548 -0.176591 -0.097922 -0.149103 0.234425 0.244932 -0.058465 0.013774 0.088141 -0.068164 -0.267360 -0.101968 -0.081052 0.052360 -0.186036 -0.061582 0.199266 0.100181 0.104002 -0.027171 -0.033362 0.067653 -0.057375 -0.007346 0.049600 0.151966 0.200451 0.155416 -0.006884 -0.012435 0.032557 0.268405 0.055213 0.174149 -0.035102 -0.108555 -0.156538 0.069035 0.053053 0.085651 0.081508 0.116706 -0.016363 -0.123341 -0.122808 0.008412 -0.101152 0.057716 -0.017221 -0.146749 0.059125 0.033012 -0.071362 0.164127 -0.064416 -0.204814 0.019349 -0.196690 0.164708 0.194336 -0.066763 0.002432 -0.075527 -0.092656 0.052590 -0.053290 -0.130137 -0.227369 -0.082320 0.065007 -0.056083 0.053989
