151 128
NC_019422 0.028236 0.095327 0.120544 -0.006655 0.049751 0.009715 0.017771 0.023620 -0.096087 -0.141434 0.102149 -0.126387 0.095681 0.106178 -0.019038 0.037549 0.145088 -0.028232 -0.127427 -0.067821 0.007825 0.053274 0.077718 0.061628 0.072003 -0.211305 0.062116 0.045962 -0.100843 0.213515 0.169237 -0.029286 -0.168223 -0.002834 0.075696 -0.092866 -0.009685 -0.122685 0.085350 -0.025549 0.032783 -0.097782 0.207389 0.161061 -0.173951 -0.129515 0.143737 0.000709 -0.055077 -0.001085 0.158900 0.073447 -0.013738 0.181536 -0.117115 -0.107279 -0.168309 -0.012142 0.077847 0.148166 0.052882 -0.114632 0.119935 0.015077 -0.076521 0.026113 -0.154765 -0.050370 -0.011114 -0.101539 0.035966 -0.221726 -0.037332 0.000260 0.027138 -0.111652 0.076574 0.093493 -0.082495 0.026697 0.021723 0.153659 -0.006560 0.119551 -0.099660 -0.088832 0.201391 0.020474 -0.174820 -0.025600 0.089186 -0.094995 0.027569 -0.116120 0.039655 -0.279631 -0.001321 0.115757 -0.000232 -0.027482 0.011312 0.081979 -0.132251 -0.057928 -0.142850 0.126044 0.051065 -0.086475 -0.010866 0.064233 0.008913 -0.025040 0.213303 -0.041774 0.042630 0.049099 -0.118481 0.035555 0.141450 -0.090185 -0.136361 -0.085903 -0.020633 -0.051828 -0.273625 0.109412 -0.132558 0.074552
NC_015568 0.159400 0.131057 0.191964 0.076831 0.122878 -0.112424 0.113274 0.131738 -0.188976 -0.198061 0.077354 -0.019362 0.105192 0.112367 -0.031788 0.054813 0.181945 -0.109731 -0.126689 -0.141410 -0.031348 0.130451 0.106882 0.034030 0.084135 -0.195088 0.089828 0.002579 -0.027655 0.137557 0.121906 0.034642 -0.109409 0.000312 0.097765 -0.166193 -0.049561 -0.054326 -0.028203 0.058973 0.050206 -0.126659 0.252237 0.157853 -0.206499 -0.039990 0.066149 -0.012002 -0.107702 -0.159461 0.167270 0.036717 0.085660 0.102501 -0.156153 -0.055850 0.052345 -0.104398 -0.031742 0.139139 -0.098157 -0.064392 0.082263 -0.103268 -0.133553 0.059523 -0.189256 0.005806 -0.093835 -0.029187 0.006021 -0.078122 -0.075453 -0.116636 0.041657 -0.099993 0.159326 0.097449 -0.141882 0.027470 -0.055522 0.170806 0.026259 0.202485 -0.105379 0.050581 0.134969 0.082579 -0.017441 0.059921 0.004873 -0.068990 -0.057441 -0.210698 -0.061936 -0.251569 -0.050096 0.115309 0.077216 0.106989 -0.133855 0.151810 -0.073997 0.043574 -0.185863 0.046950 0.021374 -0.149599 0.089394 -0.084321 0.041692 -0.010778 0.183755 -0.080159 0.071660 0.069829 -0.071288 0.040312 0.038304 0.011154 -0.160371 -0.011887 0.136888 0.033480 -0.170425 0.155437 -0.069768 0.110485
NC_015262 0.019439 0.178128 0.164741 0.087497 0.079152 -0.029974 0.071346 0.162389 -0.146807 -0.232821 0.048822 -0.118894 0.041483 0.122483 -0.050340 0.034742 0.166795 -0.069831 -0.115263 -0.178720 -0.011246 0.018952 0.079370 0.116543 0.063928 -0.238349 0.109800 0.073268 -0.005960 0.142991 0.118397 0.047644 -0.115223 -0.048407 0.095870 -0.119073 0.015967 0.024384 -0.006224 0.052295 0.055072 -0.108939 0.189286 0.195726 -0.187739 -0.115121 0.076513 -0.030254 -0.054131 -0.044481 0.169716 0.027222 0.032812 0.116984 -0.121617 -0.036967 -0.040812 -0.042059 -0.004660 0.058956 -0.029822 -0.041692 0.017841 -0.000213 -0.069110 0.056003 -0.195645 -0.016328 -0.024715 -0.077479 -0.064746 -0.140594 -0.017182 -0.047165 0.057233 -0.088850 0.130389 0.111477 -0.095386 0.030295 0.023881 0.177989 0.018789 0.136411 -0.070104 -0.039078 0.188943 -0.021369 -0.047771 0.031708 0.056177 -0.160866 0.007334 -0.162370 -0.032653 -0.287597 -0.021347 0.175985 0.055005 0.027684 -0.141250 0.122882 -0.138129 -0.001430 -0.165158 0.133757 -0.016045 -0.093381 0.043691 -0.021403 0.125150 -0.056192 0.201936 -0.070653 0.047825 0.074696 -0.150923 0.019320 0.079828 -0.051708 -0.110294 -0.075314 -0.012936 -0.055117 -0.180099 0.093920 -0.175251 0.061854
NC_019421 0.020170 -0.083576 0.212906 0.080210 -0.024824 -0.098309 0.097543 0.076925 -0.109821 -0.273519 -0.112346 -0.042951 0.016279 0.215199 0.014714 0.185697 0.280087 0.013252 -0.091511 -0.181338 -0.029254 0.079975 0.117287 0.028003 0.012194 -0.080294 0.087009 -0.034186 -0.004892 0.161984 0.171924 0.038175 -0.011049 -0.006842 0.079987 -0.072530 0.004631 -0.055887 -0.056884 0.103702 -0.028229 -0.128014 0.223216 0.121266 -0.124259 -0.067519 0.118313 -0.078430 -0.070740 -0.046645 0.303690 -0.017104 0.050597 0.004442 -0.166200 -0.034660 0.017053 -0.135964 -0.020892 0.087666 -0.045606 -0.057889 0.135076 0.057454 -0.095048 0.068011 -0.171542 -0.105621 0.006285 0.065422 -0.007737 -0.166164 0.013861 -0.147520 0.004849 -0.099424 0.174800 0.111240 -0.200803 -0.115073 0.054729 -0.049350 -0.044146 0.190700 -0.059251 0.036752 0.161613 0.006025 -0.169310 0.057207 -0.000613 -0.157346 -0.053630 -0.123184 0.073566 -0.304277 0.042496 0.103864 0.092434 0.078064 -0.143451 0.192134 -0.144867 -0.045133 -0.091805 0.047996 0.132176 -0.038606 -0.005413 -0.131788 0.175953 0.026519 0.224773 0.037931 -0.007696 0.185529 -0.104350 0.000239 0.152456 -0.135014 -0.193441 0.124212 0.068936 0.087994 -0.290024 0.000047 -0.188721 0.140866
NC_011398 -0.054829 0.167894 0.083757 0.156646 -0.027216 -0.024225 0.152053 0.027662 -0.235683 -0.252361 0.078225 -0.080548 0.144970 0.238114 -0.005372 0.066083 0.242159 0.018607 0.020414 -0.128287 -0.052794 0.142222 -0.018822 0.095232 0.148146 -0.156422 0.080353 0.077039 -0.021844 0.231294 0.302006 -0.012778 -0.019256 0.044165 0.038419 -0.015577 -0.033529 -0.018194 -0.082273 -0.073395 0.150020 -0.092171 0.158710 0.128926 -0.276506 -0.010491 0.330622 -0.004545 0.118038 -0.068881 0.144517 0.073792 0.131549 0.077327 -0.088642 -0.124714 -0.021081 -0.062043 -0.031691 0.021239 -0.025325 -0.028627 0.188392 0.043461 0.106307 -0.124885 -0.051886 -0.037485 -0.152786 -0.048159 0.069117 -0.215413 -0.129000 -0.131345 -0.086279 -0.111281 0.088772 0.151080 -0.017589 -0.049610 0.076186 0.159834 0.039662 0.094023 0.099286 -0.034224 0.153570 -0.069247 -0.176639 -0.035047 0.079062 -0.145932 -0.093166 -0.173283 0.104946 -0.382459 0.016570 0.189063 0.018101 -0.038932 -0.013175 0.132097 -0.109754 -0.004963 -0.103476 0.030753 0.048361 -0.172602 -0.009525 0.013972 0.052026 -0.103739 0.159048 -0.000547 -0.097977 0.136140 -0.111192 0.092163 0.099631 -0.113357 -0.025456 -0.048728 -0.026574 -0.069260 -0.221653 0.104061 0.026013 0.019439
NC_009231 0.031777 0.093827 0.123191 0.187227 -0.039364 -0.055073 0.212318 0.277020 -0.158226 -0.288229 0.007664 -0.003196 0.202483 0.148401 -0.012005 -0.043471 0.295009 -0.131400 -0.268560 -0.201351 -0.043712 0.111282 0.113336 0.002424 0.125679 -0.222611 0.172897 0.230122 -0.093994 0.132366 0.073962 0.096604 -0.308046 -0.037092 0.074099 -0.191116 -0.032771 0.076650 -0.059526 0.118422 0.038634 -0.085534 0.370381 0.179886 -0.127900 -0.016124 0.027336 0.058523 -0.098940 -0.129809 0.089109 0.125261 -0.030487 0.015033 -0.208736 -0.111357 -0.028523 -0.067934 -0.089390 0.151934 0.061449 -0.146700 -0.019619 0.016732 0.037199 -0.163127 -0.102348 0.016137 0.012898 -0.013437 -0.069526 0.046885 0.022862 -0.016346 0.062119 -0.265818 -0.029757 -0.041209 -0.055948 -0.070548 0.012164 0.192487 0.144591 0.028157 -0.028460 -0.026237 0.142302 0.153919 0.018467 0.097861 0.089851 -0.057906 -0.111597 -0.059549 -0.049053 -0.323140 0.063729 0.069656 0.068865 -0.110566 -0.129747 -0.083658 -0.172424 -0.106514 -0.166372 0.074395 -0.170415 -0.037116 0.008266 0.088318 0.013161 -0.206244 0.215872 0.025559 0.070263 0.055773 -0.275799 0.115964 0.024671 0.080626 0.113921 -0.156267 0.014791 -0.136224 0.035205 0.063125 -0.307964 0.263807
CP017251.1 0.013574 0.069056 0.138451 0.050367 -0.046491 0.019847 0.166528 0.006684 -0.249047 -0.315729 0.109451 -0.059033 0.175132 0.190342 0.120917 0.045346 0.120252 -0.039631 -0.098067 -0.180534 0.058067 0.213982 0.099051 -0.030059 0.074478 -0.049362 0.047095 -0.134681 0.047701 0.161016 0.153060 0.057527 -0.028566 0.120406 0.058075 0.031048 -0.019043 -0.146371 0.099158 0.070573 -0.056510 -0.077699 0.160017 0.232293 -0.166567 -0.106400 0.112864 -0.147176 -0.041420 -0.126675 0.250635 0.064368 0.037645 -0.102713 -0.015681 -0.213725 -0.070749 -0.077465 0.016766 0.153158 0.044337 0.011223 0.161911 0.049018 -0.012511 -0.039402 -0.202284 -0.002773 0.026306 0.135187 0.117854 -0.097337 0.022035 -0.123445 0.046979 -0.044840 0.039724 0.277112 -0.157273 -0.108719 -0.059937 0.010359 0.053386 0.180347 0.092361 0.118056 0.145656 -0.007241 -0.068186 0.086891 -0.092985 -0.123304 -0.074375 -0.008269 0.108948 -0.203265 -0.004182 -0.000890 0.022783 -0.146529 -0.097931 0.086665 -0.028922 -0.053422 -0.164271 0.040700 0.108441 -0.122997 0.118878 -0.050157 0.089662 -0.065890 0.211906 -0.007376 -0.059924 0.129024 -0.041593 0.140112 0.186413 -0.258575 -0.134637 0.001124 -0.002961 -0.068281 -0.292284 0.133084 0.055880 0.158083
CP012625.1 0.140936 0.041563 0.166487 0.098685 -0.022364 -0.146590 0.055323 0.205376 -0.103924 -0.336711 -0.005216 0.008575 0.113744 0.157345 -0.016960 0.118316 0.267373 -0.009631 -0.223966 -0.230058 -0.063632 0.235606 0.107810 0.174119 0.111549 -0.130044 0.090307 0.127185 -0.052674 0.193297 0.370413 0.035808 -0.213053 0.069911 0.091756 -0.115797 -0.074721 -0.046306 0.027524 0.068109 0.062850 -0.043516 0.314017 0.149532 -0.165146 -0.027277 0.096352 0.008621 -0.145083 -0.079405 0.137463 0.051951 0.032366 0.010078 -0.282061 -0.157907 -0.061403 -0.084717 0.021768 0.166201 0.057942 -0.163406 0.040854 0.059622 -0.049850 -0.083854 -0.166501 0.027984 -0.069843 0.088246 -0.027008 0.047346 0.017494 -0.090483 0.051377 -0.130135 0.022882 0.109360 -0.125545 -0.060223 0.043236 0.133709 0.160893 0.110892 0.063373 0.091866 0.176091 0.277725 -0.012170 0.112689 -0.004663 0.014779 -0.054273 -0.046868 0.031628 -0.294254 0.040605 0.116667 0.089063 -0.038166 0.034273 -0.011559 -0.085462 -0.010475 -0.213509 -0.015415 -0.070507 -0.030372 0.079763 0.033699 0.163830 -0.069655 0.247435 0.080332 0.000864 0.025706 -0.081284 0.114635 0.176629 -0.004413 -0.055947 0.034663 0.196771 -0.035243 -0.067662 0.135908 0.005014 0.240900
CP015020.1 0.060253 0.324677 -0.050476 -0.011726 -0.089147 0.034303 0.189803 0.201597 -0.409079 -0.358988 0.371477 -0.125428 0.155455 0.114110 -0.029640 -0.006203 0.115396 -0.000299 0.008218 -0.141367 -0.003473 0.088121 0.009304 -0.126387 0.124117 -0.339100 -0.062164 0.121708 -0.099327 0.181766 0.027527 -0.036404 -0.061309 -0.268856 0.141728 -0.052288 0.005526 0.145983 0.217456 -0.070894 0.199500 -0.245281 0.200912 0.291301 -0.193140 -0.051963 0.332075 0.116094 0.195933 -0.194985 0.050274 0.286027 -0.082637 0.286043 0.009325 -0.109022 -0.245494 -0.018584 0.048779 0.068417 0.032878 0.128288 -0.049749 0.031861 0.000211 -0.054216 -0.095194 -0.035621 -0.027171 -0.161399 0.066671 -0.072026 -0.017113 -0.003389 -0.126112 -0.149221 0.193705 0.119297 0.042229 0.208072 0.049345 0.201453 -0.025469 0.143662 0.037473 -0.196758 0.163556 -0.298405 -0.092227 0.041440 0.170324 -0.080603 -0.045487 -0.123574 0.129724 -0.325983 -0.145247 0.178948 -0.154280 -0.097883 -0.116327 0.164008 -0.033772 -0.003938 0.058960 0.079228 -0.120203 -0.266734 0.005335 0.051006 -0.108099 -0.037705 0.036289 0.055465 -0.051646 0.099153 -0.200032 0.250155 -0.074978 -0.057829 0.035995 -0.213405 -0.099318 -0.045052 -0.193289 0.115366 -0.067843 -0.016712
CP015229.1 -0.011533 -0.110953 0.118695 -0.060251 -0.064512 -0.054531 0.142034 0.280068 -0.054815 -0.205346 -0.085719 -0.004685 -0.057630 0.089477 -0.033904 0.061214 0.219064 -0.021522 -0.225258 -0.214366 -0.094594 0.064093 0.102418 0.080949 0.018595 -0.248640 0.115593 0.109927 -0.077970 0.102207 0.025011 0.112055 -0.171913 -0.020329 0.144238 -0.068799 -0.004244 0.058924 0.044693 0.127175 0.043522 -0.070722 0.314162 0.176903 -0.164794 -0.107806 0.055275 0.060764 -0.040940 -0.040293 0.140684 0.103635 -0.106692 0.101080 -0.129495 -0.158521 -0.115577 0.024594 0.026161 0.225419 -0.052275 -0.099740 0.059161 0.144802 0.023863 0.039655 -0.159482 0.012269 0.142610 0.011812 0.014080 -0.096997 0.198776 -0.038923 0.107780 -0.228892 0.046348 0.074665 -0.194725 -0.076014 -0.045513 0.086942 0.078042 0.104009 0.024089 -0.007205 0.107863 0.029109 -0.047315 0.064778 0.095457 -0.021347 -0.114562 0.068476 0.156619 -0.266762 -0.027567 0.090371 0.056577 -0.065971 -0.167865 0.046721 -0.145922 -0.136338 -0.235665 0.093229 -0.034450 -0.063342 -0.012299 0.082786 0.192833 -0.126324 0.125506 0.144021 -0.035760 0.167612 -0.223772 0.190168 0.094592 -0.000370 0.011850 -0.018764 0.141110 -0.033566 -0.134025 -0.015602 -0.267220 0.266050
CP012693.1 -0.013434 -0.158933 0.055944 -0.025606 -0.066358 -0.028655 0.066912 0.071495 -0.038017 -0.047557 -0.079835 -0.036397 0.018084 0.127045 -0.029777 0.086936 0.208378 0.056206 -0.110109 -0.128684 -0.025085 0.040285 0.121453 0.110244 0.099447 -0.152839 0.089901 0.021665 -0.001699 0.217028 0.177841 0.034356 -0.105230 0.030809 0.103793 0.008291 -0.002479 -0.063410 -0.034716 0.020374 0.086745 -0.136275 0.233531 0.134454 -0.165418 -0.153002 0.250928 -0.061936 0.052764 0.045100 0.182404 0.083267 -0.044381 0.130052 -0.060121 -0.195283 -0.098869 -0.061897 0.051831 0.153071 0.016276 -0.091192 0.200192 0.100791 0.054657 -0.010614 -0.124104 -0.047428 0.043129 -0.011974 0.109189 -0.266781 0.042828 -0.051921 0.101894 -0.142583 0.102083 0.150372 -0.213588 -0.089558 0.100820 0.065626 0.066385 0.168938 0.035928 -0.047122 0.155159 -0.005059 -0.214702 -0.008240 0.058534 -0.133497 -0.058873 -0.028352 0.158541 -0.292595 -0.006844 0.104197 0.014561 -0.048703 -0.083838 0.138643 -0.122530 -0.156352 -0.137993 0.049623 0.095951 -0.105189 -0.132678 0.112969 0.106143 -0.123772 0.131932 0.039343 -0.064327 0.234864 -0.164255 0.043144 0.126576 -0.109939 -0.055756 -0.024331 0.032953 -0.033817 -0.307941 -0.006180 -0.196596 0.208612
CP017669.1 -0.044793 0.021732 0.205428 -0.153767 0.124809 0.146879 0.021441 -0.005643 -0.133818 -0.142111 0.161148 -0.033164 -0.049226 0.119495 0.013218 0.174545 0.243836 -0.057887 -0.197538 -0.214553 -0.041176 -0.010582 0.134703 0.116195 -0.033358 -0.265465 0.103045 -0.184773 -0.184968 0.243049 0.026395 -0.048521 -0.048767 -0.029585 0.302356 -0.121390 0.030946 -0.141337 0.104578 0.064486 -0.092357 -0.170787 0.265462 0.167055 0.028318 -0.180301 -0.079605 0.049784 -0.068755 -0.050314 0.240514 0.042837 -0.054438 0.187376 -0.094587 -0.085778 -0.137608 -0.031274 0.085718 0.129195 -0.023774 -0.055344 0.131900 0.045201 -0.150122 0.191161 -0.247329 -0.004120 0.138750 -0.065961 -0.016596 -0.230163 -0.003632 -0.045791 -0.053071 -0.006537 0.121163 0.031303 -0.221095 -0.069794 0.009348 -0.109647 -0.123668 0.127527 -0.279883 -0.080518 0.195936 -0.108847 -0.155047 -0.058146 0.067167 -0.278658 0.036532 -0.171452 0.133509 -0.125967 0.016105 -0.051165 0.050168 0.011251 -0.150579 0.203286 -0.192275 -0.186330 -0.084322 0.088272 0.214036 0.002927 0.056924 -0.008741 0.100242 -0.035025 0.233936 -0.031938 0.085871 0.073822 -0.100715 0.049331 0.139364 -0.104380 -0.249198 0.109123 -0.117018 0.158326 -0.238221 0.110883 -0.197740 0.180587
CP014670.1 0.074364 -0.033605 0.089548 0.130047 0.001492 -0.015955 0.087682 0.160846 -0.144039 -0.289402 0.056421 -0.054752 0.130776 0.181718 0.084582 -0.009072 0.214759 -0.125957 -0.219697 -0.180997 0.058848 0.277522 0.050112 -0.109762 0.194842 -0.091606 0.065436 0.069281 0.112063 0.242512 0.240321 0.185320 -0.199041 0.020160 -0.073258 -0.141457 -0.043367 -0.010089 0.133752 -0.050735 -0.021603 -0.022398 0.147323 0.146903 -0.324818 -0.157922 0.123763 0.057517 -0.150389 -0.091820 0.298581 0.097673 0.058299 0.046797 -0.224801 -0.195371 -0.131182 0.051815 -0.009114 0.194575 0.046460 -0.160867 0.145164 0.000780 -0.105486 -0.162172 -0.108888 0.005030 -0.118171 -0.069278 -0.046287 -0.012884 0.079336 -0.001058 0.026821 -0.190331 -0.028081 0.052863 -0.144259 0.068389 -0.050874 0.223537 0.051160 0.095345 0.086324 -0.048071 0.018234 0.112256 -0.122908 0.132814 0.008937 0.011668 -0.063982 0.019035 0.048468 -0.391531 -0.033474 0.153213 0.119170 -0.132879 0.001792 -0.051800 -0.042984 0.012276 -0.163083 0.133640 0.037324 -0.122381 -0.015341 0.014983 -0.026819 -0.031629 0.184163 0.108591 -0.061670 0.044967 -0.096385 0.108573 0.112566 -0.099546 0.025774 -0.063185 0.003470 -0.116168 -0.128071 0.096015 -0.043064 0.072383
NC_008376 -0.221607 0.166053 0.141326 0.162789 0.079230 -0.030204 0.313026 -0.064640 -0.106990 -0.221279 -0.046654 0.045523 0.251546 0.203346 0.005228 -0.120456 0.279784 -0.156810 -0.157386 0.167893 -0.128150 0.110257 -0.072107 0.371929 -0.025954 -0.247569 0.235907 0.055372 -0.357428 0.018626 0.133367 -0.151913 -0.287587 0.212020 -0.007007 -0.001862 0.045237 -0.356036 -0.051270 0.165314 0.063733 -0.103850 0.439554 0.099073 -0.279262 0.117295 0.148300 0.090817 0.144159 0.093532 -0.085546 0.012833 0.093850 -0.120351 0.020624 -0.141586 0.023193 0.027760 0.058668 0.185106 0.080790 -0.239418 0.202176 0.132966 0.363183 -0.070496 -0.009613 -0.030242 0.201598 0.108332 0.144418 -0.318838 -0.053670 -0.082219 0.068282 -0.150534 -0.174842 0.199655 -0.004512 -0.213930 -0.287619 0.156125 0.092394 0.102023 0.019470 0.019633 0.227436 0.019804 -0.071934 -0.145956 0.015361 -0.115097 -0.061486 -0.093681 0.142298 -0.410599 0.220174 -0.189815 -0.013980 -0.043103 0.011993 -0.050650 -0.432570 -0.163157 -0.307083 0.167455 0.054162 -0.054452 0.095441 0.109471 0.146685 -0.131900 0.277443 0.045588 -0.019133 0.073769 -0.212768 0.016127 0.192839 -0.244831 -0.030198 -0.025511 -0.026356 -0.209613 -0.266657 -0.048504 -0.180479 0.243251
CP007491.1 0.062471 0.001765 0.119904 0.181518 -0.038265 -0.053759 -0.055521 0.150940 -0.149472 -0.356022 0.074417 0.077102 0.169805 0.247495 0.092809 0.106185 0.381781 -0.107820 -0.336444 -0.186726 -0.070980 0.355277 0.054458 0.142993 0.142571 -0.057599 0.067632 0.124336 -0.143963 0.209024 0.367293 0.055942 -0.272924 -0.087543 0.014351 -0.087933 -0.004279 -0.155310 0.230778 0.058878 0.007208 -0.063498 0.299391 0.169931 -0.129795 0.014541 0.064278 0.101218 -0.146141 -0.114323 0.287030 0.098246 0.029477 -0.007274 -0.294627 -0.133995 -0.281604 0.030650 0.087309 0.223682 0.166031 -0.286459 0.034203 0.136323 -0.214153 -0.146232 -0.118342 0.084689 0.026509 -0.014928 0.052244 0.137677 0.039526 0.025850 0.037114 -0.178286 -0.093587 0.019627 -0.018862 0.079408 -0.032468 0.149212 0.153485 0.093043 0.094216 -0.054156 0.164330 0.111670 -0.008449 0.118339 0.085476 0.089836 0.107660 0.076747 0.057260 -0.397813 -0.014590 0.084655 0.111757 -0.124146 0.196850 -0.051091 -0.073851 -0.035227 -0.093888 0.072833 -0.038571 -0.028140 0.175175 0.058196 0.072675 0.017764 0.330866 0.259289 -0.049998 -0.126878 -0.097626 0.100291 0.303429 -0.081992 0.096214 -0.016972 0.067111 -0.067123 0.063692 0.162367 -0.106097 0.266653
CP016358.1 -0.140457 -0.050767 0.173386 0.197718 0.025831 -0.030885 0.238070 0.198057 -0.104381 -0.244706 0.026347 -0.163214 0.072622 0.185030 -0.043720 0.025712 0.244929 -0.035081 -0.139652 -0.155223 0.102815 0.187804 0.048948 -0.088959 0.055687 -0.284447 0.202533 0.117480 0.062717 0.260667 0.198046 0.170769 -0.197282 0.104658 -0.073391 -0.233111 -0.056044 0.176018 -0.040705 -0.055235 -0.002883 0.019670 0.156390 0.043646 -0.312149 -0.127716 0.096908 0.100013 -0.065402 0.038361 0.224465 -0.028837 0.055133 0.153142 -0.262648 -0.110666 0.036069 0.070305 -0.088534 0.155258 -0.070046 -0.122116 0.241559 0.027668 0.057252 -0.172689 0.044609 -0.057224 -0.170771 -0.126139 -0.223847 -0.177081 0.075223 -0.115321 -0.082562 -0.240359 0.134297 -0.038945 -0.247238 -0.044844 0.050657 0.234077 0.085041 -0.029743 0.032169 -0.091417 0.027837 0.138621 -0.221157 0.076719 -0.005402 -0.126554 -0.193425 -0.194365 0.009508 -0.413267 0.098158 0.252843 0.222182 -0.135739 -0.173559 -0.060905 -0.154975 -0.029173 -0.204375 0.152562 0.034571 -0.089761 -0.138864 0.044572 0.109865 -0.161879 0.120176 0.027509 0.028895 0.083432 -0.215776 0.122989 -0.022219 0.001321 0.049362 -0.105061 0.003172 -0.079584 -0.196220 -0.015704 -0.167946 -0.035535
NC_009812 -0.220466 0.261937 0.257454 0.054475 0.181529 0.341080 -0.010148 -0.058879 -0.245400 -0.300948 0.295357 -0.017726 0.117163 0.225142 0.141839 0.104710 0.286968 -0.241845 -0.378515 -0.210251 -0.049303 0.064905 0.039211 0.248230 -0.061966 -0.288574 0.157644 -0.261212 -0.301608 0.199288 -0.099054 -0.047598 -0.142268 -0.175736 0.290129 -0.108464 0.161182 -0.236875 0.314982 0.196853 -0.181113 -0.256384 0.261468 0.172496 0.103266 -0.105001 -0.214556 0.119659 -0.002517 -0.138788 0.320508 0.064195 0.036145 -0.008031 0.013166 0.012490 -0.263429 0.047578 0.125023 0.087959 0.124107 -0.162407 0.001909 0.127950 -0.171457 0.121431 -0.271754 0.052515 0.304319 -0.055402 0.025985 -0.119460 -0.037714 0.037385 -0.129417 -0.047805 -0.057106 0.064495 0.017628 0.021817 -0.016255 -0.111729 -0.090174 0.081640 -0.130355 -0.060834 0.299875 -0.349780 0.010631 -0.080226 0.038869 -0.332312 0.238391 -0.133844 0.074538 -0.304760 0.044258 -0.178046 0.102730 -0.030900 -0.086120 0.137765 -0.343339 -0.205478 -0.022404 0.217979 0.137958 0.055466 0.258662 -0.121207 0.164603 0.001932 0.475297 0.071585 0.008940 -0.075669 -0.181732 -0.015112 0.279240 -0.214724 -0.062977 0.062480 -0.352387 0.059014 0.001862 0.127315 -0.344919 0.244305
NC_009813 0.148519 0.121782 0.305219 0.399416 -0.287278 -0.289670 0.241015 -0.138417 -0.334445 -0.222591 0.053624 0.007061 0.197581 0.353981 0.022153 0.001567 0.552340 0.003528 -0.136753 -0.076297 -0.077007 0.116640 0.108135 -0.163423 0.026720 -0.100035 0.206465 0.229198 -0.208151 0.228150 0.157623 -0.239516 0.017392 -0.212220 0.147417 -0.260188 -0.037947 -0.139151 -0.146917 -0.039973 0.017465 -0.106331 0.407973 0.172056 -0.116728 0.221357 0.238920 -0.079500 0.217241 -0.269517 0.105583 0.029482 0.228090 0.126460 -0.239365 0.096322 0.136415 -0.280445 -0.150101 0.113955 -0.037566 -0.110215 0.222638 -0.140318 0.056872 -0.042515 0.011337 -0.140310 0.010258 -0.111968 0.033448 -0.202574 -0.275491 -0.134236 -0.426181 -0.172552 0.240030 -0.083617 -0.153010 0.085308 0.070610 -0.062889 0.149910 0.220909 -0.299418 0.023803 0.227384 -0.146241 -0.213607 0.061111 -0.002046 -0.083845 -0.225516 -0.371315 -0.002133 -0.215010 0.113859 0.213937 0.024727 0.141844 -0.048350 0.291822 -0.144566 -0.065303 0.164001 -0.283840 0.243231 -0.010084 -0.112053 -0.069564 -0.217731 -0.048827 0.058163 0.031861 0.219997 0.064479 -0.106783 -0.040702 -0.049394 0.098256 0.049643 -0.074266 0.183120 -0.037194 -0.102706 0.247985 -0.381824 0.175210
CP017249.1 -0.079237 0.263210 0.135192 0.095489 0.094731 0.247492 0.138001 0.221093 -0.331337 -0.280519 0.295014 -0.022010 0.128232 0.144013 0.056435 0.052623 0.229713 -0.147420 -0.184545 -0.235822 -0.041935 0.080470 0.054918 -0.016114 0.088907 -0.257582 0.099504 -0.068250 -0.184079 0.201844 -0.104835 0.063217 -0.116515 -0.236311 0.139315 -0.087102 0.046029 0.068656 0.177095 0.094877 0.018196 -0.262634 0.292736 0.249695 0.037198 -0.097034 -0.015982 0.132300 0.015422 -0.190723 0.254741 0.157587 -0.098505 0.057646 -0.013800 -0.055603 -0.176844 0.016925 -0.010373 0.060152 0.080006 -0.023255 -0.033465 0.107120 -0.130565 -0.035463 -0.141713 0.091255 0.121921 -0.138617 -0.018023 0.019817 -0.021811 -0.028321 -0.024190 -0.145303 0.036721 -0.036095 0.013008 0.028020 0.010821 0.064382 -0.014430 0.044090 -0.068813 -0.201375 0.147051 -0.260839 0.074877 0.032355 0.187597 -0.226392 0.075860 -0.069795 0.048794 -0.338297 -0.091265 -0.025219 0.034386 -0.125717 -0.173213 0.071526 -0.141251 -0.092370 0.007071 0.180163 -0.111868 -0.124029 0.155293 0.006987 0.004010 -0.084235 0.269006 0.026590 -0.013161 0.005086 -0.248973 0.136469 0.109313 -0.052805 0.071221 -0.106619 -0.255851 0.077133 0.021424 0.097834 -0.293300 0.159335
NC_009815 0.011089 0.201681 0.112244 0.155965 -0.015319 -0.005548 0.295005 0.104562 -0.210252 -0.399412 0.039953 -0.047840 0.199172 0.207763 0.144285 -0.112726 0.201843 -0.179399 -0.302059 -0.258788 -0.034853 0.271045 0.025216 0.077594 0.108561 -0.097051 0.191724 0.021181 0.035694 0.132627 0.113732 0.100456 -0.140047 0.260342 0.102929 -0.166421 -0.063012 -0.078441 -0.011714 0.090325 -0.051547 0.024375 0.285812 0.145338 -0.314719 -0.054495 -0.019152 -0.037615 -0.088051 -0.243797 0.103843 0.053810 0.178054 -0.246899 -0.130048 -0.234341 0.140298 -0.078264 -0.131386 0.167768 0.039539 -0.098708 0.114875 -0.057662 0.218111 -0.129692 -0.241884 0.062936 -0.012171 0.143280 -0.049736 -0.008075 -0.011591 -0.152324 -0.053433 -0.148998 -0.176574 0.237287 -0.109297 -0.165456 -0.181588 0.102069 0.168249 0.082398 0.077984 0.269469 0.123123 0.150435 0.127885 0.104886 -0.136309 -0.102746 -0.249843 -0.048499 0.074074 -0.318514 0.119100 -0.023362 0.106054 -0.090443 -0.110251 -0.093368 -0.220829 -0.042436 -0.391145 -0.002154 0.027171 -0.025010 0.115419 -0.086293 0.098801 -0.202231 0.310712 -0.049004 -0.000580 0.064829 -0.094424 0.177405 0.123014 -0.093876 -0.030793 0.006691 0.086308 -0.203316 -0.032800 0.205806 0.042807 0.242331
NC_008201 -0.100611 -0.336340 -0.037009 -0.226973 -0.122180 0.004266 0.127875 0.101047 0.119818 0.099866 -0.134946 0.018008 -0.166327 0.046149 -0.051753 0.089901 0.254363 0.113440 -0.232461 -0.126082 -0.047698 0.053706 0.130626 0.255885 -0.095465 -0.311609 0.140598 0.044732 -0.254852 0.132892 0.008213 -0.004754 -0.209571 0.139775 0.213448 0.022812 0.046415 -0.090744 0.103756 0.128082 0.086150 -0.182045 0.394224 0.107969 -0.069162 -0.116258 0.169412 0.015692 0.126255 0.175005 0.099930 0.144531 -0.246334 0.191974 -0.021764 -0.340270 -0.214386 -0.025422 0.152560 0.384219 0.088028 -0.166874 0.347962 0.247516 0.172313 0.095277 -0.065706 -0.026832 0.276245 0.033437 0.234811 -0.368661 0.204308 -0.064097 0.153344 -0.249449 0.056773 0.143072 -0.365922 -0.214410 -0.025907 -0.021464 0.191588 0.178538 0.006672 -0.092972 0.199213 -0.032208 -0.190787 -0.051901 0.125954 -0.074951 -0.096423 0.149872 0.375472 -0.259153 0.082105 -0.051142 -0.006072 -0.213519 -0.174290 0.108317 -0.259004 -0.374972 -0.306510 0.037301 0.081726 -0.070677 -0.124488 0.253162 0.273284 -0.237626 0.144474 0.161735 0.002870 0.244915 -0.271482 0.259503 0.199188 -0.075623 -0.018290 -0.009421 0.183350 0.027886 -0.378186 -0.063550 -0.360306 0.395663
CP013025.1 -0.081004 0.092175 0.158540 0.076532 0.008971 -0.046531 0.178183 -0.064504 -0.125581 -0.274154 -0.036129 -0.012671 0.147287 0.217322 0.007647 0.043010 0.246970 -0.052536 -0.098102 -0.010594 -0.071855 0.096848 -0.004812 0.238903 0.002312 -0.135432 0.115133 -0.022603 -0.164588 0.117821 0.207686 -0.101180 -0.123096 0.109570 0.067315 0.001441 0.038631 -0.234603 -0.018897 0.093329 0.039753 -0.109780 0.294972 0.115790 -0.208818 0.030992 0.176709 -0.016947 0.072479 0.033605 0.095412 0.010881 0.070482 -0.030034 -0.041733 -0.107735 -0.022183 -0.079766 0.058724 0.111218 0.059947 -0.119561 0.185013 0.094485 0.157142 -0.015394 -0.105462 -0.086189 0.087229 0.114465 0.109984 -0.248156 -0.049839 -0.096577 0.008759 -0.036427 0.002640 0.197948 -0.088179 -0.156567 -0.088706 0.027146 0.006479 0.165687 -0.008349 0.030540 0.220856 -0.010527 -0.149954 -0.076727 -0.006437 -0.138799 -0.022130 -0.096170 0.140161 -0.288442 0.139076 -0.054566 -0.016574 0.002904 -0.018105 0.087796 -0.252476 -0.104127 -0.152750 0.070640 0.112699 -0.052746 0.065386 0.009763 0.146448 -0.042485 0.239351 0.037306 -0.024119 0.119633 -0.101649 0.005803 0.187679 -0.244537 -0.145404 0.049461 -0.003059 -0.083129 -0.321336 0.016236 -0.103526 0.153637
CP012631.1 0.051397 0.285139 0.264302 0.161571 0.070010 0.006889 -0.104647 -0.001595 -0.175274 -0.267650 0.179031 -0.004138 -0.030155 0.154390 -0.053422 0.010081 0.240329 -0.065701 -0.230446 -0.158225 -0.021534 0.223784 0.013349 0.448218 -0.040118 -0.236094 0.159667 0.066499 -0.079061 0.116445 0.304300 0.032388 -0.112557 -0.062489 0.091719 -0.004693 0.104481 -0.153972 0.234445 0.089502 0.012729 -0.008060 0.105890 0.247023 -0.190395 -0.078783 0.038368 -0.067722 -0.045618 0.013320 0.197712 -0.048532 0.111087 0.068594 -0.127429 -0.046563 -0.221115 0.085030 0.168317 0.100734 0.062249 -0.121177 0.012310 0.177062 -0.167501 0.085182 -0.227198 0.156776 0.113571 -0.023600 0.036011 -0.043998 0.003603 -0.038271 0.095293 0.027402 0.052529 0.187123 -0.085301 0.194724 -0.081989 0.236322 0.273326 0.194436 0.038264 0.035952 0.276527 -0.098066 0.103076 0.031957 0.010284 -0.055395 0.210109 -0.055928 0.009730 -0.217799 -0.066245 0.169657 0.121206 -0.105743 0.034857 0.157073 -0.075613 -0.030285 -0.187013 0.118546 0.014592 -0.027159 0.319236 0.058031 0.285145 -0.011454 0.255006 0.068974 0.030834 -0.171086 -0.084504 0.016719 0.283249 -0.158956 -0.005312 -0.103657 0.062429 -0.134486 0.040543 0.273754 -0.101666 0.146887
CP007594.1 0.268432 -0.000872 0.292136 0.003224 0.177695 -0.091830 0.094504 0.064974 -0.104054 -0.052437 -0.040154 0.163963 0.094292 0.047324 -0.132419 0.182976 0.176950 -0.072354 -0.066108 -0.068230 -0.119034 0.133404 0.112537 0.202663 0.014562 -0.197478 -0.023657 -0.168075 -0.070838 0.016704 0.096265 -0.003258 -0.069732 -0.153337 0.128086 0.014452 -0.110928 -0.098070 0.093467 0.200557 0.098706 -0.261381 0.296781 0.135218 -0.178428 -0.025163 -0.022124 0.082666 -0.027926 -0.041719 0.241638 0.084174 0.006092 0.136088 -0.080921 -0.096709 0.013529 -0.111698 0.142832 0.269193 -0.156589 -0.177444 0.216639 0.080759 -0.190625 0.084709 -0.117981 0.042814 0.043181 0.179655 0.196584 -0.104279 -0.033020 -0.157722 0.204747 -0.027438 0.318286 0.035863 -0.268534 0.020239 0.021851 0.190366 0.099144 0.327960 -0.004977 -0.022051 0.138857 0.124875 -0.062810 0.131669 -0.063446 -0.048498 0.046004 -0.222354 -0.034443 -0.257554 -0.118363 -0.154284 0.179573 0.129121 -0.273528 0.190103 -0.036684 0.023935 -0.114448 0.046125 -0.062023 -0.254618 0.166958 -0.121649 0.213621 0.049841 0.169904 0.023359 -0.020708 0.167199 -0.069197 0.011889 -0.013432 -0.114441 -0.102228 0.061336 0.158785 0.200321 -0.184866 0.064791 -0.120775 0.183003
CP015023.1 0.111969 0.366126 0.214644 0.056425 0.093086 0.088907 0.167538 0.103055 -0.187416 -0.270364 0.155265 -0.058250 0.079371 0.081688 0.049207 -0.136998 0.110243 -0.190559 -0.333073 -0.278636 -0.018955 0.159697 0.021944 0.173686 0.100379 -0.251212 0.188417 -0.027642 0.043197 0.129503 0.034849 0.103400 -0.132392 0.125913 0.225876 -0.189546 -0.043282 0.011354 0.107136 0.068442 -0.020438 -0.002766 0.222083 0.154515 -0.283346 -0.174798 -0.117492 0.020169 -0.066940 -0.214232 0.073722 0.071839 0.149809 -0.036174 -0.089308 -0.185617 0.058791 0.009450 -0.039167 0.140411 -0.011577 -0.095400 0.029961 -0.093949 0.134140 -0.011103 -0.293877 0.125244 0.021629 0.020780 -0.086245 -0.036954 -0.028688 -0.070792 -0.042971 -0.052304 -0.098284 0.163857 -0.141627 0.031565 -0.122596 0.186221 0.154631 0.119219 -0.020463 0.161409 0.133769 0.058847 0.168751 0.086287 -0.105941 -0.159827 -0.123309 -0.117415 0.012362 -0.231312 0.025304 -0.006333 0.116522 -0.066624 -0.170695 -0.029553 -0.171723 -0.043912 -0.324412 0.040529 -0.006435 -0.043847 0.141795 -0.041341 0.118128 -0.199961 0.233370 -0.107244 0.049186 0.000878 -0.115700 0.122190 0.028652 -0.009916 -0.015472 -0.057142 0.004380 -0.154110 0.040971 0.251783 -0.011160 0.193593
CP009106.2 0.219248 0.383292 0.025446 -0.089088 0.000279 -0.083252 0.113988 0.075921 -0.266473 -0.333788 0.300326 -0.121855 0.090592 0.058449 -0.123679 -0.023956 -0.010523 -0.020121 0.012854 -0.090333 0.073462 0.136174 -0.018675 0.064389 -0.014469 -0.378006 -0.133320 0.098817 -0.047170 0.033165 0.119872 -0.068275 -0.081778 -0.091482 0.145743 -0.076634 0.013587 0.085650 0.287785 0.020633 0.174359 -0.191623 0.118818 0.248008 -0.273255 -0.047624 0.208306 0.070560 0.077190 -0.072372 -0.001662 0.228442 -0.039890 0.339767 -0.042199 -0.122147 -0.206195 -0.060754 0.159597 0.146349 0.019061 0.101434 0.021024 -0.029600 -0.048451 0.056073 -0.165149 -0.071264 -0.099438 0.008432 0.085068 -0.101357 0.042835 -0.017692 -0.032383 -0.009310 0.312938 0.196947 -0.091121 0.236639 -0.038972 0.290205 0.061991 0.277285 0.024785 -0.057516 0.206232 -0.081826 -0.095953 0.098509 -0.008148 -0.015135 0.012912 -0.202424 0.070992 -0.151124 -0.043510 0.105291 -0.111415 -0.090023 -0.206546 0.161084 -0.059100 0.049723 -0.080951 0.049862 -0.096796 -0.274972 0.164031 -0.015681 0.086870 -0.012893 0.061960 -0.025977 0.059761 0.028188 -0.076119 0.281408 -0.110646 -0.164955 -0.121513 -0.196480 0.059182 -0.075900 -0.335857 0.192822 0.084000 -0.062345
CP014583.1 0.035654 0.157692 0.195790 0.072626 0.085236 -0.053936 0.136003 0.033772 -0.186326 -0.223289 0.107012 -0.049927 0.087610 0.142403 -0.062147 0.121822 0.199120 -0.025328 -0.035818 -0.071080 -0.043308 0.084265 0.062060 0.107092 0.039166 -0.241702 0.065412 0.003487 -0.116501 0.178138 0.179227 -0.069856 -0.107247 -0.019405 0.090083 -0.074958 -0.009990 -0.097248 0.013799 -0.001333 0.067321 -0.150155 0.198869 0.122895 -0.159904 -0.045046 0.143417 0.050166 0.030989 0.015839 0.111946 0.042836 0.027399 0.161901 -0.104180 -0.044193 -0.061539 -0.046095 0.057301 0.128117 -0.007605 -0.063942 0.152908 0.026178 -0.052351 0.032861 -0.070888 -0.037900 -0.040216 -0.046133 0.012844 -0.223537 -0.096132 -0.090865 -0.040598 -0.069048 0.160764 0.109376 -0.100782 0.005055 0.022374 0.112984 -0.014999 0.140505 -0.095084 -0.075426 0.194497 -0.025863 -0.157961 -0.035521 0.033523 -0.148188 0.008286 -0.216139 0.020749 -0.263188 0.017617 0.101426 0.016496 0.038308 -0.084602 0.170363 -0.138546 -0.029440 -0.117407 0.068478 0.087149 -0.130918 0.027639 0.012551 0.063952 -0.004835 0.143300 -0.014497 0.040120 0.062488 -0.095866 0.015063 0.065721 -0.067573 -0.148064 -0.008093 0.013070 0.019972 -0.251496 0.094787 -0.068092 0.039765
NC_004735 -0.031866 0.124103 0.171934 0.234487 0.076094 0.011387 0.271759 0.196659 -0.171308 -0.332607 0.118017 -0.210075 0.084405 0.186449 0.050503 -0.090759 0.178315 -0.173173 -0.221771 -0.263808 0.174828 0.262546 0.021441 -0.178257 0.115895 -0.281683 0.178446 0.060466 0.223275 0.261977 0.115100 0.256168 -0.174276 0.136052 -0.047551 -0.350772 -0.061194 0.231502 0.054339 -0.064351 -0.082422 0.048343 0.077614 0.056385 -0.420733 -0.212562 -0.031985 0.090186 -0.135624 -0.091553 0.250650 0.000950 0.174126 0.099465 -0.261343 -0.147907 0.102198 0.037484 -0.141279 0.157558 -0.064117 -0.084174 0.233084 -0.149561 0.053117 -0.158777 -0.072287 -0.035733 -0.262553 -0.120737 -0.314918 -0.079983 0.053123 -0.108276 -0.174902 -0.206203 0.065873 0.026080 -0.262126 0.050814 -0.045902 0.268359 0.091538 0.032233 0.028034 0.006542 -0.008578 0.120811 -0.109206 0.163936 -0.136253 -0.156106 -0.228279 -0.237907 -0.024326 -0.429973 0.094230 0.225300 0.257339 -0.146416 -0.257365 -0.093882 -0.167675 0.055925 -0.285892 0.145546 0.042677 -0.108314 -0.069368 -0.085288 0.058728 -0.148612 0.145673 -0.032373 0.084652 0.023155 -0.144720 0.149024 -0.071160 -0.020069 0.012032 -0.105908 -0.026990 -0.140830 -0.141903 0.123459 -0.054848 -0.080956
CP013031.1 0.031241 0.176669 0.137008 0.168888 -0.180407 -0.035702 0.111880 -0.053852 -0.310823 -0.217642 0.202752 -0.064902 0.144595 0.252133 0.009473 0.033016 0.359483 0.048164 -0.072149 -0.104063 -0.072174 0.103431 0.041804 -0.006733 0.087283 -0.171616 0.082014 0.144298 -0.145408 0.240424 0.211957 -0.145651 0.012261 -0.180294 0.138611 -0.047046 -0.022896 -0.092078 0.054888 -0.111776 0.086337 -0.074583 0.212813 0.233333 -0.175894 0.024012 0.330198 -0.010758 0.226538 -0.149761 0.127790 0.114961 0.100803 0.168791 -0.095410 -0.064834 -0.141681 -0.072122 0.018697 0.065913 0.004064 -0.046671 0.127773 0.062334 0.053712 -0.077552 -0.057070 -0.038426 0.041993 -0.125069 0.098418 -0.197358 -0.143637 -0.053183 -0.226708 -0.090987 0.133157 0.048769 -0.031956 0.087236 0.107822 0.053116 0.080200 0.110386 -0.067582 -0.112381 0.209442 -0.240745 -0.201797 -0.008101 0.127609 -0.100845 -0.087603 -0.164251 0.125100 -0.272410 -0.042316 0.213998 -0.049506 -0.033484 0.075021 0.201464 -0.060382 -0.078774 0.098414 -0.089535 0.117283 -0.076271 -0.062947 0.061534 -0.112382 -0.059439 0.074374 0.080527 -0.018759 0.093948 -0.099623 0.034858 0.059145 -0.049479 0.057865 -0.091947 -0.016775 -0.070678 -0.093845 0.157180 -0.158024 0.086526
CP009859.1 0.128734 0.225193 0.059872 -0.020616 -0.063066 -0.154137 0.085827 -0.061617 -0.189527 -0.295084 0.075797 -0.105247 0.049797 0.153893 -0.107130 0.026081 0.113714 0.073784 0.039143 -0.091706 -0.044375 0.074460 -0.042167 0.190772 0.084101 -0.203598 -0.033986 0.118229 0.002895 0.157505 0.340896 -0.129556 0.005613 0.038193 0.139519 -0.029108 -0.010855 -0.064493 0.018562 -0.105246 0.194561 -0.043525 0.103122 0.189791 -0.384029 -0.041350 0.385560 -0.062550 0.164200 -0.051820 0.002128 0.123917 0.087270 0.249932 -0.062548 -0.132224 -0.132985 -0.073838 0.091281 0.101354 -0.031734 0.026971 0.199834 -0.018888 0.125490 0.015111 -0.142731 -0.095582 -0.126759 0.010027 0.143782 -0.292172 -0.061203 -0.074622 -0.077199 0.000604 0.211091 0.259388 -0.100570 0.075958 0.008632 0.198909 0.077924 0.244725 0.013231 -0.006139 0.233665 -0.050893 -0.227791 -0.046946 0.051796 -0.065306 -0.078849 -0.154132 0.147305 -0.187171 0.008159 0.248615 -0.106827 -0.003045 -0.021203 0.209789 -0.078012 0.034730 -0.168636 -0.038569 0.106390 -0.215271 0.041092 0.083618 0.073690 -0.072918 0.068761 -0.025344 -0.006189 0.141175 -0.025414 0.144962 0.044129 -0.132905 -0.159678 -0.082404 0.117899 -0.159449 -0.371947 0.212691 0.131427 -0.015987
CP013835.1 0.070670 0.161859 0.090201 -0.000187 -0.012632 -0.035017 0.112533 0.109226 -0.190108 -0.255757 0.076946 -0.086117 0.067857 0.122346 -0.038560 0.039607 0.157071 -0.007301 -0.047954 -0.163928 -0.036461 0.043001 0.066882 0.063469 0.103149 -0.212838 0.038606 0.058637 -0.003986 0.182588 0.171789 0.005099 -0.067822 -0.028583 0.130312 -0.046026 -0.003020 0.007246 -0.000597 0.001151 0.105043 -0.142864 0.195312 0.196996 -0.213473 -0.120097 0.222132 -0.019768 0.021331 -0.056635 0.105257 0.113296 0.008619 0.135438 -0.070262 -0.119803 -0.074486 -0.067515 0.026443 0.056325 -0.007781 0.019218 0.044428 0.011656 0.012920 0.013909 -0.176216 -0.047756 -0.045155 -0.040247 0.013284 -0.162042 -0.027211 -0.049471 0.008213 -0.074926 0.119808 0.168217 -0.081244 0.014068 0.038843 0.128412 -0.019623 0.161628 -0.022307 -0.022777 0.171770 -0.059897 -0.117986 0.016400 0.054350 -0.137512 -0.047832 -0.131612 0.076960 -0.263484 -0.030744 0.140827 -0.045650 -0.000877 -0.105240 0.160096 -0.105758 -0.043878 -0.103928 0.060966 0.021176 -0.132293 -0.021013 0.021913 0.045128 -0.053404 0.115935 -0.027002 -0.016380 0.146324 -0.122657 0.075387 0.042514 -0.084715 -0.119561 -0.040734 -0.016868 -0.049865 -0.249276 0.084464 -0.057729 0.074286
CP013185.1 0.083253 0.118028 0.047677 -0.014652 -0.100443 0.014873 0.039964 -0.014063 -0.219909 -0.141316 0.171059 -0.107394 0.039980 0.150384 -0.075238 0.078986 0.220063 0.119048 0.008296 -0.148071 -0.057427 0.056392 0.012139 0.029019 0.192244 -0.220391 -0.012891 0.119055 -0.007680 0.292706 0.298956 -0.053663 0.039968 -0.167792 0.134353 0.004189 -0.079595 0.051449 0.069721 -0.228328 0.206680 -0.053878 0.095268 0.203515 -0.343763 -0.113406 0.423766 0.029851 0.215244 -0.098473 0.145635 0.173949 0.058083 0.355288 -0.103810 -0.185486 -0.239840 -0.032093 0.076033 0.088123 -0.089679 -0.041823 0.250503 0.052546 0.056215 -0.098111 -0.069425 -0.029634 -0.121754 -0.139067 0.141588 -0.255341 -0.107010 -0.057571 -0.147305 -0.068492 0.224269 0.064126 -0.110836 0.109206 0.202649 0.206690 0.060201 0.119252 0.024558 -0.216103 0.178727 -0.157620 -0.308307 -0.022717 0.190982 -0.110361 -0.106566 -0.156764 0.194879 -0.340073 -0.122963 0.287648 -0.021704 -0.083842 0.056722 0.167108 0.036015 -0.020925 0.000311 -0.013414 0.036134 -0.200786 -0.124443 0.149542 -0.058790 -0.103131 0.021970 0.040084 -0.087920 0.176720 -0.104502 0.133507 0.014862 -0.059404 0.020320 -0.119493 -0.040612 -0.056530 -0.179523 0.173562 0.009872 -0.034224
CP015228.1 0.047603 0.151837 0.134560 0.074997 0.080205 0.055083 0.102676 0.077869 -0.158480 -0.025425 0.124081 -0.097706 0.221156 0.054728 -0.087673 -0.073551 0.094156 -0.053788 -0.063703 -0.028908 0.043736 -0.040116 0.171725 0.078152 0.180220 -0.245337 0.165520 0.025513 0.002853 0.285891 0.169068 -0.003602 -0.211833 0.061690 0.064896 -0.045052 -0.010668 -0.096595 -0.106951 -0.014002 0.099801 -0.157825 0.226216 0.260439 -0.146820 -0.266707 0.255787 -0.102328 -0.010787 0.039629 0.071424 0.091411 -0.041082 0.135635 0.024045 -0.155394 -0.039230 -0.027443 0.036704 0.055693 0.057381 -0.000234 0.021268 0.035335 0.069508 -0.083268 -0.189148 0.021835 -0.017937 -0.118561 0.004408 -0.280829 -0.050747 0.007745 0.205777 -0.115452 0.052632 0.144019 -0.083559 -0.017937 0.082918 0.256859 0.061060 0.127740 -0.058573 -0.051921 0.169300 0.047273 -0.122257 -0.046317 0.062341 -0.226033 -0.018966 -0.212799 -0.060281 -0.236883 -0.072479 0.096456 -0.052198 -0.060579 -0.111348 0.115979 -0.127083 -0.131781 -0.117098 0.120667 0.031629 -0.130642 -0.103462 0.192074 -0.088264 -0.201130 0.143452 -0.201485 0.007141 0.170620 -0.185004 -0.079523 0.020182 -0.089088 -0.064342 -0.227243 -0.156022 -0.142414 -0.256708 0.035737 -0.144142 0.139239
CP011018.1 -0.198161 -0.064505 0.265057 0.211518 0.083541 0.020347 0.226805 0.138524 -0.104010 -0.265468 0.047511 -0.221518 0.063196 0.202756 -0.007457 0.058628 0.205247 -0.053463 -0.106472 -0.111755 0.193722 0.173470 0.050355 -0.163737 -0.026271 -0.259965 0.177793 -0.023787 0.108309 0.254293 0.135660 0.189811 -0.167371 0.070795 -0.148075 -0.208599 -0.012442 0.122731 0.042922 -0.018395 -0.114749 0.000653 0.072134 0.042942 -0.279051 -0.182347 0.019523 0.059382 -0.093829 0.112629 0.347243 -0.102748 0.058276 0.125188 -0.225262 -0.047955 -0.000987 0.081993 -0.040985 0.158674 -0.054098 -0.097827 0.279847 0.054088 -0.035165 -0.107151 0.045511 -0.089831 -0.128534 -0.109520 -0.265110 -0.233507 0.090352 -0.111672 -0.083853 -0.171480 0.205514 -0.008395 -0.312537 -0.031283 0.019850 0.168093 0.015970 0.006250 0.000335 -0.125326 0.025392 0.054762 -0.268743 0.096561 -0.082932 -0.190646 -0.097777 -0.221852 -0.022679 -0.424187 0.104870 0.208169 0.269594 -0.141321 -0.233845 -0.022174 -0.153957 -0.004040 -0.151764 0.253500 0.112207 -0.085921 -0.111236 -0.052041 0.156286 -0.057058 0.142186 0.014459 0.067532 0.054275 -0.203180 0.041694 0.022140 -0.154202 -0.035771 -0.081383 -0.089737 -0.034688 -0.310802 -0.047540 -0.217893 -0.121457
CP014667.1 0.135944 0.117778 0.168173 0.128321 0.061473 0.050336 0.087413 0.155574 -0.134533 -0.063837 0.044533 -0.015740 0.267707 0.056506 -0.068226 -0.098061 0.146948 -0.117576 -0.185416 -0.081622 -0.006074 -0.003742 0.188068 0.072480 0.210852 -0.189080 0.170763 0.078358 0.010702 0.215179 0.119510 0.076187 -0.269724 -0.015063 0.054264 -0.059671 -0.035915 -0.062772 -0.091295 0.082945 0.074668 -0.126433 0.288865 0.278897 -0.118245 -0.224404 0.149890 -0.089244 -0.108480 -0.072813 0.130606 0.127391 -0.027295 0.044079 -0.050687 -0.149356 -0.043204 -0.052329 0.006591 0.087885 0.043829 -0.103109 -0.046283 0.045086 0.005004 -0.140110 -0.237343 0.066054 0.033541 -0.031100 0.029703 -0.102020 -0.006488 0.023790 0.279032 -0.178048 0.000768 0.050426 -0.061827 -0.021697 0.080574 0.288154 0.142313 0.123552 -0.013091 -0.011191 0.148195 0.148829 -0.007615 0.051342 0.092733 -0.135633 -0.011529 -0.131679 -0.108588 -0.268060 -0.097277 0.035759 0.021413 -0.074287 -0.114374 0.020097 -0.099762 -0.106530 -0.130614 0.111165 -0.114912 -0.083970 -0.015160 0.165800 -0.066761 -0.222373 0.228264 -0.144867 -0.005314 0.159195 -0.223705 -0.060260 0.042860 -0.039525 0.044054 -0.239772 -0.108009 -0.145543 -0.051404 0.050112 -0.226825 0.269300
CP015834.1 0.162031 0.375904 0.164233 0.081606 0.059213 -0.136304 -0.009145 0.018836 -0.170668 -0.268633 0.206856 -0.089839 -0.083060 0.069016 -0.145651 -0.053718 0.079411 0.013519 -0.048417 -0.115504 0.063513 0.209131 -0.023424 0.404217 -0.048903 -0.328025 0.061979 0.154237 0.025739 0.036900 0.328062 0.013841 -0.060547 0.040887 0.065921 -0.043638 0.061048 -0.047597 0.194195 0.017871 0.135370 -0.007006 0.024292 0.243119 -0.365539 -0.090642 0.180630 -0.084980 0.025690 0.059080 0.025103 0.006228 0.092642 0.215479 -0.105287 -0.099687 -0.149808 0.039541 0.164082 0.118150 0.013329 0.025606 0.084689 0.056834 -0.056924 0.121768 -0.180094 0.074272 -0.050459 -0.016167 0.035823 -0.154446 0.013696 -0.095135 0.079008 0.061122 0.227241 0.311804 -0.176182 0.253154 -0.130511 0.372731 0.299666 0.293392 0.047216 0.038406 0.249988 -0.052898 0.040216 0.053918 -0.056475 -0.021395 0.098349 -0.140755 0.022643 -0.157817 -0.054820 0.286885 0.027672 -0.111017 -0.083589 0.202635 -0.055346 0.069241 -0.288333 0.070941 -0.001575 -0.185899 0.278836 0.062210 0.289141 -0.032729 0.102395 -0.044234 0.096942 -0.097605 -0.044004 0.136595 0.123589 -0.149740 -0.125450 -0.172839 0.207368 -0.185303 -0.202181 0.309239 0.089810 -0.015236
CP015995.1 0.046717 0.102904 0.197088 0.042372 0.052906 -0.004872 0.107827 0.074965 -0.179633 -0.232822 0.057669 -0.042116 0.084491 0.148377 -0.003732 0.107479 0.183075 -0.052450 -0.094327 -0.159077 -0.050362 0.064811 0.078519 0.036208 0.075193 -0.175653 0.050083 -0.057425 -0.025525 0.177820 0.117581 0.004799 -0.059008 -0.071922 0.118930 -0.068429 -0.018809 -0.053216 0.033776 0.043358 0.023215 -0.146602 0.197413 0.144100 -0.160872 -0.096964 0.090447 0.019701 -0.008828 -0.085905 0.195787 0.060965 0.048223 0.089598 -0.094584 -0.057578 -0.057525 -0.069209 0.022010 0.106949 -0.043827 -0.058435 0.101998 0.008375 -0.069717 0.040058 -0.158498 -0.025364 -0.009694 -0.007269 0.017581 -0.145439 -0.043963 -0.079379 -0.033702 -0.076212 0.136203 0.109564 -0.120758 0.002475 0.033473 0.061851 -0.031168 0.159551 -0.048116 -0.022396 0.152070 -0.051144 -0.105146 0.040002 0.007752 -0.149652 -0.013907 -0.164246 0.036347 -0.294421 -0.029000 0.065525 0.060796 0.049086 -0.121643 0.151876 -0.112304 -0.018001 -0.096062 0.066197 0.057027 -0.112427 0.022295 -0.061625 0.076480 0.000881 0.180728 0.004921 -0.007119 0.113958 -0.102979 0.025351 0.075605 -0.098134 -0.119341 0.026462 -0.018258 0.037847 -0.195841 0.093020 -0.099648 0.100476
CP010371.1 0.038077 -0.103140 0.204993 -0.023833 -0.042791 -0.192837 0.091679 0.253225 -0.056458 -0.167889 -0.163634 0.026629 -0.067931 0.094025 -0.132073 0.095466 0.205315 0.021490 -0.116958 -0.149239 -0.162236 -0.023693 0.121538 0.197117 -0.025461 -0.282305 0.110949 0.080307 -0.046778 0.051650 0.066601 0.037878 -0.064803 -0.115325 0.187444 -0.026522 0.023696 0.002478 -0.055118 0.191244 0.111044 -0.132562 0.284480 0.191023 -0.206297 -0.100659 0.148513 -0.001501 0.030388 -0.040559 0.094044 0.060065 -0.036125 0.133155 -0.058791 -0.036821 -0.020235 -0.013344 0.073083 0.159932 -0.163814 -0.032210 -0.000320 0.164715 -0.006798 0.164820 -0.203169 -0.019438 0.160180 0.029346 0.068667 -0.180184 0.164862 -0.080193 0.149328 -0.179466 0.201811 0.161945 -0.187235 0.010415 0.004458 0.103011 0.098851 0.240548 0.038960 0.079787 0.157581 -0.042033 -0.060678 0.035709 0.050569 -0.038644 -0.061510 -0.066672 0.081725 -0.254624 -0.100299 0.164112 0.057003 0.141152 -0.216601 0.257997 -0.139865 -0.083031 -0.186194 0.060310 0.026472 -0.105578 -0.004057 0.013548 0.267087 -0.045401 0.082601 0.138294 -0.064141 0.243296 -0.195238 0.065408 0.039353 -0.004268 -0.050950 0.007785 0.219460 0.006982 -0.202626 -0.042767 -0.287774 0.267074
NC_008723 -0.069820 -0.236987 0.140943 -0.097793 -0.119719 -0.272096 0.147465 0.370668 0.003080 -0.231482 -0.288706 0.066162 -0.101659 0.106223 -0.151887 0.060235 0.279126 0.033542 -0.205296 -0.128211 -0.274309 -0.056169 0.097868 0.296807 -0.095364 -0.370237 0.154836 0.217528 -0.171041 -0.054614 -0.000028 0.018434 -0.153429 -0.101063 0.234447 -0.023404 0.064607 -0.023969 -0.068512 0.297350 0.131464 -0.105040 0.417117 0.215915 -0.244536 -0.033389 0.184826 0.046476 0.063175 -0.034419 -0.018595 0.113590 -0.100949 0.117987 -0.032211 -0.073398 -0.073541 0.056407 0.110217 0.242303 -0.192566 -0.079940 -0.063470 0.283702 0.098437 0.208145 -0.232929 -0.047040 0.319658 0.077784 0.137039 -0.211262 0.328869 -0.043797 0.223049 -0.309935 0.131997 0.201323 -0.137695 -0.067545 -0.088673 0.079295 0.113647 0.235160 0.107704 0.136641 0.184941 -0.059389 -0.070183 -0.010087 0.124980 0.063623 -0.136371 0.087016 0.195613 -0.293593 -0.086571 0.164223 0.000214 0.149970 -0.206396 0.235398 -0.267195 -0.174536 -0.300842 0.080552 -0.006910 -0.065860 -0.023269 0.091468 0.369055 -0.090775 0.083255 0.289414 -0.146156 0.322517 -0.294818 0.170901 0.079294 0.030692 0.001196 0.024316 0.333138 -0.072961 -0.222157 -0.158745 -0.407017 0.420998
NC_007409 0.111786 -0.218158 -0.020256 0.122440 -0.069991 -0.025691 -0.027250 0.257129 -0.187315 -0.418571 0.103834 0.035700 0.160906 0.255325 0.211037 0.113215 0.356153 -0.148296 -0.293285 -0.267304 0.005822 0.444147 0.058353 -0.163555 0.283591 0.056211 -0.023596 0.134089 0.039055 0.260787 0.339625 0.248771 -0.236939 -0.123071 -0.113524 -0.121853 -0.023798 -0.101971 0.282252 -0.048343 -0.028279 -0.079213 0.232451 0.208650 -0.242002 -0.071244 0.160475 0.113851 -0.262708 -0.237468 0.493865 0.212153 -0.009530 0.026850 -0.334798 -0.261976 -0.349923 0.058811 0.020689 0.271008 0.134879 -0.255271 0.142112 0.063723 -0.348630 -0.240384 -0.118713 0.052432 -0.087065 -0.089666 0.088347 0.197405 0.122420 0.059130 0.096003 -0.276447 -0.088013 -0.021581 -0.071007 0.103627 -0.066428 0.197476 0.008972 0.098509 0.140935 -0.157968 0.008419 0.093269 -0.162855 0.188627 0.150748 0.174178 0.030327 0.256001 0.131006 -0.449389 -0.122072 0.167430 0.087858 -0.195459 0.201988 -0.084705 0.073914 0.013175 -0.059810 0.164451 0.001201 -0.162557 0.095737 0.042145 -0.089371 0.065543 0.262625 0.323890 -0.157141 0.001203 -0.079189 0.216316 0.293242 -0.096827 0.078124 -0.008025 0.051851 -0.066815 -0.051034 0.159938 -0.059727 0.184339
CP015240.1 0.045194 0.134614 0.199763 0.027754 0.000246 -0.056385 0.098366 0.129538 -0.174899 -0.288516 0.056994 -0.080601 0.003985 0.150448 -0.016401 0.120164 0.186771 -0.011679 -0.076779 -0.201645 -0.023477 0.056237 0.079619 0.031348 0.011430 -0.218936 0.041816 0.029666 -0.037339 0.155540 0.115673 0.009223 -0.051694 -0.070650 0.150059 -0.082841 0.032264 0.005034 0.042015 0.061513 0.029498 -0.158427 0.197083 0.172172 -0.130015 -0.077046 0.112779 -0.002466 -0.022645 -0.044191 0.177433 0.047964 0.008175 0.133803 -0.122687 -0.040923 -0.075565 -0.074905 0.024656 0.080001 -0.019347 0.002850 0.043435 0.026756 -0.095530 0.098916 -0.168535 -0.070014 -0.006572 -0.035141 -0.032398 -0.138329 -0.002022 -0.068242 -0.061209 -0.075710 0.182656 0.136323 -0.128111 0.013022 0.039884 0.027504 -0.048554 0.163929 -0.061393 0.001363 0.182238 -0.085713 -0.110847 0.047039 0.013035 -0.136808 -0.004733 -0.149005 0.058410 -0.257419 0.004175 0.139339 0.012448 0.038388 -0.147570 0.197862 -0.128511 -0.043475 -0.092314 0.068376 0.056716 -0.083141 0.009606 -0.071305 0.131373 0.016546 0.145093 0.025340 0.031964 0.093825 -0.119113 0.071879 0.076994 -0.080158 -0.161864 0.025112 0.022725 0.026310 -0.256216 0.084619 -0.137455 0.082150
CP011416.1 0.025233 0.085095 0.125064 0.058399 -0.020725 -0.033414 0.108995 0.053577 -0.194607 -0.289705 0.028399 -0.083618 0.129255 0.182202 0.000782 0.041395 0.183058 -0.014895 -0.074184 -0.145857 -0.026261 0.066858 0.076385 0.079245 0.114392 -0.123492 0.078275 -0.007490 0.022420 0.221322 0.234028 -0.000797 -0.069478 0.022750 0.086774 -0.016806 -0.001753 -0.096765 -0.032024 0.027387 0.055652 -0.092181 0.198121 0.203939 -0.202274 -0.122314 0.224008 -0.100983 0.005591 -0.059549 0.162504 0.046637 0.058239 0.024442 -0.074303 -0.112382 -0.050547 -0.085048 0.020062 0.040141 0.012146 -0.011183 0.066196 0.049258 0.040085 -0.019149 -0.199739 -0.041838 -0.018529 0.020635 0.036579 -0.176058 -0.022006 -0.060381 0.034447 -0.055438 0.060474 0.194930 -0.089920 -0.052858 0.031152 0.080064 0.008736 0.162872 0.011497 0.040826 0.172179 -0.020004 -0.123739 0.005137 0.033354 -0.145387 -0.044641 -0.100924 0.071234 -0.263369 -0.009157 0.117527 -0.017641 0.000812 -0.048599 0.141483 -0.103156 -0.032407 -0.116118 0.051609 0.071462 -0.080097 -0.002393 0.014563 0.056719 -0.064484 0.176538 -0.019113 -0.040536 0.156083 -0.090522 0.010821 0.130160 -0.169518 -0.126326 -0.017469 -0.016012 -0.078690 -0.257932 0.078958 -0.054844 0.124057
NC_004585 0.101122 0.162063 -0.038033 0.027971 -0.278979 -0.027347 0.150812 0.028805 -0.400644 -0.195159 0.328457 -0.142871 0.197684 0.206870 -0.039917 0.021580 0.308123 0.160063 0.033217 -0.101208 -0.078785 0.055265 0.053650 -0.207276 0.255186 -0.288336 -0.041918 0.223224 -0.093880 0.344075 0.228963 -0.135243 0.060520 -0.346748 0.179653 -0.005945 -0.131483 0.084051 0.114537 -0.286938 0.275806 -0.122601 0.224230 0.326834 -0.348876 -0.054702 0.613058 0.066320 0.359231 -0.255474 0.103013 0.322357 0.034099 0.439410 -0.065056 -0.190153 -0.268904 -0.086001 0.034176 0.088266 -0.090059 0.021179 0.174232 0.030772 0.119319 -0.192864 -0.041663 -0.087334 -0.069836 -0.211278 0.208687 -0.257339 -0.144382 -0.034718 -0.260994 -0.162870 0.269420 0.027636 -0.025358 0.190845 0.257213 0.222829 0.047283 0.139105 0.013788 -0.289245 0.173226 -0.287592 -0.375169 0.010528 0.267482 -0.066126 -0.214435 -0.194308 0.243776 -0.393223 -0.204024 0.319561 -0.147388 -0.073311 0.078485 0.202839 0.085004 -0.042547 0.203230 -0.082813 0.005730 -0.248710 -0.237714 0.156458 -0.296428 -0.109224 -0.063479 0.084002 -0.124575 0.268890 -0.166226 0.187535 -0.119787 -0.035245 0.117420 -0.250814 -0.055894 -0.085873 -0.198630 0.150392 -0.069872 -0.014522
CP012635.1 -0.234663 0.283892 0.252129 0.157711 0.168846 0.119248 0.277158 -0.192286 -0.206501 -0.175573 0.157864 0.005644 0.304420 0.215662 0.041279 -0.028178 0.209062 -0.223190 -0.204672 0.224436 -0.099435 0.072897 -0.025087 0.247853 -0.063872 -0.315796 0.190848 -0.149613 -0.439923 0.103564 -0.042312 -0.261443 -0.347707 0.009261 0.046677 0.000723 0.087130 -0.490454 0.193710 0.127693 -0.065990 -0.223062 0.375328 0.110103 -0.108548 0.031444 0.027952 0.171873 0.190278 0.108154 0.001918 0.039170 0.035174 -0.050352 0.130342 -0.016925 -0.170530 0.093696 0.170728 0.281421 0.177190 -0.250675 0.202794 0.150542 0.143866 0.013451 -0.023326 -0.007840 0.334681 0.006289 0.172842 -0.379708 -0.127487 0.008571 -0.068971 -0.112491 -0.114696 0.196849 0.055542 -0.045960 -0.204021 0.046407 -0.021776 0.114945 -0.086455 -0.092499 0.282474 -0.211354 -0.082102 -0.174152 -0.024914 -0.187465 0.113338 -0.139775 0.062496 -0.404016 0.140559 -0.235190 -0.029448 0.005455 0.007886 0.048243 -0.424317 -0.185759 -0.185787 0.183846 0.175767 -0.065876 0.118876 0.033257 0.023356 0.016963 0.339821 0.060024 -0.002970 -0.033111 -0.184847 -0.121274 0.220907 -0.291334 -0.051198 -0.063374 -0.199948 -0.144713 -0.243734 0.031861 -0.275490 0.209240
NC_003291 0.283739 0.106953 0.265743 0.151229 -0.281543 0.045212 0.268114 -0.084744 -0.212897 -0.365279 -0.035139 -0.109593 0.097710 0.226318 0.185550 -0.257755 0.274225 -0.190415 -0.403837 -0.320642 0.068090 0.035754 0.093697 -0.290930 0.118173 0.004111 0.171335 0.024422 0.174703 0.203650 -0.008182 0.088937 0.004887 -0.017363 0.170377 -0.323514 -0.049793 0.030938 0.013284 0.022336 -0.164187 0.150476 0.355205 0.231655 -0.322529 -0.158071 -0.057175 -0.147756 -0.022771 -0.475808 0.235847 0.086821 0.219818 -0.086629 -0.288992 -0.190655 0.152771 -0.289517 -0.162312 0.111955 -0.012851 -0.092558 0.229791 -0.237367 0.262560 -0.084967 -0.371211 -0.039051 0.070306 0.106231 -0.127709 -0.036152 -0.017689 -0.112424 -0.280147 -0.090357 -0.026834 -0.017937 -0.378578 -0.024381 -0.104495 0.010400 0.214595 0.273420 -0.249814 0.117678 0.069714 0.075183 0.012404 0.225571 -0.075112 -0.148158 -0.380654 -0.152026 0.123527 -0.221798 0.071596 0.032363 0.139848 -0.075546 -0.226971 -0.065902 -0.130465 0.039780 -0.171610 -0.216365 0.081081 0.084237 -0.014201 -0.100860 -0.133314 -0.284448 0.245531 -0.117142 0.281644 0.137463 -0.078382 0.127745 -0.022232 -0.135977 0.006817 -0.089189 0.025192 -0.179344 0.044947 0.363282 -0.214856 0.241269
NC_009552 -0.024219 0.407274 0.054895 0.052207 0.083744 0.229574 0.323227 0.380242 -0.606953 -0.494788 0.514995 -0.084895 0.202995 0.142017 0.060059 0.096490 0.155866 -0.138431 0.029944 -0.212341 -0.063574 0.085698 0.012462 -0.281531 0.139689 -0.379156 -0.074926 -0.113562 -0.239614 0.183188 -0.253209 0.032592 -0.037987 -0.470121 0.136779 -0.083123 0.010637 0.233771 0.285722 0.021248 0.158446 -0.441807 0.342188 0.318306 -0.012638 -0.017339 0.111583 0.273187 0.183176 -0.341628 0.226049 0.332242 -0.190003 0.186890 0.057408 -0.044283 -0.229913 -0.019871 -0.015868 0.058164 0.007111 0.135866 -0.066179 0.061348 -0.155949 -0.037410 -0.056322 0.052036 0.042161 -0.199396 0.037024 0.053011 -0.077190 -0.069956 -0.115726 -0.188197 0.185580 -0.042752 0.109513 0.154170 -0.003030 0.130157 -0.173306 0.108082 -0.046463 -0.380696 0.094757 -0.457119 0.040283 0.059187 0.302479 -0.199920 0.023995 -0.117145 0.074340 -0.451964 -0.237614 -0.023919 -0.092133 -0.080942 -0.293560 0.155379 -0.042301 0.071424 0.149651 0.210899 -0.250389 -0.357877 0.166245 -0.086440 -0.130315 0.009114 0.160567 0.062854 -0.053687 0.087814 -0.297811 0.299192 -0.052039 -0.023362 0.083112 -0.141690 -0.298745 0.222782 -0.083482 0.085666 -0.201898 -0.017364
NC_020202 -0.046732 -0.150668 0.048720 -0.388448 0.062045 0.260673 0.012756 0.023125 -0.105844 0.029221 0.329735 -0.043232 -0.184083 -0.004265 0.024792 0.142382 0.279591 0.033054 -0.226290 -0.242226 0.061684 0.005909 0.247481 0.024670 -0.029667 -0.316854 0.140731 -0.151090 -0.257359 0.370129 0.009250 0.013226 -0.036133 0.110728 0.368610 -0.169427 0.010237 -0.082842 0.107604 -0.055381 -0.077369 -0.148104 0.366987 0.256506 0.105836 -0.298373 -0.025453 0.031507 -0.129011 -0.026712 0.245127 0.103536 -0.274581 0.376626 -0.133195 -0.343973 -0.200105 -0.025004 0.087432 0.208598 0.026937 0.004204 0.252807 0.035681 -0.093895 0.179932 -0.251383 0.058360 0.152502 -0.178039 -0.045622 -0.316267 0.086602 -0.060002 0.047165 -0.042416 0.088821 -0.071477 -0.453749 -0.157002 -0.073923 -0.105426 -0.082747 0.107144 -0.480377 -0.239177 0.148358 -0.031308 -0.244440 -0.123592 0.222483 -0.309546 -0.083195 -0.104751 0.310534 0.042677 0.010368 -0.089504 -0.043147 -0.266423 -0.179568 0.149237 -0.122212 -0.367075 -0.111851 0.102030 0.260052 0.009716 -0.019235 0.268191 -0.038119 -0.250673 0.156143 -0.130027 0.239428 0.097674 -0.148083 0.276576 0.123981 -0.050840 -0.289391 0.028238 -0.107639 0.235779 -0.356327 0.135101 -0.206109 0.220815
NC_004584 0.235248 0.033352 0.169558 0.183580 -0.023610 -0.171406 -0.035686 0.210117 -0.117434 -0.419001 0.070667 0.087544 0.242442 0.196024 0.025999 0.185118 0.334761 -0.053943 -0.351232 -0.215803 -0.054025 0.429315 0.111619 0.194022 0.147122 -0.048115 0.040277 0.126270 -0.158889 0.244367 0.511475 -0.030834 -0.361899 0.014860 0.021522 -0.184446 -0.101891 -0.164776 0.227735 0.059431 0.048780 -0.042033 0.412546 0.129607 -0.097791 0.049375 0.031062 0.115019 -0.229981 -0.139042 0.186171 0.076972 0.010114 -0.008461 -0.407794 -0.149941 -0.197977 -0.068366 0.111289 0.293031 0.220671 -0.320404 0.043306 0.087307 -0.189404 -0.175126 -0.167073 0.087624 -0.075554 0.100755 -0.004526 0.225347 0.025331 -0.052348 0.018668 -0.154516 -0.060508 0.019438 -0.097325 0.049113 0.008722 0.179303 0.255906 0.114519 0.105157 0.050720 0.196709 0.420133 0.043872 0.176261 -0.013316 0.156290 0.046878 -0.008075 -0.011060 -0.356136 0.046164 0.047098 0.151562 -0.076775 0.210072 -0.142090 -0.086102 0.052960 -0.187624 -0.042527 -0.123869 -0.001688 0.207118 0.038115 0.105372 0.004783 0.392968 0.216579 0.033940 -0.174601 -0.017768 0.129996 0.298087 -0.018432 0.014514 0.001458 0.248563 -0.016259 0.059001 0.235804 0.064618 0.313928
CP013663.1 0.056511 0.042634 0.226992 0.058037 0.052734 -0.005393 0.063050 0.107708 -0.115958 -0.161275 0.024593 -0.023145 0.031379 0.129799 -0.015353 0.107869 0.246010 -0.044338 -0.166989 -0.196767 -0.039538 0.057290 0.116781 0.075865 0.075397 -0.194012 0.115089 -0.012455 -0.031842 0.215582 0.136355 0.034010 -0.099189 -0.055658 0.148777 -0.128579 -0.014051 -0.030995 -0.009989 0.055988 0.014560 -0.143920 0.239637 0.130300 -0.113956 -0.132111 0.054339 0.023846 -0.050423 -0.062530 0.208456 0.038761 0.031994 0.123176 -0.155185 -0.063994 -0.036254 -0.072592 0.010374 0.107855 -0.028614 -0.096194 0.105818 0.015521 -0.092831 0.042127 -0.170854 -0.007751 -0.009109 -0.053072 -0.042883 -0.134065 -0.038318 -0.070181 -0.011763 -0.100825 0.131380 0.040454 -0.172155 -0.014297 0.079447 0.051907 0.016099 0.126705 -0.092201 -0.022545 0.154599 0.009431 -0.102947 0.038387 0.021511 -0.175618 -0.013411 -0.183060 0.023960 -0.290538 -0.004050 0.090166 0.104262 0.052845 -0.120154 0.145437 -0.143768 -0.068814 -0.107385 0.050809 0.070619 -0.054618 -0.024329 -0.027120 0.091069 -0.045553 0.191763 0.003405 0.040390 0.099654 -0.132739 -0.008191 0.085625 -0.019847 -0.099693 0.032332 -0.005447 0.058328 -0.136838 0.087631 -0.189080 0.158271
CP016497.1 0.144478 -0.047701 0.159558 0.053608 0.021457 -0.004330 -0.016281 0.159254 -0.168893 -0.232527 0.098232 0.027940 0.128146 0.144788 0.083439 0.074777 0.230547 -0.097725 -0.190486 -0.155905 0.013614 0.230783 0.120646 -0.056807 0.180638 -0.030012 0.024420 -0.007950 0.011881 0.241609 0.241940 0.126752 -0.167312 -0.079004 -0.014259 -0.075752 -0.027025 -0.136629 0.149201 0.019415 -0.011036 -0.112714 0.246789 0.239543 -0.163064 -0.145335 0.107860 0.017607 -0.190138 -0.128422 0.350556 0.104312 -0.036373 0.056365 -0.197405 -0.172010 -0.197923 0.009052 0.055145 0.184285 0.069292 -0.142038 0.073537 0.058221 -0.244967 -0.079552 -0.171649 0.051986 -0.011413 -0.054677 0.045949 0.025276 0.055036 0.012858 0.142585 -0.127725 0.011131 0.037645 -0.146115 0.061380 -0.052340 0.154886 0.014841 0.164335 -0.011147 -0.088680 0.059412 0.086423 -0.088267 0.117968 0.072521 0.012237 0.059651 0.044850 0.036897 -0.302215 -0.120424 0.071880 0.067897 -0.091176 0.044606 0.035945 0.027170 -0.009892 -0.063071 0.134507 0.028706 -0.122969 0.071381 0.040506 -0.041358 0.028192 0.216451 0.090252 -0.038789 0.031536 -0.082101 0.078215 0.198177 -0.132216 -0.051115 -0.024906 -0.010909 -0.002476 -0.134194 0.119321 -0.092937 0.177453
CP011324.1 0.188609 0.051474 0.122952 0.172453 -0.287534 -0.114612 0.281110 0.032725 -0.249731 -0.257970 0.003281 -0.022554 0.148657 0.217506 0.074954 -0.154000 0.392496 -0.099055 -0.277063 -0.196489 -0.031004 0.031172 0.117950 -0.239274 0.091272 -0.103793 0.155326 0.213990 -0.057752 0.141028 -0.002309 -0.037063 -0.041714 -0.128311 0.194083 -0.278889 -0.047135 0.070350 -0.085275 0.021227 -0.003052 -0.009179 0.427696 0.223956 -0.187646 0.053538 0.106040 -0.039352 0.077858 -0.361058 0.097042 0.157027 0.119835 0.071514 -0.235153 -0.102828 0.097254 -0.265856 -0.165995 0.118405 -0.041746 -0.064746 0.121421 -0.161585 0.192466 -0.102936 -0.155085 -0.074079 0.064036 -0.007178 -0.026112 -0.058553 -0.066634 -0.057641 -0.235840 -0.187099 0.080153 -0.103707 -0.223837 -0.009753 -0.019929 0.015105 0.158254 0.194645 -0.255959 -0.003335 0.114073 0.002516 -0.073284 0.142469 0.068282 -0.057786 -0.332038 -0.191772 0.094943 -0.196615 0.062184 0.091631 0.012097 -0.008496 -0.175473 0.052396 -0.133615 -0.063658 -0.004696 -0.207235 0.037766 -0.003803 -0.100019 -0.007021 -0.189190 -0.232307 0.108895 -0.014895 0.213246 0.164140 -0.162513 0.127308 -0.105668 0.043022 0.093495 -0.127551 0.090939 -0.100501 -0.018837 0.204936 -0.333476 0.238264
CP014197.1 0.203892 0.007995 0.212926 0.081465 -0.246710 0.072008 0.205449 -0.092225 -0.215850 -0.336711 0.005985 -0.158011 0.214232 0.193253 0.178564 -0.170998 0.166841 -0.111620 -0.221197 -0.141211 0.110989 0.021541 0.122037 -0.393514 0.110478 0.105148 0.035010 -0.098987 0.159885 0.204654 0.026707 0.071152 0.021679 -0.077107 0.010285 -0.134747 -0.060421 -0.043007 0.097945 0.009361 -0.134118 0.069948 0.290748 0.306599 -0.267045 -0.177568 0.082399 -0.207069 -0.037229 -0.345322 0.361074 0.107384 0.065368 -0.076456 -0.175846 -0.197609 -0.010787 -0.246654 -0.062867 0.119277 0.038301 -0.041309 0.198429 -0.089702 0.148627 -0.121026 -0.310158 -0.086850 0.099368 0.124748 -0.000231 -0.116488 0.036461 -0.047348 -0.076698 -0.044152 0.038456 0.021778 -0.338441 -0.065645 -0.098258 0.018413 0.091481 0.289022 -0.186449 -0.020315 0.057583 0.041116 -0.123146 0.185360 -0.001413 -0.103804 -0.242535 -0.045472 0.104800 -0.217966 -0.030775 -0.038178 0.043948 -0.128597 -0.163714 -0.058607 -0.005360 0.074818 -0.002585 -0.038014 0.041168 -0.008691 -0.012667 -0.063858 -0.169854 -0.169472 0.242913 -0.121435 0.174401 0.190329 -0.075922 0.087790 0.050426 -0.341373 -0.057432 -0.143875 -0.075735 -0.121872 -0.210118 0.204519 -0.225523 0.141149
CP011495.1 -0.082510 0.109232 0.137318 0.111024 0.026586 -0.091078 0.219850 0.017918 -0.141927 -0.214455 -0.033982 0.043376 0.155209 0.174771 -0.041237 0.004159 0.294472 -0.063574 -0.097442 0.036582 -0.144757 0.085663 -0.014818 0.267361 0.054836 -0.198966 0.164522 0.089181 -0.231175 0.099157 0.196901 -0.119995 -0.180368 0.067777 0.077675 -0.033556 0.005122 -0.196351 -0.103634 0.071149 0.126921 -0.119621 0.369363 0.104971 -0.242857 0.076234 0.214059 0.068949 0.107686 0.011234 -0.004816 0.060314 0.065208 0.019184 -0.039262 -0.105518 0.014294 -0.037479 0.019478 0.134065 0.007050 -0.160977 0.159221 0.078958 0.208216 -0.061265 -0.041522 -0.052571 0.081982 0.041143 0.117307 -0.231597 -0.080423 -0.087755 0.025296 -0.126627 -0.017967 0.131213 -0.027941 -0.131019 -0.094620 0.122228 0.044622 0.114937 -0.011911 -0.017794 0.197339 0.021586 -0.123611 -0.101110 0.067438 -0.098389 -0.074868 -0.115807 0.118467 -0.341455 0.117405 -0.023066 -0.023340 0.034396 0.000448 0.059181 -0.272341 -0.116668 -0.181782 0.069715 0.053454 -0.089706 0.026402 0.082730 0.091728 -0.084533 0.196064 0.053146 -0.039394 0.132908 -0.162421 0.012444 0.125171 -0.102385 -0.054654 0.007778 0.034407 -0.103331 -0.234890 0.002704 -0.143475 0.197018
CP010876.1 0.194673 0.205319 0.254766 0.103511 0.105669 0.005023 0.016401 0.077484 -0.226652 -0.099275 0.184214 -0.091652 0.279213 0.040605 -0.081901 -0.081688 0.044800 -0.056355 -0.070309 -0.005682 0.122685 -0.024204 0.240570 -0.004212 0.203979 -0.186814 0.135960 -0.076545 0.136745 0.285794 0.231873 0.042754 -0.176921 -0.065086 0.014215 -0.048142 -0.015323 -0.146826 -0.034285 0.013967 0.036046 -0.167294 0.178271 0.347859 -0.137973 -0.324145 0.249499 -0.197460 -0.115113 -0.044338 0.152518 0.061852 -0.031473 0.112374 0.002379 -0.061406 -0.060257 -0.045164 0.062224 0.011506 0.035535 0.060380 -0.101115 -0.006621 -0.105872 -0.055472 -0.297999 0.054315 -0.022409 -0.081550 -0.020488 -0.146679 -0.040586 0.027824 0.278208 -0.024440 0.149139 0.200762 -0.127460 0.124404 0.095517 0.288304 0.094447 0.223829 -0.061086 -0.007256 0.154385 0.076854 -0.039790 0.040894 -0.030190 -0.200798 0.075804 -0.241707 -0.185306 -0.216127 -0.182514 0.134709 -0.011944 0.002712 -0.094460 0.155329 0.020800 0.002242 -0.006495 0.154710 0.032990 -0.122273 -0.040422 0.111665 -0.101243 -0.090759 0.165389 -0.233142 0.049009 0.118575 -0.144728 -0.182806 0.032394 -0.160491 -0.116180 -0.248301 -0.156163 -0.118501 -0.228310 0.082664 -0.094710 0.117871
CP012870.1 -0.120932 -0.191512 0.084855 -0.053280 -0.089662 -0.125116 0.240158 0.123087 0.023728 -0.005417 -0.222792 0.096070 0.032158 0.092730 -0.092755 -0.007292 0.277208 -0.013123 -0.206356 0.052732 -0.199648 -0.011995 0.073177 0.300744 -0.050689 -0.302525 0.197689 0.114717 -0.308944 0.014277 -0.029318 -0.088137 -0.251805 0.038842 0.150891 0.033694 0.033659 -0.186485 -0.049116 0.208668 0.125392 -0.162510 0.502753 0.138605 -0.198838 0.008345 0.203938 0.073965 0.180064 0.079434 -0.042671 0.122150 -0.117628 0.071098 0.050184 -0.196482 -0.060567 0.001473 0.115704 0.328966 -0.020196 -0.203812 0.194265 0.245102 0.290565 0.047845 -0.073431 -0.034973 0.348886 0.093424 0.250850 -0.343931 0.153154 -0.049033 0.194586 -0.269325 -0.003821 0.156657 -0.178530 -0.185716 -0.113299 0.082418 0.162249 0.193118 0.040417 -0.009642 0.200298 -0.008222 -0.121397 -0.092696 0.099210 -0.028819 -0.135919 0.048045 0.248940 -0.332000 0.063962 -0.086013 -0.038727 -0.001211 -0.140389 0.082532 -0.321334 -0.287865 -0.274037 0.072353 0.036195 -0.094043 -0.071800 0.195006 0.211438 -0.181659 0.134162 0.171277 -0.077292 0.288799 -0.296346 0.108455 0.107762 -0.083171 0.049176 -0.049643 0.176708 -0.097308 -0.286772 -0.141927 -0.420262 0.424406
CP015350.1 0.180184 0.247429 0.258706 0.244358 -0.060637 0.063526 0.348754 0.018435 -0.237163 -0.349069 0.068746 -0.135827 0.180986 0.201436 0.166590 -0.276428 0.223249 -0.254805 -0.418762 -0.353483 0.109001 0.197388 0.060390 -0.191423 0.167272 -0.125158 0.257196 -0.006735 0.233406 0.225860 0.021898 0.179856 -0.085067 0.175328 0.115705 -0.374683 -0.108073 0.108940 -0.008249 0.001185 -0.143850 0.143771 0.251507 0.159362 -0.449682 -0.205942 -0.109841 -0.077449 -0.081375 -0.397212 0.200014 0.053718 0.316958 -0.133549 -0.244360 -0.228702 0.241998 -0.145777 -0.221851 0.150314 -0.064723 -0.101508 0.217602 -0.261813 0.277641 -0.163808 -0.295229 0.037492 -0.081092 0.054850 -0.221508 -0.041992 -0.053050 -0.140448 -0.231912 -0.123638 -0.082304 0.070939 -0.321913 -0.023135 -0.117579 0.157128 0.231198 0.150767 -0.100146 0.202256 0.034437 0.163651 0.081232 0.227997 -0.194485 -0.188965 -0.399186 -0.236575 0.013259 -0.330365 0.083931 0.065396 0.239927 -0.088773 -0.271117 -0.120546 -0.172835 0.038326 -0.338227 -0.098125 0.077040 0.000878 -0.007399 -0.140081 -0.050159 -0.307558 0.250677 -0.171451 0.163221 0.108786 -0.093557 0.121034 -0.067172 -0.056581 0.039487 -0.099106 0.000393 -0.221604 0.044833 0.324005 -0.061356 0.163942
NC_006552 0.170005 0.073659 0.198463 0.180422 0.131866 0.045190 0.016678 0.189068 -0.111464 0.076989 0.030333 -0.060112 0.406824 0.010613 -0.129137 -0.156828 0.075998 -0.088120 -0.114543 0.006368 0.066267 -0.093424 0.311547 0.077632 0.384564 -0.166112 0.233787 0.061555 0.155700 0.396371 0.318032 0.094751 -0.364364 0.062695 -0.030567 -0.022130 -0.070163 -0.146250 -0.277006 0.032484 0.152341 -0.192005 0.282245 0.352714 -0.151017 -0.434318 0.362400 -0.250741 -0.165929 0.015147 0.141354 0.131758 -0.042762 0.074384 0.007378 -0.214365 -0.001601 -0.071431 0.015802 0.017427 0.091180 -0.062759 -0.089148 0.052313 0.010094 -0.220458 -0.298569 0.070963 -0.077707 -0.107020 0.026872 -0.242376 -0.045837 0.086970 0.513627 -0.197098 -0.007024 0.141918 -0.066147 -0.037704 0.214608 0.436895 0.164086 0.159512 0.037369 -0.017727 0.140994 0.285189 -0.102856 0.021793 0.097854 -0.232023 0.034197 -0.197419 -0.225915 -0.323721 -0.189433 0.142009 -0.023461 -0.054045 -0.082380 0.061992 -0.057330 -0.114911 -0.124245 0.167821 -0.084417 -0.139176 -0.194251 0.306750 -0.181282 -0.301323 0.218001 -0.309438 -0.055592 0.287067 -0.250587 -0.244518 0.048218 -0.087332 0.000332 -0.342870 -0.215640 -0.207945 -0.206092 -0.012954 -0.214809 0.292733
CP015241.1 0.051673 0.039580 0.133517 0.002023 0.007376 -0.033900 0.082807 0.124890 -0.162003 -0.209087 0.063690 -0.065678 0.062474 0.121079 -0.034577 0.092559 0.189385 0.005705 -0.062450 -0.150117 -0.001539 0.050151 0.116510 0.039191 0.083243 -0.190969 0.060990 0.020168 -0.022683 0.216692 0.185473 0.017733 -0.089514 -0.029865 0.107387 -0.055096 -0.002356 -0.030413 -0.017132 0.022500 0.066595 -0.151156 0.216208 0.190172 -0.137284 -0.132544 0.189719 -0.033306 -0.034977 -0.030979 0.166327 0.075247 -0.023685 0.146855 -0.101577 -0.100569 -0.081279 -0.074810 0.027300 0.076766 -0.009127 -0.005057 0.070254 0.038798 -0.059903 0.021467 -0.165224 -0.042134 -0.029168 -0.037707 0.002321 -0.156144 -0.002399 -0.055871 0.051394 -0.087427 0.152805 0.117691 -0.136191 -0.019895 0.066671 0.088983 -0.017636 0.147247 -0.053185 -0.047806 0.159458 -0.006021 -0.150863 0.025588 0.059211 -0.143392 -0.021863 -0.134208 0.057486 -0.254740 -0.032232 0.123776 -0.000563 -0.006906 -0.097857 0.159642 -0.084165 -0.062055 -0.079435 0.078407 0.047172 -0.102856 -0.038185 0.034900 0.054231 -0.043699 0.131496 -0.017262 0.002005 0.138724 -0.129373 0.041556 0.072942 -0.087144 -0.137888 -0.016468 -0.009712 0.014905 -0.264180 0.051067 -0.103840 0.105413
CP017100.1 0.128514 0.147727 0.157788 0.181982 -0.151557 -0.124575 0.147728 -0.022122 -0.281099 -0.215834 0.108219 -0.015941 0.148778 0.210762 -0.002847 -0.015012 0.329271 -0.014095 -0.091004 -0.113245 -0.045494 0.106174 0.073827 -0.040771 0.082731 -0.137386 0.102846 0.141118 -0.076486 0.190575 0.182462 -0.093501 -0.015057 -0.118901 0.137317 -0.133908 -0.023601 -0.054089 -0.042843 -0.027584 0.071991 -0.101761 0.270439 0.204312 -0.177639 0.032897 0.226225 -0.046905 0.121830 -0.179124 0.103590 0.100794 0.115412 0.132153 -0.132529 -0.056150 0.005193 -0.147218 -0.035982 0.079866 -0.013827 -0.024074 0.123296 -0.059750 0.048216 -0.051575 -0.083303 -0.047388 -0.009935 -0.067530 0.047577 -0.142128 -0.135136 -0.076792 -0.160741 -0.097150 0.153225 0.038159 -0.112381 0.076970 0.032039 0.075284 0.109168 0.189927 -0.132798 -0.019501 0.169654 -0.090400 -0.134423 0.050164 0.036561 -0.080690 -0.118879 -0.220211 0.044441 -0.203634 0.005090 0.156766 -0.018135 0.020260 -0.066677 0.199546 -0.074605 -0.042264 0.030589 -0.107166 0.102264 -0.101748 -0.026970 0.014239 -0.101311 -0.084412 0.081428 -0.001182 0.083104 0.094906 -0.102778 0.044281 -0.012999 -0.016688 0.000424 -0.096922 0.059894 -0.058295 -0.139505 0.189781 -0.167411 0.124313
CP014488.1 0.042118 0.131299 0.181748 0.125951 0.028755 -0.049474 0.123416 0.069233 -0.124194 -0.134170 0.014580 -0.057081 0.122245 0.111525 -0.083527 -0.016055 0.162995 -0.029279 -0.080194 -0.056097 -0.022019 0.050308 0.061544 0.144108 0.096936 -0.214527 0.140964 0.061915 -0.010785 0.179581 0.194093 -0.000888 -0.140855 0.037716 0.059558 -0.063927 -0.027901 -0.038944 -0.063909 0.010457 0.106036 -0.088864 0.212370 0.138327 -0.236182 -0.106543 0.198774 -0.024297 0.042312 0.007310 0.081496 0.048965 0.049458 0.100862 -0.072767 -0.105727 0.005811 -0.038553 0.019630 0.095622 -0.004131 -0.082801 0.113585 0.038779 0.100919 -0.060677 -0.111156 -0.009213 -0.027225 -0.027263 0.014185 -0.210757 -0.050743 -0.064025 0.065277 -0.113572 0.088323 0.123049 -0.117537 -0.013515 0.040262 0.218307 0.117224 0.137670 0.006484 -0.020709 0.163046 0.051180 -0.096988 -0.001967 0.024533 -0.135399 -0.051256 -0.171656 0.003715 -0.301794 0.004099 0.114371 0.044360 -0.006594 -0.099897 0.088660 -0.141528 -0.044202 -0.165904 0.064438 0.004578 -0.120478 -0.031169 0.080987 0.067829 -0.132887 0.152297 -0.059663 0.000457 0.132454 -0.153711 -0.005262 0.045778 -0.062092 -0.026895 -0.111370 0.005153 -0.095142 -0.190220 0.059403 -0.122074 0.113154
CP013837.1 0.077270 0.103202 0.219276 0.023291 0.055667 -0.053794 0.143634 0.080753 -0.170422 -0.253754 0.025006 -0.057383 0.075482 0.132695 -0.031012 0.095282 0.151091 -0.036647 -0.068600 -0.123088 -0.009448 0.053814 0.090398 0.033701 0.039473 -0.183686 0.051692 -0.054896 -0.018947 0.153085 0.123818 -0.003836 -0.086702 -0.026253 0.096780 -0.059238 -0.015791 -0.058050 0.019197 0.074534 0.024832 -0.140469 0.216887 0.170407 -0.161092 -0.092554 0.096380 -0.020412 -0.030471 -0.035440 0.167580 0.028956 0.025241 0.081354 -0.090794 -0.051073 -0.034836 -0.084472 0.034325 0.112448 -0.040373 -0.029179 0.095293 0.018775 -0.048975 0.058945 -0.160149 -0.049693 -0.002950 0.033142 0.005164 -0.166124 -0.008922 -0.085040 0.009401 -0.044996 0.166509 0.138198 -0.165106 -0.021183 0.002367 0.066724 -0.030610 0.190927 -0.056029 0.003999 0.150549 0.007492 -0.104270 0.044679 -0.019460 -0.131673 -0.022461 -0.161394 0.022812 -0.251056 -0.005563 0.061131 0.044227 0.044600 -0.152174 0.152938 -0.110344 -0.002043 -0.118865 0.072947 0.052543 -0.103135 0.026697 -0.061929 0.113166 0.000077 0.157881 -0.026460 0.027005 0.120358 -0.097213 0.021887 0.063713 -0.135601 -0.171221 0.015388 0.017555 0.020519 -0.278440 0.067318 -0.094656 0.084272
CP014522.1 0.111024 0.080435 0.173765 0.095942 0.003568 -0.081098 0.172126 0.207292 -0.145684 -0.202654 -0.001277 -0.036434 0.143756 0.112832 -0.066414 -0.003797 0.230697 -0.060441 -0.140853 -0.138867 -0.052212 0.039334 0.126640 0.003509 0.134274 -0.218886 0.127481 0.132203 -0.021396 0.166886 0.141674 0.051324 -0.178601 -0.036734 0.090014 -0.140577 -0.065367 0.051906 -0.097368 0.042220 0.086881 -0.099709 0.307674 0.191225 -0.199673 -0.089510 0.138313 0.015896 -0.059701 -0.091109 0.100750 0.094868 0.007967 0.115378 -0.171701 -0.102667 0.025747 -0.087602 -0.051009 0.109417 -0.053236 -0.090719 0.035840 -0.013275 0.035276 -0.080276 -0.129639 -0.013452 -0.050696 -0.027510 -0.049764 -0.093941 -0.011510 -0.057799 0.065142 -0.176022 0.106381 0.014873 -0.129289 -0.033219 0.055427 0.198110 0.068462 0.109394 -0.061655 -0.021309 0.123426 0.132777 -0.080117 0.071765 0.062388 -0.096985 -0.126834 -0.170724 -0.030804 -0.292502 -0.010169 0.118367 0.053486 0.003416 -0.137012 0.040958 -0.109650 -0.045421 -0.124788 0.051039 -0.064447 -0.092258 -0.063232 0.061594 0.008407 -0.142916 0.134271 -0.049615 0.041697 0.142152 -0.194514 0.043858 -0.028881 0.033276 -0.007858 -0.094885 0.040814 -0.062503 -0.111464 0.047190 -0.184895 0.154593
CP010315.1 0.070693 0.108744 0.217394 0.056776 0.027157 -0.012913 0.088921 0.071704 -0.170199 -0.275124 0.061206 -0.056014 0.106151 0.154439 0.013560 0.081877 0.158331 -0.066985 -0.090422 -0.120493 -0.008491 0.099839 0.063552 0.007213 0.047344 -0.134725 0.006385 -0.050278 -0.028479 0.150574 0.136138 0.007707 -0.103099 -0.075501 0.054862 -0.042017 0.003043 -0.078740 0.117191 0.064007 0.007395 -0.140553 0.193487 0.180686 -0.161562 -0.097000 0.094440 0.000606 -0.035284 -0.059440 0.232072 0.067539 0.017755 0.071842 -0.106344 -0.073479 -0.123764 -0.049128 0.066678 0.133017 0.020729 -0.057163 0.084277 0.051303 -0.101929 0.029513 -0.160276 -0.037115 0.021143 0.017372 0.026365 -0.118641 0.007865 -0.037245 0.010940 -0.060291 0.124091 0.115278 -0.121416 0.022111 -0.016405 0.087823 -0.023090 0.181101 -0.022406 -0.033680 0.147260 -0.033059 -0.112526 0.068689 0.001627 -0.093335 0.037633 -0.100101 0.041224 -0.290143 -0.022546 0.042482 0.040503 -0.006685 -0.096754 0.109718 -0.086900 0.002092 -0.078004 0.110408 0.027122 -0.108559 0.061764 -0.063150 0.079691 0.033813 0.191539 0.030066 0.003053 0.076041 -0.094076 0.044589 0.105093 -0.183566 -0.122573 -0.014350 -0.027499 -0.001939 -0.233019 0.085180 -0.111383 0.084657
CP015138.1 -0.017076 0.106468 0.193695 0.128917 0.031125 -0.020182 0.191379 0.154447 -0.184047 -0.255615 0.060951 -0.026964 0.122808 0.160004 -0.026325 0.057719 0.257823 -0.085557 -0.156554 -0.113668 -0.054218 0.094142 0.071264 0.018080 0.045234 -0.239347 0.123539 0.056676 -0.149390 0.150103 0.068688 0.005937 -0.191142 -0.070588 0.080760 -0.134172 -0.019388 -0.003009 0.026168 0.073686 0.022087 -0.120525 0.301561 0.140371 -0.109313 -0.010496 0.029541 0.095595 -0.017111 -0.052024 0.137767 0.050480 -0.011565 0.083445 -0.146453 -0.038187 -0.051803 -0.020199 -0.016035 0.135846 0.002835 -0.125215 0.071378 0.046959 -0.023288 -0.049096 -0.049706 -0.013038 0.037037 -0.043211 -0.048092 -0.077617 -0.007564 -0.054360 -0.036633 -0.158085 0.071388 -0.022111 -0.088962 -0.027803 -0.000899 0.098780 0.024563 0.061074 -0.071412 -0.076625 0.129802 0.011082 -0.062034 0.032580 0.069781 -0.104474 -0.045586 -0.134031 0.001361 -0.299792 0.043392 0.047866 0.077057 -0.023376 -0.120292 0.030865 -0.172423 -0.055112 -0.097850 0.088929 -0.028367 -0.059989 0.026291 0.009773 0.047941 -0.066355 0.178421 0.043061 0.041247 0.040011 -0.192124 0.055943 0.048990 -0.011827 0.006869 -0.050932 -0.016767 -0.005862 -0.095616 0.037722 -0.236185 0.135070
CP013029.1 0.104495 0.178498 0.149096 0.016520 -0.020961 -0.050024 0.019188 -0.075721 -0.133399 -0.166748 0.062142 -0.108366 0.063474 0.138407 -0.089486 0.031851 0.126297 0.070128 -0.029358 -0.122920 -0.031175 0.072537 0.000768 0.170832 0.133091 -0.188599 0.018886 0.073355 0.057619 0.224078 0.342471 -0.050801 -0.013340 0.004918 0.113564 -0.005555 -0.048395 -0.042987 0.023999 -0.138318 0.142025 0.003792 0.057193 0.171091 -0.376968 -0.136492 0.321548 -0.058846 0.113901 -0.037799 0.114275 0.098185 0.117186 0.248071 -0.086112 -0.156088 -0.163845 -0.031379 0.099594 0.106069 -0.068350 -0.056938 0.244812 0.021469 0.076695 -0.042449 -0.143378 -0.038567 -0.121448 -0.028576 0.128913 -0.287514 -0.084730 -0.058634 -0.058289 -0.010546 0.187751 0.188940 -0.131998 0.070269 0.108917 0.224431 0.109476 0.170408 0.045310 -0.042688 0.215242 -0.014087 -0.246706 -0.025432 0.042328 -0.110251 -0.054931 -0.163800 0.111411 -0.263647 -0.035082 0.240315 0.014908 -0.044412 0.011621 0.150117 -0.027493 0.007280 -0.151287 0.009863 0.087727 -0.177435 -0.019895 0.106367 0.071532 -0.102386 0.102953 -0.035628 -0.041354 0.139220 -0.055145 0.074506 0.068735 -0.130897 -0.081074 -0.108959 0.017669 -0.147698 -0.257143 0.204455 0.075832 -0.000280
CP013253.1 -0.088552 0.257926 0.103290 0.142478 -0.001307 -0.014759 0.391243 0.143960 -0.219981 -0.335123 0.037891 0.032714 0.224820 0.152608 0.040317 -0.149407 0.241581 -0.168462 -0.241329 -0.074516 -0.119987 0.137612 -0.023714 0.175041 0.059413 -0.258824 0.236844 0.124443 -0.232272 0.032684 -0.010769 -0.027383 -0.244158 0.158859 0.129140 -0.121012 -0.014742 -0.060138 -0.059988 0.154592 0.078412 -0.096309 0.467431 0.137841 -0.233947 0.089912 0.044287 0.115110 0.069718 -0.140366 -0.094748 0.123236 0.062934 -0.131258 -0.021696 -0.192977 0.110457 -0.037593 -0.084778 0.169350 0.044840 -0.127406 0.062849 0.030079 0.367246 -0.143261 -0.072660 0.021409 0.122586 0.104231 0.032530 -0.073495 -0.034993 -0.113498 -0.017777 -0.206794 -0.177326 0.137783 -0.004536 -0.189580 -0.191269 0.142013 0.133309 0.042033 0.042177 0.101999 0.158776 0.070732 0.096246 -0.012253 -0.000663 -0.104107 -0.213407 -0.074137 0.105570 -0.339342 0.165090 -0.139177 -0.010369 -0.081073 -0.136724 -0.105488 -0.334020 -0.148350 -0.304655 0.051657 -0.086804 -0.070519 0.089910 0.041527 0.091891 -0.234987 0.234171 0.007649 -0.015053 0.106125 -0.245730 0.177257 0.041279 -0.029094 0.064177 -0.053893 0.030058 -0.176295 -0.069250 0.035497 -0.142917 0.286020
NC_007806 0.537584 -0.060872 0.450243 0.012471 0.311466 -0.154560 0.204501 -0.004661 -0.166159 0.062266 -0.087803 0.336689 0.203139 0.038974 -0.199965 0.256480 0.224774 -0.148754 -0.032238 -0.025408 -0.192021 0.243660 0.168618 0.212031 0.055088 -0.194921 -0.086526 -0.405470 -0.035465 -0.029042 0.099071 0.000655 -0.007921 -0.196541 0.153528 0.046634 -0.297156 -0.153172 0.106861 0.300792 0.158615 -0.368471 0.442771 0.148033 -0.320982 0.002662 -0.097159 0.131352 -0.026625 -0.145740 0.385352 0.116503 0.082418 0.143286 -0.092565 -0.198654 0.207568 -0.255928 0.190100 0.426272 -0.353948 -0.318761 0.477749 0.030349 -0.244742 0.055848 -0.115752 0.097147 0.001554 0.395979 0.373919 -0.093794 -0.134647 -0.326871 0.339364 0.039170 0.507516 -0.030586 -0.471540 -0.035063 0.016285 0.304092 0.194732 0.533335 -0.010187 -0.015306 0.096025 0.324701 -0.075829 0.250035 -0.181179 -0.052847 -0.019353 -0.404925 -0.093547 -0.319773 -0.226297 -0.391514 0.343612 0.250150 -0.458899 0.240393 0.056798 0.124881 -0.122757 -0.034195 -0.109355 -0.443730 0.265276 -0.255637 0.243718 0.072348 0.181787 -0.047592 -0.064570 0.317644 0.004559 -0.010692 -0.142840 -0.180084 -0.129221 0.125120 0.279025 0.405326 -0.242538 0.103427 -0.064971 0.255955
CP007393.1 0.096786 0.027019 0.197706 -0.006657 0.006732 -0.016319 0.098088 0.132471 -0.114463 -0.239751 -0.014139 -0.053588 0.020512 0.127817 0.019559 0.097571 0.196331 -0.038265 -0.143933 -0.224753 -0.024171 0.048834 0.127889 -0.003208 0.072566 -0.136263 0.076010 -0.026788 0.012982 0.205407 0.130389 0.048765 -0.079104 -0.003030 0.135143 -0.110854 -0.022361 -0.021372 -0.010880 0.057138 -0.005647 -0.112694 0.253328 0.155847 -0.137193 -0.148714 0.067426 -0.027791 -0.089944 -0.090483 0.211040 0.050735 0.013253 0.057504 -0.165688 -0.105532 -0.022215 -0.119778 -0.007349 0.106482 -0.010833 -0.051478 0.088015 -0.008176 -0.051625 0.059126 -0.230449 -0.035257 -0.011430 0.017794 -0.050525 -0.114335 -0.003070 -0.089324 -0.003837 -0.095323 0.098513 0.099578 -0.193756 -0.073683 0.027796 0.011134 -0.028225 0.164800 -0.096103 0.025070 0.139655 0.049998 -0.084676 0.067922 0.008015 -0.142777 -0.064844 -0.115267 0.066091 -0.269882 0.000595 0.078200 0.059374 0.032839 -0.138008 0.114155 -0.120276 -0.036631 -0.143966 0.032065 0.050565 -0.040442 -0.023316 -0.048360 0.084479 -0.037605 0.190254 -0.015245 0.049186 0.136474 -0.102528 0.043853 0.103019 -0.070451 -0.166281 0.062214 0.030914 0.049536 -0.204635 0.088615 -0.119722 0.161010
NC_004902 -0.177346 0.389171 0.388569 0.217785 0.239783 0.110730 0.383819 -0.230858 -0.327073 -0.233226 0.264605 -0.076045 0.413136 0.198277 0.038208 -0.025198 0.094381 -0.270209 -0.160136 0.351980 0.013203 0.058415 0.022956 0.001818 -0.059262 -0.349239 0.143288 -0.269335 -0.428751 0.166641 -0.106181 -0.314925 -0.451947 -0.064150 -0.060208 -0.062727 0.065917 -0.560732 0.287718 0.080932 -0.142584 -0.282809 0.357795 0.150582 -0.101414 -0.056724 -0.008877 0.200095 0.182018 0.158853 0.018108 0.012154 -0.010593 0.004364 0.144485 0.088322 -0.227128 0.136645 0.224623 0.376961 0.231270 -0.213909 0.210554 0.095298 0.031653 0.050845 0.023091 -0.021092 0.319075 -0.092972 0.093588 -0.468780 -0.158013 0.048373 -0.126921 -0.119938 -0.035436 0.220349 0.025265 0.089116 -0.256717 0.086248 -0.091643 0.164426 -0.192757 -0.174023 0.258053 -0.248797 -0.124773 -0.155592 -0.106058 -0.203046 0.162604 -0.259945 -0.084617 -0.430802 0.109065 -0.210051 -0.028184 0.034053 -0.065112 0.083991 -0.418430 -0.078105 -0.163791 0.234857 0.240633 -0.127114 0.077642 -0.010474 -0.127728 0.125656 0.325200 -0.013264 0.123216 -0.114366 -0.175634 -0.220944 0.162492 -0.354831 -0.131687 -0.175647 -0.271316 -0.145667 -0.361423 0.062069 -0.286227 0.081050
NC_006936 0.153110 0.558355 -0.067229 -0.085057 -0.107521 -0.111732 0.227905 0.114877 -0.432688 -0.492413 0.523902 -0.216763 0.120224 0.098398 -0.122655 -0.079706 0.014718 0.028962 0.052542 -0.069881 0.143057 0.186240 -0.079110 -0.102190 -0.080687 -0.565291 -0.191232 0.235754 -0.122127 0.014132 0.049289 -0.107699 -0.076473 -0.235292 0.167883 -0.103985 0.042025 0.236558 0.452908 -0.052803 0.234526 -0.236271 0.112159 0.298994 -0.347159 0.028314 0.327531 0.183790 0.227758 -0.098209 -0.083348 0.325340 -0.061368 0.511845 -0.028549 -0.125815 -0.323162 -0.019858 0.186217 0.165319 0.049466 0.215840 -0.020319 -0.028687 0.003877 0.020068 -0.074081 -0.148510 -0.105977 -0.091562 0.065853 -0.121698 0.055896 0.002761 -0.240320 -0.047999 0.424407 0.218300 -0.047466 0.405240 -0.061197 0.356396 0.014732 0.277925 0.041970 -0.166101 0.233276 -0.294201 -0.167749 0.115020 0.015156 0.014707 -0.042256 -0.265000 0.162194 -0.228555 -0.031564 0.177260 -0.211275 -0.195305 -0.251903 0.184727 -0.058362 0.031470 0.052440 0.101099 -0.140392 -0.359003 0.120110 -0.017940 0.028496 0.011456 -0.055997 0.064379 0.083844 -0.025984 -0.164452 0.439618 -0.257024 -0.194773 -0.047061 -0.338257 0.022118 -0.153445 -0.421551 0.193547 0.049695 -0.219702
NC_009543 0.119690 0.575321 0.290870 0.160356 0.108600 -0.049930 -0.099204 -0.052535 -0.283362 -0.375713 0.393128 -0.081237 -0.151036 0.151531 -0.139072 -0.021441 0.211189 -0.026095 -0.174616 -0.190555 0.047061 0.330235 -0.055009 0.620668 -0.130003 -0.425476 0.148373 0.138495 -0.059407 0.062361 0.400260 0.031667 -0.042145 -0.046521 0.124295 -0.003997 0.128220 -0.121626 0.390890 0.034278 0.087347 0.030269 0.006952 0.334106 -0.350723 -0.084358 0.072644 -0.074038 0.019542 0.069838 0.134089 -0.065545 0.156852 0.218156 -0.148647 -0.076128 -0.279276 0.141502 0.260238 0.131938 0.059044 -0.029859 0.058771 0.183577 -0.201140 0.191188 -0.238497 0.208487 0.067217 -0.063637 0.005012 -0.108447 -0.037116 -0.116127 0.038176 0.139510 0.212459 0.326850 -0.171292 0.391045 -0.177209 0.410395 0.413847 0.303902 0.011569 0.011059 0.374328 -0.217016 0.148235 0.043296 -0.052846 -0.062351 0.267290 -0.148070 0.028639 -0.209664 -0.098613 0.334892 0.103751 -0.202474 -0.011683 0.262078 -0.048053 0.046485 -0.298247 0.141808 0.004279 -0.151582 0.495317 0.057792 0.425647 -0.008128 0.196163 0.020997 0.120975 -0.290303 -0.044433 0.143696 0.272808 -0.212779 -0.072807 -0.196937 0.186518 -0.197600 -0.038022 0.470085 0.030562 0.015634
CP011113.1 -0.086126 -0.236228 -0.005282 -0.340133 -0.028169 0.135146 0.009563 0.089350 0.053416 0.101702 0.087408 -0.024482 -0.239812 -0.008587 -0.056950 0.120800 0.237204 0.100966 -0.260297 -0.213215 0.000967 0.015229 0.179465 0.234694 -0.061110 -0.366366 0.144927 -0.016954 -0.240474 0.246305 0.022582 0.032481 -0.154134 0.126567 0.301938 -0.048538 0.035136 -0.060911 0.145643 0.029322 0.025013 -0.141480 0.347523 0.175715 -0.003280 -0.244929 0.069872 0.026656 0.008130 0.138268 0.152251 0.120035 -0.290582 0.334861 -0.069212 -0.351493 -0.273295 0.034763 0.170457 0.318330 0.067817 -0.091786 0.282142 0.191746 0.027252 0.171409 -0.181623 0.043594 0.233689 -0.103677 0.099919 -0.358321 0.186112 -0.045986 0.140697 -0.150356 0.076868 0.071212 -0.416116 -0.144288 -0.022619 -0.018299 0.102266 0.135997 -0.195878 -0.157808 0.197199 -0.035233 -0.194437 -0.099069 0.176320 -0.180279 -0.044527 0.067402 0.349707 -0.108719 0.024136 0.004191 -0.018466 -0.263017 -0.163116 0.123284 -0.189380 -0.378713 -0.267702 0.089772 0.144138 -0.046296 -0.069547 0.307063 0.194972 -0.247692 0.144671 0.021803 0.091519 0.148510 -0.228716 0.269919 0.207869 -0.028306 -0.124451 -0.013932 0.071921 0.092663 -0.348776 0.035275 -0.301882 0.316967
CP016628.1 0.146125 0.031698 0.150697 0.110140 -0.021634 -0.151349 -0.024226 0.166979 -0.108707 -0.244443 0.065410 0.059022 0.101730 0.142243 -0.054636 0.159668 0.331132 0.014384 -0.237450 -0.136445 -0.091480 0.242328 0.094280 0.216265 0.093844 -0.171967 0.069704 0.161422 -0.203752 0.211631 0.385462 -0.066980 -0.261677 -0.077275 0.101928 -0.126142 -0.061185 -0.102114 0.138862 0.024408 0.106237 -0.098269 0.354532 0.134926 -0.092500 0.026024 0.111739 0.104531 -0.068953 -0.034245 0.113345 0.081942 -0.025605 0.154270 -0.286474 -0.096895 -0.187372 -0.021899 0.113456 0.226864 0.115596 -0.234056 0.052522 0.100651 -0.136822 -0.060896 -0.085475 0.049972 -0.013098 -0.036334 0.027754 0.037057 -0.004174 -0.021513 0.013736 -0.141915 0.052875 0.005257 -0.083650 0.087009 0.058267 0.166336 0.181609 0.114447 0.007184 -0.064546 0.195389 0.197084 -0.039014 0.065742 0.085302 0.075377 0.046747 -0.062019 0.029240 -0.295449 0.006291 0.124289 0.077147 -0.016735 0.127462 0.020380 -0.088866 -0.017321 -0.109308 -0.021956 -0.058562 -0.051599 0.088902 0.108791 0.084380 -0.008882 0.232845 0.165406 0.039625 -0.075268 -0.079233 0.073810 0.190477 0.047698 0.013970 -0.025435 0.188076 0.014526 -0.020600 0.152395 -0.073056 0.228311
NC_004112 0.249112 0.404173 0.287195 0.124035 0.097705 0.104415 0.288711 0.066468 -0.209426 -0.229972 0.133584 -0.044294 0.106559 0.101243 0.097941 -0.233257 0.139739 -0.307455 -0.471257 -0.377486 -0.010013 0.181744 0.055004 0.039233 0.123810 -0.260524 0.245015 -0.080652 0.158465 0.151807 -0.098192 0.153328 -0.119341 0.131018 0.277409 -0.350707 -0.105575 0.045911 0.083674 0.060186 -0.105818 0.042510 0.260075 0.152938 -0.387601 -0.219117 -0.234254 0.014951 -0.069707 -0.399158 0.128215 0.086026 0.299123 -0.073365 -0.163763 -0.195037 0.238030 -0.079294 -0.154952 0.207438 -0.102654 -0.142417 0.150750 -0.262060 0.196143 -0.039338 -0.377974 0.142517 -0.025139 0.046132 -0.143021 -0.037657 -0.081734 -0.123421 -0.185158 -0.107508 -0.077038 0.114834 -0.267728 0.034533 -0.150835 0.204579 0.228188 0.174534 -0.099993 0.249164 0.084109 0.100386 0.247485 0.188951 -0.200997 -0.201276 -0.305945 -0.249161 -0.023783 -0.283707 0.026662 -0.025478 0.238574 0.003990 -0.315230 -0.045024 -0.220367 0.001579 -0.409876 -0.088369 0.044343 -0.045724 0.091345 -0.152028 0.023908 -0.279959 0.272669 -0.205303 0.154993 0.055420 -0.095197 0.109241 -0.093524 0.042038 0.025644 -0.071554 0.050051 -0.172437 0.161378 0.370716 -0.046608 0.232772
CP014495.1 0.116518 0.168593 0.209462 0.009286 0.019966 -0.026721 0.119665 0.084249 -0.198940 -0.219749 0.098765 -0.062357 0.078455 0.091595 -0.038828 0.036001 0.113585 -0.014445 -0.034094 -0.106776 -0.014254 0.074267 0.063869 0.006464 0.061176 -0.191033 0.017572 -0.021565 -0.020377 0.145225 0.116160 0.007099 -0.049766 -0.055172 0.082554 -0.027165 -0.036124 -0.030468 0.074550 0.011308 0.078686 -0.117920 0.204486 0.227217 -0.219049 -0.099767 0.165889 -0.013665 0.019359 -0.082161 0.162259 0.094085 -0.012187 0.141568 -0.068173 -0.114543 -0.081515 -0.051809 0.045419 0.125601 -0.040623 -0.005711 0.112554 0.031417 -0.023911 0.023739 -0.153789 -0.025618 -0.004895 -0.008695 0.057648 -0.164916 -0.003791 -0.073721 0.031562 -0.048363 0.168418 0.129460 -0.159149 0.037575 -0.029640 0.143279 0.011017 0.196370 -0.038818 -0.051171 0.135056 -0.037856 -0.101575 0.046115 0.035997 -0.093641 -0.042495 -0.119089 0.060109 -0.236619 -0.063957 0.073813 -0.002992 -0.027937 -0.129237 0.134399 -0.037102 0.006531 -0.092630 0.084823 0.005300 -0.171327 0.049261 0.002199 0.047048 -0.029585 0.114413 -0.034748 0.016945 0.125646 -0.106423 0.097865 0.046401 -0.132365 -0.118924 -0.061372 0.017214 -0.008633 -0.267576 0.100857 -0.067250 0.053154
CP016404.1 0.053195 0.055062 0.138215 0.077882 -0.054167 -0.114025 0.147443 0.237508 -0.150304 -0.252390 -0.025156 0.030093 0.051957 0.139576 -0.051948 0.064483 0.295389 -0.042765 -0.178842 -0.172733 -0.126680 0.091376 0.077284 0.081514 0.060373 -0.238101 0.108055 0.201574 -0.153863 0.092445 0.083997 0.028750 -0.168447 -0.121508 0.140432 -0.112059 -0.012047 0.052820 -0.009924 0.103096 0.100283 -0.128089 0.341659 0.166715 -0.129519 0.037148 0.097190 0.092750 -0.011269 -0.089311 0.090211 0.118697 -0.025085 0.123021 -0.168894 -0.057733 -0.078975 -0.048243 -0.014621 0.156382 -0.027044 -0.131476 0.002429 0.067492 -0.017972 -0.020256 -0.076017 -0.015711 0.057774 -0.028567 0.020125 -0.032599 0.032432 -0.039462 0.002297 -0.221009 0.079176 -0.006494 -0.067048 -0.009316 0.010482 0.122888 0.068134 0.096694 -0.024351 -0.037237 0.158186 0.014328 -0.036003 0.057829 0.122667 -0.005502 -0.069940 -0.055941 0.050202 -0.304094 0.010648 0.112379 0.036204 -0.001295 -0.103540 0.067995 -0.155937 -0.092019 -0.124677 0.047951 -0.085069 -0.074597 0.023420 0.040751 0.092819 -0.073265 0.146995 0.118879 0.007686 0.094479 -0.222940 0.128878 0.046794 0.065386 0.041073 -0.046154 0.115595 -0.028940 -0.063717 0.037119 -0.275739 0.224801
CP013112.1 0.083024 0.267291 0.205839 0.127880 0.113732 0.021452 0.193653 0.193890 -0.208920 -0.254196 0.150029 -0.138679 0.061419 0.090322 -0.030775 -0.046421 0.094051 -0.105621 -0.126181 -0.233815 0.077292 0.132525 0.055494 -0.049810 0.122508 -0.287221 0.123406 0.017987 0.134531 0.226149 0.091998 0.147087 -0.118796 0.032597 0.057097 -0.208827 -0.050445 0.152105 0.026973 -0.030475 0.033355 -0.066027 0.101835 0.140796 -0.302709 -0.210640 0.042221 0.039949 -0.061166 -0.078853 0.140003 0.041223 0.103387 0.127148 -0.126723 -0.097589 0.035374 0.014711 -0.061379 0.094511 -0.057001 -0.003378 0.094455 -0.094431 0.003402 -0.035114 -0.136152 0.006107 -0.164653 -0.107036 -0.191449 -0.098212 -0.010931 -0.082777 -0.074052 -0.112431 0.104381 0.105437 -0.170223 0.094746 -0.011675 0.243650 0.050978 0.087088 -0.001765 0.012652 0.061757 0.019778 -0.025205 0.101709 -0.071181 -0.177406 -0.109203 -0.229849 -0.044415 -0.324348 -0.017064 0.179092 0.124247 -0.054738 -0.241103 0.053834 -0.124444 0.039574 -0.234259 0.124396 -0.003294 -0.146222 -0.009695 -0.049837 0.047594 -0.098141 0.113561 -0.098108 0.060396 0.060030 -0.140299 0.088880 -0.046697 -0.015823 -0.065903 -0.104149 -0.039525 -0.069980 -0.148789 0.143917 -0.028539 -0.021752
CP016182.1 -0.054215 0.292290 0.338896 0.125098 0.226689 0.055869 0.306577 -0.145453 -0.273241 -0.229225 0.185635 -0.050868 0.325790 0.153469 0.008062 0.024547 0.048982 -0.217585 -0.095911 0.238327 -0.004592 0.078609 0.054479 -0.002401 -0.033619 -0.254828 0.074574 -0.263450 -0.288285 0.134744 -0.045026 -0.205800 -0.335070 -0.022993 -0.040747 -0.013611 0.007541 -0.445971 0.230555 0.093180 -0.092305 -0.229644 0.293784 0.155187 -0.116729 -0.072528 -0.020684 0.116681 0.068258 0.108773 0.071871 0.006338 -0.018233 -0.007853 0.087852 0.025662 -0.161634 0.065759 0.181296 0.323857 0.142878 -0.171069 0.187557 0.066256 -0.035633 0.061152 -0.041775 -0.013599 0.209659 0.005400 0.097305 -0.345606 -0.111991 0.000695 -0.016262 -0.061248 0.014741 0.197789 -0.038520 0.036210 -0.225092 0.084707 -0.092024 0.192160 -0.144164 -0.095689 0.197775 -0.113233 -0.082185 -0.081838 -0.093669 -0.144867 0.126996 -0.195227 -0.084875 -0.323150 0.043594 -0.194467 -0.007223 0.036505 -0.091760 0.083510 -0.276637 -0.019380 -0.178233 0.202237 0.156554 -0.139275 0.119604 -0.045548 -0.063357 0.121244 0.273173 -0.036796 0.084170 -0.059330 -0.107363 -0.151270 0.135912 -0.317418 -0.179986 -0.096486 -0.159673 -0.067648 -0.349272 0.069329 -0.165550 0.069266
CP015074.2 0.160201 0.146963 0.154635 0.123708 0.060412 0.058988 0.023805 0.094289 -0.184823 -0.080163 0.131760 -0.065553 0.306293 0.060181 -0.042097 -0.095157 0.044393 -0.072565 -0.090586 -0.034655 0.084512 0.033489 0.188796 0.036242 0.234589 -0.129297 0.091589 -0.007418 0.083077 0.263135 0.207014 0.051806 -0.229924 -0.014913 -0.027430 0.011533 -0.006479 -0.146428 -0.003321 0.036933 0.085176 -0.152050 0.189936 0.339231 -0.131743 -0.282291 0.268871 -0.183829 -0.081181 -0.052196 0.176713 0.129917 -0.040806 0.042085 0.020074 -0.160587 -0.131632 -0.049985 0.075125 0.071445 0.113033 -0.016626 -0.035855 0.070169 -0.051052 -0.133340 -0.256607 0.067718 -0.007481 -0.042911 0.094086 -0.139958 -0.005630 0.048068 0.309442 -0.104311 0.037599 0.171335 -0.047203 0.046371 0.075724 0.301123 0.139970 0.197913 0.058392 -0.026499 0.146847 0.083401 -0.033986 0.057641 0.058087 -0.130362 0.074669 -0.089140 -0.102309 -0.247195 -0.172589 0.085523 -0.039370 -0.106779 -0.056054 0.082710 -0.006256 -0.033877 -0.073690 0.126626 -0.067654 -0.153959 0.008966 0.175087 -0.095900 -0.160387 0.210183 -0.163556 -0.035447 0.142652 -0.152505 -0.075048 0.114508 -0.169543 -0.009888 -0.276337 -0.144614 -0.168293 -0.177978 0.091093 -0.097405 0.192920
CP014497.1 0.113068 0.159232 0.211920 0.048088 0.035619 -0.019183 0.094856 0.145751 -0.175645 -0.219539 0.077105 -0.027627 0.085420 0.103927 -0.026943 0.054556 0.171782 -0.047293 -0.104370 -0.149579 -0.046144 0.075348 0.092250 0.053636 0.099425 -0.194082 0.062516 0.033459 -0.048781 0.170913 0.135451 0.019893 -0.116534 -0.062134 0.109999 -0.067523 -0.018619 -0.036785 0.033130 0.034494 0.072646 -0.139734 0.243833 0.201718 -0.159469 -0.106884 0.131173 0.024654 -0.039502 -0.087520 0.155989 0.098134 -0.002825 0.110873 -0.105371 -0.101231 -0.080709 -0.045255 0.026421 0.111959 -0.004999 -0.052483 0.045861 0.040040 -0.058108 0.003697 -0.174742 0.001280 0.004480 -0.034579 0.022329 -0.107480 -0.014452 -0.050141 0.040295 -0.108371 0.097408 0.097340 -0.101056 0.014731 0.018232 0.137380 0.014998 0.150318 -0.036232 -0.038255 0.152323 -0.001332 -0.066942 0.041789 0.062764 -0.108631 -0.011214 -0.116837 0.036310 -0.286027 -0.055471 0.083078 0.017346 0.000894 -0.091971 0.114151 -0.097736 -0.042634 -0.117266 0.080975 -0.011811 -0.116864 0.021151 0.018646 0.047206 -0.037683 0.173839 -0.006435 -0.004846 0.104189 -0.133266 0.059392 0.076394 -0.062408 -0.089121 -0.041042 -0.008224 -0.010832 -0.165260 0.086194 -0.116097 0.139458
CP016546.1 0.118173 0.211084 0.212163 0.007152 0.066262 -0.059093 0.119164 0.089062 -0.167756 -0.209609 0.077984 -0.056368 0.057971 0.079032 -0.092178 0.045775 0.131185 -0.035391 -0.069134 -0.089718 -0.045527 0.034064 0.073406 0.114067 0.054371 -0.263132 0.056632 0.027658 -0.069527 0.135010 0.131457 -0.032940 -0.118543 -0.027753 0.133008 -0.070707 -0.020763 -0.041143 0.030187 0.031567 0.092563 -0.129665 0.223775 0.182156 -0.200727 -0.099932 0.116138 0.028160 -0.003203 -0.014121 0.073003 0.065744 0.000911 0.175391 -0.082493 -0.073384 -0.056146 -0.038235 0.067302 0.118045 -0.028682 -0.041153 0.061510 0.012771 -0.021503 0.060251 -0.156954 -0.026107 -0.008553 -0.030180 0.010046 -0.177734 -0.030802 -0.057959 0.031908 -0.052694 0.154765 0.115854 -0.125047 0.043591 -0.008464 0.170476 0.007421 0.176858 -0.088880 -0.036358 0.177980 0.004078 -0.085372 0.010591 0.029533 -0.115420 -0.015336 -0.182136 0.007279 -0.218137 -0.016418 0.087581 -0.002723 0.032305 -0.131118 0.145149 -0.124050 -0.023207 -0.148504 0.071597 0.007782 -0.133720 0.030751 0.020835 0.069338 -0.036133 0.122356 -0.060529 0.049033 0.086100 -0.116589 0.039490 0.015568 -0.068442 -0.142512 -0.062279 0.026303 -0.021927 -0.231583 0.097453 -0.092786 0.072249
