151 128
NC_019422 0.030689 0.138205 0.040754 0.042657 0.002102 -0.068326 -0.002754 -0.041895 -0.142353 -0.084550 0.021313 -0.092142 0.005219 0.094485 -0.125581 -0.006260 -0.030707 -0.005613 0.051437 -0.114620 -0.005288 0.112369 -0.019979 -0.028693 0.066873 -0.100187 0.004306 0.005381 0.029824 0.233379 0.146452 -0.130020 -0.027864 -0.053458 -0.096717 -0.012718 -0.101744 -0.076038 0.073805 0.025596 0.077706 -0.054004 0.268265 0.205371 -0.108388 0.013027 0.310437 0.026746 0.082016 -0.094689 -0.010739 -0.000467 0.144468 0.107691 -0.036448 0.073685 -0.111696 -0.115280 0.083347 -0.155587 0.044328 0.007325 0.076286 0.047194 0.132269 -0.105954 -0.160406 0.005090 -0.038961 -0.072738 0.095411 -0.272437 -0.076810 0.050696 -0.107279 -0.022620 0.088667 0.144944 0.000578 0.037729 0.064926 0.149553 0.124581 0.143156 -0.060413 -0.038289 0.179277 0.001200 -0.076486 -0.053415 0.103089 0.052884 -0.010553 -0.228108 0.139509 -0.319881 0.103752 0.161498 -0.089978 0.118028 0.087262 -0.019811 -0.074812 0.000690 0.034851 0.003107 -0.053368 -0.048322 0.052828 0.007104 0.008049 0.018845 0.142901 -0.234651 0.088067 0.102920 -0.081895 -0.005225 0.114847 -0.085231 -0.089106 -0.096659 -0.050929 -0.072442 -0.196239 0.206402 -0.104517 0.008759
NC_015568 0.078475 0.068299 0.079821 0.014796 0.023576 -0.056302 0.101961 -0.004287 -0.159966 -0.049008 0.027227 0.041948 0.052336 0.043687 -0.096257 0.024384 -0.016535 -0.039694 0.060538 -0.110256 -0.023717 0.130951 0.004634 -0.037227 0.045199 -0.020259 0.038983 -0.055810 -0.053771 0.110565 -0.036276 -0.130156 -0.040441 -0.083419 -0.076128 0.023622 -0.045471 -0.041410 0.053745 0.090961 0.016252 -0.191017 0.347513 0.229763 0.031363 0.070125 0.245364 0.007494 0.048424 -0.092089 -0.027974 0.035468 0.023110 0.116321 -0.019050 0.017636 -0.032833 -0.152373 0.032620 -0.007014 0.021263 0.029439 0.106164 0.104298 0.115613 -0.136197 -0.085662 0.068350 0.012508 0.007283 0.165756 -0.191632 -0.020420 0.029396 0.078991 0.002170 0.100852 0.117857 -0.082455 -0.007958 0.075887 0.111853 0.176395 0.201838 -0.020418 0.028364 0.176190 0.043968 -0.012330 -0.080282 0.089544 0.110450 -0.066215 -0.226500 0.158156 -0.278212 0.070112 0.002646 -0.085033 0.022263 0.008221 0.035176 -0.040630 -0.112409 0.150091 0.030446 -0.091797 -0.148890 0.098915 0.065693 0.031044 -0.025846 0.172414 -0.217356 0.121388 0.165758 -0.180387 0.114832 0.059329 -0.083551 -0.075206 -0.089686 -0.010576 0.000489 -0.236455 0.170375 -0.142473 0.104262
NC_015262 0.016593 0.052474 0.084126 0.031391 0.023193 -0.008957 0.001424 -0.063986 -0.204864 -0.111146 0.036786 -0.138207 0.000280 0.106936 -0.128691 -0.038728 -0.033571 -0.049987 0.056113 -0.165887 0.016170 0.084887 0.062651 -0.047119 0.091994 -0.069796 0.040927 -0.075908 0.118837 0.242179 0.081717 -0.072046 -0.031387 -0.037528 -0.089464 -0.041218 -0.066437 -0.013221 0.080940 0.016013 0.022220 -0.089506 0.246953 0.233384 -0.064076 -0.080989 0.230059 0.008866 0.029913 -0.125915 0.084519 0.018475 0.148213 0.113335 0.013312 0.066710 -0.053980 -0.110320 0.058448 -0.106046 -0.021123 0.014644 0.119926 0.069172 0.116061 -0.105800 -0.179226 -0.018062 -0.022452 -0.075743 0.064737 -0.243683 -0.050536 0.045103 -0.031696 0.019616 0.134247 0.092166 -0.081334 -0.033244 0.107992 0.158639 0.114208 0.139746 -0.032003 -0.020320 0.177733 0.016533 -0.129995 -0.009254 -0.001559 0.024852 -0.020963 -0.199514 0.055139 -0.265576 0.099908 0.165110 0.019110 0.067831 0.006473 -0.034039 -0.015271 -0.008924 0.140014 -0.007558 -0.030034 -0.074665 -0.042180 0.007079 0.033863 -0.002093 0.155692 -0.286533 0.119972 0.184243 -0.097866 -0.001742 0.042718 -0.108310 -0.054960 -0.110549 -0.115059 -0.034377 -0.222943 0.141249 -0.194742 0.011464
NC_019421 0.063793 -0.068595 0.129759 -0.138287 -0.074489 -0.034010 -0.123206 -0.081077 -0.147543 -0.227474 0.067841 -0.157434 -0.010568 0.164563 -0.102516 0.067846 0.011876 0.071277 -0.050676 -0.190502 0.042013 0.045768 -0.000030 -0.026869 -0.072561 -0.058890 -0.098454 -0.186728 -0.021540 0.233100 0.116665 -0.063980 0.081617 -0.066581 -0.014132 -0.021335 -0.051829 0.003760 0.228991 0.230759 -0.021683 -0.142256 0.377402 0.281149 -0.035485 -0.099168 0.220969 -0.081114 -0.020766 -0.083912 0.114555 0.007273 0.041340 0.107152 -0.005667 0.095764 -0.131273 -0.116591 0.107799 -0.147146 0.024978 0.110177 0.029770 0.178851 0.019509 0.024541 -0.175003 -0.152216 0.072898 0.104090 0.002065 -0.197438 0.084110 0.075596 0.048324 0.053893 0.258372 0.126262 -0.170557 0.051318 0.069407 0.006772 0.051639 0.224646 -0.034814 0.014093 0.225078 -0.008085 -0.234754 0.052423 0.042385 0.032836 -0.043140 -0.137827 0.195359 -0.231294 0.056103 0.042061 -0.030119 0.068264 -0.010444 0.089409 -0.089951 -0.062864 0.237861 0.077390 0.008005 -0.057021 0.045775 -0.128131 0.228251 0.075490 0.149128 -0.155722 0.113273 0.219885 -0.132828 0.147190 0.042628 -0.230749 -0.120571 0.019531 -0.035714 0.181893 -0.248852 0.035203 -0.225789 -0.010130
NC_011398 0.068732 0.070409 0.075781 0.118345 -0.089005 -0.049435 0.057397 -0.024730 -0.135536 -0.117092 0.015044 -0.098394 0.160851 0.185098 -0.069581 0.003796 0.031077 -0.028215 0.035392 -0.142785 -0.021048 0.231952 -0.116925 -0.233456 0.173937 -0.008899 0.005306 -0.055675 0.073110 0.305576 0.236897 -0.061503 -0.041837 0.013859 -0.172154 0.043960 -0.210605 -0.063669 0.001480 -0.060952 0.071527 -0.085946 0.182848 0.055686 -0.192110 0.010134 0.420623 -0.006707 0.119933 -0.077615 0.077078 0.071479 0.144539 0.055672 -0.093383 -0.016811 -0.093211 -0.149134 0.013344 -0.190565 0.049637 0.002893 0.210257 -0.051440 0.166610 -0.286910 -0.006624 -0.066392 -0.183060 0.013118 0.073542 -0.211059 -0.163215 -0.012477 -0.190915 -0.072250 0.080626 0.146861 0.005824 0.050380 0.087855 0.142227 0.123964 0.108184 0.103301 0.019838 0.038105 0.035366 -0.063693 -0.052757 0.140960 0.098780 -0.112174 -0.174044 0.196499 -0.362660 0.146240 0.082163 -0.093007 0.016486 0.057939 0.013846 -0.080143 -0.011139 0.062321 -0.015089 0.005587 -0.165896 0.155171 -0.043794 -0.135023 -0.044294 0.137791 -0.179378 0.013217 0.152476 -0.108589 0.050232 0.093696 -0.143931 -0.000130 -0.062467 -0.007933 -0.125838 -0.245103 0.233905 0.074316 -0.036320
NC_009231 -0.043233 0.026249 -0.016299 0.072682 -0.002573 -0.024306 0.161516 0.028221 -0.169356 -0.104891 -0.012841 0.065502 0.076703 0.102507 -0.149910 0.073231 0.004693 -0.030570 0.045300 -0.220610 -0.020830 0.107859 -0.006918 -0.019275 0.097879 0.022667 -0.008985 0.111948 -0.001037 0.156214 -0.010933 0.017675 -0.107998 -0.120098 -0.034736 0.144130 -0.062350 0.236552 0.038676 0.100733 0.087780 -0.180508 0.390835 0.194225 0.011792 -0.009956 0.188826 -0.038698 -0.013730 0.093037 0.070246 -0.021012 -0.046820 0.084579 -0.210697 -0.011516 -0.155409 -0.140023 -0.034419 0.050251 0.053651 -0.067928 0.085510 0.140719 -0.010083 -0.197126 0.092616 0.053042 -0.039351 0.105524 0.013949 -0.039704 -0.053345 0.019405 0.136814 -0.044459 0.054162 0.021926 -0.084286 -0.113116 0.208930 0.137325 0.243499 0.106211 0.036190 -0.065221 0.293915 0.122967 0.046037 -0.020728 0.189827 0.050854 -0.053589 -0.230256 0.125392 -0.385772 0.100451 0.098979 0.086832 -0.304113 -0.155649 0.001251 -0.079576 -0.141413 0.028990 0.104478 -0.408426 -0.176077 0.119881 0.105349 0.130487 -0.201742 0.252151 -0.153248 0.169778 0.108210 -0.375966 0.247657 0.038201 -0.097785 0.068418 -0.182173 -0.090369 0.033756 -0.018699 0.151543 -0.199560 0.164455
CP015020.1 -0.017042 0.078676 -0.158998 -0.072140 -0.053326 0.007536 0.017635 0.051018 -0.175708 0.092090 0.206102 -0.052215 0.089799 0.022526 -0.080764 0.027999 0.008686 0.014676 0.116805 -0.157549 -0.105433 0.034520 -0.065101 -0.309652 0.146563 -0.138013 -0.131166 0.078589 -0.118934 0.247077 0.082960 -0.162429 0.088948 -0.249399 -0.070521 0.181111 -0.190761 0.140140 0.120711 -0.092042 0.235929 -0.171453 0.287812 0.208696 -0.190998 0.059259 0.522201 0.150168 0.293386 -0.143981 -0.059108 0.241918 -0.066732 0.355564 -0.007203 -0.092769 -0.262356 -0.133163 0.175124 -0.151196 -0.055318 0.096777 -0.012998 0.074762 0.081541 -0.173088 0.087393 -0.123182 -0.055844 -0.233602 0.149167 -0.124528 -0.176127 0.069880 -0.123626 -0.016462 0.140624 0.135382 0.106236 0.166992 0.131265 0.260902 0.093331 0.108900 0.144142 -0.144757 0.096081 -0.136536 -0.063983 -0.010303 0.245094 0.144398 -0.125487 -0.353963 0.275181 -0.376577 -0.065814 0.048688 -0.154348 -0.062337 -0.016429 -0.018132 0.061921 0.013215 0.187636 0.003042 -0.173266 -0.286256 0.105417 -0.044814 -0.111406 -0.070432 0.047130 -0.078910 -0.010773 0.165198 -0.114046 0.207930 -0.047601 -0.157638 0.033373 -0.167815 -0.031922 -0.016357 -0.202194 0.184185 0.167831 -0.047055
CP017251.1 0.108881 -0.071694 0.143997 -0.096776 -0.175331 0.027880 -0.040022 -0.045557 -0.129494 -0.204670 0.193306 -0.207113 0.178962 0.193474 0.058041 0.054290 -0.075934 0.047019 0.025398 -0.267037 0.064799 0.274513 -0.043703 -0.253050 0.045358 0.149236 -0.091597 -0.269647 0.048614 0.305780 0.148903 0.029616 0.095599 0.130354 -0.154187 0.101664 -0.228583 -0.132094 0.198706 0.053780 -0.105361 -0.052031 0.187960 0.235269 -0.124676 -0.116632 0.245218 -0.180965 0.053829 -0.103356 0.254049 0.110014 0.018768 -0.074514 0.021338 -0.022854 -0.190070 -0.092844 0.006711 -0.070463 0.109807 0.111331 0.218912 0.064372 0.058594 -0.146180 -0.074822 -0.099856 -0.032782 0.178803 0.066820 -0.171758 -0.000130 -0.004543 -0.046220 0.050370 0.149375 0.267144 -0.182083 -0.065058 -0.051331 -0.030873 0.050158 0.144615 0.096344 0.069805 0.176656 0.008981 -0.159451 0.047667 0.035101 0.067375 -0.082762 0.066211 0.215217 -0.139015 0.127706 -0.075417 -0.122154 -0.120515 0.081298 0.064441 0.003942 -0.059946 0.143396 0.124076 0.038247 -0.183090 0.211318 -0.073935 -0.009746 0.028331 0.145633 -0.159509 0.046646 0.224761 -0.075098 0.260903 0.150393 -0.291741 -0.097968 0.017403 0.024642 0.009243 -0.350640 0.204988 0.026323 -0.080787
CP015229.1 -0.007854 -0.075942 0.089562 -0.112012 -0.051929 -0.017306 0.036385 0.050173 -0.047574 -0.086453 0.020208 -0.047651 0.011071 0.054193 -0.158046 -0.002509 -0.042121 0.038589 0.005020 -0.182468 -0.087550 0.050941 0.069195 0.135787 -0.003112 -0.055464 0.116497 -0.027297 -0.089784 0.192044 0.012710 -0.069704 0.112521 -0.018178 -0.023914 0.060700 -0.115649 -0.042194 0.079205 0.194949 0.014534 -0.078693 0.470669 0.417413 -0.049667 -0.099502 0.258411 -0.056828 0.008655 -0.059111 -0.009280 0.018301 -0.044042 0.075855 0.068149 0.054071 -0.082107 -0.060698 0.080820 0.016821 -0.048934 -0.003626 0.017766 0.356410 0.259268 -0.078682 -0.147863 0.071784 0.168812 0.141567 0.105807 -0.259760 0.209132 0.143333 0.330198 -0.053454 -0.004532 0.059148 -0.179166 -0.166209 0.024552 0.140915 0.192754 0.128872 0.064380 0.126186 0.250448 0.185178 -0.138108 -0.070939 0.140212 0.089342 -0.113422 -0.137652 0.208811 -0.141567 0.055788 0.011793 -0.014499 -0.092156 0.016489 -0.009735 -0.130903 -0.190804 0.135955 0.153773 -0.060620 -0.035210 -0.013002 0.174638 0.229099 -0.139260 0.211358 -0.134297 0.095624 0.338929 -0.219225 0.271491 0.048148 -0.131747 0.073713 -0.067094 0.001558 0.087864 -0.147850 -0.043933 -0.323985 0.131067
CP012625.1 0.089722 0.065246 0.025919 0.010106 -0.046261 -0.022502 -0.078167 -0.007854 -0.079319 -0.162657 0.077368 0.042102 0.079166 0.087851 -0.015031 0.073625 -0.029404 0.048216 -0.029360 -0.305421 0.044385 0.320568 -0.034776 0.006914 0.021776 0.070131 -0.099438 -0.010173 -0.001026 0.191772 0.071679 -0.035252 -0.091424 -0.069812 -0.027955 0.033288 -0.143113 0.010018 0.186335 0.109967 0.037864 -0.108326 0.292952 0.222406 -0.005413 -0.054513 0.153700 -0.122963 -0.035036 -0.063375 0.130362 0.075991 0.012349 -0.028998 -0.152826 -0.001360 -0.183224 -0.180234 -0.001040 0.039118 0.235779 -0.054125 -0.000318 0.082562 -0.032499 -0.188181 -0.182376 0.072680 -0.029843 0.173229 0.088705 -0.047102 0.010581 -0.014556 -0.004670 -0.050757 0.035273 0.221503 -0.030819 -0.043045 0.112650 -0.018981 0.221367 0.188153 0.061244 0.110033 0.320991 0.054534 0.120657 0.020452 0.063161 0.111182 0.038945 -0.071278 0.136847 -0.294971 0.093936 0.072299 -0.049945 -0.163853 0.090859 0.061820 -0.124918 -0.147657 -0.017376 0.052478 -0.290359 -0.092082 0.299833 0.041948 0.107179 -0.045567 0.361181 -0.172573 0.088660 0.050728 -0.183924 0.221683 0.193019 -0.094680 -0.030272 -0.090409 0.034642 0.000526 -0.061202 0.276056 -0.110200 0.201602
NC_009812 -0.132227 0.134215 0.184473 0.196132 0.094949 0.123851 -0.192426 -0.216733 -0.156775 -0.168722 0.094691 -0.105139 0.065415 0.182192 0.042290 -0.041623 0.041806 -0.079924 -0.152024 -0.169902 0.155133 0.095439 -0.064152 0.242945 -0.067971 -0.114412 0.069927 -0.250378 -0.279593 0.194814 -0.083325 -0.130101 0.067251 -0.295842 -0.041929 -0.160124 0.212839 -0.085245 0.276275 0.119064 -0.086230 -0.321026 0.260556 0.130333 0.121495 -0.014778 0.068637 0.210741 0.152789 -0.173137 0.206564 0.021177 0.099738 0.107182 0.161348 0.166621 -0.218252 -0.072323 0.235063 -0.293497 0.086647 -0.045803 0.141939 0.221098 -0.059040 -0.110569 -0.054504 -0.061566 0.116538 -0.064337 0.182362 -0.211156 -0.003022 0.107078 -0.251927 -0.006300 0.094792 -0.078913 0.160270 0.141358 0.230222 -0.051638 0.109857 0.131207 -0.012451 -0.006836 0.360688 -0.311593 -0.193152 -0.107106 0.022622 -0.163530 0.173138 -0.338548 0.124797 -0.314369 0.191487 0.000675 0.078444 -0.088238 0.099880 0.092017 -0.206148 -0.200261 0.437694 0.195475 0.028581 0.030674 0.272706 -0.054476 0.182229 0.081134 0.347749 -0.110194 0.031589 -0.019209 -0.225377 0.165199 0.170711 -0.248734 0.002854 -0.137982 -0.514948 0.094556 0.044541 -0.031286 -0.357925 0.041876
CP016358.1 -0.083263 0.006086 0.089083 0.160187 0.036758 0.070909 0.179488 0.153808 -0.130299 -0.132129 0.088516 -0.180332 0.115601 0.067284 -0.144292 -0.073477 0.022880 -0.091889 -0.029517 -0.040652 0.083736 0.144950 0.054451 -0.152374 0.115994 -0.119253 0.172438 0.010608 0.032629 0.302607 0.113274 0.106665 -0.126075 0.036781 -0.174581 -0.004349 -0.032758 0.242788 0.072927 -0.068221 0.050146 -0.085381 0.262941 0.064514 -0.077582 -0.186894 0.259034 0.037860 -0.001252 0.099009 0.166362 -0.053063 0.005761 0.123371 -0.119490 -0.046962 -0.113405 -0.005567 0.031519 -0.061520 0.053887 -0.032031 0.205634 0.108000 0.135886 -0.297900 0.205955 -0.091396 -0.138735 -0.103109 -0.201145 -0.136329 -0.028461 0.047287 -0.019815 -0.118918 0.043370 -0.007279 -0.136645 -0.046110 0.048487 0.252067 0.208286 -0.002500 0.083097 -0.075414 0.106809 0.153240 -0.039083 -0.034191 0.151053 0.051945 -0.130219 -0.218322 0.095038 -0.414401 0.196326 0.161428 0.160231 -0.331702 -0.157569 -0.108396 -0.057938 -0.036211 0.106385 0.234492 -0.230602 -0.155972 0.010487 0.180392 0.032602 -0.219220 0.161876 -0.165029 0.231418 0.063245 -0.343619 0.189586 -0.003341 -0.143647 0.157570 -0.200446 -0.177596 -0.045864 -0.141301 0.069820 -0.190978 0.003593
CP012693.1 0.033138 0.014773 0.129372 -0.027399 -0.031350 -0.034672 0.031135 0.020325 -0.108211 -0.108928 0.086208 -0.062235 -0.005027 0.081383 -0.136438 0.064137 -0.004284 0.063675 -0.004418 -0.189844 -0.051318 0.156252 0.025104 0.077917 0.027899 -0.093962 0.101201 -0.039265 -0.068325 0.255707 0.119255 -0.081189 0.057218 0.029856 -0.089235 0.002932 -0.131502 -0.096512 0.072106 0.073099 0.016491 -0.061620 0.330319 0.271962 -0.090078 -0.044860 0.325245 0.000591 0.086359 -0.098187 0.021479 0.015315 0.047309 0.136925 0.024498 0.035217 -0.118958 -0.086015 0.069278 -0.053690 -0.024978 0.005783 0.131591 0.203187 0.201954 -0.095859 -0.109813 0.033955 0.018116 0.027755 0.136611 -0.285038 0.056886 0.060944 0.072264 -0.042992 0.061443 0.145675 -0.122589 -0.087308 0.027240 0.086740 0.156535 0.111501 0.062495 0.071654 0.184392 0.094019 -0.152250 -0.071527 0.074903 0.036437 -0.098032 -0.175566 0.227777 -0.195082 0.131378 0.081654 -0.068692 -0.018767 0.068111 0.008808 -0.122531 -0.129020 0.078034 0.061634 0.080118 -0.069214 0.023464 0.117525 0.149583 -0.052821 0.138145 -0.113584 0.039825 0.199748 -0.112653 0.194271 0.096350 -0.103322 -0.002571 -0.031420 0.018103 -0.010284 -0.192084 0.056464 -0.141973 0.065293
NC_008376 -0.110293 0.044766 0.004467 0.266751 -0.157318 -0.015588 0.087953 -0.116266 0.083808 -0.075069 -0.151534 -0.089635 0.288631 0.183947 0.059588 -0.366194 -0.075746 -0.150214 -0.009880 0.082274 0.052013 0.181918 -0.256697 0.078213 -0.023435 0.039712 0.164549 -0.052984 -0.251054 0.128514 -0.045902 -0.204796 0.162219 -0.051957 -0.249944 0.095493 -0.016926 -0.352929 0.058710 0.183097 0.035344 -0.190047 0.419489 0.270367 -0.082913 0.139309 0.374734 -0.009584 0.257807 0.003345 -0.052616 0.049443 0.092589 -0.256673 0.210614 0.090578 -0.003517 -0.113684 0.144171 -0.334959 0.207912 -0.037333 0.157004 0.275255 0.506358 -0.372465 0.089014 0.072254 0.177389 0.254905 0.180351 -0.371394 0.101473 0.199677 -0.009592 -0.153058 -0.235028 -0.062200 0.174050 0.017898 -0.071195 0.169135 0.227571 0.092016 0.087088 0.076232 0.206562 -0.038312 0.005164 -0.185124 0.397179 0.067568 -0.013034 -0.073341 0.351963 -0.227014 0.252017 -0.293410 -0.213986 -0.108394 0.215738 -0.025157 -0.277979 -0.230189 0.291293 0.299302 -0.075752 0.037101 0.326057 0.146747 -0.161714 -0.137984 0.213293 -0.170478 0.046947 0.280649 -0.298709 0.161236 0.153869 -0.313712 0.186596 -0.124826 -0.307289 -0.159386 -0.086061 -0.026391 -0.266772 -0.006625
CP014670.1 0.079147 0.101405 0.094358 0.180358 0.074825 0.036933 0.082144 0.048841 -0.197261 -0.135997 0.085486 0.014597 0.097258 0.097417 -0.129110 -0.067040 0.163872 -0.096747 -0.148094 -0.147678 -0.050554 0.264538 -0.012342 -0.072723 0.169661 -0.135753 0.137164 0.060112 0.011664 0.286199 0.151527 0.006262 -0.165100 -0.075087 -0.096506 -0.072997 -0.070908 0.077580 0.050057 -0.101722 0.053331 -0.103555 0.182958 0.061514 -0.124177 -0.084888 0.275794 0.101344 -0.013802 -0.055495 0.152912 0.044098 0.148574 0.208166 -0.166798 -0.047554 -0.119198 -0.061170 0.009308 0.010016 0.023625 -0.141949 0.195724 0.019113 0.067213 -0.282883 0.020555 -0.002661 -0.153262 -0.168566 0.050341 -0.124958 -0.092862 0.007564 -0.108925 -0.146335 -0.008122 0.007172 -0.043317 0.042190 0.052571 0.176925 0.191260 0.121697 0.019237 0.042933 0.089725 0.062332 -0.000643 -0.083448 0.132942 0.142403 -0.089373 -0.224827 0.102264 -0.410812 0.150087 0.217887 0.112530 -0.136160 0.029022 0.010765 -0.137339 -0.108334 0.054142 0.058145 -0.043090 -0.133258 0.067164 0.143589 -0.097630 -0.107450 0.250369 -0.101043 0.120760 0.013230 -0.186899 0.068010 0.079675 -0.026022 0.131022 -0.142013 -0.069600 -0.102347 -0.104648 0.197140 -0.173459 0.138616
CP007491.1 0.186963 0.161434 0.071840 0.073604 0.106554 0.028516 -0.111557 -0.125024 -0.175308 -0.148867 0.133555 0.171650 0.105089 0.099466 -0.080151 0.039265 0.200847 -0.008989 -0.182180 -0.277029 -0.005522 0.373937 -0.032796 0.205798 0.088790 -0.013123 -0.067530 0.082059 -0.119121 0.151368 0.118562 -0.034232 -0.198320 -0.204111 0.009378 0.009154 -0.064861 0.034587 0.229435 0.035188 0.067263 -0.142515 0.235987 0.164895 -0.010987 -0.068564 0.058489 0.026381 -0.115230 -0.042849 0.212890 0.039922 0.072237 0.180079 -0.266485 -0.063506 -0.295472 -0.109663 0.064572 0.135675 0.168552 -0.236476 0.068188 0.097572 -0.215439 -0.217960 -0.101937 0.124916 -0.062606 0.015751 0.230418 -0.017778 -0.005832 -0.000002 0.028364 -0.039437 0.001024 0.048996 -0.013192 0.020214 0.157705 0.057512 0.284009 0.236049 0.003540 0.088914 0.362021 0.080114 0.094840 -0.023698 0.079145 0.156927 0.133973 -0.230288 0.087642 -0.373751 0.114145 0.143172 0.126946 -0.276362 0.149679 0.064524 -0.162122 -0.239034 -0.006307 0.091059 -0.285458 -0.076821 0.316608 0.143301 0.103724 -0.054752 0.463337 -0.080508 0.064553 -0.180520 -0.194115 0.173628 0.204086 -0.119357 0.062723 -0.199954 -0.076445 -0.052436 0.069753 0.274215 -0.177323 0.297379
CP017669.1 -0.068518 0.082797 0.154416 0.034839 0.089222 0.111152 -0.058022 -0.089122 -0.151679 -0.147657 0.127531 -0.106078 -0.029496 0.094114 -0.045858 0.035513 0.015077 -0.019503 -0.048290 -0.225280 0.065127 0.091074 0.068835 0.039883 0.016030 -0.103840 0.121043 -0.210500 -0.062511 0.295921 -0.000917 -0.098215 0.011465 -0.078833 -0.065267 -0.217070 0.047318 -0.066732 0.169956 -0.010241 -0.143826 -0.155316 0.260734 0.207778 0.056764 -0.111734 0.135898 0.120578 0.057815 -0.219661 0.110152 0.005901 0.099983 0.161845 0.039779 0.096862 -0.139451 -0.081840 0.096375 -0.156513 0.011007 0.039835 0.171770 0.125140 0.049411 -0.059596 -0.187547 0.006077 0.008637 -0.137149 0.077064 -0.274226 0.001158 0.054688 -0.190817 0.034742 0.089491 0.069635 -0.053598 -0.041213 0.116853 -0.035921 0.061638 0.092164 -0.120457 0.017251 0.223665 -0.101793 -0.229839 -0.105403 -0.065108 -0.146133 -0.021628 -0.268439 0.116111 -0.210268 0.185383 0.114561 0.028913 -0.014093 0.047852 -0.007713 -0.131531 -0.087323 0.212541 0.045105 0.153231 0.007998 0.031657 0.029321 0.109526 0.037844 0.221784 -0.196922 0.110677 0.060368 -0.095212 0.128137 0.140641 -0.129778 -0.117478 -0.052105 -0.279153 0.017009 -0.121066 0.099018 -0.229533 0.039711
CP017249.1 -0.174038 0.065868 -0.068628 -0.001659 0.045158 0.136139 -0.003690 0.087590 -0.240615 -0.040014 0.144438 -0.050370 -0.048646 0.045617 -0.024620 0.082498 -0.085020 -0.022273 0.085490 -0.285867 0.031951 -0.003776 0.011584 -0.080340 0.102148 -0.034193 -0.026398 -0.071350 -0.097348 0.227579 -0.112800 -0.041714 0.058920 -0.235281 -0.037218 0.036442 0.063619 0.211150 0.142531 0.026861 0.073788 -0.298140 0.338234 0.245317 0.073653 0.007258 0.264865 0.117221 0.174274 -0.165909 0.136143 0.108814 -0.126364 0.217071 0.028454 0.015570 -0.259152 -0.127719 0.060236 -0.165676 -0.014277 0.094562 -0.018670 0.168173 -0.067329 -0.093442 -0.015794 -0.027686 0.004220 -0.228637 0.108008 -0.059683 -0.113109 0.042711 -0.055254 0.017076 0.143003 0.082826 0.046314 0.017055 0.203607 0.057356 0.079949 0.055767 0.059916 -0.142695 0.254351 -0.283800 -0.048917 -0.049487 0.156338 -0.084695 -0.027879 -0.285628 0.156751 -0.330007 0.031833 0.108927 -0.015392 -0.177421 -0.111077 0.023522 0.029009 -0.054540 0.258730 0.074686 -0.193917 -0.244927 0.137819 0.008222 0.120452 -0.105525 0.156603 -0.145241 0.082696 0.069981 -0.259285 0.340335 0.073059 -0.104156 -0.007714 -0.160247 -0.253479 0.120199 -0.050463 0.079834 -0.125677 0.040851
NC_009815 0.089369 0.068749 -0.059947 -0.024743 -0.151317 0.088333 0.073186 0.005112 0.007813 -0.150676 0.205877 -0.085951 0.209484 0.067407 0.101974 -0.141953 -0.145369 -0.003520 -0.087225 -0.367875 -0.030971 0.403172 -0.084577 -0.149127 -0.041723 0.129650 0.019964 -0.146067 0.051172 0.221861 -0.032944 0.041873 0.065006 0.083353 -0.039860 0.034042 -0.217658 -0.036038 0.245811 0.054177 -0.084988 -0.067461 0.191944 0.245648 -0.178847 -0.087891 0.178254 -0.190676 0.077251 -0.208698 0.195222 0.259024 0.024319 -0.206313 0.054981 -0.045465 -0.119637 -0.115578 -0.090959 0.083633 0.179405 0.035749 0.119277 0.086347 0.216210 -0.291065 -0.153021 0.092450 0.058911 0.287012 0.074752 -0.087345 0.068591 0.036830 -0.049657 -0.062809 -0.060868 0.256595 -0.099121 -0.106527 -0.147224 0.030473 0.191370 0.113797 0.176251 0.245580 0.247553 0.047895 0.140454 0.063831 0.050084 0.117152 -0.203857 0.117131 0.233599 -0.123898 0.177269 -0.150641 -0.110770 -0.274898 0.013797 -0.030283 -0.131168 -0.194488 0.086015 0.152728 -0.104040 -0.199577 0.298907 0.036751 -0.069154 -0.124541 0.301768 -0.180862 0.137727 0.245951 -0.191290 0.430863 0.073685 -0.163894 0.159068 -0.068086 0.039734 -0.100816 -0.146641 0.313777 -0.058128 0.059791
NC_009813 0.127105 -0.242435 0.175797 0.095759 -0.493622 -0.024230 -0.159680 -0.404620 -0.376492 -0.186811 0.001508 0.073270 -0.026300 0.273860 -0.048203 -0.092298 0.201089 0.183529 -0.078820 -0.200862 -0.130339 -0.012280 -0.232203 -0.330010 0.021468 0.318843 -0.066247 0.185548 0.091461 0.361358 0.132656 -0.251549 0.009537 -0.208130 -0.087797 0.149910 -0.078230 0.045361 0.042480 0.038587 0.079344 -0.199461 0.457697 0.146785 0.151847 0.186220 0.484402 -0.303214 0.206757 0.085051 0.118686 0.001072 -0.021906 0.159695 -0.412799 0.143058 0.049946 -0.339168 -0.180721 -0.047188 0.167170 0.053364 0.088608 -0.006660 0.069766 -0.083066 0.075999 -0.015650 0.043605 -0.031603 0.036006 -0.003992 -0.268499 -0.089554 -0.076100 0.111438 0.138129 0.076001 -0.175816 0.067228 0.300408 -0.057282 0.422770 0.236110 -0.079922 -0.104834 0.252492 -0.098960 0.020317 0.037572 0.196061 0.241831 -0.078797 -0.092785 0.183540 -0.234387 0.120164 0.190974 0.016002 -0.069217 0.088037 0.157898 0.000342 -0.139344 0.245022 -0.338410 -0.056367 -0.033818 0.063934 -0.145645 -0.167682 -0.199839 0.184695 -0.084500 0.295028 0.115595 -0.212593 -0.061251 0.008505 -0.226545 0.090471 -0.247663 0.405257 0.006001 -0.184415 0.403559 -0.289410 0.182420
CP014583.1 0.059057 -0.005469 0.146713 -0.006821 -0.029519 -0.008528 -0.032174 -0.039907 -0.120397 -0.164853 0.029188 -0.070428 0.056519 0.146499 -0.085111 0.081819 0.028616 0.013699 0.000894 -0.189759 0.039865 0.177559 0.005118 -0.086302 0.089752 0.007043 -0.006260 -0.121365 0.027578 0.301548 0.138642 -0.040134 -0.019285 -0.008214 -0.114828 -0.036308 -0.128409 -0.068617 0.098228 0.045822 -0.021197 -0.095104 0.299931 0.202048 -0.041073 -0.085242 0.236287 -0.030488 0.000034 -0.073853 0.101696 -0.014832 0.069237 0.078282 -0.104427 0.036159 -0.118509 -0.134919 0.044517 -0.129679 0.082312 0.003209 0.151815 0.077029 0.058691 -0.127720 -0.123319 -0.041981 -0.081621 0.045899 0.030368 -0.212306 -0.022455 0.016844 -0.051303 0.002372 0.099435 0.116372 -0.112585 -0.054233 0.100039 0.015786 0.095624 0.135313 -0.046375 0.015537 0.164430 0.060578 -0.154987 -0.057842 0.060306 0.000229 -0.015533 -0.158860 0.152247 -0.252523 0.116792 0.091620 -0.037151 -0.008324 0.060622 0.039664 -0.101242 -0.039250 0.078274 0.037720 -0.011685 -0.045729 0.081392 0.006299 0.055547 0.008771 0.188992 -0.191434 0.080970 0.131590 -0.111457 0.086974 0.143669 -0.150302 -0.128747 -0.000447 -0.061821 0.026713 -0.186441 0.122361 -0.112290 0.029920
CP015228.1 0.041481 0.038353 0.066843 0.115694 0.015663 -0.022584 -0.058213 -0.021430 -0.094115 0.011928 -0.098517 -0.072394 0.086599 0.072264 -0.183748 -0.046399 -0.032195 -0.107889 0.207316 -0.140975 0.019305 0.151645 0.086788 -0.056529 0.293324 0.014918 0.038707 -0.038093 0.194792 0.349093 0.183430 -0.092088 -0.110103 0.011622 -0.223979 0.045075 -0.148683 -0.082651 -0.064778 -0.018289 0.144186 -0.097636 0.222380 0.309562 -0.038424 -0.218943 0.428068 -0.081277 0.006294 -0.093916 0.017808 0.013296 0.161374 0.076066 0.024380 0.007040 -0.043106 -0.187376 0.108853 -0.237051 0.046127 0.002132 0.073368 0.038710 0.200098 -0.264296 -0.197411 0.042623 -0.172092 -0.082402 0.108578 -0.308448 -0.043067 0.058801 0.074866 -0.051225 0.001663 0.111285 0.052813 -0.092567 0.196777 0.244340 0.156955 0.108065 0.078315 0.053480 0.067761 0.101610 -0.062518 -0.074798 0.059675 0.005756 0.057711 -0.197919 0.017666 -0.208809 0.036137 0.197893 -0.107025 0.038542 0.089815 -0.011598 -0.015081 -0.037416 0.076489 -0.071456 -0.077465 -0.001721 -0.001238 0.144573 -0.093579 -0.098247 0.110834 -0.378085 -0.014518 0.164449 -0.059830 -0.144242 0.097448 -0.088901 -0.055108 -0.195747 -0.159777 -0.227668 -0.150789 0.140997 -0.046565 0.086728
NC_004735 0.024516 -0.016927 0.125329 0.135796 0.047599 0.160096 0.150463 0.109940 -0.181840 -0.221192 0.191442 -0.197497 0.107074 0.037508 -0.150432 -0.195176 0.074932 -0.105474 -0.174886 -0.135448 0.005145 0.233986 0.087260 -0.236625 0.073523 -0.172728 0.213869 -0.074673 0.147394 0.394166 0.069027 0.142881 -0.137839 0.052366 -0.104393 -0.175310 -0.040146 0.277263 0.153406 -0.078525 -0.046979 -0.041541 0.239239 0.102888 -0.144024 -0.295883 0.203267 -0.005496 -0.090053 -0.004409 0.222374 0.031603 0.118664 0.142721 -0.091814 -0.031188 0.009494 -0.018288 -0.028716 0.042327 0.028877 -0.014645 0.231458 0.071573 0.247271 -0.282359 0.061225 -0.108157 -0.122855 -0.119383 -0.296642 -0.109173 0.020926 0.055998 -0.095827 -0.130640 0.026062 0.013856 -0.250002 -0.018735 -0.082172 0.222079 0.211240 0.098513 0.027372 0.074766 0.066185 0.156063 -0.028790 0.010753 0.033451 0.127218 -0.253138 -0.140438 0.065107 -0.351523 0.207155 0.184492 0.224286 -0.273956 -0.171561 -0.086175 -0.112811 -0.048498 0.148856 0.183931 -0.088018 -0.135402 -0.089263 0.185350 -0.054555 -0.178240 0.181896 -0.176811 0.367302 0.140721 -0.280073 0.151158 -0.068234 -0.070017 0.208395 -0.135365 -0.077181 -0.024359 -0.199864 0.123053 -0.311074 0.053590
CP013031.1 0.030164 -0.132746 0.067739 0.032693 -0.292295 -0.004933 -0.100857 -0.210034 -0.261237 -0.064029 0.056656 -0.034465 0.069092 0.216976 -0.041308 -0.009896 0.136831 0.101075 0.012917 -0.170865 -0.132407 0.008686 -0.131219 -0.355917 0.144075 0.119713 -0.068935 0.112571 0.059225 0.358410 0.183084 -0.187831 0.063590 -0.164753 -0.086148 0.125723 -0.198292 -0.019479 0.001746 -0.094235 0.092525 -0.088994 0.310890 0.165046 -0.055870 0.069524 0.499149 -0.080903 0.221483 -0.032259 0.042237 0.088012 0.029247 0.184911 -0.207078 0.047311 -0.088287 -0.209101 -0.007611 -0.131880 0.024362 0.024964 0.087886 0.003033 0.124926 -0.141729 0.031703 -0.062086 -0.030615 -0.116082 0.083423 -0.123015 -0.226223 -0.007579 -0.129494 0.039835 0.071224 0.082736 -0.028832 0.043548 0.224793 0.053530 0.202747 0.117717 -0.005168 -0.100428 0.120254 -0.087689 -0.107086 -0.027942 0.212261 0.157317 -0.096634 -0.180379 0.192118 -0.274711 0.027659 0.166778 -0.056650 -0.010990 0.118533 0.070714 0.002759 -0.045883 0.162199 -0.203949 0.011379 -0.072470 0.012355 -0.111908 -0.194121 -0.126117 0.153418 -0.084343 0.095396 0.203121 -0.096907 -0.038610 0.048106 -0.192844 0.024745 -0.152397 0.160039 -0.024274 -0.179296 0.266626 -0.070131 0.058639
NC_008201 0.008304 0.011879 0.109604 -0.134966 0.008136 0.005427 0.099715 0.004069 -0.107517 -0.013038 0.107009 0.042804 -0.100577 -0.024591 -0.156160 0.044492 -0.023345 0.101625 0.061886 -0.171481 -0.149524 0.036612 0.108348 0.325110 0.014784 -0.112632 0.223677 0.023745 -0.250892 0.193326 -0.003741 -0.228709 0.173455 0.005975 -0.067329 0.042359 -0.106829 -0.290573 0.031673 0.165195 -0.001514 -0.075613 0.532185 0.591421 0.008524 -0.016309 0.378964 0.022084 0.134482 -0.143514 -0.163269 0.010651 -0.058141 0.173668 0.177331 0.045075 -0.173729 -0.069876 0.145865 0.039320 -0.112715 0.008524 0.084897 0.471580 0.364754 -0.001424 -0.200538 0.269614 0.245069 0.005774 0.401566 -0.508959 0.250001 0.188511 0.403550 -0.020856 -0.106905 0.125358 -0.151329 -0.245768 -0.034316 0.119438 0.223657 0.129001 -0.011588 0.096939 0.269801 0.134901 -0.208435 -0.226190 0.181781 0.029823 -0.093865 -0.212078 0.334335 -0.055945 0.080043 -0.000240 -0.172082 -0.039068 0.167217 -0.013508 -0.170234 -0.253117 0.060363 0.088434 0.166949 0.006817 -0.049028 0.339857 0.228835 -0.147642 0.177843 -0.128096 0.031479 0.314612 -0.108795 0.296980 0.192392 -0.112963 -0.012307 -0.075072 -0.006895 -0.011067 -0.169329 -0.025970 -0.262287 0.170667
CP013185.1 0.016764 -0.018556 -0.009611 -0.028851 -0.102333 -0.001479 -0.008561 -0.038598 -0.194402 -0.037137 0.122273 -0.126923 0.029727 0.096064 -0.175243 -0.021391 0.071285 0.073216 0.018422 -0.195246 -0.207057 0.007242 -0.023648 -0.292827 0.199812 -0.139104 0.030884 0.101540 0.082670 0.404902 0.283555 -0.128253 0.084960 -0.085265 -0.066280 0.021388 -0.292348 0.057090 -0.034825 -0.199860 0.166609 0.038199 0.227609 0.178814 -0.309812 -0.043590 0.548459 0.062676 0.238553 -0.167880 -0.051506 0.137811 0.125169 0.295552 -0.096350 -0.013708 -0.137127 -0.102586 0.075771 -0.156640 -0.163452 0.006033 0.102250 0.028515 0.293672 -0.166006 -0.040814 -0.083644 -0.112114 -0.229329 0.065025 -0.248483 -0.166907 0.067298 -0.177583 -0.034960 0.040417 0.103155 -0.027709 0.028834 0.105580 0.243249 0.121013 0.047974 0.057678 -0.056504 0.020108 0.032663 -0.175264 -0.063625 0.189023 0.120502 -0.219166 -0.286171 0.203522 -0.302982 0.037020 0.249734 -0.048043 0.059881 0.060676 -0.084345 -0.021119 0.051677 0.048450 -0.136370 0.095347 -0.116781 -0.116824 0.003031 -0.143194 -0.135422 0.072570 -0.107851 0.054122 0.255141 -0.009429 0.025435 -0.015483 -0.065448 0.093158 -0.110677 0.084420 -0.098981 -0.199493 0.191346 0.041752 -0.039696
CP015023.1 0.088450 0.133779 0.005617 -0.003775 -0.011073 0.088544 0.079069 -0.057478 -0.062742 -0.107340 0.187864 -0.061051 0.093393 0.013812 -0.036304 -0.121540 -0.116275 -0.039556 -0.034930 -0.349109 -0.051647 0.343708 0.026307 -0.103134 0.006189 0.010922 0.100631 -0.160103 0.132701 0.249252 -0.040415 -0.031529 -0.001287 0.059390 -0.045138 -0.081266 -0.177142 -0.009519 0.194467 0.016183 -0.079867 -0.053476 0.191242 0.275748 -0.148933 -0.139133 0.180367 -0.122085 0.045547 -0.270726 0.126212 0.168432 0.150675 -0.032292 0.031281 0.008166 -0.032708 -0.128141 -0.049970 0.080202 0.076085 0.031935 0.146787 0.047491 0.241003 -0.211754 -0.258358 0.116489 0.002309 0.106296 0.052817 -0.204045 0.001749 0.020636 -0.100692 0.016125 0.016207 0.204360 -0.147005 -0.120304 -0.089481 0.092881 0.187381 0.152319 0.011460 0.208525 0.211991 0.082157 0.062162 0.054321 -0.092624 0.058885 -0.157651 -0.033534 0.093807 -0.112928 0.184159 0.015074 -0.062728 -0.117238 -0.024140 -0.050741 -0.075661 -0.103641 0.090330 0.015706 -0.017722 -0.118243 0.098978 0.084937 -0.045096 -0.050318 0.207666 -0.298620 0.184727 0.199933 -0.098657 0.198111 0.015183 -0.024999 0.050841 -0.053704 0.008748 -0.134634 -0.180488 0.303975 -0.100542 0.072713
CP015834.1 0.149581 0.232208 -0.048847 0.009422 0.104746 0.031814 -0.056253 -0.072875 -0.150470 -0.054728 0.321197 -0.117269 -0.168801 -0.049423 -0.221572 -0.102689 -0.049141 0.048593 0.086681 -0.167783 -0.041700 0.213421 -0.017339 0.215053 -0.020366 -0.188516 0.019438 -0.012447 0.003020 0.268898 0.317984 -0.107380 0.059514 0.030093 -0.157501 0.039282 -0.041823 0.011193 0.271079 0.011185 0.166701 0.073959 0.072244 0.268810 -0.354375 -0.139886 0.412133 -0.053052 0.191542 -0.190098 0.086314 -0.044123 0.202546 0.210945 0.016537 0.028037 -0.274695 0.049676 0.160885 -0.097656 -0.024996 0.144966 0.050608 0.126286 0.092563 -0.005666 -0.116072 0.086005 -0.024624 -0.239753 0.092093 -0.269092 -0.010548 0.005948 -0.113636 0.141428 0.180608 0.312281 -0.114938 0.172302 -0.236199 0.326157 0.297823 0.166720 0.025223 -0.020080 0.193403 -0.072928 0.041680 0.076909 0.000340 0.126998 -0.030311 -0.215272 0.089650 -0.187028 0.137696 0.303831 -0.038831 -0.002987 0.063433 -0.053314 0.048166 0.120961 -0.080399 0.034036 0.028331 -0.173027 0.180826 0.163646 0.122235 0.052105 -0.052275 -0.161838 0.137425 -0.145838 0.077560 0.077515 0.034467 -0.121646 0.058958 -0.171310 0.082764 -0.197871 -0.155827 0.404706 0.140176 -0.090797
CP009859.1 0.118973 0.152806 -0.021401 0.030715 -0.058532 -0.126568 0.038357 -0.013314 -0.074076 -0.111540 0.091585 -0.060442 0.009392 0.096520 -0.206760 -0.058903 0.003582 0.093450 0.005687 -0.161723 -0.175956 0.179438 -0.141791 -0.046672 0.077561 -0.176003 0.035440 0.117836 0.014572 0.313419 0.394742 -0.168708 0.049809 0.043108 -0.119958 0.031752 -0.271990 -0.067469 0.046707 -0.053584 0.195195 0.088618 0.173749 0.161713 -0.437894 0.047638 0.565567 -0.015680 0.259375 -0.161342 -0.067271 0.061417 0.201762 0.175640 -0.104544 -0.000555 -0.208553 -0.058567 0.060089 -0.128678 -0.049672 0.029334 0.110184 0.022239 0.306529 -0.172029 -0.073018 0.003465 -0.115209 -0.085852 0.140857 -0.314682 -0.081607 0.026803 -0.213819 -0.072925 0.058968 0.264492 -0.031510 0.115051 -0.111869 0.265404 0.211535 0.117729 0.084871 0.030733 0.092025 0.076189 -0.046911 -0.047360 0.207600 0.179286 -0.192081 -0.214095 0.278783 -0.311268 0.183028 0.229328 -0.146747 0.105823 0.126188 -0.067182 -0.135821 0.051623 -0.157203 -0.059399 0.110681 -0.168006 0.134691 0.077470 -0.051399 -0.062823 0.050695 -0.080046 0.048242 0.094933 0.031212 0.106104 0.059981 -0.048045 0.100196 -0.065908 0.194285 -0.229559 -0.253981 0.346188 0.165793 -0.071119
CP011018.1 0.041445 -0.096248 0.250450 0.054474 0.012129 0.075055 0.052339 0.136486 -0.162535 -0.259989 0.196908 -0.294701 0.113581 0.120614 -0.164512 -0.037845 0.123722 -0.020909 -0.168917 -0.085737 0.080008 0.217363 0.094831 -0.182144 0.072279 -0.177099 0.153928 -0.097098 0.090663 0.416258 0.269610 0.161575 -0.098440 0.133395 -0.153959 -0.104293 -0.108146 0.164491 0.151692 -0.069706 -0.043458 0.041774 0.214069 0.069593 -0.169193 -0.321455 0.215774 0.000078 -0.128414 0.075396 0.276517 -0.066569 0.095677 0.171035 -0.126564 -0.023970 -0.117910 0.061915 0.061745 -0.007004 0.015993 -0.032388 0.259057 0.112749 0.117585 -0.218056 0.107172 -0.201452 -0.144907 -0.086689 -0.274385 -0.161858 0.043775 0.043754 -0.037358 -0.105911 0.126918 0.041070 -0.293178 -0.032009 -0.052286 0.187466 0.149647 0.051038 0.048756 0.014588 0.062471 0.229241 -0.200282 0.016614 0.034818 0.119272 -0.152770 -0.135405 0.081269 -0.362569 0.194788 0.224473 0.241601 -0.230505 -0.072139 -0.058442 -0.075601 -0.022775 0.109862 0.265162 -0.013002 -0.095873 -0.093016 0.130098 0.083206 -0.098244 0.157794 -0.102334 0.238152 0.101651 -0.231463 0.125060 0.018472 -0.183288 0.104404 -0.088931 -0.063579 0.029450 -0.267058 0.040113 -0.242666 -0.016287
CP014667.1 0.055704 0.029401 0.066016 0.063031 0.066279 0.042455 -0.013385 -0.044093 -0.158559 -0.024367 -0.046873 -0.055149 0.060398 0.051672 -0.196329 -0.027258 -0.059655 -0.127544 0.201451 -0.207279 0.042313 0.155748 0.139212 0.028202 0.259431 0.050206 0.019760 -0.049417 0.199409 0.282050 0.069535 -0.028561 -0.137819 -0.003839 -0.174112 0.083352 -0.089301 0.009982 -0.002517 0.046072 0.119380 -0.139014 0.259418 0.359973 0.046899 -0.257098 0.277639 -0.102632 -0.071522 -0.046441 0.088714 -0.015580 0.096062 0.057779 0.000104 -0.000200 -0.069795 -0.167405 0.083843 -0.112712 0.063745 -0.010391 0.062823 0.109474 0.084327 -0.214584 -0.197441 0.086179 -0.111970 -0.027388 0.093436 -0.245057 0.009478 0.056337 0.201648 0.002786 0.033247 0.068852 -0.032245 -0.156526 0.210012 0.224281 0.174475 0.126464 0.046907 0.038444 0.165629 0.123756 -0.017747 -0.024292 0.028926 -0.006519 0.104039 -0.173708 -0.039976 -0.182624 0.034339 0.175659 -0.026048 -0.103200 -0.012700 -0.006895 0.019769 -0.058794 0.069603 -0.018683 -0.230033 -0.037536 0.009876 0.183173 0.012665 -0.119056 0.166818 -0.402732 0.051394 0.141713 -0.137227 -0.060060 0.089423 -0.092043 -0.054202 -0.221032 -0.196554 -0.143486 -0.079455 0.118639 -0.133180 0.130675
CP013835.1 0.048196 0.031929 0.079401 -0.010316 -0.057147 -0.016445 0.036971 -0.028319 -0.111399 -0.101557 0.085712 -0.092975 0.056211 0.104505 -0.092206 0.010544 -0.035899 0.012890 0.042518 -0.147145 -0.026647 0.144912 -0.022326 -0.106715 0.029268 -0.039366 0.015695 -0.092915 -0.007489 0.251078 0.092833 -0.082965 0.043684 -0.012324 -0.098234 0.034208 -0.144525 -0.062553 0.119196 0.041528 0.011556 -0.067323 0.273588 0.212787 -0.133951 -0.039980 0.301444 -0.022394 0.102819 -0.085168 0.046079 0.030748 0.055992 0.075190 -0.019710 0.040545 -0.095841 -0.085600 0.060488 -0.077496 0.034325 0.045971 0.130255 0.117575 0.152426 -0.117064 -0.080761 -0.010514 -0.009327 0.017907 0.051257 -0.226080 -0.022717 0.030278 -0.050219 0.006324 0.095379 0.144289 -0.104106 -0.003486 0.000860 0.109170 0.133093 0.141747 0.003203 0.026398 0.158120 0.020738 -0.090562 -0.021804 0.090101 0.076061 -0.091791 -0.156138 0.168725 -0.235896 0.101470 0.058130 -0.065671 -0.004125 0.030386 0.023689 -0.061591 -0.023783 0.086602 0.052041 -0.022245 -0.104486 0.089040 0.018303 0.010173 -0.000928 0.134099 -0.166377 0.100641 0.187660 -0.107174 0.122330 0.072053 -0.137732 -0.046946 -0.037351 0.002347 -0.000377 -0.231584 0.170788 -0.072931 -0.002850
CP009106.2 0.013619 0.216518 -0.109039 -0.144170 0.028085 0.002384 -0.052102 -0.010110 -0.148043 -0.018267 0.325817 -0.131924 -0.074321 -0.086371 -0.143132 -0.069745 -0.068118 0.038141 0.053309 -0.148042 -0.068379 0.093744 0.007011 -0.029906 -0.019897 -0.266275 -0.069911 0.079811 -0.094182 0.222462 0.127839 -0.215155 0.050104 -0.076572 -0.076822 0.031491 -0.109744 0.030014 0.261126 0.010533 0.210362 -0.041363 0.244573 0.339429 -0.199628 -0.035005 0.426673 0.084939 0.216550 -0.215017 -0.102277 0.164617 0.042240 0.333215 0.066356 -0.035766 -0.332723 -0.072847 0.224403 -0.081688 0.022469 0.165387 -0.108462 0.112061 0.126375 -0.041397 -0.165649 -0.037702 0.028794 -0.266291 0.152701 -0.293007 0.012494 0.123348 -0.140441 -0.000976 0.109929 0.294664 0.037007 0.139579 -0.116790 0.259976 0.084958 0.140213 0.014204 -0.044031 0.188504 -0.092781 -0.061016 0.038251 0.083901 0.109622 -0.062007 -0.273750 0.235099 -0.205415 0.067396 0.145291 -0.208346 0.013310 0.057203 -0.114529 -0.024203 0.017388 0.029189 0.037943 -0.030647 -0.128243 0.077876 0.069481 0.039862 -0.001055 -0.000120 -0.141070 0.079472 -0.016538 0.018827 0.170597 0.008536 -0.125450 -0.025457 -0.172074 -0.001617 -0.172092 -0.216976 0.267414 0.103880 -0.034583
CP013025.1 -0.000899 0.012778 0.072847 0.085344 -0.143874 -0.045793 0.015947 -0.067811 -0.020136 -0.125109 -0.028231 -0.119012 0.138693 0.168803 -0.026604 -0.109096 -0.013842 -0.009825 -0.004318 -0.079749 0.004481 0.159014 -0.150191 -0.032234 0.018977 0.018828 0.067924 -0.080391 -0.105025 0.243212 0.116365 -0.130919 0.107844 0.006012 -0.178426 0.029112 -0.117129 -0.189432 0.060976 0.081359 0.021565 -0.094892 0.319926 0.190433 -0.126893 0.058106 0.356740 -0.035148 0.178676 -0.060784 0.014558 0.037121 0.073193 -0.039937 0.044993 0.043635 -0.064509 -0.129699 0.072941 -0.238988 0.104105 0.019525 0.171753 0.133644 0.314643 -0.233091 -0.001983 -0.028062 0.021627 0.150363 0.104633 -0.279864 0.006594 0.090478 -0.059410 -0.048227 -0.025019 0.063852 0.008535 -0.010593 0.000842 0.091396 0.137982 0.094959 0.058536 0.032232 0.137417 0.023673 -0.113391 -0.103195 0.216117 0.042242 -0.074706 -0.096453 0.295444 -0.199662 0.191524 -0.100137 -0.160157 -0.012729 0.129646 -0.018044 -0.161626 -0.116390 0.178385 0.115469 0.046388 -0.027535 0.181373 0.025960 -0.046726 -0.061817 0.133341 -0.133938 0.034955 0.212257 -0.149491 0.147067 0.107657 -0.233742 0.036660 -0.036230 -0.085039 -0.081665 -0.195324 0.059329 -0.110238 -0.058029
CP007594.1 0.358453 -0.010082 0.178968 -0.033193 0.157649 0.048484 0.047667 -0.253631 -0.180362 0.010981 0.120244 0.065962 0.128042 0.079511 -0.193858 0.043723 0.058827 -0.066477 0.102815 -0.170199 -0.003826 0.215509 0.055758 0.005173 0.057373 0.013703 -0.029240 -0.351478 -0.005449 0.113002 -0.002902 -0.075527 0.025146 -0.170285 -0.086247 0.054612 -0.081896 -0.058510 0.155526 0.087946 -0.055997 -0.233121 0.222482 0.190964 -0.127343 -0.138506 0.122095 0.001106 -0.003339 -0.123115 0.099712 0.002178 0.134919 0.166733 0.010603 0.028598 0.104317 -0.102362 0.149279 0.036848 -0.064829 0.024449 0.338408 0.162816 0.010219 -0.060949 -0.054322 0.065295 -0.021401 0.134767 0.124348 -0.178361 -0.046651 -0.022930 0.151607 0.286686 0.343836 -0.047419 -0.279526 0.086495 0.132178 0.236793 0.280104 0.375516 -0.020297 0.067374 0.123491 0.168554 -0.081707 0.070947 -0.155870 0.163020 -0.005552 -0.303186 -0.024710 -0.202204 -0.025629 -0.101237 0.100226 0.063044 -0.104911 0.143501 0.099506 0.038114 0.283141 -0.028202 -0.102278 -0.237453 0.091095 -0.004409 0.042302 0.187771 0.144766 -0.291160 0.125773 0.272685 -0.038040 -0.043510 -0.118896 -0.179349 -0.107729 0.006586 -0.032341 0.161097 -0.240995 0.166079 -0.019760 -0.022491
CP012631.1 0.117594 0.179695 0.061327 0.105075 0.068377 0.075559 -0.128543 -0.184365 -0.170576 -0.059777 0.246159 -0.026689 -0.075000 0.057053 -0.129513 -0.081191 0.064451 0.030334 -0.029307 -0.155636 0.018657 0.237476 -0.036588 0.350370 -0.049619 -0.066515 0.046697 -0.032544 -0.125518 0.225707 0.206424 -0.088392 0.035929 -0.091252 -0.107640 0.072640 0.068999 -0.066778 0.296877 0.046961 0.054516 -0.011336 0.106857 0.233951 -0.157736 -0.106549 0.219960 -0.038251 0.108048 -0.097661 0.228422 -0.102588 0.168309 0.147926 -0.004813 0.080032 -0.266675 0.054858 0.153515 -0.037977 0.033400 -0.012116 0.097788 0.215161 -0.076208 -0.019521 -0.063751 0.156045 0.074440 -0.148853 0.175634 -0.162584 0.010056 -0.008227 -0.021270 0.137063 0.103515 0.148216 -0.076427 0.128112 -0.082830 0.175370 0.362931 0.177863 0.012928 0.023167 0.341386 -0.117467 0.044492 0.031333 0.009839 0.106259 0.111624 -0.224687 0.039737 -0.204958 0.143145 0.221494 0.108339 -0.145590 0.153153 0.050096 0.007824 -0.067115 0.046310 0.122723 -0.046741 -0.059140 0.260739 0.160601 0.169438 0.049254 0.155841 -0.073415 0.097740 -0.208666 -0.043976 0.074771 0.122607 -0.205394 0.092787 -0.225413 -0.052337 -0.082072 0.002536 0.313718 -0.095093 0.062264
NC_008723 -0.047348 -0.099207 0.079264 -0.097976 -0.123789 -0.102587 0.097610 0.091151 0.011667 -0.097295 -0.005290 -0.029455 0.023622 0.095557 -0.196554 -0.095328 -0.044796 0.072698 -0.024828 -0.068425 -0.190700 -0.002973 -0.058137 0.217006 -0.150949 -0.173276 0.166712 0.097662 -0.265464 0.101688 0.019813 -0.190557 0.231695 -0.062740 0.010511 0.130690 -0.113967 -0.140032 0.102770 0.347902 0.072618 -0.051490 0.630264 0.482665 -0.173636 0.079946 0.391115 -0.019148 0.124437 0.003451 -0.142172 -0.005906 -0.057239 0.073220 0.115451 0.120870 -0.071436 0.000933 0.141886 0.026178 -0.079489 0.003597 -0.044353 0.525329 0.430562 -0.055500 -0.065023 0.075630 0.336637 0.226805 0.149060 -0.325585 0.300116 0.194535 0.385204 -0.138107 -0.014428 0.053762 -0.164358 -0.077356 -0.101917 0.210957 0.279982 0.164270 0.113853 0.165298 0.292199 0.183553 -0.118687 -0.113067 0.323883 0.255256 -0.193914 -0.161276 0.345154 -0.221315 0.081496 -0.053612 -0.037948 -0.024898 0.065795 0.022497 -0.239555 -0.219040 0.109125 0.249612 -0.078337 -0.032379 0.045772 0.222968 0.279614 -0.153564 0.222492 -0.005223 0.112126 0.449867 -0.305050 0.367873 0.017612 -0.154958 0.179671 -0.043691 0.112119 0.129626 -0.217074 -0.075193 -0.396609 0.139441
NC_006552 0.079010 0.041037 0.112600 0.190474 0.081972 0.032070 -0.091038 -0.054287 -0.121892 0.039884 -0.192257 -0.105266 0.161948 0.067657 -0.248119 -0.139524 -0.095812 -0.252963 0.325058 -0.140646 0.093893 0.190526 0.190116 -0.058203 0.469520 0.100216 0.041983 -0.089107 0.376382 0.419731 0.173044 -0.059779 -0.240631 0.042880 -0.317340 0.090846 -0.154324 -0.072603 -0.118323 -0.026749 0.197884 -0.153869 0.211715 0.411331 0.067608 -0.416636 0.424915 -0.168731 -0.114019 -0.064447 0.092697 0.004951 0.204178 0.012343 0.069946 -0.020255 0.028097 -0.245236 0.145953 -0.277018 0.122725 -0.030116 0.087167 0.036740 0.197276 -0.365458 -0.281730 0.073789 -0.263757 -0.078098 0.107726 -0.371995 -0.033163 0.096533 0.222022 -0.057024 -0.047345 0.057211 0.076346 -0.192629 0.316802 0.369961 0.202543 0.139373 0.109119 0.078114 0.058711 0.194059 -0.023157 -0.068192 0.037700 -0.023017 0.203255 -0.154319 -0.145070 -0.181004 0.005648 0.259080 -0.093207 -0.037969 0.054502 -0.035024 0.053902 -0.027938 0.099355 -0.091474 -0.238014 0.036826 -0.022038 0.237048 -0.166834 -0.167037 0.172528 -0.613058 -0.005193 0.202055 -0.077891 -0.305745 0.117616 -0.111121 -0.070645 -0.316556 -0.309674 -0.318611 -0.129538 0.131704 -0.127129 0.143710
NC_004585 0.001929 -0.085080 -0.021653 -0.035012 -0.230529 -0.009102 0.003617 -0.141090 -0.260730 0.020378 0.161601 -0.067781 0.145107 0.223240 -0.054255 0.084655 0.194163 0.118637 -0.008453 -0.158702 -0.253984 -0.028317 -0.139979 -0.535491 0.220312 -0.081645 -0.101916 0.095162 -0.087411 0.411038 0.222416 -0.185956 0.183947 -0.299302 -0.033277 0.190010 -0.369739 0.019424 0.009647 -0.233546 0.158172 -0.047393 0.314717 0.121111 -0.299148 0.073726 0.629414 0.150046 0.353983 -0.111726 -0.048972 0.216270 0.034495 0.347710 -0.166065 -0.000804 -0.181656 -0.137845 0.104273 -0.170892 -0.145298 -0.031065 0.155410 0.034129 0.164250 -0.175240 0.149931 -0.177254 -0.057832 -0.189063 0.123580 -0.187987 -0.302175 0.025750 -0.255472 -0.001019 0.088106 0.015581 0.054490 0.144688 0.235717 0.177140 0.120802 0.099721 0.046420 -0.167650 0.026337 -0.100126 -0.219425 -0.056756 0.334912 0.193993 -0.218219 -0.377344 0.321650 -0.468740 -0.080909 0.120319 -0.074687 0.034009 0.114057 0.035661 0.007539 0.032634 0.190309 -0.148462 0.031565 -0.187760 -0.027075 -0.197878 -0.284306 -0.061810 0.149425 0.005113 -0.011851 0.359319 -0.072640 0.037015 -0.012962 -0.211579 0.038689 -0.087163 0.106984 0.070356 -0.204016 0.211160 0.105592 -0.055410
CP012635.1 -0.157163 0.207105 0.147418 0.291461 0.036350 0.054285 0.107099 -0.238247 -0.080846 -0.094641 -0.010009 -0.148425 0.211947 0.175890 0.069014 -0.250407 -0.109350 -0.218585 0.007515 0.088103 0.111674 0.121955 -0.117955 -0.003257 -0.021216 -0.075912 0.196992 -0.227059 -0.180481 0.167580 -0.157187 -0.254019 0.045876 -0.117023 -0.218683 -0.073613 0.107462 -0.353914 0.144799 0.036804 -0.096587 -0.252351 0.286272 0.162322 0.053257 0.068672 0.233217 0.183298 0.273591 -0.107564 -0.027604 0.027863 0.167967 -0.120415 0.254329 0.173038 -0.051289 -0.083278 0.183915 -0.306141 0.193884 0.024206 0.262194 0.157952 0.292134 -0.261575 -0.009269 0.052419 0.121726 -0.005860 0.181827 -0.477902 -0.022148 0.157086 -0.312118 -0.057266 -0.091398 -0.036891 0.207018 0.065245 0.029050 0.082162 0.079079 0.099610 -0.139397 -0.034319 0.223453 -0.204110 -0.099519 -0.190286 0.159762 -0.103125 0.081618 -0.231165 0.189915 -0.278467 0.278034 -0.145680 -0.169625 0.014633 0.154142 -0.025849 -0.206950 -0.128530 0.314647 0.189035 0.089322 0.051594 0.222172 0.045466 -0.188625 0.045295 0.242437 -0.288489 0.096928 0.141826 -0.198756 -0.022934 0.186444 -0.267717 -0.048149 -0.137180 -0.516245 -0.167807 -0.135272 0.093870 -0.262775 -0.047466
NC_004584 0.242702 0.170447 0.027357 0.057548 0.058217 -0.076971 -0.172188 -0.027421 -0.066721 -0.156109 0.032293 0.224220 0.121833 0.108418 -0.047560 0.242272 0.046827 0.105407 -0.036811 -0.399041 0.098070 0.488475 -0.057318 0.153683 0.080237 0.092988 -0.230259 0.044830 -0.064661 0.151969 0.132456 -0.059435 -0.210751 -0.204506 0.003155 0.035489 -0.182698 0.015259 0.239988 0.112441 0.121250 -0.142716 0.306694 0.169292 0.009714 -0.014692 0.087560 -0.088167 -0.125938 -0.060887 0.144236 0.057026 0.019860 0.017644 -0.318234 -0.025790 -0.269905 -0.263996 0.035691 0.073034 0.351845 -0.200055 -0.027780 0.058432 -0.245489 -0.232064 -0.266052 0.156306 -0.133403 0.247560 0.209140 0.049948 -0.035288 -0.099941 -0.022000 -0.040786 0.070654 0.224105 0.035229 0.016214 0.289929 -0.046865 0.331927 0.289475 0.091565 0.132492 0.454957 0.118672 0.234639 0.019878 0.063192 0.152837 0.186626 -0.198569 0.114592 -0.465397 0.049155 0.121819 -0.002044 -0.170699 0.169218 0.130244 -0.199478 -0.173405 -0.143169 0.029227 -0.521705 -0.116276 0.524698 0.026557 0.196623 0.018154 0.582509 -0.170332 0.005403 -0.094046 -0.191537 0.220981 0.325047 -0.069922 -0.105497 -0.125260 0.041415 0.048420 0.043711 0.406008 -0.031609 0.339212
CP010371.1 0.051000 -0.119252 0.138716 -0.105879 -0.090457 -0.046881 0.015516 0.032749 -0.021743 -0.147578 0.008431 -0.077564 0.062846 0.122829 -0.160952 -0.044963 -0.004689 0.038050 -0.057100 -0.101884 -0.099303 0.052022 0.004143 0.075527 -0.060443 -0.097971 0.088048 -0.026256 -0.115486 0.178813 0.078335 -0.084564 0.128053 -0.038296 -0.008674 0.057303 -0.123438 -0.091989 0.125668 0.217670 0.009962 -0.037804 0.467280 0.360038 -0.144634 -0.065240 0.257295 -0.034728 -0.001737 -0.000864 -0.004720 -0.018629 -0.011701 0.062375 0.015138 0.088784 -0.054618 -0.012186 0.104773 0.023910 -0.018743 -0.012210 0.033757 0.361387 0.269336 -0.060015 -0.102660 0.006508 0.193469 0.169368 0.037783 -0.236209 0.215281 0.124740 0.257165 -0.073979 0.034726 0.036262 -0.216071 -0.053330 -0.042231 0.154132 0.207302 0.181442 0.033664 0.134481 0.231854 0.204338 -0.141397 -0.059753 0.187854 0.202943 -0.126614 -0.128872 0.218990 -0.212839 0.068867 0.015473 0.041569 -0.025856 0.055911 0.034937 -0.165279 -0.140107 0.107930 0.198357 -0.062100 -0.024575 0.029850 0.131320 0.193691 -0.075738 0.244902 -0.065975 0.138285 0.345656 -0.216514 0.229179 0.038175 -0.164467 0.084197 -0.025105 0.071676 0.132396 -0.215211 -0.014812 -0.342020 0.099062
CP015240.1 0.131027 0.033731 0.138682 -0.032154 0.019934 -0.030417 -0.033954 -0.056458 -0.146470 -0.129905 0.062440 -0.035790 -0.004741 0.089219 -0.172634 0.052406 0.024756 0.023725 0.017627 -0.168839 -0.017963 0.166080 0.031135 0.031355 0.043687 -0.069541 0.000687 -0.060881 0.040118 0.235392 0.156055 -0.074578 -0.034138 -0.025141 -0.067815 -0.013181 -0.108580 -0.060896 0.111710 0.084463 0.032538 -0.053853 0.288629 0.254267 -0.096485 -0.087273 0.247588 -0.035441 -0.021031 -0.070401 0.055970 -0.037410 0.110989 0.135014 -0.079737 0.057172 -0.087542 -0.090370 0.077656 -0.040231 0.027358 0.001704 0.096762 0.127599 0.083107 -0.063820 -0.172355 0.022856 -0.026712 0.007573 0.070473 -0.224587 0.017710 0.025835 0.034412 0.034230 0.144629 0.137299 -0.154767 -0.011621 0.048455 0.115845 0.164577 0.200148 -0.047754 0.047893 0.183572 0.102282 -0.091479 -0.016502 0.016797 0.098890 -0.008198 -0.186570 0.097533 -0.242936 0.082652 0.154019 -0.008999 0.060488 0.055638 0.045445 -0.066646 -0.024195 0.032966 0.016431 -0.041933 -0.052343 0.036128 0.065127 0.108851 0.037083 0.156893 -0.194692 0.109743 0.120070 -0.070762 0.024664 0.087236 -0.090405 -0.094778 -0.035900 0.026788 0.007179 -0.194316 0.163453 -0.127642 0.070376
CP014197.1 0.210617 -0.172409 0.057839 -0.248347 -0.178891 0.271855 -0.257661 -0.287788 -0.170380 -0.202046 0.241256 -0.250283 0.045310 0.032372 0.028886 -0.220578 0.013305 0.058672 -0.065295 -0.185162 0.094538 0.030633 0.056264 -0.312301 0.069858 0.182713 -0.168401 -0.260931 0.160721 0.398400 0.099813 -0.008598 0.088238 -0.049809 -0.136200 -0.027755 -0.135446 0.000313 0.330085 -0.038126 -0.048352 -0.026825 0.305178 0.378497 -0.011609 -0.341724 0.149946 -0.245544 -0.016481 -0.094862 0.202714 0.120842 -0.097928 -0.008565 -0.075012 -0.051824 -0.157352 -0.124980 0.108967 -0.130817 0.240684 0.146391 0.024866 0.135152 0.108923 -0.025099 -0.229380 -0.090777 0.075178 -0.057699 -0.110855 -0.160249 0.082098 0.140924 0.072322 0.221466 -0.002124 0.093292 -0.271339 -0.012674 -0.057823 0.040904 0.099042 0.211908 -0.187635 -0.072474 0.177581 0.008173 -0.141467 0.026498 0.073988 0.076135 0.007318 0.114556 0.112182 0.009231 0.002015 -0.012231 -0.053150 -0.166281 0.100680 -0.089314 0.059877 0.069936 0.211311 0.026770 -0.101548 0.006188 0.038967 -0.018716 -0.117777 -0.079636 0.200712 -0.295977 0.317893 0.103467 -0.009271 0.052229 0.148870 -0.363700 -0.066078 -0.132028 -0.032432 0.064468 -0.204585 0.231047 -0.194351 -0.073188
CP017100.1 -0.029576 -0.032061 0.101561 0.117875 -0.220605 0.013015 -0.014511 -0.110015 -0.264371 -0.126306 0.061406 -0.045201 -0.028114 0.160572 -0.058817 -0.036753 0.048892 0.064554 0.007117 -0.179246 -0.074878 0.067969 -0.110725 -0.223244 0.067107 0.075460 0.068937 0.073294 0.064567 0.339003 0.118231 -0.138254 0.007155 -0.057440 -0.119461 0.017742 -0.060684 0.009070 0.022203 -0.054587 0.032516 -0.119496 0.288479 0.132756 -0.011767 0.104855 0.422791 -0.077182 0.218609 -0.063846 0.103241 0.018034 0.057895 0.153836 -0.179318 0.078355 -0.053263 -0.179937 -0.086183 -0.117658 0.037861 0.075100 0.137557 0.003570 0.149391 -0.132530 0.014654 0.001586 -0.037849 -0.166696 0.044893 -0.135046 -0.213908 -0.050074 -0.191700 0.014143 0.091833 0.145532 -0.084688 0.018706 0.113565 0.030709 0.227966 0.090515 -0.027687 -0.077241 0.150964 -0.127819 -0.046974 -0.032098 0.132438 0.085182 -0.127271 -0.151028 0.168481 -0.255198 0.172527 0.211942 -0.026090 -0.023670 0.039671 0.047860 -0.015543 -0.035679 0.132978 -0.140316 0.056236 -0.110266 0.037672 -0.017672 -0.101846 -0.128408 0.103103 -0.120473 0.177892 0.094910 -0.149551 0.063424 0.054644 -0.110773 0.026795 -0.143489 0.121872 -0.069239 -0.197728 0.291277 -0.127150 0.047761
CP013029.1 0.066592 0.029718 0.086174 0.041184 -0.031658 -0.065016 0.045531 -0.014607 -0.202400 -0.106148 0.034510 -0.077684 0.029346 0.150657 -0.199045 0.034179 0.012928 0.024997 0.061154 -0.227364 -0.151701 0.109532 -0.051557 -0.172695 0.163732 -0.113750 0.048856 0.004545 0.090335 0.327739 0.255798 -0.110606 0.028938 -0.030784 -0.093484 0.000284 -0.222061 -0.008550 -0.040724 -0.091565 0.105703 -0.031301 0.214313 0.152131 -0.287409 0.024910 0.472011 0.046412 0.186560 -0.166754 0.012227 0.054802 0.190955 0.216290 -0.092395 0.030685 -0.081700 -0.117438 0.028161 -0.149170 -0.148081 0.018752 0.192811 0.014619 0.232321 -0.149949 -0.067480 -0.040408 -0.150936 -0.121816 0.113324 -0.253687 -0.173960 -0.005199 -0.177626 -0.020310 0.148019 0.135611 -0.068893 0.033961 0.086497 0.203053 0.130500 0.109468 0.051096 -0.008441 0.054434 0.037727 -0.149348 -0.057878 0.117676 0.101852 -0.169293 -0.260498 0.167768 -0.328146 0.114680 0.224739 -0.038046 0.141292 0.028939 0.001352 -0.036456 0.063379 0.022315 -0.120172 0.100535 -0.184285 -0.005994 0.002690 -0.059507 -0.031176 0.073068 -0.161258 0.051464 0.236258 -0.022687 0.034029 0.011482 -0.025450 0.007556 -0.034317 0.069683 -0.081922 -0.261490 0.216767 0.041030 -0.044128
CP012870.1 -0.078891 -0.049939 0.072557 -0.032301 -0.138002 -0.068971 0.070949 -0.002911 0.016608 -0.060358 -0.041306 -0.070805 0.046980 0.096072 -0.092542 -0.123710 -0.100801 0.021151 0.051898 -0.049843 -0.099519 0.032713 -0.065628 0.222875 -0.069759 -0.046440 0.175093 0.003947 -0.261012 0.140819 -0.007293 -0.216258 0.254804 -0.009042 -0.107187 0.121258 -0.099936 -0.309744 0.051418 0.258148 0.027608 -0.071431 0.548480 0.486908 -0.102287 0.080732 0.399688 -0.025061 0.189390 -0.056877 -0.141793 0.003253 -0.031357 -0.043638 0.212785 0.107651 -0.073471 -0.060751 0.143548 -0.120397 -0.007579 0.020847 0.037798 0.456854 0.469714 -0.108006 -0.095370 0.130195 0.294366 0.214467 0.251017 -0.425320 0.257970 0.212955 0.306180 -0.080977 -0.123496 0.066479 -0.060913 -0.128654 -0.072429 0.157898 0.225459 0.114837 0.077873 0.120279 0.276506 0.108387 -0.141744 -0.189518 0.307760 0.105045 -0.105809 -0.131910 0.370033 -0.124410 0.140670 -0.134178 -0.187260 -0.016517 0.186637 -0.027703 -0.209775 -0.236110 0.159282 0.230771 0.037283 0.019689 0.112439 0.218672 0.147389 -0.136712 0.186859 -0.111454 0.041202 0.407785 -0.214267 0.294749 0.127307 -0.232066 0.098781 -0.064473 -0.041597 0.001503 -0.186315 -0.081764 -0.313325 0.063575
NC_020202 -0.030628 0.074013 0.195184 -0.207317 0.094293 0.138933 0.031740 -0.121427 -0.162646 -0.071772 0.266961 0.086088 -0.185419 -0.016853 -0.057475 0.216509 0.083305 0.138366 0.006509 -0.338728 -0.115698 0.094163 0.215495 0.135430 0.065838 -0.035676 0.257195 -0.070322 -0.159886 0.331469 0.017557 -0.218193 0.078015 0.072064 -0.040335 -0.287548 -0.152470 -0.323263 0.070765 -0.127659 -0.317115 0.039061 0.361027 0.510887 0.074946 -0.056909 0.145656 0.126171 0.025449 -0.383868 -0.070508 -0.049491 0.019602 0.312355 -0.085438 0.005984 -0.243679 -0.082310 -0.016799 0.090051 -0.137215 -0.012982 0.246263 0.196704 0.130609 0.089070 -0.404088 0.333373 0.068483 -0.189469 0.327774 -0.518628 0.119888 0.056066 -0.005421 0.120564 -0.087418 0.188783 -0.270957 -0.396074 -0.011556 -0.164347 0.063880 0.029622 -0.334971 0.100803 0.299104 0.127979 -0.414846 -0.314517 -0.104551 -0.198127 -0.170767 -0.339858 0.245555 0.040016 0.242396 0.138043 -0.067438 -0.059372 0.236873 -0.107631 -0.188617 -0.173000 -0.072829 -0.080586 0.461618 0.108114 -0.096790 0.261711 0.129138 -0.053954 0.284087 -0.199737 0.116994 0.065861 0.096165 0.284813 0.314984 -0.081076 -0.262928 0.025503 -0.050213 -0.091513 -0.193799 0.226427 -0.160977 0.129741
CP016497.1 0.151756 0.083600 0.110170 0.098824 0.040266 0.049754 -0.048488 -0.054257 -0.215158 -0.164013 0.106622 0.005549 0.092990 0.087434 -0.098861 -0.130513 0.187707 -0.090057 -0.177538 -0.103368 -0.006640 0.273243 -0.011364 -0.027995 0.156004 -0.065531 0.024421 0.080559 0.040181 0.260711 0.159971 -0.023987 -0.198795 -0.097603 -0.106839 -0.055459 -0.053884 -0.015603 0.136046 -0.058745 0.083209 -0.097406 0.228926 0.157250 -0.059095 -0.124660 0.212991 0.043238 -0.092472 -0.021381 0.179296 0.033388 0.127219 0.189420 -0.202314 -0.049740 -0.178481 -0.076002 0.061509 0.032690 0.153988 -0.147514 0.101857 0.028830 -0.009079 -0.247383 -0.064679 0.006043 -0.092652 -0.181256 0.082438 -0.123924 -0.046634 0.048694 -0.033891 -0.092632 -0.037938 0.025746 -0.051973 0.057262 0.020603 0.159602 0.165364 0.193409 -0.096648 0.009755 0.146256 0.056764 0.014923 -0.051970 0.135165 0.197100 0.058331 -0.127596 0.069705 -0.340917 0.118534 0.213446 0.077494 -0.119564 0.140147 0.007696 -0.112092 -0.108444 0.040294 0.071170 -0.109887 -0.046058 0.078738 0.153246 -0.120846 -0.066182 0.277477 -0.139541 0.149712 -0.088783 -0.148692 -0.032366 0.148714 -0.097867 0.053786 -0.175445 -0.072704 -0.143708 -0.079740 0.237328 -0.230320 0.183230
CP013837.1 0.081249 -0.007233 0.095120 -0.042904 0.012760 0.017445 -0.029151 -0.072589 -0.161501 -0.099966 0.087066 -0.058606 -0.014190 0.095204 -0.145362 0.068582 0.027416 0.031794 0.047996 -0.184632 0.015958 0.102555 0.020333 -0.044039 0.047687 -0.032497 -0.024815 -0.129748 0.013411 0.259955 0.105780 -0.060542 0.019264 -0.085083 -0.082186 0.011202 -0.075099 0.041472 0.136380 0.069303 0.023413 -0.126400 0.300737 0.215134 -0.065565 -0.098699 0.252201 -0.026891 0.036934 -0.082280 0.087356 -0.024724 0.052863 0.160704 -0.074806 0.043500 -0.094927 -0.113773 0.085756 -0.100979 0.005652 0.061072 0.116753 0.124653 0.035943 -0.053796 -0.083979 -0.032727 -0.032399 -0.020748 0.009618 -0.170618 -0.033631 0.012494 0.007336 0.103882 0.206341 0.087206 -0.161966 0.021514 0.101818 0.105802 0.155070 0.179179 -0.029169 -0.025510 0.164988 0.028368 -0.121208 0.015366 0.015863 0.044132 -0.037032 -0.227392 0.105648 -0.244407 0.056835 0.104403 0.017852 -0.004633 -0.031583 0.050655 -0.005032 0.012012 0.146061 0.003004 -0.071283 -0.108550 0.041563 -0.004241 0.115186 0.023938 0.107057 -0.188697 0.122420 0.130927 -0.101958 0.076864 0.021177 -0.141910 -0.088134 -0.034849 -0.027554 0.087890 -0.171993 0.130561 -0.082472 -0.002847
CP010315.1 0.060092 0.040542 0.112007 -0.016733 -0.011474 -0.000004 0.010976 -0.103431 -0.129287 -0.121270 0.076537 -0.085416 0.008221 0.102380 -0.110655 0.018578 -0.037221 0.008996 0.045411 -0.177139 0.008759 0.138716 0.005888 -0.063093 0.009604 -0.031950 0.012419 -0.168260 0.033940 0.260649 0.068410 -0.099635 0.026755 -0.022583 -0.095598 -0.026921 -0.086334 -0.065019 0.143203 0.072873 -0.025616 -0.102483 0.284637 0.230460 -0.074000 -0.077694 0.251438 -0.044812 0.076394 -0.122569 0.051874 -0.000736 0.112109 0.071891 -0.013489 0.086034 -0.069976 -0.113853 0.064022 -0.107924 0.043100 0.080770 0.142646 0.105447 0.127222 -0.064710 -0.143445 -0.005051 -0.002657 0.029979 0.033355 -0.261096 -0.021454 0.033449 -0.078604 0.075694 0.155392 0.133573 -0.132014 -0.010842 0.034823 0.075585 0.126857 0.168355 -0.072581 0.020866 0.173411 0.012747 -0.118878 0.000434 -0.003210 0.012738 -0.041526 -0.178899 0.129851 -0.206165 0.121376 0.064170 -0.061640 0.050246 0.004954 0.025836 -0.050043 -0.003273 0.122319 0.007654 0.007040 -0.063584 0.041788 -0.012816 0.052533 0.059071 0.108297 -0.239446 0.136003 0.175769 -0.078187 0.050668 0.052756 -0.128300 -0.121988 -0.008927 -0.046955 0.019800 -0.209976 0.168828 -0.099958 -0.014633
NC_009552 -0.210903 0.119922 -0.219441 0.026063 0.091327 0.145423 0.045892 0.176579 -0.330123 0.132163 0.210866 0.059604 -0.046250 -0.022667 -0.004882 0.087122 -0.107625 -0.056229 0.217960 -0.354183 -0.093952 -0.056579 -0.004999 -0.165181 0.224469 -0.098559 -0.042013 -0.016231 -0.219003 0.187729 -0.255465 -0.128734 0.145915 -0.450517 -0.018817 0.127204 0.066093 0.253492 0.056371 -0.060037 0.200905 -0.428330 0.376280 0.309889 0.026048 0.161391 0.438063 0.269253 0.381286 -0.331741 0.031561 0.288212 -0.186351 0.394712 0.125433 -0.054093 -0.280866 -0.193235 0.117788 -0.178995 -0.175944 0.125629 -0.050222 0.201559 -0.024462 -0.140718 0.045745 0.037781 0.012592 -0.429275 0.333800 -0.013697 -0.256597 0.035878 -0.029692 0.025633 0.142286 0.067627 0.193392 0.132300 0.278283 0.210564 0.119327 0.101042 0.171122 -0.201621 0.198727 -0.471385 0.020026 -0.097694 0.286353 -0.012384 -0.094602 -0.450911 0.199850 -0.421220 -0.127692 0.070151 -0.111463 -0.127399 -0.138777 0.067001 0.137868 -0.031005 0.381533 -0.008733 -0.244243 -0.452605 0.201115 0.021472 -0.009755 -0.136959 0.129732 -0.128152 0.006643 0.183086 -0.269845 0.427689 0.010153 -0.014222 0.052909 -0.219394 -0.274650 0.143153 -0.060056 0.135449 0.017257 0.052478
CP014488.1 0.057717 0.062409 0.119941 0.061270 0.015715 -0.038017 0.043393 -0.040043 -0.152582 -0.113634 0.062511 -0.110540 0.028128 0.124259 -0.170198 0.019797 -0.030668 -0.034759 0.084323 -0.138331 0.018750 0.205754 -0.001175 -0.041918 0.077735 -0.064758 0.042719 -0.091812 0.074226 0.265824 0.162691 -0.050067 -0.020357 0.037146 -0.146376 0.029422 -0.123183 -0.038710 0.095592 0.026646 0.045275 -0.059551 0.219919 0.178094 -0.154244 -0.079210 0.302988 -0.018265 0.065932 -0.048219 0.096992 -0.055146 0.140611 0.094078 -0.056981 0.046294 -0.076962 -0.078654 0.064023 -0.105012 0.025512 0.025529 0.172595 0.077715 0.109413 -0.133486 -0.068077 -0.016096 -0.095275 -0.016561 0.012376 -0.244395 -0.068375 -0.002168 -0.070527 0.019927 0.159647 0.140563 -0.122407 -0.007356 0.028144 0.169365 0.165766 0.130871 0.004271 0.001234 0.147657 0.060599 -0.080413 0.002802 0.023571 0.055330 -0.028496 -0.199993 0.083031 -0.285632 0.148674 0.144092 -0.002923 0.010888 0.002572 0.015229 -0.021220 0.029728 0.044730 0.037534 -0.054229 -0.114226 0.062444 0.048793 0.049923 0.022192 0.092496 -0.228421 0.098675 0.123053 -0.097332 0.026246 0.054396 -0.114876 -0.065915 -0.053364 -0.030658 -0.048096 -0.213405 0.171608 -0.047576 -0.016705
CP015995.1 0.063270 0.006558 0.094861 -0.073624 -0.035734 -0.006411 -0.049588 -0.059312 -0.178363 -0.158647 0.138823 -0.078099 -0.038183 0.119736 -0.115160 0.090684 0.021534 0.094596 -0.003087 -0.220361 -0.029057 0.123527 -0.010541 -0.004529 0.009884 -0.060809 -0.037573 -0.066232 -0.029725 0.260516 0.155237 -0.074765 0.067997 -0.051821 -0.051688 0.015086 -0.116652 -0.031430 0.156843 0.070672 0.018779 -0.043539 0.285152 0.241908 -0.130706 -0.037242 0.271957 -0.026879 0.069498 -0.093922 0.089645 -0.006515 0.062307 0.146869 -0.072790 0.064008 -0.176999 -0.082149 0.057705 -0.067626 -0.000177 0.045405 0.083955 0.141866 0.042997 -0.006482 -0.119563 -0.028201 0.012146 -0.009153 0.070159 -0.194652 -0.009933 0.007237 -0.037655 0.059005 0.165388 0.168778 -0.147041 0.017325 0.024566 0.046701 0.136527 0.162285 -0.033970 -0.012874 0.220811 -0.018617 -0.136588 0.001656 0.058419 0.062299 -0.048664 -0.181888 0.174446 -0.247821 0.086615 0.135818 -0.018080 0.014241 0.060805 0.053122 -0.058731 -0.015843 0.057553 0.032966 -0.004186 -0.098923 0.075011 -0.002723 0.136454 0.043823 0.138478 -0.110092 0.092306 0.122285 -0.071339 0.143558 0.104606 -0.143465 -0.081342 -0.009072 0.051271 0.078846 -0.193861 0.161017 -0.087769 0.009708
CP010876.1 0.100980 0.089790 0.064394 0.107848 0.050831 0.057135 -0.117610 -0.106775 -0.091483 0.012734 -0.022924 -0.064845 0.085919 0.014497 -0.120033 -0.156669 -0.086230 -0.138938 0.148346 -0.128056 0.082079 0.194158 0.092285 -0.015059 0.204554 0.057621 0.027847 -0.179498 0.194443 0.283855 0.057570 -0.080269 -0.092118 -0.062229 -0.188772 -0.008852 -0.057477 -0.076732 0.088231 0.006565 0.075846 -0.151056 0.205819 0.324282 0.001947 -0.242052 0.310075 -0.121103 -0.001556 -0.169350 0.088111 0.057604 0.143764 0.009822 0.097894 0.061024 -0.003263 -0.151829 0.123227 -0.198004 0.116015 0.026761 0.038043 0.060503 0.163379 -0.236591 -0.269718 0.086230 -0.066525 -0.086244 0.104999 -0.232845 -0.009419 0.079697 0.060423 0.042161 0.008782 0.134284 0.009808 -0.014392 0.129279 0.228878 0.234570 0.189259 0.026391 0.096228 0.149802 0.017110 0.055622 -0.042967 -0.035485 0.037396 0.116946 -0.147423 -0.058450 -0.175280 0.041893 0.155658 -0.073462 0.025185 0.105663 -0.010454 0.044901 -0.027806 0.192412 -0.010729 -0.126570 0.000506 0.075535 0.144500 -0.091750 -0.030894 0.175212 -0.428887 0.099134 0.116058 -0.077233 -0.145262 0.092165 -0.104375 -0.038679 -0.228583 -0.198084 -0.170592 -0.124108 0.195078 -0.134003 0.110835
CP015138.1 0.001849 0.064296 0.037178 0.001467 0.030830 0.024085 0.105027 -0.050670 -0.177966 -0.096759 0.091402 -0.003811 -0.001039 0.060497 -0.131290 -0.007335 -0.019982 -0.031206 0.028102 -0.209910 -0.071625 0.127204 0.009603 0.018570 0.035136 -0.063394 0.069199 -0.016337 -0.026815 0.160591 -0.015868 -0.083395 0.003062 -0.062903 -0.037683 0.003969 -0.064860 0.022263 0.088834 0.060577 0.023543 -0.122175 0.316031 0.255815 -0.075244 0.007516 0.225372 0.033448 0.078050 -0.102063 0.030379 0.014858 0.060148 0.140318 -0.055835 0.025910 -0.096129 -0.103886 0.016118 0.001542 -0.019562 0.003163 0.126377 0.144530 0.129719 -0.115908 -0.069641 0.076080 0.022551 -0.004260 0.099644 -0.209674 -0.017821 0.040158 0.007464 0.022719 0.080723 0.061538 -0.118192 -0.069825 0.048155 0.131811 0.160915 0.128901 -0.043491 0.010473 0.217572 0.043533 -0.051689 -0.039786 0.068892 0.038317 -0.086266 -0.227310 0.139772 -0.233657 0.144605 0.066242 0.002546 -0.082121 -0.043310 -0.021095 -0.072745 -0.071795 0.085580 0.032254 -0.082287 -0.122434 0.042260 0.101215 0.064744 -0.066751 0.149481 -0.191703 0.147653 0.148486 -0.174081 0.168071 0.021227 -0.071282 0.006516 -0.077222 -0.058277 -0.021113 -0.122078 0.138503 -0.152084 0.061882
CP015241.1 0.071703 0.005821 0.124809 -0.032780 0.042068 0.040080 -0.003148 -0.070395 -0.225394 -0.110004 0.112235 -0.067297 -0.009918 0.104129 -0.119552 0.079058 -0.016280 -0.011130 0.081574 -0.203037 0.047936 0.130595 0.040832 -0.015922 0.060697 0.003440 -0.032986 -0.171381 0.010583 0.229915 0.050229 -0.036183 0.014714 -0.068003 -0.098739 0.040031 -0.036146 0.003390 0.142572 0.083974 -0.004287 -0.158716 0.292897 0.252427 -0.032591 -0.083287 0.206558 -0.018710 0.026522 -0.082574 0.140403 -0.034289 0.041893 0.140578 -0.031835 0.047759 -0.125080 -0.099874 0.068383 -0.071881 0.008516 0.066181 0.149631 0.140346 -0.022533 -0.041166 -0.081856 -0.009059 -0.022784 -0.026545 0.064802 -0.178015 -0.036896 0.009653 0.045345 0.124005 0.222371 0.100260 -0.168306 -0.013438 0.094011 0.090225 0.137953 0.179879 -0.043881 -0.051773 0.206267 -0.021243 -0.116228 0.008486 0.010450 0.022649 0.011644 -0.202720 0.077542 -0.243311 0.066333 0.085545 0.014948 -0.031381 -0.031923 0.064153 0.036079 0.007128 0.156278 0.045677 -0.089899 -0.153429 0.063104 0.019072 0.116874 0.046776 0.113970 -0.221575 0.121468 0.119718 -0.120602 0.095528 0.061507 -0.158993 -0.125068 -0.041513 -0.083119 0.089361 -0.195499 0.125130 -0.103224 0.000385
CP011495.1 -0.028295 0.108866 0.029986 0.148496 -0.071767 -0.008395 0.025691 -0.123485 -0.055798 -0.085333 0.014364 -0.084395 0.107010 0.138267 -0.015119 -0.180664 -0.033017 -0.073968 0.022387 -0.078520 -0.001176 0.191447 -0.158278 0.037218 0.024712 -0.009468 0.096211 -0.072553 -0.117673 0.197713 0.066856 -0.171004 0.099113 -0.038673 -0.180080 0.021621 -0.054074 -0.222931 0.086036 0.049810 0.039448 -0.113835 0.254494 0.198823 -0.149666 0.089580 0.344403 0.019903 0.228604 -0.126962 0.026782 0.048936 0.136058 -0.033139 0.086267 0.053119 -0.077284 -0.112818 0.080537 -0.237422 0.086296 0.016382 0.168012 0.112195 0.283217 -0.236767 -0.024671 0.038192 0.035492 0.049392 0.176866 -0.294201 -0.043051 0.075824 -0.141367 -0.025638 -0.039824 0.067571 0.075701 0.035616 -0.038197 0.136443 0.163483 0.099963 0.026199 0.027596 0.167285 -0.081665 -0.045746 -0.105133 0.192634 0.034546 -0.035424 -0.136104 0.238718 -0.202946 0.216605 -0.070845 -0.159142 -0.011421 0.150748 -0.022447 -0.134254 -0.096845 0.170070 0.099873 0.046580 -0.046572 0.240338 0.055625 -0.096685 -0.029586 0.129441 -0.169734 0.043172 0.131545 -0.112086 0.101944 0.111662 -0.197390 0.051391 -0.077540 -0.147720 -0.158082 -0.138432 0.140737 -0.076967 -0.049159
CP013253.1 -0.030205 0.027602 0.013781 0.151496 -0.167352 0.007145 0.088440 -0.054866 -0.021419 -0.159837 -0.011048 -0.052200 0.223763 0.167677 0.048802 -0.141334 -0.019439 -0.038066 -0.069287 -0.129292 0.026739 0.234864 -0.157929 -0.076758 0.027081 0.112420 0.068349 0.004176 -0.085608 0.206456 0.044370 -0.041063 0.009245 0.001276 -0.135704 0.082906 -0.108497 -0.077918 0.089756 0.069773 -0.003540 -0.104077 0.320321 0.159133 -0.059070 0.030821 0.251737 -0.102649 0.099245 0.013943 0.098217 0.068307 0.025583 -0.162013 -0.053537 -0.001009 -0.121315 -0.131646 -0.024050 -0.101715 0.203083 -0.055688 0.160313 0.117267 0.232295 -0.332157 0.075695 0.040159 0.032875 0.241252 0.059692 -0.153354 0.005954 0.066103 -0.042195 -0.110726 -0.125687 0.056512 0.017915 -0.073958 0.021632 0.051751 0.217038 0.063142 0.093024 0.053957 0.236268 0.055758 0.045354 -0.074975 0.260971 0.067354 -0.080642 -0.028731 0.270720 -0.265094 0.222715 -0.115630 -0.089315 -0.274695 0.080026 -0.032259 -0.198200 -0.209161 0.104069 0.182320 -0.167410 -0.069039 0.289208 0.069430 -0.077621 -0.183059 0.282424 -0.124040 0.103272 0.160045 -0.294086 0.265169 0.147690 -0.233804 0.144503 -0.124634 -0.107064 -0.105566 -0.073471 0.152227 -0.164258 0.061752
NC_007409 0.249503 0.159035 0.069949 0.157224 0.127986 0.083585 -0.049382 -0.052785 -0.269171 -0.185581 0.134414 0.180137 0.153825 0.095330 -0.088353 -0.101562 0.331003 -0.137568 -0.320837 -0.226996 -0.070935 0.417799 -0.017019 0.084075 0.230535 -0.052203 0.018604 0.196232 -0.007580 0.212613 0.159677 0.036201 -0.349674 -0.231644 -0.006544 -0.054783 -0.037162 0.074021 0.169231 -0.093788 0.105308 -0.158718 0.216704 0.122340 -0.012543 -0.103195 0.113378 0.080434 -0.224142 -0.046220 0.294063 0.103252 0.159326 0.266503 -0.344093 -0.126746 -0.258918 -0.085410 0.000061 0.206288 0.165661 -0.320213 0.101273 -0.013518 -0.188655 -0.339312 -0.092595 0.099949 -0.114853 -0.209849 0.201952 0.045586 -0.064467 0.008434 0.024345 -0.156772 -0.092247 -0.039925 -0.017130 0.072703 0.093289 0.142678 0.231048 0.265274 -0.077788 0.062734 0.250089 0.053953 0.126386 -0.060567 0.170039 0.296943 0.077864 -0.157640 0.039023 -0.454031 0.090070 0.291075 0.182299 -0.261724 0.185809 0.056867 -0.163572 -0.247661 0.009742 0.076505 -0.239799 -0.096330 0.193819 0.212100 -0.122768 -0.121522 0.474912 -0.050813 0.129930 -0.214646 -0.215513 0.020309 0.205796 -0.028774 0.142712 -0.255041 -0.045481 -0.146724 0.051873 0.342118 -0.314876 0.370648
CP011416.1 0.087732 -0.040425 0.113948 0.000167 -0.132168 -0.067745 0.001458 -0.105252 -0.136881 -0.130040 0.013807 -0.060985 0.048376 0.183098 -0.115163 0.034634 0.024523 0.057280 0.026761 -0.201272 -0.059844 0.146225 -0.084403 -0.123266 0.037289 0.018265 -0.005655 -0.092267 0.040015 0.278752 0.155800 -0.103682 0.067775 -0.024763 -0.095568 0.040246 -0.175303 -0.073869 0.059275 0.079073 0.014846 -0.092430 0.301039 0.177814 -0.140758 0.009362 0.354998 -0.081517 0.114710 -0.087571 0.058316 0.016391 0.110529 0.075532 -0.090201 0.069405 -0.024266 -0.158161 0.011118 -0.123667 0.008335 0.044945 0.162118 0.072884 0.172487 -0.121096 -0.079682 -0.037502 -0.036714 0.100806 0.055000 -0.204812 -0.077090 0.001004 -0.058851 0.030131 0.151001 0.123329 -0.129275 0.000864 0.079530 0.069390 0.157933 0.161102 0.014966 0.043834 0.129661 0.042651 -0.123484 0.005654 0.077617 0.083289 -0.118467 -0.155190 0.191952 -0.237493 0.116228 0.053158 -0.067508 0.075151 0.031434 0.066061 -0.065651 -0.035462 0.123273 -0.051036 0.041446 -0.095386 0.054238 -0.062776 0.009134 0.008866 0.105274 -0.151736 0.080221 0.252054 -0.094276 0.071104 0.023938 -0.141568 -0.047757 0.016499 0.094662 0.026931 -0.230328 0.156018 -0.063656 -0.008214
CP013663.1 0.114657 0.018886 0.119280 -0.061136 -0.001131 -0.001529 -0.047403 -0.138321 -0.151135 -0.111425 0.095551 -0.017967 0.038303 0.107929 -0.097170 0.065576 0.044575 0.028514 -0.012067 -0.178906 0.004072 0.135596 -0.001666 -0.022122 0.007290 -0.037646 -0.055741 -0.119114 -0.052059 0.201616 0.061994 -0.106819 0.010515 -0.127338 -0.042879 0.009554 -0.088567 -0.047654 0.174096 0.095920 0.003186 -0.142754 0.318326 0.222111 -0.032961 -0.054384 0.185997 0.008331 0.027689 -0.080008 0.052794 0.018940 0.046059 0.142698 -0.066497 0.052521 -0.108184 -0.126183 0.110816 -0.048897 0.060147 0.013939 0.102051 0.137303 0.004322 -0.050455 -0.130668 -0.010969 0.020890 0.049546 0.087095 -0.179251 -0.006890 0.029408 0.001689 0.077279 0.164621 0.071307 -0.112171 0.027269 0.110377 0.054118 0.137281 0.213331 -0.058520 0.015120 0.215607 0.035306 -0.114451 0.001598 0.020180 0.068520 0.010681 -0.222305 0.135344 -0.246426 0.050963 0.032084 -0.011099 0.016634 0.036908 0.068826 -0.062067 -0.056673 0.147240 0.018039 -0.078285 -0.063187 0.088375 -0.035217 0.093307 0.067404 0.196895 -0.158936 0.093148 0.133585 -0.099441 0.069578 0.065544 -0.163781 -0.112088 -0.033211 -0.033133 0.092519 -0.156689 0.136575 -0.129620 0.052430
NC_003291 0.157789 -0.184405 0.001851 -0.078120 -0.326957 0.323518 -0.087583 -0.322350 -0.179743 -0.243132 0.257045 -0.179704 0.131130 0.023800 0.103344 -0.433330 0.025045 0.015108 -0.239000 -0.192515 0.051404 0.054223 -0.049116 -0.497451 -0.074741 0.211737 -0.030921 -0.178717 0.184725 0.383269 -0.069622 0.001835 0.013545 -0.094769 -0.089342 -0.075480 -0.027594 0.201110 0.341811 -0.026015 -0.119373 -0.126738 0.344414 0.214974 0.066959 -0.267308 0.143196 -0.322802 0.055434 -0.077511 0.203818 0.234466 -0.088000 -0.100558 -0.123925 -0.018426 0.004231 -0.190457 -0.040213 -0.024437 0.311893 0.163095 0.071154 0.057302 0.263277 -0.169439 -0.066723 -0.080687 0.163922 0.038425 -0.271171 0.009864 0.044276 0.126517 -0.081210 0.122048 -0.075595 0.055181 -0.269181 0.044993 -0.084589 0.022470 0.252175 0.205031 -0.121330 0.006978 0.178618 -0.011163 0.073707 0.111245 0.063451 0.154615 -0.190336 0.159097 0.168009 -0.048897 0.131242 -0.082509 0.018676 -0.353528 -0.071256 -0.117449 -0.028305 -0.069913 0.337720 -0.006362 -0.160410 -0.034784 0.051768 -0.031955 -0.265128 -0.240023 0.245661 -0.232714 0.528155 0.153610 -0.220305 0.158231 -0.038560 -0.337185 0.210148 -0.232250 0.031039 0.010653 -0.154979 0.355270 -0.328828 0.021201
CP015350.1 0.105503 0.004309 -0.045767 0.069053 -0.118050 0.299939 0.092450 -0.096731 -0.100576 -0.188697 0.270412 -0.127248 0.180738 -0.030508 0.048796 -0.357325 -0.064292 -0.088430 -0.196736 -0.383482 0.009345 0.330312 0.035302 -0.370533 -0.007959 0.121550 0.152647 -0.217560 0.262375 0.365306 -0.134190 0.117767 -0.063677 0.032739 -0.056810 -0.171800 -0.091327 0.288527 0.269614 -0.056966 -0.162905 -0.105105 0.215972 0.193806 -0.065494 -0.313745 0.109301 -0.265965 -0.024833 -0.219979 0.273209 0.263147 0.082600 -0.129263 -0.041624 -0.042896 0.078770 -0.167620 -0.155245 0.112551 0.190631 0.072016 0.183946 0.000285 0.317836 -0.334473 -0.127716 0.049704 0.013293 0.113939 -0.242194 0.002509 0.003588 0.055156 -0.113524 0.019804 -0.063769 0.101879 -0.259290 -0.091003 -0.098271 0.097915 0.309541 0.154442 0.031996 0.211199 0.174487 0.103330 0.197583 0.121496 -0.079331 0.112525 -0.297586 0.084845 0.061017 -0.119785 0.203128 -0.024487 0.100212 -0.399096 -0.193924 -0.121307 -0.069121 -0.139986 0.251878 0.035345 -0.155553 -0.159250 0.082700 0.084495 -0.194160 -0.247410 0.302239 -0.333533 0.461161 0.230486 -0.262322 0.272200 -0.097832 -0.099251 0.292288 -0.180422 -0.019659 -0.084430 -0.124701 0.375397 -0.281626 0.100758
CP014522.1 0.033250 0.068890 0.069862 0.024435 0.061581 -0.010125 0.072747 -0.026556 -0.184198 -0.104466 0.032384 0.013166 0.008904 0.081414 -0.159371 0.045929 -0.008297 -0.051446 0.061848 -0.183049 -0.020683 0.159538 0.041559 0.056259 0.090122 -0.037106 0.018368 0.007391 0.021053 0.165550 0.039599 -0.046309 -0.088225 -0.066449 -0.061963 0.062418 -0.065739 0.037573 0.080804 0.074197 0.061356 -0.126015 0.311448 0.251177 -0.030100 -0.055436 0.194855 0.001003 -0.019103 -0.019018 0.069874 -0.037742 0.060279 0.119169 -0.115356 0.027363 -0.123515 -0.104568 0.026965 0.023677 0.031916 -0.045331 0.088313 0.131873 0.017906 -0.126769 -0.082694 0.079349 -0.024507 0.010630 0.082699 -0.172486 -0.014273 0.014331 0.079532 -0.000761 0.092669 0.083592 -0.103855 -0.077503 0.111880 0.142510 0.184339 0.148414 -0.034321 0.000740 0.250825 0.081456 -0.014367 -0.016047 0.059794 0.062306 0.010146 -0.224914 0.065887 -0.296317 0.109432 0.143604 0.041545 -0.104020 -0.019724 0.012812 -0.047463 -0.071597 0.015926 0.053532 -0.205777 -0.102893 0.069479 0.125782 0.103486 -0.054309 0.196342 -0.217181 0.123767 0.085885 -0.194384 0.100374 0.070996 -0.076012 -0.042478 -0.109960 -0.071726 -0.018843 -0.091199 0.156595 -0.155643 0.119030
CP011324.1 0.089846 -0.148137 0.009686 0.035124 -0.391728 0.101595 -0.058292 -0.287872 -0.245837 -0.194681 0.084563 -0.007379 0.063222 0.142353 0.003826 -0.233182 0.094738 0.092646 -0.143420 -0.213613 -0.091748 0.038491 -0.153284 -0.290133 -0.022552 0.245500 -0.026266 0.149543 0.112064 0.294279 0.060182 -0.115215 -0.017019 -0.128826 -0.046619 0.095172 -0.063891 0.152991 0.135798 0.033351 0.025114 -0.123427 0.404203 0.206797 0.064413 0.033541 0.325226 -0.304753 0.115849 0.044551 0.131840 0.096779 -0.038845 0.003085 -0.294871 0.042870 -0.038734 -0.243897 -0.143706 0.018333 0.199740 0.065796 0.028790 0.048078 0.166652 -0.172773 0.031218 0.035664 0.119465 0.050725 -0.057925 0.012862 -0.106718 0.022669 -0.007757 0.059243 -0.017906 0.089282 -0.182365 0.004225 0.101035 0.019292 0.376183 0.177228 -0.053704 -0.039589 0.275807 -0.012387 0.111733 0.064279 0.204278 0.225644 -0.154886 0.006141 0.196863 -0.191791 0.143679 0.089833 0.024421 -0.271232 -0.001187 0.000995 -0.049406 -0.152744 0.168763 -0.132212 -0.192615 -0.076780 0.104106 -0.027192 -0.152821 -0.295103 0.252320 -0.122158 0.371664 0.117750 -0.274168 0.134792 0.004393 -0.250187 0.208939 -0.279446 0.232093 -0.052749 -0.103322 0.403064 -0.290349 0.146897
NC_009819 0.220777 -0.264779 0.130629 -0.384230 -0.257708 0.290011 -0.460440 -0.295079 -0.165335 -0.297938 0.319021 -0.473674 0.118836 0.144086 0.099746 -0.153873 -0.024459 0.113923 -0.023517 -0.205691 0.227083 0.044921 0.038752 -0.388097 0.099998 0.286851 -0.341276 -0.412400 0.153491 0.554417 0.235178 0.030432 0.166347 0.014548 -0.228160 0.058883 -0.223522 -0.103644 0.483546 0.005035 -0.047720 0.007283 0.359737 0.497152 -0.012921 -0.482812 0.204533 -0.330244 -0.027662 -0.030601 0.353767 0.105192 -0.192805 -0.070842 -0.028435 -0.056807 -0.388179 -0.093418 0.224896 -0.289930 0.384860 0.215526 -0.008877 0.199125 -0.002839 -0.000164 -0.258803 -0.266613 0.066716 -0.024976 -0.147163 -0.245018 0.152654 0.187823 0.099517 0.271686 0.048544 0.195174 -0.289623 -0.002904 -0.073916 -0.037474 -0.019514 0.234317 -0.188957 -0.141800 0.269496 -0.059022 -0.321774 0.041488 0.143426 0.028704 0.161560 0.229665 0.183109 0.013735 -0.018633 -0.037608 -0.143889 -0.219547 0.227216 -0.046727 0.096749 0.103319 0.276879 0.197484 -0.130308 0.044597 0.139117 -0.115369 -0.051264 -0.014134 0.230736 -0.323598 0.250754 0.084919 0.005858 0.105091 0.333980 -0.590040 -0.217106 -0.115802 -0.109487 0.120847 -0.335314 0.172802 -0.183429 -0.177382
NC_005258 0.128842 -0.223273 0.256018 -0.314081 -0.306317 0.102636 -0.223112 -0.105176 -0.184014 -0.345333 0.285772 -0.402020 0.212388 0.291401 0.147058 0.092714 -0.142557 0.128300 0.057378 -0.365318 0.189285 0.267501 0.001896 -0.317194 0.056749 0.325830 -0.233324 -0.459948 0.073029 0.454990 0.194956 0.050145 0.195195 0.237767 -0.232346 0.148385 -0.296992 -0.307399 0.331373 0.138413 -0.212548 -0.046959 0.302537 0.506350 -0.033473 -0.259353 0.247900 -0.356861 -0.023437 -0.104688 0.407695 0.112522 -0.120059 -0.167191 0.084145 -0.035142 -0.383172 -0.115637 0.050938 -0.166352 0.220666 0.227236 0.180256 0.190668 0.001874 -0.087324 -0.233009 -0.181005 0.062199 0.265228 0.090807 -0.284520 0.157028 0.070840 0.101700 0.150904 0.173630 0.395445 -0.323913 -0.191572 -0.085952 -0.189247 -0.068144 0.187951 0.052876 0.067024 0.298807 -0.027674 -0.383188 0.058887 0.048017 0.002575 0.008820 0.256917 0.292723 0.022387 0.125835 -0.154249 -0.223792 -0.192894 0.214770 0.086751 0.039247 -0.091856 0.225360 0.249658 0.108883 -0.113904 0.252187 -0.114142 0.057584 0.036346 0.189541 -0.231186 0.031861 0.279637 -0.045512 0.382936 0.342219 -0.553809 -0.278991 0.044476 -0.040426 0.067969 -0.517202 0.156372 -0.054472 -0.139292
CP012127.1 0.212912 -0.218919 0.159235 -0.348927 -0.251625 0.193723 -0.370273 -0.195357 -0.132498 -0.288759 0.288775 -0.389330 0.142349 0.174255 0.110417 -0.015405 -0.057627 0.136906 -0.007165 -0.313462 0.194601 0.171795 0.029820 -0.334425 0.063308 0.289509 -0.312051 -0.443074 0.121946 0.490530 0.210655 0.042490 0.168524 0.070131 -0.194740 0.072095 -0.250078 -0.140339 0.418917 0.083085 -0.114676 -0.037780 0.310830 0.461911 -0.035509 -0.390221 0.202262 -0.350450 -0.045902 -0.109288 0.362941 0.137345 -0.132319 -0.093021 0.016170 -0.045401 -0.336944 -0.135311 0.138233 -0.215694 0.296693 0.211150 0.046852 0.152370 -0.025774 -0.033481 -0.278704 -0.224659 0.036717 0.131018 -0.042357 -0.207085 0.128707 0.113065 0.087679 0.222857 0.140268 0.285805 -0.280933 -0.056811 -0.047466 -0.100635 -0.019807 0.235466 -0.045428 -0.002976 0.256847 -0.039939 -0.301250 0.080319 0.052102 0.027339 0.075466 0.216356 0.208159 0.012982 0.008202 -0.097566 -0.170338 -0.168557 0.183953 0.028688 0.071433 0.011097 0.266925 0.165429 -0.028394 -0.042819 0.196938 -0.147764 0.015539 0.039905 0.206709 -0.274539 0.129973 0.178005 0.003352 0.211979 0.278668 -0.516465 -0.235477 -0.026551 -0.039826 0.121106 -0.378022 0.177431 -0.091300 -0.138001
CP012126.1 -0.012937 0.032953 0.184164 -0.124376 0.072518 0.117764 -0.007932 -0.109382 -0.209629 -0.118098 0.215796 -0.001010 -0.140658 0.027499 -0.096231 0.163251 0.104337 0.100875 -0.005194 -0.252685 -0.044038 0.065142 0.157410 0.021961 0.097679 -0.044195 0.155304 -0.057647 -0.059459 0.329380 0.088912 -0.126515 0.000441 0.015889 -0.072900 -0.209703 -0.111110 -0.150576 0.094814 -0.137448 -0.194567 0.003288 0.312082 0.342430 0.050350 -0.094481 0.153222 0.111695 0.016487 -0.226167 0.015487 -0.068935 0.018899 0.298733 -0.158644 0.009527 -0.227793 -0.065853 0.014055 0.015719 -0.068163 0.002150 0.208962 0.137662 0.037274 0.034183 -0.242516 0.160308 -0.012922 -0.237448 0.163511 -0.363725 0.013825 0.018616 -0.053675 0.117283 0.021002 0.126644 -0.232978 -0.242174 0.062962 -0.072477 0.084093 0.042972 -0.279688 -0.012665 0.236850 0.072047 -0.331164 -0.204065 -0.059994 -0.129390 -0.097610 -0.313797 0.158788 -0.099965 0.193724 0.212178 0.031698 -0.075038 0.141899 -0.084243 -0.102693 -0.067761 -0.019702 -0.067670 0.256736 0.038587 -0.096267 0.170383 0.100018 -0.045163 0.228601 -0.191683 0.148098 0.002952 0.011894 0.158701 0.242370 -0.104750 -0.211647 -0.028723 -0.076256 -0.044574 -0.166065 0.204981 -0.146361 0.084337
CP011938.1 0.085717 -0.041870 0.178639 -0.060865 -0.040060 -0.045392 0.042221 -0.038366 -0.116482 -0.154618 0.040524 -0.053473 0.070371 0.163782 -0.092169 0.116545 0.025089 0.041332 -0.004084 -0.141856 0.010643 0.158582 -0.002286 -0.076850 0.023063 0.007858 -0.001507 -0.151645 -0.033611 0.237625 0.091143 -0.055459 0.020770 -0.009357 -0.089725 0.017373 -0.144465 -0.095787 0.114029 0.111108 -0.060190 -0.110391 0.358778 0.228157 -0.053084 -0.058559 0.229894 -0.041527 -0.006479 -0.032481 0.077910 -0.038463 0.028385 0.078367 -0.081423 0.056203 -0.093058 -0.107606 0.043199 -0.042046 0.047915 0.014454 0.187104 0.147920 0.074342 -0.083213 -0.076007 -0.028512 -0.006304 0.122856 0.043844 -0.240631 0.026343 0.022313 0.052740 0.038080 0.157196 0.100431 -0.202015 -0.060955 0.061081 0.019898 0.115586 0.185125 -0.059124 0.024967 0.176917 0.116756 -0.178594 -0.036585 0.062301 0.055695 -0.060538 -0.159113 0.189878 -0.256690 0.104229 0.019832 -0.030544 0.001086 0.031071 0.075588 -0.096738 -0.065054 0.109845 0.078016 -0.005663 -0.085336 0.053992 0.000997 0.103061 0.037158 0.180082 -0.162227 0.103281 0.217387 -0.145061 0.127701 0.107023 -0.176054 -0.141804 0.043921 -0.001226 0.098064 -0.255816 0.087474 -0.141680 0.024308
CP016628.1 0.192497 0.151404 0.050652 0.017409 0.062480 -0.065571 -0.120703 -0.078253 -0.093463 -0.103787 0.049229 0.152713 0.059870 0.083762 -0.070341 0.184049 0.034013 0.080146 0.002507 -0.282326 0.047340 0.342622 -0.040686 0.069484 0.055787 0.005813 -0.160285 0.001699 -0.061766 0.162923 0.122520 -0.114363 -0.133907 -0.186853 -0.007354 0.012077 -0.170736 -0.035054 0.206667 0.082773 0.083107 -0.131315 0.292762 0.194088 -0.030931 -0.009392 0.156115 -0.035355 -0.026428 -0.084000 0.058748 0.042513 0.056306 0.082499 -0.224269 0.006135 -0.203777 -0.204823 0.072958 0.017776 0.235039 -0.105757 0.009818 0.053908 -0.130302 -0.141750 -0.235337 0.105522 -0.091483 0.116039 0.178765 -0.077134 -0.046756 -0.050101 -0.071672 0.002318 0.109702 0.209239 0.018970 0.055606 0.215833 0.004325 0.246724 0.266575 0.006859 0.074939 0.334938 0.061990 0.121822 -0.009599 0.042362 0.123582 0.118262 -0.236993 0.120134 -0.394718 0.047406 0.124989 -0.042118 -0.034869 0.143358 0.104624 -0.140272 -0.083104 -0.077919 -0.022523 -0.329661 -0.097749 0.358650 0.010641 0.123529 0.062791 0.420630 -0.197004 0.041212 -0.021126 -0.100342 0.112293 0.237751 -0.064220 -0.144271 -0.077490 0.025960 0.028525 -0.050350 0.340915 -0.010569 0.214876
CP008697.1 0.033723 0.077959 0.011728 0.002131 0.043455 0.011888 0.088785 -0.056798 -0.173113 -0.043944 0.103155 0.030332 0.017130 0.029430 -0.132922 0.024875 0.020871 -0.019880 0.049640 -0.120428 -0.030130 0.100426 0.014482 -0.001925 0.052847 -0.052114 0.000098 0.029216 -0.062926 0.152014 0.030191 -0.093367 -0.046431 -0.118226 -0.063756 0.086549 -0.044394 0.071625 0.117931 0.048790 0.075925 -0.139817 0.315018 0.229956 -0.035654 -0.023477 0.241801 0.017538 0.061521 -0.023398 0.009048 -0.004679 0.000028 0.179310 -0.107353 -0.006241 -0.168863 -0.092239 0.071135 0.016598 0.034126 0.015094 0.074528 0.136943 0.014715 -0.104703 0.007503 0.061789 0.004895 -0.050787 0.086807 -0.169723 -0.031082 0.034072 0.049342 0.045825 0.097642 0.084850 -0.086932 0.000982 0.077090 0.162643 0.202778 0.154069 -0.039770 -0.055181 0.229943 0.049297 -0.005523 -0.019816 0.103383 0.089250 -0.030590 -0.277923 0.131085 -0.291684 0.078946 0.088831 0.000895 -0.142550 -0.039566 -0.003010 -0.022444 -0.055688 0.055138 0.052743 -0.196559 -0.144256 0.092244 0.105205 0.065791 -0.068966 0.147450 -0.162415 0.148835 0.043625 -0.180569 0.136646 0.037012 -0.131110 -0.019429 -0.148372 -0.056527 -0.014510 -0.106109 0.197468 -0.072264 0.076528
LT601384.1 -0.068416 0.063754 0.127945 0.033794 0.037552 0.064188 -0.135640 -0.136217 -0.147675 -0.154920 0.089365 -0.137201 0.003335 0.152411 -0.019501 0.013874 0.001020 -0.016135 -0.054479 -0.188569 0.099490 0.058531 -0.038956 0.121437 -0.065927 -0.095310 0.002734 -0.223387 -0.157139 0.200695 -0.014868 -0.121716 0.083842 -0.191966 -0.048808 -0.094929 0.109064 -0.045934 0.241385 0.125722 -0.053345 -0.262596 0.306884 0.186084 0.056466 -0.028618 0.152822 0.118980 0.111743 -0.157694 0.141200 0.026371 0.063555 0.125215 0.107026 0.133520 -0.166014 -0.090198 0.173649 -0.238311 0.044549 0.051281 0.099339 0.193588 -0.024947 -0.045303 -0.112934 -0.081508 0.094343 -0.038109 0.110146 -0.200271 0.000936 0.071863 -0.141536 0.043443 0.179210 0.026374 0.036096 0.082338 0.169910 -0.015379 0.071894 0.147592 -0.031290 -0.025348 0.282262 -0.204682 -0.197954 -0.031993 0.003139 -0.094438 0.070923 -0.249476 0.150454 -0.264713 0.130970 0.022576 0.017994 0.005352 0.039644 0.063219 -0.105100 -0.113246 0.345895 0.119034 0.035592 -0.024228 0.153304 -0.082774 0.192317 0.086848 0.211655 -0.134133 0.041806 0.081139 -0.161965 0.160824 0.095393 -0.225883 -0.072528 -0.074164 -0.314446 0.109419 -0.078578 0.008672 -0.263754 0.013394
NC_004086 0.112080 0.054736 0.015322 0.170948 0.168446 0.103345 -0.131134 0.003632 -0.045343 0.170578 -0.133449 -0.039028 0.148355 -0.104037 -0.222351 -0.247593 -0.125525 -0.254356 0.287346 -0.100335 0.132134 0.206768 0.227884 0.000095 0.409333 0.101434 0.083019 -0.201989 0.322339 0.355987 0.042565 -0.027032 -0.209390 -0.081579 -0.274360 0.014802 -0.065330 0.046550 -0.014674 -0.033477 0.189511 -0.228244 0.269127 0.449463 0.069001 -0.462425 0.411436 -0.181454 -0.095320 -0.180831 0.070098 0.087292 0.117498 0.037903 0.160979 -0.019248 0.077294 -0.211180 0.181867 -0.276988 0.127970 -0.001678 -0.024111 0.102950 0.261520 -0.422948 -0.298539 0.156741 -0.163633 -0.157976 0.091786 -0.255144 0.054066 0.150743 0.328253 0.030897 -0.068155 0.086589 0.034071 -0.089441 0.285763 0.443478 0.369445 0.210737 0.152587 0.147381 0.105002 0.178264 0.145859 -0.091226 -0.038530 0.045016 0.165453 -0.237185 -0.183469 -0.179763 -0.051191 0.209060 -0.048460 -0.062858 0.051677 -0.078773 0.129551 -0.053404 0.271669 -0.008771 -0.330040 -0.014451 0.015420 0.336122 -0.131379 -0.194585 0.199034 -0.638926 0.107348 0.176216 -0.142805 -0.239886 0.031977 -0.073145 0.024178 -0.390305 -0.345151 -0.262714 -0.068909 0.140703 -0.156292 0.200184
CP013831.1 0.017466 0.011645 0.081613 -0.002812 0.012283 -0.003886 0.012912 -0.032098 -0.184488 -0.091646 0.073789 -0.050396 -0.012955 0.090915 -0.153345 0.042555 -0.003887 0.007447 0.054729 -0.203627 -0.030028 0.103680 0.019823 -0.030371 0.071083 -0.073141 0.023734 -0.057653 0.012006 0.239722 0.075888 -0.076983 0.024063 -0.072013 -0.066811 0.004198 -0.088528 0.029093 0.073807 0.046708 0.058651 -0.120774 0.314001 0.235099 -0.091225 -0.029591 0.290448 0.022158 0.082163 -0.109595 0.046499 0.006461 0.068407 0.179095 -0.046588 0.044307 -0.090155 -0.114250 0.064251 -0.089022 -0.038215 0.038402 0.102101 0.131479 0.104717 -0.096737 -0.080948 -0.010592 -0.023354 -0.053278 0.063959 -0.192745 -0.050334 0.027879 -0.006526 0.029162 0.153044 0.092842 -0.107123 -0.014468 0.110963 0.132341 0.151910 0.126830 0.008394 -0.009933 0.167239 0.015085 -0.100504 -0.022272 0.048541 0.041974 -0.064139 -0.251842 0.124416 -0.268763 0.084751 0.125318 0.002634 0.012054 -0.022552 0.015695 -0.026027 -0.017674 0.128310 0.002674 -0.054379 -0.119746 0.008688 0.040326 0.093209 -0.020197 0.108379 -0.181145 0.100906 0.170501 -0.131733 0.102870 0.020068 -0.081654 -0.044414 -0.056081 -0.041601 0.034371 -0.163967 0.105350 -0.103566 0.034825
HF572917.2 0.088814 0.071960 -0.001319 0.093353 0.106912 0.042832 -0.056789 -0.032617 -0.056457 0.114435 -0.087452 -0.015365 0.085098 -0.049808 -0.189491 -0.155378 -0.094924 -0.161807 0.244834 -0.091255 0.059582 0.138095 0.145553 -0.035798 0.299350 0.052234 0.053631 -0.148853 0.214409 0.288820 0.043703 -0.087339 -0.109812 -0.089906 -0.220890 0.033008 -0.080066 -0.000021 -0.003800 -0.004352 0.152651 -0.187353 0.264639 0.362531 0.007947 -0.282126 0.394964 -0.112536 -0.003777 -0.163338 -0.008965 0.058713 0.086434 0.061188 0.102550 0.010180 0.024112 -0.179654 0.146548 -0.233112 0.063039 0.032264 0.008949 0.078260 0.227773 -0.288767 -0.237070 0.118132 -0.111357 -0.119124 0.106015 -0.248943 -0.000117 0.109021 0.197964 0.045228 -0.005950 0.095747 0.016381 -0.049420 0.206468 0.336838 0.270532 0.171976 0.078083 0.078439 0.082427 0.111056 0.070407 -0.083905 -0.001493 0.036170 0.094211 -0.231840 -0.064933 -0.183579 -0.022502 0.154628 -0.096562 0.015617 0.043788 -0.057541 0.080831 -0.004956 0.195353 -0.037359 -0.206020 -0.034571 0.005799 0.221878 -0.103045 -0.110386 0.122956 -0.485533 0.081568 0.163183 -0.102779 -0.164368 0.035942 -0.059720 -0.014525 -0.261055 -0.225906 -0.188643 -0.106809 0.138529 -0.067096 0.108880
CP013112.1 0.040354 0.020249 0.143151 0.175432 0.064524 0.120913 0.123727 0.005496 -0.140793 -0.124424 0.085090 -0.129882 0.123296 0.061378 -0.137344 -0.160171 0.021401 -0.131991 -0.064361 -0.109490 0.032304 0.193186 0.069342 -0.191698 0.067702 -0.113191 0.198279 -0.166890 0.119943 0.312351 0.003143 0.041081 -0.096228 -0.009702 -0.124152 -0.135413 -0.027755 0.133391 0.096531 -0.026653 -0.061422 -0.101751 0.209321 0.108077 -0.092916 -0.225415 0.211611 -0.006134 -0.030570 -0.063724 0.140306 0.008813 0.174804 0.068877 -0.008787 0.048807 0.086405 -0.068369 0.016541 -0.042730 0.023348 0.000523 0.255558 0.068825 0.233628 -0.244283 -0.004384 -0.046181 -0.087979 -0.031669 -0.176014 -0.171173 -0.022200 0.039342 -0.096370 -0.040519 0.073946 -0.009403 -0.172321 0.004380 0.014858 0.211042 0.225442 0.135636 0.008134 0.088625 0.068995 0.114266 -0.027031 -0.000360 -0.019863 0.076099 -0.155916 -0.189328 0.014688 -0.306408 0.155991 0.112068 0.142081 -0.118741 -0.134578 -0.017798 -0.080836 -0.027367 0.200356 0.102093 -0.068762 -0.103728 -0.029670 0.113672 -0.078887 -0.071055 0.168695 -0.273115 0.279611 0.210844 -0.220025 0.023871 -0.058087 -0.074592 0.099777 -0.111231 -0.135973 -0.006472 -0.198117 0.141636 -0.249859 0.028564
CP011320.1 0.098682 0.180138 0.024555 0.105810 0.009616 0.115783 0.142793 -0.102627 -0.107146 -0.148484 0.203274 -0.063264 0.139032 0.039618 -0.028295 -0.178476 -0.101992 -0.086685 -0.092240 -0.358173 -0.056941 0.399007 -0.023674 -0.253781 -0.018616 -0.000412 0.133332 -0.219764 0.217321 0.277603 -0.102710 -0.018399 -0.065107 0.030420 -0.038033 -0.177324 -0.138653 0.087309 0.212648 -0.046708 -0.129095 -0.109509 0.126207 0.130611 -0.176391 -0.102891 0.157451 -0.101776 0.068226 -0.295478 0.184582 0.189933 0.242916 -0.028699 -0.024406 0.044677 0.082546 -0.160686 -0.131097 0.098674 0.096735 0.031246 0.246818 -0.083447 0.252760 -0.272099 -0.207438 0.067054 -0.074009 0.073394 -0.059936 -0.144490 -0.125144 -0.032662 -0.326205 0.022756 0.102017 0.154264 -0.168074 -0.043176 -0.087330 0.094803 0.195484 0.188021 -0.033005 0.204859 0.164713 0.035699 0.118310 0.116725 -0.147578 0.077238 -0.228500 -0.055758 0.038224 -0.186745 0.250902 0.035585 0.015444 -0.084503 -0.131576 -0.038931 -0.077219 -0.050717 0.156688 -0.050436 -0.003743 -0.181334 0.086390 0.000327 -0.161046 -0.011560 0.211586 -0.339353 0.300349 0.197839 -0.128931 0.135369 -0.084612 0.037007 0.079602 -0.027220 0.005473 -0.133835 -0.218094 0.399945 -0.117716 0.029929
NC_006936 0.055519 0.201360 -0.212244 -0.153060 0.019691 0.008994 -0.079564 0.003387 -0.214686 0.153796 0.388615 -0.077791 0.020924 -0.152077 -0.153187 -0.083444 0.005899 0.007084 0.111371 -0.135963 -0.111891 0.054183 0.010295 -0.241339 0.083437 -0.296433 -0.175212 0.148156 -0.133761 0.219215 0.085712 -0.257508 0.019246 -0.280035 -0.077640 0.166795 -0.152552 0.188105 0.233456 -0.095737 0.367092 -0.156310 0.253561 0.294622 -0.195743 -0.028279 0.547024 0.179214 0.287458 -0.229801 -0.157261 0.325260 -0.033468 0.540545 0.059367 -0.145528 -0.315948 -0.143027 0.326202 -0.088141 -0.030974 0.170150 -0.145295 0.074500 0.077760 -0.138697 -0.029622 -0.105816 -0.028640 -0.394840 0.215363 -0.180062 -0.124256 0.123559 -0.116122 0.021754 0.167460 0.235598 0.152925 0.270597 0.040588 0.432252 0.128827 0.190643 0.152459 -0.108643 0.092736 -0.110208 0.008630 0.083782 0.126688 0.232906 -0.070858 -0.429106 0.239227 -0.311061 -0.102515 0.083508 -0.216471 -0.031881 -0.011467 -0.101063 0.123348 0.018900 0.205427 -0.016257 -0.200158 -0.250585 0.074578 0.020616 -0.098493 -0.043617 -0.037322 -0.121466 0.014804 0.006239 -0.011290 0.133768 -0.154280 -0.157590 0.051315 -0.314687 -0.006472 -0.180404 -0.228703 0.287790 0.240605 -0.017378
NC_004588 -0.083289 -0.117014 0.273094 0.104880 0.053918 0.068641 0.234019 0.217833 -0.197793 -0.266678 0.206182 -0.364641 0.117264 0.140200 -0.225939 0.041855 0.099930 -0.027057 -0.131861 0.042420 0.156136 0.125221 0.089292 -0.243557 0.021155 -0.254577 0.208909 -0.091665 -0.030334 0.416110 0.214767 0.191968 -0.091134 0.109022 -0.200879 -0.066021 -0.021549 0.367347 0.176392 -0.062827 -0.031815 -0.052837 0.381368 -0.024777 -0.136174 -0.267025 0.239392 0.111907 -0.047945 0.247673 0.249882 -0.186656 -0.045040 0.285693 -0.194165 -0.011586 -0.139078 0.096842 0.082953 -0.028636 0.012528 0.018798 0.349941 0.194362 0.095831 -0.239631 0.403274 -0.282225 -0.171392 -0.128088 -0.454889 -0.150449 0.000753 0.051527 -0.047249 -0.084535 0.254750 -0.058909 -0.377991 -0.016773 0.016225 0.267500 0.199454 0.005116 0.043089 -0.168918 0.097940 0.279135 -0.256485 0.019427 0.119167 0.081430 -0.236747 -0.332684 0.141124 -0.551921 0.272346 0.195008 0.349415 -0.382049 -0.296780 -0.122243 -0.048284 0.039667 0.201206 0.410143 -0.175603 -0.213829 -0.137309 0.136418 0.219952 -0.165096 0.114335 -0.066063 0.367554 0.089078 -0.441633 0.278927 -0.086490 -0.268321 0.121831 -0.119812 -0.156866 0.155643 -0.301644 -0.060739 -0.280792 -0.110731
