151 128
NC_019422 0.074931 0.143103 -0.005361 0.030346 0.032709 -0.123690 0.057231 -0.022384 -0.053413 0.052930 -0.053214 0.030009 0.044738 -0.029582 -0.213728 -0.015207 0.114548 0.158373 -0.013864 0.006364 0.058645 -0.122228 -0.002969 0.158594 0.065290 -0.187151 0.030056 0.109307 -0.068314 0.011743 -0.032730 -0.232383 -0.152159 -0.179827 0.011408 -0.078265 -0.127696 -0.127587 0.013229 0.063919 0.081817 -0.148708 0.320685 0.109137 -0.102395 -0.060479 0.114057 0.039190 -0.004859 -0.095878 -0.031151 0.088486 0.020381 0.157272 0.010905 0.059094 -0.083798 -0.052365 0.061846 0.121654 -0.005870 0.009346 -0.002004 0.024428 -0.047861 0.000576 -0.192814 -0.008137 0.142181 0.104346 0.167384 -0.196239 0.005106 -0.038987 0.087305 0.035813 0.192568 0.077855 -0.002907 0.095731 0.145810 0.211109 0.122508 0.150614 -0.018280 -0.005639 0.147303 0.134190 -0.000509 0.109729 0.000113 0.016393 -0.065564 -0.220111 0.071238 -0.173049 0.008279 0.004525 -0.018341 0.114722 -0.100695 0.162400 -0.116595 -0.077779 0.047144 0.072297 -0.026304 -0.132168 0.030015 0.022680 -0.025779 0.028280 0.096219 -0.089797 -0.044513 0.170711 -0.108769 0.019824 -0.033620 -0.064986 -0.072111 -0.188099 -0.000639 -0.073128 -0.181454 0.119209 -0.085828 0.187476
NC_015568 0.123486 0.168822 -0.029850 0.017075 0.027882 -0.120976 0.036123 0.045219 -0.096384 -0.038985 0.034881 0.074212 -0.000522 -0.066668 -0.196812 -0.027086 0.149564 0.124156 -0.048455 -0.092726 0.015996 -0.077159 -0.016933 0.181452 0.044140 -0.178930 -0.024182 0.103085 -0.071070 0.089846 -0.002214 -0.195174 -0.128459 -0.186347 0.062346 -0.075518 -0.067382 -0.040867 0.011287 0.056255 0.109080 -0.120779 0.281396 0.120993 -0.068621 -0.062980 0.110588 0.032516 -0.034930 -0.141486 0.059520 0.098645 0.010207 0.179843 -0.021561 0.016314 -0.075979 -0.061556 0.051037 0.088144 -0.020754 0.054057 -0.027991 0.029154 -0.048679 0.007788 -0.191480 -0.014285 0.123964 0.004338 0.119941 -0.096414 -0.002934 -0.068635 0.051726 0.040504 0.205506 0.118514 -0.031402 0.126802 0.083817 0.216177 0.097866 0.171676 -0.031733 -0.000444 0.141067 0.036580 0.052139 0.117930 0.069701 0.049105 -0.046200 -0.206034 0.074141 -0.176010 -0.026240 0.031718 -0.012911 0.049931 -0.061875 0.167943 -0.037318 -0.080061 0.089750 0.109268 -0.089308 -0.166229 0.138160 0.040779 -0.042790 0.050186 0.062742 -0.107464 -0.005524 0.071254 -0.091319 0.048957 0.007683 -0.004750 -0.102950 -0.148183 0.054054 -0.079236 -0.121391 0.181798 -0.056977 0.166860
NC_015262 0.149524 0.116537 0.000013 0.039656 0.027492 -0.064216 0.042932 0.023521 -0.087317 -0.080515 -0.003294 -0.007665 -0.097267 -0.078401 -0.179135 -0.018219 0.160744 0.166946 -0.050449 -0.092611 0.048528 -0.097353 0.002466 0.101407 0.058524 -0.143011 -0.001343 0.093777 0.011766 0.136990 0.029553 -0.185157 -0.133305 -0.186182 -0.030144 -0.125052 -0.048294 -0.024835 0.074628 -0.006836 0.065604 -0.111727 0.255098 0.187762 -0.087645 -0.147228 0.136274 0.011217 -0.009775 -0.101700 0.075335 0.076820 0.057211 0.210402 -0.014324 0.044451 -0.174345 -0.049392 0.060754 0.121831 -0.067945 0.083401 0.016009 0.046758 -0.045708 0.021176 -0.188039 -0.043180 0.109722 0.007355 0.086389 -0.181006 0.040817 -0.045888 0.058187 0.106552 0.208757 0.116946 -0.060603 0.122134 0.114361 0.227972 0.098259 0.170647 -0.018985 -0.041254 0.098668 0.058275 -0.061434 0.132218 0.014208 0.049199 -0.083924 -0.155279 0.086907 -0.133959 -0.041205 0.098128 0.044206 0.059463 -0.087811 0.165558 -0.031591 -0.033103 0.087982 0.108381 0.051275 -0.158649 0.020772 0.053065 -0.026449 0.063238 0.002578 -0.079782 -0.034701 0.144581 -0.076431 -0.011732 -0.020194 -0.122580 -0.094501 -0.175569 0.029846 -0.145482 -0.164373 0.149094 -0.051148 0.117802
NC_019421 0.166780 -0.003141 0.070405 0.021541 0.076855 -0.137164 -0.028776 0.011501 -0.047085 -0.161930 -0.040305 -0.049259 0.043280 0.025001 -0.200394 0.137154 0.181262 0.147786 -0.109205 -0.053276 0.098188 -0.108915 0.043804 0.057048 0.075869 -0.094220 0.005644 -0.105863 0.002048 0.158157 0.060683 -0.118057 -0.115567 -0.206130 -0.009529 -0.172315 -0.077297 -0.038586 0.105230 0.083831 0.008601 -0.220507 0.268142 0.124657 -0.001282 -0.194463 0.074655 0.000651 -0.081638 -0.011833 0.171673 0.076180 -0.034161 0.093423 0.030284 0.037342 -0.201056 -0.071012 0.124339 0.013448 -0.037512 0.046878 -0.002687 0.066049 -0.081283 -0.007051 -0.151864 -0.150545 0.129483 0.132400 0.064363 -0.154550 0.085192 -0.016427 0.079368 0.110065 0.348971 0.011583 -0.148057 0.124000 0.249957 0.157710 0.007659 0.171534 0.057820 -0.011547 0.075401 0.140871 -0.178354 0.098241 -0.004055 0.061175 -0.060230 -0.202397 0.069780 -0.209741 -0.042340 -0.038807 0.125469 0.131233 -0.082128 0.186454 -0.070831 -0.044335 0.309844 0.247524 0.048438 -0.140201 0.073920 -0.103733 0.040111 0.107366 0.126934 -0.078526 -0.117131 0.264459 -0.101057 -0.041003 -0.034206 -0.253438 -0.102189 -0.113967 -0.080146 0.015300 -0.204101 -0.081755 -0.115037 0.137659
NC_011398 0.024201 -0.030886 -0.055242 0.001937 -0.057604 -0.265520 -0.004362 -0.063494 -0.078020 -0.148979 -0.082788 0.079610 0.033013 0.073989 -0.150035 0.037901 0.169376 0.186307 -0.040909 -0.074669 -0.070553 -0.181775 -0.106002 0.138407 0.096074 -0.122109 -0.065946 0.101567 -0.063363 0.144653 0.172836 -0.255253 -0.036617 -0.224812 0.057853 -0.068101 -0.114410 -0.053463 -0.036396 -0.023998 0.101802 -0.168393 0.308554 0.131538 -0.178388 0.035109 0.272832 0.014453 0.078506 -0.141016 0.063057 0.175844 0.047969 0.284424 -0.004170 0.077884 -0.167852 -0.109434 -0.017408 0.025809 -0.196154 0.050618 0.055552 -0.021112 0.068762 -0.090550 -0.043772 -0.145660 0.034686 0.122658 0.210217 -0.227584 -0.026380 0.003927 -0.072644 0.011437 0.249016 0.084469 0.010637 0.141990 0.195724 0.149896 0.059893 0.151561 -0.010394 -0.036814 0.122128 0.106521 -0.197195 0.006478 0.153996 0.044956 -0.152071 -0.179587 0.204981 -0.183482 0.051674 0.049271 -0.040394 0.064875 -0.046564 0.184558 -0.074334 -0.106465 0.168192 0.101527 0.109016 -0.191696 0.076559 -0.015897 -0.027261 0.030403 0.046081 -0.026978 -0.119640 0.265083 -0.111307 0.097518 -0.058763 -0.084785 -0.031128 -0.084341 0.033463 -0.136250 -0.249721 0.056839 -0.008606 0.061980
NC_009231 0.070288 0.060720 0.013956 0.080862 0.118996 -0.341645 0.124834 -0.024309 -0.140419 -0.198547 -0.031459 0.289407 0.106315 -0.006243 -0.249956 -0.006567 0.173315 0.154291 -0.078306 -0.043786 0.025133 -0.002945 -0.036180 0.205653 0.127469 -0.082730 0.046187 0.168665 -0.105216 0.067614 -0.097445 -0.059345 -0.268742 -0.094523 -0.023721 -0.053076 -0.110246 0.047180 -0.082032 0.128372 0.143323 -0.193869 0.342046 0.052556 -0.062105 -0.012278 0.042150 -0.030681 -0.117408 0.090542 0.004411 0.040456 -0.138019 0.124568 -0.105722 0.017275 -0.096983 -0.064356 -0.032282 0.235245 0.106608 -0.092773 0.015837 0.166245 -0.082332 -0.139706 0.006245 0.029449 0.070269 0.048278 0.094950 -0.016236 0.090215 -0.019350 0.229524 -0.069955 0.054669 -0.014209 -0.036817 -0.033587 0.147478 0.251195 0.146387 0.030862 0.104621 0.044403 0.116058 0.216713 0.069994 0.119416 0.118132 0.044130 -0.065993 -0.087732 0.010167 -0.170248 0.084102 -0.014623 0.054336 -0.106919 -0.204109 0.044879 -0.195737 -0.181232 -0.016501 0.165735 -0.204243 -0.078432 0.084958 0.097329 0.030057 -0.084135 0.170360 0.024999 0.020154 0.120681 -0.228777 0.113999 0.028426 0.007433 0.021622 -0.264949 0.018958 -0.096806 -0.064442 0.091874 -0.256424 0.287045
CP012625.1 0.127063 0.148519 0.049015 0.065847 0.047907 -0.127172 0.035912 0.086178 -0.025436 -0.082587 0.071109 0.117264 0.141602 -0.075176 -0.210536 0.032003 0.102601 0.181362 -0.158102 -0.079512 0.039570 0.053583 0.003316 0.190675 0.056425 -0.168293 0.063637 0.111680 -0.152032 0.146107 -0.000179 -0.162278 -0.229499 -0.172373 0.046976 -0.141804 -0.186704 -0.015297 0.085799 0.074523 0.098504 -0.153239 0.374768 0.024468 -0.130739 -0.126890 0.025022 0.081680 -0.063828 -0.128686 0.076450 0.099791 -0.051157 0.030948 -0.092201 0.015438 -0.053751 0.023263 0.043853 0.207401 0.100698 -0.053331 -0.039888 0.128729 -0.045719 -0.079212 -0.152286 0.051396 0.115970 0.095061 0.031780 -0.018034 0.091898 -0.055730 0.045707 -0.069694 0.148869 0.092895 -0.017437 0.072131 0.127169 0.264827 0.183225 0.061195 0.147405 0.053432 0.175648 0.233315 0.139028 0.218878 -0.021237 0.070190 -0.093905 -0.171820 0.039058 -0.259088 0.048633 -0.042757 0.068325 -0.009896 -0.107872 0.020003 -0.150581 -0.061105 -0.049839 0.105217 -0.227882 -0.092919 0.155556 -0.005733 0.073999 0.007947 0.206845 0.032907 -0.027974 0.066458 -0.161988 0.155080 0.011098 0.017284 0.020500 -0.139919 0.066965 -0.012610 0.011019 0.161196 -0.062607 0.199714
CP015020.1 0.062602 0.167682 -0.276634 -0.211438 -0.014356 -0.133455 -0.060084 0.126378 -0.117453 0.047227 0.181412 0.098196 0.110013 -0.064507 -0.162517 -0.019242 0.041863 0.102632 -0.053393 -0.055107 -0.045790 -0.233992 0.000721 -0.020009 0.152735 -0.293818 -0.285873 0.137222 -0.179071 0.123595 -0.029972 -0.283707 -0.013721 -0.410360 0.270835 -0.004378 -0.081942 0.162621 0.073431 -0.051574 0.181477 -0.158572 0.213500 0.141120 -0.058711 0.006219 0.235687 0.167837 0.072993 -0.255549 -0.053641 0.288507 -0.130357 0.428324 -0.002496 -0.013882 -0.251466 -0.049675 0.169767 0.025834 -0.115186 0.045180 -0.189557 -0.042370 -0.059257 0.015618 0.017991 -0.272502 0.029680 -0.258251 0.179435 -0.043269 -0.041719 0.151265 -0.204339 -0.019043 0.176403 0.098954 0.090196 0.328763 0.194821 0.153277 -0.029232 0.178614 -0.042499 -0.166632 0.125230 -0.117343 0.037351 0.029211 0.285498 0.038746 0.016496 -0.346112 0.091992 -0.193473 -0.164088 0.111542 -0.158266 0.021162 -0.041640 0.172670 0.058612 -0.116313 0.204398 0.049578 -0.167096 -0.273898 0.116838 0.064402 -0.181800 -0.013475 -0.006719 -0.084589 0.066338 -0.026103 -0.131067 0.107333 0.036861 0.058719 -0.061105 -0.235365 -0.020995 -0.107222 -0.212545 0.194419 0.056669 0.095606
CP017251.1 0.079432 -0.032754 -0.026324 -0.093963 -0.033864 -0.106826 -0.027512 0.045024 -0.016031 -0.147582 0.046307 -0.017010 0.220836 -0.038130 -0.111652 0.077389 0.069293 0.178892 -0.090096 -0.134342 0.081431 -0.024453 0.046847 -0.043249 0.115329 -0.075991 -0.077743 -0.074369 -0.045446 0.240382 0.061326 -0.101798 -0.182480 -0.164329 0.017136 -0.078625 -0.229997 -0.083021 0.118014 -0.024781 0.001530 -0.207829 0.362650 0.216584 -0.143812 -0.246981 0.110765 -0.053183 -0.067067 -0.127964 0.189527 0.221803 -0.140019 0.017513 -0.010026 -0.055366 -0.231558 -0.032453 0.017679 0.156025 0.091808 0.086681 0.014186 0.035620 -0.037585 -0.102385 -0.133673 -0.140830 0.117278 0.223297 0.061810 -0.132366 0.124201 0.000412 0.071895 0.035086 0.209300 0.170296 -0.089205 0.048086 0.115258 0.188055 -0.013063 0.116370 0.091945 0.029537 0.134148 0.288835 -0.065914 0.147551 0.021695 0.083993 -0.119232 -0.030940 0.115567 -0.208339 0.003097 -0.176582 -0.067236 -0.068763 -0.082243 0.072655 -0.007349 -0.022907 0.123475 0.272030 -0.116806 -0.174420 0.139125 -0.075699 -0.068012 0.082901 0.148549 -0.088872 -0.091211 0.240844 -0.135629 0.147872 -0.020577 -0.215771 -0.104482 -0.156722 -0.033520 -0.078830 -0.234909 0.062428 -0.021233 0.105876
CP015229.1 -0.010895 0.010623 0.105663 -0.041911 0.120517 -0.341768 0.010024 0.193271 -0.013135 -0.188934 -0.031289 0.124955 -0.026141 -0.059477 -0.192845 0.050308 0.118986 0.161752 -0.047936 0.119262 -0.047851 -0.165439 0.015681 0.290099 0.005511 -0.192927 0.130661 0.135949 -0.185607 0.000921 -0.053703 -0.167530 -0.189078 -0.140933 0.012349 -0.180376 -0.037748 -0.043225 0.008575 0.155367 0.107966 -0.087920 0.355639 0.204130 -0.004559 0.026429 0.078903 0.037793 -0.006913 -0.043468 -0.073651 0.059397 -0.078839 0.191663 0.115479 0.052221 -0.207361 0.059455 0.151262 0.225623 -0.126594 0.019132 -0.084220 0.270115 0.045387 -0.002904 -0.099398 0.031449 0.247131 0.017618 0.173576 -0.179064 0.294613 0.060023 0.330515 -0.109619 0.074996 0.087983 -0.037226 0.005694 0.055078 0.193367 0.068461 0.012930 0.159956 0.060387 0.076391 0.128373 -0.104454 -0.006520 0.102053 0.089541 -0.072811 -0.054775 0.088174 -0.089723 -0.090437 0.030282 0.034385 0.130157 -0.020141 0.039918 -0.155446 -0.154247 0.068164 0.207964 0.085637 -0.012443 -0.007835 0.210078 0.225115 -0.015997 0.044324 0.147473 -0.189855 0.224153 -0.156997 0.116892 0.034169 -0.040158 0.027411 -0.175348 0.055626 -0.102120 -0.136083 -0.120037 -0.154794 0.231732
NC_009812 0.135739 0.381008 0.174350 0.082129 0.277262 -0.171386 0.121324 -0.178570 -0.263650 -0.264407 0.222007 0.157920 -0.040117 0.077237 -0.185781 0.137163 0.177319 -0.024384 -0.258429 -0.037960 0.159808 0.130172 0.045818 0.524656 -0.082165 -0.321073 0.131426 -0.310701 -0.405203 0.076220 -0.152553 -0.122242 -0.044342 -0.209265 0.061510 -0.114905 0.100097 -0.298079 0.214599 0.152388 -0.085023 -0.189338 0.139645 -0.006431 0.024802 -0.127449 -0.228537 0.262400 -0.024424 0.084850 0.131168 -0.019095 -0.131980 0.113104 0.126405 0.048211 -0.259542 0.002928 0.325383 0.092370 0.130513 -0.146526 0.199334 0.258462 -0.220851 0.041197 -0.102835 0.091663 0.297327 -0.044252 0.310310 -0.164733 0.033183 0.127747 -0.026251 0.132981 0.263354 -0.021695 -0.114786 0.209537 0.070891 0.184108 0.009858 0.239855 -0.057251 0.016164 0.203003 -0.229860 0.042819 -0.047840 0.153770 -0.019448 0.190333 -0.368281 0.165131 -0.180581 -0.040374 -0.064933 0.089541 0.048333 0.030577 0.227503 -0.153870 -0.209637 0.268217 0.327173 0.072398 -0.073140 0.421887 0.050538 0.083588 0.150980 0.276314 -0.011508 0.021917 -0.066246 -0.086083 0.045721 0.237142 -0.276843 -0.203062 -0.084216 -0.267676 0.074517 -0.174830 0.107555 -0.095117 0.133078
NC_009815 0.056988 0.206745 0.001013 0.081548 -0.123674 -0.122615 0.104319 0.019275 -0.004851 -0.090528 0.072508 -0.009380 0.288155 -0.007944 -0.110680 -0.225796 0.031423 0.091776 -0.177069 -0.117312 0.051178 0.036788 -0.058466 0.060208 0.057644 -0.174209 0.090304 0.051133 -0.089254 0.208257 -0.063594 -0.157389 -0.227347 -0.145237 0.089292 -0.138827 -0.283956 -0.052396 0.129081 0.063975 0.118363 -0.221163 0.453261 0.015918 -0.245953 -0.146284 0.081669 0.085322 0.082735 -0.309995 0.090856 0.295175 -0.057854 -0.004514 -0.020406 0.013830 -0.025741 -0.007811 -0.162174 0.154585 0.130610 0.058246 -0.007779 0.010987 0.146577 -0.224070 -0.179664 -0.031112 0.183215 0.264664 0.053691 -0.147534 0.154970 0.026149 0.002884 -0.145830 0.130888 0.126003 -0.007454 0.066986 0.042359 0.285521 0.129031 0.017190 0.165632 0.173627 0.151183 0.267079 0.091380 0.208276 -0.087375 0.033743 -0.237302 -0.110529 0.170564 -0.260654 0.184540 -0.299514 -0.102634 -0.073361 -0.187605 -0.046379 -0.152033 -0.052780 0.101195 0.227764 -0.230698 -0.112198 0.085532 -0.124608 -0.084267 -0.006272 0.169658 -0.068184 -0.070289 0.237497 -0.277249 0.257212 -0.161814 -0.009460 0.160331 -0.177657 -0.004690 -0.096623 -0.041981 0.128977 -0.126723 0.108274
CP007491.1 0.130505 0.143002 0.067853 0.089061 0.164447 -0.143599 -0.022944 0.038992 -0.100317 -0.160390 0.155547 0.244446 0.081326 -0.040794 -0.163969 0.009542 0.162696 0.053944 -0.267497 -0.074097 0.036562 0.185942 -0.024640 0.330969 0.053479 -0.180278 0.072207 0.100236 -0.247489 0.163539 0.023131 -0.082137 -0.250712 -0.145890 0.026048 -0.121606 -0.055841 -0.062593 0.105405 0.078802 0.119860 -0.101421 0.252877 -0.017623 -0.098480 -0.133544 -0.036544 0.120398 -0.147855 -0.021638 0.120042 0.041715 -0.090549 0.062939 -0.099690 -0.015644 -0.163624 0.065221 0.199962 0.289120 0.203402 -0.193006 -0.002344 0.233515 -0.215138 -0.104666 -0.133274 0.100195 0.113016 -0.091932 0.136818 0.081728 0.061931 0.036043 0.098082 -0.082075 0.057123 0.036454 0.005222 0.164223 0.035957 0.318010 0.204044 0.140857 0.099868 0.035415 0.170906 0.103244 0.226984 0.198986 0.140834 0.151365 0.080858 -0.164900 0.023822 -0.250179 -0.054894 0.078040 0.078248 -0.069727 0.008361 0.080053 -0.142442 -0.201850 -0.051926 0.146938 -0.226070 -0.084693 0.301507 0.143946 0.050932 0.007007 0.258269 0.090725 0.040650 -0.138758 -0.142393 0.151098 0.181825 0.008321 0.005644 -0.224801 0.060323 -0.066125 0.034668 0.282436 -0.103173 0.278277
CP017249.1 0.152500 0.256548 -0.039322 -0.044690 0.127087 -0.145075 0.066412 0.024915 -0.227713 -0.062327 0.193292 0.221829 0.070905 -0.042075 -0.196932 0.024799 0.072189 0.074073 -0.113868 -0.069206 0.028273 -0.059447 0.019770 0.159805 0.082968 -0.234590 -0.101004 -0.059827 -0.244365 0.083836 -0.214781 -0.158921 -0.072291 -0.334499 0.152671 -0.005422 -0.012428 0.015590 0.060749 0.071921 0.091546 -0.223451 0.231502 0.065992 0.004920 -0.052467 -0.012981 0.169932 -0.011618 -0.073085 0.038457 0.140427 -0.206514 0.227851 0.059152 0.005574 -0.158469 -0.052689 0.166944 0.111666 0.053397 -0.029984 -0.054911 0.129476 -0.173299 0.028195 -0.017621 -0.036037 0.182026 -0.155903 0.165283 0.021710 -0.034871 0.075995 -0.008222 0.037229 0.177196 0.008391 -0.012231 0.222129 0.121560 0.187908 -0.004565 0.215596 -0.017052 -0.078038 0.130281 -0.170478 0.180382 0.081612 0.215554 0.047070 0.080814 -0.269552 0.032252 -0.214182 -0.161470 -0.030589 -0.014472 0.016800 -0.122552 0.198604 -0.001126 -0.099515 0.192421 0.148336 -0.212792 -0.235387 0.258336 0.033606 -0.104542 0.062084 0.098090 -0.044817 0.073134 -0.039000 -0.155127 0.081149 0.086646 -0.012098 -0.102629 -0.193007 -0.078964 0.040407 -0.114550 0.180241 -0.106488 0.174281
CP014670.1 0.133610 -0.016357 0.003853 -0.010590 0.106705 -0.085890 0.010089 0.140990 -0.026503 -0.190043 0.044982 0.017921 -0.062086 -0.065543 -0.121165 -0.037705 0.201181 0.026086 -0.225004 -0.072828 0.004726 0.024461 -0.033790 0.096932 0.134726 -0.192605 0.067520 0.173333 -0.045783 0.246921 0.202886 -0.115073 -0.257499 -0.120933 -0.036453 -0.245905 -0.079760 0.087443 0.102245 -0.055613 0.136201 -0.138702 0.237875 0.010936 -0.158335 -0.147909 0.090688 0.146594 -0.100715 -0.080149 0.116356 0.147200 0.078409 0.236143 -0.144532 -0.014966 -0.281206 0.062582 0.098480 0.269575 -0.075257 -0.066338 0.072855 0.027417 -0.118057 -0.122767 -0.074102 -0.112863 -0.031863 -0.085970 0.065881 -0.129386 0.075414 0.048087 0.012931 -0.084790 0.126836 0.075493 -0.051867 0.177635 0.059955 0.311121 0.043504 0.086290 0.016359 -0.033916 0.064001 0.204321 -0.144464 0.120395 0.072668 0.161511 -0.090658 -0.139398 0.104995 -0.211605 0.016530 0.164709 0.079215 -0.005078 -0.049808 0.078862 -0.118197 -0.142698 0.014450 0.166924 0.090105 -0.217820 0.016565 0.094989 0.000350 0.066673 0.033303 0.043688 -0.040309 0.104027 -0.093679 0.101270 0.009575 -0.001206 0.045344 -0.138563 0.101742 -0.183856 -0.137596 0.161476 -0.054913 0.092662
CP017669.1 0.156718 0.133793 0.063574 -0.079420 0.068774 -0.089034 0.074451 -0.017273 -0.173454 -0.108717 0.177536 0.048984 -0.142716 -0.101153 -0.241842 0.101076 0.190627 0.197408 -0.124165 -0.092286 0.038206 -0.109750 0.109933 0.234167 -0.004559 -0.244387 0.069139 0.010929 -0.219341 0.158932 -0.104512 -0.264613 -0.077938 -0.156871 0.091585 -0.158703 -0.036172 -0.152361 0.073809 0.018443 -0.038758 -0.118008 0.286802 0.119424 0.074117 -0.150951 -0.018230 0.113709 -0.065682 -0.079791 0.008219 0.057559 -0.042253 0.262830 -0.006080 -0.008317 -0.178575 -0.049175 0.148309 0.138321 -0.031917 0.075798 0.060357 0.131494 -0.124274 0.160223 -0.216848 0.034911 0.168799 -0.085997 0.135344 -0.230183 0.028254 0.043596 0.013105 0.160398 0.187909 0.088072 -0.141551 0.058728 0.112582 0.103629 -0.021850 0.114151 -0.134266 -0.008895 0.133063 -0.028154 -0.101697 0.028234 0.051505 -0.042778 -0.026411 -0.252703 0.190109 -0.019683 -0.033759 -0.004004 -0.020043 0.067981 -0.077196 0.198750 -0.072085 -0.172404 0.163772 0.103439 0.166155 -0.093548 0.041913 0.068810 -0.000597 0.090696 0.020645 -0.066573 -0.010752 0.091966 -0.025270 0.028608 0.072334 -0.120929 -0.222919 -0.080672 -0.020548 -0.035340 -0.193616 0.131587 -0.080260 0.177912
NC_008376 -0.024854 0.314944 0.120276 0.122796 -0.000405 -0.494345 0.277706 -0.046728 -0.144123 -0.225851 -0.080783 0.234594 0.138048 0.117469 -0.130711 -0.194302 0.189580 0.037075 -0.070782 0.199358 -0.004429 -0.118447 -0.132997 0.366948 -0.014034 -0.311987 0.262974 0.067482 -0.418639 -0.079010 -0.181830 -0.243645 -0.168708 -0.120582 0.055052 -0.116213 -0.105881 -0.258784 -0.009228 0.247994 0.171331 -0.194110 0.547941 0.061238 -0.083976 0.277476 0.057643 0.142286 0.152661 -0.038142 -0.159454 0.121054 -0.123950 0.179698 0.109915 0.083776 -0.003866 -0.034666 -0.062813 0.064488 -0.033749 -0.059246 0.101512 0.205850 0.236380 -0.166849 0.020636 0.051181 0.359045 0.185592 0.325254 -0.284373 0.230752 0.074902 0.217948 -0.210139 0.066359 -0.045496 -0.016439 -0.029476 -0.023975 0.201996 0.046058 -0.000307 0.081430 0.148469 0.104497 0.077394 -0.048294 -0.119747 0.225794 -0.040629 -0.160050 -0.178908 0.321679 -0.210769 0.174601 -0.266686 -0.126180 0.056066 -0.037373 0.010692 -0.324366 -0.226244 0.200232 0.321420 0.018041 0.021218 0.078578 0.130439 0.077701 -0.022227 0.135512 0.079570 -0.156719 0.309256 -0.291522 0.226472 -0.002336 -0.040253 0.074810 -0.085426 -0.113629 -0.013984 -0.240621 -0.198704 -0.250585 0.201723
CP016358.1 -0.009105 0.072592 0.084935 0.139568 0.116008 -0.183925 0.147328 0.135683 -0.096962 -0.205114 0.044466 -0.007174 0.025103 -0.038255 -0.252911 -0.019744 0.133690 0.133246 -0.072552 -0.032917 0.080021 -0.060542 -0.029990 0.025094 0.125610 -0.218372 0.113859 0.101153 0.001327 0.236973 0.103093 -0.112213 -0.184673 -0.186692 -0.083292 -0.216261 -0.047389 0.245792 0.059217 -0.016401 0.125701 -0.178776 0.244455 -0.007318 -0.153588 -0.098826 0.136326 0.131247 0.003454 -0.032203 0.095403 0.090954 0.007821 0.269339 -0.059227 0.116158 -0.154734 0.044776 0.020313 0.142699 -0.148721 0.001127 0.009131 0.063785 0.059459 -0.158026 0.128278 -0.127755 -0.050569 -0.104487 -0.095915 -0.168153 0.075081 -0.022175 -0.082775 -0.118911 0.253642 0.045723 -0.075145 0.167852 0.208514 0.354210 0.141900 -0.004915 0.173752 -0.081448 0.053074 0.166391 -0.125236 0.094482 0.014469 0.044428 -0.179604 -0.280365 0.019065 -0.321852 0.063630 0.198707 0.212048 -0.057836 -0.222510 0.024070 -0.094872 -0.040338 0.119547 0.243966 -0.014178 -0.262262 0.002175 0.067201 0.081779 -0.040790 0.012678 0.004288 0.047666 0.136912 -0.228443 0.090400 -0.098258 0.030952 0.132432 -0.211781 -0.011066 -0.106459 -0.175581 0.049068 -0.090030 0.025397
NC_009813 0.223178 -0.147854 -0.052156 0.296772 -0.307231 -0.253866 -0.076723 -0.437777 -0.261368 0.059419 -0.067580 0.365306 0.043689 0.052420 -0.190483 -0.283624 0.272192 0.280791 -0.054883 -0.082771 -0.036754 -0.285538 -0.138880 -0.166524 0.109224 0.133718 -0.055869 0.201274 -0.093282 0.222360 -0.191350 -0.439635 -0.011892 -0.285907 -0.075596 -0.026987 0.031740 -0.100349 -0.166927 0.012864 0.100801 -0.178232 0.364133 0.149023 0.050719 0.102193 0.496330 -0.260363 0.089543 -0.056731 -0.085917 0.090720 -0.075886 0.375663 0.018135 0.150645 0.049878 -0.336785 -0.043970 0.033158 0.075171 0.016177 -0.054438 0.078958 0.009967 -0.016536 -0.068262 -0.089225 0.136753 -0.049282 0.176703 -0.030920 -0.183307 0.023673 -0.074320 0.150110 0.150263 -0.163501 -0.050319 0.192259 0.282643 0.108383 0.385621 0.316998 -0.093066 0.010623 0.055245 -0.060563 0.037229 0.184931 0.147842 0.133251 -0.157526 -0.163593 0.118188 0.014767 -0.065058 0.025484 -0.076405 -0.022008 -0.202006 0.441771 -0.067246 -0.295892 0.428277 -0.184650 0.017798 -0.126191 -0.027331 0.063256 -0.446968 -0.154114 -0.028918 -0.038289 0.157729 0.205094 -0.184918 -0.023544 -0.129204 -0.032530 0.082998 -0.439290 0.173238 -0.166609 -0.161640 0.260648 -0.379223 0.442171
CP012693.1 0.049184 -0.060571 0.058670 -0.060983 0.066746 -0.219376 0.038135 0.115567 -0.058245 -0.132046 0.015361 0.048024 0.007514 -0.054458 -0.194246 0.068317 0.133728 0.166530 -0.074694 0.032231 0.007068 -0.151937 0.044505 0.089325 0.091378 -0.169627 0.053118 0.085513 -0.119726 0.136759 -0.004118 -0.183390 -0.177495 -0.152774 0.001317 -0.168666 -0.091341 0.016343 0.015026 0.032204 0.081733 -0.153277 0.322158 0.103826 -0.000493 -0.053274 0.113410 0.043248 -0.031430 -0.030478 -0.012301 0.100880 -0.081392 0.239375 0.020768 0.020491 -0.206179 -0.003728 0.112654 0.181546 -0.092611 0.012332 -0.003105 0.120992 -0.010895 -0.010245 -0.038945 -0.082303 0.091210 -0.023856 0.093930 -0.196202 0.136867 0.058611 0.128673 -0.031812 0.150849 0.041537 -0.102852 0.050373 0.144577 0.162540 0.020172 0.042663 0.063120 -0.013541 0.060208 0.170849 -0.170628 0.022349 0.071046 0.062165 -0.092885 -0.148384 0.100402 -0.117616 -0.032984 0.035046 0.026991 0.057107 -0.091463 0.090263 -0.104509 -0.148650 0.138020 0.168413 0.089775 -0.130442 -0.062492 0.103302 0.056253 -0.001195 0.012350 0.024370 -0.069085 0.215610 -0.130985 0.077544 -0.000661 -0.051951 -0.008166 -0.162661 0.035589 -0.059489 -0.220328 -0.050184 -0.135118 0.166585
CP009106.2 0.173468 0.191177 -0.251415 -0.213653 0.088652 -0.171564 -0.062231 0.078332 0.033813 -0.021472 0.065157 0.066954 0.026370 -0.110599 -0.173676 -0.007376 0.063756 0.072525 -0.017681 0.020720 -0.016905 -0.087709 -0.053263 0.135126 -0.022170 -0.264892 -0.273941 0.114588 -0.119934 -0.034738 0.133019 -0.266026 -0.082219 -0.216366 0.092723 -0.008732 -0.037598 0.020504 0.233227 0.045209 0.165715 -0.114712 0.150008 0.245525 -0.168364 -0.033018 0.190813 0.073113 0.065414 -0.159611 -0.042290 0.186463 0.024364 0.278791 -0.014135 -0.022168 -0.314067 0.009887 0.249884 0.159986 -0.106933 0.057689 -0.071841 -0.053225 -0.053414 0.022050 -0.043001 -0.176135 0.062529 -0.006665 0.257695 -0.124810 0.129355 0.049581 -0.030634 0.074488 0.276707 0.204237 0.042335 0.281172 -0.007481 0.274477 0.078737 0.245602 -0.009606 -0.148519 0.114528 0.062575 -0.009960 0.110000 0.181037 0.185194 -0.003821 -0.177359 0.109579 -0.074597 -0.092064 0.083636 -0.105466 0.052733 -0.006598 0.077344 0.011000 -0.009834 0.010663 0.061892 -0.034077 -0.228478 0.210011 0.096040 0.004611 0.050547 -0.011656 -0.032911 -0.001958 -0.019580 0.013149 0.129859 -0.050976 -0.146721 -0.075587 -0.196792 0.068376 -0.225419 -0.252436 0.219702 0.224563 0.000354
CP015228.1 0.092856 0.048063 -0.053718 0.167262 0.141927 -0.203660 -0.013619 -0.023438 -0.050583 0.059373 -0.065091 0.083421 0.057411 -0.059886 -0.275923 -0.043701 0.116685 0.173203 0.094692 0.013720 0.097704 -0.198619 0.053372 0.151046 0.195932 -0.134642 0.019924 0.151191 0.122536 0.075372 0.033929 -0.179562 -0.180421 -0.210373 -0.089456 -0.072744 -0.080936 -0.060910 -0.070072 -0.031569 0.098759 -0.133023 0.196008 0.206441 -0.079407 -0.134910 0.185675 -0.023492 -0.007095 -0.019284 -0.058017 0.049659 0.011283 0.181635 0.063418 0.067952 -0.114389 -0.043348 0.088569 0.062607 -0.021623 0.034401 -0.080528 0.026950 -0.033232 -0.088233 -0.083674 -0.043955 0.020897 -0.031275 0.090479 -0.180482 0.009677 0.026672 0.161640 0.069766 0.108393 0.082880 0.059039 0.136679 0.255460 0.256324 0.212890 0.128826 0.034452 -0.055545 0.058843 0.203919 -0.031989 0.053263 -0.065401 -0.027430 0.032039 -0.203766 -0.072581 -0.090920 -0.070450 0.152466 0.033493 0.049658 -0.059321 0.168471 -0.030826 -0.049135 0.113286 0.081732 -0.013982 -0.167335 -0.057902 0.204056 -0.027581 -0.061459 0.036274 -0.168185 -0.052232 0.141987 -0.114450 -0.134688 -0.018749 -0.033554 -0.007107 -0.326084 -0.104052 -0.238968 -0.141567 0.097461 -0.031767 0.194994
CP011018.1 0.035521 0.105018 0.173592 0.179882 0.110945 -0.047533 0.188475 0.138206 -0.128541 -0.199844 0.128211 -0.135920 -0.022681 -0.079032 -0.244251 -0.047070 0.145482 0.107741 -0.112373 -0.058281 0.175422 -0.021762 0.039314 -0.067354 0.081837 -0.232682 0.201740 -0.022644 0.017429 0.315268 0.020542 -0.091911 -0.205250 -0.144673 -0.137239 -0.286210 -0.012141 0.210580 0.142391 -0.012850 0.038570 -0.175611 0.232342 -0.032008 -0.058050 -0.233065 0.059226 0.143783 -0.029228 -0.014702 0.143475 0.067037 0.013461 0.205451 -0.015520 0.106203 -0.159097 0.065915 0.054972 0.128430 -0.073651 0.058217 0.047676 0.085341 0.041302 -0.103622 0.055929 -0.104500 0.009278 -0.121822 -0.179858 -0.232626 0.097299 -0.010282 -0.095999 -0.057576 0.291497 0.045097 -0.182137 0.158924 0.173485 0.341949 0.112506 -0.003597 0.154669 -0.053253 0.022186 0.122703 -0.150598 0.117106 -0.091620 0.021129 -0.178703 -0.311260 0.043561 -0.303008 0.059143 0.132893 0.246352 -0.062966 -0.251018 0.042565 -0.071727 -0.043478 0.217626 0.319662 0.066295 -0.260227 -0.038587 0.030503 0.041041 0.008088 -0.026847 -0.055789 0.089715 0.141387 -0.225213 0.034286 -0.094658 -0.059876 0.098824 -0.226818 -0.078213 -0.057900 -0.191284 0.037327 -0.127447 0.017966
CP013025.1 0.106580 0.095986 0.044929 0.024007 0.001913 -0.280453 0.106174 0.024151 -0.050478 -0.156092 -0.036186 0.100785 0.124877 0.024590 -0.137448 -0.030298 0.144826 0.115527 -0.091095 0.000133 0.006405 -0.088144 -0.049386 0.143446 0.073290 -0.154686 0.079285 0.026586 -0.145940 0.098155 -0.007990 -0.187113 -0.170540 -0.162574 0.031158 -0.135666 -0.156647 -0.081623 0.027555 0.084271 0.107612 -0.215743 0.391806 0.069822 -0.109569 0.020114 0.093040 0.055030 0.041262 -0.097578 0.036330 0.157117 -0.062561 0.133359 0.019103 0.026614 -0.090722 -0.057265 -0.030268 0.110977 -0.053100 0.007381 0.057820 0.062934 0.085066 -0.124757 -0.047309 -0.065100 0.173593 0.187855 0.141456 -0.165857 0.123452 0.007646 0.100855 -0.053618 0.188779 0.026957 -0.071466 0.034582 0.111258 0.186448 0.037698 0.064306 0.084190 0.055487 0.089602 0.196326 -0.098244 0.049849 0.049510 0.050747 -0.146541 -0.126531 0.169211 -0.191439 0.077994 -0.154323 -0.010101 0.050654 -0.082139 0.064553 -0.141432 -0.105065 0.169567 0.207387 -0.011370 -0.114476 0.047148 -0.009703 0.013627 0.038823 0.093345 0.005569 -0.129785 0.297333 -0.172519 0.136929 -0.076911 -0.072640 0.021176 -0.081861 -0.011613 -0.022684 -0.182537 -0.068533 -0.118632 0.122577
CP012631.1 0.103496 0.223028 0.059215 0.203147 0.083858 -0.051619 0.059050 -0.091679 -0.121103 -0.102778 0.101507 0.080443 -0.191250 -0.084494 -0.211236 -0.023896 0.179540 0.181882 -0.029284 -0.075687 0.075491 0.101933 -0.056447 0.392474 -0.091248 -0.206130 0.090809 0.063934 -0.099222 0.132023 0.100474 -0.170264 -0.105924 -0.135596 -0.137367 -0.052095 0.073160 -0.175829 0.131394 -0.035833 0.034545 0.017579 0.157761 0.222958 -0.205997 -0.167158 0.149241 0.014897 0.033778 -0.010357 0.125644 -0.056262 0.129427 0.154332 0.045700 0.090168 -0.154721 0.041282 0.174701 0.181240 -0.001874 0.032547 0.112786 0.223604 -0.031220 -0.007000 -0.174300 0.177301 0.194535 -0.013698 0.141441 -0.184545 0.005208 -0.096726 0.065082 0.117501 0.176027 0.194502 -0.029618 0.189251 -0.044327 0.360745 0.312284 0.245782 0.006789 -0.042062 0.161246 -0.046198 0.121952 0.152116 0.076312 0.090856 -0.009171 -0.122062 0.124545 -0.143518 -0.081112 0.214636 0.092236 -0.054314 0.012878 0.189480 0.018330 -0.086746 -0.037345 0.120356 0.063074 -0.103230 0.262870 0.225378 0.077521 0.062280 0.039628 -0.020482 0.011738 -0.068099 -0.055043 0.026627 0.079783 -0.150589 -0.089544 -0.233926 0.051404 -0.222819 -0.059758 0.332574 0.047667 0.099150
CP013031.1 0.083077 -0.063467 -0.103318 0.104819 -0.162473 -0.191380 -0.027093 -0.214976 -0.163788 -0.019770 -0.010140 0.204664 0.021456 0.086767 -0.147814 -0.068351 0.214474 0.212793 -0.086373 -0.083494 -0.065947 -0.176122 -0.133659 -0.013482 0.094934 -0.069555 -0.112990 0.168932 -0.149712 0.178720 0.019727 -0.357603 0.017394 -0.297784 0.053671 -0.056017 -0.044321 -0.016245 -0.052151 -0.052458 0.111279 -0.139580 0.271252 0.088847 -0.118883 0.097210 0.369371 -0.021436 0.121045 -0.103250 -0.013058 0.137617 0.028147 0.383000 -0.039266 0.106090 -0.099092 -0.183078 0.011854 0.044353 -0.122091 -0.017019 0.018144 0.025006 0.018619 -0.046798 0.014291 -0.140803 0.034729 -0.035869 0.194668 -0.100769 -0.153451 0.020087 -0.211939 0.080377 0.217199 -0.056273 0.007347 0.213547 0.239895 0.124640 0.196637 0.210886 -0.062858 -0.075509 0.102144 -0.060154 -0.078204 0.096741 0.217268 0.081204 -0.158306 -0.240836 0.171035 -0.128397 -0.011625 0.104135 -0.040836 -0.001288 -0.104564 0.304567 -0.076708 -0.217747 0.237949 -0.077012 0.062769 -0.177248 0.052314 -0.006962 -0.232914 -0.052794 0.025255 0.024640 0.051699 0.179797 -0.131221 0.061142 -0.078375 -0.033258 0.027229 -0.208916 0.105237 -0.113215 -0.169970 0.182905 -0.130577 0.193222
CP009859.1 0.059759 0.075494 -0.235658 -0.139392 0.013547 -0.184053 -0.125625 -0.016036 0.019150 -0.199354 -0.054412 0.043160 -0.009887 -0.041058 -0.099876 -0.004648 0.069587 0.190459 -0.042273 -0.112404 -0.031050 -0.102115 -0.137888 0.259034 0.019254 -0.149488 -0.246242 0.161224 -0.016944 0.108972 0.311645 -0.221100 -0.045059 -0.203133 0.074908 -0.034938 -0.045281 -0.019899 0.095717 -0.070934 0.123075 -0.035697 0.189574 0.352095 -0.317549 -0.104363 0.310944 -0.085267 0.073043 -0.200855 0.055051 0.192622 0.075085 0.262953 -0.035463 0.042563 -0.349257 -0.024461 0.082086 0.097191 -0.107417 0.108780 0.010156 -0.026838 0.066924 -0.082004 -0.112354 -0.152733 0.007139 0.105738 0.266179 -0.201036 0.115232 0.033228 -0.038051 0.103709 0.213786 0.284474 0.101630 0.209106 0.036395 0.249939 0.157107 0.235244 -0.027685 -0.125579 0.203106 0.111384 -0.047852 0.065089 0.260846 0.102543 -0.073362 -0.052574 0.177397 -0.107929 -0.008989 0.192104 -0.128514 -0.025592 0.053301 0.092347 -0.024745 0.000175 -0.079808 0.086014 0.037877 -0.167803 0.253271 0.146399 0.039991 -0.007306 0.063999 -0.050657 -0.033152 0.055867 -0.021491 0.137243 0.039976 -0.182321 -0.108084 -0.189140 0.047095 -0.373002 -0.244321 0.295062 0.213850 -0.013905
CP015023.1 0.082581 0.273795 -0.000753 0.136612 -0.111033 -0.036258 0.077931 0.014910 -0.013557 -0.005971 0.053939 -0.087231 0.150218 -0.072307 -0.133756 -0.259555 0.040719 0.122099 -0.145083 -0.095692 0.088399 -0.069915 -0.030166 0.004777 0.094960 -0.213287 0.126605 0.156194 -0.013843 0.217802 -0.046355 -0.242508 -0.234891 -0.192780 0.066457 -0.218173 -0.228344 0.003145 0.123140 -0.012275 0.117020 -0.140809 0.413814 0.049358 -0.206636 -0.197820 0.144034 0.087154 0.084404 -0.336286 0.013763 0.263084 0.061480 0.110312 -0.028618 0.077155 -0.067637 0.015130 -0.114189 0.137758 0.060603 0.080842 -0.081712 -0.034253 0.150660 -0.151174 -0.257293 -0.047265 0.132590 0.094632 0.010413 -0.247876 0.093302 0.061450 -0.071211 -0.082684 0.074480 0.151422 0.041948 0.135534 0.114272 0.268759 0.160937 0.031181 0.057671 0.089329 0.149389 0.193529 0.038853 0.193417 -0.136503 -0.042504 -0.210144 -0.171414 0.114497 -0.207297 0.138565 -0.066373 -0.111138 -0.022834 -0.171067 0.020343 -0.135291 -0.060046 0.094918 0.125923 -0.090138 -0.080649 -0.054524 -0.023652 -0.089366 -0.047707 0.091287 -0.118758 -0.031910 0.183801 -0.247308 0.102001 -0.124605 0.059367 0.146285 -0.240842 -0.017453 -0.204153 -0.056196 0.185563 -0.121406 0.132260
CP014667.1 0.079602 0.116969 -0.019530 0.176485 0.194825 -0.206079 0.031398 -0.038421 -0.075887 -0.003803 -0.025753 0.144060 0.085135 -0.050671 -0.270725 -0.050142 0.146110 0.133041 0.000534 0.003718 0.121734 -0.059731 0.059450 0.287715 0.196603 -0.141539 0.083306 0.175301 0.043060 0.071079 -0.003895 -0.099123 -0.260483 -0.129954 -0.069783 -0.063013 -0.108557 -0.111368 -0.060206 0.014641 0.117240 -0.112275 0.228518 0.141558 -0.065115 -0.173109 0.062212 -0.001824 -0.113837 0.022950 -0.032552 0.015692 -0.038181 0.088363 -0.012880 0.019689 -0.103696 -0.004507 0.076457 0.131198 0.139444 -0.067729 -0.039282 0.090409 -0.107268 -0.128469 -0.147342 0.049091 0.055024 -0.025901 0.116228 -0.128296 0.050111 0.033593 0.246995 0.029854 0.009895 0.064642 0.055720 0.069965 0.191950 0.287854 0.211200 0.086447 0.039409 0.003661 0.099823 0.244210 0.083915 0.085749 -0.022873 -0.040653 0.085571 -0.175255 -0.060841 -0.111402 -0.004816 0.100633 0.010489 -0.032656 -0.045883 0.095122 -0.115115 -0.109841 0.003068 0.130223 -0.126104 -0.075049 0.030653 0.226677 0.004922 -0.074233 0.165942 -0.150994 -0.028872 0.046027 -0.134716 -0.088627 0.094253 -0.024595 -0.029947 -0.337008 -0.125007 -0.225729 -0.055991 0.157749 -0.096541 0.274851
CP015834.1 0.104648 0.260275 -0.096457 0.124511 0.027447 -0.065363 0.031168 -0.071763 -0.044864 -0.079539 0.049679 0.004603 -0.181843 -0.141500 -0.182192 -0.101489 0.093604 0.213247 0.092291 -0.070565 0.074580 0.022884 -0.106656 0.299418 -0.107668 -0.201802 -0.054898 0.140167 0.011512 0.084184 0.199634 -0.218536 -0.079586 -0.134020 -0.134885 -0.013936 0.048020 -0.131200 0.174315 -0.083127 0.078330 0.041534 0.154348 0.372643 -0.321995 -0.179654 0.289660 -0.069585 0.118320 -0.110189 0.064715 0.032419 0.182776 0.183122 0.038110 0.094204 -0.204992 0.045871 0.108954 0.143517 -0.066846 0.168494 0.063817 0.089672 0.100961 -0.029640 -0.148737 0.073066 0.147691 0.069754 0.151176 -0.278241 0.070353 -0.099303 0.022834 0.141357 0.215226 0.337369 0.034115 0.216747 -0.108425 0.396946 0.326826 0.267338 -0.019241 -0.124207 0.155648 0.015628 0.085881 0.160119 0.103201 0.092427 -0.093029 -0.037447 0.164448 -0.092949 -0.056697 0.252159 -0.042481 -0.084186 -0.010082 0.138187 0.057789 0.040266 -0.121508 0.092253 0.077767 -0.159004 0.251490 0.241375 0.057228 0.038303 -0.044561 -0.103138 0.015000 -0.024929 -0.024618 0.071166 -0.010149 -0.192464 -0.096564 -0.264703 0.073555 -0.376316 -0.167297 0.391143 0.209944 -0.026068
CP013835.1 0.158557 0.094272 -0.003490 0.048082 0.000825 -0.118071 0.037139 -0.052109 -0.065945 -0.068162 -0.008728 -0.009292 0.047349 -0.064880 -0.178219 -0.064566 0.110419 0.150806 -0.043309 -0.018143 0.086299 -0.144606 0.011608 0.036487 0.067746 -0.145219 0.007067 0.008871 -0.012755 0.149422 0.031740 -0.217163 -0.134884 -0.169578 -0.024667 -0.127934 -0.083586 -0.073082 0.077093 -0.003588 0.034547 -0.143547 0.275254 0.151002 -0.092020 -0.146920 0.151537 -0.012686 0.027338 -0.091777 0.004197 0.124516 -0.017195 0.145850 0.032217 0.043117 -0.135686 -0.048046 0.059875 0.060374 0.006225 0.081297 0.013802 -0.000515 0.041401 -0.029084 -0.126302 -0.086960 0.103108 0.077541 0.082043 -0.216055 0.076582 0.035333 0.019115 0.086559 0.193539 0.098703 -0.053838 0.127701 0.129993 0.202954 0.114991 0.151628 -0.006434 -0.027085 0.077278 0.152856 -0.065933 0.079420 -0.014392 0.028584 -0.096495 -0.168467 0.104458 -0.112732 -0.001987 -0.009812 -0.015446 0.053843 -0.096601 0.118230 -0.059658 -0.021240 0.156495 0.120320 0.042243 -0.138364 0.016291 0.042100 -0.064770 0.006509 0.033642 -0.114743 0.001651 0.174311 -0.092600 0.000000 -0.054412 -0.147407 -0.041009 -0.197177 -0.051533 -0.131612 -0.212543 0.097161 -0.027322 0.102272
NC_004735 -0.014304 0.139366 0.110117 0.170505 0.018453 0.021000 0.172758 0.117922 -0.102355 -0.200531 0.152401 -0.152038 -0.008504 -0.041110 -0.151123 -0.172249 0.118688 0.026077 -0.211095 -0.084698 0.098794 0.045519 -0.031184 -0.111685 0.093511 -0.263311 0.185219 0.051858 -0.014871 0.384655 0.055364 -0.104048 -0.228811 -0.154640 -0.071761 -0.329938 -0.050092 0.240223 0.200954 -0.053899 0.072980 -0.146681 0.250296 -0.069178 -0.185169 -0.236537 0.098949 0.217257 0.011947 -0.131388 0.153297 0.169041 0.082458 0.240375 -0.054593 0.103924 -0.184087 0.097672 -0.022350 0.192755 -0.073987 0.038090 0.057421 0.035165 0.071584 -0.166176 0.013090 -0.134259 -0.009695 -0.137604 -0.145622 -0.232038 0.103682 0.027064 -0.218559 -0.169946 0.204963 0.078245 -0.094247 0.239665 0.088741 0.382121 0.116310 0.022926 0.147499 -0.008138 0.046779 0.086532 -0.115729 0.161328 -0.046830 0.072168 -0.254317 -0.293585 0.112065 -0.359857 0.104494 0.132386 0.162270 -0.109247 -0.252002 0.024998 -0.127617 -0.074924 0.147715 0.278998 0.046816 -0.252660 -0.004705 -0.000611 -0.050194 0.011708 -0.008854 0.012782 0.088658 0.099632 -0.245612 0.129072 -0.122032 0.022315 0.195362 -0.227320 0.005501 -0.148954 -0.131817 0.155645 -0.137672 0.010667
CP014583.1 0.182595 0.086700 0.014530 0.002757 0.050576 -0.192805 0.052682 -0.000376 -0.084168 -0.106118 0.001136 0.070365 -0.032604 -0.030685 -0.204322 0.053545 0.175452 0.176314 -0.066583 -0.049286 0.005981 -0.132998 -0.009074 0.147681 0.054159 -0.178536 -0.000340 0.046946 -0.088139 0.121924 0.030262 -0.251833 -0.091181 -0.222193 0.028480 -0.136792 -0.053865 -0.036518 0.046318 0.026620 0.079782 -0.174724 0.270230 0.103862 -0.060912 -0.037850 0.126002 0.059780 0.039688 -0.085111 0.037629 0.097405 0.030359 0.243186 0.012392 0.062473 -0.148217 -0.073481 0.078737 0.086425 -0.147862 0.044184 0.047491 0.041221 -0.019051 0.016974 -0.075951 -0.078256 0.091291 0.043453 0.133413 -0.184687 0.023870 -0.003002 -0.009076 0.091675 0.272545 0.055096 -0.074057 0.122988 0.168702 0.163513 0.060132 0.138749 -0.011438 -0.044378 0.097550 0.059194 -0.139852 0.058000 0.045236 0.036876 -0.088393 -0.217092 0.126778 -0.121842 -0.013852 0.032570 0.042975 0.108394 -0.085975 0.183543 -0.064068 -0.076503 0.173765 0.099709 0.110474 -0.168618 0.030184 0.018394 0.023462 0.064148 0.006645 -0.025417 -0.067214 0.203145 -0.071549 0.029302 -0.059923 -0.088386 -0.061387 -0.078768 0.020010 -0.053780 -0.185564 0.029279 -0.028442 0.084539
CP007594.1 0.405787 0.022432 0.069331 0.024792 0.250220 -0.134825 0.128363 -0.070948 -0.023593 0.139822 -0.000535 0.236631 0.006219 -0.128440 -0.328297 0.074120 0.203327 0.153468 -0.023552 0.033915 0.029832 -0.031369 0.051385 0.188458 0.097062 -0.145379 -0.015231 -0.119954 -0.004473 -0.042180 -0.058942 -0.241055 -0.162400 -0.231134 -0.100586 -0.046333 -0.114453 -0.112049 0.076439 0.082515 0.109757 -0.331461 0.211639 0.019960 -0.083832 -0.067955 -0.040277 0.112123 0.035384 0.014983 0.023406 0.032385 0.042482 0.158163 0.064108 -0.015710 -0.059025 -0.100717 0.199587 0.286074 -0.157525 -0.061535 0.170225 -0.003631 -0.184948 0.035660 -0.012075 0.057163 0.156463 0.206702 0.170838 -0.070147 -0.043416 -0.110904 0.187125 0.243358 0.408260 -0.093279 -0.190770 0.155677 0.167166 0.326545 0.164334 0.299517 0.027965 -0.090778 -0.000145 0.251839 -0.018156 0.225351 -0.184055 0.229737 -0.010534 -0.247525 -0.043784 -0.077280 -0.123370 -0.156258 0.270249 0.194875 -0.212236 0.208926 0.023692 0.043235 0.170816 0.001824 0.009876 -0.388752 0.064764 -0.026473 -0.010212 0.156782 -0.073084 -0.034352 -0.083668 0.257051 0.017425 -0.069122 -0.254366 -0.125744 0.019751 -0.087369 0.086216 0.090336 -0.121090 0.051050 0.032679 0.112190
CP013185.1 -0.013481 -0.109119 -0.191536 -0.040407 0.002037 -0.223697 -0.101773 -0.046545 -0.029761 -0.076132 -0.094371 0.097955 0.071259 0.083995 -0.168376 0.089102 0.142820 0.219121 -0.056504 -0.073710 -0.065048 -0.204007 -0.103478 0.123189 0.189695 -0.132741 -0.185616 0.207758 -0.029752 0.167795 0.263461 -0.288513 -0.026739 -0.338768 0.090927 -0.080912 -0.117176 0.067839 -0.055468 -0.125724 0.153954 -0.133153 0.214144 0.145602 -0.254979 0.018591 0.361820 0.020150 0.076573 -0.144759 0.009947 0.170281 0.079145 0.378992 -0.066680 0.093060 -0.250474 -0.092938 0.058826 0.044121 -0.233108 -0.023554 0.003441 -0.046393 0.010231 -0.118070 0.021827 -0.226499 -0.110041 -0.002008 0.221437 -0.151862 -0.075605 0.035618 -0.180537 0.058547 0.252689 0.068648 0.094693 0.232542 0.332000 0.180925 0.152768 0.169489 0.007498 -0.149019 0.162884 0.120681 -0.165135 0.032577 0.212875 0.047494 -0.105865 -0.272673 0.102264 -0.220496 -0.000869 0.246035 0.004632 0.041276 -0.010165 0.200133 -0.078706 -0.123899 0.073842 -0.000958 0.048859 -0.221686 0.073291 0.052770 -0.041175 -0.050732 0.100751 0.006024 -0.051072 0.183471 -0.096874 0.043136 -0.008479 -0.042711 -0.013087 -0.183629 0.020107 -0.222879 -0.204978 0.148884 0.068725 0.084906
NC_008201 -0.065908 -0.236710 0.199700 -0.158331 0.073414 -0.369016 0.027245 0.285067 -0.021770 -0.204289 0.044127 0.083358 -0.111454 -0.149112 -0.262592 0.133034 0.216473 0.322233 -0.122923 0.115100 -0.064710 -0.242240 0.153931 0.300231 0.048398 -0.213894 0.292179 0.231432 -0.267821 0.146421 -0.098518 -0.245058 -0.277257 -0.053858 0.029940 -0.322362 -0.124305 -0.059849 -0.072433 0.121825 0.076877 -0.092518 0.526166 0.179814 0.172596 -0.043869 0.075912 0.008380 -0.120365 -0.029816 -0.131872 0.054773 -0.145991 0.289230 0.086400 -0.018903 -0.242587 0.049058 0.160075 0.354945 -0.150289 0.031953 -0.042915 0.372810 0.043884 0.067402 -0.163602 0.081369 0.248150 -0.053309 0.128921 -0.315412 0.361721 0.130259 0.464010 -0.121780 -0.009934 0.048461 -0.188986 -0.173703 0.122752 0.101559 0.017383 -0.139124 0.132370 0.127602 0.052066 0.285043 -0.291122 -0.053285 0.052760 0.041516 -0.143481 -0.059893 0.194524 0.018759 -0.058896 0.000435 0.014584 0.114560 -0.062802 0.035873 -0.213683 -0.344975 0.119526 0.202536 0.270865 0.063138 -0.282288 0.290234 0.264765 -0.076509 -0.031000 0.175743 -0.225468 0.370744 -0.170724 0.150727 0.069898 0.008269 0.006205 -0.171263 0.134614 -0.052225 -0.197375 -0.235797 -0.305661 0.380185
CP011495.1 0.093084 0.140592 -0.003791 -0.064408 -0.025477 -0.335991 0.105690 0.026715 -0.072391 -0.107597 -0.030267 0.162820 0.127063 -0.008650 -0.154888 -0.051064 0.135451 0.143721 -0.056172 0.077807 -0.029994 -0.174524 -0.041074 0.174158 0.062411 -0.216145 0.044870 0.075433 -0.247024 0.017035 -0.071657 -0.245676 -0.142374 -0.184241 0.106334 -0.081052 -0.171325 -0.117171 0.004718 0.110763 0.146175 -0.187842 0.457174 0.126487 -0.074218 0.115442 0.104751 0.060165 0.075810 -0.108258 -0.087463 0.173508 -0.127264 0.189293 0.038301 0.002049 -0.077562 -0.072476 -0.012750 0.088086 -0.068387 0.015321 0.006602 0.076419 0.123358 -0.074639 -0.032853 -0.061954 0.216353 0.150807 0.218591 -0.166866 0.144217 0.051743 0.143142 -0.067847 0.116339 0.020377 -0.032314 0.009951 0.074311 0.143318 0.003241 0.052717 0.039927 0.043728 0.091899 0.169471 -0.062137 -0.019585 0.153429 0.019829 -0.129105 -0.130530 0.211448 -0.132436 0.050600 -0.189383 -0.114482 0.068033 -0.053037 0.035521 -0.143942 -0.117296 0.147775 0.166702 -0.041838 -0.068055 0.033992 0.047567 0.011887 0.000122 0.069634 0.010169 -0.117521 0.271617 -0.162766 0.160562 -0.040736 -0.044255 -0.008166 -0.078714 -0.010637 -0.014028 -0.221831 -0.088103 -0.104040 0.153284
NC_003291 0.301338 0.032606 0.061737 0.203162 -0.326806 0.105171 -0.019154 -0.255695 -0.134274 -0.148313 0.036708 -0.030534 0.114306 -0.075911 -0.089089 -0.404073 0.143484 0.147919 -0.303569 -0.130696 0.169533 -0.056524 -0.063326 -0.257706 0.063877 0.027261 0.097582 -0.028111 0.002751 0.450016 -0.066479 -0.161389 -0.204284 -0.124051 -0.111056 -0.189135 -0.037995 -0.025970 0.166771 0.011562 0.016712 -0.112443 0.429993 0.099199 -0.080141 -0.353608 0.223027 -0.189411 -0.003147 -0.098880 0.117028 0.165155 -0.125541 0.010856 -0.035017 0.023853 -0.072135 -0.116019 -0.051906 0.052169 0.360068 0.100750 0.013223 0.107069 0.144117 -0.136887 -0.246321 -0.079618 0.252138 0.130561 -0.092569 -0.083254 0.157933 0.077719 -0.003621 0.070554 0.050589 -0.042997 -0.169324 0.137823 0.042889 0.270646 0.289973 0.213825 0.064997 0.091605 0.027149 0.201947 0.126340 0.320405 0.005955 0.174289 -0.244805 0.001856 0.207467 -0.144741 0.035993 -0.184023 -0.024698 -0.145744 -0.243541 0.069669 -0.080971 -0.068927 0.287413 0.127249 -0.156635 -0.002974 0.052085 -0.046592 -0.334381 -0.115733 0.079739 -0.066339 0.192318 0.146085 -0.244571 0.075074 -0.112188 -0.298564 0.148367 -0.433145 0.008935 -0.171246 -0.059657 0.292686 -0.327782 0.270098
NC_006552 0.049021 0.077475 -0.105686 0.251161 0.283723 -0.228393 -0.050740 -0.029561 -0.025053 0.149510 -0.067638 0.096131 0.102909 -0.130082 -0.365779 -0.143414 0.099010 0.151881 0.179559 0.065138 0.210262 -0.237186 0.161470 0.313390 0.334706 -0.161831 0.058469 0.245839 0.277609 0.038004 0.054123 -0.124812 -0.316840 -0.169489 -0.153922 -0.036710 -0.120758 -0.156863 -0.152264 -0.049509 0.137027 -0.111194 0.153958 0.292808 -0.047657 -0.292265 0.151401 -0.074031 -0.117734 -0.003343 -0.134856 0.047706 -0.013514 0.123560 0.099695 -0.001963 -0.126463 -0.016833 0.149187 0.066277 0.153360 0.006341 -0.141667 0.023003 -0.090635 -0.146412 -0.209867 0.019001 0.012087 -0.072373 0.121682 -0.237119 0.056545 0.116419 0.404617 0.087063 -0.069459 0.139744 0.143048 0.107549 0.291567 0.363747 0.306026 0.130712 0.036085 -0.046827 0.035032 0.383908 0.056593 0.049408 -0.159669 -0.115934 0.211282 -0.168207 -0.187004 -0.001297 -0.102309 0.217858 -0.034081 -0.012376 -0.011535 0.116957 -0.018204 -0.056080 0.046391 0.110769 -0.108040 -0.119992 -0.117915 0.415893 -0.030631 -0.167345 0.093261 -0.343158 -0.063353 0.080993 -0.111493 -0.268556 0.081413 -0.035171 -0.017116 -0.518999 -0.254250 -0.406628 -0.100229 0.168896 -0.033939 0.321088
CP014488.1 0.150805 0.065794 -0.035792 0.006394 0.053204 -0.180882 0.056228 -0.056978 -0.052073 -0.038976 -0.010540 0.097563 0.006004 -0.036457 -0.215768 0.004569 0.151383 0.156686 -0.021620 0.004285 0.025133 -0.093595 -0.032793 0.151099 0.057812 -0.178890 -0.025782 0.044010 -0.070661 0.073141 0.062178 -0.231737 -0.102490 -0.184188 -0.023422 -0.058463 -0.084832 -0.052051 0.070429 0.008446 0.104770 -0.159576 0.240099 0.119956 -0.132437 -0.034429 0.144307 0.038666 0.065132 -0.036453 0.007829 0.082636 0.020612 0.214977 0.007102 0.029719 -0.137479 -0.061676 0.096466 0.115349 -0.109885 0.011098 0.073853 0.029533 0.010855 -0.032277 -0.025497 -0.058215 0.086309 0.090481 0.154160 -0.167934 0.023936 -0.007992 0.026316 0.090645 0.244075 0.035553 -0.060865 0.128937 0.120119 0.229116 0.125495 0.159355 0.012105 -0.068695 0.074032 0.143372 -0.076374 0.082158 0.043848 0.083574 -0.076873 -0.178437 0.111990 -0.106333 -0.003030 0.000308 0.048490 0.047748 -0.087773 0.123377 -0.034922 -0.050825 0.111066 0.077093 0.037818 -0.182260 0.065547 0.056688 0.001410 0.025579 0.002944 -0.031196 -0.045404 0.166905 -0.057942 0.039704 -0.088693 -0.121270 -0.006866 -0.145226 0.014542 -0.092901 -0.183215 0.073272 0.016647 0.069585
NC_004584 0.170559 0.151444 0.094881 0.173174 0.143348 -0.115768 -0.075738 0.117021 -0.037366 -0.023698 0.115405 0.345477 0.237078 -0.095115 -0.240295 0.144072 0.086419 0.212024 -0.233970 -0.034148 0.021895 0.190690 -0.019377 0.348722 0.059385 -0.165740 0.068623 0.204922 -0.332980 0.112770 0.013413 -0.235316 -0.281992 -0.252374 0.038481 -0.162304 -0.173018 -0.103791 0.059691 0.078373 0.134587 -0.093451 0.397389 -0.046641 -0.153989 -0.062229 0.011570 0.134354 -0.166228 -0.101140 0.029698 0.003698 -0.121221 -0.034106 -0.141776 0.049361 0.016446 0.091428 0.225176 0.330012 0.275040 -0.258618 -0.119047 0.284135 -0.203630 -0.073363 -0.190916 0.211923 0.099252 -0.005404 0.095878 0.206063 0.042553 -0.106781 0.024698 -0.134924 0.078273 0.046782 0.092883 0.165748 0.152607 0.354839 0.408826 0.133665 0.224857 0.018864 0.275189 0.265120 0.448250 0.321610 0.071605 0.159240 0.044988 -0.250522 -0.096487 -0.371660 -0.073978 0.113629 0.161604 0.016385 0.001477 0.063789 -0.266724 -0.127910 -0.291537 -0.037373 -0.429918 -0.077699 0.385788 0.115314 0.120060 -0.049046 0.427827 0.187980 0.053081 -0.179603 -0.160923 0.204716 0.211233 0.132171 0.011497 -0.223199 0.156264 0.046634 0.150249 0.374369 -0.003296 0.396232
CP013837.1 0.174871 0.092719 0.064914 0.035130 0.036493 -0.070629 0.012277 -0.010800 -0.112267 -0.195104 0.063785 -0.036504 -0.040674 -0.042886 -0.125727 0.003421 0.164136 0.101983 -0.150204 -0.075784 0.107642 -0.048213 0.028152 0.046195 0.035188 -0.121189 0.053596 -0.028430 -0.066179 0.230481 0.023706 -0.134457 -0.146274 -0.132999 -0.035402 -0.173995 -0.002735 -0.065428 0.126340 0.001745 -0.005804 -0.112898 0.240160 0.120026 -0.000596 -0.212844 0.075715 0.013668 -0.081592 -0.020968 0.116133 0.074692 -0.037706 0.130469 -0.005676 0.022704 -0.224581 -0.015110 0.125808 0.092876 0.074075 0.045993 0.038643 0.103643 -0.069531 -0.002448 -0.168115 -0.080561 0.121823 -0.030544 0.053838 -0.185536 0.092053 0.053599 0.019209 0.084144 0.182509 0.080098 -0.118090 0.121084 0.090279 0.179794 0.030535 0.143434 -0.023691 -0.011739 0.086172 0.055121 -0.094349 0.077115 0.053722 0.057633 -0.044470 -0.137534 0.133993 -0.138604 -0.030215 0.033543 0.016206 0.017569 -0.040127 0.149740 -0.065527 -0.107575 0.195254 0.219220 0.083881 -0.084231 0.063309 0.043651 -0.034443 0.058232 0.076437 -0.068843 0.012087 0.096586 -0.089771 0.008717 0.057520 -0.200897 -0.113814 -0.181405 -0.049161 -0.110382 -0.196329 0.102479 -0.104888 0.129125
CP014197.1 0.223584 -0.042219 0.020139 -0.055194 -0.205335 0.030742 -0.087190 -0.127654 -0.097801 -0.233287 0.075128 -0.019267 0.077661 -0.128663 -0.040734 -0.184059 0.131150 0.162944 -0.232781 -0.072897 0.131320 -0.052786 -0.000427 -0.152204 0.048905 0.006440 -0.027732 -0.094611 -0.110593 0.376959 -0.006879 -0.096096 -0.162557 -0.105330 -0.074103 -0.100500 -0.047698 -0.077261 0.181277 -0.026697 0.009244 -0.079061 0.401141 0.278126 -0.050184 -0.336808 0.167034 -0.207312 -0.094240 -0.001151 0.139057 0.153154 -0.268660 0.035031 -0.008492 -0.089195 -0.243303 -0.073716 0.094295 0.110895 0.325948 0.099427 0.017988 0.197771 0.065273 -0.080066 -0.187046 -0.106129 0.266630 0.093163 0.003766 -0.104331 0.220226 0.117803 0.166095 0.120512 0.023443 0.030107 -0.193598 0.060884 -0.043089 0.227953 0.110314 0.215204 0.010891 0.002939 0.046818 0.216574 0.066657 0.169812 0.207324 0.208222 -0.119334 0.107923 0.229612 -0.091826 -0.110125 -0.193172 -0.104146 -0.150752 -0.077035 0.040353 0.019949 -0.074904 0.244090 0.265437 -0.134862 -0.000431 0.153583 0.061984 -0.225366 -0.051797 0.086866 -0.067726 0.119406 0.106579 -0.155542 0.109641 0.048917 -0.407706 -0.065732 -0.382962 -0.011633 -0.152268 -0.208136 0.195290 -0.221705 0.212335
CP015240.1 0.121023 0.099814 0.060686 0.030253 0.158199 -0.193875 0.050271 0.104680 -0.041171 -0.101174 0.001038 0.016509 -0.000841 -0.084018 -0.232238 0.067076 0.128330 0.148955 -0.007779 0.018611 0.083583 -0.127212 0.063833 0.167201 0.081279 -0.193294 0.061355 0.042447 -0.008097 0.073075 0.028271 -0.146877 -0.182918 -0.171693 -0.040055 -0.153603 -0.064927 -0.040681 0.048822 0.043701 0.054454 -0.146191 0.252283 0.162714 -0.036727 -0.125836 0.059020 0.046910 -0.046879 -0.025339 0.020588 0.057138 -0.020895 0.151663 0.043517 0.032961 -0.174299 0.018770 0.130843 0.126934 -0.071971 0.044518 -0.017224 0.085580 -0.029488 -0.010426 -0.101338 -0.039707 0.111468 0.025388 0.072710 -0.195736 0.127352 0.008135 0.163181 0.043710 0.206039 0.105948 -0.072528 0.072135 0.153721 0.227929 0.068364 0.084083 0.065347 -0.033043 0.071465 0.172824 -0.108644 0.046827 -0.033596 0.024353 -0.025251 -0.170201 0.023467 -0.137241 -0.050513 0.061649 0.075808 0.093426 -0.065016 0.090488 -0.063411 -0.036393 0.106146 0.200977 0.047189 -0.134435 -0.005341 0.109064 0.108276 0.037925 0.044222 -0.061956 -0.084263 0.175798 -0.091540 -0.019434 -0.000688 -0.100919 -0.068988 -0.158587 -0.055487 -0.098254 -0.186407 -0.013723 -0.031706 0.120677
NC_020202 0.124137 0.011336 0.108129 -0.185244 0.067627 -0.122305 0.124616 0.143798 -0.160014 -0.108383 0.252042 0.065849 -0.386177 -0.273861 -0.363042 0.199378 0.313174 0.380106 -0.159822 -0.060584 -0.048189 -0.167419 0.209079 0.352822 -0.001043 -0.343144 0.220851 0.342573 -0.315213 0.228606 -0.077645 -0.420592 -0.165602 -0.066878 0.115119 -0.316278 -0.092131 -0.074472 -0.009724 -0.035179 0.009538 -0.044908 0.433856 0.115171 0.183037 -0.137061 0.009987 0.172002 -0.180159 -0.143692 -0.117095 -0.015967 0.043537 0.475725 -0.165226 -0.037869 -0.177022 -0.001140 0.137647 0.347816 -0.200831 0.086525 0.062698 0.216300 -0.133777 0.288616 -0.295901 0.164275 0.084194 -0.264399 0.058666 -0.372097 0.090669 0.021332 0.089687 0.111141 0.086207 0.139962 -0.216025 -0.097280 0.106840 0.096500 -0.013137 -0.079599 -0.196967 -0.008902 0.155305 0.098469 -0.249752 0.011555 0.021764 -0.098514 -0.150724 -0.329318 0.283598 0.106801 0.030395 0.175340 -0.012942 0.057852 -0.117138 0.156656 -0.165349 -0.331329 -0.004646 -0.023568 0.398899 -0.024207 -0.226002 0.238588 0.145327 0.008264 -0.125200 0.030603 -0.024926 0.113578 0.025072 0.099092 0.087213 0.054253 -0.243919 -0.042147 0.210774 -0.085549 -0.189103 0.150689 -0.109734 0.270752
CP016497.1 0.214750 -0.047645 0.009759 0.028055 0.100747 -0.106242 -0.058643 0.089125 -0.066637 -0.203663 0.036783 0.125418 -0.076633 -0.072618 -0.122586 -0.017447 0.255096 0.064622 -0.217019 -0.123606 0.022050 0.078207 -0.035784 0.184075 0.143647 -0.067102 0.032380 0.185375 -0.025535 0.246225 0.188022 -0.042016 -0.267696 -0.099190 -0.086583 -0.166712 -0.032862 0.007180 0.031257 -0.012784 0.149152 -0.132032 0.254615 0.067834 -0.094380 -0.181936 0.074381 0.028916 -0.210918 0.007142 0.191649 0.069058 0.009062 0.163074 -0.167973 -0.058584 -0.245671 0.006245 0.116154 0.259666 0.056661 -0.094592 0.062450 0.117752 -0.201231 -0.134096 -0.120143 -0.036165 0.020814 -0.070091 0.076208 -0.004630 0.038245 0.000101 0.176368 -0.020793 0.093382 0.044568 -0.081158 0.129619 0.049225 0.327809 0.089388 0.159364 0.005790 -0.022036 0.068355 0.201920 -0.037030 0.183875 0.137193 0.215747 -0.000127 -0.038693 0.074846 -0.177665 -0.054981 0.144694 0.088148 -0.056259 -0.013354 0.135939 -0.071349 -0.175048 0.021807 0.177494 -0.032091 -0.178315 0.116019 0.132543 -0.024397 0.070237 0.077853 0.019562 -0.031700 0.044512 -0.091242 0.078542 0.089706 -0.053838 -0.035101 -0.179865 0.123995 -0.181386 -0.075037 0.223688 -0.129163 0.213357
CP012635.1 0.091151 0.409293 0.166475 0.180636 0.166671 -0.306521 0.290740 -0.260841 -0.246342 -0.102371 0.049144 0.229619 0.138529 0.118052 -0.142904 -0.111765 0.100910 -0.050724 -0.091046 0.226207 0.117586 -0.006849 -0.048353 0.287026 -0.054142 -0.321144 0.204492 -0.212169 -0.435230 -0.088345 -0.277622 -0.281683 -0.118966 -0.194757 -0.014050 -0.073560 0.011219 -0.415706 0.137121 0.143879 -0.002733 -0.202973 0.303923 -0.028657 -0.074498 0.118671 -0.066608 0.227892 0.155712 0.083863 -0.166627 0.038624 -0.151961 0.115974 0.195797 0.138928 -0.078046 -0.001343 0.161208 0.122973 0.166210 -0.147560 0.188138 0.170428 -0.012917 -0.057594 0.020878 0.096596 0.332802 0.091226 0.377123 -0.288181 0.063196 0.149755 -0.003888 0.003785 0.144709 -0.075982 0.011434 0.170103 0.010705 0.211426 0.096765 0.197604 -0.069544 0.009348 0.113146 -0.079934 0.115686 -0.092204 0.150635 -0.027808 0.035634 -0.306887 0.190084 -0.201199 0.036600 -0.189848 -0.086930 0.113711 -0.048523 0.160485 -0.278155 -0.167434 0.185003 0.227399 0.076075 -0.085023 0.232298 0.112163 -0.071684 0.053158 0.245037 -0.010395 0.043671 0.084738 -0.171393 0.045745 0.082896 -0.192553 -0.031171 -0.183932 -0.269174 0.017363 -0.288951 0.045851 -0.134329 0.164121
CP015350.1 0.166191 0.143281 0.087116 0.190205 -0.259698 0.098284 0.066126 -0.084616 -0.052910 -0.195852 0.075153 -0.145647 0.235100 -0.022357 -0.041955 -0.384241 0.095387 0.058172 -0.371501 -0.203247 0.149590 0.042002 -0.090069 -0.252077 0.112678 -0.096422 0.173784 -0.022834 -0.010161 0.490683 -0.005342 -0.135941 -0.281975 -0.143008 -0.029826 -0.313484 -0.206771 0.114042 0.231059 -0.014612 0.075339 -0.196330 0.488676 -0.049798 -0.252543 -0.347461 0.135759 0.023095 0.037878 -0.273690 0.216756 0.319460 -0.012566 -0.013517 -0.079884 0.044393 -0.106620 -0.019270 -0.181731 0.129163 0.217849 0.067767 0.026192 -0.009044 0.194399 -0.278316 -0.199020 -0.148380 0.169309 0.196732 -0.145995 -0.150538 0.159624 0.085802 -0.153228 -0.122250 0.104101 0.017259 -0.112535 0.166053 0.068916 0.328637 0.160959 0.065972 0.149819 0.142986 0.081219 0.275876 0.022480 0.329681 -0.104209 0.124960 -0.349273 -0.074485 0.198623 -0.336139 0.182993 -0.232452 -0.000001 -0.147262 -0.285863 -0.038498 -0.155221 -0.046614 0.237472 0.251768 -0.174388 -0.098625 0.036192 -0.201158 -0.239407 -0.027764 0.137256 -0.052067 0.055385 0.260437 -0.327053 0.194531 -0.194916 -0.118756 0.277520 -0.282449 -0.018032 -0.122894 -0.033345 0.206846 -0.295237 0.127230
CP014522.1 0.149899 0.113880 -0.012192 0.049215 0.096069 -0.182382 0.061054 -0.004895 -0.076773 -0.068875 -0.019734 0.147910 0.038463 -0.087306 -0.200217 -0.016265 0.114854 0.168437 -0.008531 -0.004529 0.059125 -0.047188 0.010468 0.151037 0.096030 -0.105926 0.007210 0.104129 -0.038526 0.059292 -0.033177 -0.117456 -0.217771 -0.135468 -0.048757 -0.045508 -0.097948 -0.066525 0.008675 0.025313 0.092597 -0.133555 0.291012 0.191972 -0.086037 -0.104211 0.092279 -0.042024 -0.062187 0.009056 -0.006645 0.054385 -0.070578 0.105859 -0.020097 0.011317 -0.120972 -0.029035 0.042275 0.189578 0.075703 0.007984 -0.006257 0.102470 -0.051073 -0.056630 -0.101117 0.028755 0.113122 0.061725 0.100085 -0.109675 0.084284 -0.028361 0.206202 0.037001 0.085009 0.098586 -0.017278 0.041049 0.087952 0.249434 0.136575 0.120469 0.030026 -0.014121 0.104329 0.181284 0.074894 0.114582 0.049242 0.049457 -0.034756 -0.067640 0.018623 -0.122759 -0.024683 0.017512 -0.002863 -0.026027 -0.096647 0.083962 -0.075941 -0.055413 -0.019489 0.126315 -0.098602 -0.105796 0.064908 0.133406 -0.002363 -0.015865 0.090359 -0.070488 -0.007283 0.096716 -0.125888 0.025072 0.020020 -0.079506 -0.065271 -0.242014 0.007328 -0.150737 -0.118087 0.135719 -0.079047 0.188938
NC_009552 0.120118 0.338916 -0.175458 -0.248969 0.057997 -0.164010 0.030000 0.171101 -0.297326 -0.045432 0.321623 0.194665 0.158135 -0.100136 -0.168766 0.018693 -0.014641 0.112476 -0.067502 -0.113733 0.008052 -0.215212 0.056133 0.037322 0.125796 -0.356926 -0.328415 -0.117140 -0.336245 0.124090 -0.327252 -0.199491 0.019888 -0.523418 0.351867 0.068359 -0.029565 0.136304 0.071196 0.043161 0.133358 -0.276796 0.301035 0.202255 0.045494 -0.031781 0.053694 0.202119 0.053590 -0.230539 0.016458 0.319307 -0.399544 0.390264 0.127755 -0.052528 -0.264712 -0.089726 0.204250 0.026325 -0.004116 0.096959 -0.183702 0.099584 -0.141195 0.090145 0.042700 -0.211488 0.229486 -0.291086 0.208935 0.033656 -0.024931 0.166992 -0.073816 0.037850 0.219725 0.103683 0.014075 0.337932 0.136006 0.156513 -0.158953 0.277150 -0.044633 -0.156436 0.163965 -0.329822 0.217574 0.006240 0.424832 0.019086 0.101594 -0.352302 0.075370 -0.273358 -0.303906 -0.096614 -0.183547 -0.000306 -0.126552 0.237775 0.143623 -0.057264 0.347709 0.242921 -0.353883 -0.360393 0.334785 0.022505 -0.216557 0.066609 0.036942 -0.131292 0.132716 -0.056660 -0.226082 0.167309 0.140390 0.013799 -0.193336 -0.233866 -0.137585 0.080129 -0.278259 0.186471 -0.044747 0.126753
CP013029.1 0.079021 -0.029951 -0.099556 -0.114954 0.037861 -0.163658 -0.070332 0.033387 -0.010632 -0.120328 -0.050483 0.003356 0.020745 -0.046019 -0.143808 0.045379 0.092430 0.175912 -0.058195 -0.055750 -0.015099 -0.182427 -0.018844 0.129994 0.099188 -0.145128 -0.114735 0.103218 -0.009614 0.132488 0.170801 -0.222548 -0.087170 -0.216819 0.070263 -0.106186 -0.090914 -0.005185 0.032471 -0.057228 0.072301 -0.117407 0.240189 0.219451 -0.143835 -0.098590 0.199290 -0.007025 0.020633 -0.152094 0.017305 0.165922 0.014085 0.257479 -0.006893 0.023956 -0.264599 -0.049868 0.093396 0.077591 -0.129183 0.083943 0.000508 -0.027563 0.007390 -0.020479 -0.107185 -0.154033 0.004802 0.049539 0.183753 -0.200555 0.076200 0.060426 0.006345 0.094336 0.205221 0.148374 0.012060 0.138432 0.160205 0.164528 0.057680 0.149859 -0.023798 -0.081586 0.132749 0.170730 -0.149594 0.018452 0.104853 0.051918 -0.057814 -0.149662 0.120221 -0.098586 -0.019664 0.095034 -0.043368 0.078301 -0.005757 0.117767 -0.033655 -0.034353 0.077457 0.089127 0.077249 -0.177746 0.045308 0.082096 0.012036 0.009326 0.036050 -0.064341 -0.056078 0.169046 -0.040795 0.037948 -0.007443 -0.125983 -0.086115 -0.153792 -0.001638 -0.207790 -0.237945 0.110953 0.070346 0.056178
CP013253.1 0.036700 0.217998 0.040067 0.045413 -0.059315 -0.302149 0.155055 -0.026588 -0.085759 -0.138822 0.002079 0.178194 0.214655 0.023421 -0.127366 -0.181984 0.095900 0.085412 -0.120144 0.045083 0.011005 -0.056554 -0.061088 0.176464 0.051371 -0.184121 0.129964 0.076411 -0.257233 0.044592 -0.180263 -0.173360 -0.224961 -0.121825 0.092598 -0.085223 -0.193596 -0.126652 0.027028 0.171721 0.152835 -0.192013 0.501591 0.054437 -0.099161 0.056451 0.046700 0.059133 0.045078 -0.136098 -0.058580 0.183440 -0.150576 0.067553 0.022013 0.005776 -0.015134 -0.046767 -0.096187 0.143752 0.116436 -0.018510 0.002872 0.126271 0.132074 -0.160582 -0.094766 0.021783 0.275703 0.198618 0.174010 -0.130880 0.186973 0.041977 0.176374 -0.150654 0.030763 0.017271 -0.017048 -0.021361 0.015539 0.202710 0.068935 0.017741 0.108474 0.153862 0.121369 0.178310 0.084715 0.070127 0.095651 0.010714 -0.156295 -0.090142 0.189855 -0.185871 0.134580 -0.291675 -0.140385 -0.031449 -0.127629 -0.029424 -0.221471 -0.146903 0.104710 0.211779 -0.182432 -0.009413 0.085189 0.009069 -0.030579 -0.032525 0.164360 0.007852 -0.087745 0.229993 -0.262813 0.218421 -0.044571 -0.007366 0.084108 -0.157729 -0.024106 -0.028839 -0.103769 -0.022355 -0.229001 0.220575
CP010315.1 0.172846 0.126500 0.027726 0.058800 0.067559 -0.140283 0.042761 0.001345 -0.054699 -0.067889 -0.003410 0.036535 0.022824 -0.052632 -0.186999 0.013074 0.129705 0.144799 -0.034060 -0.015153 0.066974 -0.080246 0.012360 0.099838 0.053309 -0.147389 0.021482 0.023737 -0.044824 0.101737 0.022758 -0.197484 -0.153290 -0.182220 -0.038012 -0.122973 -0.073014 -0.092205 0.088419 0.017148 0.044682 -0.143178 0.260912 0.149164 -0.085762 -0.115390 0.112793 0.021263 -0.000861 -0.056129 0.033651 0.081765 0.002421 0.132653 0.021580 0.054478 -0.148489 -0.015922 0.097622 0.119667 -0.011787 0.041202 0.001776 0.064838 -0.026425 -0.009829 -0.122955 -0.041823 0.127304 0.069132 0.098631 -0.176204 0.068946 -0.006045 0.054550 0.071203 0.214692 0.096600 -0.050281 0.124855 0.124373 0.225579 0.112819 0.146472 0.028062 -0.023796 0.093471 0.132152 -0.041812 0.096993 -0.007892 0.055950 -0.056335 -0.163416 0.069897 -0.157450 -0.031053 0.022944 0.030431 0.076023 -0.059606 0.138055 -0.066410 -0.038852 0.103257 0.142528 0.022598 -0.140171 0.056601 0.050926 0.001309 0.055463 0.069441 -0.064862 -0.040964 0.157859 -0.086554 0.002393 -0.022937 -0.125239 -0.070801 -0.169384 -0.018656 -0.097610 -0.174039 0.084283 -0.021336 0.121623
CP015138.1 0.115917 0.128653 0.025749 0.099304 0.108122 -0.178308 0.124525 -0.017692 -0.119289 -0.076567 0.017701 0.152387 -0.021841 -0.062379 -0.225968 -0.040956 0.156646 0.136882 -0.035598 -0.009748 0.050371 -0.021392 -0.000193 0.191171 0.083337 -0.155520 0.070242 0.115382 -0.070428 0.070656 -0.054666 -0.144858 -0.204011 -0.129042 -0.053337 -0.084145 -0.056436 -0.034924 0.004038 0.049771 0.110369 -0.141500 0.266320 0.097776 -0.072302 -0.064053 0.068813 0.034154 -0.042696 0.010936 -0.001862 0.026420 -0.021829 0.174694 -0.026256 0.033493 -0.098647 -0.025584 0.038981 0.193409 0.012651 -0.009611 0.042239 0.112005 -0.062500 -0.052481 -0.065786 0.054022 0.106277 -0.003651 0.094313 -0.120963 0.048205 -0.035542 0.146070 0.024755 0.126883 0.049288 -0.048617 0.069142 0.093617 0.268531 0.148042 0.105889 0.026346 -0.006911 0.086375 0.114937 0.041697 0.107174 0.029511 0.041292 -0.051641 -0.158032 0.041121 -0.130447 0.011757 0.048678 0.056009 -0.020561 -0.135603 0.107076 -0.101817 -0.098518 0.026255 0.115540 -0.037191 -0.139429 0.047038 0.130051 0.005684 -0.004558 0.043068 -0.041086 0.002931 0.087863 -0.135829 0.029504 -0.007470 -0.025773 -0.013291 -0.217130 0.021145 -0.123020 -0.101608 0.131570 -0.114267 0.180363
CP011416.1 0.146054 0.013617 0.037261 0.056746 0.039509 -0.170181 0.032940 -0.033384 -0.080473 -0.134960 -0.010757 0.070750 0.020437 -0.006677 -0.181350 0.057805 0.173041 0.169547 -0.087462 -0.058283 0.036451 -0.064552 -0.035912 0.079704 0.060578 -0.113924 0.006731 0.025530 -0.067505 0.166127 0.083796 -0.204273 -0.122277 -0.191460 -0.043423 -0.144631 -0.064958 -0.030845 0.056140 0.000018 0.041839 -0.159406 0.254342 0.079965 -0.108027 -0.085376 0.151404 0.011701 -0.007560 -0.027333 0.091452 0.075781 0.017652 0.181370 -0.033584 0.069408 -0.148098 -0.054219 0.076971 0.118479 -0.063067 -0.004761 0.060345 0.051831 -0.027682 -0.039943 -0.052084 -0.072944 0.051917 0.062698 0.083439 -0.144839 0.018111 -0.022789 -0.039061 0.051257 0.256731 0.034675 -0.076668 0.126504 0.166561 0.201225 0.114413 0.145371 0.022724 -0.047494 0.093647 0.125851 -0.104846 0.111020 0.052298 0.085461 -0.110862 -0.173702 0.098047 -0.186905 0.006797 0.060643 0.087672 0.046857 -0.093238 0.157536 -0.085897 -0.076667 0.122790 0.115001 0.052901 -0.160763 0.074802 0.006284 -0.011937 0.043276 0.073786 0.001972 -0.015212 0.173408 -0.086468 0.042181 -0.039038 -0.120151 -0.040048 -0.133594 0.032571 -0.065072 -0.180857 0.083222 -0.054829 0.113321
CP011324.1 0.214495 -0.020005 0.012855 0.241943 -0.206946 -0.171253 0.009289 -0.300982 -0.210772 -0.066320 -0.040631 0.264693 0.140155 0.004187 -0.161196 -0.273938 0.189287 0.188012 -0.126347 -0.045597 0.067665 -0.116362 -0.096397 -0.146606 0.105140 0.080572 0.012460 0.082556 -0.077749 0.220314 -0.167221 -0.216213 -0.148027 -0.174617 -0.097829 -0.044118 -0.020588 -0.036362 -0.045531 0.062451 0.087812 -0.168060 0.387340 0.120224 -0.025335 -0.046236 0.288188 -0.208403 -0.003790 0.030339 0.002810 0.085351 -0.159282 0.137783 -0.013829 0.076299 -0.002119 -0.201676 -0.055120 0.093250 0.233131 0.000598 -0.036057 0.131795 0.036959 -0.119409 -0.050885 -0.040129 0.190382 0.057027 0.052635 0.003157 -0.004862 0.022472 0.071596 0.054037 0.066121 -0.120589 -0.088745 0.110865 0.139568 0.208171 0.303258 0.225818 0.021836 0.031010 0.044556 0.093067 0.155352 0.228182 0.132358 0.156266 -0.154730 -0.055094 0.081187 -0.115145 -0.018788 -0.088862 -0.030593 -0.107984 -0.237509 0.206796 -0.098413 -0.160767 0.267528 0.021494 -0.172166 -0.085431 0.066036 0.027314 -0.324451 -0.137157 0.078604 -0.031248 0.166723 0.152105 -0.241058 0.039183 -0.080907 -0.131342 0.105864 -0.430920 0.068135 -0.119216 -0.108326 0.216546 -0.366598 0.358401
CP015241.1 0.135598 0.113375 0.040628 0.115955 0.081564 -0.128178 0.053818 0.005676 -0.088328 -0.088781 -0.011554 0.009465 0.038817 -0.045913 -0.207603 -0.008554 0.136826 0.133234 -0.045931 -0.038938 0.121494 -0.081188 0.035638 0.075777 0.114477 -0.124071 0.051606 0.046417 0.021019 0.154483 0.015275 -0.127457 -0.186828 -0.159274 -0.055945 -0.127629 -0.064650 -0.017870 0.036670 0.017605 0.062390 -0.149977 0.253676 0.103279 -0.042698 -0.168423 0.091977 0.010073 -0.070206 -0.014499 0.058840 0.058119 -0.028058 0.122060 -0.008345 0.051239 -0.128339 -0.032428 0.059858 0.072475 0.049943 0.023108 -0.011689 0.055610 -0.044654 -0.059363 -0.116411 -0.062668 0.069261 0.009692 0.025499 -0.155613 0.053017 0.000565 0.075001 0.050469 0.178665 0.068501 -0.051939 0.099590 0.192721 0.231380 0.113187 0.106524 0.040369 -0.026612 0.090925 0.151674 -0.033683 0.101498 -0.018490 0.002009 -0.038647 -0.194319 0.023960 -0.185817 -0.000777 0.057477 0.054987 0.017973 -0.101015 0.118652 -0.078765 -0.051409 0.132574 0.176870 -0.040671 -0.124895 0.015877 0.057794 -0.011305 0.001992 0.093283 -0.116418 -0.004602 0.125324 -0.133796 -0.041706 0.005803 -0.107085 -0.052325 -0.219203 -0.075729 -0.107599 -0.154920 0.078801 -0.093597 0.156419
CP015995.1 0.131928 0.083284 0.062316 0.070979 0.085823 -0.166688 0.043935 0.035291 -0.081088 -0.111229 0.010969 0.040876 0.017344 -0.015977 -0.197937 0.065584 0.156919 0.146107 -0.082150 -0.043639 0.050816 -0.089015 0.019542 0.134112 0.074403 -0.160288 0.048576 0.032508 -0.068394 0.139124 0.031727 -0.205007 -0.130631 -0.204659 -0.007915 -0.162609 -0.056874 -0.042544 0.048079 0.030489 0.052701 -0.167186 0.254559 0.070712 -0.039881 -0.088987 0.098462 0.069271 -0.020945 -0.062695 0.066315 0.071909 0.007994 0.175733 0.011833 0.070663 -0.135847 -0.033911 0.094355 0.091755 -0.062061 0.012605 0.007675 0.071883 -0.049304 -0.009785 -0.098586 -0.058068 0.076895 0.008739 0.087343 -0.161753 0.045741 -0.007675 0.003735 0.045875 0.253412 0.060115 -0.065468 0.127216 0.195668 0.186726 0.090587 0.118356 0.043865 -0.024716 0.102956 0.085684 -0.097256 0.083468 -0.004643 0.027919 -0.057050 -0.238128 0.067458 -0.180989 -0.011077 0.060273 0.084692 0.089657 -0.066435 0.160878 -0.097542 -0.089299 0.158945 0.141620 0.053226 -0.154161 0.037390 0.031711 0.037393 0.053058 0.082852 -0.028665 -0.056615 0.160940 -0.099604 0.004272 -0.007558 -0.081585 -0.055750 -0.117202 -0.017137 -0.048106 -0.160152 0.036482 -0.054186 0.130108
CP013663.1 0.186039 0.162608 0.038118 0.106775 0.074358 -0.151713 0.060813 -0.009153 -0.106335 -0.069802 0.023597 0.054492 -0.010985 -0.062016 -0.223366 -0.016144 0.159554 0.158346 -0.057521 -0.045913 0.083043 -0.107551 0.031352 0.134241 0.089215 -0.149740 0.061127 0.076064 -0.014502 0.134390 -0.009554 -0.185355 -0.151126 -0.176338 -0.017480 -0.137688 -0.052460 -0.043213 0.026686 0.026670 0.063673 -0.143632 0.251996 0.102122 -0.019786 -0.124314 0.101181 0.033029 -0.027050 -0.054927 0.022538 0.055490 -0.000510 0.174302 -0.000754 0.055776 -0.106271 -0.046916 0.066479 0.070722 -0.003613 0.036508 -0.016310 0.061700 -0.037638 -0.010476 -0.139200 -0.030881 0.087507 -0.020650 0.058461 -0.159694 0.030799 0.001333 0.053901 0.076247 0.185930 0.066809 -0.056729 0.103477 0.185169 0.199668 0.123703 0.108275 0.010824 -0.010084 0.092038 0.094802 -0.043038 0.085942 -0.027917 -0.013139 -0.039060 -0.216982 0.053688 -0.129694 -0.007532 0.068547 0.048089 0.057370 -0.082932 0.149116 -0.075141 -0.077890 0.148629 0.114453 0.017875 -0.119183 -0.001933 0.073280 -0.004274 0.007024 0.050823 -0.094543 -0.011733 0.122676 -0.106018 -0.038882 -0.002806 -0.063140 -0.061765 -0.181308 -0.036348 -0.102376 -0.126469 0.087725 -0.085581 0.163532
CP017100.1 0.144154 -0.029904 -0.041837 0.170744 -0.177926 -0.184369 -0.053067 -0.177799 -0.140175 -0.013176 -0.036923 0.159541 0.020977 -0.011373 -0.176873 -0.137530 0.204850 0.246996 -0.044885 -0.075772 -0.011124 -0.195661 -0.081987 -0.026206 0.078026 -0.017264 -0.006605 0.213898 -0.053022 0.203784 0.007563 -0.326541 -0.079809 -0.210274 -0.029279 -0.094782 -0.047843 -0.071169 -0.073785 -0.031878 0.075296 -0.112939 0.324991 0.159042 -0.053498 0.005277 0.351303 -0.129107 0.049458 -0.100576 -0.013011 0.111192 0.018500 0.272073 -0.029774 0.096448 -0.037647 -0.162251 -0.026244 0.046116 -0.014997 0.064185 -0.050509 0.040189 0.049581 -0.033517 -0.111141 -0.072892 0.071402 -0.006758 0.105479 -0.120226 -0.080683 0.004920 -0.056301 0.062879 0.135381 0.024874 -0.005074 0.141514 0.194542 0.137676 0.243944 0.173722 -0.047265 -0.006279 0.086137 0.059213 -0.036111 0.127241 0.084709 0.065551 -0.146566 -0.131918 0.127407 -0.063792 -0.004888 0.088542 -0.068714 0.000881 -0.102193 0.268909 -0.055822 -0.172328 0.209579 -0.044288 0.044731 -0.109669 -0.022121 0.068640 -0.202846 -0.073594 0.009070 -0.050122 0.038161 0.177281 -0.134445 0.020270 -0.069273 -0.026286 0.005399 -0.262176 0.112244 -0.174076 -0.152614 0.186824 -0.162564 0.251603
NC_007409 0.254962 -0.121412 0.066408 -0.016962 0.171601 -0.135568 -0.023381 0.181171 -0.065600 -0.358669 0.113396 0.226189 -0.068328 -0.058433 -0.060690 0.011600 0.308730 -0.056958 -0.401273 -0.161990 -0.058485 0.290114 -0.108147 0.218451 0.135498 -0.082164 0.062577 0.191192 -0.140558 0.294049 0.286818 0.048210 -0.363674 -0.059706 -0.086259 -0.206156 -0.028511 0.096852 0.103825 -0.000180 0.210692 -0.181443 0.265362 -0.103704 -0.158908 -0.135914 0.000364 0.138523 -0.275769 0.014209 0.324513 0.109581 0.031961 0.184890 -0.283501 -0.113346 -0.335576 0.066452 0.164272 0.464382 0.040310 -0.232704 0.171952 0.153086 -0.323651 -0.224637 -0.034326 -0.017657 -0.000967 -0.110452 0.098104 0.135565 0.046208 -0.008161 0.165448 -0.156470 0.118830 -0.000178 -0.131886 0.188960 -0.051499 0.439580 0.057039 0.170780 0.067989 -0.024827 0.081893 0.226077 -0.038933 0.280964 0.238767 0.413368 -0.028166 -0.006697 0.112858 -0.307602 -0.047630 0.166644 0.180778 -0.111440 -0.020616 0.092773 -0.103105 -0.255196 -0.046331 0.244275 -0.079949 -0.287192 0.238465 0.104850 0.014048 0.141713 0.097327 0.209784 -0.023828 -0.007038 -0.113037 0.228899 0.099993 0.012654 0.044030 -0.121973 0.294564 -0.133542 -0.037060 0.302275 -0.159304 0.199423
CP010876.1 0.185210 0.170175 -0.061605 0.134020 0.174373 -0.135365 -0.024143 0.030790 -0.028111 0.123198 -0.012861 -0.008070 0.074151 -0.142713 -0.278927 -0.128906 0.079851 0.123862 0.058165 0.068804 0.182953 -0.257286 0.131601 0.122630 0.236774 -0.189675 0.053119 0.117925 0.192011 0.059077 0.018234 -0.166266 -0.193024 -0.216067 -0.039340 -0.133983 -0.093099 -0.051271 -0.040320 -0.033222 0.083211 -0.138024 0.185177 0.196412 -0.015135 -0.207890 0.143291 0.020732 -0.033668 -0.110962 -0.131014 0.099654 -0.024422 0.183945 0.084484 0.032440 -0.117533 -0.007448 0.127385 0.005982 0.035988 0.071100 -0.142651 -0.055833 -0.017355 -0.064615 -0.177885 -0.090823 0.036983 -0.098374 0.060787 -0.194957 0.054700 0.106110 0.189881 0.111272 0.091769 0.144971 0.038434 0.172536 0.285516 0.268012 0.210047 0.116801 0.012406 -0.054928 0.052585 0.241483 -0.000413 0.007143 -0.171217 -0.078961 0.089474 -0.283085 -0.101393 -0.066846 -0.081062 0.143816 0.005409 0.107901 -0.013689 0.101684 0.000451 -0.002588 0.183710 0.112154 -0.009715 -0.160560 -0.137202 0.246855 -0.034333 -0.099282 0.012352 -0.269437 -0.007417 0.095934 -0.109448 -0.206473 0.006050 -0.020875 -0.024231 -0.361469 -0.178755 -0.270750 -0.159326 0.092358 0.011184 0.198669
NC_008723 -0.066009 -0.095228 0.259728 -0.109357 0.106381 -0.414077 -0.018288 0.308915 0.091744 -0.202463 -0.123170 0.098581 0.114352 -0.027530 -0.151141 0.060075 0.035772 0.139383 -0.064169 0.271345 -0.108472 -0.318136 0.042885 0.130797 -0.047965 -0.222555 0.189130 -0.016288 -0.284490 -0.098036 -0.222699 -0.254094 -0.210192 -0.236626 0.031701 -0.323263 -0.084188 -0.129820 0.082439 0.279511 0.028393 -0.165319 0.504728 0.281456 0.014732 0.096296 0.028581 0.070793 0.075001 -0.115961 -0.165242 0.144959 -0.189655 0.147258 0.297858 0.104721 -0.246966 0.106669 0.212311 0.318059 -0.217130 0.047825 -0.183155 0.349856 0.094481 0.061358 -0.124032 -0.015243 0.443863 0.179736 0.219148 -0.219994 0.518170 0.118920 0.443666 -0.199247 0.127502 0.041207 -0.042105 -0.031474 0.054841 0.130109 -0.022010 -0.010740 0.297534 0.157048 0.023564 0.179421 -0.212820 -0.052044 0.029216 0.186542 -0.167835 0.024547 0.043700 -0.117539 -0.187336 -0.177285 0.070872 0.351664 -0.051561 0.021358 -0.253062 -0.079779 0.161349 0.286249 0.148695 0.025073 -0.094671 0.134699 0.271922 0.036728 0.091765 0.320645 -0.347374 0.471933 -0.220237 0.172459 -0.085209 -0.110166 0.109814 -0.149385 0.031781 0.003925 -0.231626 -0.380187 -0.242829 0.288311
NC_004585 0.016392 -0.040113 -0.312586 0.003767 -0.137876 -0.203278 -0.150020 -0.125541 -0.109591 0.018240 -0.005210 0.155787 0.075134 0.127803 -0.139486 0.007238 0.197048 0.230041 -0.115490 -0.144348 -0.141872 -0.278091 -0.153615 0.013417 0.251754 -0.169215 -0.292823 0.320700 -0.093856 0.242495 0.227179 -0.421065 0.062891 -0.488556 0.218825 -0.056657 -0.134660 0.097083 -0.069464 -0.207278 0.193953 -0.119756 0.221799 0.116209 -0.258508 0.078516 0.525522 0.088405 0.142666 -0.296276 -0.019339 0.281190 0.116822 0.560617 -0.119722 0.130885 -0.240236 -0.153441 0.038150 -0.016967 -0.248307 -0.057939 -0.077778 -0.126023 -0.012685 -0.107012 0.007945 -0.327058 -0.140246 -0.173038 0.273063 -0.132228 -0.242734 0.088637 -0.443122 0.047528 0.223226 0.030885 0.193451 0.390113 0.418366 0.146916 0.178346 0.241549 -0.093390 -0.194799 0.180934 -0.059676 -0.127963 0.066790 0.322082 0.027846 -0.110604 -0.391849 0.159395 -0.249176 -0.039319 0.340814 -0.103100 0.042262 0.017220 0.321477 -0.064603 -0.226093 0.177772 -0.142594 0.045243 -0.260302 0.065975 0.002275 -0.272887 -0.077902 0.086324 -0.007657 0.015145 0.122548 -0.122787 0.034335 0.004759 0.057023 -0.009683 -0.244031 0.071970 -0.276713 -0.190621 0.305687 0.055143 0.144584
CP010371.1 0.131722 -0.017319 0.151712 -0.065192 0.074905 -0.263738 -0.003409 0.157371 0.029676 -0.115584 -0.104074 0.043911 0.028451 -0.045955 -0.165275 0.091540 0.092836 0.159532 -0.040402 0.100705 -0.045367 -0.254919 0.051197 0.069835 0.010560 -0.153244 0.069587 -0.019480 -0.120589 -0.003288 -0.099477 -0.254583 -0.148292 -0.231008 0.013391 -0.230702 -0.083400 -0.120048 0.079458 0.144678 0.017266 -0.187369 0.376414 0.236824 -0.012172 -0.016499 0.061244 0.043526 0.036717 -0.116687 -0.040150 0.119394 -0.049659 0.158883 0.159881 0.078875 -0.203607 -0.004167 0.144159 0.204347 -0.196924 0.081964 -0.083901 0.157794 0.007734 0.083579 -0.164238 -0.060793 0.290796 0.164984 0.160235 -0.215368 0.268928 0.028831 0.237089 0.000414 0.235044 0.061682 -0.083999 0.039751 0.126091 0.133752 -0.017553 0.096865 0.121337 0.051742 0.048511 0.153458 -0.209259 0.042147 -0.031792 0.126990 -0.135815 -0.073549 0.057579 -0.095146 -0.127832 -0.099244 0.071383 0.291721 -0.074319 0.136644 -0.129556 -0.028165 0.176874 0.174367 0.166017 -0.087045 -0.066678 0.019995 0.123396 0.100543 0.035689 0.123735 -0.240871 0.397453 -0.101678 0.046779 -0.116667 -0.152795 -0.022123 -0.090462 0.031323 -0.012217 -0.226387 -0.194561 -0.124849 0.183613
CP012870.1 -0.080844 0.056982 0.229435 0.007533 0.039179 -0.419687 0.115540 0.166300 -0.052132 -0.218393 -0.046685 0.127384 0.006183 -0.004752 -0.149382 -0.006322 0.120580 0.139689 -0.070520 0.212492 -0.070891 -0.201147 -0.009079 0.268183 -0.076673 -0.246733 0.273859 0.096643 -0.366174 -0.030573 -0.190971 -0.277766 -0.177824 -0.133497 0.019713 -0.258188 -0.043003 -0.197614 0.018112 0.208366 0.054896 -0.097953 0.490845 0.172427 0.016896 0.156013 0.074091 0.095596 0.083312 -0.078511 -0.164652 0.071715 -0.111135 0.203344 0.193266 0.113296 -0.138865 0.064013 0.104698 0.243085 -0.137714 0.025978 -0.046536 0.338205 0.142216 0.019016 -0.097617 0.080275 0.370361 0.079732 0.236683 -0.287539 0.357063 0.090647 0.305991 -0.179218 0.070856 0.052831 -0.053227 -0.050568 0.008002 0.135413 0.047934 -0.038840 0.160067 0.148515 0.079473 0.087304 -0.152822 -0.087647 0.102041 0.054960 -0.172341 -0.082258 0.198747 -0.097653 -0.019722 -0.091488 -0.034579 0.196965 -0.018970 0.042610 -0.270317 -0.221062 0.127782 0.246985 0.211512 0.048115 -0.062766 0.195801 0.209732 -0.003323 0.066657 0.220225 -0.227197 0.335696 -0.208203 0.189674 -0.000015 -0.042532 0.055379 -0.123771 0.038857 -0.041297 -0.214681 -0.232702 -0.242111 0.265689
NC_004086 0.131098 0.216290 -0.084855 0.293766 0.319238 -0.261903 -0.047912 0.014288 -0.038211 0.229751 -0.077046 0.024365 0.154402 -0.145623 -0.382710 -0.220914 0.071719 0.131476 0.143247 0.176583 0.274502 -0.383681 0.181217 0.259461 0.368184 -0.232012 0.132947 0.203638 0.315570 -0.010751 -0.001009 -0.171588 -0.282542 -0.261638 -0.076949 -0.158271 -0.110914 -0.107065 -0.160376 -0.031174 0.135534 -0.153551 0.181156 0.245125 -0.004050 -0.236986 0.176044 0.009315 -0.026442 -0.097216 -0.264790 0.087646 -0.023725 0.202903 0.173682 0.068106 -0.107410 0.005960 0.157670 -0.047850 0.094074 0.029338 -0.244146 -0.064718 -0.012002 -0.157348 -0.200547 -0.077956 0.017092 -0.165990 0.114875 -0.271769 0.080691 0.190827 0.345194 0.107675 0.012723 0.166481 0.146319 0.208636 0.441893 0.344610 0.353629 0.113465 0.051405 -0.044135 0.065556 0.348597 0.033041 -0.063067 -0.273428 -0.193365 0.209387 -0.387220 -0.237041 -0.035343 -0.091479 0.246369 0.002425 0.142814 0.027491 0.110220 -0.040258 -0.034891 0.222272 0.130546 -0.039054 -0.157313 -0.237365 0.433969 -0.005710 -0.227713 0.059273 -0.394355 -0.035554 0.097170 -0.164849 -0.357705 0.042119 0.040361 0.028586 -0.551722 -0.345760 -0.416478 -0.147466 0.075445 -0.011974 0.314683
NC_009819 0.262931 -0.191692 -0.020549 -0.222104 -0.261835 0.067853 -0.214161 -0.117826 -0.070324 -0.358064 0.081572 -0.169137 0.132469 -0.167737 -0.028515 -0.080163 0.128248 0.283386 -0.226858 -0.157948 0.215697 -0.099101 0.061224 -0.249117 0.080657 0.071498 -0.122448 -0.223159 -0.046867 0.549672 0.101426 -0.047548 -0.202409 -0.101232 -0.111609 -0.091543 -0.128478 -0.168174 0.267569 -0.111284 -0.080779 -0.089392 0.511055 0.538182 -0.063899 -0.587190 0.232933 -0.381983 -0.176446 0.034325 0.281471 0.220939 -0.404739 -0.040799 0.012290 -0.174962 -0.458009 -0.078712 0.150578 0.107859 0.449657 0.235471 0.039351 0.230461 0.053256 -0.070363 -0.298950 -0.224732 0.318160 0.227662 -0.012720 -0.205074 0.336737 0.149524 0.296681 0.260559 0.069974 0.166214 -0.293258 0.017958 -0.050346 0.222413 0.011490 0.296371 -0.016356 -0.019658 0.087203 0.375820 -0.034428 0.173592 0.266418 0.231310 -0.102521 0.265012 0.314546 -0.077147 -0.180120 -0.276228 -0.204298 -0.217587 -0.023961 0.067589 0.123493 -0.030469 0.319884 0.463343 -0.131323 0.009747 0.203924 0.046837 -0.249911 -0.000113 0.139457 -0.183944 0.082043 0.211049 -0.143923 0.122555 0.132052 -0.690743 -0.252106 -0.460232 -0.071709 -0.236406 -0.410055 0.179723 -0.193562 0.203296
CP014497.1 0.171958 0.107478 -0.029332 0.018097 0.056293 -0.112710 0.048573 0.005618 -0.069905 -0.044501 0.022036 0.028987 -0.041529 -0.104069 -0.212623 -0.042108 0.137697 0.157647 -0.048531 -0.036948 0.055462 -0.098494 0.019413 0.085827 0.076046 -0.173462 -0.000054 0.121929 -0.013092 0.127653 0.033558 -0.218798 -0.155067 -0.168128 -0.014532 -0.121747 -0.066488 -0.021877 0.067317 -0.024413 0.089730 -0.129638 0.250078 0.139108 -0.076023 -0.133960 0.133085 0.036934 -0.016258 -0.093776 -0.001381 0.092482 0.035672 0.230069 -0.034530 0.035100 -0.159318 -0.029777 0.076553 0.143559 -0.040372 0.061191 0.011518 0.016086 -0.037867 -0.003980 -0.127486 -0.058368 0.044705 -0.018910 0.095443 -0.202332 0.044766 0.013009 0.024014 0.080977 0.179844 0.105163 -0.042149 0.131042 0.121954 0.235802 0.112956 0.137103 -0.033963 -0.053419 0.087342 0.130119 -0.060748 0.097552 0.007519 0.039379 -0.069888 -0.193894 0.085586 -0.091296 -0.012689 0.087466 -0.007458 0.033139 -0.106363 0.141020 -0.058264 -0.068747 0.081748 0.083813 0.055962 -0.172869 -0.013467 0.098097 -0.032240 0.015958 0.000541 -0.100339 0.010664 0.110067 -0.067170 -0.001750 -0.041539 -0.072773 -0.054256 -0.203056 0.021871 -0.179183 -0.178588 0.157330 -0.022903 0.114989
NC_005258 0.222151 -0.133024 -0.042561 -0.175704 0.013023 -0.132220 -0.095695 -0.015194 -0.033255 -0.200992 0.045462 -0.037383 0.338970 -0.089546 -0.113858 0.125213 0.063546 0.252736 -0.040815 -0.153300 0.209681 -0.038780 0.147283 -0.130300 0.166506 0.034861 -0.167519 -0.273741 0.050966 0.307309 0.070017 -0.034766 -0.248477 -0.135737 -0.095494 -0.023562 -0.278133 -0.296697 0.149112 -0.080129 -0.122639 -0.264063 0.387106 0.497240 -0.108508 -0.466031 0.116703 -0.263718 -0.169963 -0.032458 0.272513 0.255381 -0.336802 -0.109110 0.080667 -0.148278 -0.396633 -0.065936 0.083246 0.181419 0.283749 0.191003 0.033170 0.085732 -0.114028 -0.109648 -0.218903 -0.198248 0.210446 0.390253 0.106894 -0.199515 0.247430 0.064173 0.311663 0.222261 0.245861 0.249975 -0.184871 -0.002811 0.102913 0.204164 -0.052670 0.230976 0.081846 0.027386 0.110916 0.482713 -0.087561 0.150312 0.001564 0.134677 -0.028783 0.140861 0.099937 -0.114323 -0.114441 -0.338964 -0.150385 -0.108768 -0.029372 0.129677 0.093205 0.032197 0.215337 0.459165 -0.117567 -0.206426 0.193673 -0.020476 -0.166467 0.113218 0.204717 -0.233613 -0.113949 0.341149 -0.098536 0.089525 0.042166 -0.545572 -0.283438 -0.308946 -0.166712 -0.171125 -0.442814 0.055374 0.005073 0.167300
CP015912.1 0.185062 0.114425 -0.019858 0.006005 0.024609 -0.133060 0.031485 0.029582 -0.068816 -0.037277 0.011144 0.091546 0.001573 -0.106829 -0.199536 -0.021609 0.118645 0.193972 -0.039445 -0.046430 0.022046 -0.100990 0.000015 0.117750 0.049471 -0.143017 -0.030049 0.083745 -0.061908 0.095530 -0.020132 -0.203649 -0.134379 -0.193440 0.013142 -0.074168 -0.083475 -0.032442 0.048203 0.033589 0.095055 -0.138926 0.308398 0.186675 -0.078631 -0.087474 0.123080 -0.002296 0.004223 -0.102083 0.015538 0.097879 -0.032205 0.177902 0.004168 0.024282 -0.116340 -0.048082 0.061026 0.132923 -0.032931 0.072089 -0.023104 0.081535 -0.007936 0.010767 -0.132172 -0.014475 0.135725 0.057999 0.100082 -0.125009 0.065397 -0.031963 0.102926 0.072998 0.179951 0.095163 -0.051015 0.098731 0.096345 0.217187 0.120359 0.155250 0.018892 -0.026507 0.102847 0.119373 0.021888 0.122629 0.039175 0.074495 -0.081127 -0.130216 0.075356 -0.113413 -0.056205 -0.001446 0.009212 0.043450 -0.100198 0.126837 -0.025463 -0.028044 0.073916 0.089787 -0.046768 -0.154410 0.065077 0.069891 -0.012888 0.016819 0.010349 -0.055980 -0.026348 0.137899 -0.098109 0.052850 -0.040887 -0.076045 -0.060579 -0.178246 0.048962 -0.095388 -0.133986 0.120230 -0.031756 0.141756
NC_009543 0.097766 0.344345 -0.052130 0.266233 0.045966 0.019771 0.046070 -0.127623 -0.125698 -0.104044 0.166378 -0.001082 -0.331843 -0.177883 -0.239471 -0.115036 0.167399 0.276969 0.071088 -0.146740 0.124512 0.148281 -0.117134 0.442262 -0.178509 -0.261816 0.025907 0.140542 0.012225 0.178859 0.224977 -0.192699 -0.090782 -0.142078 -0.240967 0.010639 0.132264 -0.189054 0.235727 -0.155136 0.048664 0.138647 0.116875 0.457457 -0.386036 -0.300530 0.326650 -0.085136 0.113856 -0.073942 0.180171 -0.049724 0.275687 0.184060 0.069866 0.115712 -0.228771 0.096704 0.192485 0.217963 -0.026668 0.191927 0.109809 0.239137 0.055455 -0.010788 -0.234497 0.223425 0.235461 -0.013101 0.111256 -0.287383 -0.011640 -0.179435 0.039663 0.193896 0.206220 0.415820 0.013215 0.305737 -0.194741 0.530841 0.478834 0.368048 -0.024685 -0.133070 0.196356 -0.114396 0.206542 0.252490 0.097608 0.135579 -0.060351 -0.027937 0.181452 -0.149980 -0.143873 0.399472 0.029316 -0.181917 0.022119 0.213654 0.166017 0.005593 -0.157852 0.131103 0.084879 -0.175208 0.382732 0.329813 0.072210 0.066722 -0.082627 -0.103878 0.058933 -0.147989 -0.023127 0.058571 0.059917 -0.231471 -0.127233 -0.364922 0.129146 -0.452343 -0.081765 0.584171 0.209643 0.014727
CP012125.1 0.234219 -0.039893 0.037236 0.210416 -0.165094 -0.223672 -0.008209 -0.254847 -0.199177 -0.096007 -0.031883 0.223603 0.062474 0.022674 -0.155994 -0.153137 0.254688 0.199605 -0.097296 -0.096117 0.033728 -0.123707 -0.066145 -0.031304 0.060767 0.076055 0.030185 0.076489 -0.079678 0.212297 -0.097629 -0.250680 -0.102153 -0.150529 -0.072808 -0.077707 -0.011950 -0.138077 -0.078319 0.057683 0.038822 -0.177632 0.353116 0.123104 0.045053 -0.021189 0.261820 -0.180762 -0.019127 -0.009524 0.052786 0.067383 -0.083295 0.172181 -0.004744 0.063434 -0.010453 -0.225802 -0.028442 0.052585 0.128931 0.026973 0.020374 0.105913 -0.005454 -0.048884 -0.110236 -0.031982 0.159878 0.063211 0.103089 -0.063460 -0.047348 0.002205 0.063209 0.109064 0.151739 -0.059607 -0.118890 0.078883 0.162894 0.119255 0.222656 0.207614 -0.043990 0.066626 0.060862 0.060020 -0.011416 0.156444 0.082908 0.096949 -0.119431 -0.095573 0.138051 -0.058956 0.000919 -0.074085 -0.042208 -0.031776 -0.134935 0.283444 -0.071101 -0.200669 0.328632 0.044712 -0.001403 -0.095470 0.034408 0.020877 -0.246281 -0.038718 0.046979 -0.062525 0.060470 0.205405 -0.159043 0.014961 -0.048790 -0.121986 -0.022954 -0.257284 0.086223 -0.075484 -0.158626 0.140635 -0.296570 0.318216
CP008697.1 0.145216 0.071847 0.026288 0.096700 0.033926 -0.205895 0.091416 -0.022482 -0.125292 -0.112998 -0.033013 0.214271 0.046163 -0.022596 -0.176407 -0.044598 0.175567 0.138648 -0.087533 -0.041269 0.009024 -0.012407 -0.057152 0.096909 0.103766 -0.070399 0.028131 0.132134 -0.097224 0.101646 -0.056783 -0.138647 -0.203356 -0.157313 -0.035989 -0.069597 -0.073703 -0.000316 -0.030218 0.068979 0.135037 -0.181480 0.329235 0.073463 -0.081358 -0.009115 0.113329 -0.015379 -0.058117 0.007542 0.045258 0.063782 -0.065392 0.157254 -0.066529 0.038802 -0.085725 -0.068179 -0.011279 0.210123 0.041272 -0.043176 0.016583 0.120283 -0.070822 -0.091025 -0.040020 0.002420 0.109954 0.039253 0.094135 -0.040631 0.025164 -0.052285 0.128324 -0.021753 0.130684 -0.001309 -0.045748 0.062585 0.104211 0.245629 0.132095 0.124562 0.051069 0.006452 0.095652 0.118941 0.062434 0.162059 0.109366 0.114695 -0.101991 -0.107871 0.047421 -0.197010 0.005988 0.006514 0.048233 -0.031556 -0.159709 0.137741 -0.123134 -0.119102 0.047134 0.110533 -0.113582 -0.155944 0.077445 0.055406 -0.055020 -0.004079 0.086056 0.017981 0.010126 0.134818 -0.181091 0.086118 -0.014934 -0.018262 0.004568 -0.209513 0.078228 -0.070753 -0.101877 0.126053 -0.187594 0.229251
CP012126.1 0.161718 0.107892 0.053621 -0.071011 0.073630 -0.104118 0.113305 0.039308 -0.136648 -0.063171 0.136870 0.024370 -0.245937 -0.211748 -0.303138 0.058321 0.225793 0.280184 -0.055419 -0.001437 0.050458 -0.170124 0.148033 0.240661 0.031886 -0.276532 0.151290 0.195873 -0.161342 0.151399 -0.058838 -0.316304 -0.154583 -0.091005 0.012062 -0.204068 -0.068996 -0.147486 0.026297 -0.033338 0.008889 -0.055410 0.345274 0.184420 0.088271 -0.153288 0.048078 0.092058 -0.089489 -0.069218 -0.123372 0.003102 0.008510 0.335838 -0.054952 -0.008001 -0.161212 -0.009985 0.126475 0.201783 -0.076721 0.116380 0.050646 0.150740 -0.065315 0.172591 -0.237461 0.089467 0.107560 -0.152093 0.093574 -0.342937 0.075743 0.025613 0.123872 0.162105 0.107651 0.141806 -0.141588 -0.023753 0.099745 0.152480 0.056867 0.030809 -0.159580 -0.030983 0.104108 0.105858 -0.148133 -0.006006 -0.003389 -0.087020 -0.078643 -0.260846 0.204188 0.069669 -0.011385 0.117574 -0.032759 0.052619 -0.077701 0.147617 -0.101163 -0.188827 0.054643 0.041015 0.281467 -0.063242 -0.156084 0.235361 0.057773 0.002584 -0.084475 -0.093898 -0.004948 0.100737 -0.009786 -0.009303 0.064724 -0.066000 -0.207295 -0.138214 0.037393 -0.156828 -0.221762 0.129423 -0.049340 0.203649
NC_003216 0.209859 0.275755 0.153498 0.181716 0.293929 -0.078265 0.027912 -0.107469 -0.169002 -0.142827 0.236327 0.306398 -0.017609 -0.037859 -0.225445 0.055644 0.199387 0.044056 -0.281578 -0.076252 0.114850 0.321520 -0.020532 0.594638 -0.046275 -0.238457 0.137206 -0.110372 -0.312546 0.114401 -0.016721 -0.061134 -0.195362 -0.170538 -0.064689 -0.056771 0.047553 -0.229362 0.189118 0.100900 0.055253 -0.081206 0.149635 -0.024953 -0.131966 -0.195741 -0.153861 0.162436 -0.094721 0.075711 0.191986 -0.086294 -0.066797 0.003043 0.008465 0.012626 -0.166873 0.093291 0.361427 0.295831 0.248236 -0.245562 0.142461 0.352905 -0.291819 -0.064091 -0.161334 0.268385 0.258668 -0.052718 0.223604 0.076464 0.007314 -0.008780 0.132579 0.075988 0.150960 0.003973 -0.053275 0.239647 -0.023716 0.404054 0.312717 0.279641 0.079487 0.020448 0.213753 -0.028212 0.357760 0.211725 0.114710 0.196719 0.203280 -0.208521 0.016150 -0.251031 -0.125661 0.065591 0.214251 -0.058094 0.055292 0.152632 -0.074085 -0.175696 -0.021425 0.196096 -0.204625 -0.106831 0.526355 0.184063 0.114130 0.088647 0.282808 0.082984 0.049485 -0.246069 -0.094263 0.092204 0.242297 -0.133859 -0.047936 -0.230626 -0.011558 -0.011816 0.088824 0.383818 -0.046074 0.241061
CP012127.1 0.281354 -0.171439 0.056417 -0.172251 -0.068550 -0.008181 -0.134573 -0.040240 -0.043371 -0.280623 0.069843 -0.109238 0.180280 -0.144505 -0.090777 0.087247 0.142763 0.253582 -0.162118 -0.145827 0.230360 -0.039623 0.148188 -0.169176 0.108633 0.064556 -0.081554 -0.291903 0.005718 0.419158 0.067987 -0.015739 -0.229996 -0.097023 -0.137304 -0.101984 -0.169736 -0.225755 0.209355 -0.052618 -0.129251 -0.194761 0.427239 0.437351 -0.012824 -0.536674 0.093446 -0.292909 -0.221886 0.048947 0.304841 0.174127 -0.342337 -0.097308 0.038747 -0.162407 -0.381921 -0.078457 0.150336 0.146723 0.348743 0.175449 0.058004 0.164911 -0.080059 -0.047455 -0.266691 -0.180646 0.267496 0.290537 -0.005157 -0.177424 0.267719 0.068974 0.319595 0.261492 0.203139 0.155516 -0.305147 -0.023396 0.050598 0.199382 -0.040072 0.240527 0.040126 0.015393 0.069886 0.413158 -0.105006 0.165315 0.062521 0.190416 -0.051168 0.166367 0.176198 -0.095124 -0.145988 -0.314844 -0.073271 -0.117922 -0.038421 0.097391 0.100328 0.000431 0.309731 0.457991 -0.077667 -0.091396 0.169371 -0.016233 -0.156543 0.097008 0.154241 -0.188199 -0.032547 0.288737 -0.089592 0.054031 0.070951 -0.609420 -0.285309 -0.314358 -0.106884 -0.106415 -0.383623 0.046943 -0.122447 0.190573
CP011113.1 0.024439 -0.147060 0.143866 -0.213399 0.064199 -0.252279 0.067790 0.229551 -0.090198 -0.184120 0.159481 0.076638 -0.273619 -0.205832 -0.308789 0.207786 0.273745 0.362105 -0.144942 0.008078 -0.089475 -0.220380 0.187383 0.330830 0.028843 -0.281823 0.235102 0.305367 -0.297143 0.198252 -0.048098 -0.335589 -0.200336 -0.054569 0.090769 -0.324252 -0.122821 -0.074216 -0.048022 0.017098 0.027440 -0.044668 0.460798 0.143360 0.175859 -0.071215 0.039033 0.110135 -0.144396 -0.100300 -0.133551 0.019833 -0.029003 0.412618 -0.065017 -0.040751 -0.230260 0.023500 0.153622 0.343625 -0.218944 0.075349 0.020813 0.291445 -0.059599 0.207051 -0.229730 0.114728 0.125492 -0.181642 0.107765 -0.343352 0.212931 0.060733 0.240151 0.014468 0.049767 0.119153 -0.206288 -0.150176 0.125212 0.069969 -0.024043 -0.123401 -0.050198 0.062393 0.105834 0.193526 -0.320895 -0.040484 0.034839 -0.048459 -0.145466 -0.200523 0.256357 0.090864 -0.004505 0.125405 0.002188 0.091405 -0.060161 0.090130 -0.186848 -0.344636 0.029346 0.058546 0.384102 0.008579 -0.271668 0.265087 0.221930 -0.009229 -0.088524 0.110438 -0.148364 0.233207 -0.037145 0.121375 0.096789 0.043219 -0.149260 -0.053025 0.191524 -0.085541 -0.192436 -0.051968 -0.167143 0.303836
CP016546.1 0.158120 0.089894 -0.039038 -0.064633 -0.005257 -0.084792 -0.019451 0.073187 -0.049324 -0.092132 0.060584 0.031495 -0.007761 -0.115776 -0.155187 -0.012594 0.112293 0.174383 -0.103393 -0.071971 0.012160 -0.086031 0.010347 0.067261 0.050434 -0.165582 -0.051168 0.103128 -0.093314 0.154486 0.023560 -0.193324 -0.137066 -0.176755 0.050433 -0.116590 -0.081632 -0.004113 0.103080 -0.000145 0.083550 -0.105151 0.300720 0.193490 -0.081771 -0.140938 0.128893 0.022029 -0.031844 -0.140798 0.038911 0.140186 -0.034462 0.196437 -0.029907 -0.006824 -0.198074 -0.013431 0.096660 0.151725 -0.013421 0.076609 -0.044845 0.078958 -0.029610 0.015568 -0.152455 -0.077247 0.110412 -0.010106 0.094446 -0.128951 0.102323 0.018572 0.044463 0.047555 0.153710 0.134363 -0.045769 0.126911 0.068780 0.209536 0.063308 0.138452 0.005815 -0.033926 0.110914 0.100872 -0.016923 0.123431 0.090865 0.088885 -0.084766 -0.113203 0.112188 -0.112169 -0.059168 0.036124 -0.044762 0.022345 -0.063747 0.108882 -0.035923 -0.060475 0.063252 0.108455 -0.020880 -0.139425 0.064955 0.065413 -0.025851 0.028649 0.019057 -0.032982 -0.016157 0.098884 -0.084430 0.086036 -0.000455 -0.089693 -0.077648 -0.177982 0.064047 -0.133734 -0.162780 0.159165 -0.024790 0.128686
NC_004588 -0.105171 0.056732 0.304403 0.233579 0.180392 -0.042315 0.287181 0.266309 -0.140177 -0.344718 0.184585 -0.253546 -0.049376 -0.083150 -0.321010 0.009054 0.160340 0.133081 -0.158602 -0.031585 0.238401 0.043386 0.060268 -0.103801 0.112036 -0.322814 0.355711 -0.051226 0.008642 0.466518 0.078127 -0.025248 -0.257493 -0.118594 -0.245195 -0.419930 0.004272 0.371617 0.198599 -0.039386 0.046711 -0.194690 0.294238 -0.107054 -0.094062 -0.322206 0.050102 0.243796 -0.052742 0.060621 0.226298 0.028595 -0.010928 0.291415 -0.029908 0.164709 -0.220959 0.160158 0.064328 0.189651 -0.134895 0.064103 0.091733 0.192168 0.093810 -0.187711 0.187472 -0.125913 -0.057437 -0.231129 -0.346137 -0.299769 0.173129 -0.028104 -0.130917 -0.154426 0.380766 0.025465 -0.290232 0.156579 0.233717 0.480157 0.128303 -0.104115 0.305318 -0.073154 0.001070 0.199159 -0.269289 0.119161 -0.105726 0.025601 -0.285805 -0.413684 0.051129 -0.442779 0.111814 0.237523 0.422526 -0.139354 -0.354509 -0.045789 -0.095785 -0.049353 0.281871 0.515562 0.119105 -0.327457 -0.091548 0.069267 0.179509 -0.018702 -0.055028 0.014172 0.111948 0.155157 -0.331677 0.101121 -0.124654 -0.054777 0.196130 -0.262534 -0.091951 -0.044592 -0.244507 -0.051008 -0.193892 -0.032723
NC_009018 0.202513 0.259597 -0.273930 -0.089185 0.071874 -0.148679 -0.063541 -0.039982 -0.006029 -0.134897 0.044708 0.074355 -0.069678 -0.114888 -0.163183 -0.032664 0.085687 0.181856 0.044637 -0.126333 0.013104 -0.000731 -0.129925 0.284488 -0.090064 -0.186007 -0.329336 0.111703 -0.006623 0.032813 0.290911 -0.211623 -0.026822 -0.193281 0.008443 0.062251 0.033443 -0.070988 0.228590 -0.028506 0.127586 -0.019683 0.101749 0.419436 -0.334750 -0.137139 0.310344 -0.087367 0.095648 -0.162647 0.085944 0.145497 0.123444 0.250520 -0.029623 0.035716 -0.350811 -0.013734 0.180844 0.125365 -0.073100 0.130432 0.031105 -0.012283 0.016678 -0.009451 -0.099492 -0.093104 0.068292 0.084407 0.278795 -0.184055 0.090891 -0.035739 -0.045741 0.205013 0.320424 0.379350 0.062310 0.310191 -0.086036 0.366727 0.230452 0.371326 -0.038108 -0.189003 0.188853 0.026300 0.086246 0.153367 0.249757 0.174357 -0.025107 -0.053054 0.164846 -0.089279 -0.082443 0.207902 -0.117877 -0.065803 0.040564 0.142605 0.075605 0.074493 -0.100936 0.096869 -0.015845 -0.251732 0.402338 0.178227 0.024166 0.057760 0.006295 -0.099071 0.047004 -0.083509 0.044029 0.123059 0.028362 -0.256062 -0.166868 -0.242355 0.094294 -0.394104 -0.265117 0.428365 0.336384 -0.056817
