857 128
gca_000485615 0.339615 0.301107 0.110955 0.478588 -0.519617 -0.169378 -0.170253 0.091526 -0.042055 0.131307 0.135523 0.655814 -0.308944 0.228444 0.151082 0.193222 0.098875 0.073368 -0.116291 -0.141739 -0.629836 -0.029624 -0.341245 0.086460 -0.183172 0.353795 0.608245 -0.085532 -0.052895 0.251563 0.169925 -0.175494 -0.211280 0.042744 0.137188 -0.181071 -0.020604 0.111298 -0.259629 0.212231 -0.035846 0.226487 -0.597139 -0.333157 0.306937 0.598996 0.362762 0.433526 0.088414 -0.099373 -0.292859 0.062671 -0.305713 0.165910 0.024928 0.270560 -0.011822 0.318576 0.190437 0.027095 -0.134912 0.424578 -0.079371 0.030354 -0.110960 -0.585764 0.062795 -0.466082 0.355427 -0.465692 0.018570 -0.170070 0.200004 -0.029178 0.147460 0.400442 0.112576 0.198909 -0.092847 0.317215 0.032788 -0.319951 -0.187053 -0.356163 -0.089260 -0.214400 0.368981 -0.018977 0.458245 -0.297800 0.419767 -0.437981 0.675772 0.171565 -0.081025 -0.458473 0.087457 -0.286568 -0.100659 0.155343 -0.136818 0.380684 0.003625 -0.082209 0.377329 -0.349333 -0.051942 0.170385 0.016515 0.165858 0.196581 -0.389740 0.515980 -0.221393 0.107288 -0.006517 -0.193543 -0.080460 -0.053587 0.563435 0.287945 -0.387789 0.534310 0.016621 -0.123976 0.191986 -0.118649 -0.213598
gca_000481065 0.143201 -0.120058 0.678450 0.629749 -0.662993 -0.110690 0.043286 -0.123744 0.043614 0.406211 -0.221362 0.341629 0.131567 -0.435672 -0.369951 -0.191149 0.373936 0.123489 -0.405410 -0.235926 -0.592389 -0.323856 -0.091905 -0.063158 -0.237864 0.432359 -0.171660 0.107522 0.468364 0.440827 -0.282628 -0.640772 -0.282925 -0.792095 0.168560 0.286320 0.537259 0.175065 -0.000260 0.331997 0.624335 -0.040845 -0.253549 -0.020956 0.043545 0.424603 -0.152160 0.349615 -0.229437 0.032035 -0.159853 -0.021907 0.401796 0.313209 0.090500 -0.153279 -0.019879 0.195550 -0.224746 0.377540 -0.017192 0.017676 0.314679 0.108003 0.227157 -0.392557 -0.024944 -0.122756 -0.422644 0.277224 0.203841 0.036882 0.145069 -0.485834 0.077783 -0.184707 -0.239364 -0.136550 0.080185 0.226981 -0.062387 -0.066966 -0.251050 0.319876 0.124341 -0.234687 -0.051719 0.146008 0.260246 -0.153830 0.258112 0.389728 0.255441 -0.400568 -0.071001 -0.402734 -0.127156 -0.032210 -0.001028 0.008121 -0.063077 0.641821 -0.051906 0.142205 0.543865 -0.017888 -0.068741 -0.344131 -0.460678 -0.547466 0.262644 -0.492717 0.439924 0.247768 0.160694 0.332802 0.064147 -0.006729 0.580683 0.307528 -0.141284 -0.472479 0.367038 0.266752 -0.142279 -0.057077 0.193822 -0.494238
gca_000638495 0.588377 0.133549 0.171047 0.205292 -0.908589 -0.272028 -0.168797 0.235676 -0.040562 0.256664 0.305753 0.404588 0.138806 -0.110643 0.051585 0.314806 -0.299579 0.177216 -0.456618 -0.664855 -0.042816 -0.245908 -0.601125 0.061524 -0.680104 -0.193752 0.293037 -0.408746 0.499677 0.025968 0.066852 0.204739 -0.208941 -0.791661 -0.046461 0.022771 -0.239467 0.342644 -0.378285 0.025083 -0.084092 0.096309 -0.046811 0.111025 -0.454541 0.062822 -0.272256 0.674545 0.147856 -0.489836 -0.101089 0.414378 -0.132470 -0.239203 0.138922 -0.126621 -0.088181 0.193491 -0.477450 0.554314 0.582903 0.227086 0.590600 0.309405 -0.242989 -0.225581 -0.119345 -0.163072 0.128830 0.076653 0.632926 -0.324389 0.464660 0.317490 0.053854 0.061865 -0.175834 -0.082116 -0.107211 0.290148 -0.567450 -0.074598 0.105500 0.091084 0.328592 -0.066900 0.074439 -0.177182 0.235563 -0.442895 0.160896 -0.041648 -0.086595 -0.058147 -0.378369 -0.286141 -0.199403 0.003266 -0.193698 0.076281 -0.189316 0.536473 -0.280804 -0.299025 -0.380671 -0.551373 -0.105095 0.296024 -0.223213 -0.371733 -0.013404 -0.052895 0.232779 -0.192109 0.102396 -0.130648 -0.196687 -0.180836 0.627368 -0.037937 -0.174712 -0.486885 0.148840 -0.072926 -0.294417 -0.105362 0.305697 -0.100547
gca_002563475 0.203526 0.053832 0.255962 0.763177 -0.464672 -0.122684 0.296174 0.015261 0.124495 -0.103190 -0.172966 0.482803 -0.271340 0.017290 0.336143 0.194642 -0.611074 0.149436 -0.368015 -0.074794 -0.573290 -0.100097 0.281749 -0.223238 -0.329602 0.180590 -0.101220 0.191616 0.002217 0.747875 0.542106 -0.416477 -0.290604 -0.235231 0.271209 -0.233750 -0.157175 0.177130 0.357391 0.303815 0.566705 -0.090276 -0.149604 -0.345516 -0.428145 0.252110 -0.012373 0.422580 0.776696 0.035687 -0.370964 0.312232 -0.290866 -0.139340 -0.008961 0.167978 0.086283 0.856809 0.141883 0.746359 0.031737 0.419342 0.426284 0.762910 0.056249 0.012624 -0.645035 -0.435487 0.060663 -0.338105 0.250632 0.195348 0.525399 -0.217284 -0.013975 0.349053 -0.223743 -0.222567 -0.363192 0.273597 -0.105445 -0.136382 0.081466 0.394271 0.369228 -0.133248 0.566613 -0.327967 0.041200 -0.487924 0.036520 0.306092 -0.207673 -0.052495 0.273119 -0.553184 -0.023961 0.007824 -0.050721 -0.264379 0.172915 0.643809 -0.253157 0.518584 0.077345 -0.326048 0.275700 -0.227927 -0.130957 0.120450 0.026356 -0.297358 0.283280 0.653829 -0.510965 -0.077806 -0.688496 -0.250922 0.164173 0.250033 0.167067 -0.481445 0.883069 -0.582099 -0.131703 -0.322074 0.605085 -0.059785
gca_001558355 0.126526 0.717144 -0.102677 0.094552 -0.449855 0.054971 0.099867 0.151564 -0.342510 0.019975 0.092934 0.561614 0.083906 0.002627 0.216358 -0.105755 -0.156820 -0.048811 -0.026814 -0.365243 -0.626348 -0.311750 0.176187 -0.039376 -0.019821 0.122635 -0.102620 -0.027837 -0.064503 -0.010992 0.312526 -0.164873 0.162738 -0.253381 0.132081 0.109480 0.824590 0.131674 0.273424 -0.213355 0.403570 0.348071 -0.507918 0.123507 -0.133447 0.031022 -0.018042 0.654040 -0.546280 0.063497 0.124578 0.621794 0.066586 -0.184551 -0.253686 0.430689 0.242868 0.230740 -0.370219 0.510647 0.023864 0.627847 0.599288 0.423678 -0.024915 -0.068397 -0.096729 -0.520568 -0.066532 0.136755 0.549960 -0.048750 0.151747 -0.004722 -0.102430 -0.322790 0.116903 0.491521 -0.155830 0.398575 0.133841 0.307265 0.360359 -0.102172 0.225002 -0.937464 0.134066 -0.438326 0.935867 -0.178221 0.515111 -0.062253 -0.028568 -0.076016 0.127434 -0.008180 -0.360212 -0.407594 0.372552 -0.386476 0.081328 0.637887 0.614005 0.436119 -0.193708 -0.341041 0.219389 -0.385063 -0.611088 -0.284317 0.704937 0.118739 0.243570 -0.506679 0.113848 0.200399 -0.474872 -0.195403 0.357421 0.649584 0.127552 -0.256917 0.771236 -0.234828 -0.199890 -0.046668 0.632494 0.054147
gca_000168915 0.494029 0.105448 0.596256 0.638763 -0.221298 0.573760 -0.108375 0.432316 -0.142086 0.775353 0.105366 0.903431 0.312077 -0.051653 -0.398181 0.065747 0.223976 0.206201 0.134777 0.077830 -0.541620 -0.551162 -0.522138 0.191453 -0.425676 0.552957 -0.134009 -0.034112 -0.038898 0.271308 0.209077 -0.429865 -0.541582 -0.229779 0.416534 0.475074 -0.077669 -0.147123 0.565091 0.118301 0.246315 -0.174206 -0.046509 -0.318089 -0.243997 -0.065954 -0.357785 0.358688 -0.315736 0.422072 -0.372825 -0.517904 -0.316827 -0.187152 0.058800 0.307079 0.489563 -0.112506 -0.190899 0.711439 0.829446 0.354861 0.436524 0.224959 -0.273038 -0.514232 -0.097523 -0.629579 -0.094694 -0.067628 0.035146 -0.567869 0.092464 0.359876 -0.028442 0.088609 0.277619 0.492744 0.193710 0.310634 0.412653 -0.455913 -0.479174 -0.315823 -0.070373 -0.800669 0.225869 0.081835 0.000561 -0.356535 0.164461 0.204525 0.396610 -0.582901 0.176358 -0.683639 0.317017 0.278931 0.002829 -0.132938 0.110155 0.137592 -0.149434 -0.063966 0.623187 -0.733154 -0.389651 -0.288272 -0.245221 -0.352925 0.230483 -0.184314 0.174571 0.383923 0.402572 -0.558891 -1.049217 -0.934816 0.326414 0.637717 0.153625 -0.085115 0.620554 -0.530647 -0.079731 -0.165446 0.282791 -0.444225
gca_000452705 0.379882 0.418861 0.196455 0.369481 -0.497756 0.052642 0.320613 0.086658 0.034540 0.111899 -0.048244 -0.033122 -0.474651 0.100736 0.035124 0.373494 0.324650 -0.140837 -0.342423 -0.071695 -0.497542 -0.453595 -0.464657 -0.069191 -0.161273 0.167862 0.140863 -0.644427 0.193713 0.125811 0.637290 -0.382631 -0.270616 -0.906508 0.729218 -0.099713 -0.439796 -0.043714 0.105415 0.363697 0.331538 0.178705 -0.281389 0.282178 -0.380430 0.162943 -0.336745 0.561016 0.290216 -0.375335 -0.836551 -0.196653 0.104691 -0.038332 -0.154212 -0.013099 0.085698 0.641652 0.088476 0.259269 0.609151 0.064624 0.138422 0.431418 -0.257491 -0.233786 -0.221222 -0.469544 0.319658 -0.195775 0.202064 0.594359 0.049471 -0.047220 0.148409 0.298550 0.091013 0.435200 0.335200 0.293901 0.075948 -0.387343 -0.496900 -0.248050 -0.332236 -0.644221 0.431213 0.125192 0.398868 -0.124107 0.622455 0.543081 0.053967 0.073965 0.310630 -0.096721 -0.141306 -0.363641 0.277452 -0.937269 -0.260553 0.236798 -0.077119 -0.415158 0.411582 -0.360847 0.519146 -0.154795 -0.688854 0.043084 0.367503 -0.056089 -0.300093 0.086799 0.461776 0.399198 0.066181 0.011228 0.308130 0.065759 -0.386987 -0.174196 0.819781 -0.478408 -0.404117 -0.635257 0.403260 -0.055118
gca_000168695 -0.021626 -0.050066 0.253312 0.161186 -0.506436 -0.196337 -0.109263 0.221839 -0.497753 -0.522898 0.083176 0.429748 -0.265397 -0.722606 0.329731 0.343778 0.088793 0.577225 -0.286305 -0.440552 -0.669936 -0.442747 -0.078364 -0.586494 -0.133041 0.342105 0.594810 -0.486456 0.222904 0.245580 -0.306924 -0.007754 -0.190905 -0.978704 0.441913 -0.519239 0.806113 0.583320 -0.431000 -0.234054 -0.101106 0.161404 -0.569071 -0.249753 0.234661 0.417856 0.470460 0.398940 -0.051176 -0.262937 0.032753 0.281671 0.058458 0.536709 -0.274313 0.003254 -0.379464 0.037081 0.226556 0.697242 -0.178361 0.777363 -0.288122 0.736414 0.092425 -0.465228 0.124139 0.061697 -0.103998 0.348697 0.258349 0.287522 -0.254166 -0.538241 -0.195306 0.370692 0.561989 0.420724 0.224217 -0.211846 0.541696 0.158101 -0.239684 0.031143 0.377862 -1.142873 -0.276163 -0.284543 0.513400 -1.098025 0.244295 0.183949 0.128230 0.252893 -0.101813 -0.259957 -0.456877 0.052969 0.178873 -0.647484 -0.236038 0.159641 -0.552016 0.294883 0.348866 -0.429670 0.352980 0.237799 -0.426982 0.120838 0.488021 -0.324542 0.032298 0.049213 0.082678 0.402987 -0.148240 -0.319206 0.107157 0.207479 -0.182195 -0.861638 1.001551 0.140935 -0.205671 -0.266120 0.420375 -0.463686
gca_000434755 -0.047690 0.344352 0.702958 0.717332 -0.709103 0.157670 -0.369225 -0.221997 0.088181 -0.480136 0.463654 0.243032 0.087721 -0.449880 0.394314 0.665455 0.069991 0.832311 0.186188 -0.282072 -0.474054 -0.459114 0.045639 -0.221196 -0.203678 0.322499 0.251404 -0.695725 0.670224 0.037667 0.112580 -0.033424 -0.794979 -0.427997 0.274975 0.308011 0.633840 -0.016570 0.337869 -0.592102 0.680002 0.154683 -0.093620 -0.344682 0.451222 0.559988 -0.127770 0.578817 0.212109 0.294070 0.221220 -0.253271 0.090233 -0.026754 0.294453 0.474216 -0.070704 0.669085 0.336939 0.249309 0.890253 0.042783 0.814273 0.414945 -0.441421 -0.607045 -0.193441 0.150315 -0.030875 -0.142138 0.007470 0.062181 0.058466 0.035057 0.474758 -0.085253 -0.214532 0.034899 0.016150 -0.116391 -0.267896 0.028610 -0.260505 -0.074929 -0.190848 -0.453878 0.350744 -0.138098 0.111071 -1.041618 -0.087457 -0.128332 0.156800 -0.174435 -0.097377 -0.429249 -0.225492 0.120212 -0.386233 0.399992 0.134947 0.209706 0.443366 0.464904 0.089804 -0.634421 0.127977 0.143576 -0.690675 0.219602 0.077537 -0.078433 -0.079088 -0.259151 0.070273 0.030376 -0.919010 -0.276031 0.323643 0.526491 -0.245560 -0.275632 0.805726 -0.400995 0.064807 0.000492 0.238888 0.050347
gca_000013285 0.123272 -0.005119 0.172174 1.262883 -0.884300 0.553994 -0.016735 -0.020581 -0.397869 0.538421 -0.491614 0.192029 -0.207880 0.506281 0.201047 0.173493 0.020372 0.867296 -0.210933 -0.809228 -0.353460 -0.813620 -0.856779 -0.074145 0.210995 0.333891 -0.202077 0.033296 0.612284 0.053848 -0.360882 0.218021 -0.223802 -0.647847 0.435143 0.104984 0.182732 0.072180 0.430132 -0.262364 0.279066 -0.016454 -0.261080 -0.237170 0.439906 0.162276 -0.013621 0.430316 -0.419772 -0.423463 -0.342062 0.288967 0.318700 -0.255415 -0.078917 -0.015579 0.105941 0.631612 -0.095193 0.058477 0.624941 0.272886 0.691075 -0.268174 -0.415263 -0.118455 -0.011247 -0.657787 -0.434389 -0.424675 0.416006 0.074259 0.263761 0.583246 -0.122140 -0.133712 -0.071189 -0.051478 0.628023 0.672157 -0.293800 -0.612583 -0.068074 -0.106623 0.077344 -0.071313 0.511983 0.006177 0.928104 0.060126 0.454654 0.184204 -0.127539 -0.722094 -0.096246 -0.113333 -0.306627 -0.528909 -0.050011 -0.405802 0.305014 0.429154 -0.285641 0.020303 0.125119 -0.164230 0.078975 0.443867 -0.584841 0.309734 0.908685 -0.419398 0.068098 -0.322673 -0.298920 -0.190765 -0.608644 0.113400 0.797894 0.483796 -0.132321 0.179583 0.408773 0.198256 -0.711395 -0.457149 0.107801 -0.359316
gca_000022505 0.613558 0.513221 0.101069 0.563340 -0.708955 -0.181546 -0.601053 -0.225323 -0.444781 0.569759 -0.003556 0.964866 0.164338 -0.396579 0.234275 0.524840 -0.084394 0.654721 -0.596785 -0.720379 -0.325241 -0.785307 -0.537085 -0.146722 -0.103746 -0.065473 0.092850 0.236469 0.420059 0.091405 0.316671 0.018636 -0.417447 0.198495 -0.563366 0.103398 -0.138395 -0.111730 0.476573 0.183067 -0.126951 -0.184902 0.115513 -0.039805 -0.588060 0.308909 0.103159 0.622683 -0.753759 0.086881 0.112669 -0.190139 0.476006 0.348000 0.451900 0.281699 -0.579070 0.317465 -0.117443 0.407338 0.703429 0.350557 0.543577 0.632427 0.345013 -0.039993 -0.023566 -0.064784 0.235676 0.549870 -0.250796 0.292513 0.151682 -0.465853 0.519710 0.037574 0.016758 0.468510 0.542683 0.324003 -0.372361 -0.374186 -0.599930 0.309896 0.376910 -0.902527 -0.078844 -0.059863 0.897612 -0.461848 0.432631 -0.136028 0.433140 -0.019435 0.400990 -0.392331 0.022406 0.211268 0.240734 -0.316277 0.033026 0.808113 -0.002454 0.419901 -0.057157 -0.721120 0.134667 0.113065 -0.520657 0.485498 0.242061 -0.563571 0.568058 -0.529967 -0.258035 -0.200611 0.097509 -0.394946 0.168064 0.369450 0.097952 0.266430 0.676987 -0.142907 -0.380924 0.075220 0.266453 -0.593142
gca_000014085 0.250250 0.337730 0.641385 0.954211 -0.815478 0.180740 -0.091577 0.492391 0.280461 0.540999 -0.484588 0.549321 -0.162153 -0.291737 0.216348 0.029235 -0.300770 0.766753 0.259499 -0.605393 -0.009140 -0.227559 -0.287939 -0.210389 -0.119540 0.898074 0.405583 -0.138906 0.062661 -0.202699 0.483682 0.287970 -0.114959 -0.391742 0.225631 -0.127114 0.087795 0.427378 -0.289406 0.038974 0.106356 -0.055377 -0.260391 -0.227843 0.421486 -0.563494 0.480152 0.600197 -0.026023 -0.051841 -0.017685 -0.220282 -0.213301 -0.132728 -0.257867 0.303345 -0.612341 0.241027 0.034076 0.513671 0.416000 0.484269 0.454374 0.403164 0.042914 -0.585561 -0.160744 0.286565 0.403394 -0.142484 0.345605 -0.693519 -0.414872 -0.231996 -0.091507 0.040874 -0.356840 -0.045134 0.027739 -0.079778 0.055432 -0.326450 -0.134912 0.310346 -0.085363 -0.336782 0.168214 0.227490 0.270270 -0.087237 -0.039818 -0.151009 -0.311163 -0.109871 0.194152 -0.711818 -0.490606 0.344662 0.222641 -0.436717 0.283647 0.774288 0.419730 0.072372 0.381630 -0.616451 0.310697 -0.910060 -0.272944 -0.049011 0.559883 -0.488121 0.034089 -0.493248 -0.289073 -0.159326 -0.144962 -0.595246 0.369665 -0.149947 -0.242734 -0.565053 0.534758 -0.429415 -0.398957 0.106588 0.250523 -0.637877
gca_000415045 0.483577 -0.306870 0.026385 0.668885 -0.718471 0.042520 0.363425 0.515346 -0.042427 -0.221674 0.286090 0.303441 -0.227064 0.166019 -0.358267 0.129046 -0.529611 0.237774 -0.333334 -0.771475 -0.661411 -0.018531 -0.051172 -0.560943 -0.005583 0.753811 0.523123 -0.293435 0.685928 -0.037382 -0.039641 -0.125476 -0.641042 -0.857223 0.010933 -0.046352 0.362929 0.359315 -0.004291 0.529492 0.423014 0.180305 -0.820189 -0.593049 -0.174639 0.222516 -0.052726 0.793104 0.043072 -0.387965 -0.347638 0.667745 0.207372 0.017261 -0.540366 -0.041961 0.347736 0.564644 0.310579 0.582738 0.291101 -0.373867 -0.016120 0.354667 0.361900 -1.046823 -0.066167 -0.026654 0.273879 -0.063611 0.364720 -0.210428 -0.220159 0.504017 -0.257290 0.324347 0.105887 0.457371 0.499184 0.721708 -0.251702 0.189254 -0.086395 0.245845 0.165714 -0.116304 0.089874 -0.469292 0.201812 -0.770171 0.485034 0.797144 0.022738 -0.820627 0.370595 -0.191244 -0.664466 0.389358 0.333875 0.111148 -0.150603 0.025282 -0.227591 -0.365247 0.424439 -0.744539 0.678227 0.035276 -0.077677 0.542050 0.572228 -0.175214 0.236400 -0.157398 0.142366 -0.332412 -0.521543 0.310782 0.125923 0.232289 -0.194400 -0.730572 0.281516 -0.416879 -0.595697 -0.165600 -0.121429 -0.397876
gca_000877675 0.135912 0.413869 0.262742 0.324488 -0.836410 0.465835 -0.008231 0.256844 -0.226414 0.249013 -0.151132 0.772387 -0.686692 -0.487126 0.663196 0.260190 0.213345 0.056488 0.212637 -0.095666 -0.308454 -0.232480 0.153959 -0.336017 -0.280385 0.328874 -0.063846 -0.457950 0.430340 0.637267 0.396889 -0.005110 -0.097020 -0.431585 -0.232708 0.115127 -0.076987 0.034848 0.132009 -0.034626 -0.000056 -0.165550 -0.847071 -0.112968 -0.219908 0.027955 -0.217354 0.526346 0.033868 0.441550 0.400892 0.452374 0.462565 -0.001145 0.358151 0.395562 0.000768 0.449780 0.198740 1.077284 0.329113 0.367389 0.349337 0.171123 0.156234 0.035605 -0.022594 -0.763600 0.212761 -0.121733 -0.335888 -0.059510 0.484292 0.337498 -0.079456 0.425311 0.489789 -0.401696 -0.600101 -0.220644 -0.007407 0.088863 -0.707436 0.691416 -0.188343 0.011899 -0.472568 -0.418196 0.130878 -0.838013 0.641176 -0.237089 0.270256 -0.349112 0.191296 -0.367337 -0.942200 -0.603069 0.258138 -0.295048 0.295255 0.668525 -0.091508 0.000879 0.599815 -0.928773 -0.114445 0.447854 -0.636109 -0.134796 0.460921 -0.349007 -0.024568 -0.442843 0.203435 -0.332048 -0.240787 0.279484 0.092520 0.253999 -0.068455 -0.630524 0.892400 -0.238443 -0.580498 -0.528811 0.320955 -0.907018
gca_002148025 -0.089522 0.125240 -0.294830 1.346347 -0.069997 0.165829 -0.172995 0.106980 -0.446417 0.027784 0.028326 0.840794 -0.437281 -0.030708 -0.012138 -0.040149 -0.091358 0.331591 0.152681 0.009849 -0.084704 -0.090828 -0.209510 -0.585483 -0.530007 -0.161524 -0.174905 -0.210689 0.637562 0.229650 0.578899 -0.689306 -0.342390 -0.901221 0.204320 -0.010176 -0.025417 0.038837 0.065263 -0.277933 0.008001 0.278390 -0.199796 -0.178657 0.351407 0.507267 0.160708 0.869324 0.182320 -0.371158 0.490436 0.375365 -0.459071 -0.306363 0.490538 -0.171197 -0.009277 0.701047 -0.450317 0.310312 0.663564 -0.152616 0.515558 0.812828 0.436632 -1.114576 -0.259976 -0.296870 -0.041057 0.108138 0.654423 -0.046273 0.360730 0.318940 0.092357 0.244485 0.496531 0.571472 0.205172 0.425859 0.212946 -0.209922 -0.196772 0.107817 -0.003634 -0.225718 0.242242 -0.094880 0.634123 0.131992 -0.215331 0.520743 0.414655 -0.536397 -0.406836 0.043250 -0.440895 -0.431855 0.155833 -0.569446 -0.027099 0.339936 0.284859 -0.201999 0.522216 0.049150 0.267408 -0.096207 0.207460 -0.148126 0.549309 -0.708272 0.595700 -0.541979 0.211645 -0.548885 -0.367322 0.114909 0.769155 0.159570 -0.383543 0.050459 0.978311 -0.461047 -0.289005 -0.194474 0.513364 -0.277799
gca_000316155 0.686789 0.510883 0.040003 1.064499 -0.731145 -0.409758 0.232784 0.154468 0.480034 0.134073 -0.291949 0.099108 -0.202413 -0.113197 0.289405 0.446063 0.295566 0.100320 -0.050490 0.053625 -0.320882 -0.077000 -0.282319 -0.276825 0.119665 0.323640 -0.428566 0.075712 0.723472 0.030214 -0.085670 -0.009840 0.030915 -0.550605 -0.197203 0.553203 0.204688 0.340436 0.420837 0.601169 0.208956 -0.255951 -0.712177 0.057830 -0.480087 0.711910 0.556174 0.258418 0.302769 0.120811 -0.773016 0.479031 0.311489 -0.224954 0.360657 -0.549391 -0.323402 1.128361 0.109279 0.896712 0.446250 0.279732 0.240160 0.545566 -0.603350 0.059893 -0.072899 -0.253156 0.590537 0.254864 0.270148 0.106550 0.249396 0.083700 0.257633 0.280753 -0.612839 0.575654 -0.466331 0.423336 -0.885209 -0.535352 -0.154955 0.146700 0.060544 0.072803 -0.116886 0.302811 0.385960 -0.462321 0.510218 0.243418 0.188704 -0.023394 0.336289 -0.541680 -0.316823 0.127686 0.468011 -0.272490 0.049794 0.802216 0.433816 0.146144 0.400889 0.251708 0.147447 -0.252266 -0.289046 0.631766 0.192975 -0.794089 0.606210 -0.645112 -0.175388 -0.591033 -0.524320 0.105960 0.435330 0.314644 -0.322317 -0.491112 0.686350 -0.438509 -0.266752 0.154297 0.200973 0.464777
gca_000197855 0.725000 -0.468118 -0.030237 0.183001 -0.757488 -0.273947 -0.192158 0.710283 -0.927141 0.052167 -0.154138 0.434077 0.578722 -0.703099 0.015057 0.423611 0.237071 -0.034034 -0.613132 -0.340630 -0.668243 -0.407071 -0.345874 0.580737 -0.637546 0.324122 0.234812 -0.416422 0.310026 0.906294 0.047060 0.162662 -0.241626 -0.514382 -0.114687 -0.119698 0.209129 0.102818 0.258380 0.271417 0.147944 -0.300341 -0.417626 -0.287554 0.199835 0.471402 -0.072312 -0.151722 0.026963 0.039397 -0.402917 0.159056 0.358359 0.264462 0.129375 0.061977 -0.317465 0.638701 -0.394323 0.595859 0.589581 0.389599 0.038007 0.262069 -0.311153 -0.319093 0.297024 -0.057459 0.129508 -0.196095 0.358141 0.274348 -0.246601 -0.427389 0.407851 0.507233 0.534925 0.470144 0.269455 0.083483 -0.094924 0.026886 0.069064 0.368132 -0.037465 -0.762379 0.823929 0.237703 0.480941 0.183424 0.525854 -0.176126 0.074309 -0.773482 -0.373904 -0.084807 -0.531287 0.259867 0.022606 -0.372788 -0.481566 0.145610 -0.299387 0.267419 0.407971 -0.337826 0.102402 0.032286 -0.177988 0.286490 0.645308 -0.021558 0.824578 -0.250658 0.208394 -0.104158 -0.797624 -0.410257 0.798023 0.144231 -0.142322 0.179379 0.752341 -0.458815 -0.586986 0.251252 0.223641 0.463184
gca_002180335 0.388563 -0.053255 0.145100 0.766935 -0.238726 0.282642 0.005905 0.048844 0.243665 -0.509562 0.307811 0.945128 -0.366634 -0.379212 0.149266 0.284070 -0.042153 -0.509021 -0.168839 -0.187667 -0.502510 0.278862 -0.171798 -0.597805 -0.460708 0.350320 0.090174 -0.219508 0.411293 -0.458338 0.313081 -0.635454 -0.326243 -0.211962 0.287455 -0.068701 -0.370579 -0.033062 0.088259 0.157477 0.154501 -0.101604 -0.543635 -0.519094 -0.715747 -0.002832 0.137703 1.104034 -0.100493 0.364405 0.111799 -0.062555 0.092157 0.445983 -0.418401 0.134821 -0.143802 0.529358 0.590127 0.441889 0.589224 0.465936 0.206397 0.959818 -0.324314 -0.594212 -0.573180 -0.546386 -0.372277 0.009372 0.191810 -0.081117 0.079605 0.181941 0.200635 0.609694 0.774125 0.261053 -0.084602 0.235156 -0.033511 -0.038224 0.161406 0.387959 -0.143828 -0.443014 0.136842 -0.242529 -0.250032 -0.712985 0.437366 0.233699 0.361271 -0.403916 0.181714 -0.725672 0.419738 0.147726 0.465446 -0.489630 0.206932 0.254895 -0.528787 0.396532 -0.036891 -1.199339 0.003550 0.234761 -0.650400 -0.020754 0.855532 -0.209896 -0.410947 -0.403365 -0.237412 -0.438472 -0.097949 0.333804 0.418241 0.706749 -0.011321 -0.981213 0.783250 -0.686507 0.167923 -0.185858 -0.272931 -0.554469
gca_000328745 0.418695 -0.323610 0.013218 0.729548 -0.147662 0.062262 -0.243506 0.552984 -0.541589 -0.010748 -0.085621 0.380811 -0.249050 -0.106503 -0.499663 0.616636 0.944151 0.723599 0.096627 0.151599 -0.549244 -0.674643 -0.945669 -0.339873 -0.286284 0.483060 0.161238 0.068410 -0.027125 0.234218 -0.167923 -0.333571 -0.524615 -1.043648 0.349184 -0.016121 0.115621 0.312439 0.174788 0.403234 -0.056608 -0.688230 -0.901720 -0.770603 0.286435 0.678319 0.657042 0.398862 -0.013242 0.355845 -0.955339 -0.165484 0.239099 0.628229 -0.121779 -0.274222 -0.365782 1.119733 -0.077861 0.144971 -0.030812 0.066155 -0.375563 0.580301 -0.807058 -0.356629 -0.147313 -0.170756 -0.225684 0.249715 -0.001193 -0.001288 -0.067896 -0.606992 -0.211278 0.251202 -0.204140 0.464906 0.751030 0.320288 0.249997 -0.150628 0.299873 -0.388169 0.369078 -0.765114 0.392719 -0.063348 0.434414 -0.323818 -0.239721 0.566494 0.487755 0.284289 0.471032 -0.914753 0.140829 0.240174 0.194820 0.339388 0.350830 0.611793 -0.524443 -0.047093 0.395676 0.210257 0.029884 -0.520281 -0.276112 0.370732 0.520689 -0.083109 0.278856 0.381780 0.108490 -0.215062 -0.583634 -0.320869 0.681975 0.432745 -0.241553 -0.377466 0.726905 0.274815 -0.592874 -0.506549 0.013150 0.246065
gca_000590455 -0.343488 0.545120 -0.018561 0.576272 -0.917181 -0.068942 0.067889 0.162005 0.258032 -0.176639 -0.084442 0.405741 0.584083 0.071395 0.303121 0.686329 0.692953 0.366054 0.134502 -0.791108 -0.668366 -0.188421 -0.741020 -0.858598 -0.323347 0.441623 0.123983 0.185297 0.300103 0.768744 0.192625 -0.133222 0.196676 -0.422875 0.090665 -0.382273 -0.002416 0.217145 0.055281 -0.193605 0.008471 -0.010490 -0.605552 -0.454243 0.101486 -0.044401 0.416302 0.437744 -0.338135 -0.608265 0.249692 0.050463 0.321775 0.360123 -0.103582 -0.281531 -0.191683 0.246816 -0.211990 0.467562 -0.269552 0.055885 0.149059 0.646343 -0.100136 -0.220038 -0.509936 -0.630987 -0.042108 -0.007730 -0.273841 0.382966 0.336192 0.139330 0.014989 -0.090067 -0.243692 0.191317 -0.220424 0.296823 0.159495 -0.023052 0.066958 0.024501 -0.046344 -0.005967 0.030381 -0.148884 -0.092874 0.185364 -0.172805 -0.162506 -0.182301 -0.351210 0.082285 -0.655750 -0.091187 0.005168 -0.330214 0.021844 0.497010 0.779509 0.151127 0.058119 0.362693 -1.027102 -0.100204 -0.056669 -0.561448 0.014129 0.406867 -0.298606 -0.079478 -0.639056 0.055002 -0.519557 -0.713843 -0.081911 1.037918 0.357720 -0.651636 -0.427567 0.858076 -0.711844 -0.742796 -0.327047 0.847981 0.240788
gca_000278845 0.368142 -0.030137 0.473946 0.501057 -0.568882 -0.431915 -0.009268 0.757774 -0.173672 0.259131 -0.034135 0.563811 -0.120437 0.289102 0.314576 0.181002 0.429704 0.500552 0.295316 -0.407323 -0.410395 -0.813302 -0.409583 -0.153659 0.162079 -0.039731 0.470760 -0.421847 0.112872 0.732569 0.741345 -0.340976 -0.503135 -0.607535 0.118227 0.191961 -0.012898 0.307351 0.477076 0.147569 0.224083 -0.482523 -0.689155 -0.010800 0.108120 0.681472 0.227418 -0.051022 -0.187861 -0.251097 -0.193549 0.895727 0.334708 -0.208012 0.226729 -0.498083 0.050416 0.787184 -0.031213 0.240359 -0.310233 0.297518 0.278791 0.210936 -0.146384 0.207766 0.568978 -0.688141 0.398847 -0.125781 0.560684 -0.463409 0.122111 -0.294745 0.016496 0.266038 -0.099615 -0.153361 0.120983 0.517560 -0.323832 -0.499482 -0.577894 -0.467512 0.477959 -0.611480 -0.049071 -0.230926 0.281513 -0.359733 0.222481 0.174398 -0.369433 0.015937 -0.317108 0.054117 -0.434619 -0.524818 0.312947 -0.338337 0.198783 0.473041 0.571651 -0.236035 -0.114345 -0.233464 0.059041 -0.294887 -0.332714 -0.368403 0.063457 -0.166137 0.888538 0.249221 -0.152246 -0.013542 -1.085035 -0.014237 0.355264 -0.187586 -0.425408 -0.131297 0.748506 -0.443271 -0.798409 -0.875503 0.629597 0.110724
gca_000091565 0.666645 0.445397 0.311808 0.213874 -0.276295 -0.187625 0.109013 0.823483 -0.770246 0.203432 -0.503550 0.539386 -0.065191 0.255417 -0.009783 0.626549 0.237737 0.448513 -0.048805 0.184232 -0.515951 -0.737979 -0.265085 -0.467512 -0.501108 -0.101094 -0.147670 -0.427096 0.635094 0.503062 0.033348 -0.203466 -0.568388 -0.993863 0.287777 0.322500 0.737071 0.354481 0.410042 -0.252957 0.090901 -0.020097 -0.462433 -0.253211 0.081705 0.321975 -0.278772 -0.176470 0.384433 0.220449 -0.533690 0.614143 0.385440 -0.407628 -0.519525 0.094966 0.341822 0.225347 0.286133 0.904243 0.613486 0.559171 -0.027108 0.536480 -0.353898 -0.085660 0.024129 -0.323374 0.046768 0.223267 0.754613 -0.293923 0.118871 0.019135 -0.416567 -0.077836 -0.256638 0.212565 -0.190400 -0.420156 0.143555 0.174507 -0.137260 0.121410 -0.149480 -0.811244 0.100488 -0.617467 0.531807 -0.693800 -0.002555 0.414586 0.242535 0.094363 0.469904 -0.426701 -0.349544 -0.683993 -0.053441 -0.075058 0.050971 0.159815 -0.876322 -0.432599 0.141821 0.117373 0.052949 -0.075822 -0.054765 0.041264 0.111757 0.077221 0.247287 -0.197949 0.450328 0.095669 -0.139388 -0.593143 0.450476 0.879102 0.052531 -0.033604 0.599262 -0.314585 -0.399331 -0.311609 0.155664 -0.028194
gca_006094315 1.145533 0.416738 -0.106774 0.626098 -0.770830 0.478785 0.268762 -0.003593 -0.333133 0.188498 -0.432638 0.343674 0.199405 0.209075 -0.371113 0.487485 0.142583 0.548776 -0.206110 -0.642637 0.070004 -0.419766 -0.282919 0.197542 -0.503500 0.255049 -0.019226 -0.410314 0.272767 0.331087 0.212492 -0.307895 -0.548078 -0.490015 -0.153089 -0.156192 0.017970 -0.490853 -0.471658 0.030282 0.356955 -0.301631 -1.198077 -0.674589 0.157935 0.189249 0.157065 0.720189 0.079846 -0.154379 -0.282675 0.117016 -0.123650 0.183904 -0.516894 0.583337 0.207896 1.092442 0.004471 0.253845 1.062674 -0.381794 0.084600 0.264598 -0.756668 -0.206013 -0.476329 -0.825859 0.091288 0.573032 0.119303 -0.303658 0.360669 0.212126 -0.154696 0.134499 -0.385751 0.284541 0.085756 0.806395 0.176434 0.234992 0.160057 -0.227212 0.025737 -0.901675 0.899927 -0.407590 0.556568 -0.694589 0.095130 -0.271399 -0.082321 -0.056525 0.217246 -0.053978 0.011343 0.081806 -0.088431 0.139075 0.328940 0.561093 0.273351 0.195985 -0.068205 -0.549038 0.180262 -0.740428 -0.657744 -0.216875 0.056726 -0.052171 0.378074 0.069639 0.066214 -0.149482 0.114861 -0.648326 0.370231 -0.159943 0.175215 0.241745 0.113696 -0.128497 -0.654958 -0.475877 0.510129 -0.057223
gca_000468795 0.106560 0.376241 -0.027777 1.001843 -0.121973 -0.139342 0.360045 0.629309 -0.126046 0.245244 0.284027 0.641951 0.483310 0.017184 -0.757583 0.314197 0.340821 0.339913 0.234957 -0.110141 -0.543028 -0.166409 -0.093368 -0.089533 -0.508556 0.353421 0.193830 -0.706613 0.523551 0.358871 0.489470 0.237341 0.172220 -0.199771 0.314575 0.493667 -0.147699 -0.313393 0.252512 -0.422809 0.043998 -0.121667 -0.063053 -0.337032 -0.679414 0.460750 0.621851 0.417081 0.273127 0.088600 -0.760362 -0.391971 0.186647 0.106820 0.169632 -0.060274 -0.603807 0.309283 -0.409320 0.224785 0.181280 0.149071 0.352028 0.596388 -0.516097 -0.949608 0.150472 0.055344 -0.056784 -0.495164 0.453963 -0.684928 0.356089 -0.026593 -0.023134 -0.053600 -0.288204 -0.201668 -0.399666 0.072359 0.516854 -0.031242 0.591827 0.036710 -0.139902 -0.830832 0.183337 -0.319045 0.450688 -0.243104 0.591865 0.078814 -0.072608 -0.729192 -0.056774 -0.678103 -0.157221 -0.392901 0.000883 -0.674154 -0.153117 0.516346 -0.362238 -0.099203 -0.166542 -0.277628 0.030978 0.019308 -0.394417 0.112093 0.495536 -0.458195 0.327418 0.160218 0.286698 -0.298474 -0.384882 -0.322051 0.497432 -0.180035 -0.213048 -1.034431 0.520366 -0.516760 -0.498614 -0.651215 -0.077612 -0.353131
gca_000580515 0.511226 0.493482 -0.191795 0.906319 -0.675349 -0.095770 0.271783 0.599867 -0.062069 -0.263061 -0.332701 0.290387 0.273191 0.183801 0.104510 0.635766 -0.521178 0.166502 0.354352 -0.369106 0.082474 0.043979 -0.059047 -0.420800 0.061203 0.240508 -0.112950 0.237871 0.223104 0.738207 0.014392 -0.090905 0.278976 -1.077203 0.516126 -0.160877 0.051731 0.291400 -0.252550 -0.086023 -0.237239 0.310927 -0.702576 -0.129443 0.199685 0.584618 0.369712 0.899438 0.320553 0.201604 -0.233165 0.329509 0.728343 -0.414434 0.125223 0.330970 0.011242 0.352089 0.222880 0.856247 0.249800 0.229874 0.718028 -0.054562 -0.023388 -0.150364 -0.208890 -0.323815 -0.073458 0.367141 0.354948 0.040308 -0.020953 0.500076 0.235036 -0.019807 0.425016 0.166771 0.233369 0.424681 -0.134526 0.521103 -0.294043 -0.458662 -0.087640 -0.455879 0.329351 0.047189 0.635765 -0.589827 0.289175 0.179160 0.188234 -0.804895 -0.174414 -0.608128 -0.532558 -0.181255 -0.070163 -0.006951 0.497936 -0.285758 -0.251881 -0.023324 0.159501 -0.663951 0.263786 -0.201541 -0.093998 -0.041075 -0.389301 -0.286435 0.611386 0.090228 -0.640830 -0.189181 -0.318050 -0.779063 -0.086899 0.013882 -0.065351 -0.198662 0.759261 0.174370 -0.839131 -0.255316 0.842542 -0.105274
gca_900092915 0.148271 0.119300 0.063060 -0.018270 -0.443410 -0.081264 -0.498019 0.558998 -0.037287 0.166699 -0.525927 0.411480 0.147936 -0.357865 0.319132 0.500823 -0.138856 0.117477 -0.685755 -0.373147 -0.138958 -0.777787 0.065467 0.420339 -0.202113 -0.087018 -0.092467 -0.189187 0.668883 -0.207547 -0.004473 0.028351 -0.433329 -0.916161 0.521713 0.330890 0.381854 -0.102265 -0.043380 0.030561 0.422853 0.458424 -0.617151 -0.114299 -0.589595 -0.291355 0.532801 0.179685 0.117856 0.033830 0.235917 -0.199696 -0.341915 0.438860 -0.333595 0.045692 -0.017245 0.185389 0.334649 0.741173 0.401034 0.497337 -0.054222 0.105641 -0.175607 -0.202759 -0.229089 -0.827855 -0.193927 0.074586 0.689997 -0.073692 0.382715 -0.337311 -0.421144 0.467940 0.236392 0.548227 -0.365250 0.428862 0.279372 -0.359317 -0.018822 -0.105525 -0.597568 -0.622843 0.590914 -0.144263 0.171541 -1.116323 0.756187 0.269772 -0.352092 0.000650 0.063356 -0.397750 -0.687721 0.192218 0.352904 0.171289 0.002409 0.506300 -0.061077 0.264472 0.225638 -0.823796 0.405694 -0.190042 -0.612843 0.116766 0.070018 -0.371826 0.317539 0.185904 -0.226354 -0.641833 -0.456375 -0.283926 0.582654 -0.015018 -0.298875 -0.633487 0.956277 -0.522327 0.141751 -0.875418 0.122367 -0.133292
gca_000296305 0.619944 0.393558 0.243203 0.684411 -0.447684 -0.052180 -0.430410 -0.128601 -0.435660 0.091370 -0.241556 0.044992 0.227065 -0.460448 0.017649 0.392388 0.738806 -0.117600 0.188920 -0.616654 -0.485044 -0.404360 -0.523156 -0.505871 -0.722633 0.374622 0.260826 -0.563048 -0.000500 -0.726550 -0.618724 -0.611687 -0.341324 -0.988817 0.104036 0.078648 0.461571 0.220679 -0.159265 0.274036 0.122072 0.249266 -0.814225 0.157446 -0.310885 -0.090000 0.476019 0.263331 -0.331793 -0.071460 0.021605 0.049370 0.024322 0.344128 0.406073 0.464838 -0.223557 -0.081290 -0.667752 0.606901 1.075002 0.268175 0.095546 0.073024 0.215698 -0.721387 0.114998 -0.103833 0.289606 0.844168 -0.032038 -0.274898 -0.190311 0.305652 -0.443749 0.131687 0.121476 0.943732 0.109230 0.321793 -0.071013 -0.207487 0.168688 -0.201231 -0.051296 -0.511116 0.218368 0.126880 0.475244 -0.633680 0.139934 -0.147193 0.160387 0.132347 -0.376954 -0.448336 -0.683198 0.075986 0.656444 -0.318172 0.345014 0.167097 0.211109 -0.243321 0.252129 -0.713120 0.312818 -0.060235 -0.497547 -0.753716 0.368461 -0.704285 0.281535 -0.743998 -0.059822 -0.403225 -0.617259 -0.545072 0.304685 0.764248 0.047996 -0.231557 0.435996 -0.026222 -0.313208 -0.347063 0.185291 0.530607
gca_001084885 0.686267 0.002467 0.581859 0.780280 -0.854252 0.130403 0.276422 0.395256 -0.087289 -0.028290 -0.397326 0.030718 0.098467 -0.362845 0.177746 1.091889 0.321434 0.988931 0.018529 -0.481698 0.062173 -0.512808 -0.399605 -0.804733 -0.294188 0.488595 0.000902 -0.813946 0.809072 0.705230 0.245989 -0.221317 -0.227172 -0.901551 -0.054025 -0.240634 -0.371588 0.371928 0.002078 -0.024931 0.200239 -0.638842 -0.677309 -0.136837 -0.092910 0.240519 0.129006 0.423951 0.358561 0.126124 -0.438691 -0.137280 0.533526 0.227244 0.027417 -0.036187 -0.824435 0.958128 0.566287 1.133784 0.689482 -0.041317 0.300286 0.801019 -0.548634 0.398877 -0.301102 -0.124658 0.114418 0.436359 -0.389116 0.038205 0.026273 -0.305905 0.236346 0.222566 -0.380907 0.053388 0.312457 -0.278475 -0.239126 0.182057 -0.122696 0.447240 0.271772 -0.676575 0.075055 -0.356789 -0.388741 -1.280840 -0.341010 0.449949 -0.483832 -0.179187 0.412194 -0.606999 -0.288824 0.452850 0.088561 -0.458165 0.539856 0.333871 -0.656011 -0.039355 -0.614404 -0.393105 0.431014 -0.323736 -0.707923 0.174952 0.078582 -0.184754 -0.037095 0.318992 -0.415792 -0.429314 -0.250011 -0.627240 0.297946 -0.182245 -0.639540 -0.299596 0.706129 -0.151197 -0.516641 -0.828173 0.548725 -0.004842
gca_000287935 -0.075607 0.435852 0.219789 0.453910 -0.033429 0.432783 0.111999 0.133393 -0.328035 0.548380 -0.347069 1.021151 0.170835 -0.245634 0.266574 0.547379 0.573140 0.620665 0.057845 -0.546757 -0.196531 -0.139431 -0.385237 0.019742 -0.206355 -0.141753 -0.199717 -0.119206 0.947314 0.845063 0.110185 -0.662950 0.071589 -0.658744 0.226562 -0.434964 -0.095191 0.243654 0.108871 0.115355 -0.317690 0.048540 -0.643150 -0.608553 0.191673 0.479584 0.545643 0.646888 0.058325 -0.182452 -0.358961 0.428504 -0.332975 0.191243 0.368997 0.582090 -0.355420 0.820278 -0.416884 0.534390 0.614619 0.560392 0.090359 0.439692 0.207299 -0.365016 -0.643488 0.064490 -0.098994 0.322331 -0.281468 -0.566303 0.292382 0.709509 -0.561514 0.074781 0.331648 -0.194275 0.238769 -0.386092 0.461963 -0.396007 0.242690 -0.147744 0.810320 -0.370207 -0.137757 -0.440287 0.343057 -0.856062 0.280103 -0.004393 -0.084608 -0.184862 0.483029 -0.215975 0.103618 -0.009047 -0.346431 -0.599962 0.097469 0.585846 0.174518 0.116883 -0.050593 -0.175006 0.225901 0.163194 -0.817345 0.038919 0.041432 0.006708 -0.062953 -0.174987 0.128996 -0.403652 -0.737959 -0.452443 0.298907 0.641177 -0.423491 -0.411018 0.485927 0.107531 -0.443278 0.096174 0.348234 -0.520833
gca_000534935 0.467716 0.379082 -0.054465 0.999455 -0.679293 0.031976 -0.391254 0.084011 -0.176624 -0.260277 0.244124 0.256296 -0.363329 -0.329078 -0.377629 -0.077864 0.150334 0.348532 0.000072 0.045461 -0.189268 -0.468819 -0.202231 -0.112710 -0.906530 0.174163 0.662179 -0.112872 0.118244 -0.109706 0.354604 -0.207334 -0.409677 -0.288530 0.306719 -0.118464 -0.067841 0.197734 -0.089867 0.310760 0.508789 -0.673378 -0.754399 -0.568757 -0.236590 0.032339 0.220038 0.106424 -0.268261 0.551734 -0.250695 -0.029510 0.124223 0.242716 0.268830 0.264091 -0.456566 0.529625 -0.401834 0.472664 -0.146075 0.611000 0.301651 0.323380 -0.954472 -0.056855 -0.435957 -0.578446 0.246001 -0.079928 1.256629 0.147994 0.032456 -0.525304 0.357418 0.113268 0.143573 -0.216635 0.228109 0.664323 -0.120618 0.054062 -0.141418 0.362659 0.163717 -0.667072 0.177820 -0.526706 0.543912 0.055414 0.074434 0.291021 -0.093831 -0.132225 -0.161569 -0.236731 -0.698715 0.561822 0.608377 -0.071081 0.205309 0.271312 0.494086 0.024804 0.183064 -1.095352 -0.146700 -0.468944 -0.208766 0.268063 -0.219968 0.226489 0.568022 -0.172329 -0.040501 -0.013328 -0.515965 0.173906 1.012965 1.055076 -0.538347 -0.856801 0.758214 0.031980 -0.799019 0.035101 -0.288067 -0.261353
gca_000260515 0.469079 0.216709 -0.124282 0.473937 -0.978576 -0.019236 0.080013 0.463074 0.096185 -0.183422 -0.292235 0.590898 -0.500305 -0.333310 0.361141 0.492079 0.214807 0.620827 -0.062268 -0.744356 -0.221960 -0.511183 -0.121612 -0.250095 0.104943 -0.140064 0.504190 -0.924725 1.086012 -0.422050 -0.188813 -0.056097 -0.580511 -0.654936 -0.496894 0.170515 0.577377 0.448931 -0.658443 -0.028203 0.101615 0.274972 -1.167126 -0.422384 0.473983 0.842235 0.235251 0.923945 -0.347613 -0.654473 0.004965 0.540312 0.755793 0.285141 -0.259882 -0.352449 -0.519875 0.751680 0.336367 0.063129 0.503145 0.379596 0.060547 0.363831 -0.556424 -0.145136 0.050069 -0.003704 0.046417 0.379756 0.362771 -0.304274 0.048052 -0.089825 -0.025636 -0.001529 -0.188818 0.346837 0.487921 0.202405 -0.148786 0.300729 0.448359 0.345170 0.110158 -0.745810 0.024594 -0.345537 0.611509 -0.715739 0.597196 -0.044963 0.180205 -0.215108 0.105459 -0.303124 -0.536086 -0.158972 0.655992 -0.004743 -0.037541 0.494830 0.501338 -0.366585 -0.189513 -0.289305 0.480225 -0.198493 -0.380519 0.049307 0.579789 -0.579332 0.128541 -0.697509 0.036664 0.128673 0.466920 0.013472 0.835194 0.365181 -0.718020 -0.325395 0.675461 0.204808 -0.476686 -0.393467 -0.517994 0.167303
gca_000013825 0.155721 0.385467 0.332053 1.382852 -0.092389 -0.209876 0.272503 0.424867 -0.447819 0.323397 -0.399413 0.903161 0.076965 -0.354389 -0.383376 0.505337 0.399318 0.136936 0.080502 -0.640549 -0.425285 -0.117767 -0.499682 -0.355611 0.123102 0.537231 0.009455 -0.549882 -0.216830 0.110428 -0.045229 -0.133330 -0.159705 -0.057230 0.082927 -0.202991 -0.055834 0.038112 0.473872 0.084632 -0.602120 -0.334650 -0.856170 0.155967 -0.208404 0.007136 -0.092744 0.364730 -0.228486 0.041462 -0.409545 0.126892 0.232880 -0.066981 -0.331588 -0.221057 -0.104430 0.328015 0.529852 0.131787 0.578770 -0.028640 0.080129 0.153964 -0.233172 -0.247730 0.224444 -0.420210 -0.475239 -0.109698 0.558064 0.106286 0.265178 -0.531798 -0.312324 0.292493 -0.162016 0.795480 0.346591 0.218515 -0.012030 0.103182 -0.212929 0.216789 0.359537 -0.099358 0.047332 -0.468836 0.016441 -0.147248 0.567257 0.037324 0.303191 -0.759957 0.164677 0.019422 -0.573663 -0.327997 0.510689 0.413119 0.411911 1.029900 -0.048379 0.365040 0.383480 -0.809337 0.215043 0.277471 -0.530629 -0.080282 0.718959 -0.726290 0.513846 -0.089830 -0.232293 -0.612176 0.266545 -0.378161 0.576274 0.225755 0.399024 -0.466869 0.821661 -0.452681 -0.495628 -0.975969 0.508040 0.173851
gca_000334015 0.338255 0.195119 0.054074 0.877225 -0.679762 0.108935 0.228632 0.406074 -0.639231 0.577382 -0.267964 0.306241 -0.196622 -0.417510 -0.622435 0.130763 0.047165 0.403761 -0.562733 -0.680178 -0.274590 -0.349555 -0.047637 -0.589751 -0.381511 0.418491 0.552052 -0.307693 0.663212 0.535047 0.441938 -0.739686 -0.292327 -0.711223 0.382478 0.062684 0.440481 0.352395 0.140506 0.326660 0.203433 -0.499268 -0.551860 0.416232 0.094376 0.212805 -0.110979 0.310790 0.216576 0.443399 -0.316853 0.049077 -0.178198 0.304281 -0.066398 0.472756 0.263720 0.217598 -0.226438 0.568988 0.128393 0.048753 -0.228378 -0.068554 0.117694 -0.129996 -0.355915 -0.774828 0.156240 -0.057724 0.684782 -0.232936 -0.269044 0.506322 0.314646 0.802870 0.610017 0.376934 -0.365047 0.189049 0.421276 0.479093 0.289987 -0.225180 -0.210799 -0.319201 0.793957 -0.463089 -0.045073 -0.237686 -0.171771 0.028103 -0.411801 -0.583478 -0.185787 -0.347622 -0.309827 -0.067764 0.301648 -0.803191 0.547767 0.275161 -0.289080 -0.534383 0.060961 -0.269098 0.470080 0.361745 -0.643645 -0.397999 -0.167075 -0.290663 0.138317 -0.260240 -0.128444 -0.523149 -0.182512 -0.309386 -0.040053 0.643731 -0.003951 -0.862661 0.979809 -0.229722 -0.687731 -0.188719 0.413815 -0.853381
gca_002355995 0.259936 -0.185776 0.041906 0.135398 -0.588804 0.381862 -0.274717 0.437549 -0.273664 0.115761 -0.029504 0.592030 -0.283133 -0.104664 0.051504 0.013267 0.021335 0.730569 0.353702 0.144461 -0.292227 -0.564049 -0.304303 -0.325241 -0.630225 0.675849 -0.248751 -0.477677 -0.118242 0.241305 0.370572 -0.183869 -0.192136 -0.894069 0.737372 -0.143552 -0.192315 0.452535 0.008078 0.595954 -0.165367 -0.641668 -0.571983 -0.051991 0.080332 -0.098697 -0.399431 1.193654 -0.077608 0.513419 -0.322231 -0.242972 -0.460528 -0.389001 0.520890 0.504422 -0.737646 0.467302 0.053052 0.573133 0.068636 0.035794 0.925780 0.563970 -0.581734 -0.387609 -0.269876 -0.596438 -0.520021 -0.121746 0.489540 -0.359156 -0.032843 0.891913 -0.011165 0.209712 -0.281709 0.076612 0.178760 0.447454 0.039039 0.151976 -0.083686 -0.534174 0.251889 -0.306073 0.073642 -0.236587 0.277418 -0.629471 0.471487 0.358317 -0.079918 0.294999 -0.359747 -0.295538 0.042706 -0.365110 0.705699 0.431181 0.838780 0.409504 -0.180769 0.075020 0.197592 -0.050207 -0.190128 -0.097778 -0.404450 -0.379151 0.801045 -0.468454 0.300739 -0.561622 -0.367707 -0.530338 -0.384427 0.129681 0.688177 -0.146791 -0.331273 -0.379528 0.962977 0.230757 -0.308719 -0.358522 0.600393 -0.059559
gca_005864365 0.410955 0.837770 0.226222 0.914204 -0.620736 -0.252033 -0.005707 -0.054624 -0.187010 0.136265 -0.352387 0.187913 0.009030 -0.281209 0.306111 0.980749 0.972737 0.748087 0.262731 0.090283 -0.107460 -0.508607 -0.544359 0.150036 -0.252255 -0.291442 -0.136882 -0.389704 0.491375 0.463067 0.317281 -0.190378 0.148185 -0.657320 0.109909 0.206005 0.237756 0.273149 -0.313163 -0.354624 -0.170341 -0.234161 -0.640573 0.189116 0.398570 0.675416 0.580923 0.424058 -0.143087 -0.288436 -0.177586 -0.049621 0.121636 0.059319 0.359909 0.213808 -0.973279 0.815322 -0.301114 0.236744 0.637596 0.669955 0.412545 0.367037 -0.722489 0.050243 -0.464420 -0.297634 -0.060586 0.453103 0.200007 0.091013 0.401730 -0.722175 0.256123 -0.211651 -0.532912 0.211270 -0.127328 0.062571 -0.123795 -0.000360 0.164014 -0.496709 0.188966 -0.962562 0.163503 0.004361 1.117867 -0.549032 -0.060678 -0.331917 0.753181 0.689822 -0.285263 -0.798251 -0.126767 -0.596617 -0.172741 -0.344417 0.329430 0.712146 0.294578 0.094197 -0.203261 0.176971 0.051749 -0.719404 -0.740646 -0.279328 0.374903 -0.613286 0.758529 -0.360696 -0.178184 -0.067681 0.235945 -0.626463 0.676439 0.321502 -0.299313 -0.050799 0.745239 0.203984 -0.067300 -0.088369 0.485192 0.157387
gca_002847905 0.440812 0.180935 0.466947 0.927009 -0.828595 0.101550 0.001341 0.375710 -0.242558 0.366163 -0.016494 0.791874 -0.112875 -0.236027 0.130285 0.423877 -0.094518 0.380539 -0.322359 -0.554618 -0.569462 -0.478926 -0.444890 -0.182870 -0.366767 0.431028 0.323269 -0.370318 0.405864 0.522420 0.399666 -0.245053 -0.284303 -0.670633 0.015836 -0.052288 0.108142 0.240808 0.069423 -0.025645 0.156341 -0.031656 -0.540737 -0.479640 -0.177461 0.381641 0.069504 0.708338 0.076666 -0.099111 -0.224260 0.336121 -0.130120 -0.039350 0.035753 0.048468 -0.042738 0.447546 -0.221686 0.693853 0.490935 0.459055 0.437105 0.464919 -0.110698 -0.472157 -0.290441 -0.406240 0.104928 0.148099 0.514510 -0.240971 0.199915 -0.037094 0.032787 0.232263 0.168811 0.157480 0.046156 0.381730 -0.006270 -0.145293 -0.339188 0.143568 0.183266 -0.551851 0.266570 -0.212442 0.434151 -0.598614 0.526073 0.084722 0.349312 -0.243907 -0.020348 -0.537235 -0.246860 0.031860 0.069494 -0.135081 0.043604 0.761072 -0.277567 0.039376 0.170982 -0.821000 0.180098 -0.205558 -0.446857 -0.091575 0.198554 -0.297074 0.390949 -0.235117 0.027806 -0.319613 -0.373562 -0.395059 0.675464 0.422156 -0.157199 -0.531557 0.941635 -0.360481 -0.450722 -0.195333 0.323560 -0.484657
gca_000025805 0.284946 0.419335 0.424419 0.864959 -0.734032 0.350990 -0.194260 -0.168202 0.073403 0.176630 -0.478052 0.395477 -0.333054 0.301436 0.046664 0.730354 0.455314 0.368296 -0.050049 -0.798855 -0.368452 -0.488583 0.047570 -0.055982 0.378004 0.395024 -0.100051 -0.530480 1.097992 -0.142818 0.109179 -0.571259 -0.692339 -1.006270 0.328275 0.669330 0.103569 0.029476 -0.327324 0.365463 0.037102 -0.595287 -1.097459 -0.137784 0.067000 0.147384 0.550892 0.664044 -0.265804 0.099216 0.269415 0.102358 0.172173 -0.133670 -0.431960 0.014221 0.019306 0.478279 0.761479 0.226978 0.650717 0.428701 -0.149785 -0.454972 0.251946 -0.048364 -0.023419 -0.616140 -0.215510 0.406100 -0.133980 -0.239252 -0.223139 0.398736 0.287719 0.653925 0.559391 1.106224 0.357239 0.029506 0.170183 0.231330 -0.580210 -0.182221 0.498843 -0.280095 0.300727 -0.613370 0.184390 -0.673061 -0.217886 -0.096244 0.560363 0.235474 -0.067003 -0.538544 -0.003563 -0.398175 0.065742 -0.511131 0.582082 0.561278 0.005265 -0.149307 0.008206 -0.274147 0.100873 0.278232 -0.319839 -0.450302 0.449442 -0.444453 0.116166 -0.815085 0.202138 -0.193695 -0.297478 0.190495 0.475179 0.347956 -0.402395 -0.037527 0.548817 -0.074111 -0.663271 -0.740801 0.571223 -0.516233
gca_000008525 0.003614 0.571107 0.322482 0.460066 -1.273359 -0.522459 0.342611 0.264630 0.061001 -0.243548 0.014859 0.211985 -0.485510 0.186369 0.295877 0.661066 0.296366 0.667174 0.342135 -0.374968 -0.624610 -0.029210 -0.092776 -0.867278 -0.099298 0.128604 -0.153958 -0.177218 0.689894 0.287091 0.674775 0.061633 -0.288057 -1.011042 0.210368 -0.356180 -0.173355 -0.150024 -0.307106 -0.031797 -0.017527 0.288784 -0.424742 0.062402 0.534476 0.345191 0.570608 0.820718 0.429631 -0.299257 0.209576 0.704281 0.175944 0.292819 -0.202774 0.353223 -0.803541 0.997174 0.508904 0.186636 -0.102097 0.620957 0.457882 1.104881 0.240337 -0.469582 0.077213 -0.447284 -0.040730 -0.505965 0.262196 -0.020794 0.282844 -0.473693 0.371595 -0.070667 0.228832 -0.219670 -0.356015 -0.019612 -0.194315 0.037919 0.290232 0.367565 0.253143 0.198656 0.340064 -0.060052 0.716335 -1.018346 0.599357 0.305677 -0.188694 -0.217369 -0.218197 0.009685 -0.427031 -0.166718 0.114571 -0.322384 0.257747 0.579442 -0.181518 0.293811 -0.260318 0.370494 0.357154 -0.440490 -0.808506 0.014105 0.720257 -0.358942 0.237134 -0.141191 -0.468113 -0.141748 -0.239263 0.246986 0.583840 0.379224 -0.120816 -0.377542 0.479722 0.290455 -0.688673 -0.398373 0.178257 -0.322711
gca_001276975 0.373466 0.787850 0.743777 0.858225 -0.673704 0.886707 0.235701 0.010851 -0.805536 0.498065 -0.535040 0.758184 -0.263799 -0.582838 0.395092 0.118419 -0.024388 0.573023 -0.051778 0.161439 -0.762501 -0.285179 -0.541718 0.235661 -0.886198 0.333928 -0.039714 -0.459011 0.396396 0.416031 0.236619 -0.062054 -0.200840 -0.106877 -0.135879 -0.113906 0.122395 -0.531916 -0.019619 -0.316106 0.447024 -0.035484 -0.322636 0.078297 -0.358737 0.304289 -0.220339 -0.106927 0.463725 0.362369 -0.632583 -0.069747 -0.060732 -0.279833 0.004241 0.829743 -0.123373 0.583879 0.096487 0.943793 0.810279 0.690027 0.819404 0.077516 -0.433773 -0.077112 -0.279459 -0.690491 0.294825 -0.042995 0.300501 -0.677376 0.296984 0.322493 0.013604 0.271133 -0.431537 -0.333783 -0.398108 0.547311 0.250187 0.403493 -0.101401 -0.138348 0.084149 -0.192701 0.530129 -0.358489 0.185992 -0.251246 0.669515 -0.079951 -0.153039 0.564294 -0.014019 -0.753840 0.256121 -0.231522 -0.406939 -0.120404 0.522260 1.202030 -0.248101 0.568106 0.161592 -0.090752 -0.355406 -0.092361 -0.277032 -0.788662 0.196501 -0.374902 0.558632 -0.250295 0.583429 -0.216363 -0.100659 -0.363117 0.991913 0.618895 0.114822 -0.109142 0.551151 -0.400405 -0.594053 -0.175600 0.376947 -0.691502
gca_000007645 0.640462 -0.329946 0.423620 0.504476 -0.875015 -0.027990 0.264632 0.301394 0.432397 -0.429310 0.718522 0.328857 0.106905 0.239663 -0.334434 0.277960 0.361410 -0.123245 0.781683 0.141537 -0.665722 0.029095 -0.402010 0.165578 -0.328933 0.740125 0.059227 -0.628577 -0.046978 -0.169970 0.052663 0.040393 -0.356391 -0.849887 0.366492 0.627291 -0.082015 0.043300 0.049111 0.033163 -0.015942 -0.009646 -1.053142 -0.106177 -0.023984 0.462554 0.619383 0.721818 -0.375167 0.008217 -0.204846 0.324299 -0.191946 -0.365955 0.025494 -0.466416 -0.229397 0.449007 0.200604 0.536014 0.385273 0.112253 0.183817 0.579332 -1.382589 -0.743058 0.040097 -0.511160 0.001362 -0.084564 0.167087 -0.695100 0.134189 0.206045 -0.097188 -0.420288 -0.230901 0.952769 0.175293 0.578020 -0.025188 -0.153822 0.186237 -0.947984 0.291118 -0.440190 0.143256 -0.034857 -0.002385 -0.773729 0.135095 0.264668 0.600199 -0.132984 -0.288466 -0.754555 -0.164493 -0.001339 0.304882 0.188178 0.023208 0.298095 0.173010 0.036613 -0.224493 -0.371600 -0.070186 -0.854817 -0.301519 -0.266261 0.624830 -0.247980 0.494411 0.035430 0.087371 -0.563732 -1.459558 -0.825565 0.506307 0.311526 -0.254896 -0.463817 0.642941 -0.538351 -0.349377 -0.141768 0.147998 0.825804
gca_000318015 0.020171 -0.369578 0.575696 0.985325 -0.504132 -0.070007 -0.136920 0.065146 -0.410941 -0.267832 0.418758 0.809389 0.144576 -0.243741 0.117940 0.152424 0.087461 0.511710 -0.083557 0.030895 -0.709431 -0.412266 -0.710791 -0.520885 -0.479750 0.878839 -0.086794 0.345357 0.013760 0.699030 -0.016506 -0.496359 0.061261 -0.525071 0.181835 -0.207582 0.367745 0.224871 0.555170 0.133799 0.274727 -0.367059 -0.224601 -0.247158 0.502996 0.463311 0.151383 0.905686 -0.262557 0.573136 -0.007467 -0.126899 -0.186114 0.439090 0.706493 0.360585 -0.369538 0.453308 -0.419662 0.872491 -0.699965 0.520733 0.681138 0.980168 -0.317347 -0.270671 -0.142693 -0.274404 -0.621635 -0.296546 0.187715 -0.251059 0.148403 -0.236338 0.574979 0.103048 0.384747 0.089911 -0.069361 0.104409 -0.269727 -0.126432 0.153938 0.196753 0.670147 -0.572513 0.278191 -0.001484 0.196414 -0.057145 -0.662286 0.109731 0.382619 -0.488448 -0.537635 -0.649387 0.266624 0.136958 -0.248608 0.047284 0.359506 0.212555 -0.683721 0.563734 0.252808 -0.417744 -0.522565 -0.098705 0.117400 -0.059709 0.915616 -0.189540 0.554860 -0.128548 -0.369955 -0.473995 -1.411806 -0.339340 0.850896 0.992217 0.179992 -0.287742 0.978922 -0.068532 -0.094084 0.171490 0.540689 0.185324
gca_000159355 0.143944 0.186769 0.149766 1.156877 -0.269789 0.500052 0.148015 0.039181 -0.767004 0.087868 -0.390802 0.458646 0.154185 -0.543538 -0.222663 -0.068064 0.449042 0.510199 0.581253 0.031545 -0.873416 -0.223539 0.240002 -0.415521 0.127022 0.638275 -0.189340 -0.425133 0.381424 -0.082994 0.137358 -0.875422 -0.136578 -0.622008 0.272496 -0.095951 0.805045 0.085698 0.253270 0.285200 0.547994 0.040303 -1.434041 -0.115848 1.032449 0.372579 0.460005 0.529781 -0.207825 0.535437 -0.150912 -0.020888 0.804879 0.320015 -0.204604 0.436825 -0.337558 1.152599 0.485632 0.684487 0.422181 0.141699 -0.208137 0.288409 -0.365604 -0.511776 0.260091 -0.589815 -0.032675 0.075558 -0.351956 0.261373 -0.535563 -0.135329 0.040729 0.092854 0.130693 0.818825 0.339425 0.500094 0.401967 0.125826 -0.242112 -0.250895 -0.214695 -0.851888 0.521018 -0.359302 0.350452 -0.218288 0.052520 0.105370 0.071525 -0.569551 0.079079 -0.334237 -0.492064 -0.493911 0.559423 -0.819680 0.655238 0.531114 0.508153 0.241513 0.417859 -0.101490 0.476352 -0.177746 -0.802598 0.492870 1.145123 -0.608558 0.244943 -0.286735 0.060144 -0.237103 0.045109 0.092735 -0.083962 0.447535 -0.130655 0.058030 1.413256 -0.027786 -0.431116 -0.064643 0.366218 -0.436953
gca_000506405 0.361861 0.261174 0.223094 0.821407 -0.766429 -0.034597 0.024987 0.185671 -0.179253 0.142689 0.052736 0.657659 -0.164444 -0.121488 0.051222 0.372797 0.114533 0.329208 -0.149652 -0.336750 -0.521255 -0.351618 -0.359414 -0.229751 -0.309370 0.288179 0.086084 -0.296759 0.474057 0.265133 0.125622 -0.232637 -0.284088 -0.755403 0.193213 0.090872 0.152228 0.214035 0.131272 0.162801 0.185466 -0.045711 -0.674094 -0.216733 -0.064452 0.389866 0.266734 0.726064 -0.058670 -0.067869 -0.173992 0.179097 0.156056 0.025026 0.010603 0.197763 -0.188743 0.584196 -0.006394 0.598973 0.420354 0.391200 0.267934 0.473430 -0.206053 -0.313778 -0.089836 -0.486533 0.004086 0.006563 0.334987 -0.040017 0.163396 0.033365 0.057414 0.211617 0.108517 0.352689 0.087283 0.305008 -0.091346 -0.094104 -0.149343 -0.041042 0.251439 -0.652607 0.209798 -0.266734 0.496463 -0.662020 0.295129 0.235621 0.304268 -0.181880 0.010921 -0.475093 -0.240781 -0.181293 0.133940 -0.241099 0.045437 0.556331 -0.166434 0.058179 0.136139 -0.452814 0.112964 -0.103115 -0.397938 -0.046235 0.431376 -0.391658 0.378686 -0.099019 0.049282 -0.085883 -0.523462 -0.185031 0.475561 0.409524 -0.166079 -0.459161 0.877208 -0.116629 -0.432072 -0.285605 0.300762 -0.274131
gca_000012365 0.278969 -0.127115 0.077402 0.811428 -0.873988 -0.054303 0.213827 0.345096 -0.003310 0.032232 0.077608 0.344345 -0.143976 0.470129 0.187145 0.498041 0.137467 0.485613 0.146464 -0.341107 -0.604394 -0.349320 -0.476830 0.149924 0.076845 0.736367 -0.023452 -0.064386 -0.002367 0.671325 0.419600 0.195379 0.072247 -0.140017 0.392309 -0.157359 -0.138354 -0.376078 0.157670 0.405091 -0.106094 -0.619225 -0.827181 -0.409068 0.162186 0.482792 0.622946 0.816360 0.027345 -0.249006 -0.802179 0.330744 -0.131080 0.285779 0.220205 0.405421 -1.079751 1.258356 -0.081797 0.493643 -0.000205 0.751659 -0.133247 0.513949 -0.684415 0.017765 -0.125980 -0.517886 0.082727 -0.176473 0.082570 -0.224475 -0.046350 0.481785 0.225729 0.663142 -0.226472 0.627018 -0.032104 0.527990 -0.445655 -0.000351 0.452244 -0.901834 0.521665 -0.475137 0.985718 0.459951 0.302972 -0.437335 0.085023 -0.154654 -0.428302 -0.189798 -0.283480 -0.294427 0.514538 0.241058 0.237570 -0.992755 0.315785 0.528068 0.007302 0.455082 -0.355188 -0.301512 0.167945 -0.310893 -0.221518 0.544851 0.553691 -0.347716 0.223048 0.262072 -0.578226 -0.577168 -1.256542 -0.262109 0.114865 0.057437 -0.104946 -0.170517 1.025638 -0.363312 -0.868689 -0.643736 0.579002 0.676162
gca_001592735 0.444606 0.269206 0.297820 0.736323 -0.777833 0.055883 -0.027424 0.234242 -0.219149 0.159756 -0.024941 0.674997 -0.072208 -0.151533 0.081648 0.351179 0.055954 0.347551 -0.101478 -0.363489 -0.528963 -0.429486 -0.351180 -0.168805 -0.359772 0.336777 0.136789 -0.289273 0.422328 0.330308 0.217857 -0.234158 -0.341528 -0.654971 0.134955 0.052510 0.141649 0.140337 0.064401 0.117896 0.213865 -0.032136 -0.567367 -0.269279 -0.095885 0.331421 0.169037 0.641462 0.024617 -0.016483 -0.219050 0.234456 0.084795 0.077530 0.024574 0.097115 -0.160289 0.575961 -0.052645 0.698514 0.427432 0.446671 0.336296 0.445801 -0.213830 -0.413824 -0.171106 -0.453761 0.107544 0.035710 0.349867 -0.170134 0.218883 0.005363 0.089043 0.200162 0.039639 0.295115 0.014608 0.299625 -0.080397 -0.096991 -0.122148 0.077483 0.157201 -0.565741 0.240918 -0.204564 0.495229 -0.570653 0.369417 0.167315 0.176842 -0.262992 0.060213 -0.489068 -0.307013 -0.075733 0.143752 -0.272532 0.109029 0.577282 -0.100174 0.097241 0.169696 -0.499267 0.145250 -0.142198 -0.416687 -0.027563 0.363900 -0.351675 0.368522 -0.158308 0.021401 -0.207727 -0.442269 -0.300796 0.538282 0.411295 -0.160604 -0.446221 0.830270 -0.215188 -0.435783 -0.274491 0.297977 -0.311415
gca_000463075 0.496796 0.264573 0.311151 0.847060 -0.842786 0.047192 -0.020548 0.295565 -0.240231 0.236368 -0.042434 0.738474 -0.090447 -0.156577 0.077741 0.371133 0.078571 0.379856 -0.166569 -0.401362 -0.587921 -0.439310 -0.385511 -0.175406 -0.453114 0.370766 0.171258 -0.293864 0.462774 0.372080 0.232980 -0.249489 -0.386460 -0.724735 0.172322 0.053586 0.160381 0.163406 0.074060 0.110905 0.236557 -0.049610 -0.631301 -0.291915 -0.132147 0.390079 0.146252 0.693478 0.009534 -0.041731 -0.268110 0.231584 0.065128 0.042605 0.042444 0.138559 -0.149409 0.636428 -0.067072 0.751081 0.484319 0.475928 0.401352 0.497324 -0.204665 -0.469434 -0.161053 -0.512743 0.096149 0.021392 0.405741 -0.208626 0.233535 0.026615 0.059940 0.221047 0.037867 0.288274 0.050856 0.404562 -0.082494 -0.116792 -0.151589 0.058871 0.149299 -0.616766 0.301415 -0.236254 0.518748 -0.631826 0.408211 0.155709 0.206429 -0.299938 0.033317 -0.584257 -0.308727 -0.103678 0.117801 -0.259016 0.105781 0.663862 -0.125854 0.066092 0.193635 -0.580820 0.134161 -0.153361 -0.466534 -0.061009 0.412736 -0.414792 0.432924 -0.165385 0.051004 -0.226105 -0.530296 -0.350492 0.573462 0.471422 -0.156172 -0.480900 0.891870 -0.268861 -0.486496 -0.299158 0.334721 -0.337495
gca_001761825 0.327467 -0.125077 0.429987 0.460188 -0.654961 0.553076 0.488579 0.039313 -0.583700 0.552104 0.226199 0.333279 -0.209509 -0.625840 -0.283171 0.388488 -0.255376 -0.009000 -0.097517 -0.076833 -0.242429 -0.076983 -0.469046 0.002492 -0.757465 -0.035555 -0.602905 -0.372006 -0.216670 -0.053236 0.674753 0.176543 -0.677216 -0.382517 0.382315 -0.021681 -0.204223 0.324342 -0.529077 0.211579 0.308615 0.225872 -1.099448 -0.135431 0.245466 0.291991 0.384083 -0.244276 0.321487 -0.102544 -0.244640 0.267889 0.123153 -0.110659 0.310238 0.093407 -0.307012 -0.054063 -0.236557 1.028504 -0.200648 0.274575 0.167329 0.360905 -0.236558 -0.029285 0.221759 -0.452179 0.326222 0.506250 0.027093 0.033985 -0.088545 0.135886 0.273126 0.118649 -0.022518 0.036295 0.002173 0.961680 -0.126236 0.121389 -0.461470 -0.054065 0.027449 -0.250154 -0.244822 -0.433257 0.675110 -0.239050 0.543033 0.111221 -0.398295 -0.445446 -0.060124 -0.434321 -0.191951 0.317152 0.040366 -0.111591 0.431216 0.903589 -0.247762 -0.239213 0.100836 0.058231 0.022653 -0.658251 -0.754728 0.097167 0.535194 -0.241233 -0.118945 -0.229050 -0.340181 -0.559103 -0.791711 -0.519148 0.317481 0.615151 -0.449090 -0.102259 0.966347 0.000078 -0.706253 -0.643596 0.381759 -0.475344
gca_000415525 0.467499 0.237672 0.303465 0.779266 -0.770537 0.056325 -0.041443 0.338896 -0.234717 0.206640 -0.010860 0.671169 -0.101604 -0.202420 0.124229 0.351819 0.073588 0.277923 -0.105806 -0.404978 -0.619426 -0.450526 -0.400133 -0.229702 -0.454354 0.388671 0.143125 -0.275959 0.433672 0.350590 0.207655 -0.218304 -0.368761 -0.712687 0.230414 0.018721 0.206752 0.113401 0.115989 0.113473 0.198078 -0.040331 -0.613032 -0.229786 -0.160962 0.351638 0.148403 0.652320 0.058727 -0.005045 -0.295238 0.263458 0.074046 0.055894 0.012541 0.120704 -0.105382 0.587011 0.001854 0.708480 0.488411 0.430334 0.379107 0.440700 -0.188448 -0.478197 -0.091817 -0.521215 0.043184 0.089553 0.373497 -0.236474 0.250447 -0.005687 0.037376 0.243312 0.050519 0.275699 0.113518 0.344951 -0.087895 -0.136485 -0.167389 -0.025758 0.165621 -0.598803 0.258729 -0.266861 0.541791 -0.558166 0.362754 0.142041 0.152906 -0.303600 -0.020640 -0.566568 -0.338754 -0.128375 0.146165 -0.272550 0.059436 0.623941 -0.162840 0.057879 0.204124 -0.560209 0.098164 -0.081955 -0.476597 -0.042877 0.465956 -0.425938 0.387475 -0.211846 0.084148 -0.236831 -0.513812 -0.381734 0.514618 0.427647 -0.128067 -0.444195 0.871085 -0.238868 -0.472038 -0.320533 0.356992 -0.263048
gca_003410225 0.529836 0.274722 0.314411 0.889469 -0.844941 0.034116 -0.016561 0.318666 -0.210776 0.242422 -0.029044 0.756833 -0.096716 -0.216669 0.085853 0.369944 0.091122 0.399702 -0.211102 -0.433847 -0.622581 -0.481082 -0.375238 -0.184627 -0.447950 0.390035 0.148508 -0.306871 0.513487 0.363676 0.227966 -0.265788 -0.402814 -0.776795 0.182476 0.091883 0.206000 0.180539 0.100668 0.127148 0.279555 -0.023366 -0.663709 -0.305209 -0.138166 0.401433 0.154059 0.699759 0.002775 -0.055292 -0.248447 0.251854 0.065167 0.075666 0.042466 0.141476 -0.110471 0.661788 -0.084150 0.773496 0.496212 0.489272 0.401696 0.534450 -0.222151 -0.487406 -0.182792 -0.507508 0.051369 0.052792 0.421026 -0.198036 0.264036 -0.024052 0.041300 0.237164 0.056318 0.306646 0.043897 0.409366 -0.084320 -0.140037 -0.153414 0.091509 0.143908 -0.673885 0.287733 -0.217381 0.549582 -0.651310 0.438573 0.153818 0.218293 -0.313994 0.018286 -0.597910 -0.355925 -0.090010 0.142978 -0.272689 0.082523 0.703698 -0.112997 0.093033 0.245115 -0.629964 0.143356 -0.149376 -0.492328 -0.027455 0.480249 -0.447225 0.462166 -0.174957 0.041117 -0.263518 -0.565842 -0.330953 0.631557 0.485284 -0.171062 -0.500766 0.936748 -0.293629 -0.468652 -0.324623 0.356388 -0.300261
gca_000022885 0.566484 0.291839 0.360602 0.951303 -0.938285 0.061789 -0.019427 0.312851 -0.254697 0.278159 -0.049204 0.814661 -0.096559 -0.179202 0.080594 0.387497 0.073983 0.404342 -0.189617 -0.455914 -0.621829 -0.474495 -0.415581 -0.170398 -0.496516 0.394542 0.178384 -0.324499 0.501161 0.409847 0.270248 -0.269150 -0.433942 -0.783491 0.178147 0.066148 0.134239 0.168352 0.050574 0.116481 0.247853 -0.063325 -0.687083 -0.312331 -0.144151 0.420050 0.152351 0.752634 0.030274 -0.046481 -0.279846 0.252700 0.048838 0.038365 0.061018 0.171881 -0.140127 0.668737 -0.077299 0.823144 0.554578 0.497618 0.463865 0.509823 -0.224512 -0.502089 -0.189949 -0.568717 0.108026 0.021959 0.430768 -0.244247 0.280825 0.042680 0.080578 0.237755 0.036738 0.291723 0.040634 0.457783 -0.084992 -0.140571 -0.177075 0.064096 0.150436 -0.635042 0.324291 -0.245212 0.565143 -0.661145 0.437064 0.136026 0.218520 -0.329151 0.011826 -0.640459 -0.319070 -0.103695 0.130559 -0.255585 0.103201 0.744189 -0.118153 0.084672 0.227421 -0.660548 0.120713 -0.166557 -0.516852 -0.071894 0.442076 -0.465920 0.473570 -0.184989 0.075000 -0.259626 -0.576838 -0.386146 0.637966 0.501068 -0.153491 -0.526611 0.975666 -0.299381 -0.532916 -0.314153 0.377777 -0.373711
gca_005405965 0.421415 0.234465 0.267984 0.720328 -0.750618 0.053404 -0.021365 0.244968 -0.187599 0.175755 -0.027059 0.642090 -0.085479 -0.146673 0.062952 0.323754 0.086353 0.359602 -0.142883 -0.365256 -0.503972 -0.388782 -0.349408 -0.151904 -0.384439 0.347791 0.126107 -0.281655 0.434194 0.312493 0.199192 -0.225616 -0.321573 -0.633203 0.147305 0.058983 0.116389 0.153640 0.038063 0.061274 0.197771 -0.046246 -0.557510 -0.255715 -0.088920 0.351949 0.117257 0.610006 0.001412 -0.052990 -0.212905 0.229663 0.055605 0.035124 0.025524 0.117009 -0.134467 0.536363 -0.055920 0.639238 0.440414 0.385081 0.325867 0.397449 -0.165687 -0.391591 -0.123574 -0.415290 0.089628 0.035642 0.339695 -0.180857 0.174493 0.000226 0.079340 0.177938 0.047821 0.248927 0.066868 0.331918 -0.068676 -0.115179 -0.135522 0.029137 0.125778 -0.532704 0.238375 -0.193274 0.445125 -0.531083 0.333187 0.143198 0.191747 -0.249496 0.031946 -0.496799 -0.282221 -0.078646 0.109058 -0.234990 0.061566 0.544226 -0.102417 0.047201 0.160191 -0.519121 0.116478 -0.113425 -0.395740 -0.033906 0.374755 -0.342382 0.376061 -0.169794 0.046730 -0.190814 -0.455444 -0.312409 0.494098 0.419065 -0.121225 -0.385254 0.763941 -0.232934 -0.445823 -0.235523 0.298151 -0.256677
gca_000157015 0.531827 0.275647 0.322985 0.913515 -0.878116 0.054926 -0.009730 0.283085 -0.258541 0.250378 -0.036317 0.758707 -0.113140 -0.190425 0.081398 0.387207 0.074932 0.382710 -0.162587 -0.407347 -0.641435 -0.452234 -0.411305 -0.185004 -0.465663 0.404511 0.166148 -0.309033 0.485261 0.388624 0.243369 -0.259005 -0.380708 -0.775719 0.168550 0.067080 0.148361 0.159089 0.064254 0.121560 0.252476 -0.025363 -0.672290 -0.291969 -0.142407 0.428278 0.172730 0.739802 0.014114 -0.039426 -0.257952 0.222917 0.080891 0.071895 0.067940 0.162053 -0.164388 0.661440 -0.068686 0.792290 0.521831 0.512818 0.414620 0.534155 -0.223532 -0.494171 -0.142676 -0.555435 0.117321 0.014411 0.394026 -0.207275 0.244793 0.008343 0.100904 0.244305 0.060052 0.312228 0.037784 0.435403 -0.084335 -0.126313 -0.154632 0.063914 0.156498 -0.632900 0.297975 -0.228134 0.537536 -0.646352 0.428532 0.152819 0.249108 -0.327773 0.028906 -0.604559 -0.305607 -0.096923 0.132478 -0.278514 0.121978 0.698244 -0.127217 0.098633 0.201357 -0.625704 0.129015 -0.175600 -0.514161 -0.079454 0.464850 -0.433242 0.444069 -0.178840 0.048465 -0.259302 -0.589004 -0.375493 0.597004 0.486635 -0.171395 -0.518578 0.969396 -0.276566 -0.496426 -0.298440 0.343975 -0.361775
gca_000309585 0.511208 0.279255 0.312697 0.817273 -0.824768 0.054309 -0.016101 0.272207 -0.223282 0.223574 -0.009888 0.732019 -0.072481 -0.149840 0.091852 0.338203 0.089462 0.346720 -0.154091 -0.380623 -0.568053 -0.418106 -0.366055 -0.183530 -0.427115 0.326637 0.163467 -0.300170 0.452581 0.357210 0.188661 -0.237176 -0.378421 -0.682594 0.148900 0.050911 0.165979 0.143946 0.082298 0.069683 0.219657 -0.024214 -0.614083 -0.257011 -0.111770 0.391624 0.153935 0.624380 0.000204 -0.049186 -0.259701 0.260327 0.059848 0.038187 0.046688 0.139475 -0.106827 0.595783 -0.089017 0.754244 0.453416 0.451430 0.381442 0.469237 -0.177089 -0.460116 -0.192024 -0.498488 0.044470 0.057272 0.380992 -0.170435 0.232066 0.045244 0.060773 0.201632 0.074195 0.283288 0.060137 0.376217 -0.068278 -0.108248 -0.142716 0.068957 0.151310 -0.572674 0.281461 -0.213927 0.480262 -0.571862 0.370825 0.132114 0.210438 -0.317771 0.005064 -0.549524 -0.275546 -0.123949 0.133326 -0.250256 0.093872 0.622433 -0.102157 0.053379 0.207418 -0.532907 0.110935 -0.137327 -0.460631 -0.047849 0.403615 -0.386658 0.392047 -0.183250 0.073080 -0.206475 -0.524431 -0.347519 0.545398 0.450388 -0.145097 -0.443889 0.859623 -0.235519 -0.478433 -0.280398 0.346829 -0.294942
gca_000175355 0.710159 -0.405960 0.380417 0.080812 -1.024523 -0.311393 0.195052 0.025708 -0.758267 0.021670 0.334206 0.415551 0.224877 -0.170474 0.141332 0.541590 0.540809 -0.099151 -0.196317 -0.565781 -0.423122 -0.230839 -0.440785 -0.072459 -0.037084 0.711937 -0.264297 -0.465437 0.246829 0.833494 -0.065780 0.154802 0.604000 -0.728305 0.025248 0.130004 0.183259 0.486534 0.042688 0.214516 -0.391447 -0.639944 -0.730585 0.310417 -0.490008 0.324044 0.186877 0.659567 -0.419036 0.137108 -0.129328 0.628297 0.714280 0.436236 0.232078 0.137178 -0.811010 0.697552 -0.625006 0.984213 -0.201091 0.464696 0.284237 0.540059 -0.385510 0.412997 -0.031157 -0.545184 -0.546021 0.071742 -0.080484 -0.127808 0.191114 -0.385206 0.346858 0.289614 0.413485 0.175897 -0.072544 0.152881 -0.237458 0.540627 0.389122 -0.064112 1.043108 -0.332045 0.029867 0.237707 0.074247 -0.556791 0.440085 0.160723 0.139484 -0.259721 -0.310750 -0.399141 -0.234245 -0.597190 0.151008 -0.687815 0.496723 0.922746 -1.132898 0.374890 -0.568325 -0.294295 -0.038411 0.122287 -0.862043 -0.691467 0.852060 -0.255525 0.391192 -0.153717 -0.066182 -0.239621 -0.441596 0.100091 0.788129 0.051283 -0.140171 -0.381212 0.743058 0.173381 -0.643504 -0.729839 0.691318 0.227309
gca_004136675 0.371826 -0.072445 0.533972 0.609944 -0.651672 -0.215391 0.074079 0.194448 -0.434569 0.170681 -0.116341 0.871535 -0.080175 -0.173473 0.215755 0.267168 -0.111655 0.370694 -0.270721 -0.375224 -0.738980 -0.240811 -0.169114 -0.043662 -0.577883 0.301071 0.279369 -0.240582 0.447383 0.694373 0.354056 -0.159934 -0.544538 -0.758897 0.038498 -0.091515 -0.100598 0.130978 0.226291 0.190892 0.081712 -0.056640 -0.475634 -0.326770 -0.371988 0.447568 0.138785 0.810410 0.350720 -0.087890 -0.035022 0.251909 -0.032275 0.020545 -0.146411 -0.181308 -0.246971 0.492604 0.078433 0.752850 0.449224 0.576086 0.316323 0.663681 -0.038751 -0.367081 -0.203719 -0.405443 0.144247 0.002018 0.538630 -0.081643 0.168387 0.009431 -0.033661 0.061903 -0.082265 0.374045 -0.021905 0.240669 -0.163130 -0.024688 -0.165741 0.270095 0.102942 -0.635984 0.437669 -0.399135 0.541469 -0.597523 0.366634 0.278660 0.564119 -0.357604 -0.067719 -0.760415 -0.176012 0.108473 0.199432 -0.261688 -0.045884 0.673857 -0.424423 0.117155 0.109465 -0.461435 0.386025 -0.303253 -0.387335 0.045147 0.407376 -0.320942 0.410393 -0.148100 0.176551 0.057112 -0.533093 -0.673934 0.674552 0.608019 -0.119997 -0.512383 1.159990 -0.374888 -0.318438 -0.027437 0.274130 -0.540117
gca_000203915 0.158503 0.304156 0.063659 0.990692 -0.620743 -0.447303 -0.460848 0.395383 -0.237360 0.039031 -0.132051 0.597773 0.348526 -0.002101 0.006274 0.072451 0.172867 0.350765 -0.267112 0.068435 -0.806361 -0.304763 -0.336114 -0.303914 -0.319497 0.497886 0.271897 0.065036 0.361023 -0.416568 -0.140123 -0.209481 -0.316490 -1.035900 0.668779 0.099517 0.690957 -0.216000 0.092848 0.311936 0.551224 0.107223 0.240318 -0.043246 -0.161978 0.484521 0.744071 -0.055858 -0.328302 -0.323565 -0.468552 0.327392 -0.323373 -0.100628 -0.264155 0.228509 -0.001869 0.631250 -0.241080 0.323240 0.546039 0.873804 0.348454 0.385123 0.235623 -0.663169 -0.361084 0.096371 0.254550 0.229586 0.738489 -0.331660 -0.104256 0.048030 -0.082032 0.204798 -0.182013 0.786638 0.408685 0.732989 -0.187832 -0.374215 0.481133 -0.534720 -0.037642 -0.555216 0.118594 -0.011944 0.680835 -0.570111 -0.054104 0.656899 -0.230153 0.322827 0.640327 -0.478637 0.599120 -0.070595 -0.227267 -0.254239 -0.145414 0.354097 -0.155750 0.691874 -0.098200 0.380446 0.223807 -0.122151 0.028454 0.073433 0.238571 -0.562905 0.691028 0.235251 -0.227381 -0.080438 -1.038041 -0.458279 0.523128 0.033537 -0.191849 0.134485 0.474632 -0.761695 -0.169526 -0.506882 0.211597 -0.004519
gca_000169735 0.012930 0.075737 0.246058 0.214742 -0.375503 -0.128130 -0.110109 0.255610 -0.039733 0.125322 0.175595 0.883260 -0.120632 -0.865919 0.564212 0.247245 -0.137127 0.155306 -0.135297 0.211892 -0.670875 -0.434077 0.207751 -0.368306 0.072204 0.170217 0.090518 -0.316917 0.592235 0.428472 -0.052467 -0.129222 -0.065318 -1.031589 0.090639 0.327335 0.423496 0.560369 0.528628 0.131750 -0.259706 0.734343 -0.127559 0.743988 -0.276161 0.822057 0.480813 0.933681 -0.072687 0.001317 -0.412602 0.381406 -0.084124 -0.243588 0.479006 -0.364899 -0.499945 0.565474 0.094189 1.081708 0.093964 0.752933 0.118023 0.756838 0.272731 -0.251900 0.418085 0.363390 0.043734 -0.156762 -0.038353 -0.540400 0.244861 0.239329 -0.017557 0.560883 -0.114301 0.611665 -0.396002 -0.505296 -0.451355 -0.405175 0.089799 0.243915 0.037544 -0.451018 -0.131963 -0.004342 0.296647 -0.668999 0.366364 0.642990 -0.021698 -0.440296 0.305263 -0.978589 -0.627250 -0.380256 0.327548 -0.309539 -0.292019 0.402652 -0.326565 -0.259158 0.297121 -0.223650 0.362249 0.367673 -0.324346 -0.331653 0.639199 -0.908628 0.030668 -0.250235 0.353477 -0.098260 -0.753008 0.043858 -0.115103 0.163878 -0.573620 -0.546081 1.015380 -0.317770 0.154808 -0.157902 0.468729 -0.010362
gca_000018785 0.643413 0.554524 -0.164522 1.168316 -0.527939 0.610396 -0.263809 0.196882 -0.509359 -0.519388 0.042389 0.297243 -0.769804 0.129522 0.093902 0.434589 -0.206834 0.281396 0.520475 -0.041741 -0.041814 -0.364432 -0.656133 -0.172809 -0.284097 0.740682 0.639172 -0.721412 0.167139 0.019098 0.274912 -0.019757 0.020988 -0.135886 0.280959 0.138082 0.027486 -0.080203 -0.029841 -0.546836 -0.185313 -0.682311 -0.660086 -0.429144 0.266336 0.164879 0.324791 0.147302 -0.129391 0.492742 -0.485970 0.127191 0.235506 -0.301838 -0.124724 0.354387 -0.213169 0.988196 -0.068479 0.764813 1.039058 0.460823 -0.164110 0.429274 -1.462865 -0.081136 -0.269817 -0.614808 0.338752 -0.173818 0.307422 0.278804 -0.345207 0.222731 0.474701 0.468603 0.282151 0.590718 0.341544 0.426575 0.273069 0.358556 -0.100571 -0.177388 -0.388469 -0.654529 0.561470 -0.286160 0.225373 0.043739 -0.046953 -0.251485 0.495930 -0.065357 0.195871 -0.583842 -0.250556 -0.275171 0.729112 -0.606888 0.558422 0.011686 -0.160873 -0.219928 0.209132 -0.844201 0.197836 -0.063881 0.212910 0.436341 0.499123 0.254688 0.114097 -0.717895 0.216593 -0.422473 -0.713083 -0.575747 0.426043 0.318173 -0.074890 0.174359 1.160891 -0.877816 -0.798495 -0.328364 0.003736 0.265533
gca_005144475 0.158440 -0.002676 0.256170 1.203840 -0.460177 1.062109 0.506340 0.135422 -0.257419 -0.151300 -0.034266 0.782336 -0.554757 0.477228 0.372250 -0.277896 0.055373 0.245640 0.778793 0.121410 -0.756617 -0.124852 -0.475809 -0.419835 0.048641 1.156599 0.049370 -0.046489 -0.674099 -0.024504 0.488300 -0.387460 0.382890 -0.344484 0.875042 -0.029975 0.350485 0.253411 0.584329 -0.238524 0.183319 -0.001403 -0.336545 -0.230638 0.299079 0.005655 0.360567 0.652508 -0.321092 -0.092172 -0.538065 0.040469 0.483303 -0.158402 0.193813 0.293342 -0.044000 0.560644 0.035107 0.733691 0.332148 0.958754 0.688150 0.489344 -0.383110 -0.315100 -0.206081 -0.673640 -0.092816 -0.045529 -0.099404 -0.559941 -0.563316 0.212933 0.271189 -0.095408 0.400568 0.251641 0.378391 0.342597 0.394896 -0.124115 0.010551 -0.340890 0.235605 -0.945706 0.043827 0.208325 0.323473 -0.254674 0.006260 0.396359 -0.015386 -0.542275 0.003798 -0.743296 0.139307 -0.310796 0.339858 -0.875337 0.373313 0.136029 -0.167739 0.405514 -0.044856 -0.204413 -0.049212 -0.227951 -0.158006 -0.026679 1.159658 -0.308588 -0.328744 0.071391 0.342378 -0.199026 -1.310855 -0.335302 0.660837 0.510289 -0.533341 0.292473 1.212999 -0.159555 -0.850276 -0.444265 0.897168 -0.317782
gca_001252575 0.377398 -0.133571 0.443172 0.913441 -0.463203 -0.179050 -0.173289 -0.045761 -0.278928 0.188381 0.572676 0.478195 0.287172 0.176864 -0.256492 0.567678 0.524613 0.571850 -0.155036 -0.342096 -0.842014 -0.669511 -1.011324 -0.730868 -0.248376 0.564021 -0.249716 0.014591 0.533168 0.377764 0.361037 -0.535438 -0.480134 -0.386765 -0.039997 0.352849 -0.167684 -0.229812 0.860921 0.183839 0.064814 -0.071765 -0.320934 0.081938 0.057515 0.671085 -0.194212 0.730442 -0.709925 0.214194 0.060548 -0.125902 0.470520 0.416342 0.081505 -0.140629 0.116349 0.576759 0.058581 0.335740 0.385103 -0.696054 -0.055695 0.933393 -0.199827 -0.587719 0.000753 -0.622914 -0.298368 -0.416444 -0.665202 0.336079 0.094971 0.040228 0.692034 -0.088839 0.121080 0.986937 0.697017 0.315942 -0.166137 -0.408617 -0.312322 -0.417045 0.344500 -0.418156 0.470898 0.130156 0.062388 -0.270027 -0.372342 0.559658 0.684580 -0.552923 0.184587 -0.447743 0.250212 -0.468532 -0.109631 -0.409686 0.420236 0.625289 -0.824319 -0.539099 0.061105 -0.612738 0.090937 0.236825 -0.479833 0.238848 0.762828 -0.465668 0.180299 0.012202 -0.155424 -0.537608 -0.346946 -0.364665 0.194118 0.538648 0.480327 0.561039 0.608397 -0.390351 -0.450732 -0.275314 0.429647 -0.275854
gca_000014305 0.465759 0.267537 0.322696 0.770663 -0.751894 0.039823 -0.015308 0.321948 -0.227500 0.205678 -0.034230 0.650871 -0.065295 -0.172775 0.065881 0.364018 0.075486 0.334182 -0.153398 -0.359406 -0.584374 -0.466551 -0.350933 -0.112703 -0.370674 0.368308 0.136666 -0.298744 0.414430 0.357959 0.194372 -0.234737 -0.305923 -0.699235 0.201114 0.092766 0.161055 0.181455 0.063644 0.105130 0.246714 -0.061303 -0.559312 -0.269881 -0.110806 0.404832 0.126257 0.637091 -0.048281 0.013284 -0.253869 0.207462 0.075525 0.037827 0.039446 0.116440 -0.138601 0.560915 -0.091069 0.698547 0.500348 0.463658 0.364069 0.403732 -0.205131 -0.460328 -0.133056 -0.491595 0.095512 0.021868 0.339973 -0.236734 0.215794 0.024284 0.032233 0.195427 0.026949 0.314554 0.093247 0.367569 -0.066060 -0.131750 -0.156608 0.035101 0.106857 -0.597832 0.293898 -0.226515 0.504296 -0.577612 0.380826 0.133614 0.194029 -0.254828 0.042243 -0.549401 -0.285630 -0.085180 0.124198 -0.193420 0.114835 0.625236 -0.093681 0.042065 0.153370 -0.568707 0.151470 -0.104917 -0.440250 -0.054754 0.421865 -0.388061 0.422550 -0.153551 0.064565 -0.241044 -0.492342 -0.326260 0.553740 0.450772 -0.135772 -0.450395 0.827763 -0.231044 -0.414023 -0.289532 0.347070 -0.320096
gca_000512185 0.457309 0.234836 0.256929 0.763318 -0.759996 0.057671 0.002637 0.271042 -0.204276 0.210650 -0.052315 0.637378 -0.068867 -0.151391 0.070313 0.315829 0.072358 0.349827 -0.124035 -0.352134 -0.506349 -0.389694 -0.347128 -0.138404 -0.399599 0.358044 0.152648 -0.248710 0.392957 0.330810 0.185047 -0.214665 -0.332044 -0.643598 0.149799 0.065511 0.139592 0.169212 0.047716 0.093584 0.196836 -0.027389 -0.554825 -0.247130 -0.103053 0.322183 0.128702 0.611712 0.000568 -0.040250 -0.227572 0.187403 0.056608 0.045769 0.043415 0.110827 -0.122511 0.549100 -0.035931 0.669887 0.438132 0.417186 0.370468 0.430002 -0.188521 -0.404121 -0.136424 -0.419011 0.080979 0.016303 0.336529 -0.185018 0.195195 0.031528 0.065047 0.170564 0.052566 0.259186 0.054423 0.330425 -0.036739 -0.123276 -0.147089 0.032131 0.109969 -0.543033 0.265398 -0.210135 0.448719 -0.540806 0.354204 0.129507 0.182330 -0.282599 0.022521 -0.512705 -0.270469 -0.068838 0.129294 -0.237336 0.095589 0.584630 -0.091367 0.055853 0.164606 -0.537156 0.130926 -0.129586 -0.404357 -0.017797 0.362010 -0.368823 0.356925 -0.146678 0.071475 -0.207608 -0.465729 -0.299308 0.527583 0.407970 -0.146493 -0.406296 0.816734 -0.213439 -0.418060 -0.237961 0.295322 -0.283312
gca_003571485 0.780829 -0.532701 0.470751 -0.135346 -0.964184 0.137622 -0.503998 0.572516 -0.199877 0.209097 0.460894 0.462682 0.015508 -0.371630 0.301269 0.000329 0.314055 0.029972 -0.071863 -0.551230 -0.383930 -0.816990 -0.541545 0.170990 -0.143926 0.824992 0.401818 -0.820436 0.060632 -0.058023 -0.169639 0.098962 -0.145436 -1.129930 -0.079404 0.387125 0.762694 0.597699 0.091623 0.279594 0.173643 -0.496922 -0.734282 -0.138285 -0.270709 0.007321 -0.670913 0.573597 -0.815821 0.172850 0.137299 0.200344 0.184300 0.339020 0.082862 -0.427340 0.094590 -0.224537 -0.361036 1.480425 0.140627 0.333316 0.148812 0.082030 -0.599667 -0.015866 0.437880 -0.529809 0.130121 0.395350 0.385025 -0.508233 -0.430492 0.187843 0.283192 0.079278 0.633365 0.974457 0.173272 0.119117 -0.263897 0.174140 -0.505571 -0.323922 -0.083510 -1.134343 -0.403930 -0.076870 -0.211006 -0.644219 -0.019367 -0.009594 0.136962 -0.274545 -0.027743 -0.596618 -0.414345 0.458028 0.734082 -0.189749 0.197551 0.146725 -0.105990 -0.246906 -0.056008 -0.945847 -0.109781 -0.278034 -0.436312 -0.152412 0.414711 0.010782 -0.205722 -0.495758 0.385685 -0.387221 -1.039123 -0.493911 0.533875 0.358767 -0.713648 -0.453172 0.906849 -0.101768 -0.204071 -0.159774 0.308835 -0.118045
gca_002287945 0.480526 0.233095 0.264984 0.741753 -0.713926 0.077287 0.025439 0.267598 -0.219106 0.197776 -0.057687 0.619465 -0.109024 -0.142928 0.080296 0.316824 0.095800 0.343777 -0.111250 -0.356451 -0.510007 -0.362694 -0.348892 -0.163355 -0.379290 0.387017 0.121706 -0.270114 0.388361 0.308495 0.191941 -0.205989 -0.289550 -0.642922 0.158685 0.067158 0.141189 0.165479 0.043736 0.066081 0.193682 -0.080208 -0.536180 -0.238439 -0.083438 0.342655 0.107995 0.612857 -0.018561 -0.017823 -0.246607 0.177849 0.076055 0.078619 0.030802 0.146631 -0.126600 0.553153 -0.029609 0.676262 0.417517 0.410424 0.350554 0.452083 -0.236460 -0.419499 -0.120915 -0.415545 0.060121 0.007045 0.336745 -0.185056 0.179432 0.004353 0.068875 0.212356 0.065666 0.245823 0.045946 0.318837 -0.047794 -0.080081 -0.112313 0.019412 0.124807 -0.526375 0.257288 -0.196071 0.445737 -0.569191 0.381626 0.147667 0.190624 -0.276576 0.036804 -0.500413 -0.266331 -0.102104 0.161864 -0.296087 0.084416 0.543774 -0.112036 0.071067 0.179707 -0.509331 0.114631 -0.163643 -0.422438 -0.048167 0.393983 -0.347141 0.372485 -0.152906 0.068101 -0.204551 -0.479267 -0.291822 0.513777 0.421655 -0.164219 -0.424330 0.790162 -0.247522 -0.436804 -0.270222 0.291865 -0.266517
gca_000177415 0.604574 -0.096948 -0.179374 0.355651 -0.686192 0.236585 0.159872 0.018825 -0.401591 0.286618 -0.006267 0.283716 -0.007594 -0.274024 0.350543 0.432285 0.183564 0.229607 0.152055 -0.398963 -0.071124 0.037091 0.136547 -0.416845 0.120149 0.700734 0.193205 -0.481926 1.190926 0.429114 0.135602 -0.546445 -0.084474 0.041655 0.057489 -0.377691 0.899388 0.201041 0.271951 -0.126996 0.482987 -0.197185 -0.228383 -0.616307 0.349714 0.396937 0.206458 0.630135 0.567090 -0.581868 -0.568267 0.442164 0.268723 0.186215 0.097438 0.150450 -0.183804 1.002987 0.428747 0.735339 -0.404592 0.542093 -0.247060 -0.101436 0.225376 -0.288097 0.311321 -0.455586 0.089060 0.436043 0.428535 0.146377 0.592878 -0.172646 0.222344 0.619525 -0.186893 -0.044512 0.175286 0.679563 -0.070513 0.141843 -0.466228 0.233849 -0.152726 -0.497190 0.201068 0.062338 0.561649 -0.527619 0.789850 0.000480 -0.466817 -0.480054 -0.099670 -0.366580 -0.761217 -0.390547 -0.025564 -0.550239 0.034943 0.386353 0.247228 0.681394 0.056151 -0.435154 -0.013031 0.034157 -0.244992 0.326528 0.156385 -0.798178 0.549250 -0.415487 0.015872 -0.492566 -0.393693 -0.038693 0.356650 -0.051995 -0.648741 -0.352900 0.915488 0.184933 0.025380 -1.076530 0.372997 0.128909
gca_000196315 0.322019 0.129328 0.200232 0.683648 -0.597643 0.063512 -0.072759 0.238956 -0.172654 0.060626 0.164224 0.635256 -0.053535 -0.237704 0.144002 0.380793 0.145174 0.395505 -0.165721 -0.202446 -0.766236 -0.520185 -0.648969 -0.163336 -0.216928 0.527454 0.107678 -0.207754 0.240889 0.193688 -0.057511 -0.137945 -0.097818 -0.752754 0.305604 0.132264 0.363619 0.527254 0.348375 -0.032615 0.198754 0.184085 -0.475035 -0.104647 -0.029870 0.440649 0.265373 0.677223 -0.327526 0.099939 -0.360669 0.155315 0.168046 0.139104 0.071979 0.022647 -0.024127 0.523481 -0.055121 0.864719 0.186106 0.559551 0.233530 0.511595 -0.255138 -0.670580 0.085774 -0.311211 -0.018185 0.152087 0.129988 -0.050124 0.061703 -0.179563 0.067059 0.049361 0.225857 0.679327 0.313383 0.303168 -0.024857 -0.323840 -0.120923 -0.226838 0.208425 -0.811830 0.078953 -0.116955 0.683888 -0.601168 0.340262 0.355412 0.395104 -0.172413 0.100448 -0.635423 -0.383804 -0.027868 0.203483 -0.355253 0.006024 0.459698 -0.152306 0.073898 0.322882 -0.508358 0.190032 -0.103590 -0.433861 0.229539 0.610960 -0.466266 0.261313 -0.136516 -0.070550 -0.171040 -0.750636 -0.324827 0.479010 0.631808 -0.151205 -0.427340 0.925284 -0.043979 -0.226201 -0.113960 0.380958 -0.165910
gca_002150995 0.302661 0.104426 0.395964 0.766840 -1.240644 -0.667229 -0.057677 0.083153 0.293549 -0.036835 0.459033 0.071006 -0.055058 0.054993 0.279720 0.331672 -0.358134 0.351816 -0.528887 -0.776675 -0.520624 -0.316503 -0.748522 -0.424886 -0.558345 0.883611 0.743888 -0.067467 -0.010361 0.400623 0.039914 -0.134717 0.030719 -0.910063 0.136243 -0.252977 0.315948 1.023775 -0.120507 0.159843 0.574322 -0.181916 0.396089 0.041515 0.041151 0.445683 -0.051227 0.680883 0.188845 -0.243597 -0.279037 0.006808 -0.011446 0.265006 0.411909 -0.014669 -0.307658 0.163379 -0.527790 0.921704 -0.104113 0.723398 0.825626 0.721224 -0.039488 -0.375190 -0.454867 0.193866 0.555616 -0.046397 0.431059 0.414460 -0.508113 -0.053921 0.962716 -0.124713 0.202202 0.608529 0.228811 0.328454 -0.539627 -0.058095 0.012424 -0.382518 0.464969 -0.454712 0.498465 0.158336 0.127552 -0.593034 -0.561118 0.143990 0.258724 0.088094 -0.361071 -0.845464 -0.205847 0.740416 0.288434 -0.778960 -0.061603 0.080482 -0.038740 0.033845 -0.458727 -0.141770 0.316400 -0.541824 -0.056555 0.472898 0.184286 -0.190590 0.427326 0.093130 -0.482282 0.016037 -0.882957 -0.902753 0.342319 0.608048 -0.108486 -0.627584 0.958430 0.008488 -0.512665 0.595898 0.622504 0.052249
gca_004368945 0.782757 0.166330 0.125639 -0.036600 -1.249886 0.204444 -0.761194 -0.351637 -0.146800 -0.104157 0.185056 0.305278 -0.311548 -0.220540 0.899969 0.371529 -0.228715 0.163892 -0.200015 -0.409493 -0.509922 -0.401920 -0.384313 0.163415 0.091071 0.719061 -0.104328 -0.013536 0.217628 -0.179985 0.012896 -0.085242 0.200696 -0.797476 0.090039 0.055085 0.494446 0.421997 -0.023777 0.368280 -0.015182 -0.135254 -0.359469 0.203229 0.445078 0.319658 -0.317318 1.335832 -0.163736 0.205338 -0.128055 0.256969 0.040643 -0.107280 0.406321 0.613006 -0.447543 0.860371 0.125426 0.886178 0.804727 0.828632 0.869499 0.294714 -0.640623 0.232868 -0.226504 -0.569269 0.071951 0.110262 -0.015877 0.291709 -0.010741 0.387432 0.595874 -0.086810 0.321403 0.948589 0.255525 0.365396 -0.702839 -0.148187 -0.274017 -0.691968 0.177182 -0.401066 0.594941 0.444701 0.531115 -0.743474 0.062469 -0.266503 0.387006 0.502195 -0.264190 -0.417118 0.155537 0.194464 0.360423 -0.222497 0.169576 0.346322 0.000714 0.488096 0.028089 -0.093231 0.083475 0.008933 -0.488814 0.107080 0.847938 -0.257130 0.174568 -0.849522 -0.263302 -0.076563 -0.621023 -0.223146 0.317866 0.298715 0.129728 0.292345 1.295864 0.270225 -0.141433 0.683820 0.698577 0.209271
gca_000268185 0.455517 0.216263 0.258821 0.758699 -0.750868 0.054005 -0.013716 0.247261 -0.234610 0.209129 -0.068080 0.653364 -0.067569 -0.111395 0.100402 0.339330 0.075596 0.346958 -0.176105 -0.388860 -0.499794 -0.378423 -0.366430 -0.119171 -0.388373 0.311077 0.151116 -0.255376 0.399510 0.304358 0.157112 -0.209793 -0.357196 -0.639895 0.124441 0.032014 0.126624 0.153801 0.043845 0.114478 0.163571 -0.027581 -0.556574 -0.229262 -0.106131 0.371689 0.092984 0.563813 0.008987 -0.018729 -0.210531 0.234810 0.089907 0.030077 0.034391 0.106729 -0.123983 0.548881 -0.049099 0.655694 0.428674 0.404750 0.330486 0.406648 -0.191469 -0.401422 -0.102549 -0.439285 0.060707 0.045346 0.357416 -0.176133 0.196870 0.040941 0.094009 0.199189 0.034633 0.279043 0.036052 0.352059 -0.111807 -0.102414 -0.145890 0.018055 0.115181 -0.520980 0.218119 -0.186293 0.467335 -0.515015 0.366015 0.141477 0.191573 -0.256863 -0.007681 -0.494235 -0.283527 -0.123175 0.082063 -0.215254 0.095007 0.605402 -0.097358 0.046216 0.150541 -0.512145 0.106550 -0.118335 -0.409407 -0.028904 0.408620 -0.369670 0.390142 -0.193401 0.044069 -0.213754 -0.489901 -0.318157 0.496072 0.418632 -0.140987 -0.418426 0.753099 -0.237445 -0.441074 -0.237202 0.292940 -0.278062
gca_002285615 0.684322 0.140346 -0.108380 0.915741 -0.513577 0.521000 0.147339 0.101598 0.148301 0.296072 -0.313643 0.306934 -0.351771 0.101324 0.407994 0.931109 0.688286 0.388150 -0.026616 -0.005316 0.073268 -0.219797 -0.851359 -0.082810 -0.226830 0.733227 -0.321043 -0.213273 0.585203 0.690740 -0.670838 -0.083458 0.113473 -0.838603 0.009483 0.345026 -0.116826 0.295863 -0.205848 -0.146392 -0.548028 0.042302 -0.777153 -0.250838 0.113957 0.399154 0.665626 0.536658 0.142002 0.088673 -0.199554 -0.070144 0.496178 0.166458 0.132230 -0.114266 0.043079 0.291236 0.063111 1.061471 1.223172 0.523556 -0.461874 0.241652 -0.488285 -0.211617 -0.278940 -0.611069 0.117266 0.096103 -0.760418 -0.056979 0.287743 0.274224 0.228820 0.485122 0.367106 0.812193 -0.101733 -0.061164 0.020122 -0.563199 -0.426240 0.014665 -0.389283 -0.283499 -0.019272 0.256023 0.279844 -0.832882 -0.013608 -0.032969 0.931808 -0.644341 0.453424 -1.176057 -0.410854 -0.376011 -0.136683 -0.792804 0.107897 0.042140 -1.033521 -0.312721 0.603822 -0.305913 0.090922 0.269062 -0.349667 0.619365 0.538402 -0.859860 -0.042194 0.005199 0.228032 -0.764294 -0.391991 -0.632113 0.148923 0.343280 -0.126585 0.162234 0.438218 -0.052078 -0.282644 -0.376656 -0.013530 -0.400486
gca_000226035 0.559758 0.294155 0.392014 0.922212 -0.795659 0.131405 -0.030063 0.200965 -0.036538 0.277857 -0.077189 0.691105 -0.115511 -0.112874 0.094460 0.194407 0.071625 0.312595 -0.138939 -0.289770 -0.445361 -0.349829 -0.189100 -0.139260 -0.481961 0.152578 0.134297 -0.157088 0.357111 0.443593 0.332677 -0.309391 -0.362660 -0.522344 0.184821 0.121683 0.049381 0.044401 -0.076718 0.132276 0.270632 -0.162306 -0.612392 -0.256544 -0.295514 0.386090 0.145578 0.633061 0.079637 -0.083283 -0.152510 0.162694 -0.037703 -0.032122 0.060740 0.196518 -0.127667 0.507109 -0.130665 0.702095 0.493046 0.421793 0.388699 0.425762 -0.219228 -0.324710 -0.292737 -0.547435 0.055467 0.025018 0.393497 -0.091447 0.179541 0.045714 0.024691 0.267301 -0.075754 0.126750 -0.042618 0.391503 -0.121760 -0.144026 -0.198883 0.213605 0.076083 -0.516354 0.195031 -0.137083 0.354938 -0.538067 0.385255 0.133964 0.112199 -0.259387 -0.103460 -0.517338 -0.152761 -0.115641 0.098640 -0.304504 0.114897 0.637536 -0.024037 0.059278 0.135249 -0.613944 0.162369 -0.214108 -0.378450 -0.221771 0.285286 -0.486613 0.389567 -0.040442 0.059472 -0.247018 -0.409602 -0.401877 0.440312 0.396938 -0.194962 -0.480815 0.752588 -0.303682 -0.358161 -0.309815 0.278721 -0.422750
gca_000010085 0.256746 0.044270 0.500134 0.856950 -0.524891 0.218429 0.422347 0.456816 -0.056268 -0.298171 0.030335 0.028485 0.034740 -0.048171 -0.186149 0.964739 0.565257 0.921452 0.175618 -0.418832 -0.779913 -0.258180 -0.621154 -0.094312 -0.353415 0.917626 0.321859 -0.505178 0.522193 0.323648 0.253529 -0.216421 -0.569021 -0.367639 0.807820 -0.071660 0.062100 0.064611 -0.286696 -0.278270 0.548260 0.295843 -1.028595 -0.314143 0.409324 0.622022 0.975607 0.875929 -0.352633 -0.247241 -0.016976 -0.456064 0.185311 0.703414 -0.740549 0.424503 -0.121536 0.700139 0.648572 0.250689 0.184564 -0.208173 -0.708112 0.534933 -0.567567 -0.958746 -0.069313 -0.303284 -0.039723 0.266102 -0.307693 -0.459602 -0.496447 -0.557744 0.602308 0.120530 0.316786 0.797957 0.246564 0.033023 0.340396 0.138276 -0.007397 0.160241 -0.094871 -0.988353 0.627259 0.045001 0.351899 -0.770622 0.452714 0.292689 0.340207 -0.201932 0.189931 -0.755887 -0.370703 -0.304014 0.041425 -0.101509 0.455939 0.551143 -0.124481 0.374413 -0.218790 -0.496363 0.579819 -0.361700 -0.567478 0.306071 0.065777 -0.507575 -0.118037 0.150196 -0.109079 -0.034963 -0.185648 -0.392530 0.291274 -0.043756 -0.418638 0.235761 -0.084691 0.060730 -0.423703 -0.431208 0.477634 -0.446674
gca_002899435 0.301942 0.124616 -0.058693 0.359208 -0.581521 0.547652 -0.117789 0.502115 -0.603245 0.231120 0.399066 0.684278 0.009650 0.254291 -0.551045 0.496177 -0.192072 0.475472 -0.366713 -0.655861 -0.622911 -0.264513 -0.588822 -0.329226 0.079297 1.141361 0.082949 -0.303573 0.691013 -0.260331 -0.204380 0.044508 0.079637 -1.072652 0.352319 -0.072537 0.446492 -0.126940 -0.106909 0.093032 -0.372552 0.336074 -0.057183 -0.311749 0.204541 -0.155582 0.242693 1.451709 -0.622635 -0.088634 -0.116971 0.068962 0.140465 0.347702 -0.293230 0.703974 -0.019620 0.049041 0.061720 0.703859 0.574158 0.393070 0.016396 0.586318 0.209168 -1.245031 -0.125615 -0.117530 -0.216545 0.319920 -0.142212 -0.429391 -0.343805 0.479330 0.059774 0.070742 0.866617 1.365840 0.702950 0.549597 0.329767 -0.047386 0.275392 -0.556357 0.134320 -0.748897 0.509103 0.131193 0.721765 -0.736349 0.429238 0.281237 0.593022 -0.806941 0.242340 -0.455799 0.089804 0.020717 0.137750 -0.407712 0.038186 -0.306609 -0.789693 0.014224 -0.068853 -0.416847 0.600565 0.048614 -0.232535 0.245769 1.004918 -0.193846 -0.257638 -0.418814 0.293836 -0.381072 -0.202768 -0.663494 0.240935 0.604045 0.411013 0.136239 0.456257 0.178020 -0.520819 -0.025543 0.138312 -0.541395
gca_000253235 0.432618 -0.223497 0.503344 1.682695 -0.947840 0.120296 0.531546 -0.208743 -0.247007 0.242828 -0.132682 0.350770 0.276228 0.235567 -0.534341 0.135594 -0.205360 0.700816 0.451168 -0.324772 -0.315495 -0.031234 -0.254328 -0.275264 -0.486017 0.078858 0.205281 -0.448528 0.026562 0.762944 0.225092 -0.476461 -0.619358 -0.378932 0.228244 -0.195787 -0.144966 0.752508 -0.229288 -0.126582 0.103745 -0.516409 -0.317867 -0.778323 0.247466 0.133870 -0.160996 0.126870 0.346228 -0.273336 -0.486849 0.292999 -0.486653 -0.513671 0.220672 -0.442725 0.248360 0.851615 -0.116335 0.811729 1.021039 0.191801 0.408180 0.083814 -0.117681 -0.523079 -0.135661 -0.508785 0.490768 -0.566294 0.796053 -0.140108 0.234432 0.362978 0.330474 -0.205132 -0.075081 0.207074 0.422651 0.502713 0.494313 0.240723 -0.002560 0.532546 -0.065815 0.269638 0.379125 -0.550992 0.365867 -0.148802 0.339524 0.007044 0.071341 -1.050048 0.093341 -0.284117 -0.049282 -0.452232 -0.193322 0.284406 0.407858 0.746183 -0.095994 -0.047260 -0.110210 -0.434075 0.059858 -0.639959 -0.469821 0.020482 -0.272069 -0.439962 -0.040590 0.152680 0.423289 0.202148 -0.221664 -0.616672 0.657816 0.734227 -0.270094 -0.372934 0.639636 -0.163792 -0.269451 0.043055 -0.190684 -0.661807
NC_003460 0.450755 -0.023930 0.222817 0.495380 -0.597587 0.063711 -0.054986 0.311250 -0.206650 0.106014 0.071524 0.414504 -0.026696 -0.160837 -0.021036 0.428606 0.230819 0.290190 -0.035644 -0.206688 -0.463415 -0.444225 -0.503186 -0.251179 -0.316470 0.531178 0.107647 -0.368362 0.369036 0.228230 0.025830 -0.154264 -0.180639 -0.779347 0.212337 0.063681 0.031305 0.199146 0.028058 0.161696 -0.009790 -0.225828 -0.491441 -0.214214 -0.052902 0.177014 0.173753 0.599530 -0.076132 0.049722 -0.271697 -0.035598 0.200751 0.318107 -0.006243 0.041614 -0.338076 0.419527 -0.029279 0.733619 0.363644 0.470117 0.043278 0.547789 -0.341993 -0.237969 -0.090047 -0.293144 0.002662 0.135594 0.087150 -0.127989 -0.093836 0.047835 0.087141 0.250214 0.306014 0.477574 0.183467 0.067000 0.043911 -0.006326 -0.014951 0.015232 0.054017 -0.624431 0.187353 0.015664 0.194908 -0.582906 0.128826 0.207907 0.194153 -0.268168 0.106353 -0.615873 -0.200296 0.041162 0.285233 -0.593202 0.186547 0.215993 -0.516943 -0.077085 0.109812 -0.309220 0.110757 -0.070579 -0.336033 0.109703 0.509503 -0.294857 0.074054 -0.031696 0.079409 -0.285818 -0.411765 -0.320651 0.367908 0.243861 -0.203542 -0.327261 0.671543 -0.177881 -0.410218 -0.310317 0.181972 -0.201788
gca_000504745 -0.420088 0.211253 -0.148808 0.903998 -0.396618 -0.509152 0.244543 0.263605 -0.146642 -0.335429 0.115021 0.428351 0.163636 0.166687 0.155257 0.861870 -0.114969 0.420430 -0.354438 -0.786411 -1.286848 -0.222253 -0.590475 -0.336456 0.404189 0.456852 0.425542 0.095126 0.219770 0.473493 -0.205319 0.084698 0.080534 -0.431789 -0.017699 -0.273351 0.496785 0.628538 0.393083 0.023730 -0.253222 0.225200 -0.268443 -0.083821 0.147941 0.546049 0.897585 0.545175 -0.093097 -0.218204 -0.419588 0.367821 0.375493 0.436942 -0.130702 0.057662 -0.286073 0.576262 -0.363124 0.210216 0.054771 0.865248 -0.152886 0.857836 -0.010714 -0.130420 -0.264736 0.027684 -0.142927 -0.699042 -0.104700 0.188262 -0.075529 -0.249251 -0.091032 -0.065096 0.265228 0.577950 0.332200 -0.110286 0.268713 -0.271929 0.861695 -0.223234 0.601249 -0.465168 0.753800 -0.200528 0.377044 -0.028404 -0.042620 -0.064163 0.295704 -0.623520 0.249242 -0.590133 -0.292388 -0.244500 -0.018093 -0.787365 0.007710 0.428295 -0.685215 0.245750 -0.234546 -0.328962 0.642947 0.469892 -0.329401 0.434616 0.768031 -0.084327 0.326176 0.062299 -0.584928 -0.164635 -1.051033 -0.312132 0.505072 0.748020 0.311321 -0.627992 0.975243 -0.453220 -0.704069 -0.113911 0.269456 0.260028
gca_000411215 0.499855 0.264407 0.330544 0.871704 -0.855680 0.052662 -0.009253 0.288019 -0.244905 0.231283 -0.038861 0.740698 -0.080934 -0.162340 0.072636 0.367943 0.080516 0.382795 -0.167123 -0.419181 -0.589033 -0.439406 -0.382191 -0.174373 -0.449868 0.377086 0.165742 -0.303860 0.459707 0.384136 0.233064 -0.249204 -0.384582 -0.731566 0.177957 0.049544 0.155356 0.179209 0.065158 0.099791 0.236482 -0.053336 -0.628825 -0.289067 -0.123543 0.395703 0.149174 0.692315 0.019477 -0.038218 -0.259433 0.237647 0.064776 0.035452 0.033926 0.144962 -0.135270 0.631719 -0.064258 0.749925 0.497977 0.474340 0.402043 0.496547 -0.203537 -0.473927 -0.164241 -0.502907 0.082908 0.035151 0.415530 -0.201663 0.230046 0.010482 0.066626 0.208346 0.043197 0.275205 0.059510 0.393423 -0.065911 -0.130734 -0.155823 0.056878 0.146458 -0.609697 0.295733 -0.241631 0.532689 -0.629033 0.402223 0.148106 0.219325 -0.306603 0.019226 -0.575215 -0.300758 -0.097773 0.121199 -0.257357 0.092954 0.672041 -0.121603 0.077975 0.195045 -0.597733 0.125620 -0.155403 -0.472040 -0.057107 0.413201 -0.417222 0.428330 -0.165095 0.053709 -0.224003 -0.540708 -0.353001 0.584769 0.474325 -0.149385 -0.490281 0.906004 -0.265272 -0.485907 -0.289450 0.338697 -0.330053
NC_008562 0.572724 -0.260773 0.006499 0.469953 -0.891543 0.049599 -0.448360 -0.103007 -0.214699 -0.468821 0.554973 0.416304 -0.128176 -0.235916 -0.168570 0.750221 -0.373024 0.184319 -0.335601 -0.666636 -0.170497 -0.339844 -0.384364 -0.054497 -0.551614 0.716477 0.055045 -0.520957 0.531103 0.677664 0.076111 -0.060591 -0.151605 -0.641319 -0.196910 -0.087561 -0.414560 -0.060029 -0.325250 0.041803 -0.350239 -0.655852 -0.106037 -0.488901 -0.312404 0.158114 -0.297926 1.087573 0.349017 0.014660 -0.080679 -0.076416 0.002091 0.375036 0.505219 0.554718 -0.572729 0.769155 0.009839 0.888382 1.187465 0.171965 0.369295 0.845782 -0.298074 -0.259330 -0.612964 -0.291735 -0.288494 0.001321 -0.280390 0.201514 0.210651 0.130766 0.273325 0.535984 0.828187 0.430587 0.625894 0.119616 0.146926 0.309032 -0.009308 0.097912 0.497891 -0.434494 0.750497 0.095409 -0.203600 -0.915499 -0.384203 -0.146309 0.537623 -0.548281 -0.509788 -0.493556 0.159981 0.523769 -0.026725 -0.825366 0.163743 -0.126338 -1.093034 0.115025 -0.248715 -1.032019 0.189649 0.352973 -0.002671 -0.012215 0.483805 -0.062020 0.067855 0.237016 -0.385862 -0.802095 -0.385343 -0.729453 0.293745 0.127586 0.341356 0.057757 0.684775 -0.424697 -0.427720 -0.364730 0.246671 -0.032787
NC_005964 0.410651 0.300109 -0.308386 0.401871 -0.717528 0.124053 0.131417 0.293532 0.032353 -0.311814 -0.186367 0.211558 -0.309162 -0.828454 0.278901 0.136578 0.705935 -0.314805 -0.054995 0.018159 -0.375036 0.065556 -0.151601 -0.023812 -0.349499 0.575041 -0.157045 -0.207107 0.131284 0.263208 0.192069 -0.054884 0.694240 -0.603955 0.109089 -0.407060 -0.021143 0.003996 -0.601067 0.155380 -0.304733 -0.171469 -0.958759 0.198325 0.277798 0.169023 0.662999 0.796273 -0.018509 0.071930 0.095899 0.322042 -0.249260 0.677979 0.288450 0.190768 -0.698293 0.436440 -0.368503 0.950473 -0.203052 0.821727 -0.206092 0.569880 -0.566825 0.101189 -0.274525 -0.819138 0.068064 -0.173515 0.083743 -0.412586 0.085987 -0.174801 0.238260 0.552114 0.818954 0.758656 -0.535445 0.069627 0.423328 -0.019922 0.738333 0.253279 -0.000885 -0.552193 0.559820 0.135078 0.522373 -0.014392 0.084975 -0.514896 -0.006196 -0.265093 -0.238831 -0.436621 -0.423613 0.164084 0.584679 -0.880538 0.157358 0.609803 0.260561 0.232300 -0.223006 -0.142554 -0.057489 -0.457393 -0.572984 0.026480 0.751573 -0.528006 0.307662 -0.500482 -0.341403 -0.493051 -0.030356 -0.258989 0.725259 0.211238 -0.293792 -0.559522 1.057067 0.243871 -0.575021 -0.012218 0.562911 -0.026870
NC_020201 0.530361 0.274774 0.328196 0.923859 -0.899449 0.059298 -0.018392 0.300168 -0.228002 0.237915 -0.010428 0.784115 -0.103620 -0.171826 0.065444 0.390647 0.080667 0.390341 -0.188135 -0.452363 -0.635306 -0.458349 -0.411840 -0.204916 -0.478418 0.426687 0.182539 -0.326264 0.506472 0.374766 0.221286 -0.280677 -0.397286 -0.796788 0.193949 0.062346 0.167428 0.203268 0.054316 0.115166 0.233831 -0.034291 -0.661624 -0.330964 -0.123869 0.403621 0.154531 0.791042 0.007657 -0.053743 -0.268730 0.240553 0.041320 0.054567 0.035223 0.149034 -0.132091 0.642860 -0.092526 0.803798 0.543317 0.482056 0.415428 0.539904 -0.216289 -0.550726 -0.191461 -0.521759 0.058978 0.032708 0.416433 -0.213661 0.241454 0.042617 0.055517 0.220357 0.076386 0.326743 0.066338 0.399179 -0.074965 -0.140560 -0.140610 0.082056 0.148009 -0.646500 0.300454 -0.241048 0.553533 -0.667135 0.413928 0.167706 0.266956 -0.346170 0.026111 -0.622317 -0.334319 -0.097429 0.140812 -0.263138 0.079771 0.684869 -0.150213 0.046951 0.231405 -0.652658 0.139577 -0.144814 -0.496841 -0.042279 0.476416 -0.444889 0.429997 -0.192560 0.078101 -0.251767 -0.545804 -0.372292 0.622710 0.520026 -0.166925 -0.547510 0.946728 -0.257765 -0.495466 -0.280528 0.344410 -0.368646
NC_023558 0.072559 -0.210496 -0.071939 0.380567 -0.655605 0.611827 -0.750402 0.044655 -0.791900 -0.236176 0.394016 0.618070 -0.252134 -0.660774 0.496053 0.346016 0.240244 0.541978 0.027921 -0.408267 -0.443220 -0.794175 -0.194760 -1.069015 -0.259562 0.356320 0.426315 -0.363987 0.837968 0.506832 0.339252 -0.421424 0.240943 -0.691685 0.146736 -0.033214 0.543058 0.609929 0.416555 -0.158381 0.111548 -0.495504 -0.273844 -0.274969 0.573653 0.303283 -0.701409 1.208325 -0.358038 0.548094 -0.158304 0.163253 0.338489 -0.007343 0.196281 0.448985 0.101590 0.425411 -0.216173 1.011601 0.229089 0.272829 0.345580 0.858807 -0.533092 -0.298660 -0.502050 -0.275040 -0.220157 0.110986 0.051908 -0.196008 -0.272728 0.485371 0.368367 0.261677 0.288435 0.243164 0.142619 -0.478955 0.021776 0.425500 0.212807 -0.176507 0.079745 -0.465444 -0.085956 0.026846 -0.101213 -0.334186 -0.860310 0.096886 0.066336 -0.348980 0.408113 -0.749263 0.069366 -0.368027 -0.269474 -0.418781 0.578345 0.341517 -0.414432 -0.337134 0.085021 -0.456310 -0.192777 0.662378 -0.597587 -0.145082 0.527298 0.178982 -0.070747 -0.919614 0.248024 -0.109851 -0.382589 0.124666 0.272841 0.236412 -0.443787 -0.462075 1.321925 -0.097580 -0.313987 0.258828 0.819525 -0.143690
