857 128
gca_000485615 -0.112480 0.263955 -0.312453 0.068991 0.092020 -0.209279 0.115857 0.066880 0.090498 0.196220 0.115851 -0.022153 -0.256134 0.535824 -0.092861 0.033237 0.177052 -0.198148 -0.178566 0.314485 0.359670 0.330404 -0.021239 -0.180473 0.082533 -0.248097 0.237198 0.244997 0.416319 -0.190283 0.387799 0.140759 0.264964 0.356641 0.008151 0.266675 -0.335582 -0.176471 -0.210970 0.495211 -0.219928 0.242692 -0.146523 0.140320 0.207772 0.473118 0.418109 0.558189 0.178829 -0.048814 0.010962 0.273330 -0.279291 -0.316669 0.025242 -0.055074 0.264424 0.509730 0.202095 -0.327146 -0.111042 0.278828 -0.194151 -0.060837 0.295864 -0.205654 0.243061 -0.404324 0.318656 -0.047723 0.166842 -0.152246 0.256610 0.404067 0.234363 0.448339 0.549297 0.390489 -0.628326 0.491701 -0.161387 -0.427559 0.258179 -0.573180 -0.150493 0.236553 0.297300 0.128644 0.222991 0.206398 0.264333 -0.075963 0.107567 -0.113481 -0.130681 0.083686 0.324458 -0.359855 -0.048112 -0.450972 -0.324995 0.049364 0.477717 -0.349691 -0.076568 0.208404 -0.094882 0.380266 0.121168 -0.052000 0.183472 -0.304280 0.135189 -0.675122 -0.323133 -0.531047 0.081746 0.438038 -0.495660 0.044669 0.159552 -0.425479 0.211788 -0.099433 0.189534 0.510749 -0.301327 -0.313811
gca_000481065 -0.979584 0.056345 0.228223 0.520455 -0.079184 -0.442272 -0.531419 -0.048631 0.133166 0.185609 -0.211698 0.305165 -0.005738 -0.254357 0.046321 -0.325333 0.379307 -0.318772 -0.641694 -0.000456 -0.001487 0.243422 0.096484 0.120962 -0.009805 -0.002819 0.127863 0.266782 0.784122 -0.034423 0.025623 -0.241858 -0.081905 -0.178230 -0.066209 0.240824 -0.100268 0.039123 0.377417 0.476689 0.310177 -0.062502 0.352953 0.163737 -0.415495 0.523259 0.059181 0.296577 -0.178124 0.192874 -0.308362 0.195668 0.030421 0.014393 0.027927 -0.545887 -0.106807 0.032661 -0.431034 -0.183631 -0.226278 0.161905 0.309249 0.114391 0.730511 -0.064154 0.359367 -0.062720 0.214231 0.364504 0.584528 0.100032 0.083206 0.252121 0.304148 0.247751 0.139135 -0.138037 -0.291907 0.282825 -0.284936 -0.187689 0.235379 0.018279 -0.324589 0.220306 -0.128301 -0.210105 0.317425 0.283509 -0.048004 0.576235 0.161861 -0.113433 0.307211 -0.214252 0.487227 -0.179987 0.207444 -0.031541 -0.680185 0.296982 0.046994 -0.235443 0.179353 0.435068 -0.233850 0.214140 0.102043 -0.304311 -0.309693 -0.451457 0.267019 -0.210872 0.077921 0.528079 0.094817 0.388981 0.375552 0.392551 0.015102 -0.343526 0.049217 0.074081 0.458770 0.310247 -0.232546 -0.646211
gca_000638495 0.124806 0.003315 -0.331702 -0.208367 -0.127595 -0.656895 -0.164716 0.113862 -0.111205 0.072788 0.205081 -0.058594 -0.292838 -0.000061 0.007570 -0.023656 -0.605065 -0.588511 -0.492268 -0.435188 0.578060 0.045265 -0.080919 -0.194472 -0.519197 -0.426472 0.266637 -0.144867 0.342628 -0.091573 0.047399 -0.248188 0.204407 -0.044968 -0.419999 -0.034545 -0.218702 0.017298 -0.256273 0.108591 -0.465887 -0.267810 0.069156 0.144749 -0.761443 -0.149714 0.101812 0.411000 0.349626 -0.126246 0.007520 0.529394 -0.293272 -0.448169 0.242218 -0.403489 -0.116200 0.112009 -0.661340 0.110235 0.309378 -0.018367 0.591582 0.301327 0.078718 0.164432 0.075307 -0.124800 0.539383 0.169039 0.691953 -0.203286 0.102111 0.515201 0.262403 0.297554 -0.125174 0.328718 -0.335924 0.639709 -0.669234 -0.344016 0.152581 0.039535 0.455880 0.367826 0.187997 -0.116730 -0.038474 -0.213565 -0.020009 0.472315 -0.140121 0.190923 -0.068730 0.075073 -0.067761 0.191114 -0.205166 0.116793 -0.325513 0.138467 -0.091731 -0.472242 -0.306269 0.131882 0.100731 -0.011324 0.125134 -0.192103 -0.732335 0.031429 0.259953 -0.623988 -0.389320 0.076268 0.146241 0.282869 0.139604 -0.278639 -0.123960 -0.230711 -0.172723 0.021740 0.033040 0.316291 -0.162169 -0.107329
gca_002563475 -0.627502 0.095291 -0.601415 0.442676 0.120934 -0.709791 -0.132482 -0.046894 0.401585 0.101172 -0.299158 0.213153 -0.515100 0.016725 0.304584 -0.125517 -0.604455 -0.626342 -0.169565 0.669184 -0.108117 0.236622 0.642859 -0.135385 0.010528 -0.135168 -0.408095 0.548055 -0.001198 0.106165 0.705936 -0.319038 0.136735 0.220694 0.076344 -0.037015 -0.261221 -0.298458 0.436826 0.054111 0.099435 -0.246879 0.470714 0.138206 -0.493512 0.180838 -0.140922 0.366430 0.514843 0.196709 0.202527 0.665328 -0.159396 -0.530612 0.233280 -0.107764 0.015210 0.417299 -0.048484 0.115310 -0.420130 0.024431 0.183856 0.163494 0.501735 0.167494 0.046214 -0.515957 0.256627 -0.078213 0.179764 0.013467 0.198764 -0.052288 0.312968 0.661488 -0.088160 -0.008020 -0.511325 0.329374 -0.619908 -0.080904 0.051306 -0.003754 0.166778 0.761942 0.133405 -0.005258 -0.204357 0.137570 -0.323705 0.701426 -0.469549 0.078847 0.424456 -0.237753 0.395810 -0.397316 0.064825 -0.336508 0.181820 -0.149195 0.168639 0.353589 0.115103 0.502155 0.116101 -0.085452 0.086236 -0.155626 -0.516020 -0.186270 0.124552 -0.137155 -1.010018 -0.040843 -0.200080 0.436052 -0.148678 -0.241172 -0.157016 0.126738 0.379973 -0.724785 -0.054265 0.464829 0.067865 -0.109943
gca_001558355 -0.412940 0.664520 -0.180629 -0.020081 -0.294537 -0.322417 0.083786 -0.005969 -0.304671 -0.139378 -0.402324 0.104670 0.080906 0.007737 0.499941 -0.116928 -0.145750 -0.535910 -0.255394 0.176393 -0.114547 0.213458 -0.165896 -0.177098 0.038607 -0.147916 -0.208638 0.125842 0.015030 -0.661206 0.206814 0.007003 0.438994 -0.107481 -0.104951 0.136840 0.446277 -0.152105 0.299900 -0.107737 0.161795 0.119058 -0.013338 0.598192 -0.611991 -0.158421 0.183124 0.475024 -0.166544 0.234583 0.182370 0.753714 -0.644929 -0.570579 0.289481 0.033034 0.272628 0.167917 -0.418724 0.102276 -0.149600 0.839017 0.665589 0.094067 0.698450 0.436686 0.190896 -0.289802 0.354987 0.448534 0.724343 0.089020 -0.018131 0.707249 -0.095513 -0.033114 0.256726 0.766830 -0.468116 0.537052 -0.534815 0.052499 0.411401 -0.521917 -0.081974 -0.096132 -0.327970 -0.242991 0.722795 0.056072 0.253394 0.095009 -0.106908 0.250432 0.054314 -0.065027 0.135791 -0.925832 -0.144074 -0.512239 -0.336805 0.065041 0.036525 0.253833 -0.343130 0.218125 -0.252615 0.218333 -0.106617 -0.320606 0.245616 -0.142478 0.199663 -0.826127 -0.071293 0.283573 0.052723 0.048184 0.139992 -0.122767 -0.168586 0.315418 -0.001671 -0.572102 0.419949 -0.013543 0.045883 0.242200
gca_000168915 -0.488797 0.251879 -0.143378 0.254976 0.280436 -0.058618 -0.479913 0.278303 -0.389992 0.205915 0.222693 0.423736 -0.114908 0.474319 -0.164042 -0.307268 -0.139591 -0.677692 -0.153301 0.278837 0.074462 0.097460 -0.441343 0.160848 -0.162272 -0.064381 -0.410481 0.584908 0.292378 -0.552075 0.518831 -0.160210 -0.046565 0.687377 -0.073046 0.733147 -0.148045 -0.448316 0.609082 0.627134 0.450224 0.011797 0.462572 -0.053923 -0.801864 -0.219959 -0.118412 0.803132 -0.194651 0.274778 -0.078449 -0.148497 -0.209303 -0.636307 0.451719 -0.179760 0.066374 -0.005551 -0.394503 0.068317 0.213548 0.033615 0.591165 0.247322 0.272123 -0.159657 0.109545 -0.486333 0.131231 0.237105 0.483841 -0.484406 0.199165 0.940127 0.264053 0.101042 0.204674 0.748173 -0.088270 0.589328 -0.419658 -0.616327 -0.021426 -0.538165 -0.113463 -0.155434 -0.072000 0.434006 -0.049402 0.203110 -0.069286 0.668071 -0.099666 -0.331514 0.290978 0.130970 0.456721 0.292874 -0.495622 -0.028190 -0.082313 -0.512306 -0.170695 -0.267258 0.115155 0.252685 -0.559025 0.019833 0.418831 -0.454178 -0.372614 -0.128795 0.088123 -0.598784 -0.188917 -0.388168 -0.519675 -0.222960 -0.240852 0.254534 -0.131223 0.312898 0.055190 -0.464200 0.501599 0.315906 -0.333343 -0.038061
gca_000452705 -0.604610 0.439143 -0.375160 0.282993 0.594815 -0.356106 0.038738 -0.182797 -0.269249 -0.525973 -0.359237 -0.466427 -0.615233 -0.080087 0.203081 0.120252 0.107892 -0.348720 -0.509748 0.228294 0.301699 0.039610 0.081416 0.137665 0.071736 -0.436282 -0.097813 -0.209268 0.609971 -0.372684 0.676411 0.444746 0.838334 0.147442 0.349849 0.139375 -0.571760 -0.109993 0.260415 0.317213 -0.092170 -0.160240 0.233044 -0.095071 -0.498531 -0.129858 0.012534 0.009344 0.409126 0.178236 -0.325181 -0.240935 -0.271236 -0.462344 0.167919 -0.729618 0.021113 0.390375 -0.148013 -0.102499 0.102051 0.104790 0.386609 0.745212 0.162296 0.102876 0.202000 -0.593671 0.491916 -0.020686 0.616518 0.245737 -0.186120 0.335471 0.197274 -0.035357 0.332185 0.547348 0.016627 0.255103 -0.136818 -0.629294 -0.137784 -0.457835 0.007819 -0.312536 0.081606 0.416306 -0.008208 0.252501 0.358359 0.918476 -0.596529 -0.232984 0.008128 0.224975 -0.218754 -0.157995 -0.187335 -0.657546 -0.291947 0.173552 0.063212 -0.449095 0.261725 0.324140 -0.168006 0.367030 -0.431585 0.066569 -0.254540 -0.731688 -0.348865 -0.718246 -0.088439 0.571299 0.502108 0.179651 0.448708 -0.327494 -0.363138 -0.150385 0.336358 -0.102297 0.187427 0.200893 0.107262 0.081195
gca_000168695 -0.401248 -0.048395 -0.396068 0.511432 0.498119 -0.472662 -0.345360 0.081651 -0.255303 0.123542 -0.135429 -0.025074 -0.436800 0.291442 0.238528 -0.496734 -0.122506 0.063353 -0.085915 0.166622 0.486914 0.151780 0.301976 -0.433530 0.323943 -0.554488 -0.117808 0.230635 0.377410 -0.240592 -0.291536 0.434985 -0.311486 -0.279763 0.417382 -0.070551 -0.216211 -0.270553 0.574221 0.160666 -0.380347 -0.981476 0.429838 0.006745 -0.646232 -0.028671 0.507459 -0.037858 0.056390 -0.299894 0.508930 0.520356 -0.605804 -0.478977 -0.470376 -0.744902 0.402340 0.484568 -0.232488 -0.180785 0.805232 0.289516 0.103417 0.478061 -0.220537 0.039328 0.445036 -0.528683 0.510272 0.232767 0.932789 0.105811 0.333841 0.586866 -0.038416 0.653352 0.145504 0.447607 -0.674956 0.626367 -0.255788 -0.299795 0.050614 -0.153329 -0.294352 0.356136 -0.179862 -0.043230 0.690704 -0.364293 -0.132513 0.066264 -0.557505 0.284071 0.094461 -0.118999 0.319218 0.054358 0.131487 -0.620069 -0.749097 0.184172 -0.175919 -0.176085 0.190743 1.060812 -0.226795 0.986744 0.352415 0.254450 -0.213190 -1.083880 0.345766 0.054373 -0.446023 0.246374 0.100840 0.571098 -0.188943 -0.487344 0.211998 0.042224 -0.358127 -0.366177 0.493309 0.143791 0.371951 -0.801157
gca_000434755 -0.816461 0.294020 0.074300 0.391689 -0.018905 -0.518958 -0.641861 -0.178321 0.078545 -0.670642 0.474791 0.016079 0.018679 -0.111705 0.403442 0.324544 -0.142440 -0.049888 0.173578 0.121855 0.248229 0.105704 0.419501 -0.251939 0.047931 -0.414067 0.294972 -0.390871 1.150719 -0.556101 0.424391 0.037639 -0.186143 -0.289502 -0.161530 0.375023 0.315056 -0.043098 0.515515 -0.107977 0.183574 0.256295 0.070246 -0.097561 -0.047814 0.593798 0.291147 0.813198 -0.053094 0.136645 0.717123 0.361478 -0.175239 -0.544107 0.239647 -0.223725 -0.175572 0.711625 0.139937 -0.207844 0.485844 0.062481 0.687376 0.568016 0.487328 -0.428942 0.147279 -0.014427 0.571080 0.346202 0.200164 -0.235996 0.113803 0.753221 0.449642 0.328167 0.163030 0.225993 -0.468938 0.190616 -1.033054 -0.020887 0.250590 -0.418712 -0.015194 0.032495 0.197119 0.057890 -0.056516 -0.839971 -0.331105 0.330507 0.033603 0.102426 0.179006 -0.503646 0.231619 -0.166593 -0.597678 0.170022 -0.101123 0.039762 0.251075 0.006321 -0.293345 0.295114 0.225839 0.565849 -0.419098 -0.071621 0.075699 -0.540054 0.077694 -0.502069 -0.468573 0.162808 -0.422001 0.266787 -0.160126 -0.036365 -0.224855 0.073015 0.380607 -0.539333 0.642553 0.414768 -0.041031 -0.087093
gca_000013285 -0.435059 -0.026337 -0.586322 0.297893 -0.261632 -0.437455 0.161279 -0.528819 0.225348 0.140720 -0.651093 -0.370695 -0.451268 0.066647 0.043789 -0.064669 0.050798 -0.153328 -0.500528 -0.091314 0.540183 0.316523 -0.019776 -0.184478 0.293785 -0.268687 -0.309107 0.466876 1.281333 -0.441265 0.278016 -0.053308 0.625996 -0.399042 -0.246561 0.208338 0.279714 0.130658 0.296718 0.292760 0.071908 0.157845 -0.347780 0.124151 -0.073608 -0.044730 0.065651 0.297629 -0.147798 -0.609725 0.248923 0.913528 0.372444 -0.443318 0.247558 -0.805805 -0.529498 0.942243 -0.081293 -0.586080 -0.392857 0.066211 0.032940 -0.037112 0.568613 0.398030 0.413335 -0.511399 0.316091 0.328767 0.776103 -0.044883 0.074499 0.242342 -0.120567 0.336216 -0.303353 0.064692 -0.098501 0.352852 -1.001521 -0.426086 0.109996 0.242590 0.230731 0.403480 0.201003 -0.227128 0.372037 0.431789 -0.285312 0.780322 -0.031124 -0.385362 -0.134590 0.026870 -0.411743 -0.645541 0.205238 -0.728821 -0.041677 0.268254 0.353633 -0.118138 -0.506200 0.490316 0.110083 0.054737 0.547314 0.115996 0.127166 -0.540236 0.387249 -1.027169 -0.323290 -0.033672 0.637239 0.828213 0.462168 -0.106572 -0.621582 0.354271 -0.205494 0.320757 0.027939 -0.066538 -0.326738 0.488412
gca_000022505 -0.322265 0.552080 -0.015305 0.446941 -0.216181 -0.308158 -0.032063 -0.205891 0.152943 0.199767 -0.194792 0.260665 0.088663 -0.441617 0.008501 -0.038973 0.358520 0.281152 -0.347996 -0.050312 0.383174 0.432598 0.308769 -0.124433 -0.128261 -0.062170 0.007057 0.551955 0.869450 -0.528339 1.040789 0.060126 0.086458 0.707018 -0.499577 0.439716 -0.041831 -0.580584 0.564680 0.899579 0.332249 0.255138 -0.164127 0.293421 -0.538604 0.154299 0.698826 0.510005 -0.324645 0.434353 0.277671 -0.028641 0.268388 -0.130743 0.553183 -0.436072 -0.907242 1.241394 0.173570 -0.260354 -0.317346 0.415053 0.373134 1.010044 0.885124 -0.203397 0.526748 0.115499 0.706061 0.508101 0.201514 -0.416712 -0.020577 -0.187839 0.174289 0.382408 -0.322360 0.193394 -0.418062 0.320753 -0.851171 -0.168745 0.223663 -0.263579 0.240974 -0.872006 -0.205122 -0.005447 0.616131 -0.222691 0.550112 0.322508 -0.123609 -0.246725 0.268280 -0.391997 -0.179256 -0.294271 -0.189542 -0.679820 0.037218 0.594296 0.444494 0.479781 -0.110187 0.238509 -0.148758 -0.001653 -0.080737 0.185109 0.222666 -1.019093 0.879958 -0.504284 -0.153235 0.131615 0.633844 0.352400 -0.024879 -0.376249 -0.111880 0.217136 0.013606 -0.383831 0.624523 0.049706 -0.448877 -0.249928
gca_000014085 -0.734388 0.552876 0.156071 0.733888 -0.095933 -0.393176 -0.158860 0.346953 0.452546 0.383247 -0.520282 0.330378 -0.253201 0.066955 0.474662 -0.286305 -0.336072 -0.118793 -0.046755 -0.154227 0.651487 0.382477 -0.060174 0.002860 -0.103083 0.336860 0.283727 0.465523 0.204487 -0.572412 0.842298 0.347761 0.379755 0.525684 0.057121 0.077111 -0.032032 -0.092086 0.044831 0.142095 0.047976 -0.124382 0.409095 -0.406189 -0.047679 -0.620217 0.429825 0.451343 0.231828 0.119232 0.087629 0.153001 -0.637464 -0.722374 -0.316813 -0.307416 -0.310076 0.347296 -0.087972 -0.005097 -0.189051 0.499113 0.619418 0.259516 0.785978 -0.313418 -0.066038 0.291570 0.608269 0.120164 0.922055 -0.770312 -0.021293 0.294076 -0.277246 0.263348 -0.294099 -0.276903 -0.312809 0.189019 -0.691307 -0.758610 0.426571 -0.154254 -0.020674 0.041476 0.178745 0.161279 0.177950 0.660242 -0.132970 0.321515 -0.568180 0.164495 0.151466 -0.534416 0.036647 0.063872 -0.611893 -0.454447 -0.046096 0.393602 0.612782 -0.160753 0.098345 0.198665 -0.213311 -0.784957 0.220068 -0.306164 -0.221018 -0.594289 0.203715 -0.963098 -0.585362 0.218115 0.273121 0.031251 0.154918 -0.291137 -0.256724 -0.356250 -0.197720 -0.489346 0.208011 0.426567 -0.147329 -0.421604
gca_000415045 0.031125 0.052268 -0.122289 0.445857 -0.345616 -0.427144 -0.023777 0.319494 0.111357 -0.301903 0.030351 -0.078559 -0.687899 0.092399 0.029579 -0.740580 0.124336 -0.266790 0.096969 -0.010104 0.360435 0.722713 -0.251440 -0.717143 0.119649 0.317315 0.163869 0.046802 0.779779 -1.057522 0.214273 0.363815 -0.349641 -0.414564 -0.046415 -0.000070 -0.254879 -0.073271 0.122403 0.787730 -0.029373 -0.076959 0.003379 -0.360383 -0.267743 -0.036380 -0.169401 0.132488 0.189188 -0.060654 0.339675 0.818828 -0.102400 -0.348230 -0.431365 -0.119708 0.420652 0.418559 0.108639 0.069509 0.036255 0.133774 -0.154282 0.476623 0.572981 -0.530034 0.242136 0.018374 0.840161 0.319922 0.717865 0.108589 -0.352083 0.719902 0.057018 0.539778 0.289279 0.427900 -0.165537 0.572039 -0.996097 -0.080059 0.611441 0.216269 -0.215003 0.455492 -0.508894 -0.049379 0.321654 -0.324133 -0.100819 1.208197 -0.319142 -0.296333 0.335969 -0.193269 -0.224383 0.325283 0.142722 -0.310244 -0.381812 -0.435702 -0.322674 -0.351415 -0.016565 0.101804 0.116549 0.075123 0.048016 0.583362 0.389485 -0.562283 -0.013603 -0.805061 -0.350960 -0.164394 -0.076736 0.796897 0.238455 0.375011 -0.269365 -0.384055 -0.531171 -0.184117 0.100461 0.202217 -0.546727 -0.502049
gca_000877675 -0.932709 -0.275438 0.097219 -0.061300 0.869706 -0.304595 -0.197170 0.153034 0.169585 0.040903 0.087368 0.190481 -0.772114 -0.465189 0.279714 -0.447926 0.145915 -0.288954 -0.197234 -0.427422 0.583981 0.336719 0.268227 -0.425127 -0.067037 -0.004701 -0.211969 0.073697 1.177382 -0.033563 0.297688 0.095397 0.226376 0.378498 -0.072970 0.117274 0.294359 0.282560 0.842124 0.128590 -0.287561 -0.398848 0.384008 -0.076462 -1.220668 -0.365801 -0.125609 0.364811 0.041250 -0.264650 0.543649 0.298671 -0.098825 -0.513591 0.435064 -0.950203 -0.268394 0.423678 -0.116659 -0.084460 -0.147783 0.081107 0.288100 0.961903 0.836418 -0.006878 0.610117 0.057902 -0.027005 0.452725 1.116010 -0.541253 0.269158 0.314710 -0.012406 0.477175 0.402976 0.121299 0.010748 0.030088 -0.712786 -0.135873 -0.196704 0.055767 0.406155 -0.005606 -0.767597 -0.096197 0.070207 -0.643881 0.300065 0.995831 -0.154152 -0.826453 -0.336019 -0.178133 -0.808430 -0.118592 -0.405869 -0.281919 -0.513136 0.085429 -0.622526 -0.196751 0.028031 0.123081 -0.233680 0.557026 0.294569 -0.400072 -0.213274 -1.252748 0.327742 -0.611759 -0.040577 -0.041851 0.296597 0.484864 0.364466 -0.129934 -0.590208 -0.207741 -0.249014 -0.295791 0.857090 -0.381623 -0.242545 -0.093334
gca_002148025 -0.320353 0.253104 -0.278640 1.114039 0.651387 -0.279392 -0.033534 -0.106042 0.120173 -0.169692 0.241425 0.059950 -0.404991 -0.006890 0.351590 -0.490323 -0.549177 -0.535399 0.317952 0.091870 0.708931 0.242716 0.101849 -0.379348 0.118155 -0.424227 -0.864247 0.231740 0.829771 -0.419416 0.806701 -0.463176 0.001460 0.065830 0.102153 0.271544 -0.427116 0.203784 0.180136 -0.452133 -0.236282 0.162785 0.430825 -0.019445 -0.184572 -0.060501 -0.068094 0.794948 0.327761 -0.253631 0.834909 0.771727 -0.167996 -0.775307 0.375861 -0.275304 0.383278 0.346106 -0.233925 -0.048867 0.452971 -0.380640 0.513925 0.790846 0.558580 -0.271816 0.388073 -0.301090 0.025479 0.705185 0.616741 -0.336670 0.104404 0.295348 0.534645 0.284469 0.741388 0.273198 -0.276425 0.323653 -0.175139 -0.234918 0.167431 -0.204084 -0.191733 0.216778 -0.331323 0.126367 0.635192 0.793538 -0.596318 0.908031 -0.193857 -0.863676 -0.537437 0.311769 0.251819 -0.324921 0.389702 -0.472605 -0.639137 -0.272731 0.481259 -0.280086 -0.146510 0.567901 -0.220358 -0.166795 0.433174 -0.070088 0.129216 -0.701373 0.233678 -1.025730 -0.057719 -0.421491 0.133889 0.570819 0.439768 -0.221633 -0.453479 0.567840 0.319956 -0.364467 0.508032 0.543337 0.258471 -0.057023
gca_000316155 0.118833 0.293350 0.055120 0.561018 -0.120138 -0.335984 0.244993 0.325089 0.434662 0.397260 -0.460065 -0.444348 -0.475630 -0.050339 0.103282 0.257811 0.235813 -0.191865 -0.093607 -0.140567 0.143975 -0.079397 -0.010764 -0.044627 0.407478 0.183490 -0.448768 0.395308 0.928719 -0.310679 0.312982 -0.071936 0.439604 0.430755 -0.485751 0.678613 0.031722 0.195158 0.783148 0.436291 0.198353 -0.594769 -0.001224 0.283584 -1.065463 0.070987 0.367515 0.017591 0.499355 0.525805 -0.402081 0.273897 -0.296444 -0.438561 -0.014056 -0.754794 0.191773 0.598467 0.229502 0.222842 0.292201 0.057361 0.338792 0.244272 -0.327743 0.364894 0.317966 -0.191340 0.421758 0.672003 0.520160 -0.426361 -0.247091 0.162139 0.253870 0.521120 -0.598839 0.259360 -0.618240 0.258975 -0.795661 -0.543010 0.397246 -0.593937 0.004344 0.514093 -0.251038 0.520655 -0.105742 -0.193551 -0.150439 0.359714 -0.260048 0.130963 0.075374 -0.612481 -0.019556 0.363073 0.331171 -0.359050 -0.220592 0.325571 0.241885 -0.098436 0.059218 0.539563 -0.373459 -0.079225 -0.175077 0.237542 -0.204817 -0.925341 0.474356 -0.614734 -0.184783 -0.498264 -0.084409 0.389291 0.434001 0.090223 -0.030494 -0.221297 0.020665 -0.596672 0.236043 0.945981 -0.047479 0.467709
gca_000197855 -0.360309 -0.613868 -0.405274 0.676815 0.127950 -0.266461 -0.032269 0.479301 -0.126462 0.107336 0.121778 -0.379240 -0.086003 -0.257134 0.420565 -0.197165 -0.434294 -0.531975 -0.623357 0.327801 0.878748 0.518190 0.081616 0.654961 -0.336042 -0.386234 0.254403 0.184111 0.915817 -0.117128 0.767907 0.108063 0.320532 0.046135 -0.451366 0.006970 0.396692 0.272958 0.231648 0.708130 0.176903 0.058157 -0.258103 -0.079740 0.344456 -0.151589 0.301651 -0.205507 0.083240 -0.080377 0.277024 0.377237 -0.288220 -0.370688 0.677485 -0.579416 -0.512417 0.665254 -0.412331 0.031257 -0.444649 -0.048358 -0.090662 0.669352 0.587127 -0.272095 -0.059024 0.130137 0.654892 -0.182416 0.585273 -0.543161 -0.200395 0.466408 0.338256 0.898000 0.334642 0.228131 -0.412348 0.334223 -0.361301 -0.060864 0.358267 -0.137710 0.054669 -0.360533 0.720060 0.614777 -0.096499 0.484546 -0.263654 0.374602 -0.533482 -0.097684 -0.183566 -0.550083 -0.140256 0.159004 -0.474687 -0.700593 -0.366124 -0.264799 -0.401217 -0.274835 -0.207846 0.498354 0.040544 -0.230769 0.355272 0.140765 -0.024881 -0.628901 0.235036 -0.907678 -0.586307 -0.551410 -0.408770 0.605993 0.017883 -0.256291 -0.789755 0.388538 -0.029545 -0.090798 0.718430 0.963612 -0.188205 0.184041
gca_002180335 -0.219742 0.470334 0.121031 0.088761 0.224006 -0.696550 0.024738 0.413072 -0.303918 -0.703947 -0.347010 0.297860 0.111342 -0.156237 0.375682 0.364569 -0.092335 -0.550570 -0.859442 -0.160725 -0.095535 0.040653 -0.185771 0.201421 -0.186755 -0.466233 0.548045 0.092582 0.803402 -0.256608 0.372028 0.278854 0.149300 0.376012 -0.225805 0.128119 -0.343018 -0.054365 0.381887 0.216619 0.238822 -0.191192 -0.099300 -0.474330 -0.869373 0.467483 0.482292 0.272639 0.342963 0.586438 -0.070359 0.477998 -0.286770 -0.439564 -1.022061 -0.674523 0.039163 0.724014 0.350949 -0.079832 0.185671 1.077462 0.464209 0.711156 0.254867 0.241373 0.264635 -0.443511 0.083332 0.246690 0.914790 -0.306537 -0.283734 0.513843 -0.147771 0.573543 0.783565 -0.271276 -0.515237 0.464421 -0.922311 -0.342579 0.787723 -0.230069 0.242245 0.036895 0.449713 0.227573 0.005386 -0.227063 0.222659 0.466537 -0.340407 -0.323669 -0.297742 -0.564843 0.626631 -0.038037 -0.167587 -0.389553 -0.228332 -0.085755 -0.309906 0.049548 -0.685951 -0.387549 -0.206166 0.717500 -0.448952 -0.692659 0.054707 -0.150241 0.365763 -0.313321 -0.777655 0.321247 0.094552 0.287027 0.150790 0.036178 0.472961 -0.687244 0.054593 -0.159897 0.215777 0.930102 -0.253070 -0.563814
gca_000328745 -0.422198 0.131430 -0.631358 0.800333 0.655074 -0.062285 -0.598431 0.449117 -0.665946 -0.335604 -0.065349 -0.506869 -0.318783 0.203071 0.313347 -0.058325 0.184549 -0.209534 0.317319 0.284628 0.518295 0.280042 -0.136501 -0.629716 0.294102 -0.903777 0.204992 0.557844 0.389770 -0.883775 -0.124484 0.373697 0.019706 -0.358148 -0.202012 0.284613 0.370603 -0.001810 0.253359 -0.260863 -0.081545 -0.395618 0.177789 -0.036942 -0.775845 0.308668 0.600846 0.657400 0.165301 0.389779 -0.111499 0.158909 -0.157776 -0.077644 0.026308 -0.892743 0.323601 0.317724 -0.898913 -0.304554 -0.010611 -0.139774 0.492768 0.226706 0.636596 0.206108 0.160521 -0.149973 0.119132 0.039109 0.680934 0.241566 -0.026302 0.760967 -0.319095 0.628007 0.339345 0.558627 0.025018 0.796109 -0.040026 -0.279144 0.730344 -0.394306 -0.465134 0.452022 0.091697 0.328925 0.712416 0.501589 -0.017520 1.105006 -0.188292 0.442316 0.231761 -0.264969 0.464443 -0.241907 -0.153465 -0.137778 -0.450643 0.147540 -0.009181 -0.539699 0.104159 0.968864 0.275325 0.022962 -0.528785 -0.457528 0.244531 0.002414 -0.243712 -0.859096 -0.299082 -0.276268 -0.308377 -0.009903 -0.197157 0.057614 -0.127563 -0.563941 0.031533 -0.139075 -0.114629 -0.051236 -0.294902 -0.350942
gca_000590455 -1.020904 0.679811 -0.915342 0.140464 0.336561 -1.062122 -0.539455 0.370171 -0.276296 -0.052368 -0.408447 0.400585 0.145598 0.205724 -0.022654 0.143776 0.396041 -0.330458 -0.243897 -0.192852 -0.306569 0.217828 0.140785 -0.456075 -0.028390 -0.552588 0.015483 0.555342 0.559258 0.029723 0.069425 0.440962 0.600993 0.299556 -0.460760 0.357826 0.590233 -0.093308 0.466896 0.249581 0.022702 -0.331145 0.054661 -0.751249 -0.388885 -0.013824 0.594413 0.097500 -0.178893 -0.255695 0.381860 0.675331 0.117454 -0.316173 -0.138247 -0.739113 0.000120 0.164175 -0.446415 -0.049848 -0.812026 0.279444 -0.033883 0.374418 0.453734 -0.232090 0.235055 -0.501690 0.110334 0.165366 0.474878 0.074592 0.414737 0.463341 -0.390839 -0.020275 -0.411215 0.653718 -0.719293 0.720411 -0.577899 0.008989 0.570476 -0.443089 0.239069 0.236728 0.015234 -0.182642 -0.136851 -0.039062 -0.316219 0.495194 -0.491627 -0.306127 0.091274 -0.392023 -0.184218 -0.101643 -0.679984 0.147546 -0.106531 0.522492 0.059292 0.002111 -0.019068 0.214859 -0.584829 0.433779 0.216790 -0.293734 -0.164791 -0.602389 0.771154 -0.721822 -0.378505 -0.239268 -0.306832 0.322639 0.204595 0.235238 0.019155 -0.367506 0.160642 -0.603018 -0.003451 0.321871 0.063194 0.195328
gca_000278845 -0.137204 -0.248529 0.142114 0.182623 0.179798 -0.759124 -0.354708 0.253936 -0.209325 0.000437 0.154183 0.175916 -0.048068 0.438678 0.374039 -0.245588 0.247655 -0.664883 -0.114209 0.107528 0.122726 -0.036129 -0.163202 -0.194546 0.443191 -0.415622 0.229170 0.036368 0.005401 0.052598 0.719601 -0.273233 -0.040122 -0.107923 0.056921 0.306771 0.114792 -0.044261 0.766304 0.405835 0.335492 -0.407249 -0.096100 -0.313459 -0.200975 0.517335 0.053503 0.205789 -0.414078 -0.269457 0.046165 0.872925 0.170893 -0.742687 0.066900 -1.046790 0.317002 0.465025 -0.355517 -0.333208 -0.285507 0.022280 0.229236 0.604197 0.599949 0.311720 0.790225 -0.546441 0.724970 0.364782 0.903657 -0.178587 -0.310113 0.255995 0.119718 0.387976 0.649618 0.349855 -0.051112 0.823852 -0.863855 -0.535183 -0.113470 -0.937299 0.391665 -0.282220 -0.096903 0.276528 0.157949 -0.054947 -0.012579 0.722943 -0.361193 -0.451552 -0.272985 0.279605 0.423253 -0.512242 0.256358 -0.315355 -0.207599 -0.462188 0.429059 -0.450694 -0.288859 0.466714 -0.132730 -0.243748 0.084635 -0.242703 -0.065613 -0.063256 0.885758 0.137306 -0.013907 0.008793 -0.521814 0.608629 0.239723 -0.607497 -0.286418 0.151201 0.163308 -0.549824 -0.064852 -0.155392 0.171804 0.000330
gca_000091565 0.045784 0.432135 -0.434350 -0.053690 0.751838 -1.099566 -0.288361 0.491136 -0.566377 -0.046154 -0.545228 -0.059746 -0.513203 0.665980 0.052421 0.692785 -0.009722 -0.397245 -0.207349 0.853650 0.099293 0.102564 0.144863 -0.342907 -0.015919 -0.818157 -0.222872 -0.133230 0.830126 -0.369636 0.306275 0.088104 0.139017 -0.138238 0.020893 0.746467 0.314762 -0.113622 0.711924 0.217895 0.124868 0.285814 0.162936 -0.089120 -0.705084 0.159668 -0.068270 -0.119170 0.504962 0.656030 -0.146604 0.752165 0.301262 -0.768265 -0.342947 -0.173542 -0.045897 0.491692 0.064849 -0.086328 0.311147 0.503837 0.220174 0.548087 -0.036364 0.422516 0.742948 -0.290005 0.314382 0.426980 0.961406 -0.191502 0.049809 0.049501 -0.018304 0.015760 -0.100207 0.256252 -0.714718 -0.076742 -0.606403 -0.272820 0.564135 -0.109437 -0.007752 -0.345033 0.183821 -0.048479 0.404665 -0.249796 -0.145216 1.183394 0.182501 0.590381 0.759744 0.088587 0.329666 -0.620382 -0.342751 0.032607 -0.677085 -0.293961 -0.284183 -0.642399 -0.304705 0.985981 -0.353852 -0.136340 0.266161 -0.224320 -0.289484 0.399251 0.323243 -0.671828 -0.031064 0.401540 0.169608 0.021149 -0.099561 0.390675 0.223926 -0.018187 -0.101707 -0.373379 0.265775 0.340938 -0.621157 -0.012969
gca_006094315 0.029531 0.715810 -0.349300 0.940640 0.035882 -0.176123 -0.050039 -0.307045 -0.544901 -0.262011 -0.433028 0.018700 -0.237077 -0.013871 0.016064 0.477837 0.071690 -0.494658 -0.403373 -0.085774 0.663172 0.351951 -0.038142 -0.083634 -0.076186 -0.196101 -0.324512 0.373002 0.734203 -0.345328 0.419123 -0.394896 -0.107902 0.047427 -0.565938 0.234716 0.023106 -0.878795 0.068682 0.375488 0.235884 -0.382511 -0.519667 -0.717558 -0.316782 0.039403 0.482403 0.730609 0.121423 0.346209 0.125174 0.424737 -0.422756 -0.665192 -0.464870 -0.255655 0.424953 1.049442 0.077267 -0.322106 0.583970 -0.300786 0.079328 0.399974 0.021090 0.200764 -0.201257 -0.940112 0.495483 0.821236 0.382422 -0.492180 0.163279 0.744746 -0.347645 0.463111 -0.158507 0.396978 -0.592913 1.104282 -0.416390 0.066762 0.450207 -0.560603 -0.204999 -0.337672 0.382014 0.023699 0.518715 -0.335959 -0.143986 0.381751 -0.365517 -0.098101 0.296982 -0.175147 0.383655 -0.172197 -0.558117 -0.252485 0.101662 0.256999 0.203119 -0.027724 -0.377690 0.398519 -0.206334 -0.299982 -0.156478 -0.158731 -0.609712 -0.131199 0.466166 -0.365672 -0.104522 0.006891 0.845699 0.035274 0.028195 -0.392516 0.071327 0.434301 -0.219965 0.057775 -0.042689 -0.177500 0.033862 -0.398132
gca_000468795 -0.739253 0.487749 -0.454682 0.638718 0.835682 -0.422459 0.026458 0.638737 -0.045378 -0.046174 -0.062992 0.484450 -0.181708 0.500973 -0.067431 -0.085477 0.081250 -0.417762 0.342548 0.396620 0.088648 0.448165 0.620740 -0.221050 0.274531 -0.651570 0.103234 -0.145907 0.600444 -0.121884 0.785448 0.298508 0.509175 0.249737 0.028364 0.468245 -0.452479 -0.404812 0.599931 -0.489790 -0.054885 -0.207914 0.455341 -0.126119 -1.098214 0.212427 0.818524 0.454112 0.398119 0.016484 0.390946 0.305103 0.156088 -0.292790 -0.176872 -0.168261 -0.384850 0.718171 -0.590794 -0.429755 0.380598 0.098721 0.607939 0.714340 0.219293 -0.610277 0.577510 0.310544 0.065634 -0.041304 0.465360 -0.759548 0.296645 0.414880 -0.126325 0.264516 -0.088312 -0.347546 -0.593300 0.200902 -0.170036 -0.006555 1.212575 -0.098521 -0.213325 -0.100351 -0.256459 -0.029239 0.566924 0.073306 0.162075 0.374529 -0.473043 -0.689512 0.081679 -0.153951 0.173249 -0.478138 0.290845 -0.548630 -0.292649 -0.256444 0.252514 -0.011542 -0.238194 0.648097 0.155031 0.227234 -0.102682 -0.254556 0.080651 -0.458969 0.499371 -0.338311 -0.003143 0.231319 0.235427 0.652984 -0.140273 -0.639522 -0.001676 -0.441833 -0.068040 -0.913881 0.043719 -0.078659 -0.339799 -0.426087
gca_000580515 -0.173268 0.622149 -0.088916 0.894814 0.251303 -0.557858 -0.173822 0.760652 -0.419801 -0.126948 -0.725080 0.089991 -0.018143 0.633536 0.228851 -0.153084 -0.444697 -0.386833 0.164234 0.239351 0.669306 0.511575 -0.139720 -0.539910 0.677789 -0.452188 -0.319851 0.740329 0.784379 -0.492098 0.239195 0.239050 0.280123 -0.436407 0.498254 0.101555 0.004202 -0.253576 0.169766 -0.185678 -0.225507 -0.004725 0.246554 0.013269 -0.529340 0.271622 0.337637 0.429725 0.604369 0.464199 0.000575 0.611688 0.522397 -0.815443 -0.448483 -0.117610 0.098924 0.352474 0.303815 0.458553 -0.052947 0.605142 0.630032 -0.031478 0.283172 0.378790 0.765727 -0.547070 0.398058 0.299234 1.018729 0.013774 -0.177657 0.483301 0.114804 0.544486 0.644599 0.357191 -0.341550 0.882691 -0.473540 0.145906 -0.081398 -0.408192 -0.631038 0.303510 0.305418 0.593882 0.800010 -0.195421 0.260778 0.785017 -0.533487 -0.341527 -0.241900 -0.036003 -0.068247 0.015467 -0.034154 -0.259969 -0.182370 -0.706491 -0.108737 -0.328533 -0.256254 0.548696 -0.253452 -0.106551 0.544895 -0.007234 -0.749272 -0.264915 0.909761 -0.254811 -0.669664 0.022383 -0.073760 -0.240547 -0.164121 -0.053288 0.079001 -0.010317 -0.172618 0.025448 -0.325767 0.244859 0.281570 -0.448287
gca_000296305 -0.689704 -0.395462 0.004323 0.873059 0.720311 -0.143062 -0.036557 0.143661 0.123850 0.474040 -0.265278 -0.159294 -0.675615 0.489292 -0.092641 -0.377336 0.683456 -0.196833 0.284515 0.648543 0.055737 0.375376 0.243324 -0.254525 0.087525 -0.637907 -0.244518 0.634945 0.293981 -0.584909 0.488671 -0.272166 -0.006775 -0.075211 0.102447 0.161731 0.291207 -0.478795 0.819912 1.083962 -0.035953 -0.008871 -0.253766 0.288343 -0.570228 -0.011382 0.913040 0.065182 0.370006 -0.167912 -0.472715 0.029601 -0.019917 -0.210587 0.610984 -0.911787 -0.203745 0.746722 -0.362670 -0.096650 -0.469920 0.163119 -0.094085 0.818509 0.458863 0.079881 0.605575 -0.270613 0.393423 -0.270972 0.404783 -0.077551 0.697817 -0.041685 -0.068398 0.845749 -0.120787 0.468310 -0.712164 0.810060 0.041768 -0.404168 -0.005881 -0.482242 -0.015086 0.154409 -0.075405 0.237819 0.364288 -0.105128 0.416831 0.478618 -0.437887 0.023549 0.273045 -0.306363 -0.346715 -0.777256 -0.052267 -0.959964 0.048921 0.146076 -0.627287 -0.195977 0.278212 1.208892 -0.157676 0.364104 -0.044778 -0.358931 -0.000903 -1.317298 0.248022 0.245762 -0.225566 -0.613845 0.002070 0.322138 -0.093234 0.060251 -0.249206 0.032127 -0.019111 -0.489442 0.266660 -0.481242 -0.162540 0.184418
gca_001084885 -0.365586 0.138364 -0.300703 0.818881 0.401616 -0.064210 -0.612249 0.785010 -0.736037 0.282757 -0.550194 0.393047 -0.442942 0.503200 0.120685 0.125996 0.342059 0.031450 -0.221807 0.068784 0.160146 0.300466 0.247232 -0.240377 -0.034170 0.070082 0.534540 -0.412181 0.786860 -0.010146 0.480941 -0.139910 0.273999 0.201592 -0.342120 -0.157627 -0.507019 -0.174279 0.021086 0.098203 -0.084580 -0.408754 -0.209028 0.174137 -0.363974 0.107768 0.258853 0.024445 0.157709 0.216377 -0.118755 0.170484 -0.389235 -0.477086 -0.413213 -0.531321 -0.284505 0.712163 0.397103 0.035616 0.030497 0.195783 1.140489 0.327622 0.656478 0.356418 0.524501 -0.721475 0.955565 0.074266 0.213424 0.081992 0.189160 0.714783 -0.083077 0.745114 -0.134981 0.690553 0.138934 0.660064 -0.302865 -0.377622 0.544480 0.354138 -0.438256 -0.365293 -0.316490 -0.178544 0.148249 -0.113326 -0.083983 0.773062 -0.207796 -0.306981 0.701607 0.002678 0.165733 -0.134559 -0.139187 -0.816890 -0.327760 -0.047884 -0.491711 -0.237062 -0.737429 0.460122 0.238096 0.479409 0.591011 -0.120024 0.103636 -0.246862 0.850805 -0.247800 -0.187364 0.047789 -0.178380 -0.016545 0.042069 0.009133 -0.160607 0.078390 0.178006 -0.552336 0.738668 -0.204471 -0.230211 -0.283294
gca_000287935 -0.422474 0.735882 -0.395482 0.084919 0.860071 -0.472907 -0.341396 -0.300957 -0.125924 -0.048611 -0.141159 0.681485 -0.140487 0.089755 0.220208 0.163128 0.478113 -0.579596 -0.117534 0.140002 0.217725 0.265401 0.059091 0.117903 0.033745 -0.907291 -0.190746 0.739515 1.145512 -0.059655 0.703155 -0.659965 0.490758 0.339167 -0.041101 0.011670 -0.091085 0.106784 0.285452 0.457801 0.008176 0.462352 -0.172558 -0.612347 -0.508543 0.276230 0.393782 0.535564 0.045279 0.235974 -0.246972 0.454719 -0.235578 -0.179736 0.284881 -0.141251 -0.670069 1.142391 -0.360281 -0.066222 -0.487424 0.321311 -0.109709 0.392276 0.868356 0.172884 -0.106346 -0.155775 0.263313 0.428794 0.319382 -0.756493 0.342363 0.300236 -0.467797 0.637748 0.457413 0.202462 0.094591 0.011480 -0.901835 -0.316675 0.480215 -0.464629 0.808992 -0.028328 -0.319258 -0.006022 -0.130577 -0.372943 0.186465 0.999184 -0.081506 -0.048456 0.414954 0.169735 0.334441 -0.552247 -0.869527 -0.369316 -0.018085 0.005542 0.086483 0.113045 -0.693465 0.358537 0.095958 -0.337621 -0.017098 -0.424659 -0.282745 0.275997 0.231043 -0.651935 -0.155994 -0.074131 -0.284964 -0.113867 -0.243803 0.499622 -0.600197 -0.198153 -0.126028 0.248545 0.194683 0.637179 -0.211335 0.173077
gca_900092915 -0.017016 0.038154 0.096438 -0.115490 0.213893 -0.494723 -0.067118 0.341861 0.165046 -0.090499 -0.178544 -0.799867 -0.478919 0.024610 0.274897 -0.088397 0.235796 -0.465532 -0.090943 0.252832 0.902453 0.455436 0.116533 0.304126 -0.233416 -0.846900 -0.447519 0.588703 1.222025 -0.694360 0.487085 0.128401 -0.141212 -0.453838 0.165913 0.738066 0.640926 -0.119751 -0.052174 0.359568 0.481677 0.667455 -0.245798 0.107079 -0.341234 -0.351091 0.694700 0.355095 0.253399 0.092524 0.313512 -0.126804 -0.370184 -0.280260 -0.129418 -0.385444 0.134057 0.381209 0.035022 -0.647093 -0.075937 0.534702 0.143248 0.785991 0.798232 0.131733 0.239486 -0.430653 0.143728 0.365735 1.403885 -0.260641 -0.018592 -0.239686 -0.428180 0.450624 0.469718 0.333390 -0.529293 0.449955 -0.208211 -0.516376 0.541020 -0.335725 -0.534944 -0.148918 0.429443 0.225787 0.190227 -0.440386 0.251769 0.932573 -0.082118 0.007027 -0.046104 -0.102599 -0.045070 0.162573 -0.029737 -0.102614 -0.537706 -0.018105 0.291315 -0.267618 -0.284900 0.622342 0.126355 -0.661267 -0.010137 -0.263586 -0.195564 -0.443839 0.383670 -0.294994 -0.152261 0.112358 0.263658 0.249217 0.395598 -0.161414 -0.330831 0.025219 0.230421 0.275729 0.876340 -0.448266 -0.407525 -0.104717
gca_000534935 -0.423337 0.750068 -0.314117 0.756077 0.064846 -0.557820 -0.074751 -0.099632 -0.359774 -0.751925 0.289105 -0.349103 -0.644561 -0.430317 0.085071 -0.450161 0.230859 -0.392420 0.018644 0.417161 0.507287 0.569456 -0.119181 -0.329002 -0.120891 0.021783 0.268879 0.493780 0.915566 -0.824455 0.342520 0.148839 0.473108 0.226295 -0.360272 0.082614 -0.650790 -0.200778 0.137917 0.528187 0.287855 -0.789641 0.052102 -0.007640 -0.749413 0.016922 0.810984 -0.158910 0.246945 0.666454 0.211618 0.351688 -0.153671 -0.389759 0.150682 -0.139996 0.072847 0.635160 -0.326412 -0.159543 -0.731733 0.472477 0.335352 0.181622 -0.249322 0.815437 0.235215 -0.555967 0.508048 0.362496 1.292711 0.068167 -0.028349 0.116610 0.494344 0.416378 0.404089 0.082018 -0.209591 0.580765 -0.335020 -0.637496 0.486486 0.009738 -0.147984 0.181384 -0.651459 -0.045768 0.346281 0.583074 -0.250311 1.049331 -0.067499 0.305212 -0.230587 0.186494 0.414411 0.021247 0.195137 -0.404659 -0.209487 -0.086304 0.228995 0.510036 -0.179585 -0.286347 -0.660597 0.146184 0.474339 0.466062 -0.394072 -0.048941 0.889193 -0.769788 -0.325182 0.028423 -0.348357 0.503721 0.708901 0.273215 -0.066597 0.194583 0.348920 -0.071709 -0.017784 0.416841 -0.504571 0.157921
gca_000260515 -0.700589 0.187947 -0.267840 0.227170 -0.428463 -0.173029 0.083448 0.676564 0.221639 0.128764 -0.398525 0.549187 -0.609710 -0.091922 0.380039 0.128520 -0.197840 -0.404212 -0.311751 0.369526 0.323348 -0.093603 0.303675 -0.211555 0.025546 -0.466020 0.462406 -0.272618 0.830147 -0.935396 0.662176 -0.374439 0.292133 0.588375 -0.931360 0.622783 0.302944 0.155023 0.042305 0.352915 0.475227 0.472989 -0.201429 -0.043748 -0.150225 0.364992 -0.305899 0.958895 -0.111083 0.024014 -0.279897 0.400097 0.044550 -0.541191 0.202666 -0.653552 0.061607 0.495472 -0.049393 -0.490461 -0.616181 0.599847 0.614916 0.378192 0.346247 0.459248 0.156281 -0.296176 0.245360 0.305225 0.639800 -0.601108 0.109788 0.407102 0.102321 0.404082 0.271651 0.328936 -0.376263 0.413712 -0.368053 -0.276303 0.906909 0.274455 0.672272 -0.431805 0.241814 0.077217 -0.441123 -0.326513 0.175289 0.999666 -0.318227 -0.331802 0.617835 -0.496875 0.369238 -0.195524 -0.183953 -0.243912 0.123879 -0.101981 0.527105 -0.498476 -0.337629 0.069981 -0.239449 -0.261762 0.070691 -1.100004 -0.216893 -0.112985 0.014112 -0.437152 -0.641996 -0.013285 0.180711 0.164493 0.059164 0.206959 -0.505796 -0.373264 0.317787 -0.421095 0.307239 -0.146244 -1.056499 0.289461
gca_000013825 -0.149964 0.419142 0.273882 0.988801 0.683476 -0.870648 0.326400 0.242869 -0.366984 0.004413 -0.275273 0.308497 -0.282875 -0.298007 -0.262397 0.155326 0.018334 -0.314127 0.007261 -0.178041 0.225604 0.270045 -0.057551 -0.766223 0.443045 -0.535683 -0.307294 0.265082 0.041371 -0.556530 0.494037 -0.222967 -0.036382 0.321676 0.093118 0.321322 -0.176526 0.162379 0.697678 0.347907 -0.739922 -0.326015 -0.049680 0.322153 -0.622042 -0.170470 -0.083402 0.427587 0.023923 0.300001 0.273481 0.362068 0.003083 -0.629136 -0.101142 -0.526034 0.146264 0.407747 0.164913 -0.288510 0.415717 -0.102637 0.145231 0.499539 0.326162 0.079832 0.817652 -0.207170 -0.359367 0.193588 1.229764 0.131072 0.414713 0.107185 -0.015271 0.568056 0.153402 0.873460 0.097825 0.348078 -0.852902 -0.094349 0.329219 -0.236021 0.257808 0.506830 -0.170212 -0.317783 0.182721 0.094557 0.259618 1.011242 -0.068682 -0.300354 0.145640 0.353866 -0.152853 -0.372738 0.076018 0.146477 0.123422 0.435449 -0.039362 0.102478 0.094250 0.133074 0.088148 0.588673 0.113406 -0.305709 0.134322 -0.890698 0.649709 -0.345231 -1.009136 -0.294689 0.749220 0.111464 0.166712 0.228297 0.323412 -0.226423 0.207199 -0.673297 0.286250 -0.166023 0.020342 0.080185
gca_002355995 -0.540776 -0.122322 -0.441086 0.281232 0.422808 -0.428021 -0.547131 0.351924 -0.693319 0.088476 -0.524946 0.216266 -0.263155 0.075059 -0.181809 -0.517130 -0.145632 0.009661 0.230222 0.329494 0.440788 -0.064499 0.678885 0.085361 -0.062187 -0.250349 -0.444857 0.102793 0.761666 -0.303642 0.471634 0.352214 0.071880 -0.036998 0.205692 0.322692 0.173628 -0.079448 0.118697 0.459705 -0.218080 -0.861948 -0.049662 -0.513021 0.112072 0.123041 -0.085612 0.220676 0.234753 0.816880 0.237230 0.472919 -0.822424 -0.877704 0.253156 -0.131253 -0.202849 0.388712 0.141026 -0.329712 -0.009075 -0.064912 0.523286 0.261658 0.163087 0.003260 0.420426 -0.349224 -0.348190 0.271344 1.160171 -0.475346 -0.095524 0.895635 -0.419848 0.500222 -0.177953 -0.131550 -0.195647 0.220604 -0.491123 -0.302897 0.455159 -0.783820 0.332831 0.262112 0.247756 -0.009974 0.410129 0.140114 -0.500824 0.731392 -0.500704 0.111863 -0.517886 0.276297 0.430564 -0.319150 0.007065 0.241048 0.048227 0.152292 -0.178726 -0.077373 -0.199719 1.193088 -0.673638 0.292780 0.311951 -0.546100 -0.150560 -0.601202 0.633601 -0.770814 -0.457383 -0.019073 -0.013339 0.126093 0.295937 -0.339394 0.356860 -0.024638 0.313142 0.096962 0.235089 0.436414 0.106520 0.073099
gca_000334015 -0.389469 0.099541 -0.262594 1.337395 -0.372373 -0.405950 -0.022661 0.257640 -0.340850 0.683713 -0.242386 -0.087650 -0.878793 -0.280581 -0.295877 -0.321158 -0.007542 -0.237630 -0.031214 -0.123345 0.712871 0.228533 0.061617 -0.753127 -0.062253 0.100998 0.033327 -0.202206 1.138137 -0.255659 0.685495 -0.463162 0.404971 -0.801894 0.034857 0.287708 0.200118 0.054183 0.296207 0.584961 -0.075249 -0.412755 0.017816 0.898228 -0.386659 -0.037715 0.117508 0.401167 0.136047 0.204258 -0.004968 0.682325 -0.580749 -0.314642 0.960423 -0.057629 0.404233 0.356987 -0.616983 0.345583 -0.058520 -0.365820 0.139886 -0.201209 0.589564 0.006668 0.231256 -0.297392 0.561615 0.405225 0.895883 -0.197028 0.379060 0.992589 0.471469 0.892843 0.317562 0.650941 -0.315192 0.449719 -0.024042 -0.040996 0.261223 -0.085597 -0.521694 0.395142 -0.430935 -0.443185 0.134104 0.203718 -0.498906 0.550366 -0.380432 -0.067135 0.154303 -0.063748 -0.283367 -0.483947 0.253059 -0.906538 0.270325 -0.062832 -0.048149 -0.193394 0.245089 0.367347 -0.010475 0.238064 0.040865 0.071132 -0.571912 -0.733572 0.175407 -1.183985 -0.286620 -0.601864 -0.049926 0.241057 0.172688 -0.190920 -0.360814 0.010080 0.640517 -0.538938 0.215658 -0.171457 0.044905 -0.293137
gca_005864365 -0.603475 0.328454 -0.370971 0.729931 0.303240 -0.732693 -0.260822 0.219175 -0.171953 0.003352 -0.175218 0.114280 -0.504383 0.163477 0.182974 -0.147751 -0.084621 -0.583371 -0.300750 0.314628 0.471659 0.425254 0.096356 -0.285786 0.010305 -0.478909 -0.028941 0.372141 0.944475 -0.543485 0.656511 -0.049040 0.257168 0.042206 -0.148055 0.358307 -0.078370 -0.250390 0.451566 0.457167 -0.022229 -0.169262 0.169732 0.033652 -0.743520 0.196167 0.375476 0.621248 0.239782 0.179455 0.133107 0.683914 -0.331382 -0.697479 0.078831 -0.657533 -0.000522 0.771347 -0.267305 -0.171550 0.009186 0.285484 0.437764 0.556771 0.597283 -0.037602 0.435278 -0.475751 0.550412 0.400476 0.999903 -0.364653 0.204235 0.644950 0.169522 0.705553 0.233121 0.514106 -0.619947 0.790549 -0.800699 -0.417711 0.499106 -0.419710 -0.010296 0.209904 0.023450 0.064799 0.415790 0.067283 -0.062729 0.931589 -0.274843 -0.086953 0.184820 -0.227134 0.302238 -0.356539 -0.193116 -0.535766 -0.378378 0.040714 0.057114 -0.238060 -0.198776 0.701814 -0.140970 0.185808 0.184954 -0.250468 -0.220492 -0.679478 0.514053 -0.855247 -0.564208 -0.120024 0.157748 0.493912 0.026211 -0.135938 -0.149193 -0.139178 0.066187 -0.435286 0.434602 0.448418 -0.276270 -0.351018
gca_002847905 -0.782529 -0.464855 -0.105668 0.884520 0.968711 -0.121942 -0.413780 0.185849 0.004193 0.098900 -0.141457 0.667963 0.014770 0.037429 0.346266 -0.244101 -0.684192 -0.703773 -0.764032 0.246786 -0.013791 0.191291 0.216174 0.093846 0.496058 -0.146452 -0.169675 0.102570 0.258985 0.041033 0.684675 -0.119645 0.097583 0.112765 -0.003032 0.307965 0.391112 0.036737 0.662136 -0.040959 -0.200338 0.252406 -0.057575 -0.502430 -0.741400 -0.064448 0.298802 0.521517 -0.232115 -0.510068 0.523794 0.595168 -0.652199 -0.605052 -0.003812 -1.078838 0.130020 0.283148 -0.176487 -0.200830 0.488180 -0.034667 0.006599 0.598787 0.753204 -0.615283 -0.237127 0.217721 0.187008 0.823046 0.310521 -0.462866 -0.132974 0.361808 -0.244208 0.457976 0.594918 0.834341 -0.452153 0.413686 -0.546869 -0.179937 -0.240240 -0.504666 -0.117374 -0.257685 -0.139175 0.142102 0.160981 0.282677 -0.023576 0.171951 0.309454 -0.394871 0.263711 -0.401230 0.543494 -0.254570 0.021019 -0.603874 -0.510148 0.123859 -0.391368 -0.024833 -0.027485 0.395799 0.162029 0.224857 0.378024 -0.048437 -0.203690 -1.001639 -0.080254 -0.702782 -0.514002 -0.324600 0.879399 0.452638 -0.396962 -0.726419 -0.374061 0.246742 0.282533 -0.992714 1.069759 0.659332 0.049787 -0.522914
gca_000025805 -0.349301 -0.354990 -0.103379 -0.361571 0.110432 -0.279776 -0.157638 0.098517 0.377592 -0.261995 0.107613 -0.187307 -0.510160 0.780083 0.130737 -0.137084 -0.132126 -0.016252 -0.167002 -0.098935 0.090730 0.171195 0.533721 0.248013 0.233429 -0.588799 0.371340 -0.056024 0.950823 -0.607067 0.517421 0.437098 0.286265 -0.062837 0.038398 0.386985 -0.265406 -0.277092 0.128884 0.541329 0.087422 -0.483867 0.236584 -0.162528 -0.781422 0.019584 0.801989 0.544441 0.288401 -0.411865 -0.041446 0.204663 -0.482877 -0.502848 -0.055854 -1.116984 -0.446783 0.910194 0.220616 -0.240669 -0.203708 0.850475 0.489761 0.242549 0.440406 -0.383109 0.585239 -0.081826 0.390392 -0.315427 0.305439 -0.731323 0.396162 0.506112 0.131484 0.656287 0.024538 0.670623 -0.031663 0.703124 -0.645634 -0.459128 0.165733 -0.330472 1.099409 0.287498 0.468850 0.032791 -0.090726 -0.478932 0.080688 -0.147885 -0.315255 0.178109 -0.573414 -0.772151 -0.019791 -0.002750 -0.721513 -0.806632 0.071192 0.148689 -0.374263 -0.059748 -0.924527 0.616948 0.054396 0.596272 0.324057 -0.124315 0.305295 -0.949850 0.243752 -0.546652 -0.560592 -0.068059 -0.563915 0.793792 0.149919 -0.394329 -0.528269 -0.216983 -0.718308 0.038322 0.360519 0.021180 0.004779 -0.005758
gca_000008525 -0.672541 0.464445 0.122368 0.088216 -0.423529 -0.882171 -0.108636 0.574133 0.405269 0.474045 0.104612 -0.265281 -0.588201 0.236010 -0.175998 0.283355 0.419425 -0.000761 0.106241 0.430950 0.116653 0.280302 -0.086727 -0.497173 0.025186 -0.503491 -0.085994 0.380449 0.934531 -0.546854 1.044838 0.426588 0.123008 -0.233508 -0.198745 0.169343 -0.572835 -0.817695 0.222392 0.600235 0.060534 0.002276 0.634396 0.305913 -0.077217 -0.010182 0.027898 0.588931 0.145989 0.463887 -0.001512 0.284917 -0.417621 -0.371230 -0.070116 -0.112785 -0.738560 0.507416 0.063867 -0.432801 -0.405443 0.447281 0.579687 0.839873 0.515503 -0.086193 0.518507 -0.573094 0.316673 -0.470742 0.672556 -0.680702 0.488797 0.342250 0.326434 0.094269 -0.074187 -0.108176 -0.508387 0.594870 -0.629239 -0.398171 0.454433 -0.076787 0.124833 0.495597 0.464538 0.368486 0.060261 -0.538936 0.249636 0.886618 -0.412123 0.171492 0.110383 -0.040943 0.296969 0.082516 -0.541465 -0.313909 0.194122 0.097903 -0.257808 -0.364628 -0.636929 0.901796 0.010343 -0.506681 -0.375772 -0.751108 -0.276463 -0.049285 0.267662 -0.050303 -0.532691 -0.126233 0.031372 0.106863 -0.037944 0.111214 0.160517 -0.056658 -0.722462 0.290324 0.154174 0.011593 -0.536732 -0.621245
gca_001276975 -0.800255 0.467473 -0.128374 0.720595 0.289068 -0.286828 0.024899 0.098032 -0.974433 -0.167608 -0.223157 0.109843 -0.582773 -0.153612 0.260428 -0.315821 -0.320496 -0.347031 -0.238886 0.408294 -0.166684 0.567034 -0.043056 -0.407242 -0.216490 0.070002 -0.041086 -0.307875 0.932343 -0.753240 0.382733 0.112180 0.386713 0.025997 -0.233419 -0.146705 -0.008214 -0.771074 0.030041 -0.141122 0.210669 -0.141225 0.943582 0.582111 -0.824073 0.313879 0.022367 -0.011982 0.421519 0.300747 -0.190391 0.368753 -0.088450 -0.680357 -0.467261 0.440674 0.248062 0.337598 0.256384 0.224060 0.827103 0.211107 0.507190 0.105269 0.426001 -0.412335 0.350392 -0.049052 0.822452 0.304839 0.798375 -0.667677 -0.298953 0.443245 0.481698 0.181384 0.144805 0.336686 -0.308624 0.979908 -0.210445 0.199097 0.922918 -0.892723 -0.069980 0.693225 0.333513 -0.157180 0.085730 0.279428 0.143661 0.931309 -0.879617 0.382779 0.330734 -0.100705 0.894678 -0.002482 -0.007946 -0.491824 -0.211127 -0.046077 -0.072704 0.267314 -0.495952 1.119217 0.015258 0.353754 0.588475 -0.220429 -0.149395 -0.082912 0.791523 -0.571981 0.006230 -0.086456 0.270620 0.663726 0.215049 -0.030505 0.387998 0.140080 -0.114679 -0.704589 0.034635 0.573311 -0.225856 -0.889108
gca_000007645 -0.518233 0.292470 -0.299060 0.618057 0.268524 -0.682497 -0.251492 0.179875 -0.138088 -0.014195 -0.162091 0.109127 -0.444178 0.159324 0.161807 -0.150372 -0.100134 -0.539463 -0.291944 0.278675 0.396999 0.380268 0.101691 -0.261087 -0.008503 -0.435641 -0.056510 0.340491 0.819704 -0.510864 0.571109 -0.036429 0.191447 0.013349 -0.105867 0.332735 -0.080630 -0.261934 0.429439 0.420395 -0.000275 -0.114123 0.176756 0.047989 -0.690096 0.186285 0.333836 0.558450 0.204711 0.187595 0.122670 0.615605 -0.267462 -0.656286 0.075691 -0.596513 -0.001380 0.687572 -0.214348 -0.156766 0.015625 0.269489 0.411841 0.512347 0.510069 -0.034964 0.387412 -0.409849 0.487755 0.339752 0.895782 -0.337231 0.188683 0.591266 0.141257 0.597300 0.205585 0.463165 -0.527487 0.694745 -0.726022 -0.385797 0.418154 -0.382194 -0.004684 0.193699 0.060380 0.060851 0.360952 0.022645 0.002384 0.850588 -0.261305 -0.049852 0.202371 -0.189840 0.275083 -0.338583 -0.191884 -0.469276 -0.373523 0.062889 0.018796 -0.202625 -0.225689 0.635966 -0.123499 0.167454 0.142391 -0.240860 -0.221883 -0.572459 0.462026 -0.766297 -0.534265 -0.058197 0.136466 0.426281 0.009219 -0.094124 -0.147102 -0.115280 0.052831 -0.391347 0.351213 0.400405 -0.275775 -0.307825
gca_000318015 -0.479543 0.263980 -0.213627 0.643900 0.215429 -0.618209 -0.055593 0.108001 -0.126370 -0.033521 -0.067038 0.001750 -0.409614 0.031413 0.097845 -0.046711 -0.149509 -0.451632 -0.305838 0.143130 0.496415 0.361083 -0.073646 -0.238036 -0.044679 -0.425920 -0.023707 0.218715 0.863290 -0.472693 0.563130 -0.086792 0.249543 0.029555 -0.167900 0.325898 -0.039794 -0.129056 0.310468 0.379704 0.046461 -0.029951 -0.012188 0.038239 -0.581877 0.143611 0.362525 0.592565 0.225741 0.127616 0.038385 0.521767 -0.321509 -0.584721 0.245786 -0.612119 0.001163 0.648029 -0.299024 -0.024799 -0.147475 0.222459 0.362955 0.494332 0.468413 0.013194 0.384431 -0.317450 0.423307 0.304129 0.856443 -0.281668 0.214412 0.519961 0.174304 0.549728 0.225310 0.447750 -0.483616 0.629365 -0.656158 -0.408376 0.295539 -0.249469 0.053141 0.053356 -0.019868 0.074819 0.316753 0.115130 0.012594 0.786811 -0.187577 -0.092245 -0.012696 -0.158738 0.141075 -0.267989 -0.292370 -0.411417 -0.239038 0.035059 0.019288 -0.244171 -0.157964 0.383568 -0.164461 0.042722 0.124509 -0.190060 -0.158802 -0.532100 0.365637 -0.790706 -0.399496 -0.152365 0.081289 0.304840 0.139748 -0.100840 -0.205640 -0.097968 0.094874 -0.284395 0.442336 0.331108 -0.296176 -0.130627
gca_000159355 -0.328124 -0.131341 0.418526 0.615086 0.037159 -0.682727 -0.560145 0.490319 -0.746275 0.271279 -0.108516 0.083058 0.382226 -0.188522 -0.355382 -0.126014 -0.156761 -0.600544 -0.133693 0.438688 -0.223140 0.500269 0.357292 0.239111 -0.060333 -0.877261 0.333080 -0.177324 0.280578 -0.970408 0.891400 -0.321081 0.221915 -0.258601 -0.403485 0.327692 0.232580 -0.296453 0.339269 0.869515 0.701249 0.135242 -0.439573 0.136754 -0.434235 -0.076442 0.352450 0.135912 0.273647 0.272615 -0.601092 0.313820 0.108927 -0.654768 0.259424 -0.799767 -0.735437 0.738263 -0.602086 0.320145 -0.454800 0.679069 0.355553 0.106235 0.153685 -0.042795 0.638111 -0.061489 0.738551 0.076918 0.552615 0.146080 -0.045306 0.064619 -0.147436 0.351577 -0.580342 0.541346 -0.270908 1.083960 -0.926194 -0.404873 0.018388 0.125537 -0.049467 0.175565 0.288178 0.092660 -0.523914 0.469748 -0.099036 0.559544 -0.243027 0.482055 -0.099705 -0.479842 0.334972 -0.739725 -0.216931 -0.139864 0.460588 0.403531 0.196582 -0.283551 -0.511460 0.155035 0.138231 0.077399 0.246410 -0.221520 -0.073807 -0.152554 0.371525 -0.511928 -0.365681 -0.188097 0.292853 0.418297 0.069173 -0.138792 -0.363558 0.010301 0.589124 -0.408041 0.424153 0.513443 -0.722468 0.005950
gca_000506405 0.506472 0.460045 -0.420065 0.584481 0.757393 -0.839081 0.666802 0.644291 0.331233 0.078069 -0.160106 0.102710 -1.097458 0.503947 -0.087779 -0.097135 -0.392294 -0.147947 -0.211912 0.273918 0.660469 0.573903 0.274404 -0.095464 -0.031866 -0.750619 0.215117 0.442938 0.859700 -0.365726 0.450650 0.356184 0.365551 0.452823 0.034307 0.341806 -0.583536 0.339112 0.217655 0.157246 -0.432965 -0.434919 0.100901 -0.530243 -0.795174 -0.133456 0.899973 -0.226495 0.616560 -0.295671 0.489751 0.299743 0.440612 -0.470097 -0.454382 -0.375778 -0.616867 0.841114 -0.001566 0.086214 -0.437885 0.828646 -0.059186 0.836525 -0.042639 0.030341 0.302372 -0.278526 0.204009 -0.689407 0.894948 -0.634955 0.276573 0.119221 -0.152431 0.907701 -0.095764 -0.026474 -0.711010 0.512898 -0.752063 -0.287439 0.517995 0.329792 0.376002 -0.189526 -0.035600 0.334390 -0.267145 -0.465624 0.191162 1.060789 -0.217273 -0.323220 -0.109851 -0.526754 -0.266446 0.133379 -0.359092 -0.861386 0.017217 0.118536 -0.213692 -0.069159 -0.481312 0.058044 0.084344 -0.330031 0.465946 0.075289 -0.168751 -0.735073 0.815669 -0.291209 -0.807738 -0.427106 -0.449696 0.577545 0.082753 -0.115619 -0.398855 -0.359366 -0.299894 -0.569924 -0.222718 0.224787 -0.495296 -0.084455
gca_000012365 -0.605591 -0.252457 -0.280646 1.112797 0.442942 -0.970865 -0.303839 0.254135 -0.227417 0.023157 -0.691261 -0.095646 -0.803036 -0.037216 -0.089981 0.156844 0.338719 0.348305 -0.236819 0.208566 0.517149 0.204410 0.321953 -0.302853 0.031234 -0.683383 -0.032851 0.602463 1.085715 -0.149155 -0.252210 0.365113 -0.124290 -0.200596 0.164499 0.212798 0.164252 -0.403627 0.549761 0.306189 -0.307980 -0.899693 0.449136 -0.609275 -0.748361 0.123951 0.216473 0.076557 -0.153199 0.402663 -0.001606 0.239338 0.201800 -0.143464 -0.267704 -1.012740 -0.848687 1.004803 -0.210339 -0.310957 -0.335024 0.129061 -0.221974 0.505305 0.051729 0.013583 0.534509 -0.171758 0.126307 0.330398 1.248535 -0.630129 0.082885 0.459839 -0.160722 0.720673 -0.525073 0.132979 -0.470854 -0.033846 -1.000601 0.024894 0.679457 -0.145565 0.009168 0.085597 0.079587 0.442232 -0.158808 -0.741916 -0.046299 1.243086 -0.631979 -0.129814 0.424662 -0.060441 0.181904 0.109115 -0.777664 -0.330198 -0.113771 0.262268 -0.374869 -0.150412 -0.087083 0.843311 -0.009719 -0.152037 -0.156455 0.044526 -0.640311 -0.607275 0.325278 0.365973 -0.565603 0.603018 0.208813 0.348170 -0.143108 -0.180377 -0.372904 -0.479689 -0.540430 0.029663 -0.081056 -0.185850 -0.573872 -0.172274
gca_000463075 -0.119592 0.016159 -0.702371 -0.070793 0.987834 -0.308799 -0.307614 0.065666 0.314454 0.189856 0.131240 0.183962 -0.193473 0.509032 -0.200560 -0.047522 -0.470852 -0.445985 -0.203103 0.621843 0.141272 -0.094126 0.216759 -0.202182 0.074020 -1.015929 -0.373516 0.470561 0.313507 -0.331374 0.437270 -0.221622 -0.532799 0.418921 0.045256 0.376923 0.416390 0.020854 0.628188 0.263748 0.387019 0.031636 0.021842 -0.589598 -0.342647 -0.101266 -0.280972 0.640106 0.072254 -0.073915 0.198424 0.068407 0.153090 -0.658352 -0.132785 -0.775569 -0.556000 0.675541 -0.440040 -0.272348 0.074095 0.018677 -0.016791 0.842102 0.051112 -0.541721 0.005465 -0.516503 0.247501 -0.266940 0.678160 -0.579155 0.327364 0.118043 -0.038561 0.345725 -0.107097 0.505288 -0.331556 0.700850 -0.820912 0.133667 0.027230 -0.423172 0.433106 -0.209167 1.031075 0.178363 0.090092 -0.233426 0.158127 0.735895 -0.402824 -0.204056 0.200269 -0.356138 -0.166968 -0.087855 -0.150038 -0.338169 -0.059748 0.187216 0.414709 -0.998226 -0.164286 1.113532 0.522081 -0.092996 0.295689 -0.831631 -0.230247 -0.291158 0.169961 -0.262844 -0.709807 -0.229725 0.599552 0.701131 -0.481281 0.282079 -0.429011 -0.335563 -0.433114 -0.353902 0.342990 0.247278 -0.133778 -0.192565
gca_001592735 -0.454276 0.410994 0.109270 -0.292094 -0.582573 -0.646078 -0.385672 -0.541051 -0.191624 -0.740919 0.107661 0.418445 -0.172145 0.262358 -0.037722 0.396166 -0.188705 0.137020 -0.177285 0.327256 0.260012 0.248530 -0.022017 -0.188810 0.215498 -0.520669 0.098721 0.399913 0.634780 -0.478139 0.491233 0.077283 -0.338656 -0.286068 -0.265856 0.278499 0.063520 -0.480572 0.330766 1.324665 0.320409 0.167439 -0.156263 -0.012682 -0.199143 -0.419943 0.416417 0.498974 0.337247 0.315680 0.071125 0.638122 -0.315699 -0.193876 -0.276725 -1.127143 -0.275393 0.857759 0.126230 0.156989 -0.352579 0.553425 -0.203752 0.474322 -0.052628 0.210193 0.073715 -0.806397 0.876075 0.350238 0.551671 -0.173403 0.731876 0.515993 0.146145 0.611527 -0.236699 0.833753 -1.163166 -0.033766 -1.225049 -0.253356 0.340036 0.088893 0.460652 0.105653 0.206583 0.265975 0.476952 -0.684711 0.071985 0.855940 -0.508689 0.642434 0.536989 0.152770 -0.347322 0.187078 -0.551728 -0.568694 0.054066 0.091669 -0.465734 0.221240 -0.262874 1.204552 0.073711 0.538763 0.385924 0.029610 -0.495366 -0.436266 0.480444 -0.193859 -0.879144 0.207638 0.685736 0.222002 -0.124691 0.179005 0.159135 -0.231531 -0.099352 0.566904 0.252424 0.341023 -0.303128 -0.593077
gca_000415525 -0.764033 -0.174170 -0.413760 -0.325165 0.224854 -0.631720 -0.775572 0.358228 0.006733 -0.360787 0.412333 -0.308640 -0.236272 -0.272752 0.179826 0.119101 0.010935 -1.232267 0.070211 0.397897 -0.454796 0.241861 -0.083804 -0.397478 -0.534891 -0.362156 0.151021 0.663111 0.361382 -0.341530 0.165230 0.406602 0.293392 0.054538 0.029196 0.022475 0.379638 -1.077513 0.713735 0.888872 0.424164 -0.017239 -0.114675 0.154199 -1.390034 0.134005 0.553163 0.690973 0.354751 0.319194 -0.712919 0.321392 0.019669 -0.228651 0.119706 -0.943144 -0.616342 0.790913 -0.194123 -0.424591 -0.106628 0.225052 0.289700 0.234451 0.454347 -0.069192 0.597326 -0.560039 0.306766 0.382066 0.301252 -0.634337 0.613416 0.202838 -0.242173 0.603873 -0.368971 0.395113 0.251882 0.566611 -1.083760 -0.446952 0.222587 -0.637015 0.551637 -0.071689 0.206279 -0.216253 0.380492 -0.077187 0.096312 0.718293 -0.231855 0.141227 0.098851 -0.676000 0.011812 -0.260407 -0.498208 -0.228010 -0.154686 -0.089544 -0.483067 -0.085149 -0.287856 0.271296 0.055738 0.280484 -0.559552 -0.513462 0.225264 -0.246512 0.142582 -0.536425 -0.305793 0.164933 -0.131170 -0.130268 -0.405940 -0.262957 -0.166503 -0.349680 -0.012552 -0.045263 0.337071 -0.124529 -0.673044 0.261909
gca_003410225 -0.490095 0.515061 -0.361567 0.797177 0.060472 -0.634453 -0.096091 0.202268 -0.051776 0.004718 -0.227503 0.085429 -0.456119 0.058574 0.192777 -0.203949 -0.072879 -0.531298 -0.178357 0.242374 0.465967 0.309777 0.065507 -0.422881 -0.011895 -0.215128 -0.104658 0.321062 0.763224 -0.607571 0.533945 -0.057522 0.309064 -0.014765 -0.104791 0.253074 -0.202185 -0.331691 0.259748 0.208555 -0.044474 -0.226964 0.233876 0.116931 -0.509093 0.140746 0.272220 0.583477 0.280108 0.147215 0.110131 0.717623 -0.387131 -0.610848 0.050463 -0.336210 0.182424 0.571556 -0.199663 -0.197408 0.107390 0.163043 0.468939 0.264258 0.452520 0.004693 0.359684 -0.409674 0.442097 0.292968 0.860271 -0.218962 0.117953 0.660887 0.167693 0.458884 0.311778 0.411290 -0.495494 0.689533 -0.528102 -0.383275 0.497092 -0.388943 -0.191965 0.347183 -0.009824 0.122505 0.413651 0.310175 -0.194474 0.626416 -0.355482 -0.203517 0.049901 -0.050418 0.403246 -0.359006 -0.047735 -0.454808 -0.298006 -0.032829 0.235915 -0.135347 -0.177868 0.541210 -0.158295 0.144779 0.166085 -0.134071 -0.199459 -0.350357 0.420249 -0.875923 -0.455873 -0.041414 0.108189 0.385753 0.117086 -0.103615 -0.016619 -0.126743 0.177483 -0.327642 0.164981 0.478869 -0.137948 -0.288476
gca_001761825 -0.067214 0.070442 0.267270 0.263414 0.236064 -0.362168 -0.068615 0.179363 -0.392474 -0.015989 0.130334 0.056392 -0.337908 0.050061 -0.360846 0.222703 0.060220 0.040561 -0.351911 -0.272908 0.502184 0.168108 -0.782726 -0.029410 -0.522972 -0.617290 0.070912 -0.402954 1.294049 -0.818326 0.475478 0.312337 -0.043028 -0.161912 -0.123611 0.781922 0.398739 0.525530 0.229373 0.566751 0.198230 0.188597 -0.313395 -0.183194 -0.376305 0.064698 0.497068 0.194231 -0.055520 0.006104 0.039354 0.345824 0.207057 -0.451574 0.172711 -1.060551 -0.760408 0.412936 -0.627735 0.165369 -0.280398 0.468071 0.629539 0.940825 0.282562 -0.141475 0.645732 -0.008324 0.320787 0.532625 1.072230 -0.812465 -0.017483 0.861233 0.284383 0.034382 -0.330672 0.424910 -0.281083 0.519592 -0.919635 -0.229532 0.291442 -0.324303 0.265901 -0.903711 -0.145418 0.042190 0.595899 -0.282735 0.145229 0.923839 0.171032 -0.320120 -0.025001 -0.482648 -0.477687 0.215614 -0.797214 -0.447188 -0.253814 0.289120 -0.593239 -0.993033 -0.638701 0.703058 -0.154637 -0.348195 -0.193451 -0.435734 0.215501 -0.623183 0.282495 -1.210708 0.034418 -0.072631 -0.098733 -0.277852 0.444771 0.400474 -0.557037 0.030591 -0.509255 0.171354 0.392562 -0.258099 -0.499944 -0.044953
gca_000022885 -0.137648 -0.226935 -0.297258 1.123950 1.041543 -0.455750 -0.548347 0.349300 -0.606865 0.157431 -0.399955 0.221257 -0.593415 -0.005062 -0.384703 -0.538540 -0.116520 -0.340477 -0.286695 0.739359 0.616414 0.366802 0.518760 -0.084500 -0.107188 -1.021890 -0.395508 0.052307 1.018730 -0.590441 0.961308 0.073976 -0.254406 -0.343978 -0.335638 0.656458 0.090668 0.144804 0.697342 -0.517766 0.056911 -0.322292 0.357937 -0.350431 -0.609496 -0.131951 0.198743 -0.248013 0.183911 0.201556 0.096171 0.431553 0.037827 -0.380989 0.296565 -0.355563 -0.096808 0.333814 -0.359933 0.730881 -0.673497 0.127258 0.436189 0.388211 0.134373 -0.027431 0.021800 -0.198073 0.170440 0.167448 0.546373 -0.685627 0.389692 0.341206 -0.009165 0.348724 -0.072526 0.393162 -0.474384 0.739232 -0.440789 0.064024 0.314977 0.154848 -0.261417 -0.251828 -0.306787 0.821579 -0.040210 -0.077822 -0.531575 1.387019 -0.529684 -0.158834 0.195395 -0.809071 -0.079322 0.154084 -0.521898 -0.712095 0.042256 -0.299764 -0.811793 -0.054831 0.067526 0.583506 -0.250984 -0.519029 0.196943 0.022494 -0.774374 -0.427699 -0.239982 -0.499194 -0.398979 -0.394650 -0.345759 -0.002401 0.076566 -0.064742 -0.375695 0.664490 -0.186666 -0.620410 0.158159 0.060839 -0.496883 -0.139968
gca_005405965 0.080322 0.394315 -0.119283 0.114729 -0.024635 -0.211038 -0.411215 0.317413 -0.078543 -0.402693 0.327107 0.250068 -0.036634 -0.348013 -0.078538 -0.349087 -0.287504 -0.218010 -0.021608 0.583114 -0.073602 0.378612 0.474010 0.051175 -0.110951 -0.354701 0.083364 0.335876 0.530731 -0.358322 0.514673 -0.098168 -0.302574 0.513503 -0.366205 0.512245 -0.381880 -0.284642 0.543001 0.695321 0.260770 -0.227703 -0.411132 0.066054 -1.026903 0.093339 1.003539 0.128507 0.710209 0.395904 0.117278 0.681590 -0.394873 -0.460770 0.059000 -0.968746 -0.358006 0.317428 -0.151278 0.420438 -0.092314 1.037681 0.253390 0.539762 0.060992 0.606739 0.537369 -0.275715 1.080877 0.279394 0.254595 0.147337 0.105257 -0.116034 0.341797 0.827460 -0.406825 0.686600 -1.102046 0.502528 -0.916104 -0.366664 0.180504 0.317983 -0.213377 -0.260527 -0.835186 0.315257 0.353518 -0.063982 -0.116149 0.392146 0.212456 0.504106 0.545254 -0.923304 -0.071194 -0.119400 -0.021397 -0.536323 -0.510050 0.091432 -0.562194 0.472857 -0.303648 0.323707 -0.142186 0.907621 0.264503 0.598000 -0.020289 -0.768820 0.671347 -0.409881 -0.502274 -0.068005 -0.057210 -0.002027 -0.403162 0.058212 0.074487 0.334785 0.522409 -0.617965 0.702708 0.859582 -0.495523 0.240931
gca_000018785 -0.503797 0.315862 -0.320572 0.623363 0.237275 -0.685306 -0.223991 0.190449 -0.111814 0.002520 -0.133893 0.093219 -0.443731 0.145665 0.132097 -0.118949 -0.114477 -0.525677 -0.282074 0.236428 0.455663 0.362555 0.054771 -0.271447 -0.004770 -0.432485 -0.009563 0.304737 0.828993 -0.474107 0.575658 -0.050922 0.232195 0.041438 -0.131911 0.337703 -0.108827 -0.216292 0.384159 0.403561 -0.027997 -0.123671 0.122157 0.009394 -0.633840 0.161433 0.344366 0.573014 0.209081 0.172975 0.125644 0.621299 -0.298771 -0.620351 0.090077 -0.584745 0.000569 0.686472 -0.270466 -0.136570 0.002316 0.238083 0.375375 0.492243 0.505304 -0.039657 0.403602 -0.409432 0.473631 0.334264 0.883273 -0.304304 0.193333 0.561539 0.159015 0.604891 0.215464 0.436226 -0.545369 0.665531 -0.724457 -0.412543 0.425111 -0.322878 -0.000834 0.188206 0.021050 0.061730 0.347195 0.058272 -0.031695 0.809354 -0.229544 -0.091472 0.138432 -0.177140 0.247275 -0.296611 -0.161341 -0.450102 -0.331404 0.035838 0.065525 -0.245135 -0.165828 0.544321 -0.118493 0.148381 0.144000 -0.219230 -0.200780 -0.555220 0.430993 -0.776292 -0.513137 -0.099784 0.124437 0.419725 0.011337 -0.121407 -0.136726 -0.149750 0.059769 -0.360016 0.376867 0.394891 -0.266495 -0.278471
gca_000157015 -0.517916 0.289009 -0.320639 0.618269 0.266181 -0.682160 -0.216005 0.160441 -0.149572 0.001977 -0.144487 0.082206 -0.467833 0.131771 0.145979 -0.112188 -0.095070 -0.539970 -0.305983 0.290234 0.414254 0.389508 0.041612 -0.246509 -0.023871 -0.431810 -0.014778 0.330449 0.854495 -0.516370 0.562074 -0.045566 0.242751 0.030869 -0.164333 0.332431 -0.049546 -0.246935 0.406508 0.460040 0.024726 -0.102911 0.109352 0.020836 -0.699188 0.178846 0.369444 0.568637 0.213840 0.181656 0.101074 0.562605 -0.284362 -0.604396 0.114815 -0.620546 -0.054505 0.701735 -0.271648 -0.125155 -0.034679 0.312506 0.376758 0.528396 0.508417 -0.019283 0.407756 -0.432783 0.522923 0.316796 0.901909 -0.341182 0.208014 0.568111 0.167982 0.639313 0.183771 0.488309 -0.569842 0.708237 -0.767649 -0.394630 0.420740 -0.342636 0.037201 0.147485 0.049608 0.070813 0.325709 0.020453 -0.011223 0.852660 -0.223093 -0.052557 0.187820 -0.214452 0.245796 -0.298838 -0.245393 -0.479450 -0.314535 0.061878 0.008843 -0.215651 -0.225426 0.605333 -0.122819 0.125213 0.139766 -0.263905 -0.209427 -0.579589 0.436780 -0.764977 -0.522919 -0.093621 0.119731 0.394839 0.017391 -0.093737 -0.177854 -0.154940 0.043396 -0.357993 0.406856 0.381224 -0.305013 -0.300216
gca_000309585 -0.136379 -0.075262 -0.061409 0.355778 0.153862 0.057372 -0.285478 0.379282 0.104650 0.066766 -0.145345 0.069230 -0.639331 -0.121464 0.853451 -1.094701 -0.225039 -0.539482 -0.290934 0.308878 0.490339 0.328918 0.025065 0.277161 -0.428873 0.084238 0.213235 0.317029 0.154548 -0.607315 -0.204816 0.400909 -0.023282 0.419822 -0.257669 0.079931 0.285599 0.078914 0.379672 0.328775 0.190531 -0.601790 0.810334 0.150476 -0.979493 -0.260178 0.144839 -0.482865 0.243696 0.041680 0.072279 0.137931 -0.557659 -0.156521 0.208688 -1.203636 0.448351 -0.098729 -0.964760 0.463948 -0.635155 0.653642 0.486612 0.386725 0.568588 -0.106157 -0.447728 -0.299449 0.276754 0.331552 1.167322 -0.026518 -0.176128 0.835660 0.294551 0.771191 0.201894 0.682508 -0.449437 0.554639 -0.225202 -0.286160 0.217477 -0.122400 -0.103450 0.095380 -0.389048 0.484967 0.109282 0.525818 0.127320 0.967844 -0.496181 0.018911 0.155654 -0.709902 -0.010330 -0.022900 -0.118110 -1.167634 -0.731071 0.132518 -0.448181 -0.188411 0.553920 0.773758 -0.240932 -0.009046 0.033541 -0.241023 -0.093297 -1.016046 -0.105462 -0.854614 -0.206898 0.051306 -0.357468 0.097394 0.391461 -0.258085 -0.815891 -0.017370 -0.178216 -0.751066 0.388370 0.043954 -0.048493 -0.121026
gca_000196315 -0.593985 -0.311165 -1.006330 -0.008290 0.207584 -0.398132 -0.394660 -0.402488 -0.280708 -0.322002 0.364074 0.097784 -0.336158 0.259335 -0.141998 0.107424 0.046840 -0.267836 -0.348011 0.878823 0.233891 0.384431 -0.301380 0.035345 -0.116199 -0.792088 -0.174358 0.136832 0.252070 -0.313587 0.524067 -0.114617 0.368795 -0.502286 -0.614689 0.405551 0.020990 0.088848 0.618792 0.048472 0.330777 0.505371 -0.040752 0.432074 -0.663073 0.335688 -0.028286 0.896581 -0.509159 0.181807 0.012370 0.692003 0.211365 -0.218085 0.908040 -0.274943 -0.022824 0.884885 -0.818720 0.015645 -0.900182 -0.418194 0.197988 0.457161 0.325035 -0.365364 0.434695 -0.456702 0.383249 0.602154 -0.037327 0.053266 0.467829 0.410609 0.308154 -0.097040 0.291891 1.119755 -0.333161 0.724831 -0.447623 -0.114122 0.399528 -0.347979 0.004898 -0.184906 -0.081303 -0.026551 0.535043 -0.318931 -0.119466 1.323771 0.324566 -0.174945 0.417185 0.141938 -0.156688 -0.353811 -0.247182 -0.119861 0.087722 -0.258617 -0.008795 -0.324246 -0.083205 0.548204 0.429824 -0.079272 0.068445 -0.030790 -0.201604 -0.203900 0.008484 -0.366954 -0.633574 -0.220498 0.038772 0.490465 -0.267304 0.037132 -0.470325 0.152831 -0.252112 0.173871 0.369128 0.007742 -0.436205 -0.115381
gca_000175355 -0.441403 0.132184 -0.459719 -0.208944 0.218721 -0.718525 -0.061783 -0.753814 0.158412 -0.617220 -0.326704 0.482635 -0.405692 0.429113 0.586699 0.073635 -0.157128 -0.135915 -0.660377 0.193642 0.405117 -0.072771 0.117876 0.132530 -0.315767 -0.235170 0.101228 0.512574 0.430847 0.242047 0.014861 0.219395 -0.063914 -0.020544 0.442821 -0.039683 0.173222 0.022935 0.403774 0.359677 -0.376640 -0.499354 0.355466 -0.257534 -0.531153 0.173426 0.622222 0.109478 0.219046 0.065328 0.696800 0.848568 -0.789553 -0.589392 -0.264667 -0.399438 0.268052 0.521774 -0.319047 -0.027338 -0.156134 0.497286 0.190178 0.661446 0.591165 0.347965 -0.595722 -0.809595 0.476939 -0.000932 0.783101 -0.365398 0.123936 1.065893 0.278925 0.792185 0.243775 0.658099 -1.023599 0.453600 -1.025499 -0.022836 0.399191 -0.974284 0.374839 0.321949 0.241224 0.202766 0.087388 -0.955813 0.074014 0.501394 -0.358085 0.132759 0.676081 -0.458169 0.050946 -0.211191 -0.993153 -0.411430 -0.197421 0.032954 -0.769075 0.312739 -0.272368 0.750448 0.165093 0.377985 -0.413211 -0.437492 -0.506460 -0.995269 0.037787 -0.053266 -0.710493 0.546395 -0.226785 -0.047666 0.211570 0.011074 -0.343607 0.362322 -0.489954 -0.365279 0.175767 0.309882 0.460432 -0.192041
gca_000203915 -0.109663 0.185458 -0.373565 0.655690 0.108173 -0.607760 -0.501981 0.464071 -0.090408 0.136393 -0.353001 0.321349 -0.190000 0.183156 0.651997 -0.485808 0.651450 -0.353910 0.105383 0.619201 -0.037720 0.496242 0.069885 -0.036089 -0.098570 0.228877 0.323710 0.370104 0.518930 -0.362450 0.381676 0.167427 0.193026 -0.325390 -0.074309 0.258430 0.022310 -0.431184 0.625589 0.887875 -0.069746 -0.237159 0.442661 -0.072243 -0.521656 0.021142 0.451095 -0.479520 -0.160268 0.014942 0.450414 0.471595 0.233974 -0.323587 -0.364962 -0.020758 0.278926 0.856680 0.120394 -0.350385 0.522066 0.710873 -0.104203 -0.318395 0.565083 -0.032564 -0.217083 -0.224557 0.429875 0.523968 0.715778 -0.800386 0.122257 0.456810 -0.254674 0.751033 0.018179 0.282792 -0.039909 0.304709 -0.852945 -0.134217 0.540750 -0.572559 -0.387010 0.281144 -0.092378 -0.187513 0.444775 -0.368189 0.048363 0.530001 0.258253 0.466400 1.069991 -0.740750 0.229497 -0.640146 -0.350967 -0.364710 -0.402845 0.490280 -0.515459 0.367296 -0.506719 0.625896 0.260479 0.134101 0.145321 -0.109005 -0.166421 -0.834653 0.742559 -0.415148 -0.598446 -0.049549 0.156465 0.421226 -0.073344 -0.186600 -0.415091 0.397733 -0.173835 -0.668586 -0.122912 -0.523077 -0.299167 -0.698215
gca_000169735 -0.533401 0.284139 -0.344291 0.671953 0.238592 -0.560259 -0.260576 0.139761 -0.171475 0.047112 -0.139412 0.092625 -0.372519 0.101855 0.143257 -0.203438 -0.071897 -0.453441 -0.197254 0.250256 0.389060 0.325928 0.124521 -0.332779 0.100146 -0.359398 -0.031697 0.305733 0.704613 -0.471623 0.497508 -0.026430 0.206765 -0.045517 -0.105253 0.221553 -0.164750 -0.232101 0.364325 0.270187 -0.068466 -0.187020 0.206278 0.087715 -0.607500 0.201511 0.332554 0.557938 0.137620 0.139535 0.107452 0.565703 -0.373951 -0.596460 0.049214 -0.469017 0.072883 0.607709 -0.272849 -0.154422 0.037008 0.192418 0.353025 0.364032 0.431415 0.046037 0.396449 -0.354938 0.405637 0.317901 0.834322 -0.227657 0.181024 0.571007 0.117193 0.606740 0.246984 0.356043 -0.451595 0.630558 -0.599231 -0.406345 0.387101 -0.292515 -0.119819 0.274383 0.001113 0.054632 0.372694 0.168504 -0.122974 0.724265 -0.335604 -0.104041 0.096324 -0.111041 0.303328 -0.237442 -0.006817 -0.389850 -0.361886 -0.007227 0.157085 -0.181882 -0.111761 0.480149 -0.172907 0.196449 0.165571 -0.226706 -0.202776 -0.536507 0.349333 -0.660905 -0.443376 -0.061087 0.047161 0.468716 0.008045 -0.176223 -0.120936 -0.088435 0.048724 -0.362818 0.295929 0.359314 -0.135902 -0.278373
gca_000226035 -0.476059 0.247407 -0.280615 0.584060 0.248683 -0.601369 -0.204773 0.140596 -0.099574 -0.006528 -0.111051 0.092179 -0.427395 0.112015 0.155126 -0.133841 -0.068425 -0.470960 -0.269142 0.253932 0.393659 0.347488 0.064216 -0.222224 -0.043537 -0.414490 -0.029355 0.298389 0.785055 -0.456058 0.548467 -0.062568 0.206733 0.051326 -0.140295 0.314977 -0.043052 -0.191747 0.374104 0.406045 0.016684 -0.125679 0.114148 0.018373 -0.628666 0.156801 0.321503 0.529407 0.175038 0.130587 0.128615 0.548352 -0.294956 -0.568047 0.109590 -0.576125 -0.031042 0.644696 -0.253475 -0.129712 -0.021066 0.244480 0.335000 0.501886 0.474084 -0.041209 0.336388 -0.372456 0.432864 0.322719 0.842620 -0.326694 0.180705 0.535491 0.136859 0.574070 0.166754 0.443523 -0.507217 0.617359 -0.689541 -0.373016 0.397991 -0.316823 0.034344 0.126866 0.014014 0.063257 0.299135 0.031634 -0.028942 0.790972 -0.222496 -0.063623 0.145065 -0.201037 0.237587 -0.294018 -0.201097 -0.464303 -0.305739 0.067844 0.027188 -0.194629 -0.190060 0.547757 -0.097698 0.137734 0.140379 -0.241222 -0.159735 -0.590262 0.391143 -0.720251 -0.462116 -0.101281 0.131837 0.396843 0.033521 -0.093661 -0.181144 -0.107631 0.038754 -0.353842 0.399614 0.349825 -0.265524 -0.253261
gca_005144475 -0.476445 0.199313 -0.314336 0.583873 0.218405 -0.568791 -0.210667 0.157426 -0.124563 -0.014590 -0.111412 0.123104 -0.446329 0.148693 0.138922 -0.176578 -0.123973 -0.491977 -0.275517 0.301883 0.436831 0.378133 0.074001 -0.217300 -0.059909 -0.380565 -0.014431 0.307333 0.766401 -0.473677 0.571702 -0.094105 0.239064 0.041094 -0.087923 0.308138 -0.004302 -0.185214 0.346456 0.402079 0.025157 -0.099335 0.111714 0.020520 -0.605042 0.117098 0.350329 0.553369 0.190418 0.102340 0.082637 0.538405 -0.254693 -0.566814 0.181424 -0.532651 -0.052573 0.661506 -0.283412 -0.133676 -0.033395 0.254218 0.347031 0.492548 0.508811 -0.071938 0.335493 -0.396194 0.478013 0.343089 0.844174 -0.371653 0.139460 0.510377 0.160881 0.598197 0.183299 0.420237 -0.528274 0.638111 -0.669098 -0.370196 0.384327 -0.300354 0.016442 0.105514 0.037685 0.102220 0.338396 0.006313 -0.040007 0.809466 -0.232223 -0.074268 0.127976 -0.180905 0.227458 -0.304504 -0.241816 -0.425289 -0.353087 0.020398 0.014613 -0.210390 -0.175013 0.592273 -0.129197 0.123441 0.210935 -0.235729 -0.172958 -0.552063 0.411497 -0.722812 -0.394960 -0.089235 0.120938 0.419755 0.025252 -0.122241 -0.221514 -0.068641 0.045896 -0.302369 0.363554 0.352001 -0.221837 -0.278690
gca_001252575 -0.508401 0.398013 0.137348 0.835858 0.404942 -0.707229 -0.308376 0.193907 0.143486 0.043832 -0.029696 -0.112819 -0.160569 -0.224612 0.453299 0.047741 -0.124790 -0.697314 -0.081140 0.235615 0.078678 0.791676 -0.037857 -0.377273 -0.670072 0.045449 -0.357918 0.212649 0.950244 -0.540435 1.671583 -0.606122 0.583411 0.023488 -0.198839 0.224115 0.668436 -0.119187 0.108224 0.149410 0.250321 0.885744 -0.324097 0.109036 -0.174244 0.319961 -0.243723 0.737621 0.184235 0.265483 0.372996 0.909844 0.011087 -0.476048 0.522912 -0.139241 -0.207773 0.667577 -0.051079 0.000856 -0.699887 -0.198889 0.167798 0.587357 1.359814 -0.505129 0.110734 0.023338 0.008754 0.121171 0.756535 -0.161688 -0.205708 0.385735 0.429788 0.183239 0.018984 0.358842 -0.015833 0.211624 -0.540350 -0.033977 0.454551 -0.568458 0.460474 -0.306936 0.432536 0.026338 0.009840 0.346911 -0.158542 1.272628 -0.003459 -0.174533 0.295096 0.110419 -0.199423 -0.774626 -0.213584 -0.582973 0.146647 0.195481 0.310118 -0.109861 0.006310 -0.157106 -0.006186 -0.740881 -0.061514 -0.603047 0.123329 -0.097321 0.141985 -1.305653 -0.447980 -0.257509 0.430444 0.459562 0.610935 0.014729 -0.203219 0.417295 0.522968 -0.377267 0.185715 0.217206 -0.262833 -0.097366
gca_000014305 -0.037899 0.212732 -0.191777 0.299116 0.713742 -0.471845 -0.034763 0.013192 0.202929 -0.218980 -0.208550 -0.194113 -0.356307 -0.057704 0.687458 -0.020040 -0.278580 -0.451252 -0.585555 -0.288623 0.848456 0.120920 0.182584 0.258056 0.121283 -0.252303 0.112804 0.018914 0.904100 -0.044715 0.049564 0.026367 0.728128 -0.057654 0.005145 0.279519 0.372415 0.416271 0.047361 -0.158459 -0.198610 -0.066783 0.250995 -0.656977 -0.245663 0.169472 0.088111 0.665136 -0.638585 -0.163291 0.673892 0.207137 -0.363187 -0.369092 -0.046138 -1.182349 -0.351627 0.533627 -0.555069 -0.427270 0.241861 0.320683 0.142056 0.359533 0.647125 -0.849658 -0.130880 -0.210173 0.365624 0.524602 0.650976 -1.155751 0.512394 0.715113 -0.467634 0.454221 -0.185073 0.906962 -0.182700 0.417596 -0.874106 -0.371360 0.172405 -0.268082 0.342026 -0.737629 0.469614 -0.055999 0.436787 -0.173130 0.246046 0.421165 -0.013744 -0.230659 0.114616 -0.481928 -0.442367 -0.051059 -0.610996 -0.304908 -0.296412 0.837303 0.457659 -0.555331 -0.430320 0.423881 0.476918 -0.193445 0.234669 -0.276244 0.143039 -1.339856 0.966186 -0.937311 -0.227827 -0.040932 0.613613 0.294982 0.178421 -0.753547 -0.835044 -0.274924 -0.560460 -0.033184 1.026737 -0.115399 0.479167 -0.107938
gca_000512185 -0.454775 0.264323 -0.320026 0.588879 0.237006 -0.575889 -0.191362 0.177311 -0.122588 -0.003471 -0.143881 0.086076 -0.387798 0.135626 0.153332 -0.139292 -0.079104 -0.452921 -0.219983 0.244666 0.382652 0.333605 0.054914 -0.223203 -0.013540 -0.354050 -0.024615 0.297685 0.724057 -0.429683 0.495776 -0.033945 0.210666 0.036773 -0.128781 0.284738 -0.062262 -0.177723 0.339099 0.341996 -0.015177 -0.110396 0.139001 0.013790 -0.574893 0.133959 0.287490 0.495636 0.185404 0.129268 0.121925 0.522726 -0.249491 -0.545383 0.067057 -0.525489 -0.005790 0.601808 -0.207571 -0.130603 0.007978 0.232088 0.355876 0.431684 0.468990 -0.021952 0.350563 -0.355827 0.432593 0.301048 0.788019 -0.309269 0.162388 0.510057 0.144237 0.537256 0.188180 0.407606 -0.480297 0.591056 -0.616042 -0.348369 0.380709 -0.337813 -0.010987 0.153453 0.049642 0.050159 0.302418 0.056827 -0.053615 0.742225 -0.230090 -0.079009 0.140838 -0.169099 0.235483 -0.248938 -0.138923 -0.434805 -0.297989 0.038887 0.057132 -0.186815 -0.187748 0.532054 -0.090249 0.152444 0.171375 -0.186596 -0.177403 -0.527243 0.386372 -0.671382 -0.429306 -0.097303 0.127152 0.386193 0.043795 -0.112606 -0.139728 -0.082242 0.060075 -0.313934 0.340481 0.353730 -0.211526 -0.256225
gca_003571485 -0.498639 0.240271 -0.289214 0.567688 0.241946 -0.653754 -0.260169 0.162086 -0.173733 0.009171 -0.138227 0.105094 -0.395221 0.135033 0.155968 -0.152155 -0.086312 -0.469253 -0.285874 0.227967 0.409345 0.348580 0.076413 -0.192426 -0.033327 -0.399051 -0.000523 0.269777 0.743613 -0.444069 0.494992 0.002480 0.220135 -0.043356 -0.121811 0.267476 -0.021501 -0.243254 0.371009 0.405803 -0.000579 -0.106743 0.151531 0.008168 -0.610123 0.189120 0.279204 0.485777 0.155123 0.129878 0.098921 0.554931 -0.292607 -0.525408 0.122647 -0.567830 -0.035232 0.598329 -0.272560 -0.069862 -0.074175 0.205895 0.358269 0.428760 0.497523 -0.047452 0.378246 -0.317881 0.439559 0.301696 0.827085 -0.292235 0.215977 0.521516 0.160750 0.542687 0.208977 0.432020 -0.497522 0.600527 -0.657601 -0.328227 0.374998 -0.313084 -0.017010 0.097765 -0.013700 -0.008672 0.336527 0.071366 -0.030067 0.704482 -0.231541 -0.014102 0.224076 -0.206976 0.247138 -0.285980 -0.221820 -0.393029 -0.279750 0.044275 -0.016403 -0.151474 -0.177279 0.524071 -0.132751 0.140474 0.174187 -0.160302 -0.226756 -0.560234 0.351171 -0.710772 -0.484269 -0.061711 0.117515 0.358221 0.028158 -0.108028 -0.179960 -0.075537 0.041756 -0.305130 0.398758 0.317663 -0.264375 -0.263790
gca_002287945 0.305982 0.402333 -0.529668 0.129944 0.195752 -0.529275 0.316057 -0.648847 0.050474 -0.084872 -0.309819 0.291353 -0.283730 0.077471 0.456429 0.020842 -1.011423 -0.601711 -0.779043 0.226003 0.297387 0.536398 -0.153970 -0.023079 -0.378947 0.006200 -0.321191 0.451143 0.499797 -0.263610 -0.062492 -0.132915 0.528643 0.247978 -0.204804 0.218918 0.515242 0.036306 0.347140 0.119741 -0.280159 0.207589 0.411500 -0.027626 -1.111623 -0.070330 0.173561 0.470712 0.065812 -0.243972 0.563134 0.737912 -0.405942 -0.193764 0.258242 -0.308461 0.003302 0.752460 -0.215244 0.537947 0.199597 0.844661 -0.292612 0.177942 -0.063306 -0.441293 -0.243045 0.082417 0.154492 0.557271 0.726606 -0.716356 0.457837 0.429004 0.127558 0.525681 -0.062616 0.847204 -1.242854 0.236907 -0.998836 0.224892 0.004117 -0.290635 0.299745 0.018979 0.245651 -0.198245 0.346887 -0.658311 0.424564 0.157732 0.467284 0.416277 0.537177 -0.657140 -0.249507 -0.388610 -0.741464 -0.844500 -0.345870 0.355683 -0.415325 0.434230 -0.044886 0.191976 -0.237775 0.161959 0.357239 -0.023908 -0.542246 -1.054232 0.370177 -1.029434 -0.821113 -0.444827 0.703097 0.222611 -0.419248 -0.194028 -0.498305 0.260234 -0.597972 -0.663057 0.603674 0.725604 -0.201486 -0.195252
gca_000177415 -0.394779 0.138752 -0.225286 0.402045 0.096147 -0.610583 -0.197620 0.027391 -0.065997 0.096182 -0.080727 0.059264 -0.432780 0.047329 0.094889 -0.068747 -0.048089 -0.524594 -0.380533 0.136423 0.491101 0.338107 0.009687 -0.141584 -0.062365 -0.309527 -0.014110 0.309782 0.939312 -0.387615 0.518468 -0.236035 0.242054 0.139525 -0.231484 0.271272 0.104724 -0.082055 0.364391 0.493968 0.073301 -0.079592 0.149527 -0.117590 -0.491312 0.162872 0.191176 0.608433 0.196861 0.032249 -0.053627 0.548325 -0.282593 -0.573360 0.217731 -0.653880 -0.075997 0.656323 -0.224598 -0.088864 -0.215363 0.267306 0.243734 0.397116 0.538300 -0.048176 0.385596 -0.443982 0.481683 0.394682 0.891442 -0.349436 0.194174 0.421365 0.133780 0.644006 0.105043 0.439528 -0.423020 0.697098 -0.761906 -0.405872 0.163089 -0.294744 0.158496 0.036926 0.173963 0.095423 0.173051 -0.044204 0.043995 0.803220 -0.168473 -0.055361 0.100993 -0.237865 0.076292 -0.228608 -0.383624 -0.340551 -0.320196 0.115444 0.011645 -0.202117 -0.196603 0.410551 -0.168727 0.023195 0.250039 -0.247499 -0.339937 -0.571001 0.453789 -0.726314 -0.428843 -0.140122 0.174032 0.330285 0.095322 -0.025467 -0.314452 -0.119707 0.065830 -0.149003 0.447817 0.315137 -0.298264 -0.099826
gca_002150995 -0.536103 -0.006540 0.112190 0.274460 0.485410 -0.646583 -0.214535 0.429700 0.328001 0.316431 -0.624837 0.747450 -0.643442 0.344071 0.078255 0.113160 -0.288551 -0.863599 -0.447562 0.811574 -0.020166 0.191764 0.119841 0.593202 -0.436624 -0.234002 -0.456822 0.225493 0.469472 -0.277355 0.512423 -0.539988 0.110286 -0.222810 -0.046424 0.201943 0.426221 -0.291495 0.511276 0.594088 0.215532 0.139943 0.612025 0.070125 -0.912672 -0.499741 -0.107207 -0.077612 0.247445 0.009027 -0.473827 0.377526 -0.407012 -0.617211 0.154458 -0.627552 -0.463593 0.622201 -0.070148 0.445076 -0.542335 0.784192 0.449269 0.750476 -0.171175 0.066022 -0.118318 -0.206087 0.258280 0.333913 0.591233 -0.699451 0.258468 0.662152 0.359473 0.387643 -0.624045 0.873612 -0.800542 0.486186 -0.740752 -0.382021 -0.133995 -0.153737 0.112328 -0.182176 -0.003247 0.111413 -0.451707 -0.628957 -0.074249 0.959273 -0.189669 0.493991 0.868959 -0.670402 0.170366 -0.379200 -0.671155 -0.525344 -0.283555 -0.075322 -0.721424 -0.096716 -0.698970 0.986561 -0.448668 -0.810019 0.555374 -0.382937 -0.487911 -0.536891 0.187896 -0.103543 -0.193476 0.056292 0.316708 -0.401024 0.211788 -0.013823 -0.813468 0.652746 -0.536590 -0.498504 0.443036 0.144245 -0.234332 0.118685
gca_004368945 -0.423266 -0.129287 -0.568413 0.103614 0.236384 -0.717211 -0.029906 -0.026256 0.004738 -0.321725 0.052760 0.325584 -0.406397 0.318215 -0.016549 -0.156176 -0.298814 -0.145015 -0.785024 0.090691 -0.297929 0.376552 0.008266 -0.185617 -0.138956 0.214054 0.216111 -0.140956 0.422984 -0.009704 0.488825 0.483150 0.680711 0.189486 0.011118 0.036692 -0.530270 0.313791 0.623780 0.414430 -0.425506 -0.567936 0.311079 -0.173225 -0.439174 -0.082373 -0.014467 0.156870 -0.154727 -0.265984 0.550266 0.673959 -0.642143 -0.371916 0.140065 -0.477969 -0.311218 0.662851 -0.065237 0.349964 -0.586768 0.703874 0.212025 0.552985 0.275035 -0.559103 -0.059058 -0.334167 0.468086 -0.017502 0.246770 -0.084489 0.495633 1.048802 0.353081 0.196732 0.004738 0.907810 -0.551813 0.242726 -1.084637 -0.253774 0.051836 0.305696 0.138734 0.244401 -0.526198 -0.284100 0.060479 0.043549 -0.273437 0.540903 -0.091905 -0.085070 0.251897 -0.205049 0.095710 -0.161229 -0.378409 -1.065449 -0.312926 0.140595 -0.981036 0.396542 0.016128 -0.231404 0.086709 0.770987 0.225674 0.308185 0.599186 -1.076818 -0.221534 -1.169930 -0.831293 -0.250526 -0.369916 0.866001 0.296994 -0.104368 -0.332990 -0.016089 0.033523 -0.945102 0.695748 0.686994 -0.167139 -0.155455
gca_000268185 -0.310480 0.442637 -0.073170 0.016135 -0.214251 -0.852277 -0.340456 -0.051880 -0.149883 0.030529 -0.771803 0.399092 -0.058986 0.436703 0.345777 0.358095 0.318444 -0.371177 -1.162804 0.106055 0.230887 0.434808 -0.452831 0.405296 -0.430557 -0.140354 0.765524 0.534743 0.251096 -0.642311 0.097812 0.095949 0.312525 0.500866 -0.860348 0.210760 0.132578 -0.134043 0.265340 0.873064 0.225578 0.207115 0.130412 -0.097099 -0.856141 0.529619 0.061272 0.118792 0.082310 0.726834 -0.242670 0.227732 0.128640 -0.241021 -0.089824 -0.709186 -0.598381 0.789831 -0.288364 -0.078304 -0.760578 0.665014 0.294640 -0.112099 0.224895 0.147340 0.388549 -0.091889 0.512375 0.087637 0.857179 -0.248028 0.170753 0.405096 0.332813 0.605068 -0.451192 0.343103 -0.777948 0.526629 -1.537951 -0.628313 0.479287 -0.596032 0.214492 -0.233982 0.063233 0.331549 0.006205 -0.076443 0.482370 0.797092 0.056446 0.266709 0.289619 -0.425218 -0.041572 -0.304393 -1.084266 -0.063578 -0.026176 0.543178 0.117035 -0.143947 -0.287439 -0.040312 -0.147208 -0.027676 0.080479 -0.273252 0.238572 0.033904 0.506983 -0.761383 -0.684836 0.268274 -0.244262 -0.025744 -0.213306 0.141280 -0.184662 -0.814813 -0.484491 -0.541393 -0.156262 0.527984 -0.851751 0.110056
gca_002285615 -0.493588 0.286721 -0.611685 0.476277 0.775889 -0.261442 0.522261 -0.030400 0.547864 -0.057392 0.439116 -0.113138 -0.721789 -0.101175 0.059031 -0.021903 -0.165085 -0.639416 0.073429 0.260790 0.515146 0.175608 0.187351 0.361561 -0.489668 -0.558302 -0.343590 0.274275 0.368204 0.090963 0.642287 -0.472970 0.070599 0.532875 -0.157108 0.922263 0.225376 -0.082694 0.565170 0.550901 0.060855 0.679356 -0.356989 0.387857 -0.402051 0.330459 0.448963 0.761499 0.399548 0.399387 -0.041761 0.400520 0.317299 -0.898629 0.950671 -0.346309 -0.119452 0.159855 -0.518026 -0.491345 0.294790 -0.108403 0.775837 1.042941 0.842541 -0.199633 0.346183 -0.174289 0.271229 0.031435 0.235989 -0.911304 0.255246 0.149379 0.577139 0.090061 -0.210224 0.165452 -0.540952 0.363425 -0.425209 -0.169829 0.668280 -0.458883 0.454199 -0.363750 0.013207 -0.430586 0.581032 0.317959 0.151669 0.962869 0.265634 -0.511756 0.395932 -0.522904 -0.095647 -0.837897 -0.153202 -0.025402 -0.271721 -0.112281 0.118827 -0.409988 -0.216468 0.632765 0.353396 -0.351484 -0.597925 -0.345672 0.121965 -0.432539 0.071101 -0.877884 0.109031 -0.006776 0.141858 0.372026 0.208881 0.315095 -0.391492 0.092786 0.362697 -0.155593 0.613729 0.200268 -0.597035 0.275068
gca_004136675 -0.495112 0.168099 -0.284866 0.448076 0.266176 -0.623845 -0.225376 0.133217 -0.143408 0.006456 -0.136962 0.097306 -0.422801 0.154069 0.122441 -0.121357 -0.073300 -0.463621 -0.271974 0.298153 0.341024 0.387780 0.106031 -0.210121 -0.026075 -0.385631 -0.010711 0.310512 0.692420 -0.378164 0.487213 -0.005016 0.182181 0.012388 -0.135984 0.259095 -0.025699 -0.244756 0.400305 0.442324 -0.010030 -0.148588 0.117525 0.019865 -0.630423 0.117538 0.313353 0.491491 0.171818 0.135106 0.101335 0.501956 -0.242408 -0.514672 0.113815 -0.578049 -0.099066 0.595368 -0.251189 -0.135951 -0.071052 0.230937 0.280056 0.450767 0.456003 -0.022991 0.318792 -0.376073 0.450265 0.254465 0.784372 -0.295985 0.212574 0.500807 0.080016 0.523374 0.055226 0.478765 -0.480823 0.594641 -0.661818 -0.305237 0.323809 -0.286591 0.021705 0.128479 0.059565 0.027074 0.310264 -0.028094 -0.010509 0.764020 -0.140695 0.006113 0.212334 -0.195072 0.169980 -0.255858 -0.222507 -0.391940 -0.275780 0.082450 -0.045111 -0.177784 -0.158601 0.604092 -0.041637 0.087978 0.168408 -0.166384 -0.233367 -0.498505 0.406047 -0.646038 -0.428091 -0.031761 0.118870 0.312726 -0.003728 -0.067552 -0.169535 -0.098208 0.010291 -0.315967 0.365564 0.263061 -0.259227 -0.260849
gca_000010085 -0.505124 0.259318 -0.293900 0.613448 0.256034 -0.624328 -0.208475 0.172398 -0.137069 -0.011314 -0.118548 0.084626 -0.441120 0.133935 0.156041 -0.126898 -0.082110 -0.481625 -0.273413 0.247062 0.400805 0.362681 0.049088 -0.250747 -0.023901 -0.402661 -0.023201 0.301655 0.814611 -0.485323 0.566261 -0.046217 0.206573 0.030949 -0.125229 0.306420 -0.065053 -0.193965 0.385154 0.394315 0.015362 -0.115729 0.134489 0.027866 -0.639030 0.162030 0.332134 0.547328 0.186541 0.144683 0.123134 0.561471 -0.297744 -0.584017 0.091751 -0.582471 -0.002269 0.663364 -0.252051 -0.125195 -0.022254 0.243323 0.349666 0.502093 0.490564 -0.046084 0.371870 -0.395698 0.473897 0.330204 0.874476 -0.332554 0.179997 0.544324 0.159539 0.594426 0.216591 0.462845 -0.521566 0.649312 -0.691521 -0.380716 0.405507 -0.325627 0.004378 0.151744 0.031953 0.069981 0.327407 0.049666 -0.031069 0.814553 -0.230361 -0.060696 0.150311 -0.194007 0.231954 -0.297432 -0.181385 -0.460978 -0.326105 0.061860 0.039644 -0.202446 -0.187405 0.568295 -0.117948 0.158368 0.165454 -0.220056 -0.188032 -0.582782 0.408362 -0.738507 -0.470202 -0.097690 0.122628 0.416275 0.046089 -0.110107 -0.167526 -0.110667 0.044444 -0.358557 0.385783 0.376580 -0.244505 -0.274089
gca_002899435 -0.431149 -0.201975 0.069131 0.018025 -0.039099 -0.089667 -0.025337 -0.671975 -0.103627 0.011303 0.396406 0.415954 -0.383298 -0.224574 -0.156736 -0.748201 -0.210470 -0.396754 -0.865379 0.445480 0.138196 0.514089 -0.056248 0.259650 -0.318285 -0.560347 -0.540528 1.011890 0.327427 -0.314732 0.019972 -0.418085 -0.215150 0.083954 -0.101499 0.062829 0.059137 -0.300974 0.380447 1.132313 0.296470 -0.380553 0.548834 0.321398 -0.901696 -0.018547 0.381054 0.922143 -0.410249 -0.066189 0.139245 0.059309 -0.481928 -0.065550 0.850044 -0.847466 0.144624 0.195077 -0.841198 0.423882 -0.808542 0.465823 -0.285453 0.696375 0.410461 -0.248053 -0.140991 -0.918826 0.158172 0.269327 0.713184 -0.310119 0.799395 0.401099 0.399918 0.769711 0.068827 1.118863 -0.851568 1.398948 -0.367347 -0.005587 -0.238119 -0.601695 0.433915 0.157693 -0.085477 0.073709 0.585005 -0.068939 0.425257 0.373191 -0.036597 0.203026 0.073252 -0.534731 0.388651 -0.296669 -0.671309 -0.420073 -0.333246 0.402645 -0.387533 0.318167 0.367740 0.654555 -0.374491 0.235079 0.304486 -0.609300 -0.316097 -1.140285 0.252798 -0.158604 -0.309720 -0.178885 0.243319 0.255273 0.192235 0.237022 -0.170911 0.267629 -0.315744 0.077368 0.746057 0.256344 0.048701 -0.613387
gca_000253235 0.489598 -0.488802 -0.078761 0.602757 0.059552 -0.683667 -0.435058 0.122708 -0.018197 0.393304 0.096440 0.029485 -0.291754 0.485354 -0.531578 -0.105774 -0.268264 -0.068641 0.189563 0.388968 0.836214 0.349265 0.013440 -0.298154 -0.082956 -0.597175 -0.032284 0.689532 0.406176 -0.379414 0.248642 -0.506545 -0.681676 -0.062221 -0.077886 0.619311 0.396683 0.147801 0.570633 1.221843 0.043140 -0.123063 -0.483445 -0.509504 -0.240164 -0.231384 0.228401 0.497607 0.149690 0.182480 -0.129160 0.670506 -0.469087 -0.608238 0.530423 -1.104625 -0.152413 0.874789 -0.403066 0.319316 -0.395324 0.183771 -0.188322 0.326827 0.282072 0.215167 0.285225 -0.646797 0.582064 0.159262 0.971304 -0.279382 0.665185 0.529747 -0.081219 0.814781 -0.243897 1.078055 -0.425675 0.672738 -0.780238 -0.367694 -0.169207 0.461853 -0.032381 -0.290543 -0.069677 0.137201 0.266934 -0.501626 -0.281345 0.863706 0.321788 0.184423 0.657325 -0.351965 -0.217028 -0.199109 -0.896532 0.037980 0.177430 -0.054874 -0.602476 -0.486302 -0.086674 0.461163 -0.081941 -0.688575 0.240544 0.014336 -0.845782 -0.568284 0.142259 -0.311179 -0.605458 -0.386692 -0.028417 -0.410752 -0.458978 0.304397 -0.544183 0.128989 0.004404 0.106128 0.831474 0.078628 -0.776482 -0.142412
NC_003460 -0.457184 0.162977 -0.459551 0.237877 0.351848 -0.770668 0.217428 -0.380575 0.081170 -0.776405 0.034643 0.008319 -0.619720 0.069500 0.126950 0.230043 0.095075 -0.708650 -0.236664 0.938997 -0.354427 0.324773 0.303675 -0.046223 -0.391794 -0.418895 0.409202 0.075660 0.310874 -0.203638 0.600238 0.077719 0.278643 0.175664 -0.463261 0.051895 -0.026796 -0.432119 0.580652 0.796169 -0.024731 -0.093204 -0.527524 -0.469695 -0.154382 0.696240 0.211173 0.174134 0.235853 -0.016829 0.250219 0.307648 -0.184138 -0.191617 0.196853 -1.069868 -0.083353 0.792951 0.242660 -0.160774 -0.900732 0.743521 -0.212338 1.027408 0.539011 0.305412 0.126758 -0.941383 0.294778 -0.381029 0.576533 0.334800 0.084528 0.195999 0.053067 0.703824 0.329044 0.700485 -0.683665 0.602670 -1.006490 0.061673 0.505837 -0.226778 0.234983 0.023225 0.315084 0.066810 -0.380631 -0.879700 0.571353 1.055408 -0.185006 -0.173550 0.756099 -0.746882 -0.210083 -0.543308 -0.174449 -0.719048 0.239537 -0.102535 -0.475063 0.434318 0.019724 0.221989 0.048579 0.717908 -0.644156 -0.136798 0.287960 -0.650733 0.107198 0.109449 -0.790976 -0.449720 0.111057 0.579454 -0.060677 0.075160 -0.136106 -0.407905 0.453716 -0.595445 0.081234 -0.031162 -0.538203 0.271819
gca_000504745 0.071010 -0.301247 0.150107 0.087609 0.436303 -0.210776 0.133853 0.274574 0.160807 -0.200681 0.231364 0.150647 -0.396850 -0.319641 0.572696 -0.496172 -0.207995 -0.556142 -0.630744 0.176957 0.407975 0.143402 -0.245080 0.286434 -0.204289 -0.073613 0.528685 0.543479 0.483801 -0.587873 -0.377774 0.056211 -0.245123 0.592443 -0.360368 0.350369 0.169802 0.488944 0.456260 0.799945 -0.221291 -0.234925 0.120900 0.159448 -1.264174 0.348597 0.928076 0.310471 0.107515 0.301706 -0.078828 0.223640 -0.336660 -0.252496 0.262081 -0.710774 0.409578 0.379769 -0.248147 0.090877 -0.121092 0.985505 -0.065677 0.343127 0.508104 0.300780 0.001166 0.360759 0.143933 0.473063 0.925319 -0.649549 -0.040330 0.333061 0.101331 0.870842 0.868697 0.385512 -0.392616 0.238768 -0.583747 -0.588586 0.096149 -0.629389 0.094510 -0.118820 -0.546124 0.178104 0.280295 0.097819 0.483863 0.177721 0.776896 0.138285 0.009036 -0.899536 0.268404 -0.247929 -0.391810 -0.151368 -0.962631 0.143140 -0.556666 0.213805 -0.130845 -0.234300 -0.316768 0.385084 0.018412 -0.131928 0.099404 -0.949102 0.464442 -0.769354 -0.516384 -0.407463 -0.495044 0.190958 0.040996 0.051789 -0.230102 -0.613471 0.029970 -0.411943 0.638701 0.627746 -0.549550 -0.293701
gca_000411215 -0.009748 0.270966 -0.004152 0.919045 0.576379 0.245412 0.634226 -0.521692 -0.083488 -0.386958 -0.367194 -0.269441 -0.493818 -0.155082 0.405546 -0.037500 0.078869 0.132467 -0.800566 0.110041 0.923475 0.458589 0.042895 0.283089 -0.018893 -0.048241 -0.049017 0.381409 0.801813 -0.157853 0.091062 0.114037 0.206952 0.466457 -0.080174 -0.164133 -0.103036 0.461470 0.320317 0.124793 -0.134788 -0.480094 -0.203492 -0.054417 -0.592916 0.102351 0.908225 0.125948 0.369262 0.366392 0.460559 -0.152364 -0.747505 -0.354990 -0.174149 -0.805126 0.413505 0.792738 0.165299 0.018653 -0.217442 0.588404 -0.124514 0.933171 0.420423 0.256308 -0.045161 -0.421037 0.092713 0.518566 0.916747 0.177879 -0.152496 0.145485 0.073226 0.983978 0.640934 0.345293 -0.869361 0.228229 -0.029359 -0.336427 0.269440 -0.204803 -0.398543 -0.377372 -0.322670 0.260707 0.835179 -0.154610 0.231154 0.314467 0.268693 -0.118409 -0.097207 -0.562595 0.021574 -0.196351 -0.266650 -1.203652 -0.600871 0.581391 -0.147391 0.395840 0.046190 0.056811 -0.474812 0.606005 -0.014387 0.290006 0.245084 -1.514868 0.094246 -0.568141 -0.429165 -0.315306 0.348301 0.143499 0.188545 -0.099441 -0.236863 -0.101772 0.075521 -0.205832 0.968416 0.532045 0.117274 -0.074465
NC_008562 -0.350582 0.349238 -0.596410 0.265000 0.000765 -0.402584 -0.076731 -0.065343 -0.025393 -0.404406 -0.067691 -0.454246 -0.744212 0.387204 0.183167 -0.472970 -0.297941 -0.118338 0.031677 0.105733 0.611112 0.114494 -0.262456 -0.477660 -0.084632 0.208870 0.028665 0.418077 0.406597 -0.345935 0.588328 0.245270 0.614813 -0.148026 -0.220991 0.180723 0.706971 -0.031997 0.097204 0.075391 -0.047321 0.067690 -0.211375 -0.161007 -0.348958 0.061081 0.654113 0.135606 0.400590 -0.419099 0.230516 0.676005 -0.552507 -0.343568 0.814416 -0.477585 0.258315 0.998533 0.052820 0.156524 -0.793354 0.068461 0.077511 0.397598 0.560580 0.015829 -0.148311 -0.291717 0.475783 0.114718 0.880281 -0.230898 -0.098174 0.578459 -0.498819 0.677042 0.129944 0.715009 -0.359117 0.579637 -0.472907 -0.349589 -0.170188 -0.633335 -0.016544 -0.240346 -0.271898 0.352277 0.473757 -0.070626 0.057484 0.696625 -0.227864 -0.149559 -0.161523 -0.321049 -0.702545 -0.002612 -0.695561 -1.074353 0.206608 -0.050947 -0.046761 0.032405 0.237281 -0.267524 0.218908 -0.395194 0.238576 -0.070330 0.178065 -1.049512 0.033629 -0.846590 -0.624309 -1.055317 -0.010009 -0.005766 0.002255 -0.261583 -0.831821 0.460600 0.033251 -0.836542 0.063958 -0.256547 -0.213152 0.426615
NC_005964 0.723615 0.072054 -0.127970 0.833851 0.150630 -0.134039 0.207228 -0.682306 0.000816 -0.636599 0.240285 -0.242367 -0.554066 -0.493907 -0.134766 -0.139017 0.344340 0.364719 -0.361235 0.319691 0.309614 0.295822 0.062702 -0.015930 -0.272984 -0.649097 0.291781 0.625580 0.698552 -0.235629 0.024977 -0.126374 -0.506244 -0.219813 -0.404517 0.105008 -0.176457 0.021200 0.273128 0.539053 -0.138142 -0.473274 -0.053220 0.286875 -0.567527 0.344463 0.876123 -0.095307 -0.004186 -0.048635 0.499278 0.616624 -0.151349 0.229729 0.018487 -1.022349 0.037835 0.936046 -0.538595 0.225942 -0.430718 0.486034 -0.415849 0.616013 0.372976 0.269168 -0.056487 -0.571543 0.410829 -0.351425 0.729299 -0.191742 0.222183 0.377130 0.236983 1.026377 0.116632 0.694875 -0.619826 0.623781 -0.675687 -0.125623 0.843831 0.362944 0.023202 0.210713 0.027809 -0.019116 0.488714 -0.000920 -0.172048 0.913564 0.086445 0.250192 0.599140 -0.429139 0.204098 -0.229000 -0.010596 -0.915614 -0.127130 0.561771 -0.345325 0.314584 -0.664960 0.622715 0.445168 0.289040 -0.094174 0.216109 0.167097 -0.760737 0.522168 -0.028956 -0.725470 -0.257877 0.298323 0.601981 0.261169 0.142005 -0.289144 0.169691 -0.120137 0.259920 -0.075690 0.247008 -0.322736 -0.733490
NC_023558 0.321055 -0.296706 -0.430271 0.484237 0.558179 -0.448630 0.234139 0.159555 0.283426 0.107806 -0.252874 0.203054 -0.799930 -0.094792 0.271511 -0.307523 0.184907 -0.587672 -0.630650 0.884103 0.113581 0.480236 0.297622 0.270265 -0.344082 -0.077330 0.004583 0.860218 0.282637 0.016943 1.031649 -0.219125 0.552395 0.645423 -0.079463 -0.046780 -0.758093 -0.101560 0.218337 1.375455 0.067830 -0.058366 -0.278408 -0.463397 -0.467231 0.064467 0.181080 0.050453 0.508326 0.486380 -0.453314 0.305457 -0.362004 -0.277978 0.049450 -0.531944 0.160977 0.669230 0.151913 0.330217 -1.378444 0.825982 -0.584943 0.735452 0.232567 -0.139735 -0.203719 -0.671883 0.320310 -0.099836 0.605702 -0.529325 0.166904 -0.439149 0.150406 1.000337 0.273666 0.615894 -0.645219 0.353657 -0.465403 -0.244392 0.354096 -0.095001 0.310066 -0.005652 -0.165591 0.374210 -0.110985 0.108208 0.124552 1.009712 0.272675 -0.265009 0.755296 -0.640116 0.249091 -0.264038 -0.414742 -0.867860 -0.029806 0.249693 -0.427236 0.293736 0.047607 0.120398 -0.135199 -0.628598 0.068746 0.130012 -0.157127 -0.778178 0.545539 -0.371876 -0.902588 -0.519377 0.313398 0.259339 0.086211 0.028868 -0.444806 -0.180805 0.144189 -0.162097 0.372008 0.720790 -0.484787 -0.005077
NC_008355 -0.254405 0.095293 -0.340322 0.465598 0.329979 -0.456992 -0.023166 0.128859 0.003837 -0.112643 -0.098960 -0.013527 -0.451532 0.096298 0.139967 -0.043423 -0.082548 -0.349948 -0.109167 0.164093 0.393557 0.255101 0.060801 -0.211795 0.004392 -0.362029 -0.010546 0.199690 0.738774 -0.330708 0.478277 0.040399 0.224980 0.005937 -0.118475 0.230526 0.068552 0.038847 0.316838 0.226099 -0.204833 -0.194526 0.055537 0.017666 -0.564917 0.049557 0.282086 0.292519 0.221148 -0.009230 0.253226 0.478364 -0.191177 -0.386486 0.135756 -0.565425 -0.119625 0.638875 -0.147629 -0.093699 -0.130126 0.168207 0.245444 0.488699 0.351202 -0.027341 0.198038 -0.170706 0.295593 0.236865 0.669943 -0.423595 0.144485 0.403114 0.023280 0.547644 0.138144 0.447987 -0.380419 0.415514 -0.599246 -0.242444 0.359152 -0.305767 0.099278 -0.018573 -0.064531 0.106901 0.223484 -0.136532 0.032494 0.643971 -0.156507 -0.198466 -0.002094 -0.261315 -0.072082 -0.206656 -0.258435 -0.464001 -0.156059 0.029785 -0.109480 -0.104743 -0.174347 0.400691 0.021911 0.124307 0.060148 -0.140453 -0.083820 -0.632406 0.395096 -0.674376 -0.464184 -0.211545 0.096018 0.271038 0.073462 -0.218562 -0.416230 -0.063933 -0.077322 -0.421281 0.246325 0.205269 -0.130182 0.063845
